-0.0317581,0.331244,0.533721,-0.330646,-0.415693,-0.38853,0.0104181,-0.0826596,-0.00702697,-0.0423686,-0.643263,-0.271454,0.0584327,-0.0102373,0.25579,-0.131894,-0.259692,0.0923771,0.164583,0.503888,0
-0.0149346,0.112234,0.102642,0.134894,-0.124092,-0.154924,-0.321491,0.0675161,-0.127258,0.607195,-0.616486,-0.093389,0.150219,-0.249278,0.279136,-0.369961,0.182003,-0.192861,0.30795,0.0165214,0
-0.267699,0.0808432,-0.296685,0.366996,0.226493,0.206388,-0.347018,0.0986977,-0.475432,0.893152,-0.336105,0.0244649,-0.313631,-0.184141,-0.110851,0.0504029,0.190406,-0.0253467,0.182954,0.0507758,0
-0.438413,-0.0155976,0.139628,0.205059,0.0455256,-0.315886,0.0557963,0.410728,-0.482814,-0.477514,0.20937,-0.121075,-0.533346,0.0531825,0.545952,0.0963995,-0.0973891,-0.163375,0.390007,0.42022,0
-0.102819,0.0621468,-0.0972198,-0.60555,0.129993,-0.100351,-0.722456,0.40113,0.12902,-0.546669,-0.48595,-0.040496,-0.0387696,-0.0655292,-0.0216411,0.393714,-0.0359186,0.143198,0.172265,0.0401053,0
0.281464,-0.264662,-0.080573,-0.301328,0.117971,-0.0510184,0.219257,0.34268,0.231069,0.206714,0.424703,0.161279,-0.0554681,-0.45367,-0.107549,0.120711,-0.417546,-0.252618,-0.0676415,0.0114571,0
-0.184554,-0.210226,-0.514085,-0.413842,-0.032808,-0.15999,0.0200345,0.0527752,0.832894,-0.426636,0.573193,-0.209489,0.46524,0.534537,0.179348,0.0207439,-0.082542,-0.285671,-0.359402,0.692827,0
-0.229233,0.106672,-0.121826,0.543881,-0.0976739,-0.407419,-0.599859,0.132194,0.51152,-0.0580859,0.261351,0.210414,-0.479813,-0.412793,-0.501073,-0.0485893,0.339487,-0.218886,-0.21929,-0.694658,0
-0.133776,0.116716,-0.1099,-0.00866029,-0.0320279,-0.0893535,0.0285391,-0.0733196,0.381708,-0.23029,0.366466,-0.0791243,-0.0538401,0.0544919,0.108548,0.263074,-0.219784,-0.140186,0.0466233,-0.181835,0
-0.0164775,-0.0379923,-0.0110106,-0.210972,-0.398074,-0.380968,-0.23072,-0.0655078,0.548061,0.371174,-0.10868,0.24858,0.531059,0.368362,0.281276,-0.100128,0.0209111,0.215042,0.138592,-0.225369,0
0.0691541,-0.0098544,0.303802,0.176419,-0.129421,0.240032,-0.342396,-0.403278,-0.394122,-0.106568,0.348981,0.288727,0.499509,-0.180739,-0.275419,0.569834,-0.270569,-0.624222,-0.023238,-0.507206,0
0.653613,0.441119,-0.354583,-0.0847417,-0.192146,-0.37644,0.31782,-0.210166,-0.225876,-0.137005,-0.697568,0.381052,-0.274745,0.0102379,-0.319241,-0.472999,0.209215,-0.394013,0.4996,-0.164971,0
0.217341,0.371691,-0.19165,-0.622259,0.742404,-0.435582,-0.433084,0.0338343,0.363257,-0.804059,0.482531,0.710542,0.17506,0.395826,0.378209,-0.185335,0.180544,0.336746,-0.0203451,-0.398037,0
0.0400046,0.260969,-0.145803,-0.203085,0.603018,0.294391,0.345532,0.432894,-0.100075,-0.134246,-0.256994,0.0267406,0.0253387,-0.18766,-0.146668,0.621544,0.170052,-0.327495,0.407945,0.134779,0
-0.000413088,0.184279,-0.74225,0.333941,0.364488,-0.596403,-0.00909503,0.490338,-0.090162,0.207582,-0.404637,0.346182,-0.0115781,-0.626687,-0.186637,-0.377595,-0.253307,-0.125946,0.485789,-0.385927,0
-0.000365753,0.123743,-0.00849212,0.125983,-0.20001,0.14646,-0.116086,-0.0499691,0.140328,0.106882,-0.2286,-0.0614812,0.438543,-0.10826,0.410873,0.661612,0.422684,-0.318597,0.410456,0.049229,0
-0.180246,-0.269356,0.41039,-0.3787,0.13877,-0.160255,0.167761,-0.251823,0.305754,0.259745,-0.334433,0.0537438,0.248143,-0.347293,0.310335,-0.148547,-0.287492,-0.0320734,-0.0239334,-0.443282,0
-0.43305,0.0276675,-0.328685,-0.372961,0.31946,0.0202045,-0.210476,0.182521,0.250563,-0.0977458,-0.149175,0.192586,-0.235827,0.232451,0.0680979,0.381764,-0.0571207,-0.110233,0.126976,-0.169599,0
-0.724154,-0.360815,-0.192869,-0.143626,-0.503899,-0.212303,0.0611208,0.0204501,0.23699,0.102349,-0.131794,-0.182611,-0.224815,-0.091693,-0.495325,0.518533,-0.427769,0.0724142,-0.148099,0.0686728,0
-0.145857,0.0989575,0.430365,-0.0513026,-0.066943,-0.275084,0.7365,-0.126902,0.124845,-0.100342,-0.324217,-0.181478,0.124321,-0.0333834,0.526672,-0.0911667,0.088397,-0.122296,-0.0529716,-0.00457805,0
-0.113951,-0.0618974,0.125317,-0.256729,-0.421225,0.00353376,-0.278335,0.312216,-0.031156,0.0852975,0.147548,0.304754,0.287115,0.19632,0.820698,-0.289419,0.236331,0.239798,0.0164849,-0.219656,0
0.0132129,0.280779,0.291395,-0.665752,0.0941615,-0.318861,-0.292499,-0.0242865,-0.269706,0.304369,0.878435,-0.304991,-0.32828,0.026379,-0.233901,0.0205931,-0.178122,-0.142131,-0.0205519,0.0141729,0
-0.339616,-0.0282885,0.19051,0.113118,0.217041,0.279523,0.273627,-0.386192,-0.0458122,0.194465,0.586494,0.196137,-0.051115,-0.586485,0.136655,-0.16177,0.159391,-0.190478,-0.281754,0.23779,0
0.0142704,-0.359015,-0.260304,-0.0913499,0.0874299,0.109758,-0.143341,0.185947,0.111763,-0.209687,0.463518,0.0701339,-0.557892,-0.399258,0.240907,0.0708918,0.158874,-0.0790037,-0.234347,-0.291136,0
0.220764,0.138234,-0.0430442,0.100004,-0.124193,0.00295375,0.164518,-0.027764,0.45825,-0.36881,-0.0665131,0.189373,0.151161,0.0761293,0.0857235,-0.863776,-0.279869,0.257549,0.46265,0.391166,0
-0.217806,0.297123,0.168937,-0.00938221,-0.202036,0.0793736,0.289792,-0.191533,0.13372,0.708664,-0.263963,0.205505,0.140198,0.331253,0.272257,-0.373915,0.0985418,-0.132232,0.232062,-0.601459,0
0.0245037,-0.671522,0.537894,-0.324333,-0.21343,-0.093208,0.0464611,0.676675,0.0817283,0.107346,-0.119033,0.488875,-0.643756,0.196954,0.202908,0.583687,-0.189822,0.436517,0.37316,-0.481799,0
0.0808957,-0.425502,0.013573,0.00927188,-0.0330346,0.0886452,0.299923,-0.227495,-0.176823,0.347158,0.332015,0.514029,0.302083,-0.754547,-0.503077,0.118942,-0.0758435,-0.303773,-0.133966,-0.0878481,0
-0.594137,0.120265,0.237514,-0.2548,-0.516251,0.0240025,-0.72374,-0.144964,0.302306,0.196721,-0.389724,0.0584535,-0.378084,0.00400368,-0.117006,0.45463,-0.475259,-0.0703282,0.058795,-0.00560445,0
-0.544218,-0.0448986,-0.023107,-0.872268,0.155481,0.241863,-0.359945,0.543915,-0.249478,-0.102809,0.0600117,-0.314502,0.167616,-0.268573,-0.388853,0.469365,0.324003,0.0798692,0.0645617,0.0134222,0
0.134967,-0.337372,0.0450116,0.0862246,-0.0977721,-0.0876849,-0.49511,0.320366,0.395529,-0.451767,-0.0511664,0.131919,-0.056484,0.0131587,0.556908,-0.0931264,-0.23097,-0.78978,0.870984,0.0827225,0
0.044359,0.227452,-0.435279,-0.420417,-0.187382,-0.195595,0.385654,0.0488234,0.0455306,0.00716266,0.389007,0.13574,0.190573,-0.0134016,0.533086,-0.140833,0.0537332,0.379995,0.17337,-0.271689,0
0.560854,0.445539,0.461203,0.91371,0.294497,0.777138,-0.167373,-0.0167846,-0.0838489,-0.0317358,0.308946,-0.257828,0.95584,-0.309488,0.130806,0.305194,0.384596,-0.258414,0.39354,-0.0609371,0
-0.175491,-0.0726081,0.328531,-0.295492,0.00433915,0.315314,0.278498,-0.184398,0.294784,0.260572,0.742767,-0.0820037,0.16535,0.594971,0.131409,-0.281893,0.156834,-0.248015,0.0231462,0.458783,0
0.481516,0.368244,0.17179,-0.123916,0.655659,-0.36058,0.0817264,0.35208,0.0602022,0.12339,0.491439,-0.0522269,0.388524,0.226293,-0.284364,-0.18321,-0.123706,0.840419,0.287119,-0.259307,0
0.0628981,0.157785,0.393277,0.588661,0.20534,-0.405227,0.441405,-0.473319,0.271928,-0.561766,0.188883,-0.210695,0.0612,0.240411,0.18681,0.317986,-0.237231,0.463246,0.32846,0.615014,0
-0.383082,0.217469,0.18151,-0.517063,0.0672573,-0.179491,-0.00389682,-0.598021,-0.0359403,0.0584348,0.0696613,0.309864,0.489914,0.000974274,-0.217584,-0.889327,-0.197967,0.269619,0.345118,0.275688,0
-0.212409,0.446463,0.132575,-0.237387,-0.422253,0.148798,-0.041497,-0.238496,0.137959,-0.687297,0.143573,-0.276122,0.246158,0.0534757,0.0463791,-0.154947,0.191257,-0.332217,0.184221,-0.451661,0
0.156391,0.039795,0.886147,0.0259142,0.0153685,0.155067,0.107848,-0.107495,-0.0341119,-0.192275,0.0016122,0.13947,-0.0118445,0.492816,0.0735463,0.527821,-0.490974,-0.39014,-0.282143,0.243391,0
-0.644458,0.00995571,0.578184,-0.4391,0.058106,-0.0600256,-0.644308,-0.319343,-0.1331,0.0996407,-0.0522419,-0.0348207,0.322514,-0.0249572,-0.213142,-0.0814948,0.315739,0.487935,0.0711194,0.190728,0
0.0572524,-0.454076,0.312601,0.34716,-0.0440843,-0.376523,-0.0857481,-0.00496113,-0.224068,0.0544302,-0.151806,0.234794,0.439112,-0.141052,-0.155449,-0.848235,0.110529,0.131347,-0.136221,-0.0536095,0
0.397173,-0.344564,0.159441,-0.41345,-0.122395,0.108864,-0.0570494,-0.489218,0.0836251,0.59267,-0.341249,-0.260135,-0.113263,0.083359,-0.3073,0.106896,0.69103,-0.0494311,-0.365918,-0.546225,0
-0.235249,0.048787,-0.0048272,0.381839,-0.312119,0.246767,0.570428,-0.0499268,0.600854,-0.392811,-0.0312039,-0.502716,0.392512,-0.0408672,0.135172,0.196006,-0.07849,0.197594,0.207839,0.0508318,0
-0.165227,0.408403,0.0357925,-0.00647957,0.059411,-0.0310234,-0.284583,-0.100582,-0.361042,0.012974,0.514133,0.198597,0.464655,-0.69685,-0.100489,-0.29111,-0.135248,-0.293193,-0.257668,0.164829,0
-0.0390226,-0.0959794,-0.504675,-0.343844,0.424814,-0.00157212,0.17946,-0.182765,0.293631,-0.282423,-0.55954,-0.0189096,-0.0757827,0.0316225,0.323728,0.469332,0.1343,-0.372839,-0.0704254,-0.349496,0
-0.524849,-0.0338214,-0.039309,-0.105979,-0.303388,0.313473,0.0491536,0.0909609,0.187017,-0.475014,-0.251823,0.0395283,0.772941,-0.227139,0.295695,-0.42421,-0.246804,0.30215,0.0397587,0.109321,0
-0.189897,0.0139279,-0.125022,0.312179,-0.0521435,-0.205134,-0.0544051,-0.503152,-0.310571,-0.158333,-0.0848467,-0.186813,0.288681,0.0949652,-0.193553,0.115439,-0.134158,-0.584835,0.122171,0.279567,0
0.216572,0.0102174,0.157635,0.265514,-0.321105,0.0485714,-0.016994,0.153128,-0.00806153,-0.0496102,-0.123104,-0.509071,-0.441681,0.069566,0.184019,0.0546488,-0.113623,0.0206568,0.116153,0.0998512,0
-0.101379,0.288685,0.077048,-0.578354,0.369828,0.0490519,-0.151177,-0.0792716,-0.0394369,-0.358803,-0.107586,-0.0635543,0.387568,0.232251,0.0781111,-0.287593,-0.045453,-0.189806,-0.0290433,0.277856,0
-0.154071,0.178578,0.133846,-0.069556,0.276484,0.527407,-0.0781117,-0.165758,0.383942,-0.217987,0.0318454,-0.32145,-0.624182,-0.264661,-0.360082,-0.279339,0.169314,-0.00983833,0.303997,0.383987,0
0.136874,-0.403795,-0.48638,-0.307614,0.105889,-0.0396177,0.189924,-0.547111,-0.380347,-0.0270748,0.169111,-0.380122,-0.000846027,0.160973,-0.123143,-0.0189488,0.721125,-0.231708,0.370579,-0.675448,0
-0.323082,-0.262712,0.26721,-0.837581,-0.293332,0.108992,0.245339,0.388519,0.00208226,0.570072,-0.418445,0.120119,-0.0719721,0.278098,0.473425,-0.627025,-0.177296,-0.143964,0.178861,-0.393338,0
-0.133772,0.451703,0.131418,0.359618,0.407917,0.200403,-0.219207,-0.32032,-0.488917,-0.0701955,-0.267882,0.206252,-0.664382,0.417533,0.224582,0.00492791,-0.047432,-0.671973,0.144793,0.574982,0
-0.0363047,-0.437239,0.0573894,0.0753852,-0.171806,-0.947073,0.317388,0.414037,-0.226649,0.22639,-0.0950406,0.00622571,0.22317,-0.339306,0.525987,-0.219316,0.834186,0.334511,-0.561104,-0.0996272,0
-0.142276,0.333515,0.18337,0.0313261,0.102349,-0.0154895,0.169483,0.475679,-0.0308047,0.642837,0.0880286,-0.169277,-0.326468,0.396173,0.610847,-0.39141,0.150721,0.476261,0.500443,0.29119,0
-0.146237,-0.692001,0.0576732,-0.343518,0.0369675,-0.382288,-0.0716445,-0.0405026,0.231941,-0.00763587,0.501505,-0.31143,-0.839506,-0.00574932,-0.0730153,-0.190894,0.359908,0.15534,-0.0134469,0.314428,0
0.36094,0.303692,0.186345,0.121186,0.341881,-0.201484,-0.380046,-0.557883,0.127995,-0.0975092,0.0861208,-0.0951093,0.242882,0.781338,-0.0801111,0.234096,0.301492,-0.15141,0.25063,-0.302414,0
0.387836,0.478235,0.0712585,-0.0179232,0.304121,0.271384,-0.152838,-0.0365587,0.0220987,-0.530456,0.46842,0.449803,0.431132,0.128911,-0.402008,0.118448,0.166552,-0.273042,-0.51722,-0.134351,0
0.623277,0.192857,0.551485,-0.0684439,0.505219,0.108886,0.450144,-0.282251,0.453679,-0.068334,0.3734,0.0529972,-0.0176903,0.0306844,-0.476701,0.45695,0.0978329,-0.275341,-0.313984,-0.13404,0
-0.319634,-0.106419,-0.236176,-0.311881,-0.095604,-0.606319,0.331188,-0.0250333,-0.399501,0.406273,-0.131541,-0.349003,0.20305,-0.450571,0.199868,-0.146898,-0.00240808,-0.0857648,0.12281,0.100192,0
0.0216684,0.176208,-0.106375,-0.126733,-0.0581916,-0.547759,-0.168135,-0.021374,0.339557,-0.349418,0.226378,-0.253038,-0.0470192,-0.132688,-0.0575835,-0.229098,-0.240377,0.0546749,-0.135588,-0.373298,0
-0.292067,-0.0668087,0.0720723,-0.135163,0.36657,0.0899876,0.0678447,0.271368,-0.116761,-0.533584,-0.159661,-0.0906224,0.291319,0.502126,-0.944996,0.380599,0.135933,0.125767,0.253049,0.219295,0
0.0971901,0.0773156,0.017745,-0.0113956,0.488762,0.103913,-0.216944,-0.177177,0.210351,0.162785,0.0400216,0.146159,0.124278,-0.32915,0.170132,-0.0202363,-0.237524,-0.109664,-0.252161,0.17756,0
-0.108338,-0.545776,0.472961,0.0689896,0.38302,-0.0430748,0.179589,0.413431,-0.267956,0.155151,-0.148435,0.258245,-0.10305,-0.237039,0.44855,0.171802,0.0344881,0.0312394,-0.0879235,-0.590218,0
0.178798,-0.430451,0.163748,0.311246,0.284744,-0.152403,-0.584547,0.103254,0.125033,0.232468,-0.408144,0.244635,-0.259592,-0.124456,-0.158388,0.0826377,-0.140656,-0.698461,0.560843,0.389255,0
-0.0887034,0.173177,-0.159683,0.594064,-0.15691,0.170296,0.100547,-0.0167948,0.0592845,0.179245,0.59181,0.487193,-0.315523,0.20314,-0.107644,-0.2726,0.256675,-0.216548,-0.135949,0.376292,0
0.16293,-0.162264,-0.20865,0.338421,0.334256,0.017432,-0.144998,-0.457057,-0.151373,0.22872,0.0505798,0.668872,0.26693,-0.530571,-0.298631,0.188946,0.533152,0.230835,0.109894,-0.0139307,0
-0.193396,-0.0849927,-0.230951,-0.143187,-0.190506,0.125265,0.148677,0.499962,0.166219,-0.111093,0.0604266,-0.690359,-0.476398,-0.365378,-0.0725786,0.128939,-0.0801743,0.486614,0.223768,0.258724,0
-0.723957,0.0311526,-0.289679,-0.0774028,0.362752,0.127143,0.111009,-0.0764501,0.242512,0.336804,0.298073,-0.312892,-0.319785,-0.454149,-0.162781,-0.30991,0.1831,-0.00776629,0.120779,0.353442,0
-0.0923718,-0.33743,-0.198884,-0.376699,-0.00396373,0.156048,0.387074,-0.0555826,0.352142,-0.559342,0.02971,-0.25136,-0.0890773,-0.65005,0.219723,0.0988285,0.73396,-0.654053,0.333535,-0.141471,0
-0.587078,-0.223657,0.00793371,-0.0940954,0.460825,-0.0114973,-0.136114,-0.583325,0.277516,0.108438,-0.294831,0.00847356,0.0798358,0.0571853,0.0332174,0.232021,-0.402248,-0.242699,0.196405,-0.224356,0
0.221611,0.239468,0.151822,-0.00233572,0.247321,-0.502214,0.390184,-0.0243093,-0.0627733,0.530731,0.428407,0.494782,-0.0663889,0.102404,0.0116301,-0.0667151,-0.159742,-0.300768,-0.0382431,0.0291303,0
0.147903,-0.0470312,-0.263692,-0.194434,0.497665,-0.212715,-0.258136,0.535756,0.0176362,0.176163,0.0312753,0.085261,0.267728,0.0861142,0.490507,0.13255,0.0869891,0.305037,0.15115,0.00478719,0
-0.371436,0.593873,0.42006,0.120484,0.791375,0.107807,0.0217934,0.313926,-0.257239,-0.414092,0.0522803,0.353379,0.223618,-0.0589224,0.0379482,0.0719468,-0.574238,-0.139342,0.300468,-0.0540824,0
0.0176117,0.144855,0.31172,-0.532439,0.455979,0.121751,0.207392,0.301119,-0.587657,0.190937,0.371827,0.0396642,-0.187398,0.389206,0.457769,0.154898,0.192372,-0.185433,-0.0272399,0.386221,0
0.127578,-0.67815,0.0924877,-0.469021,-0.226688,0.766379,0.00120472,-0.625499,-0.392204,-0.269552,-0.909409,0.348138,0.0319461,-0.375652,-0.166355,-0.514033,-0.781493,-0.0761147,-1.09723,-0.596616,0
0.0656302,-0.258703,-0.128243,-0.36863,0.25423,0.226946,0.435856,0.0578352,-0.288202,0.166275,0.548017,0.158674,-0.194176,-0.0282026,0.213994,0.202613,-0.210124,-0.0573112,0.211709,-0.375548,0
0.280008,0.0182482,0.297676,0.366228,0.151861,-0.114043,-0.336751,0.11743,-0.0112959,-0.307406,-0.114139,0.0117101,-0.392693,0.145272,0.146017,-0.242867,0.258976,0.123342,-0.603115,0.456171,0
0.120681,0.184904,0.299147,-0.36298,0.0106706,0.369964,-0.0618868,0.296868,0.249102,0.041168,0.465062,0.0580403,0.198927,0.59582,0.175443,0.1679,0.645896,0.181556,0.454738,0.0136668,0
-0.191334,-0.0891816,0.193197,-0.188723,-0.624063,-0.0534069,-0.336144,-0.11108,0.707793,-0.576092,0.0576419,0.621543,-0.234272,0.757951,0.0138186,-0.121292,0.302644,-0.449121,-0.131387,0.405493,0
-0.116301,0.103844,0.304066,0.542122,0.082906,0.108862,0.0685449,-0.671349,0.696864,0.0548965,0.000889967,-0.0779573,-0.0567672,0.0346687,-0.053021,0.272064,0.0643321,-0.336799,0.38038,-0.308723,0
-0.470881,-0.362857,-0.177071,-0.197517,-0.00811473,-0.386628,-0.0681358,-0.207499,-0.411222,-0.402196,-0.0142776,-0.159376,0.0357619,0.291256,-0.330851,0.226954,0.251556,0.13739,-0.0307271,0.103311,0
-0.708457,0.246499,0.264811,0.380272,0.385858,0.292978,0.724179,0.213546,-0.534612,-0.449748,0.084128,0.0124479,-0.16392,0.104762,-0.0942702,-0.197094,0.0053137,-0.409743,-0.22172,-0.294648,0
0.0567018,-0.229462,0.590536,0.329292,0.343308,0.248387,0.250523,-0.464702,0.0972802,-0.0042998,0.00574526,-0.470652,-0.238793,-0.28951,-0.356017,0.288674,0.191956,-0.462635,-0.147137,-0.124053,0
0.258843,-0.279538,-0.152137,-0.131032,0.0646653,-0.173416,-0.0355116,-0.225908,0.405422,-0.273253,0.107653,0.149771,0.300793,0.255123,0.0295951,0.412843,0.054872,-0.127779,-0.000779973,-0.389284,0
-0.0796426,-0.0483439,-0.5264,-0.175796,-0.206863,0.141696,-0.153029,-0.00156104,-0.0416765,-0.186719,-0.423984,-0.526476,0.228225,-0.00321181,-0.284805,0.501903,0.115648,-0.312148,-0.359267,0.382609,0
-0.341614,-0.01772,0.140034,0.141971,-0.270661,-0.388541,-0.113903,-0.0996552,-0.0367492,-0.127331,0.00479317,0.306299,0.173806,-0.309772,-0.106831,0.201214,-0.492911,-0.117034,-0.31765,0.213216,0
0.0523709,-0.555301,0.495043,0.359349,0.106572,-0.637227,0.121795,0.466145,-0.487095,-0.335402,0.0548573,-0.0552866,-0.0900122,0.372053,0.428611,-0.503343,0.311072,-0.0673672,0.562372,-0.210413,0
0.0522266,-0.221982,-0.336236,0.129747,-0.00976148,-0.324323,-0.0811264,0.165193,-0.420625,0.428925,0.131681,-0.0894018,-0.30252,-0.425264,-0.261851,0.157466,0.375728,0.0365601,-0.226986,-0.10632,0
0.294783,0.188361,-0.334882,0.320532,-0.100048,0.339655,0.320468,-0.191678,0.0380997,-0.272859,0.157575,-0.00422431,-0.0233228,0.149139,0.212378,-0.323378,0.171948,-0.174918,0.257716,0.245069,0
0.196128,0.103019,0.101544,-0.0224307,-0.444684,-0.103687,0.410764,0.212867,-0.174991,-0.435588,-0.449987,0.0329753,-0.13907,0.13935,0.74147,0.286506,-0.0165809,0.22998,-0.0229281,0.570385,0
0.376643,-0.542075,-0.130537,-0.737673,-0.435307,0.521554,0.608897,0.181105,-0.256292,0.43065,-0.137649,-0.153417,-0.0766541,-0.187509,0.492831,0.326826,0.105708,0.133687,0.0887893,-0.0580285,0
0.320817,0.274734,-0.415907,0.124005,-0.222496,0.0679046,-0.571527,0.0590373,-0.21713,0.178362,-0.0270627,-0.699593,0.376277,-0.147208,0.134158,-0.0203551,-0.244945,-0.344223,0.0055457,0.462691,0
-0.420142,0.155895,0.182896,-0.505507,-0.0510988,0.322456,-0.0829261,0.0847247,0.11827,-0.0654678,-0.599814,-0.251566,0.383552,0.033825,0.327509,-0.0654775,0.201084,-0.240039,-0.126167,-0.0454336,0
-0.126474,-0.108149,0.265089,0.108506,0.259993,0.230089,-0.12148,0.570741,0.519168,-0.264205,-0.228699,0.243414,0.0925528,0.0197327,0.116169,0.0215641,0.315068,-0.173073,0.0245542,0.204424,0
-0.28884,-0.172222,-0.175907,0.192268,0.439906,0.472179,-0.168085,-0.375833,-0.147154,0.249272,-0.0501273,0.238432,-0.298621,0.121662,0.228044,-0.678441,0.0778715,0.165435,-0.128698,0.500542,0
0.527521,-0.200918,-0.124177,-0.211297,-0.325457,0.34459,0.348999,0.53913,-0.0743776,-0.0495995,0.186779,0.131721,-0.0492154,0.376194,-0.081759,-0.457245,-0.200447,-0.146232,-0.351905,0.0452398,0
-0.000703996,0.372709,0.100315,0.00365085,-0.291583,-0.0441215,0.0641848,0.340326,0.306934,-0.0798905,-0.166397,-0.786737,0.027044,0.259907,-0.396832,-0.252408,0.325622,0.0953342,-0.00606025,0.0270999,0
0.217775,0.237027,0.180548,-0.0527832,-0.316254,0.162522,0.396998,-0.0903315,0.0264753,0.452757,0.230903,-0.408129,0.0387986,0.0306421,-0.191126,0.431426,0.622255,0.037976,0.375594,-0.680889,0
-0.620152,0.0529602,0.240758,-0.590452,-0.116712,0.215977,-0.0167474,0.00492449,-0.251767,-0.0513851,0.448294,0.164159,-0.164514,-0.377708,0.11033,0.221601,0.33043,0.128837,-0.323104,0.358609,0
-0.34463,0.0711851,-0.0722076,0.459885,-0.553456,-0.154664,-0.048827,-0.0787661,0.00702026,-0.126956,-0.201875,0.355856,0.720367,0.476961,0.296465,-0.0749181,-0.00859481,0.34899,-0.266943,-0.0849072,0
-0.233453,0.679427,0.182022,-0.196478,-0.663064,0.160271,0.675863,-0.0812359,0.839333,-0.173444,-0.271308,-0.129526,-0.0166692,-0.133894,0.423785,-0.358868,0.225033,-0.477366,0.405807,-0.0119135,0
-0.357726,-0.311186,-0.140367,0.216912,0.0293046,0.15895,0.912922,0.045133,-0.199585,-0.0118383,-0.114764,-0.169138,0.293903,-0.236366,0.567325,0.0426475,-0.18751,0.138722,-0.497257,0.476528,0
-0.564107,0.268898,0.285171,0.0204388,-0.227489,0.187858,0.103227,0.0725876,-0.59309,0.250675,0.000627912,-0.446171,-0.34779,-0.0423729,-0.227405,0.559144,0.310071,0.0703138,-0.122742,0.0978934,0
-0.14178,-0.194376,-0.114063,-0.0927641,0.126783,0.733747,-0.00447852,-0.127147,0.102628,-0.224554,0.118708,0.0835882,0.0914413,-0.212982,0.128779,-0.571698,-0.441107,-0.181595,-0.0214127,0.0645548,0
-0.0184575,-0.278407,0.314195,-0.19703,-0.0893584,-0.33752,-0.403067,-0.576146,0.056828,-0.378638,0.202809,0.0830399,0.0855281,-0.319614,-0.0471304,-0.220106,-0.436825,-0.0541078,-0.37998,-0.230013,0
0.224413,0.0919987,0.0933029,0.296791,0.512249,-0.216002,0.323541,0.08501,0.00207641,-0.27624,-0.695021,-0.115239,-0.539899,0.108347,-0.107703,-0.180802,0.49405,0.0270615,-0.0170429,-0.506381,0
0.258709,0.0166495,-0.483807,-0.678637,0.0890912,0.342402,-0.153798,-0.459476,-0.0033094,-0.431104,0.109749,-0.285167,-0.390221,0.104871,-0.318592,0.431537,-0.288026,0.0906779,-0.326361,0.195464,0
-0.45027,-0.142276,0.22964,0.00432623,0.14955,-0.31252,0.882503,0.562772,-0.345229,0.0759093,0.334028,-0.0535143,-0.560032,0.0568366,-0.239356,0.146272,-0.119633,0.580153,-0.486509,0.120778,0
0.288495,0.532366,0.179905,-0.539227,0.174335,0.303296,-0.0879439,-0.2853,0.493431,0.12333,-0.181173,0.310905,-0.239081,-0.19049,-0.120499,0.522459,-0.353145,0.0107111,0.317933,-0.00183122,0
0.0595831,-0.460271,0.436319,0.277709,-0.0527704,-0.348505,-0.477427,0.103001,0.0313233,-0.285218,-0.126728,-0.271355,0.234712,-0.493764,0.0987433,-0.484871,-0.481768,-0.193746,0.287811,-0.19075,0
0.169553,-0.372305,-0.41155,0.492017,0.389668,0.328394,-0.558258,-0.579019,0.106494,0.565398,0.159718,-0.343292,-0.264403,0.225537,-0.228843,-0.217663,0.156437,-0.0920768,0.559562,-0.286714,0
0.657384,-0.0586751,-0.0111346,-0.214573,-0.160207,0.532605,0.250851,-0.0316842,0.151712,-0.414831,0.108379,0.0662373,-0.119877,0.228947,0.163067,0.0743803,-0.0500094,-0.314714,-0.260698,0.759667,0
-0.0370937,-0.136551,0.0183049,0.418247,-0.340943,0.145944,-0.500956,0.217634,-0.140828,0.455282,-0.146552,-0.353101,-0.0447908,0.101267,0.304679,-0.518453,-0.0828093,-0.40799,-0.00652081,-0.163939,0
0.178963,0.0970572,0.431482,0.0249457,0.0312411,-0.574951,0.00847911,0.378972,0.218912,-0.289538,0.0696919,-0.0939277,0.337394,0.21206,0.36709,0.53157,0.00128075,-0.0677654,0.233886,0.228332,0
-0.558666,-0.176952,-0.0300743,-0.109611,0.359684,0.213101,0.441153,0.250262,-0.0988521,0.176499,-0.224421,-0.325517,-0.168874,0.355911,-0.0117494,-0.328398,-0.0545705,0.0122657,-0.0171117,0.746703,0
-0.323349,0.147436,-0.312352,0.308917,0.367867,-0.0972877,-0.459622,0.617703,-0.389246,0.39696,0.442219,-0.001266,-0.0791446,0.0649204,-0.230187,-0.142534,0.116359,-0.00103631,0.289955,0.0415662,0
0.257884,-0.304366,0.876832,-0.00600117,0.173049,-0.0655358,0.0923746,-0.527162,-0.133536,0.155593,0.313396,-0.11365,0.1706,-0.0587211,0.189034,0.0627237,0.0758397,0.0452732,-0.675778,0.348618,0
-0.199103,0.338694,-0.364514,-0.744536,0.0424041,-0.237125,0.149161,0.272577,0.385739,-0.205044,-0.192389,0.613233,0.431213,0.0567293,0.0512272,-0.0160891,0.265678,-0.159169,-0.342899,-0.176318,0
0.10984,-0.295213,0.176876,0.304215,0.0547765,-0.0426981,-0.0992307,-0.466371,0.219612,0.50722,-0.482586,0.04596,0.157695,-0.22863,-0.013293,-0.556128,-0.318457,-0.0208459,-0.0867927,-0.086592,0
0.0998186,-0.32281,0.0299137,0.557961,-0.78558,0.0207472,0.319455,-0.318564,0.232958,-0.123539,0.245825,0.335185,-0.374663,-0.410122,-0.783919,-0.625341,-0.0497703,-0.225127,0.177059,-0.15132,0
0.0515918,0.276868,-0.40508,-0.294275,-0.441881,0.0916395,-0.62008,0.504085,0.298147,-0.370427,0.41483,-0.411959,-0.226987,-0.167704,0.181924,0.104143,-0.0165731,0.030963,-0.422185,0.131214,0
-0.481005,-0.540774,0.294242,-0.201935,0.00476487,0.49101,0.162263,-0.547702,0.619247,-0.414286,0.475247,-0.248343,0.838027,0.268669,-0.0721552,-0.284501,-0.234016,-0.715883,-0.336345,0.693285,0
0.11897,0.269469,0.178851,-0.129755,0.302886,-0.456361,-0.098136,0.394143,0.0862694,0.212172,0.128699,-0.327323,-0.154658,-0.249982,-0.239969,0.0650071,0.144212,0.286398,-0.436155,-0.464857,0
0.282243,-0.192746,0.326531,0.0488224,0.390734,-0.0699733,0.374042,0.408083,-0.0272298,-0.248844,-0.360576,0.104747,-0.352128,0.192936,0.0582716,0.260573,0.535005,0.458842,-0.16269,0.149708,0
0.375597,-0.203806,-0.400197,0.0614676,-0.0119563,-0.206203,0.250762,-0.141482,0.0613443,-0.0746424,-0.0289291,0.313446,-0.012384,-0.389029,0.556946,-0.132072,0.393053,0.352886,0.0519809,0.413878,0
-0.0890504,0.00924213,0.272213,-0.221887,0.590067,0.316215,0.0247324,0.171099,-0.138313,0.307455,-0.276051,-0.0126254,-0.0781022,-0.159631,0.0212675,-0.179121,0.0108285,0.329572,0.195406,0.148921,0
-0.0700106,-0.132084,-0.10346,0.217079,-0.561049,0.191912,0.00602545,0.180924,0.10276,0.144925,0.544911,0.277492,-0.427433,0.0354029,0.271935,-0.228481,-0.412706,0.444622,0.128842,0.22705,0
0.18442,-0.0181758,0.0444872,-0.0554886,0.0262495,-0.191941,0.265802,-0.162535,0.0533736,-0.00500959,0.0899769,0.121701,0.141445,-0.0633373,0.145389,0.0944609,0.0174062,-0.0797769,0.312458,0.096015,0.150895,0.176163,-0.176115,-0.0758274,0.0750059,0.240108,0.023541,0.0174239,-0.00616195,-0.0245754,-0.0229976,-0.12687,-0.17782,-0.159994,-0.112396,-0.0720643,-0.210576,0.241808,-0.169263,-0.0269845,0.150016,-0.0920276,0.0992789,0.0527494,-0.118533,-0.0454307,0.0521434,0.207647,-0.284602,-0.00366364,0.090435,0.233831,0.156162,-0.044129,-0.141225,-0.18228,0.296807,0.103651,0.0571274,0.0159658,-0.0382387,-0.0316676,-0.03434,-0.182859,-0.104385,0.114206,0.164917,-0.0427439,0.0354636,0.0741212,-0.0194438,-0.0494385,0.140901,0.0358326,-0.0267472,0.151071,0.135303,-0.0987912,-0.0965827,-0.0210904,-0.0509967,0.0833406,-0.030189,-0.0475273,0.0698337,0.0952011,-0.0163278,0.0351702,0.222782,-0.251569,-0.0703556,-0.0700892,-0.0212219,-0.0290168,-0.209439,-0.107353,0.0016753,-0.00954878,0.112605,-0.232882,-0.184167,0.248615,-0.124929,-0.0789288,-0.0999667,-0.118654,0.157802,-0.16898,0.231682,0.0962465,-0.217977,0.21863,0.153415,0.104413,-0.120252,0.322472,-0.218863,0.0153173,0.0368614,0.00534937,-0.00218592,0.115908,-0.0401737,-0.327841,-0.109796,0.0322597,0.144627,0.0726295,0
0.0346866,-0.137119,-0.0494635,-0.00282404,-0.140351,0.214012,0.171246,0.00348979,0.143352,0.0359473,-0.0468805,0.124006,-0.107604,0.239806,0.14824,-0.0892684,0.0121322,0.030534,-0.049777,0.141536,0.130093,0.136741,-0.0632204,-0.220174,0.243288,-0.117885,0.167514,0.0181459,0.0985446,-0.0619333,-0.0317938,-0.0540735,0.14152,-0.104647,-0.0292849,-0.231392,-0.0931209,0.174839,-0.231602,0.12908,0.0580187,-0.0188012,-0.150745,-0.166104,0.226641,0.0896524,0.104507,-0.0854858,0.0901357,-0.231035,0.0868804,0.0506139,0.059726,0.133923,-0.104977,0.231153,0.138969,-0.0613177,0.188234,-0.0957767,-0.0495554,0.157571,0.00994429,0.168677,-0.10841,-0.230034,-0.0387261,-0.277097,-0.103053,-0.0581954,0.134831,-0.133264,0.0363968,-0.0994798,-0.0169887,-0.215861,-0.11806,-0.00935823,0.226332,-0.208876,-0.0515557,0.167609,-0.0359279,0.0997794,0.00351821,0.202265,-0.275125,0.124785,0.157125,0.0175644,-0.217171,-0.0557726,-0.164551,-0.0258858,0.125187,-0.0414194,0.0487305,0.0298155,0.0408959,0.0480867,0.000992346,0.187417,0.0563035,-0.0795452,0.0534595,0.013955,0.0541221,-0.0807307,0.100998,-0.0198572,-0.0897242,0.289954,0.134021,-0.102904,0.237333,0.118691,-0.103636,0.175725,-0.0796496,-0.0683737,0.0860175,-0.162631,0.0506334,0.0852484,-0.0220012,0.137891,0.0517932,-0.0184088,0
-0.12375,-0.0431244,0.189248,0.0780995,0.0809393,-0.0789547,-0.0838463,-0.0506143,-0.0779993,0.047723,0.0348034,0.0617913,0.12807,-0.177744,-0.00163242,-0.108548,0.0863536,-0.0215814,-0.0324427,-0.0370436,0.136009,0.188021,0.0504466,0.0465833,0.244817,0.00375873,0.371088,-0.216363,-0.0447277,0.0623266,-0.072398,0.193681,-0.0174639,0.0072514,-0.095043,0.209268,0.0624463,0.0928096,0.111757,-0.0918819,-0.133497,-0.106213,0.0606279,-0.0324763,-0.0931382,-0.230421,-0.182533,-0.176902,0.0700349,0.083248,-0.116824,0.055699,0.174095,-0.116363,-0.077755,0.0492271,-0.128321,0.105656,-0.0368022,-0.0461357,0.0665186,0.139631,-0.0220683,-0.109436,0.0383044,-0.0510189,-0.0877344,-0.0298886,-0.055427,-0.200077,-0.0529971,0.0912834,-0.198166,-0.151803,-0.280374,-0.112232,-0.026823,-0.0253503,-0.0410418,0.165834,0.1281,0.168725,0.0257717,-0.0620368,0.237905,0.239176,-0.0938349,-0.0571029,-0.071221,0.215756,-0.265549,0.317695,-0.0238139,-0.110825,0.0903485,-0.0621602,0.00844199,0.00418852,-0.141699,0.0717765,-0.0468947,-0.144707,0.0791217,-0.00046668,0.049891,-0.0544817,-0.0723045,-0.167647,0.0997423,-0.0405654,-0.102123,0.0967235,0.0380679,-0.00894119,-0.112594,-0.197143,-0.0225986,0.123744,-0.0290442,0.0186822,-0.00272064,-0.163825,-0.172749,0.0701797,-0.135141,-0.071742,-0.0572816,0.12224,0
-0.152632,0.11907,-0.0736095,0.0728642,0.0157428,-0.195104,0.0458441,0.00195244,-0.168884,-0.0447946,-0.133413,-0.0821249,-0.0687174,0.056135,-0.0619758,0.0950157,0.0409369,-0.212129,-0.0138219,0.0801511,0.199228,-0.245648,0.143899,-0.0104023,0.0647506,-0.0803167,0.305465,0.127602,-0.12538,0.103555,0.208153,-0.0213257,-0.0787275,-0.116711,0.0910287,0.135962,-0.0986357,0.174844,0.00986748,-0.07038,-0.0604797,-0.242875,-0.0362558,0.249628,0.00650537,-0.0704746,-0.0385966,0.188701,-0.106923,0.164126,-0.0492178,0.0710932,0.161071,0.235953,-0.0063717,-0.103801,-0.002594,0.0114758,0.01756,0.105831,0.0499219,-0.0889004,0.0291302,0.0203001,0.0500502,0.0267368,-0.198981,-0.114874,0.0735208,0.0526587,-0.102941,0.141245,-0.131137,-0.0732022,0.0379719,0.211487,0.0448352,0.059595,0.0836309,0.0824691,-0.0737649,0.0125946,-0.0926129,0.146633,0.15029,-0.0289623,0.212415,-0.0972579,0.106114,-0.246682,0.0297932,0.081745,0.111791,0.0354698,-0.0711924,-0.132171,-0.034265,0.116899,-0.210261,0.00361947,-0.119374,0.359328,-0.214362,-0.0454574,-0.0663662,-0.0387161,-0.0915359,-0.113212,0.0614315,-0.147122,-0.122754,-0.0289039,0.0572447,-0.121371,-0.120363,0.00137992,0.0441952,0.00176468,-0.0478254,-0.0894498,-0.0888387,0.0204569,-0.02166,-0.0579947,-0.025317,0.160577,0.011592,-0.197849,0
0.084845,0.0292318,0.154361,0.0924477,0.157092,-0.0578067,-0.0910435,-0.145797,0.064142,0.207224,0.382603,-0.0286481,-0.0960228,0.0609073,-0.0447837,-0.0324486,0.0477204,0.0199076,0.022142,0.0349943,-0.0845014,0.038412,0.0118759,0.0580181,0.0732823,-0.0777108,0.13714,-0.0354643,-0.00753504,-0.270558,-0.0974969,0.0968892,-0.0707473,0.0362598,-0.147151,0.0650459,0.124932,0.0159172,0.127213,-0.136558,-0.106211,0.123347,0.0363035,0.121457,0.239932,-0.0552698,-0.0931261,0.0575903,-0.126739,-0.050987,0.128778,-0.0209359,0.0722027,0.0176257,-0.151494,0.0444264,-0.171718,0.00273493,-0.0445116,0.108113,0.0779465,-0.0224319,0.0320871,0.152202,0.178128,-0.0400486,0.0385064,0.107948,-0.0759899,0.00485385,0.235378,-0.134515,-0.0510824,0.0964339,-0.120172,-0.0806451,-0.083679,-0.0154974,-0.144813,0.0164971,-0.0903306,-0.228854,-0.165896,-0.0151455,-0.119331,0.0826501,0.0364547,-0.0298585,-0.109701,-0.129505,-0.150693,-0.0460492,-0.242689,0.130592,0.172851,-0.0179463,-0.120162,0.0302026,-0.0351124,0.0341975,0.268844,-0.025236,0.0749671,0.226166,-0.0326472,-0.0562214,-0.167622,0.155429,0.113538,0.108143,-0.0151489,0.105979,0.160966,-0.0489489,-0.0473933,-0.0579056,0.154129,0.0187703,0.00610444,0.107148,-0.0448146,0.02016,0.0126765,-0.1539,0.0983573,-0.0663902,0.0917478,0.0828238,0
-0.121583,-0.0751443,0.304663,0.0862739,0.0892676,0.0532973,-0.126549,-0.235265,0.00717041,-0.0242075,-0.0792981,0.0550204,0.194411,0.388482,-0.109173,0.0195797,0.078244,-0.0202232,-0.333757,0.204718,-0.0390055,0.0207803,0.103532,-0.0404336,0.0670029,0.103969,-0.163769,-0.117952,0.105699,-0.0150233,0.0489172,0.139704,0.0107298,0.0487524,-0.0260713,-0.125557,-0.0280752,-0.115564,0.125851,0.0133744,0.0293795,0.0577502,-0.192885,0.0185604,-0.160142,-0.0158645,-0.300853,0.0736388,0.0487977,0.226833,0.0148408,-0.204227,-0.168799,-0.06516,0.0442387,-0.238886,0.0826133,-0.0517212,-0.394415,0.17229,0.0224194,-0.0841371,0.0583127,-0.245039,0.0978824,0.162072,0.0925065,-0.150852,-0.00160013,-0.078717,0.0881447,-0.212991,-0.164168,0.028004,0.0469048,-0.0296467,0.0265017,-0.142518,-0.03054,0.0322959,0.00107794,-0.279908,-0.0587618,-0.00192462,0.0846569,0.00681702,-0.0393581,0.231866,0.112756,-0.166764,-0.136607,0.101359,-0.023589,-0.100615,0.197656,-0.0449586,0.0284363,0.115791,0.0929553,0.125689,0.00651932,-0.00374315,0.24761,-0.175773,-0.0257189,-0.171795,-0.247788,0.0504747,0.0711107,0.0532438,-0.0630091,-0.163855,0.0144839,-0.0140752,-0.166533,-0.108534,0.103013,-0.0099266,-0.085712,0.0352323,0.104081,0.00650665,0.131142,0.0714194,-0.0207871,0.248226,0.250845,0.0134486,0
0.0163841,0.116377,0.268485,-0.124949,-0.0100054,-0.00788718,-0.129335,0.30212,-0.0885726,-0.15504,0.00609381,0.214766,0.156993,-0.0592969,0.126521,-0.0722467,0.186934,0.0164423,0.00473248,0.170263,0.107957,0.0118075,-0.0155706,-0.0630968,-0.142858,0.0628925,-0.242462,-0.201803,0.123526,-0.0354147,-0.0250692,0.198064,0.0454471,-0.0772302,-0.118899,0.0461066,0.067605,0.147308,-0.0473408,0.130047,-0.041626,0.0469935,0.130644,-0.267186,0.0526301,0.260165,0.0254006,-0.0325,-0.00397663,-0.00092649,0.0693595,-0.0933561,0.104516,-0.0490661,-0.174586,-0.0529988,0.201059,-0.033748,-0.0484085,-0.276725,0.11088,-0.0959309,-0.0461537,-0.0291413,-0.137963,-0.120721,0.107221,0.116169,-0.237416,0.0568258,0.111488,0.0331144,0.212027,0.19255,0.0750733,-0.214109,-0.0515938,-0.00964352,0.128383,0.116944,-0.07491,0.152644,-0.0655511,0.0130715,0.143061,-0.146019,-0.071191,-0.0919327,-0.00307301,-0.119856,0.0656868,-0.374995,0.167727,0.103639,0.0839236,-0.00135601,-0.0869779,0.0695368,-0.053482,0.0579722,-0.202051,0.129249,-0.0978864,-0.0891758,0.0381326,0.0190121,0.0728881,0.107922,-0.111589,0.11738,0.0252686,0.0301905,-0.0920579,-0.0448612,-0.114665,0.21699,0.182061,0.018211,-0.0438782,-0.159533,-0.221296,0.213127,0.166111,0.00876363,-0.0549003,0.0313666,-0.108941,0.0880632,0
-0.0381504,-0.167337,-0.387316,0.0992397,0.289041,-0.0487491,-0.183945,-0.0912228,-0.193943,-0.0927642,0.244958,0.149737,-0.0813018,-0.100307,0.0454978,-0.123771,0.0793131,0.188583,0.033985,0.0144517,-0.227216,-0.0274773,0.161279,-0.0043215,-0.0378607,-0.00069485,-0.241119,-0.0715106,-0.0243142,0.0997392,-0.0612076,0.0120152,-0.105522,-0.197214,-0.184323,0.215349,-0.0634356,-0.200766,-0.251371,-0.0777085,0.0677125,0.113862,0.0340588,0.0454326,-0.0778362,0.323982,0.240282,0.00744839,0.144938,-0.176533,0.243742,-0.0681422,0.119832,0.0693084,0.0721707,0.135976,-0.146442,-0.0350294,-0.0723564,0.0752532,0.0254042,-0.145584,-0.0867626,0.183943,0.39372,0.0286927,0.189114,-0.0181957,-0.234741,-0.104209,-0.0511321,-0.0393479,-0.0171173,-0.0400954,-0.156891,-0.0671798,0.179297,-0.0281201,-0.0972236,0.0453193,0.0242008,-0.0786215,0.0319574,0.0481941,-0.0846929,-0.0387879,-0.132453,-0.226324,0.0897287,0.127203,-0.0226525,-0.0926248,-0.259264,0.213375,-0.207316,-0.0841633,0.0837447,-0.143097,-0.215036,0.191441,-0.00604762,0.0390527,0.165875,-0.0998084,0.151279,-0.0941008,-0.0214128,-0.194099,-0.0353407,-0.0795865,0.0355885,0.0555066,0.100388,-0.0840153,-0.129708,-0.0230415,0.0723115,0.20618,0.0348093,0.0740668,0.025582,-0.130216,0.204322,0.0389374,0.103607,-0.185796,-0.0087597,0.10185,0
0.0617817,-0.0781613,0.0170139,0.053436,0.0819151,0.174972,0.111767,0.0785534,0.0178544,-0.0342685,0.0707312,-0.139605,0.0848199,-0.333653,0.0154875,0.189175,-0.0739027,0.112114,-0.270478,-0.104446,0.024802,-0.335785,0.0915276,-0.115087,-0.0562091,0.109014,-0.0520986,0.0982675,0.0729535,-0.0387887,0.107079,0.0284252,-0.126246,-0.0151532,-0.075476,-0.0397438,0.186732,-0.0336251,-0.0948777,0.206125,-0.0177167,0.0206457,0.0578449,0.029422,-0.083667,-0.0735026,-0.131252,0.0986055,-0.0333522,0.162675,-0.137535,0.0271148,-0.0862227,-0.0808766,-0.214725,0.0336271,0.0270013,0.0389467,0.0154154,-0.131498,-0.00268249,0.0522838,0.0312073,0.172422,0.0488444,0.0489685,0.0484994,0.113996,0.0639206,-0.0580377,0.097391,0.117148,0.15353,-0.0722196,0.106993,0.0717649,0.0293749,-0.144693,0.16144,-0.0161616,0.037921,0.169809,-0.0585749,-0.0322659,0.104625,-0.048863,0.0437181,-0.0837397,0.0748609,0.00566748,-0.159909,0.0715937,-0.0874832,-0.225036,-0.0783238,0.0249575,0.00759821,0.173935,0.0122937,-0.0578336,-0.073247,0.014523,-0.184556,-0.076139,-0.251095,0.0467469,0.0425181,-0.0117276,-0.0558078,-0.119584,0.00931178,-0.0423401,0.000953893,-0.058598,-0.148893,0.127739,-0.195203,0.0546235,-0.0752166,0.000756958,-0.119514,0.0888286,-0.244355,0.0835957,0.0162556,-0.017253,0.0959863,-0.229026,0
0.104203,-0.127529,0.167633,-0.073233,0.0928893,0.0116477,0.0274214,-0.00461567,0.0506478,0.109571,-0.0705987,0.0215718,-0.120284,0.188688,-0.0897957,-0.219248,-0.070751,-0.180392,-0.270825,-0.0523571,-0.0278817,-0.203615,-0.0976476,-0.121268,-0.170104,0.25107,-0.127756,-0.0847083,0.0820882,0.15224,0.146254,-0.0981709,0.0507267,0.0168455,-0.273166,-0.0817073,-0.12971,-0.0550353,0.22194,0.107744,-0.0361381,3.16322e-05,-0.0299648,0.0477824,-0.25238,0.0692271,-0.111961,-0.1123,-0.037566,0.271055,0.182453,0.152329,0.072191,-0.0384164,-0.141136,-0.0826753,0.148062,-0.0646716,0.0437893,0.163764,0.123468,-0.0367937,-0.0701917,-0.137439,0.0402561,0.0146437,0.0302445,-0.101614,0.197262,0.084525,-0.0894554,0.0509888,-0.0268479,-0.0428868,0.200067,-0.0248389,0.119108,-0.0130037,-0.0350684,-0.222674,-0.176665,-0.220681,-0.16773,0.341191,0.0496792,0.0929473,0.0892073,0.0528737,0.0632459,0.0102219,0.226186,-0.0475433,0.00805912,-0.127267,0.154175,0.0134817,0.0195494,-0.0946778,-0.152803,0.00609819,0.13418,0.15074,0.0761298,0.0288625,-0.00969593,0.00328176,0.159261,0.0276595,-0.343229,0.0355547,-0.0761222,-0.111526,-0.128543,0.0392845,0.0111282,0.00698621,0.326608,-0.0884508,0.24336,0.281245,0.276749,0.0465986,0.0505759,0.0257715,0.208001,-0.0611148,0.0183131,-0.0144463,0
0.0928514,-0.0859458,0.0399441,-0.11987,-0.0588935,-0.136327,-0.09019,0.104944,-0.189024,-0.00363088,0.132056,-0.0395444,-0.140773,0.168153,0.0402925,0.197929,-0.0192799,-0.182085,-0.0216139,-0.0967254,0.389143,0.255826,-0.0260444,0.14324,-0.072632,0.0376486,-0.0223583,-0.186444,0.058649,0.105967,0.134618,0.162568,0.0810227,0.0739155,0.184912,-0.0168764,-0.123273,-0.259991,-0.0274506,-0.0692716,0.0201915,-0.0142275,0.0215265,-0.154569,-0.0827911,0.164863,-0.0414935,0.0454826,-0.0275245,0.0723283,-0.0239009,0.0800728,0.0159248,-0.0298636,-0.061912,-0.0418687,0.108597,0.127081,0.164123,0.00331939,-0.175937,-0.0706778,0.0219925,-0.0578399,-0.0117812,0.0279967,-0.109528,-0.0390163,-0.0273487,0.0221593,0.0076892,0.293067,-0.141883,0.00424275,0.188172,0.0787641,0.0944926,0.0108179,-0.151883,0.0312578,-0.0547479,0.142427,0.0602775,0.0139542,0.0328504,0.163717,0.102344,0.200697,-0.20782,0.00930295,-0.00886831,-0.0830653,-0.0592607,-0.0964553,-0.0489437,-0.126532,-0.0919282,-0.0744519,-0.0846861,-0.211218,0.196041,-0.0410604,-0.121134,0.125502,0.0661401,0.0618711,-0.106428,0.132263,-0.0937149,0.119524,0.0459591,-0.197587,-0.0539768,0.0741063,-0.054715,0.0408985,-0.177818,-0.0876628,0.0240438,0.0948005,0.00623066,-0.104067,-0.235301,0.113593,0.013261,-0.192416,-0.0677704,-0.132041,0
-0.0854291,0.102592,-0.266143,-0.108107,-0.18239,0.00536676,-0.0068381,-0.0123505,0.0262814,-0.0747519,-0.0163915,0.00554347,-0.0244219,-0.110709,-0.0320486,-0.0133509,0.115603,-0.0693721,-0.248814,-0.181536,-0.0529691,0.14516,-0.157304,0.0983986,-0.138944,-0.056008,0.194634,-0.0264107,-0.0783643,-0.0356852,-0.240917,0.0410434,-0.234198,-0.0687738,0.26549,-0.0652145,0.00715052,-0.0278958,0.00814394,-0.0167478,-0.0847352,0.1403,-0.257692,-0.105428,0.223782,0.277026,-0.042169,-0.0896782,-0.0769668,0.0906896,-0.00438679,0.121009,-0.0241328,-0.0414018,-0.211726,0.0249154,0.123706,0.304554,0.0867974,-0.0588248,0.322852,-0.00993383,0.0749987,-0.156405,0.0623939,-0.0836203,0.11866,0.338156,0.0379468,-0.064214,-0.146117,0.00960356,0.237221,0.0328058,-0.04737,0.0213376,0.255192,-0.184979,0.140977,-0.0715958,0.209499,0.125766,0.00463856,0.127008,-0.00150226,-0.155267,-0.206307,-0.0476468,-0.0430779,0.202684,-0.0524734,-0.0617746,0.217596,-0.0649429,0.0950685,-0.0125486,-0.0981153,0.0323403,-0.0998021,0.0641048,-0.125563,-0.0224615,-0.0810141,-0.124564,-0.121238,-0.0193247,0.0685624,0.134532,0.034974,0.171902,-0.000962678,0.056,0.0370096,0.180701,-0.0334841,-0.073661,0.120593,0.080715,-0.0884812,-0.132158,0.0241878,0.204743,0.0285133,0.197405,-0.110072,0.00299531,-0.0859093,-0.00809728,0
-0.105016,-0.039807,0.0310865,0.0463426,0.000781048,0.0868458,0.149357,0.0910107,0.0407861,-0.0178819,-0.167544,0.0692111,0.0391292,0.0452192,-0.0990727,0.173997,0.068749,0.130525,-0.0567079,0.0996078,0.130057,0.0352741,-0.104598,-0.20607,0.066113,0.0366167,-0.101796,-0.179695,-0.091002,-0.127011,-0.163922,-0.0389976,0.0158447,0.0775157,-0.0966842,0.0497209,-0.190577,0.0645857,0.242032,-0.117307,-0.160442,0.10255,-0.0599459,0.0424426,0.0741301,-0.0130399,0.0968363,0.0344486,-0.106868,0.167473,-0.0610997,-0.226811,0.111082,0.203525,-0.136673,0.105494,0.0834945,0.0880697,-0.148563,-0.0987381,-0.15691,0.0226889,-0.113225,0.196727,-0.00723801,0.00542655,0.188815,-0.156276,-0.0660069,-0.218978,0.155063,0.0849078,0.10368,-0.169859,0.0874206,-0.204361,0.0611379,0.0710954,0.085914,-0.165752,-0.0790423,0.015149,-0.0132092,0.297887,0.0133514,0.0512428,-0.0138512,-0.224219,-0.0524572,-0.128176,0.0318731,-0.203782,0.043797,-0.1512,-0.181642,0.0124828,-0.12452,-0.045268,-0.0194179,0.0824005,0.0746581,-0.0227292,0.115613,0.0711778,-0.021702,0.150018,-0.0822843,0.0354487,0.133625,-0.217165,0.163281,0.101048,-0.191814,-0.0569062,-0.0460516,-0.183627,0.0679459,0.0383951,-0.223903,-0.0196148,0.111636,-0.210305,-0.15864,0.21024,-0.0309827,-0.213975,0.269264,-0.057203,0
0.19961,-0.186977,0.0237673,-0.242458,-0.00135234,0.165883,0.0129501,-0.0135273,0.153418,-0.141369,0.130432,-0.191247,-0.00813444,0.111296,0.0806717,0.137714,0.0188848,-0.044656,-0.0746612,0.0104682,-0.118015,-0.155929,0.107764,-0.0359198,-0.0818308,-0.181181,-0.136561,0.174315,-0.0325396,0.192713,-0.141245,0.197397,0.115221,0.142142,-0.0474812,-0.0647365,0.117146,0.0495041,-0.300137,-0.0896911,0.0170167,0.00998218,0.17897,-0.0661055,0.00811359,0.109445,0.0994843,0.110761,-0.0336632,0.00921232,0.0825466,0.0315245,0.0497237,0.142037,0.0964965,-0.028075,0.0891533,-0.042953,-0.186683,0.0203335,-0.107607,0.0273898,0.194705,-0.0524428,0.0645987,0.123063,0.0954719,0.0887699,-0.248568,-0.139354,0.154646,-0.0116624,-0.180389,-0.100917,-0.114243,0.155508,-0.00991949,-0.025241,-0.0256059,0.276469,0.151478,-0.0459412,-0.0777342,-0.0900567,0.239737,0.155726,0.0679691,-0.136655,-0.0905745,0.147711,0.020875,-0.0440871,0.0129682,-0.246291,0.037897,0.0221957,0.0971593,0.0259562,-0.161333,0.116037,-0.140776,-0.0398185,0.116733,-0.196333,-0.145471,0.229651,0.216199,0.00321123,0.0364863,-0.0407921,0.0720287,0.107272,0.041727,0.134699,-0.0777167,-0.0552003,0.0986108,0.14449,-0.00378719,-0.206125,0.0814914,-0.0799952,-0.0942251,-0.10982,0.0208652,-0.0202661,0.0168495,-0.0141615,0
0.167126,0.0705302,0.115005,-0.0529266,-0.0994921,0.074486,-0.20719,-0.185792,-0.0537146,0.250895,0.0556463,0.120143,0.113085,-0.105782,0.154166,0.100532,0.258356,0.0998896,0.152967,0.059129,-0.133079,-0.0793905,0.288689,0.0235029,0.0626501,0.0305378,0.1698,-0.144065,-0.141345,-0.0461908,0.0221376,-0.153367,0.241092,0.0192926,-0.0453346,0.0209995,0.240864,-0.0490158,0.225659,0.0897123,-0.00507785,-0.130542,0.017196,0.0156559,-0.041551,0.0598489,-0.179124,-0.156596,-0.0545597,0.152189,0.0357674,0.142625,0.175116,-0.149263,-0.0616955,0.136624,-0.311578,-0.106523,-0.00333026,-0.0487542,0.175601,0.0806549,0.0744127,-0.254608,0.24786,-0.0658003,0.085217,-0.0223189,-0.040159,-0.10365,0.254409,0.0136854,-0.0978068,-0.0653806,0.0364739,0.00655007,0.166379,0.00492297,0.0235145,-0.0346371,0.0282405,-0.202282,0.0102076,0.0663658,-0.0672649,0.247473,0.0942391,0.0544131,0.039365,0.0327887,0.0642325,-0.00341023,-0.0530765,0.164096,-0.168436,0.0360283,-0.00422183,-0.263979,0.118636,0.0685659,-0.185007,-0.0448996,0.0535768,-0.0919125,-0.0590658,0.0755627,-0.11859,0.0249296,0.0807709,0.15099,0.292408,-0.0536226,-0.141711,0.102969,0.0121709,0.0572121,-0.0733964,0.0866757,-0.271726,0.108315,0.164181,0.24453,-0.0278684,-0.124851,0.0595082,-0.0946264,-0.105202,-0.0819915,0
-0.0597398,-0.172848,-0.0726856,0.0620682,0.164917,0.27165,0.114464,-0.119212,-0.112861,-0.0130564,0.087082,0.0365884,-0.26871,-0.00989197,-0.0719507,0.215403,-0.136713,0.073107,0.0834966,-0.0683646,-0.184713,0.324645,0.321797,-0.107777,0.0765551,-0.108566,0.0186691,0.238936,0.173537,-0.0261675,-0.0142968,0.216973,0.0861724,-0.288732,0.140921,-0.0621185,-0.251596,0.00988047,0.0185352,-0.0757851,-0.173427,-0.0874956,-0.147875,0.144377,0.0283609,0.0716479,0.0549288,0.0432253,0.133728,-0.27775,0.268944,0.367943,-0.109534,-0.137628,0.133474,0.117427,0.0273709,-0.0979483,-0.00216081,0.197985,-0.0548749,-0.0437723,-0.117498,0.0842552,0.121656,-0.0760425,-0.149187,0.0479003,0.0960112,-0.177428,-0.0189986,0.118271,0.0742017,-0.162797,-0.0781614,0.00409473,0.283797,0.308204,-0.0730831,0.130166,0.0125451,-0.0157826,-0.144441,0.0269319,0.204344,-0.0853294,-0.202593,-0.039943,0.0392427,0.130923,0.0444221,0.0122129,-0.0965477,0.121889,-0.233108,0.112792,0.0404129,0.0356017,-0.184429,-0.106914,0.124942,0.11134,-0.0599405,-0.0228194,-0.162028,0.152542,0.0196612,0.0979492,0.185154,0.0555497,-0.0645161,0.0743203,0.0187614,0.157946,0.0232062,-0.0540063,-0.0156693,0.0628151,0.16149,0.0561724,-0.0122389,-0.126848,-0.243209,0.0756525,0.197362,0.0619949,-0.135691,-0.0645407,0
-0.117888,0.232516,-0.0829145,-0.156729,0.0089239,-0.0299797,-0.0493332,0.143046,0.222184,0.00477316,-0.0400245,-0.26657,0.128316,0.12028,0.210465,-0.0724673,-0.000125117,0.0019048,0.0267966,0.0537438,0.156838,-0.0524184,0.0139463,-0.079577,0.130852,-0.175393,-0.0271048,0.034376,-0.127211,0.0622963,0.0896474,-0.0757666,-0.136776,-0.108026,-0.0102835,0.0863769,0.101842,0.082808,0.0412229,0.188852,0.14763,-0.148468,-0.0566512,-0.0608573,0.0876488,0.156984,0.0367827,-0.296123,-0.000174803,0.0969978,0.12432,0.0510635,-0.0736391,-0.118518,-0.0186125,-0.046772,-0.00592649,-0.0332238,0.0101215,0.010051,0.0555256,0.00765264,-0.0721489,-0.0801305,0.0996999,0.0354664,-0.125004,0.0148993,-0.0209991,-0.0520643,0.0539804,-0.0124867,-0.0962781,0.127574,0.115503,-0.00271577,-0.212902,-0.231347,0.0874402,-0.327845,0.109755,-0.202106,-0.0590695,0.133462,0.0416975,0.218652,-0.169693,0.133222,-0.100501,-0.0844292,-0.132859,0.043301,0.0220384,-0.149203,0.260833,0.0764887,-0.122025,-0.00829141,-0.00221619,0.289445,0.049752,-0.0571295,-0.0128104,0.01992,0.0231995,0.130248,0.0822296,0.154333,-0.00368698,-0.0981472,0.157024,0.0574302,-0.0310596,-0.0746971,-0.0339918,0.143619,-0.037481,-0.169501,-0.153397,0.0194786,-0.0402231,0.152038,-0.177554,-0.165456,0.0156612,-0.0376425,-0.167593,0.0152572,0
0.1268,0.031994,0.240133,-0.141989,-0.0516937,0.145366,0.0291066,-0.130563,-0.142671,0.165452,0.0367958,0.0224427,-0.371126,0.279191,-0.00654949,0.120317,-0.0587618,0.24104,0.0580733,-0.00384946,0.0588666,-0.0629245,0.0481031,0.0986901,-0.00226213,-0.0327849,0.110109,0.113398,-0.127666,0.213977,-0.00605705,-0.200336,-0.0699971,0.0625855,-0.0261652,0.104676,0.0754062,0.0452526,-0.136434,-0.0316511,-0.141461,-0.143421,0.068114,0.0169856,0.145421,-0.00467121,-0.111601,0.091731,0.192617,-0.136504,-0.143905,0.0260678,-0.0347046,0.0409636,0.0960147,0.0529675,-0.000127516,0.11175,-0.134601,-0.0242678,0.00418628,-0.150336,0.108111,0.033186,0.0331647,-0.00531323,0.110634,0.169161,-0.145377,0.00992671,-0.151267,0.174199,-0.00580511,-0.0486366,-0.0544027,0.187759,0.0593116,-0.0853619,-0.105091,-0.103764,-0.0437337,0.0221756,0.00541966,-0.115135,0.0244217,-0.0564091,0.0402664,-0.186963,-0.0823241,0.0668891,0.082774,0.0861685,-0.00710643,-0.00925816,0.179501,-0.16743,0.148969,-0.0243581,-0.0818419,-0.172225,0.0982001,0.00701978,-0.151667,-0.00206217,-0.0449332,0.0101207,-0.0230458,-0.037766,0.0441499,0.106626,0.137759,-0.0176377,0.017304,-0.100741,-0.0945662,-0.0131779,-0.129549,0.221059,-0.160104,0.174363,-0.0828468,-0.0372657,0.195661,0.136604,0.0199656,-0.130922,-0.0798872,0.264489,0
0.0607852,0.0991661,0.123257,0.0194113,0.0796134,0.215119,0.0295647,0.191382,0.0112188,0.0471973,-0.0748725,0.0100168,-0.0256563,0.227014,-0.10658,-0.0276202,-0.142127,0.15951,0.0155869,-0.00908731,0.226591,-0.0773213,-0.0572395,0.104418,0.26678,0.106506,0.0906339,-0.0260407,-0.0316368,0.182853,0.04116,0.0193338,0.0196139,0.0639739,-0.14075,0.165379,-0.0673911,0.183242,0.0107567,-0.081506,-0.0929522,-0.0325708,-0.174285,0.375057,-0.0950156,0.022384,-0.0607068,-0.187,0.0435525,0.0805541,-0.0496936,0.128038,0.043576,-0.0994597,-0.0201206,0.0867834,0.0971199,0.0853635,-0.170874,0.094637,0.139762,-0.0247467,-0.0826639,-0.10895,0.0496102,-0.152484,-0.0394869,-0.149443,-0.0112875,0.103,-0.0759874,0.139491,-0.246443,0.0293663,0.0418892,-0.200446,-0.0339046,0.114324,-0.177077,-0.05507,-0.0293014,-0.011511,-0.111858,-0.164287,-0.00479471,-0.0143831,-0.123882,-0.0744468,-0.130716,0.108688,0.0729208,0.111528,0.0283672,-0.0836453,-0.160113,-0.0123773,-0.194062,0.124792,0.141823,-0.022104,-0.0455186,-0.0483924,0.183687,-0.0920453,-0.170494,0.136702,0.125654,0.134407,0.00104828,-0.0941411,-0.214855,0.0436177,0.0268736,0.145717,-0.230755,0.179018,-0.195991,0.0477882,0.122136,0.171811,-0.172285,-0.200221,-0.09732,0.0580866,-0.0239847,-0.0579177,-0.0751445,0.0302914,0
0.192044,0.183237,0.127168,0.0645788,-0.131029,-0.129512,0.185146,0.00287556,0.0582364,-0.0374008,0.019911,0.114692,0.0318504,0.126911,0.0754225,-0.0999022,-0.18638,0.0185821,0.059913,-0.186399,0.210736,0.0585592,-0.108362,-0.126452,-0.16249,0.140324,0.20061,0.020231,-0.108204,-0.178721,-0.0467598,0.273307,0.21778,-0.202082,-0.0171253,-0.325899,-0.164991,-0.0111362,-0.0223788,0.265904,0.284096,0.135502,-0.117942,-0.133702,-0.129293,0.24577,-0.0558757,0.0477388,-0.0372866,-0.0171269,-0.00076935,-0.103363,0.105629,-0.067893,0.0599094,0.00735453,0.018545,-0.0726105,-0.00516098,-0.10256,0.0373562,0.0360763,-0.0683708,-0.0441491,-0.213397,-0.0310148,0.140642,-0.234134,-0.276984,-0.0889507,0.0154545,0.0538466,0.0561945,-0.0718861,0.130789,0.12951,0.0912415,-0.0766574,-0.0629029,-0.182486,0.199106,0.166609,0.0167976,0.148019,0.0136761,0.0664099,0.0746629,0.0051091,0.120152,0.0187782,0.198693,0.0950412,-0.0042719,0.0155854,0.185872,0.0645045,-0.0257386,0.00565159,0.110156,-0.265887,0.13474,0.284408,0.258165,0.0386762,0.120753,-0.167609,-0.0244902,0.177187,0.000715292,-0.0135178,-0.141892,0.162422,0.0225441,0.0182441,0.0672652,-0.0192969,0.111294,-0.0198598,-0.0997612,-0.0210957,-0.119118,0.0356851,0.31617,-0.038913,0.114394,-0.0450042,0.292349,-0.0376361,0
0.131121,-0.0130139,0.149347,0.149395,-0.107845,-0.045197,-0.0429999,-0.0468038,0.0246974,-0.00908674,-0.0388558,-0.0624216,-0.0202023,6.17626e-05,0.099524,-0.0324944,0.102444,0.123877,0.150854,-0.0297033,-0.111028,-0.0645451,0.0835791,-0.194235,-0.15757,0.0178672,-0.0457603,0.024058,-0.0759793,-0.0211977,0.0371202,-0.165436,-0.0265037,-0.100641,0.121382,0.015247,-0.0983596,-0.326793,0.12832,-0.00749834,0.0152221,-0.0255071,0.0450351,-0.0258837,-0.0143647,0.0297445,-0.293349,-0.00673914,-0.00382738,0.208452,-0.0740356,-0.156635,0.194408,0.0532849,0.265384,-0.160203,-0.217031,-0.0901845,0.024444,-0.0273811,-0.22775,0.103537,-0.140919,-0.078398,0.0874983,0.143338,0.197052,-0.0258733,-0.0285796,0.0212256,-0.0465704,0.0376399,-0.197835,-0.0593481,0.115811,0.277319,-0.0966268,0.0520509,0.0115613,0.0227665,0.0679514,-0.246662,-0.122936,-0.0157412,-0.0688807,-0.0326542,0.0112272,0.235269,0.0349421,-0.0424726,-0.0371148,0.0663037,-0.0419484,-0.239164,-0.11386,0.201792,-0.087961,-0.0190427,-0.0421565,0.0413208,-0.0385595,-0.007748,0.00691319,0.0797883,-0.143115,-0.0148694,0.0155539,-0.0322853,-0.0142014,0.0186425,-0.0615218,-0.00988694,-0.026968,-0.00432371,-0.0599955,-0.0236055,-0.101735,0.106061,0.0275588,0.0397345,0.0536348,0.0408088,0.0637432,-0.0995743,-0.115358,0.00837632,-0.0932929,0.0260614,0
-0.00518473,-0.0630872,-0.122439,-0.0339225,0.061521,-0.0285104,0.0178175,0.191723,-0.0889221,-0.179162,0.0186429,0.016071,-0.113377,-0.0824427,-0.0306116,0.128321,-0.136349,-0.120662,0.0150575,-0.121711,0.0388985,0.0821773,-0.179645,0.0246787,0.0893751,0.0376226,0.0759987,0.12298,-0.101977,0.12702,-0.0737881,0.0983657,-0.0258851,-0.035864,-0.158852,-0.0442634,0.229718,-0.0304633,-0.238286,-0.378254,0.0724937,0.104498,-0.0382187,0.0173693,-0.188181,-0.216166,0.0842664,-0.0109266,0.100486,0.0718061,0.107758,-0.196625,0.0523227,0.135464,0.0255728,0.0280307,0.115422,0.185748,0.0412344,0.0600213,0.0550366,0.187693,0.229033,-0.123088,0.00626474,0.0121442,-0.0907863,-0.0778088,-0.307334,-0.118223,0.133672,0.0937023,-0.000742109,-0.162124,-0.0723604,0.0336412,0.158038,-0.141231,0.0779409,-0.121851,0.090677,-0.187138,-0.0859494,-0.156554,-0.0510779,0.0447506,-0.0363049,0.0278876,-0.00295956,-0.120938,0.250799,0.203062,0.00248773,0.162614,0.306339,0.0831533,-0.076294,0.0682968,-0.0487468,-0.100628,-0.0786173,-0.0241178,0.00781896,-0.0662094,0.0185555,-0.0515109,-0.0968101,-0.014573,0.0346069,0.104187,-0.0509404,-0.0313371,-0.138502,0.00202866,-0.190426,0.0385087,-0.13252,0.0230427,-0.146479,-0.150965,-0.121634,0.0191696,-0.120349,0.0101476,-0.095707,0.166923,-0.0508826,-0.0315637,0
-0.22397,-0.128481,0.0786231,-0.113056,0.0432571,-0.0438228,-0.36597,-0.178272,0.302649,0.156334,-0.0324467,-0.0403531,0.0186592,-0.00636243,-0.041924,-0.0574396,-0.118751,-0.193469,-0.0974744,0.0728033,-0.294924,-0.156758,0.284105,0.0919659,0.0102223,0.0145319,-0.135994,0.122799,-0.115226,0.100006,-0.0251233,0.0574456,0.303978,0.274954,-0.207022,0.03318,0.108011,-0.269198,0.112898,-0.121771,-0.174501,-0.176299,-0.00814665,0.12618,-0.154992,0.00475603,0.0619014,0.00943036,-0.131439,-0.0542801,0.0182163,0.0585186,0.121196,0.0928966,-0.03992,-0.0163475,-0.1119,0.127692,-0.0498686,0.0262391,0.156756,0.400436,-0.092508,-0.138509,-0.0334212,-0.0512296,0.103117,-0.104316,-0.0768213,-0.120377,-0.0570603,-0.137252,0.0216678,-0.118365,-0.141822,0.0206994,-0.00664559,-0.0815149,0.0420114,0.158546,0.0552249,0.0775571,0.125556,0.262999,-0.0804654,0.0067861,0.0347757,-0.03446,-0.184668,-0.0143673,-0.139358,0.118137,-0.238578,0.0785943,-0.211614,-0.00105414,-0.110845,-0.11248,-0.0691876,-0.12629,-0.124764,0.132916,-0.10546,0.234357,-0.0683165,-0.126068,0.0597958,-0.198557,-0.0682656,0.0503561,-0.178093,-0.0908355,0.19515,-0.0712044,-0.149175,0.071193,-0.192505,-0.147123,0.135423,-0.0701159,0.134047,-0.0683884,0.042705,0.0984681,-0.0296906,0.0594888,-0.236867,0.070351,0
-0.251437,0.172583,-0.0975709,0.200707,-0.105434,-0.113281,0.0760161,-0.10982,0.103287,0.128338,-0.0272884,0.0430127,-0.184109,-0.0638213,0.0564581,0.144588,-0.00737757,-0.115284,0.187967,-0.0945476,0.078133,-0.0932368,-0.0518989,-0.0431391,0.0726247,0.0874853,-0.177876,0.0444823,0.123659,-0.21362,-0.032441,-0.00265037,0.0530387,0.317168,0.0875402,-0.126363,0.017376,0.117774,-0.12249,-0.144281,-0.135617,-0.133964,0.153005,0.202428,0.111483,-0.0470033,0.148354,-0.0379533,-0.16827,0.0327685,0.0264904,-0.144206,-0.114388,-0.0511412,-0.165422,-0.0755828,-0.1629,0.0229678,0.0208947,-0.120663,0.206128,0.199766,-0.0862036,0.13256,0.0926195,-0.0319482,0.136394,-0.244042,0.0890231,0.0214561,0.086317,0.370042,-0.0492638,-0.0355797,0.0332656,0.084525,-0.0601002,0.117925,0.105965,-0.0028221,-0.140214,-0.104067,0.0627167,0.229853,-0.0502496,-0.0308947,0.0535073,-0.124697,0.158611,-0.149597,-0.0961749,-0.175763,0.125813,0.0547147,0.0158002,0.176527,0.00412775,-0.0268403,-0.0706225,0.0505117,0.0437136,-0.105958,0.206571,-0.0601603,0.31168,-0.0597955,-0.0658877,0.117396,-0.00350956,-0.0845426,0.0676366,0.117859,0.218737,-0.0566974,-0.0103942,-0.156663,-0.0230066,-0.00811473,-0.0731909,-0.0840961,0.104503,-0.0455513,-0.0999007,-0.142007,-0.171573,-0.209911,-0.0861068,-0.0417144,0
-0.0804665,-0.013588,0.123461,-0.0815404,0.0204365,0.022959,0.00227165,-0.0898819,-0.0144983,0.2871,0.1144,-0.00172477,0.0350341,-0.043486,-0.0262035,-0.0370709,-0.0902029,-0.116611,0.0449711,0.132279,-0.00955688,-0.00124564,0.0850649,-0.040684,0.141506,-0.0646293,-0.0487242,-0.0748353,0.0172361,0.00363558,-0.137542,0.0899767,-0.323283,-0.204029,-0.198283,0.0964885,0.118801,0.00187489,-0.156316,-0.108456,-0.344032,-0.115676,-0.0342073,0.0951322,-0.153404,0.172925,-0.119637,-0.106985,-0.034743,0.0735937,-0.163011,-0.0260762,-0.0598088,0.11865,-0.151555,-0.073084,0.175965,-0.0782713,-0.194047,-0.223807,0.0573081,-0.054542,-0.0967286,-0.116577,-0.164146,-0.114357,0.107122,-0.215958,-0.027093,-0.164466,0.134244,-0.0267695,-0.311051,0.0559326,-0.157823,-0.162038,0.0617895,0.00538651,-0.243748,-0.114452,-0.210871,-0.0837016,0.171819,0.0216918,-0.106638,-0.0961955,0.239135,0.082754,-0.207866,-0.00704044,-0.0584601,0.0859538,-0.00330476,0.161077,-0.00477468,0.0286998,-0.00190697,0.15165,-0.0512958,-0.151992,0.0233377,0.11024,0.0477259,0.084711,-0.309811,0.0238988,0.029053,-0.10698,0.0597515,-0.0129835,0.249182,-0.0224707,-0.0046757,-0.199084,-0.041165,0.183266,-0.0674554,-0.0401234,0.167059,0.147264,-0.0791032,-0.157017,-0.118198,-0.056501,-0.0161364,0.0307005,0.122593,-0.0914115,0
0.172031,0.0272099,0.154601,0.0217099,0.19544,0.143558,0.0304385,-0.11696,0.125286,-0.266785,0.0894039,-0.0520697,-0.0322536,0.255254,0.111883,-0.0163086,-0.11386,-0.128719,0.0744013,-0.0571008,-0.0354055,-0.0571185,-0.0489042,0.0838826,-0.092213,-0.112449,-0.174156,-0.105505,0.00159065,-0.220136,-0.14382,-0.190968,0.0113552,0.169146,-0.293895,0.0297991,-0.128027,-0.0149544,0.0496554,-0.0570238,-0.0647247,0.0025389,0.305972,-0.12433,0.0763318,-0.230552,-0.117627,-0.171621,0.171797,-0.0749452,-0.156288,-0.216853,-0.0387919,-0.144531,-0.0479749,-0.149889,-0.0652601,0.152843,0.0591905,-0.0273659,-0.161177,-0.0321466,0.0731233,-0.0125746,0.0325561,-0.136747,-0.00744556,0.0349632,0.0827123,0.0328825,-0.00837214,0.182704,-0.091547,-0.062926,-0.153381,-0.0781128,0.0883828,-0.115616,0.0352049,-0.0685634,0.167523,0.211548,0.172524,-0.13037,0.110202,0.13937,0.0526874,0.136389,0.0227642,-0.0374467,0.0216103,-0.13206,-0.0444116,0.0375233,-0.0481715,0.050211,0.0154274,-0.160564,0.0156615,-0.0858641,0.0974773,-0.120082,-0.0725784,0.27933,0.170668,-0.10522,0.106953,0.0343649,-0.400079,-0.203349,-0.107731,0.227078,-0.092045,0.169862,-0.084064,-0.0569326,0.151946,-0.0663026,0.0512267,-0.128694,0.199054,-0.225217,0.357645,-0.0539877,-0.0590407,-0.0289421,0.110913,-0.0073964,0
0.0675937,-0.11042,-0.0259742,-0.0707743,0.00459835,-0.0910844,-0.0733601,-0.132295,0.194853,0.0586282,-0.0386722,0.129325,0.0798004,-0.0868902,-0.102366,0.0044845,-0.0657227,0.18153,-0.252744,-0.215088,0.129513,-0.157167,0.19139,0.155338,0.100675,-0.0625075,-0.111599,0.138484,0.141941,0.0501628,0.0935432,-0.175818,0.142674,0.0278235,-0.116389,-0.0502916,0.12376,0.090368,-0.304667,0.135818,-0.118632,0.143652,-0.0618886,-0.0710644,0.155295,0.0271685,-0.0504689,0.0182933,0.0811113,-0.0770186,0.103737,0.218962,-0.0691853,0.315921,-0.24261,0.0310511,0.0168905,-0.0167474,-0.0686414,0.0622603,-0.0899544,0.0196567,0.154577,-0.0682623,0.0759464,-0.108385,-0.245024,-0.00645052,0.067414,0.0801311,-0.0348738,0.00697098,0.122891,-0.221406,-0.10855,-0.0777731,0.148791,-0.117093,0.0431758,-0.0748087,-0.0620359,-0.0300487,0.0367479,0.070771,-0.0133989,0.224373,0.0432568,-0.000492495,-0.0314952,-0.0381624,0.132476,0.25931,-0.150346,-0.0688481,0.00622078,0.211328,0.178068,-0.0579548,-0.0688802,0.0352693,-0.175551,0.0250661,-0.0110673,-0.0656673,0.171052,0.0553953,-0.0326336,-0.156032,0.0108338,-0.113229,0.0877967,0.0607893,-0.0136287,-0.0743643,0.0201074,-0.0295285,-0.02192,-0.0907366,0.164349,0.17017,0.201892,0.0168428,-0.0208377,0.0679427,-0.174173,-0.0396085,-0.229543,0.270209,0
0.135344,-0.23589,0.0949352,-0.0761913,0.0611541,-0.264698,0.106387,-0.157341,-0.093132,-0.149437,-0.0695787,0.148149,0.227867,-0.0151529,0.172662,-0.21702,0.181208,0.0778758,0.0493545,0.0688392,-0.0223257,0.0728737,-0.0537236,-0.0145999,0.0945839,-0.15818,-0.0369236,-0.0949764,-0.258678,0.0108698,0.156137,0.0799518,0.0790074,-0.123608,-0.00586911,0.17632,-0.121505,0.201074,0.0588529,-0.0788008,0.162638,0.0408992,0.0110948,0.0389315,0.0345624,-0.0452038,-0.0767117,-0.0520328,-0.0827367,-0.130705,-0.12483,0.0580176,0.0588595,0.0904069,-0.0842655,0.144072,0.0212024,-0.0786886,0.0296869,-0.0227867,0.114758,0.14471,-0.0923998,0.0637457,0.0173111,-0.1574,-0.02282,-0.0771518,0.133633,-0.198434,0.292563,-0.160156,-0.0320171,-0.0620382,-0.150679,0.0534382,-0.0847133,-0.0554173,-0.16103,-0.0753884,-0.0778578,0.163618,0.121745,0.0709374,0.212134,0.102431,-0.228985,-0.0138264,-0.17316,-0.0670681,0.119208,0.00824403,-0.044521,-0.21247,0.0486082,-0.0875542,-0.140175,-0.113355,-0.00575275,0.0977105,0.0772094,-0.0464762,0.123435,-0.0448492,-0.0115978,-0.182196,0.00202359,0.0246405,-0.123918,-0.209534,0.113241,-0.0060145,-0.012997,-0.0991322,-0.139688,-0.216884,-0.0684148,-0.168066,0.0130467,0.0285998,0.0555611,0.0255719,-0.0680158,-0.067893,0.131586,0.181096,-0.192538,-0.0654279,0
-0.13913,0.143134,-0.158258,-0.25827,-0.306719,0.0110861,-0.164569,0.0825514,-0.281954,0.069547,0.0087376,-0.113476,-0.11458,-0.264903,0.0955116,0.156603,-0.0256832,0.050424,0.152097,-0.076166,-0.05936,0.107223,0.091818,-0.0613261,-0.120697,0.00772873,0.264647,-0.227992,0.0131512,-0.262358,0.115919,-0.0449278,-0.0588233,-0.113664,0.0589493,-0.0129902,0.139771,-0.0418724,0.180205,0.115075,0.194422,-0.204236,0.026972,0.0368244,-0.0889171,-0.0802932,-0.0306495,-0.338139,-0.0852719,-0.202707,-0.0271365,-0.013673,0.172789,0.106659,0.00209938,-0.0866848,0.303739,-0.152497,-0.0441897,-0.13732,0.0669819,0.118551,-0.0314754,0.111124,0.0749176,-0.126518,-0.112476,-0.149069,-0.204138,0.0633203,-0.280986,0.109408,-0.050497,-0.0329763,-0.00474851,-0.060169,0.234035,0.0930658,0.0711212,0.000640421,0.284659,0.184714,-0.056885,-0.162752,0.0926508,0.0141811,-0.110964,0.154452,0.112837,0.132236,-0.185055,0.0432565,0.042017,0.12651,0.100468,-0.317841,-0.26022,0.0463794,0.107749,0.0645728,-0.0736876,-0.0388561,0.0004926,0.280503,-0.075958,-0.0248242,0.0711533,-0.00106615,-0.00699794,0.080879,-0.10938,-0.0282592,0.0154878,-0.0307289,0.188696,-0.0913068,-0.0546897,-0.0856783,-0.122744,-0.065577,-0.202578,0.144609,0.213374,0.0917485,-0.208856,0.124456,0.107635,-0.280632,0
0.10518,-0.0873783,-0.0242594,-0.0161162,-0.0931189,0.0673994,0.120027,-0.0646859,-0.125523,-0.0589515,-0.00708906,0.0126566,-0.00666526,0.0786988,0.0754345,0.07964,-0.0503566,-0.0170836,-0.00579848,-0.106033,-0.17626,0.171344,-0.0230379,-0.0846351,0.197777,-0.220964,0.119407,-0.135288,-0.163883,-0.0303281,0.104627,-0.0371648,0.0911,-0.0265289,0.0401639,-0.200547,0.0804509,-0.0473921,-0.0703122,0.0259264,0.0754891,-0.10938,0.000142551,-0.0646372,-0.255796,-0.131648,-0.0288762,-0.02421,0.0114623,-0.0129224,0.0495864,-0.191499,-0.0548842,-0.105944,0.0286318,-0.184222,-0.121992,-0.155757,-0.0845656,0.124432,0.157384,-0.017948,-0.0595217,0.158765,0.0308017,-0.14439,-0.0358635,-0.179408,0.081567,-0.18934,-0.0114963,-0.196066,-0.0717805,-0.13956,-0.0238377,0.172551,0.0311394,0.0994345,0.125344,0.173659,0.101648,-0.0447183,-0.0270244,0.111126,-0.0730981,-0.189662,-0.153231,-0.0648818,0.0734854,-0.0351085,-0.149282,-0.0311522,-0.0339606,-0.116136,-0.116117,-0.00688773,0.0971352,-0.0900802,0.21973,0.00828209,-0.105838,0.085453,-0.00411215,0.239159,-0.0463311,0.0878731,-0.0640424,0.269269,-0.0185518,-0.0155284,-0.158102,0.209392,-0.100902,-0.0270801,0.0145478,0.131601,0.096559,-0.0386285,-0.0254318,0.0264957,0.0721589,-0.144748,0.318744,-0.0654608,-0.029803,0.245394,0.0101942,0.0891434,0
-0.0970483,-0.0607105,-0.0393649,0.27799,0.0201111,0.074257,-0.0318389,0.0836991,-0.0826045,-0.0200302,0.0129819,-0.148126,-0.0223805,0.150689,-0.070801,-0.173799,0.176551,-0.0763466,0.0665106,-0.153895,0.225241,0.0774444,-0.119979,0.21983,-0.0447144,0.0237837,0.177981,-0.0864184,0.122168,0.1701,-0.143456,0.0701977,-0.203682,-0.1944,0.0120246,-0.0574329,-0.138208,-0.130541,-0.0034223,0.163168,-0.000524575,0.112958,-0.0120544,-0.0187094,-0.0069232,0.114573,0.140581,-0.0749,-0.0098061,-0.155216,-0.0309511,0.142572,-0.0612717,-0.0478873,-0.0289161,0.298871,-0.159942,-0.0851909,-0.109333,-0.0801976,-0.144456,-0.292327,-0.0479186,0.122566,0.158333,0.0363672,0.137385,0.060909,-0.139933,-0.0229788,0.19554,0.091072,-0.0165006,0.0845269,-0.0567158,-0.14895,0.0552331,0.208624,-0.207407,-0.181895,-0.0482885,0.04787,-0.0492851,0.266865,0.183935,0.0300426,0.0491436,0.244556,-0.0821491,0.177718,0.115583,-0.194083,-0.0569805,0.113594,-0.101851,-0.0278123,0.134805,-0.0616457,-0.220158,0.0884046,-0.114822,-0.0657591,-0.110159,0.144192,0.00349686,-0.0450926,0.0635755,-0.0404853,-0.026496,0.0306948,0.0753068,0.159232,0.0190266,0.115565,0.0582731,0.075348,0.176675,-0.0303292,-0.0273965,0.173058,0.0291287,-0.0873372,0.139977,-0.212983,0.124246,0.0594457,-0.0799388,-0.0499135,0
0.0181122,-0.0702748,0.0119675,0.170757,-0.0314613,0.161341,0.0876748,-0.121664,-0.127342,-0.0240639,-0.0813208,-0.175979,-0.0678242,0.0263897,0.0929164,0.116588,0.0601501,0.153056,-0.0510862,0.0851472,-0.105666,0.0553026,0.108048,0.133826,-0.169955,-0.23766,-0.224459,0.00867191,-0.0685214,0.0100879,0.0956335,0.157477,0.0433021,-0.35453,0.0624389,0.0108026,-0.240394,-0.021156,-0.224674,-0.0748285,0.189552,-0.00911425,-0.119994,0.0138422,0.164937,-0.11779,0.0112018,-0.0376964,-0.22886,0.0856143,0.0893418,-0.0498846,-0.164586,0.196973,-0.175368,0.159243,-0.301002,-0.0711204,0.104711,-0.024853,0.0719124,-0.282566,0.0291578,-0.134349,-0.0792825,-0.00958882,0.0160982,0.199456,0.122006,-0.14846,0.179888,0.13011,0.127414,-0.0967856,-0.15533,-0.450081,-0.00110364,-0.00277932,0.411297,-0.263179,0.105009,0.092331,-0.158231,0.00925955,0.0987407,-0.0144042,-0.0536066,-0.0324646,-0.0556478,-0.160949,0.148056,-0.091,-0.0277753,-0.449014,-0.00558839,-0.00547317,-0.131659,-0.123226,-0.0978603,-0.133464,-0.0567999,-0.0431716,0.0286463,-0.0773512,-0.126828,-0.098935,-0.192373,-0.0508192,-0.0172144,-0.130727,-0.11969,0.0704275,-0.119728,-0.0412438,0.36055,-0.0464647,-0.05197,-0.0270957,0.0738475,0.047773,0.113107,0.174837,0.118982,-0.113405,0.0541917,-0.0952759,0.189363,0.123013,0
-0.128759,-0.0126466,-0.234313,0.00847487,-0.0624284,-0.0437149,0.0530489,0.26411,-0.228835,-0.0197557,0.0179001,-0.0577652,0.129432,0.151761,-0.00283381,-0.0292847,-0.116419,-0.117023,0.0696433,0.193026,-0.199699,-0.186438,-0.112828,0.177727,0.0231065,-0.105328,-0.010279,0.0591641,-0.0748639,0.177765,-0.199569,-0.196718,-0.178714,-0.0871232,-0.218447,0.0750827,-0.168347,0.0377126,-0.000978576,0.0395312,-0.0928462,0.0437113,-0.123604,-0.181985,0.0347191,-0.182091,0.13198,0.22413,0.0357937,-0.149652,-0.135185,-0.00102658,0.126692,0.133477,0.0854301,0.0938015,-0.0677009,0.0535986,0.0051128,0.162229,-0.152631,0.0320189,0.0715313,0.0574348,0.0767783,0.210164,0.132048,0.0862606,0.122457,-0.0807777,-0.0100612,-0.079396,-0.0688164,-0.00745321,-0.0466532,-0.00446816,-0.0767522,0.0429082,-0.260554,0.045545,0.207072,0.028577,-0.186249,0.0911462,0.133968,0.179099,-0.0785759,0.0852357,-0.127226,0.173073,-0.0705384,0.0678833,-0.0424393,0.131244,-0.0413548,0.0348055,0.252062,0.0897974,-0.265977,0.140233,-0.222007,0.0181526,-0.192294,-0.00263948,-0.071276,-0.0226123,-0.0409688,-0.0354762,0.169869,0.10023,-0.093621,0.0516525,-0.0233619,0.0340974,-0.130561,0.00403281,0.0466246,-0.0225234,-0.056446,0.0558461,-0.0357487,0.061742,-0.0567511,0.0954359,0.200766,-0.022926,0.142109,-0.0806211,0
0.120517,0.143354,0.20428,-0.175506,-0.0328291,0.0809012,-0.152362,0.0440963,0.0663832,0.0279912,-0.080059,0.252239,-0.151757,-0.290898,-0.242882,0.00338964,0.0115819,0.237631,0.0729981,-0.0400996,-0.0772827,0.0232812,-0.0192222,-0.095826,-0.0161122,0.00103131,-0.000688597,0.06853,0.0606524,0.0353495,0.0835631,-0.00756666,-0.2086,0.143096,0.222474,-0.110318,-0.0492134,-0.0125336,0.18943,0.0498164,-0.0366623,0.304835,-0.0686981,0.224749,-0.366332,-0.329878,0.0458334,0.00630739,-0.24205,0.021627,0.115412,0.0594274,0.0976219,0.0243802,-0.155838,0.13822,0.162519,0.110786,-0.352363,0.123143,-0.0936518,-0.0832593,0.0383904,0.172164,0.0195198,-0.0963183,-0.0755877,0.0926269,-0.205605,0.0117125,-0.0534837,0.197281,-0.149592,0.143001,-0.0128371,-0.0178639,0.116332,0.105455,0.298392,0.123504,0.00269625,0.103562,0.065014,-0.111242,-0.0956963,0.0273674,0.101836,0.0309533,0.0597969,-0.0866024,-0.0537119,0.00180163,0.187343,-0.129088,0.052765,0.117199,-0.229951,-0.279449,-0.223329,0.159764,0.0707828,-0.13027,-0.00419639,-0.0817986,0.293921,-0.19371,-0.105525,0.0351239,-0.0555639,0.0902006,-0.251784,-0.0892089,0.194382,0.214852,-0.17213,0.10879,-0.059912,-0.000471819,-0.000928763,-0.0618466,-0.0794422,-0.0250367,0.0511477,-0.0712551,0.186432,0.0118068,-0.101957,0.0112769,0
0.184338,-0.0973886,-0.296453,-0.0106347,-0.255372,0.148199,0.196067,0.0862826,-0.151865,-0.202741,0.0624964,-0.134266,0.0269677,-0.297868,0.188909,-0.120619,-0.133573,-0.187695,-0.0347346,0.0753225,0.0519729,-0.105708,-0.096139,0.0500113,0.104883,0.107121,-0.0821903,-0.109739,-0.194436,0.263781,-0.179814,0.236816,-0.231769,-0.0784341,0.0364339,0.138918,0.0470937,-0.108907,0.0870912,0.116702,-0.125798,-0.0101292,0.0775805,0.0564437,-0.218423,-0.00208728,-0.104772,-0.0335164,-0.116329,0.206606,0.278507,0.155346,0.245976,-0.0220829,0.200762,-0.161225,0.0729721,0.0233382,0.0817823,0.180637,0.0179721,-0.013973,0.146014,-0.151579,-0.0151932,0.023473,0.0773073,-0.117919,0.210125,-0.0277158,0.280516,-0.0285731,0.1363,0.155948,0.0446983,-0.0434761,-0.0708356,0.180461,-0.222133,0.0875859,0.234497,0.00944529,0.102492,0.0522917,0.101125,-0.0364141,-0.0450733,-0.0384633,-0.106124,0.0356992,0.0260636,0.0148206,-0.151728,-0.056083,0.0473909,-0.11286,0.0322246,-0.238784,0.0362141,-0.0660836,0.0667593,0.242413,0.0200311,-0.0442878,-0.00943612,0.0207306,-0.143281,0.102021,0.0281224,-0.247173,-0.017522,0.111018,0.102632,-0.12528,-0.0802161,-0.0339728,0.12496,0.111559,0.120539,0.0241819,-0.0541749,-0.183742,-0.0899282,0.167828,-0.182663,0.122319,-0.278984,-0.00116868,0
-0.202678,-0.188998,0.00745642,0.0981376,0.128874,0.0396029,0.0102579,-0.0113782,0.0694928,-0.063615,0.134093,-0.219638,0.234662,-0.0143409,-0.0842494,-0.23567,-0.232092,-0.0929257,0.176551,-0.204585,0.0912155,0.0146938,-0.0158754,0.116939,0.0587163,-0.0317604,-0.17438,-0.0883918,-0.105916,0.0403682,-0.035333,-0.241108,0.176396,0.0756816,-0.166805,-0.336051,0.13711,-0.0164762,-0.192627,0.188786,0.0181159,-0.0737327,0.071036,-0.0626992,0.0157906,-0.00298741,-0.126575,-0.0535964,-0.1469,0.132352,-0.0687151,0.255832,-0.147198,0.140223,-0.0246281,-0.245901,0.0602109,-0.0368385,0.0147074,-0.0846372,0.219585,-0.063783,0.0503313,0.0912261,0.122275,0.0356228,0.129845,-0.120566,0.0201363,-0.0491724,0.0512688,-0.0393252,-0.131042,0.019686,-0.141071,0.103475,0.15433,-0.122303,-0.08346,-0.169152,-0.185526,0.00149615,-0.0828388,-0.0634031,0.280171,-0.021786,-0.220335,-0.236449,0.160013,-0.100482,0.061561,-0.121356,-0.0497908,-0.109528,-0.00132084,-0.0752172,0.0574805,-0.107446,0.102448,-0.147116,0.212112,-0.104807,0.00812169,-0.0105448,-0.14042,0.09482,-0.0105664,0.202537,-0.0931022,0.106578,-0.131083,-0.196486,-0.0704584,0.074119,0.155411,-0.119533,-0.175938,-0.0555712,0.0507408,0.0199973,0.152684,0.116449,-0.198092,-0.224649,-0.0724087,-0.0582685,0.151201,0.0256166,0
0.0612674,0.0836632,-0.0747856,-0.183025,0.112682,0.0839927,0.26452,-0.152596,-0.115474,-0.146157,-0.0910302,-0.179776,-0.05823,0.0920574,0.145574,-0.0234046,-0.0676464,-0.230073,-0.111223,0.100276,-0.144538,0.148701,-0.0385451,0.260226,0.0736084,0.178086,0.0157513,0.0836734,0.0604034,-0.0467947,-0.001113,-0.0869245,0.015616,-0.0893057,-0.0796721,0.0229197,-0.111532,0.04613,-0.363782,-0.160614,-0.0132331,0.060054,0.000172164,0.0546565,0.0902577,-0.0720103,0.0269259,-0.216886,0.0764081,0.0086024,-0.0600744,-0.0184554,0.0128796,0.0586428,0.0674833,0.00287573,0.16893,0.00850495,0.197828,-0.143482,-0.00566797,-0.0412685,-0.0603232,-0.188118,-0.137074,0.0114127,-0.103292,0.224149,-0.0592006,-0.17137,-0.0169928,-0.0266444,-0.123696,-0.137339,-0.0895039,-0.00505592,-0.215819,0.230354,-0.00944443,-0.074895,0.126965,0.253689,0.100443,0.172428,-0.000832572,-0.00130233,0.186749,0.227079,-0.114425,0.0756948,-0.0114569,-0.0448139,-0.0309583,0.00841649,-0.0852851,-0.0967414,0.195078,0.147057,0.0628586,0.237952,0.112425,-0.0932702,-0.0435601,0.0347812,-0.0143031,0.131217,0.103302,0.025931,-0.094065,-0.104213,0.0517774,-0.13017,0.13566,0.105682,0.152105,0.0328943,0.0528964,-0.101189,0.00313377,0.00114768,0.238695,-0.0199245,-0.0857047,0.191894,-0.307684,0.0170003,0.237087,-0.0109067,0
0.036385,0.0414517,0.194039,-0.0781214,-0.0345178,-0.114341,0.106263,0.0892162,0.0555746,-0.0988447,0.0554663,0.13639,-0.10877,-0.112931,0.0457654,-0.0373163,-0.0286208,-0.0965964,0.143317,-0.157307,0.215224,0.0724613,-0.0680211,-0.0807187,-0.232144,-0.113241,0.299515,-0.00847625,-0.0539116,-0.199789,0.0561524,-0.158321,-0.11013,0.0799086,-0.0552954,0.23681,-0.113111,0.0560571,-0.0493787,0.113385,-0.140267,0.0316061,-0.133463,-0.184436,-0.0712908,-0.135277,-0.108518,0.131548,-0.147893,-0.0526635,0.0887909,-0.0374724,0.0933077,-0.0836573,-0.32446,0.151246,0.320594,0.128657,0.0620865,-0.203958,0.151269,0.18205,-0.0404079,0.0485135,0.441404,-0.104994,-0.0820726,-0.0788205,0.0482116,0.0118028,-0.0667046,-0.432949,-0.149333,-0.0027623,-0.0584833,0.184079,-0.0790642,0.0477667,-0.0848607,0.199053,-0.129723,-0.020648,0.0871082,-0.025058,-0.0640766,-0.014431,-0.133436,0.154155,-0.0338439,0.118767,0.00546825,0.166794,-0.137612,-0.104553,0.169008,-0.0524247,-0.0475643,-0.00767905,0.155175,0.0194964,0.102644,0.0426504,0.0876758,0.164202,-0.154481,0.0827211,0.0349195,0.16688,-0.259001,-0.237379,-0.283449,0.176366,-0.181643,0.203718,-0.00713109,-0.234339,-0.0873568,-0.0489757,-0.167634,0.0040347,-0.0518661,0.0361907,0.0167375,0.0935632,0.142392,0.0200749,0.185214,-0.0120492,0
0.0300074,0.0345438,0.235412,0.065966,-0.104782,-0.0908956,0.104542,0.0510012,0.151843,-0.0620225,-0.0482519,-0.136368,-0.195573,0.100589,-0.051349,0.0293292,-0.0912727,-0.179861,-0.234003,-0.0825941,-0.0470343,-0.0883904,-0.158354,-0.0182451,-0.130893,-0.0415682,-0.0303596,-0.139618,0.0341375,0.0818501,-0.199505,-0.210961,-0.0586557,-0.0686385,0.0538215,-0.0754983,0.0899082,0.0707462,-0.179654,-0.0361915,0.0136096,-0.337462,0.140497,-0.00605354,0.0754593,0.059389,0.137508,-0.0827371,-0.0064863,0.0520698,0.176071,-0.00502297,-0.0466826,-0.00291476,-0.0925063,-0.160581,-0.0504912,-0.140118,0.0673588,0.163013,-0.0310223,-0.044165,0.0119342,-0.112016,-0.00428305,0.00759452,0.214095,0.0347062,0.0655384,-0.169125,0.0208963,-0.0484555,-0.00180657,-0.216248,0.212214,-0.128726,0.241262,0.188556,-0.025977,0.0559675,0.00639543,0.0622985,0.0119012,0.0970474,0.101761,-0.0676547,0.135162,-0.10504,0.186681,0.00210784,-0.127226,-0.302182,-0.00506062,0.0803721,-0.130987,-0.0473204,0.130076,0.0812645,0.0966768,0.0885268,0.0311238,0.115224,-0.0575755,0.0488522,-0.16473,0.101581,0.0534882,-0.0995048,-0.00196657,0.399202,0.222285,-0.0198841,-0.104157,0.153359,-0.0215719,0.200577,-0.102685,0.0274886,-0.0979378,0.0252418,-0.05298,-0.10186,0.0878832,0.0276151,0.184957,-0.0466361,0.228887,0.0331882,0
-0.104477,0.177245,0.212317,-0.000188527,-0.281526,-0.052153,-0.233396,-0.0776188,-0.163719,-0.0867734,-0.0705892,0.095934,-0.000453551,-0.134743,0.0253529,0.105188,0.0152999,-0.0622481,-0.0327328,-0.298026,0.163071,0.144099,0.164412,-0.0221584,-0.180036,0.172471,0.0308952,-0.0595039,0.10802,0.00456509,0.115168,-0.122108,0.147351,-0.0824976,-0.146312,0.116632,0.0737471,-0.0251645,0.0513929,0.0205631,0.13021,0.117445,0.205716,-0.0079913,-0.0711977,-0.0144862,0.117793,0.0481085,-0.098609,0.0606622,0.193637,-0.02782,0.0155936,0.0801497,-0.0574682,0.15825,0.142206,0.0140014,-0.0276183,-0.175315,-0.0524299,-0.10016,0.0425972,-0.0852477,0.085026,-0.191571,0.088847,-0.0169469,-0.0605682,-0.0128325,-0.049487,0.0814288,0.0845678,0.0285565,-0.16153,0.0235071,0.00604837,-0.153599,0.0313692,0.0255057,0.118633,0.253777,-0.0106348,0.14298,-0.125969,-0.137338,-0.359073,-0.108861,-0.0998426,-0.0654792,0.224601,0.336884,0.117834,-0.0100599,-0.0573656,0.0703169,0.0104303,0.0468815,0.00755843,-0.0391049,-0.0865731,-0.0834308,-0.126446,-0.0823412,-0.094562,-0.120107,0.0521205,0.157073,-0.0581891,0.0453677,-0.0471853,0.144092,0.00123127,-0.0483238,-0.00920189,-0.00236063,-0.114192,0.0120071,0.0238754,-0.0755106,-0.100395,0.0199122,-0.319665,-0.205263,-0.22202,0.041156,-0.251496,-0.233662,0
-0.139119,0.0851924,-0.0581311,0.0618002,0.137137,-0.0558585,0.186524,0.0356572,-0.214329,0.0424912,-0.055213,-0.0508204,-0.0880676,-0.0776409,-0.331414,0.115349,-0.127992,0.088274,0.129213,0.0328879,-0.000932168,-0.0249241,-0.0487543,0.345893,0.148163,0.139551,0.26152,0.0162121,0.08095,-0.184359,-0.220404,-0.0553391,-0.217568,-0.0563955,-0.0429079,0.0596931,-0.175661,-0.0649518,-0.0103288,-0.0197379,-0.0811966,0.0659707,-0.0741508,0.200801,0.120261,0.0916687,-0.0554184,0.0917492,-0.0949189,-0.0484523,0.062838,0.101194,0.0196265,0.116035,0.0467,-0.0374652,0.00556629,0.0846374,-0.079109,-0.017121,0.151547,0.0693285,0.0523713,-0.266333,0.137084,-0.0650793,0.0667543,-0.0400445,-0.122431,-0.163112,0.0686592,0.177518,-0.0648061,-0.140671,0.128273,0.0418234,0.115279,0.175848,-0.237156,0.00129892,-0.0904101,-0.0151621,0.131801,0.0400452,0.195696,0.123416,-0.168127,0.0959642,-0.031164,0.279143,0.169542,0.108306,-0.115036,0.102516,-0.162005,0.0717957,-0.106183,-0.256794,-0.00300888,0.295493,0.0925772,-0.133183,0.120678,0.136179,-0.118892,0.110093,0.0739758,0.233825,-0.269293,0.252411,-0.106704,0.0724316,0.039056,0.0623327,-0.104716,-0.123186,-0.100233,-0.0164245,-0.0903721,-0.0147532,-0.0133491,0.137399,0.0869037,0.0528206,-0.0649508,0.00264035,-0.0109062,0.292365,0
-0.0288782,-0.0959542,0.0128345,0.061536,0.0935505,-0.0964935,-0.0850311,-0.0562551,0.178386,-0.0453526,-0.360874,0.0796396,-0.144398,0.0788822,-0.018381,0.0823415,0.225402,-0.045594,0.122429,0.120207,0.26317,-0.08866,-0.0556358,-0.0218848,0.0352113,-0.0104266,0.0106272,0.0645131,-0.0603727,-0.0318215,0.0714524,-0.203132,-0.142887,0.177797,0.114819,0.0497634,-0.0545897,0.00103022,0.133931,0.0298135,-0.00911148,-0.13731,0.114356,-0.0540536,-0.0907044,-0.164739,-0.0534754,-0.0838348,-0.0394466,0.137029,0.0859131,0.00740138,0.0484154,0.0944423,-0.146094,0.0279717,-0.00947052,0.0457495,0.0400264,-0.0668082,-0.0213014,0.0389337,0.141939,-0.0362294,-0.104913,0.108285,-0.168465,-0.109097,0.119173,0.165226,-0.0360875,-0.362671,-0.0917333,-0.00165468,0.175575,-0.02106,-0.0343452,0.139029,0.0888075,0.0882599,0.00437105,-0.0494161,-0.0697374,0.00229777,-0.0170918,-0.0447953,0.0350724,-0.0204067,-0.100553,0.0143251,0.153753,-0.0221413,0.0450104,-0.0282176,0.123214,0.193364,0.0522767,0.0651962,0.0977588,0.0332969,0.109059,-0.00512525,-0.0542058,-0.207238,-0.183282,0.0620059,-0.168072,-0.00362954,0.126777,-0.135102,-0.0825249,-0.0973378,-0.0219532,-0.0923053,-0.0282637,0.136824,0.0856993,-0.124477,0.0920778,0.110759,-0.149107,0.0795654,-0.0128247,-0.000689653,-0.103372,0.0194676,-0.110717,0.152048,0
0.142849,-0.160924,0.219693,0.0801554,0.208429,0.00605981,-0.000184211,-0.0270453,-0.10417,0.162646,0.0163494,-0.121864,-0.0226091,0.0824279,0.0151847,0.141454,0.0719073,-0.109405,-0.109804,-0.114193,-0.0272936,-0.0775233,-0.0480969,0.00562191,-0.0519274,0.0497457,-0.105341,0.061626,0.0877043,0.111481,0.0968339,-0.0197169,-0.193245,-0.138631,0.0630787,-0.043569,0.018321,0.0334251,0.0199331,-0.0441937,-0.150474,0.0204357,0.0285201,-0.0660142,-0.188752,0.00172539,0.0870616,0.00833979,-0.120049,-0.0756374,-0.0190089,0.0595743,0.164504,-0.205014,0.0952187,0.14774,0.100262,0.0770537,-0.0267092,0.0125419,-0.0132676,-0.172258,-0.178847,0.180264,-0.0875038,0.0442801,0.0021351,-0.105111,-0.0963387,-0.257093,-0.0208077,-0.186606,0.0873547,0.0521115,-0.0463704,-0.0286227,0.168939,-0.117143,-0.137242,-0.131563,-0.0699048,0.179692,-0.154673,0.00170659,0.320864,-0.165028,0.0350862,-0.0313863,0.0576666,0.421995,0.16734,-0.103367,-0.00118444,-0.113664,-0.303523,0.157261,0.112798,-0.13294,0.15131,-0.118179,0.0537304,0.0395826,0.0113306,0.074394,-0.154288,-0.167976,0.0338976,0.182194,-0.0551601,-0.0619693,-0.00437633,-0.298538,-0.0183069,0.0308211,-0.131631,0.198613,-0.0577095,0.0324108,-0.180717,-0.165057,0.0823745,-0.0148137,0.0770329,0.0719032,0.0458314,-0.0468394,-0.0690339,-0.0505843,0
0.0618499,0.173405,0.0557929,0.0248888,-0.0400403,0.121115,-0.0789818,-0.136583,0.0382639,0.0672574,-0.0765052,-0.163697,-0.0175802,0.0254564,0.112301,-0.0392771,0.0304435,0.0534071,0.129797,-0.052594,-0.0598875,0.00599438,-0.0275219,0.148644,-0.283903,-0.0288767,0.0755011,0.213612,0.00612101,0.093391,0.0881491,0.166199,0.277283,-0.00749216,0.128378,0.162107,0.0669151,-0.0242861,-0.025674,-0.0143935,-0.0214121,0.370879,0.0482986,-0.0661668,0.32204,0.164473,0.109956,-0.102256,0.0143797,0.0905577,-0.070823,0.0774022,-0.042911,-0.0243483,-0.0160018,-0.068627,0.0534275,0.173845,0.0826282,0.109588,-0.0980095,0.0491138,-0.0535422,0.115778,0.166532,-0.263428,-0.0674269,-0.00332773,0.0228351,0.0497667,-0.097079,0.0645136,0.211916,0.0359368,-0.0149545,-0.0284252,-0.0491778,-0.0725215,-0.076661,0.0683116,0.119533,0.0847909,0.059987,0.135453,0.0436445,-0.131267,-0.145444,0.0935116,-0.156054,-0.0563125,-0.0543763,-0.122685,0.028606,0.0874959,-0.20206,0.0486736,0.261211,0.156554,0.149221,0.0597262,0.0540151,-0.0340872,-0.136681,0.0945862,0.163966,-0.0675136,-0.137043,-0.019326,-0.0162615,-0.0259733,0.179278,-0.197951,-0.218675,9.48537e-05,0.163855,0.0227559,-0.045902,0.0657058,0.0174897,-0.0519652,0.0798092,0.0670636,-0.0517091,0.10141,-0.155581,-0.185172,-0.198835,0.0803359,0
-0.0659645,-0.0891433,0.162655,0.0363206,-0.124034,0.0120436,-0.204586,0.290316,-0.0779608,0.111854,-0.0709082,-0.00909897,-0.137159,0.00735007,-0.0939071,0.249928,0.315379,-0.0513325,-0.0430257,0.0612688,0.0655612,0.0520511,0.175962,-0.276042,0.0748473,0.00539906,0.172281,-0.0499117,-0.245937,0.161647,-0.0539027,-0.0156162,-0.127648,-0.12707,-0.0420547,0.278293,0.0440571,0.0710308,0.0338397,0.179506,-0.0643259,0.222886,-0.0774382,0.0785997,-0.223888,0.173058,0.0853332,0.164805,-0.00127683,0.0817004,-0.00545442,0.166826,0.316856,0.0540774,-0.0327034,-0.103562,0.0739973,0.0177718,-0.0644514,0.0941073,0.0175392,-0.0335982,0.208462,0.118119,-0.0613786,0.0959876,0.37588,-0.222346,0.173771,-0.00320008,0.159269,0.0546359,0.0837333,-0.13758,-0.145628,0.0262696,-0.0590492,0.139726,0.102275,-0.0140206,-0.162699,-0.104696,0.160354,-0.0973473,0.137031,0.0252031,0.00529961,0.172694,-0.023812,-0.0405914,-0.242546,-0.0352983,0.226802,0.0668439,-0.0838104,-0.0949831,-0.0403942,0.241685,0.037193,0.237048,-0.103241,-0.000814087,-0.068351,0.193,-0.0814706,0.0185957,-0.0949685,-0.166209,0.126724,-0.0744529,0.0530199,0.0538643,-0.186471,-0.0316473,0.0214021,-0.0418404,-0.129263,0.0449837,0.151592,0.119754,-0.18481,0.03413,0.171684,0.00825918,-0.108178,-0.270037,-0.0788391,0.0773207,0
-0.00367415,0.0290749,0.264012,-0.0710068,0.106019,-0.171891,0.220199,0.0372146,0.0532868,-0.035422,-0.058604,-0.0158115,-0.0050415,0.0116684,-0.0329504,0.0807246,-0.036014,-0.00341937,-0.266084,-0.168064,0.0271709,0.0336626,-0.0889002,0.0496193,-0.0543555,0.23232,0.0747903,-0.018278,-0.10181,0.0353796,-0.122184,0.0154831,0.0301663,-0.257956,0.0674985,0.146569,-0.124336,0.0750047,0.0633602,0.0192322,0.223941,0.0866661,-0.19799,0.0366804,0.0519045,-0.174744,-0.163466,-0.159039,-0.0472451,0.0348057,0.0746732,0.0801668,0.0405702,0.083148,0.178046,0.0314458,-0.00565813,-0.0559995,-0.0403533,0.154079,-0.0782387,-0.00562034,-0.116547,-0.00789152,-0.0575153,0.115792,0.0931051,-0.112214,-0.211205,0.0856559,-0.0693528,-0.136238,-0.0127945,-0.00769961,-0.109162,0.246589,0.0299107,0.241461,-0.0851612,0.118395,0.135115,0.0161516,-0.00842298,-0.197049,0.0375186,-0.0400684,-0.168387,-0.0698295,-0.00188219,-0.0700639,0.335589,-0.119282,0.0126831,0.129385,-0.228274,-0.124619,-0.139408,-0.0511451,0.0954729,-0.0326312,0.0407191,-0.159758,-0.288186,0.0313612,-0.116433,-0.0644254,-0.0549978,0.161146,-0.0853485,0.014611,0.197227,-0.198535,-0.0112271,-0.163091,0.288483,0.0664663,-0.0557182,0.0793341,0.176477,-0.27354,-0.227373,-0.0123503,-0.300534,-0.0598511,-0.0163823,0.0651259,-0.109112,0.0310932,0
0.0755181,-0.139182,-0.0997103,-0.237673,-0.174744,-0.148917,0.0117298,0.186501,0.0895621,0.0973397,-0.133231,0.00759171,-0.0823697,-0.18787,0.0903006,-0.310389,-0.175003,-0.209057,0.18796,-0.194173,0.0140346,0.0670861,0.0228148,-0.0993038,0.00635214,-0.0412583,0.0847067,0.194636,-0.00410681,-0.163207,0.0172046,0.117791,-0.13412,-0.0812814,-0.028414,0.069259,0.0197353,0.166195,-0.0600536,0.0102549,0.0768328,-0.158299,0.00462713,-0.130574,0.0877259,-0.0135462,0.00727498,0.0541007,0.226081,-0.146253,0.198627,0.114934,-0.093127,0.184441,0.0620226,-0.0945112,-0.148237,-0.131733,0.0872821,0.0651995,0.0377327,0.31021,-0.0487727,0.103068,0.0671686,0.021222,-0.218251,0.108542,-0.0854785,-0.0209982,-0.30009,-0.124526,-0.0134581,-0.114187,0.0310731,-0.264778,0.0276502,-0.166532,0.0173112,0.104934,0.102735,0.131418,-0.0316784,0.0256949,-0.0776911,-0.131544,0.11918,-0.0652189,0.0318468,-0.0950061,0.15607,0.224617,-0.0870059,0.010873,-0.0986623,-0.0169205,-0.114955,-0.0447167,-0.00130824,-0.141215,0.161543,0.091542,0.0313362,0.000596806,-0.00466895,0.387798,-0.215641,-0.0436462,0.00536598,-0.0531582,-0.181083,-0.0259982,0.0910817,0.0170143,-0.0483006,-0.0269006,0.0381934,-0.0887012,-0.121365,0.0215829,-0.0644561,-0.021255,-0.0146257,-0.141702,-0.168235,0.199897,-0.0735895,0.150758,0
0.16995,0.0220259,0.0482112,0.246443,-0.227971,-0.0196285,-0.0602379,0.0472392,0.281339,0.00412169,-0.237965,0.0938273,0.00158457,0.0314819,0.0927684,-0.0373198,0.0441666,0.148683,-0.0292964,-0.161033,0.16718,-0.209881,-0.0804395,0.150139,-0.0664528,0.0326111,-0.0609438,0.254211,0.0141831,-0.146436,-0.00197472,-0.0103922,-0.00371505,-0.120206,0.107121,-0.0201848,0.0191823,0.0551889,-0.128258,0.205947,-0.00441373,-0.0646219,-0.0939326,-0.0759479,0.229359,-0.13758,-0.0280152,0.147279,-0.309058,-0.0092852,0.25226,-0.18103,-0.0769518,0.0672551,0.0494622,-0.000430866,-0.0511706,-0.041805,0.0403248,0.135617,0.155246,-0.0858877,-0.000604638,0.102854,0.143311,-0.12825,0.0681483,0.0772572,-0.13891,0.101215,0.161081,0.334152,0.135987,-0.101355,-0.0432688,-0.153714,-0.0337724,0.0834339,-0.0188062,0.171927,-0.00349663,-0.0428839,0.0337365,0.0532251,0.0385044,-0.0431258,0.175433,-0.248736,0.178455,0.0792042,0.341876,0.0622769,0.0748484,-0.0534179,-0.00139182,-0.240451,0.0379266,-0.0953669,0.0740738,0.0475298,-0.0113146,0.167037,0.202608,0.0842851,-0.106365,0.0408185,-0.0303747,-0.0680576,-0.0873799,-0.151447,-0.00963966,0.286914,0.10951,0.0790831,-0.150533,-0.0138911,0.0775118,0.0473435,0.0372566,0.0559122,0.0520262,0.0996632,-0.057152,-0.00557178,-0.106726,-0.106189,0.074781,-0.114731,0
0.0102207,-0.0758062,-0.0348087,-0.0461391,0.0675219,0.018698,-0.341934,-0.00369763,-0.111073,-0.135792,-0.16211,-0.118807,0.23022,0.160464,0.12494,-0.215024,-0.0665747,-0.0540158,0.0675954,0.0329836,0.0878779,0.144036,-0.0318568,-0.130044,0.0108738,0.174109,0.14125,0.0170587,0.15227,0.00991296,0.127082,0.181045,-0.0849002,0.154809,0.0706694,-0.0647467,-0.0199173,0.0961969,-0.029694,0.0013758,-0.119486,-0.250457,-0.144117,-0.151313,0.151569,0.0138265,-0.061078,0.0359403,-0.111191,0.313651,0.0121504,-0.0880103,-0.357424,-0.095166,-0.0260889,0.0615279,0.054943,0.086761,-0.213018,-0.131618,-0.000145693,0.0633183,0.00966202,0.0870869,0.108867,-0.0341759,-0.222804,0.156193,-0.0764513,0.0559836,0.0998937,-0.0554143,-0.0580412,-0.134506,-0.0420976,0.0176285,-0.0608443,-0.195369,-0.182164,0.0615658,-0.0898464,0.307452,-0.0571607,0.0451186,-0.019629,-0.0466219,-0.0339311,-0.0625584,0.18487,-0.0380011,-0.0519005,0.0293528,0.0297694,0.21614,0.0622475,-0.103232,-0.0170808,0.0406516,0.189148,-0.0591885,-0.0317322,-0.17348,-0.11275,-0.0336642,0.0684803,-0.0840878,-0.0819642,-0.0447064,-0.0507769,0.0217826,-0.0614613,-0.0451101,-0.0362077,0.0338426,-0.114061,-0.0731191,-0.0364977,-0.0755061,0.150323,-0.0963428,-0.0592735,0.108941,0.14821,0.154022,-0.107623,-0.227432,-0.0157362,0.125626,0
-0.106052,0.0395337,0.172912,0.297575,-0.060195,-0.127711,0.113028,-0.0999301,-0.239682,0.116591,-0.23388,-0.0297847,0.138366,-0.260046,0.0756926,0.114225,-0.0822577,0.163298,0.0608567,0.259977,-0.317846,0.133237,0.0411013,-0.25847,-0.184754,0.23596,0.0427329,-0.0753029,0.0927008,0.00826847,0.0175482,0.00818661,-0.104717,0.0317693,-0.0186171,-0.036197,0.0769237,-0.0176265,-0.0835699,-0.0730058,0.127428,-0.116769,-0.0344201,-0.0429743,-0.0798819,0.135387,0.102288,0.00791851,0.0362873,-0.0202558,-0.143288,0.00661208,0.0758225,0.240913,-0.0625966,0.00911272,0.0383428,-0.207695,-0.0967872,0.0469345,-0.118456,0.0877328,-0.0650727,0.0744762,0.161073,0.106116,0.00690505,-0.136887,-0.0443244,-0.0947157,-0.0818806,-0.0832457,0.196456,-0.011337,0.0802503,0.103737,0.140254,0.0887815,-0.0722581,0.0214864,-0.26559,-0.163879,0.0835007,-0.105445,-0.0504502,0.0060161,0.0551001,0.068794,-0.156282,0.0953003,0.0574316,-0.0255938,0.0908575,0.0569358,0.206831,0.0419622,-0.231521,-0.228478,0.147306,-0.0405792,-0.046242,-0.249849,0.028417,-0.191215,0.033276,0.0346197,-0.0797363,-0.103482,0.154224,-0.161963,0.0941296,0.0184149,-0.0754034,-0.0849032,-0.091972,-0.0140244,-0.0800039,0.0430371,-0.116718,0.101013,-0.136478,0.0803562,-0.223053,-0.126461,0.0247804,-0.0890346,-0.073252,0.111751,0
0.0133656,-0.263467,-0.0661193,0.174011,0.116831,-0.101913,-0.161785,0.0997784,0.0387636,0.195492,0.148453,-0.107757,0.0309918,-0.162022,-0.106275,-0.0504231,0.229154,-0.0318498,-0.113519,0.100408,0.12629,-0.0807311,-0.043089,-0.353811,0.0504531,-0.121784,-0.0554016,0.186897,0.116706,0.10466,-0.128965,0.0186785,-0.162903,0.127819,-0.164451,0.0638756,0.0253038,-0.0615916,0.00366037,-0.0139886,-0.00629922,-0.0349658,-0.00524936,-0.00852634,-0.114185,0.0389051,-0.106776,0.0665615,0.014113,-0.0679714,0.0186079,-0.0489821,-0.0521526,-0.100325,-0.165797,0.0799017,-0.14742,-0.0177134,0.0137419,-0.0137615,-0.121209,-0.0132394,-0.0562008,-0.289866,0.0716469,0.206143,0.000589362,-0.136918,-0.206788,-0.0480476,0.184547,-0.11225,-0.0927616,0.141434,-0.0066742,-0.088529,0.215256,0.0838551,-0.168726,0.0535855,-0.140016,0.0191725,0.0542113,0.251191,-0.142177,0.131901,-0.0281638,-0.0784054,-0.0211979,-0.0028644,-0.0455815,-0.0695706,0.35865,-0.178013,0.0223957,-0.0314086,0.120624,0.0132899,0.0766724,0.0249345,0.0620935,0.225459,0.082081,0.132591,0.145792,-0.0844601,-0.0981586,-0.246578,-0.295756,-0.043593,-0.0189438,0.00868673,-0.0785749,-0.12705,0.210009,-0.0307195,0.266119,-0.178896,0.250178,-0.0452675,0.108936,0.010311,0.110239,0.209357,-0.0468072,0.00587524,-0.141582,-0.00204004,0
0.0174784,-0.119866,-0.0114817,0.0114275,0.0475052,-0.0581325,0.231879,-0.0691224,-0.00894688,-0.0951747,0.078163,0.000419026,-0.0581554,0.0647278,0.0805432,-0.164594,-0.182841,0.0192844,-0.101278,-0.0402048,0.035511,-0.0718604,0.0207932,-0.166739,-0.0989968,-0.149146,-0.0525473,0.0761804,-0.117795,-0.234178,-0.0982711,-0.0433791,-0.114169,-0.00551228,0.0984184,0.0138759,-0.235676,0.32746,0.00103598,0.157993,0.195372,0.197271,-0.000693528,0.0591973,-0.0244059,0.0339668,-0.089748,-0.0889138,0.0350419,-0.0895617,-0.152104,0.24089,-0.0331514,-0.219332,-0.149138,-0.0318349,-0.0356042,0.22347,-0.0130014,0.116218,0.210476,-0.00143402,0.0307496,-0.0674393,-0.0151901,-0.0715573,-0.0220554,-0.122335,0.105013,0.0349705,0.0887684,0.162106,0.124455,-0.0332211,0.160513,0.0487583,-0.0865439,-0.0824735,-0.0802191,-0.0513375,-0.102361,-0.184608,0.0728735,0.0563613,-0.190653,-0.132027,-0.155632,-0.169391,0.123961,0.11025,0.0161314,0.111858,-0.118282,-0.0106577,0.215093,-0.0780478,-0.316853,0.0308962,-0.034114,-0.0251979,-0.0366833,0.00645902,-0.0320379,0.0704203,-0.104953,0.00407431,-0.0389353,-0.0716328,-0.0962792,-0.098272,-0.112583,0.0826531,0.0717976,-0.0203669,0.0183662,0.0441891,-0.306959,-0.0732132,0.00320329,0.0353172,0.0493168,-0.169692,-0.0735686,0.0910511,-0.0146976,-0.114552,0.147985,0.116602,0
-0.0812477,-0.0758926,-0.219723,0.016352,-0.0814208,-0.059553,0.0753179,-0.0506889,0.177555,0.0588789,0.0148122,-0.0282939,0.0989554,0.250604,-0.0749694,-0.122498,0.165779,-0.0989623,0.0837621,0.38336,0.0411517,0.0543979,0.0418926,-0.0494516,-0.0648982,-0.0445746,0.0584776,-0.130872,-0.0599071,0.124551,0.0729089,0.0849596,0.108701,0.215018,-0.178721,0.0202356,0.0699873,-0.0542047,0.0927127,0.102479,-0.177021,0.18287,0.0788463,-0.0908855,0.0724301,-0.0250651,0.123692,-0.0809991,-0.298989,-0.0877701,-0.0125744,0.284466,-0.119383,0.117893,0.0147618,0.0254297,0.250641,0.0660603,0.118299,0.0766582,0.0386581,-0.0388363,0.136635,0.154348,-0.00607549,0.0786622,0.0725048,0.0112209,0.273127,0.00620335,0.127667,-0.00885141,-0.157645,-0.0738141,0.0495504,-0.203774,0.172407,0.170388,-0.00049796,0.0247769,-0.0307482,0.0174587,0.054991,0.0558083,0.015626,0.162128,-0.0268074,0.114409,-0.0148661,0.00519725,0.031306,0.0793306,-0.323992,0.120521,-0.145571,0.0324988,0.0627338,-0.0436687,-0.0293442,-0.161619,-0.143098,-0.10178,0.00319507,0.0450729,0.0565357,-0.172561,-0.167691,-0.014794,-0.138775,-0.0810159,0.00596095,-0.127996,0.0968382,0.052433,0.0351153,-0.00996998,0.0758018,-0.036692,-0.0441648,0.032935,0.20806,-0.107971,-0.0589337,-0.119136,-0.0846845,0.261717,-0.201303,0.107451,0
-0.0571281,-0.0705027,-0.0743638,-0.0929668,-0.0337047,-0.00497217,-0.1884,0.111728,-0.0288891,-0.0349196,-0.135871,-0.0759309,-0.0344269,-0.0169171,-0.125022,-0.0301431,0.109891,0.0696792,-0.0102287,-0.11676,0.139713,-0.117119,0.113759,-0.125858,-0.0421928,-0.00574466,-0.0126116,0.0297733,-0.102451,0.051639,0.097849,-0.101033,0.188304,0.0900813,-0.0708996,0.11767,-0.127907,0.185625,-0.234814,0.0402982,-0.182937,-0.0617669,0.0086441,-0.0260374,0.149068,0.0860334,0.0456914,-0.112738,0.101285,0.239214,-0.150896,-0.0198605,0.243885,-0.262746,0.110006,-0.0025703,0.0400365,-0.0248259,-0.189827,0.010827,0.12394,-0.112898,0.0545404,-0.0992564,0.115955,0.0131408,0.0802291,-0.288575,-0.0420958,-0.147835,-0.147334,0.246151,-0.0933162,-0.029619,0.104949,0.195095,-0.112418,-0.0336465,0.131361,0.0857642,0.0721904,0.164112,-0.0619534,0.130796,-0.154346,-0.0423832,0.0723013,0.0289042,0.102927,-0.113952,-0.213111,0.340217,-0.0521471,0.226777,-0.0961157,0.00737609,-0.0836932,0.0479976,-0.11302,0.115991,-0.165815,-0.0531529,0.0545599,-0.111709,-0.0820568,-0.071706,-0.0187311,0.226223,-0.0173951,-0.0205573,-0.155844,-0.0205995,-0.0239145,0.00580933,-0.0306807,0.121162,-0.0425815,-0.0138521,0.240742,0.0308062,0.0652626,-0.0849741,-0.208691,0.0251745,-0.157827,-0.0150862,0.135637,0.00371306,0
-5.69443e-05,-0.0515105,0.222557,0.00323307,0.0425615,0.22453,-0.133105,0.090835,0.0413777,-0.357413,-0.227608,0.0793927,-0.0674445,0.145719,-0.132699,0.0509923,0.214704,-0.0813845,0.0205549,0.131928,-0.00485746,-0.144132,0.208396,-0.070905,-0.117279,-0.0302533,0.0340498,0.112482,0.0761063,-0.0660511,-0.127392,-0.0591981,-0.104236,0.109617,-0.130688,-0.129757,0.172511,0.0599018,0.0544226,0.0633045,0.190504,0.0505864,0.118059,0.125817,-0.263632,-0.0604519,0.127401,0.23333,0.278986,-0.223363,-0.0497437,-0.0084244,-0.0952974,0.235424,0.257176,-0.0220003,-0.148047,0.207772,-0.1438,0.281795,0.210072,0.0139027,-0.151689,0.00154397,0.140262,0.0265051,-0.0652371,-0.0536187,0.0505412,0.128294,-0.0883746,0.145152,0.0396006,-0.129832,-0.124855,-0.20418,0.0187019,0.157398,0.134329,0.00175337,0.0678786,-0.0959808,-0.0732887,0.0993049,0.0594474,-0.205221,0.000258261,-0.0370211,-0.144723,-0.112649,0.0452724,-0.0167056,0.0879039,-0.0823609,-0.0165069,-0.0552777,0.0291403,0.0442513,0.282018,0.274005,0.0667047,-0.0644139,0.0443884,-0.0721622,0.0408864,0.101528,-0.252183,-0.0824458,0.181877,0.00518989,0.143572,0.0874137,-0.0157568,-0.0158006,0.116583,0.107116,0.00901893,0.0952963,-0.0389699,0.0718022,-0.00746121,-0.0578914,-0.119283,-0.0287879,0.139545,0.0288354,-0.0141321,0.244163,0
0.268765,0.137657,0.15745,0.0397193,0.0630567,-0.150393,0.147305,-0.0192595,-0.0164694,0.117907,-0.0538555,-0.185531,0.0696569,-0.000221232,0.174744,0.0809841,-0.0666236,0.0725045,-0.0368885,0.175036,-0.0162614,0.109167,-0.00188051,0.0286014,-0.00106519,-0.0248473,-0.235135,-0.135322,-0.0320623,-0.205735,0.123778,0.00341991,0.0263119,0.0170574,-0.0316714,-0.318863,-0.156455,0.0878555,-0.100896,0.0396343,0.0286408,0.0828401,-0.164483,-0.0246074,0.142047,-0.0498132,0.150841,-0.0672185,0.0642666,-0.0219054,0.0546277,-0.143676,-0.0430854,0.157282,0.143326,0.0215331,-0.086612,0.220191,0.15473,0.0269788,-0.0282505,0.00526639,-0.0158832,0.0170838,0.0428464,-0.123063,0.0691875,0.320368,0.00410715,-0.0868789,0.0628247,0.0436624,0.0787464,0.102243,-0.0648237,0.0183641,-0.0586641,0.0813959,0.124146,0.165169,-0.135157,0.145877,0.072378,-0.0746728,0.0102136,-0.024312,0.0481845,0.0753249,-0.0588333,0.0483672,-0.0840123,0.11692,0.0901085,0.0176336,0.00294113,0.0947528,-0.0897326,0.0735001,0.187016,-0.0297609,-0.0959676,-0.0847114,-0.168341,0.0416669,-0.137102,0.189928,-0.0222374,-0.114842,-0.229387,0.081421,0.381954,-0.169188,0.206413,0.0727262,0.021664,-0.126176,-0.0344832,0.201122,0.0120508,0.177413,-0.218016,-0.0313428,0.00203705,-0.0926809,0.090112,-0.134763,0.125801,0.0284,0
0.0328848,0.163838,-0.143698,0.141044,-0.00524702,-0.0851713,0.00250486,-0.0491363,-0.0243378,-0.241371,-0.0132356,-0.0481623,-0.0413247,-0.109861,0.208427,-0.0765321,-0.0740435,0.051533,-0.0734943,-0.0921849,-0.24884,-0.224416,-0.146865,0.0756463,0.263827,-0.174119,-0.116993,0.116805,-0.162535,-0.106545,0.201107,-0.195768,-0.0784439,-0.0585565,0.0127586,0.321866,0.125419,-0.159957,-0.112898,-0.00545162,0.275391,-0.146221,0.0823834,-0.144121,-0.0512003,0.0271901,-0.310417,0.0800834,0.0868851,0.187241,-0.110864,-0.0239357,0.0241823,-0.118893,-0.17459,0.157974,0.0414933,-0.205249,0.0879081,0.0253606,-0.080972,0.0728073,0.0688193,-0.070874,0.137369,-0.076616,0.0776593,0.0278028,-0.0305787,-0.0960072,0.0478715,-0.11698,0.118096,-0.112746,0.120052,-0.188632,-0.064847,-0.0931854,0.100411,-0.299213,-0.164056,-0.00816638,-0.127361,0.0101717,-0.00983201,-0.00977797,-0.162027,-0.0108477,-0.0762112,-0.119963,0.102562,0.105694,-0.117774,0.0962653,0.0580198,-0.112528,-0.0162785,-0.0154412,-0.0606113,-0.039649,-0.0745579,-0.0157347,0.00112366,-0.150136,0.0802211,0.0538088,0.0503353,-0.00572038,-0.0385372,0.153622,-0.017675,-0.0212642,-0.0476084,-0.0472399,-0.124302,0.173644,-0.200576,0.0298193,0.131194,-0.0130818,0.182933,-0.00153238,0.109389,0.12597,-0.0583021,0.0204186,-0.114472,-0.0467247,0
-0.0166224,-0.0957806,-0.0549537,0.0723861,-0.14886,0.044912,0.0827468,0.0914113,0.00643118,-0.135552,-0.234654,-0.0275125,-0.151324,-0.13888,-0.142194,0.268471,0.0113755,-0.135146,0.0355446,-0.114145,-0.0967734,-0.0346326,0.0548582,0.0998133,-0.0798135,0.0300544,-0.0135197,-0.229083,-0.0573891,-0.0936074,-0.228318,0.133872,0.0761526,-0.146899,-0.0112627,0.179943,-0.108837,-0.019428,0.00244976,0.0169157,-0.157602,0.099151,-0.0820725,0.325854,-0.045086,-0.0598635,-0.00698542,0.0769509,0.0426562,-0.121697,0.0378524,0.00934947,-0.0244747,0.249831,0.101437,-0.134881,0.120684,0.265575,0.277537,0.0650284,0.191254,0.0614223,-0.0902908,0.0168811,-0.195959,0.0205341,-0.0522173,0.0110571,-0.13441,0.0757323,-0.0881695,0.0812835,-0.01385,0.166327,0.011015,-0.0793368,0.148213,0.107582,0.0103889,-0.00614469,0.065711,0.185424,-0.0801355,-0.0647054,-0.12247,0.22399,0.125094,-0.00856159,0.20179,0.0763528,0.0314586,0.0477922,-0.117193,-0.322758,-0.166623,-0.0953185,0.22308,-0.269063,0.218334,0.150292,-0.0441817,-0.132278,0.102442,-0.0318257,0.212786,0.111231,-0.118826,0.134365,-0.0213448,-0.00568479,-0.0868543,0.110416,-0.0947125,-0.06203,-0.113215,-0.0674395,-0.071272,0.078301,0.0817451,0.110433,-0.0767567,0.0477863,0.0723059,-0.22016,0.118719,-0.0345627,-0.04304,-0.104504,0
