-16.262, 25.5283, 79.7012, -80.1557, -183.919, -74.1951, -180.874, 15.5243, 68.1136, -24.3399, 149.54, -128.767, -166.834, -63.3165, 29.6113, -27.5104, 29.2055, 16.1271, -38.2975, 24.3327, 9.6149, -1.77654, 215.587, 87.1128, 21.8062, 0.900958, 86.5868, 0.249007, 23.0938, -0.133555, -0.242006, -0.258186, 3.27571e-14
-6.57437, -22.3985, 391.974, -51.5815, -160.088, -132.666, -160.199, 221.704, 222.771, -22.9363, -60.9223, -228.507, 35.2851, 213.514, -35.1061, -10.678, -7.62732, 6.64235, 253.644, 294.315, 177.329, 286.677, 509.251, 476.992, 271.501, 166.496, 324.929, -0.000807887, -11.0058, -0.0902674, -0.206049, 0.462095, -8.34434e-14
6.82881, -16.2606, 28.2184, 18.636, 33.9889, 17.7999, 36.7393, 16.4221, -19.5503, -16.8149, -31.4975, 25.5783, 32.4991, 8.63712, -19.9151, 9.64644, -15.0037, -6.64055, 26.0401, 16.7508, 15.291, 38.8247, 6.44908, 24.8246, 9.60954, 8.70847, 20.2729, -0.228259, -16.4463, 0.118046, -0.235781, -0.632332, -3.18642e-15
40.0604, -29.4235, 8.2402, -14.2871, -38.1355, -29.5546, -40.9767, -5.60214, 11.8, 30.6672, 12.3572, -18.0796, -9.32575, 5.96316, -28.5374, 37.188, -33.2816, -39.517, -2.64484, -2.14773, -8.54138, 9.30288, 8.42213, 2.51122, -3.3976, -3.37068, 6.68834, 0.136242, 3.49495, -0.133019, -0.421211, 0.544443, -7.07328e-14
167.765, -79.9564, -343.465, 370.745, 288.714, 299.066, 304.195, -159.323, -139.933, 4.58493, -59.9423, -32.399, 36.4965, -77.5331, -70.8145, 196.014, -113.249, -167.801, -133.916, -330.404, -38.8187, -336.221, -302.651, -338.925, -306.422, -136.028, -271.625, -0.102123, 22.6268, 0.0523516, 0.108825, -0.15274, -2.30105e-13
39.8956, -40.3994, 22.9557, -24.969, -33.4936, -27.6673, -33.8079, 57.9577, 43.5743, -8.01136, 4.8727, -27.4307, -7.45169, 28.2235, -38.0742, 42.0963, -40.9033, -39.6567, 51.5469, 79.9727, 41.8648, 17.1424, 29.2574, 64.959, 73.5709, 38.551, 19.1762, 0.172133, -12.3443, -0.0516153, -0.21336, 0.387793, 8.94288e-15
227.239, -227.916, 33.3965, 128.035, 58.9092, -5.91505, 66.8834, 118.517, 74.2436, -67.9901, -146.326, -204.206, 113.014, 94.6918, -210.707, 235.058, -230.553, -227.167, 102.8, -99.2906, 272.931, 64.6667, -11.2763, 139.72, -16.4765, 75.2091, 5.18006, 0.113556, -78.4345, 0.336658, 0.255684, 0.183163, -5.90744e-13
179.552, -162.062, -16.2903, 36.3107, 16.2729, 58.592, 14.1013, 46.4502, 59.2677, 45.4236, 119.397, -35.4568, -129.242, -62.6108, -166.698, 188.613, -173.392, -179.893, -27.8013, 55.6061, 38.0619, -26.9918, -8.90086, 50.3408, 60.8062, 35.3598, -21.7947, -0.297256, -25.2931, -0.279075, -0.151087, 0.138753, 3.25149e-14
-17.9334, 35.8486, -6.29465, -43.8015, 0.0699974, -6.64875, -5.42849, -186.438, -145.828, 50.1646, -11.7636, 154.857, 26.7184, -73.2404, 29.4868, -22.7564, 30.3526, 18.1823, -139.718, -160.295, -196.051, 12.5807, -27.0517, -203.64, -174.023, -91.3525, 10.2132, 0.356006, 36.1779, -0.159815, -0.285303, -0.0870995, -6.31162e-14
-18.4399, 9.21639, -39.0795, 78.1644, 129.523, 93.2196, 126.932, -12.0865, -37.5827, 43.7186, -73.4615, 73.1719, 60.3267, 17.0179, 2.58386, -13.545, 8.08636, 18.7027, 14.1449, -7.37676, -16.5403, -21.3049, -67.5565, -25.7392, -15.2545, -4.93925, -31.9054, 0.0199014, -15.1644, 0.305936, 0.190874, -0.0810934, 1.77006e-14
32.4473, -55.1706, 62.1372, -44.298, -6.23554, -15.7683, -8.65391, 25.0301, -20.1079, -4.48046, 29.7042, 50.4927, -29.5058, -37.9299, -52.999, 31.1767, -48.985, -32.2835, 12.2948, 28.2072, 19.0904, 56.7307, 48.1446, 61.7217, 20.6979, 24.0834, 48.1477, -0.378046, -32.8552, 0.0972958, -0.290493, -0.186161, -9.0503e-15
5.3369, -20.9249, 95.4277, 59.1032, 131.067, 70.0766, 124.055, -36.5237, -76.7845, 69.0142, -81.1342, 127.843, 76.174, 2.1962, -40.1712, 14.4291, -21.1067, -5.07625, 0.258918, -27.1825, -43.3117, 104.859, 57.1392, 34.2142, -40.7203, -26.4357, 74.9676, -0.363897, -33.9709, 0.280511, 0.360068, 0.240232, 1.62169e-14
274.79, -285.306, 199.507, 90.3299, -29.7358, 14.536, -3.2217, -22.0381, -120.419, -148.684, 41.4711, -129.839, -56.0145, -140.65, -302.877, 305.705, -294.283, -274.806, -73.4155, -284.422, 147.651, 189.427, 198.132, 193.823, -237.95, -50.0632, 148.47, 0.0261912, -129.02, -0.0643009, -0.0826841, -0.128543, 5.76628e-14
60.6936, -16.7588, 168.3, -110.055, -134.245, -48.6687, -139.464, -291.238, -185.122, 39.3318, 80.4813, 116.67, -87.8125, -173.124, -22.0887, 69.3958, -26.1527, -60.926, -276.613, -286.101, -288.114, 97.4163, 272.215, -51.114, -298.679, -123.162, 157.994, -0.0589448, 34.8007, -0.083375, 0.322261, 0.057667, 7.20335e-14
-101.602, 68.3548, -400.115, -237.983, -260.363, -247.371, -269.299, 550.855, 443.09, -56.4332, 29.991, -241.969, -41.1727, 293.734, 116.388, -127.827, 86.3245, 101.659, 498.336, 792.898, 370.582, -424.185, -352.598, 107.184, 725.998, 325.203, -326.433, 0.115577, 23.5593, -0.0467114, 0.161986, 0.183842, 3.84271e-13
223.292, -211.659, 30.5703, 141.705, 45.5841, 111.078, 69.5723, -29.6734, -93.8364, -95.3373, 95.6793, -86.1598, -106.851, -157.01, -214.711, 243.71, -224.098, -223.051, -94.7373, -205.862, 83.1744, 15.8616, 47.5873, 49.1523, -181.593, -27.5652, 14.486, -0.345851, -72.1907, 0.0943946, -0.168286, -0.299334, -3.69368e-14
-0.162172, 0.0760005, -0.950626, 0.00517874, 0.61481, 0.677292, 0.0726188, 0.176744, 0.126452, 0.23473, -0.3061, 0.307232, 0.356842, -0.0781157, 0.085266, 0.350369, -0.170858, -0.269238, 0.59452, 0.592679, 0.143213, -0.765467, -1.00788, -0.416204, -0.0263471, 0.102552, -0.880875, 0.533223, -0.0187664, -0.165029, -0.158277, 0.168751, 1.06351e-16
55.1442, -69.2409, 181.021, 11.4118, -49.9474, -31.2596, -32.9326, -132.31, -149.683, -113.292, -7.07089, -51.8603, -3.75825, -119.573, -78.5152, 72.1382, -69.2138, -55.3041, -143.809, -340.484, 6.10116, 173.011, 183.776, 67.3636, -294.541, -112.26, 143.165, 0.316075, -61.9652, -0.157324, -0.207898, -0.0922548, 5.56726e-15
-303.543, 308.249, 459.924, -119.814, 36.7747, 43.6252, 6.32859, -544.427, -380.395, 281.813, -7.87908, 494.449, 31.2622, -190.948, 207.944, -323.981, 310.371, 303.681, -400.57, -397.068, -619.274, 456.348, 411.51, -143.336, -442.14, -206.286, 389.65, -0.242337, 114.86, -0.159917, -0.0102553, 0.181814, -2.92286e-14
64.2154, -29.7055, -37.5339, -83.459, -148.516, -27.107, -149.358, -66.3082, 24.3914, -10.75, 227.398, -51.3071, -234.092, -143.34, -31.4808, 45.4414, -37.8076, -64.0828, -143.52, -39.4494, -87.2674, -90.2909, 49.3626, -97.2915, -33.8655, -28.9206, -10.2683, 0.0626096, 38.2587, 0.59713, -0.00303531, -0.571859, -5.97437e-14
71.9864, -95.8386, 471.663, -56.2687, -115.871, -183.9, -108.741, -105.838, -126.555, -3.19461, -202.759, -38.8057, 206.077, 74.9606, -129.085, 101.927, -96.1362, -72.3891, 5.66148, -282.325, 19.8721, 481.34, 437.162, 369.314, -249.545, -22.3055, 369.962, -0.0438383, -79.4784, -0.196661, 0.085588, -0.079095, 1.83193e-13
4.20323, 0.0190706, -1.05871, -41.9935, -45.4707, -39.1135, -49.8274, -5.71273, 22.5915, 13.8715, 29.3285, -17.4231, -28.9575, -8.44163, 1.22414, 3.29329, -0.42739, -4.46164, -22.2964, -11.7794, -0.238974, 0.557988, -4.33464, -6.86152, 1.48488, -3.5617, -1.75599, 0.302425, 5.43241, 0.367762, 0.178589, 0.446943, -3.47468e-14
60.1647, -85.901, 207.235, -110.902, -100.65, -61.8575, -89.2805, 29.3203, -39.7063, -59.4686, -71.5435, 26.8473, 60.7476, 30.4582, -85.3983, 56.6037, -79.0509, -60.1167, 52.881, 17.2265, 38.9104, 214.034, 191.61, 205.805, 7.23144, 14.6441, 172.122, -0.44948, -36.1986, 0.0890769, 0.132013, 0.0683856, 5.76779e-15
-55.4537, 59.4112, -14.4087, -67.9854, -67.3263, -4.57777, -71.4625, -123.96, -100.552, 20.267, 39.422, 75.6689, -45.1817, -82.7688, 54.6162, -52.0709, 62.446, 55.2378, -108.132, -129.62, -119.14, -55.6295, 72.3133, -66.0838, -141.676, -67.6593, 16.2478, 0.263021, 18.2989, 0.0339516, -0.0846583, -0.287905, 8.3774e-14
432.223, -588.923, 351.849, 310.143, 433.787, 367.971, 473.468, 313.474, -237.655, -257.606, -109.441, 233.23, 138.814, -89.2731, -599.904, 418.481, -561.415, -432.548, 310.55, 301.781, 313.418, 399.676, 237.59, 364.059, 189.318, 158.221, 277.341, 0.272417, -268.597, 0.223174, 0.101365, -0.0803437, -6.95776e-14
82.6962, -118.256, 379.351, 241.75, 254.589, 123.543, 268.307, -199.825, -277.196, 1.95789, -229.092, 101.23, 251.352, -15.4794, -150.611, 119.007, -115.396, -82.5534, -78.5031, -405.092, -56.251, 409.64, 297.003, 201.357, -385.286, -139.042, 278.127, 0.00610176, -94.2415, 0.0795607, -0.228325, 0.0236551, -1.74571e-14
-28.1309, -24.4904, 72.4329, 146.322, 192.131, 171.81, 191.913, 25.1125, -88.0251, 26.4038, -4.38081, 141.074, 12.7548, -65.1953, -41.2963, -37.5285, -15.5394, 28.4867, 21.2005, 35.1888, 19.3891, 95.3012, 33.4793, -24.3198, 10.6221, -5.77063, 70.0448, -0.168283, -45.9577, -0.126599, -0.0674924, -0.473744, -1.81814e-14
-280.427, 277.994, 121.489, 91.1188, -189.869, -90.2903, -143.586, -197.423, -72.3627, -190.883, 83.2838, -366.646, -131.6, -183.942, 215.26, -208.203, 270.627, 279.888, -305.953, -701.675, 140.637, 113.103, 132.822, 5.03352, -517.605, -145.765, 93.4737, -0.186288, -25.2223, 0.651996, -0.273296, 0.452578, -9.85693e-14
-8.03646, 45.224, 116.315, -49.0637, -19.5306, -27.5724, -23.1258, -352.299, -268.614, 66.0271, -31.2571, 166.93, 47.267, -147.433, 31.6902, 13.8443, 30.9599, 7.99386, -286.5, -455.786, -267.846, 115.474, 109.283, -149.148, -435.329, -170.13, 94.1894, 0.329776, 29.5138, -0.1527, -0.307764, -0.00810364, 1.03075e-13
119.023, -86.3088, -121.311, 138.725, 102.348, 111.464, 110.319, -13.6599, -50.9586, 8.42451, -6.3446, -1.2227, 8.07667, -32.9935, -92.7683, 131.051, -102.835, -119.206, -10.596, -58.9969, 17.9378, -110.821, -124.654, -75.6833, -67.5811, -7.73005, -98.7307, -0.180817, -7.81176, 0.061496, 0.0850244, 0.123291, -3.4088e-14
40.8864, -14.7245, 35.584, -7.53693, 4.31484, 26.9409, 2.63362, -233.112, -178.175, 52.4539, 38.5668, 108.602, -34.5679, -152.2, -24.2804, 62.9467, -25.3331, -40.4866, -222.797, -316.349, -165.436, 38.2964, 28.9703, -122.368, -296.495, -84.7974, 29.8727, -0.239904, -12.0606, -0.568006, 0.402125, 0.328395, -8.36055e-14
-67.0532, 62.6178, 7.3764, 89.3393, 51.4976, 41.9374, 58.1409, -16.5265, -15.9095, -10.0588, -37.0775, -36.5339, 33.3006, 10.6709, 63.429, -51.0872, 64.9712, 66.6087, -5.47558, -77.7707, 25.0865, 8.91755, 0.975949, 0.935561, -61.9364, -14.3922, 3.25147, -0.579889, -6.76236, -0.0784514, 0.259984, -0.152007, 1.32064e-15
-82.638, 86.1962, -43.375, -10.0627, -33.8694, -18.6756, -32.6468, -42.439, -6.97936, 18.4663, 0.141968, -27.9037, -13.8546, -17.1822, 73.194, -82.8477, 83.1736, 82.7391, -47.3101, -103.863, -2.18021, -42.2846, -31.9187, -65.0668, -76.6888, -50.3721, -30.9366, 0.281182, 12.7228, 0.220979, 0.130873, 0.230132, 2.46258e-14
421.368, -424.589, 486.024, 305.514, 292.527, 270.247, 320.677, -435.851, -529.968, -37.1257, -89.0994, 200.934, 97.7943, -306.794, -487.046, 460.67, -441.732, -421.062, -360.319, -784.78, -195.515, 488.958, 440.019, 165.129, -752.707, -243.691, 370.685, -0.508752, -171.93, -0.126174, -0.144496, -0.1448, 8.61667e-14
-74.023, 35.7502, 65.5868, -111.018, -60.7636, -115.812, -64.2105, 129.986, 79.6186, -25.7146, -28.4765, -4.38598, 39.42, 77.0513, 34.4987, -76.7184, 46.176, 73.1658, 126.397, 183.973, 87.5184, 91.9199, -1.12188, 134.728, 173.309, 61.0039, 35.2769, -0.326352, -23.4626, -0.256952, -0.172546, 0.00737839, -1.78319e-13
-15.7503, -16.6605, 52.9216, -14.3995, 0.128053, -12.4095, 13.1866, 69.8161, 15.4218, -128.313, -14.8754, -20.1905, 25.7112, 25.4634, 6.82625, -20.519, -1.42341, 16.0871, 66.3278, 93.9224, 50.8562, 55.0749, 36.2861, 75.2342, 82.429, 38.2767, 37.2074, 0.234384, -20.743, -0.179152, 0.355093, -0.227832, -1.31999e-13
-15.0392, 24.6529, 12.1294, -35.5265, -88.3566, -53.1227, -94.7409, 20.464, 78.5688, 54.0113, 49.6565, -103.72, -57.2289, 23.0939, 31.6634, -23.3814, 25.9577, 15.0804, 8.15118, -2.76558, 38.7602, 2.65724, 37.9654, 33.4848, 19.4968, 17.6227, 18.9586, -0.071162, 21.5706, 0.269039, 0.113542, -0.0637133, -2.44456e-15
-4.89128, 18.5471, -97.6205, 90.2561, 113.785, 56.7948, 107.383, -61.6567, -94.5543, 87.4211, -101.49, 62.8247, 96.0964, 3.14717, 9.83058, 2.5635, 9.87932, 4.93221, -14.5283, -149.751, 2.85668, -54.0644, -131.265, -57.5381, -140.897, -42.4663, -82.6387, -0.0176278, -2.79041, 0.0010419, 0.0242278, -0.0995177, -3.35437e-14
-131.487, 179.209, -843.633, 285.482, 173.399, -15.7178, 170.108, 538.523, 603.607, 41.0327, -318.173, -518.144, 280.806, 570.983, 264.763, -145.067, 167.234, 130.969, 533.765, 431.135, 606.135, -750.504, -862.949, -119.118, 559.365, 285.959, -709.767, 0.103585, 70.1121, -0.179549, -0.0740614, -0.414591, -1.58133e-13
548.87, -532.715, -82.4103, 488.63, 110.013, 217.823, 171.126, 189.682, 1.799, -237.822, 93.5833, -473.494, -152.643, -152.314, -525.68, 603.617, -560.596, -548.359, 37.1247, -345.211, 530.953, -89.2334, -52.6182, 151.72, -229.347, 30.4579, -90.97, -0.0578578, -219.315, 0.283641, 0.13531, 0.0652103, 3.07953e-13
-22.4619, 43.5525, -72.4717, 16.9103, -4.70168, 29.8785, -7.79747, -74.4503, -16.9737, 37.1912, 48.4729, 1.75202, -52.0127, -44.2588, 41.8701, -13.4138, 37.1515, 22.3906, -82.0776, -79.507, -69.185, -83.9908, -48.4546, -110.668, -71.8435, -35.0756, -52.566, -0.253329, 20.5464, 0.0524501, 0.0263482, -0.1466, -5.43822e-14
181.811, -160.422, 14.2836, 67.339, -44.4357, -9.46134, -27.0213, -4.71457, -24.1419, -68.7432, 32.2829, -144.01, -48.9602, -64.937, -166.725, 201.461, -176.438, -182.174, -44.7298, -187.438, 115.915, 11.5091, 28.2494, 46.3795, -140.981, -5.42361, 5.45221, 0.323553, -50.3646, 0.0207547, -0.0958324, 0.232101, 4.63659e-15
353.15, -314.935, -159.5, 281.7, 237.318, 288.902, 260.208, -253.938, -258.627, -61.298, 133.306, 53.7379, -152.459, -314.565, -317.777, 382.652, -342.436, -353.652, -335.94, -511.041, -83.4399, -162.414, -165.875, -299.815, -447.275, -183.247, -156.844, 0.14359, -89.5398, -0.183142, 0.102188, -0.0506308, -2.5284e-13
140.214, -10.5363, 194.894, 109.936, 159.978, 254.991, 115.879, -867.853, -500.145, 422.117, 134.306, 429.979, -100.175, -363.531, -46.2985, 115.836, -41.1064, -140.27, -728.879, -811.498, -875.008, 84.2275, 405.333, -430.579, -833.397, -408.99, 220.236, -0.302254, 163.844, 0.289113, 0.184894, 0.168403, -9.50165e-14
-19.8948, 19.4841, -0.125521, -12.1218, 6.78958, -12.8022, 9.13513, -7.06725, -20.9351, -15.2721, -25.823, 21.239, 29.9227, 6.5335, 14.3496, -18.707, 19.538, 20.15, 6.00285, -6.35411, -8.44228, 8.75899, -17.1184, 1.36602, -9.96697, -4.04382, -3.28171, -0.0995714, 1.07139, 0.0116243, 0.49736, -0.121445, -4.97878e-14
-0.582258, -5.52813, 12.9053, 13.7576, 25.1459, 24.9347, 27.9592, -3.47915, -22.8152, -17.6077, -7.78289, 22.3111, 8.65805, -8.56346, -4.64073, 2.72749, -3.46259, 0.742269, 0.757366, -1.74773, -5.21884, 11.7259, 12.9045, 8.31638, -6.81439, -0.0024405, 11.9596, 0.0834226, -8.44948, -0.275665, 0.0875967, 0.172827, -5.98515e-15
-303.319, 334.578, -258.599, 273.797, 274.221, 276.717, 272.947, -578.099, -358.466, 220.167, 117.308, 174.644, -102.801, -364.635, 301.313, -260.45, 329.474, 303.259, -619.78, -952.035, -305.717, -212.326, -291.553, -635.502, -785, -320.484, -218.285, -0.052106, 50.1382, 0.0363913, 0.403415, 0.12636, 6.47581e-14
-127.031, 158.004, -120.409, -138.422, -236.392, -203.346, -242.09, 46.8452, 146.301, 12.2034, 10.9848, -185.295, -31.392, 74.1178, 164.729, -118.039, 149.647, 127.269, 20.2813, 22.5956, 65.841, -140.354, -46.8605, -57.3449, 55.2795, 25.1613, -75.6043, -0.338033, 53.2786, -0.00661836, -0.258319, 0.487568, -8.99143e-14
-32.3342, 2.76909, 28.1072, -107.009, -129.39, -99.4825, -119.468, 158.289, 100.748, -103.734, 17.4055, -83.0683, -22.4099, 53.9408, 14.2824, -40.3914, 14.9786, 32.4929, 130.287, 205.196, 120.08, 25.7685, 24.3343, 110.665, 186.841, 72.5256, 22.1861, -0.00912607, -16.5786, -0.24398, -0.0970898, -0.0507166, 3.21266e-15
34.7423, -76.989, 204.683, 29.9816, 44.7683, 24.1402, 49.5827, 20.2948, -35.1855, -27.8184, -38.6352, 29.2123, 60.4849, 14.162, -62.913, 16.9713, -61.9732, -35.2389, 39.1719, 7.14585, 29.2763, 214.327, 174.252, 144.807, 1.86759, 7.69505, 155.579, -0.729493, -34.503, 0.0791141, 0.0484596, -0.403325, -6.39485e-14
51.0664, -86.6004, 253.778, 5.95956, 39.8248, 40.7146, 47.8968, -30.4659, -116.881, -53.3391, -16.6558, 110.758, 24.1035, -59.9301, -101.829, 56.7931, -80.0093, -51.8456, -14.7048, -14.9998, -42.5966, 242.171, 235.327, 121.335, -46.9578, -16.9416, 208.996, 0.146315, -52.5006, 0.181767, -0.403222, -0.246502, -5.26137e-16
95.6161, -26.5003, -320.045, 248.126, 216.196, 256.701, 217.753, -304.888, -209.529, 93.1467, 46.459, 84.1567, -64.0342, -205.356, -22.4835, 94.3444, -56.3155, -96.2525, -320.659, -485.075, -175.926, -306.635, -272.726, -486.76, -424.649, -177.435, -244.627, 0.427804, 37.3122, 0.285403, -0.20874, -0.242108, 2.61584e-14
-0.133658, 0.482566, -0.416517, -0.256024, 0.117523, 0.291587, -0.286471, 0.493476, 0.608991, 0.0273409, 0.701195, -0.649277, -0.878, -0.713769, 0.295831, -0.180067, -0.0845246, -0.0357104, -0.869321, 0.436997, 0.0775437, -0.488497, -0.844022, -0.719944, -0.315704, -0.512218, -0.563384, -0.121616, 0.199014, 0.381772, -0.237295, -0.0192131, 1.68987e-16
316.162, -336.142, 383.909, 183.321, 52.4615, 163.465, 89.6716, 263.693, 136.371, -189.031, -7.1091, -168.32, -15.7703, 88.6086, -285.014, 322.898, -328.612, -316.501, 215.747, 249.882, 276.741, 434.005, 282.335, 259.707, 259.439, 113.326, 350.262, 0.344546, -113.756, -0.288759, 0.112788, 0.393935, -6.36412e-13
-529.375, 478.462, 789.484, -185.37, 77.8309, -101.073, 76.0482, -750.996, -676.254, 19.4001, -332.537, 584.702, 378.757, -189.425, 278.25, -528.791, 477.42, 528.622, -511.816, -843.827, -659.097, 843.699, 653.27, 0.400964, -840.975, -343.705, 637.119, -0.138577, 46.2954, -0.265158, 0.218322, 0.10097, 1.96487e-13
32.5587, -64.8118, 121.037, 10.2736, 46.2781, 27.4759, 51.0302, 25.9385, -63.0078, -26.4953, -41.6447, 73.3599, 46.8724, -13.0768, -69.3132, 34.856, -58.1948, -32.7238, 39.226, 25.7362, 25.1222, 127.777, 97.1996, 82.4512, 6.518, 7.84934, 98.4256, -0.225245, -43.537, 0.459429, 0.37083, 0.0785189, -1.95712e-15
-40.1592, 99.8617, -99.8284, -27.6574, -133.979, 6.54837, -145.432, -119.13, 45.1981, 46.6712, 375.592, -95.6525, -371.92, -213.478, 117.675, -52.9792, 88.8684, 40.0459, -218.856, -66.4882, -162.574, -251.636, 80.3755, -219.721, -62.2523, -42.5614, -57.6409, 0.259756, 99.366, 0.102666, -0.0496595, 0.0621223, 1.16434e-14
-52.225, 68.6038, -125.762, 14.9772, -10.9274, -11.3417, -10.5174, 31.1376, 67.0961, -2.63576, 3.89317, -71.1765, -9.22495, 36.0846, 74.5604, -53.0285, 64.9095, 52.6543, 19.7714, 24.3445, 34.7479, -117.456, -118.74, -68.9474, 40.1493, 15.5668, -101.332, -0.167502, 29.5464, -0.383962, 0.45704, 0.202922, -1.80566e-14
-11.9089, -19.4547, -3.41615, 159.079, 259.21, 143.89, 261.533, 59.2555, -81.9202, -0.0752217, -174.136, 128.43, 183.147, 62.907, -27.0791, 2.52838, -14.8551, 11.3549, 114.26, 58.3205, 57.9304, 23.9814, -52.1887, 38.9915, 30.5275, 26.9812, -12.1318, -0.0531012, -54.2105, 0.0532322, 0.0905682, -0.307362, -8.33494e-14
-32.6489, 57.2346, -25.8036, -140.02, -115.829, -26.0899, -119.003, -226.543, -148.505, 14.4683, 221.183, 150.227, -207.579, -249.294, 48.4299, -47.8372, 50.8066, 32.7377, -279.996, -189.589, -248.107, -40.0923, -10.8989, -264.809, -197.226, -122.493, -15.8395, 0.506992, 53.7096, 0.0664984, -0.308641, 0.303695, 4.79225e-15
0.0530469, 41.7021, 519.905, -184.158, -395.289, -119.967, -386.322, -189.999, 65.6587, 44.375, 347.577, -124.424, -397.154, -221.259, 14.3456, -15.4969, 32.5896, 0.461455, -339.727, -174.538, -188.072, 439.154, 601.185, 84.6564, -119.475, -102.01, 462.795, -0.0207305, 77.14, 0.0718898, -0.27415, 0.183092, -1.01957e-13
-53.6892, 61.7124, -17.5109, 65.823, 53.5975, 42.086, 59.184, -62.5628, -55.8327, -24.718, -58.9572, 11.4341, 64.5135, 17.0607, 63.8371, -36.763, 60.3792, 53.8061, -23.3268, -71.7377, -54.4462, -27.2729, -6.69606, -23.3768, -81.9515, -24.821, -11.9167, -0.0936575, 5.76576, 0.00682274, 0.0941545, 0.432781, 2.74793e-13
100.556, -53.3521, -105.667, 8.12822, 153.933, 31.4997, 145.458, -134.306, -134.552, 56.3215, -142.064, 191.853, 168.936, 3.51943, -62.208, 98.1978, -71.1805, -100.399, -70.5244, -131.049, -131.751, -55.8227, -165.48, -166.675, -129.753, -62.0877, -90.3622, 0.123805, 23.3884, 0.19623, -0.160001, 0.611673, 1.9655e-13
-37.0977, 41.164, -148.231, 63.2654, 68.4159, 18.5097, 67.7629, 58.6774, 49.3606, -0.989595, -64.6368, -43.3755, 68.4793, 71.9436, 53.9178, -36.47, 41.4394, 36.8659, 68.0447, 48.908, 64.7097, -127.441, -162.137, -54.8004, 54.7314, 27.2591, -126.076, 0.476192, 11.4639, -0.178395, 0.377786, -0.0519796, 2.3134e-15
-124.226, 111.995, 10.112, 167.844, 188.819, 167.05, 201.926, -216.397, -219.986, -8.63084, -10.2222, 107.789, 22.3534, -143.097, 117.428, -101.538, 119.076, 124.752, -197.601, -355.639, -115.593, 30.4689, -26.9453, -153.691, -327.954, -122.242, 0.750611, -0.214047, 0.142261, -0.399285, -0.0432614, 0.182789, -3.64695e-14
-23.4497, 84.2175, 32.0952, 43.7606, 18.6044, 61.9362, 10.6685, -299.023, -158.07, 130.811, 12.6552, 84.5856, -27.4545, -115.637, 59.095, 4.71158, 62.5442, 23.656, -265.586, -378.109, -233.469, 3.87318, 89.4483, -162.908, -345.97, -132.255, 43.1886, -0.0358138, 44.4488, -0.450371, 0.0907162, -0.266304, 3.75894e-14
105.293, -98.0246, -80.8678, 85.6729, 36.2669, 71.0291, 43.3722, -13.1893, -33.6808, -24.2924, 42.9989, -40.9079, -54.2476, -70.7996, -79.5758, 104.528, -101.697, -104.692, -46.1238, -94.9692, 36.8037, -90.4619, -45.648, -86.7223, -78.3392, -23.9436, -56.7692, 0.266923, -22.6268, -0.457469, -0.184039, -0.179158, -2.56778e-14
-9.32894, -12.0456, 60.5329, 43.8379, 98.1871, 40.5757, 101.715, 13.4331, -62.0944, -2.31424, -90.9797, 82.136, 104.934, 25.6861, -25.2444, 1.19923, -8.15091, 9.83836, 54.74, 11.9032, 15.4518, 67.4436, 28.0365, 51.4532, -5.71389, 3.03719, 43.6531, -0.385892, -31.1315, -0.151009, 0.0286339, -0.202225, -3.86028e-14
143.917, -122.775, -134.005, 166.047, 209.647, 122.009, 218.97, -120.386, -268.999, 59.1537, -112.78, 173.503, 130.663, -106.992, -131.898, 192.501, -142.775, -143.649, -67.0985, -317.545, 15.767, -80.7541, -192.349, -98.086, -311.909, -93.3099, -114.121, 0.186878, -68.8599, -0.0256087, -0.0172555, 0.0415479, -4.59219e-13
84.6446, -123.695, 63.0629, -60.2097, -129.178, -200.559, -108.008, 459.453, 294.942, -273.132, -135.538, -355.951, 105.362, 261.007, -121.799, 117.157, -123.379, -84.943, 419.023, 378.963, 494.796, 59.8571, 28.6862, 441.539, 400.215, 229.953, 19.4738, -0.424692, -110.577, 0.319909, -0.0790727, -0.163975, 1.87632e-13
-32.8262, -51.1803, 373.33, -4.09658, 136.687, 54.3223, 166.257, -60.696, -304.993, -190.16, -187.032, 283.98, 203.512, -62.3944, -124.213, -9.94038, -40.6134, 33.175, 28.4036, -47.5613, -69.1351, 423.063, 243.304, 185.635, -121.81, -35.4299, 289.989, 0.01637, -109.032, 0.141173, 0.280721, 0.581401, 9.85676e-14
-27.3021, 49.0855, 551.706, -207.019, -355.48, -153.499, -346.068, -291.88, -137.157, -109.657, 267.921, -13.7694, -276.668, -250.125, 6.56633, -31.0914, 45.3038, 27.3147, -324.096, -231.569, -329.118, 406.33, 728.647, 107.273, -258.726, -165.646, 501.521, 0.118428, 51.7114, -0.173748, -0.186792, 0.109375, 1.27533e-13
-52.2829, 53.87, 62.1931, -47.0295, -73.3651, -27.5934, -74.1255, -16.8136, 13.1109, -1.99353, 17.0386, -29.7539, -38.3261, -10.5782, 51.2671, -36.9529, 54.7845, 52.439, -24.5224, -14.2724, -17.2604, 24.4115, 123.203, 33.9051, -14.3577, 5.77373, 72.6185, 0.205896, 4.5983, 0.547168, -0.14608, 0.0341548, 7.47275e-15
213.277, -180.3, 102.553, 64.5041, 18.3858, 62.8809, 30.1419, -220.536, -164.7, -23.1237, 102.262, -25.395, -114.676, -228.42, -187.919, 230.124, -196.991, -213.109, -285.883, -455.577, -58.1083, 62.6599, 138.092, -14.821, -380.698, -132.961, 68.7386, -0.268853, -42.3554, -0.196698, -0.225126, -0.0668643, 6.68351e-14
-25.7329, 26.332, -84.48, -12.4179, -43.5923, -30.3197, -38.6373, 107.219, 96.8192, -19.7471, -15.3304, -90.1124, 2.85884, 68.7314, 29.5878, -26.4278, 24.8299, 25.7859, 92.0259, 90.8889, 116.966, -61.928, -101.775, 19.4959, 105.961, 56.1196, -68.4836, 0.447448, 0.212389, -0.0978394, -0.145677, -0.180308, 2.46591e-14
74.2859, -73.484, 205.244, -60.6261, -198.325, -158.39, -176.896, -109.936, -69.9854, -116.265, 18.8181, -183.304, -48.1156, -101.85, -81.3796, 108.343, -80.1057, -74.0508, -160.843, -388.586, 74.4228, 204.024, 188.827, 101.634, -301.378, -102.568, 143.858, -0.130828, -53.4764, 0.219739, -0.549214, -0.140435, -3.56999e-13
-119.547, 176.268, -271.055, -35.8911, -93.6754, 20.3791, -113.066, -30.0843, 93.5302, 98.7283, 172.379, -80.6738, -227.692, -98.1611, 171.952, -126.98, 159.559, 118.572, -129.645, 23.4844, -62.1694, -322.007, -113.797, -201.838, 22.3401, 3.72964, -168.13, -0.294691, 96.3533, -0.0494154, 0.00495337, 0.0190879, 2.99794e-13
-25.107, 39.9344, -31.5684, 6.41595, -26.6272, 108.7, -30.8612, -142.087, -54.4337, 54.0992, 228.505, 54.283, -236.466, -183.285, 50.4545, -19.4096, 37.7139, 24.7161, -193.583, -83.1075, -183.677, -64.248, 5.50402, -186.47, -98.5539, -76.6135, -9.72042, 0.364429, 29.3893, 0.0818898, 0.10267, 0.0587627, 1.28663e-13
-15.2883, 23.3335, -24.9058, 16.1126, 12.7851, 8.06667, 10.9955, -6.77503, 14.4231, 8.73461, -13.4661, -17.6724, 10.4612, 15.8499, 21.8362, -11.8295, 20.6003, 14.7966, -2.1925, -7.48, -5.23707, -24.6195, -23.4519, -13.1676, -3.51372, -6.3015, -21.1836, -0.0285791, 11.815, 0.0685874, -0.0909664, -0.169679, 1.47612e-14
0.246406, -0.468301, -1.07638, 0.751429, 0.657187, 0.183064, 0.544795, 0.0632263, -0.78196, 0.707554, 0.0934937, 0.29875, 0.0667195, -0.265954, -0.196107, 0.256578, -0.126487, -0.659488, -0.0649871, -0.0899101, -0.302474, -1.40369, -1.27127, -1.32159, -0.579958, 0.170526, -0.74517, 0.170126, -0.48779, 0.123682, 0.198809, -0.370434, -1.37709e-17
120.925, -81.3949, -74.7661, -35.3108, -46.2762, -1.75202, -46.8063, -201.417, -110.135, 33.2339, 116.037, 23.8694, -116.368, -173.754, -81.4735, 114.401, -98.6917, -120.272, -244.259, -329.164, -109.875, -90.4627, -37.0936, -195.138, -271.478, -106.581, -56.6991, -0.0545279, 4.27854, -0.255803, -0.13132, 0.130825, -4.17344e-14
840.591, -776.507, -17.3809, 804.975, 785.224, 810.024, 825.971, -695.4, -776.583, 69.1298, 153.646, 410.97, -123.713, -698.098, -817.844, 889.373, -828.827, -840.008, -748.917, -1162.41, -377.474, 10.8012, -61.8024, -549.514, -1098.97, -456.316, -26.5709, -0.279515, -221.279, 0.00863866, -0.00630821, 0.188259, -2.54462e-13
-11.7972, -7.58298, 157.956, -66.5517, -52.6375, -68.5666, -51.3529, -41.3943, -78.5789, -23.0695, -56.6739, 49.0305, 70.8721, 3.4307, -1.24353, -6.90008, 0.477193, 11.0895, -2.74758, -55.082, -31.1531, 160.158, 142.551, 93.1652, -70.8014, -27.0086, 126.065, 0.153185, -21.0648, -0.105624, 0.122638, 0.106834, -3.55478e-14
-517.037, 633.801, -58.0465, 142.819, -196.95, 91.3121, -211.166, -338.326, 178.529, 223.293, 155.183, -309, -310.1, -71.0887, 620.671, -494.032, 612.723, 516.741, -445.489, -395.836, -277.149, -288.778, 349.831, -405.675, -271.009, -150.995, 44.6423, 0.0317815, 249.125, 0.517492, 0.369512, 0.395786, 2.7068e-13
-203.139, 334.905, -227.272, 186.987, 155.977, 129.301, 161.584, -641.431, -356.062, 97.0373, -100.389, 129.891, 102.388, -173.642, 323.854, -127.56, 292.799, 203.67, -544.99, -854.313, -479.05, -222.121, -202.478, -571.434, -771.781, -298.697, -186.884, -0.144159, 123.134, -0.197087, -0.290606, -0.229264, -5.28501e-13
-102.956, 88.6143, 173.95, 120.87, 115.178, 60.9963, 127.427, -1.20284, -41.9947, -40.1851, -100.745, -34.3527, 93.7283, 31.4375, 83.1839, -80.3974, 89.6782, 102.722, 8.74466, -97.7329, 68.1984, 166.893, 153.921, 178.766, -74.1773, 68.6754, 130.797, -0.146968, -20.9626, -0.491063, -0.42113, -0.354095, 2.25967e-13
-17.5412, 24.5144, -66.347, 20.4374, 14.805, 0.826485, 14.5366, 15.1879, 25.1797, 0.422186, -28.9441, -30.8627, 26.4598, 32.7769, 31.2249, -17.8867, 23.8028, 17.7895, 19.9104, 8.75095, 21.292, -63.372, -60.4716, -27.6393, 13.9876, 6.52179, -55.9168, -0.235812, 12.1885, 0.100506, -0.345225, 0.00545407, 6.53518e-15
187.373, -153.529, 181.696, 237.064, 227.01, 387.128, 240.83, -421.482, -409.173, 60.0526, 308.038, 233.027, -272.627, -482.542, -184.269, 202.944, -176.398, -187.24, -482.6, -570.652, -303.961, 167.912, 195.22, -150.932, -563.218, -212.866, 138.967, -0.343261, -13.9518, -0.133766, 0.457922, -0.0705664, -5.58761e-13
24.7424, -97.8848, 236.006, -25.3203, 85.1865, -38.2372, 99.2663, 207.325, -33.5785, -89.7438, -157.686, 95.9795, 201.526, 123.9, -137.814, 50.976, -90.475, -24.9872, 284.002, 214.871, 190.076, 293.857, 83.2655, 376.594, 167.698, 100.432, 161.088, -0.202875, -122.563, 0.22274, -0.0119315, 0.0266293, 3.2861e-13
-177.987, 196.62, 32.6799, 136.663, -84.8701, -68.0957, -35.4524, 129.985, 227.209, -275.584, -28.3052, -470.863, -48.4312, 69.9001, 172.252, -145.044, 183.643, 178.793, -7.64504, -158.604, 311.676, 29.239, 20.6522, 107.036, -10.2836, 14.7449, 16.6612, -0.00676907, -4.03612, -0.384116, -0.362593, 0.212456, 7.00833e-14
-185.017, 164.248, 103.818, 49.3829, 121.946, 101.041, 124.792, -162.147, -143.781, 15.4874, -37.4878, 163.408, 51.5131, -66.9204, 119.922, -184.662, 167.418, 184.853, -127.239, -148.639, -167.609, 124.043, 68.7307, -77.603, -156.125, -89.7659, 90.9984, -0.392656, 19.5997, -0.249154, 0.172254, 0.0805327, -4.97218e-16
-175.918, 155.513, -144.912, -27.0503, -57.9758, -60.8251, -58.6403, 157.538, 168.801, -42.0216, -28.7007, -128.438, 9.31932, 134.704, 178.843, -198.004, 167.846, 175.596, 154.112, 200.038, 123.948, -166.409, -100.862, -13.0796, 206.394, 59.8621, -109.695, -0.113963, 38.0425, 0.0118695, 0.119135, -0.367233, -5.39858e-15
26.7303, -13.2697, -40.5233, 87.9177, 61.2494, 49.7388, 59.9061, 2.99155, 20.939, 40.706, -29.1217, -26.2079, 24.9432, 32.4534, -12.8919, 36.7078, -19.2675, -26.93, 12.4375, -13.2308, 14.7531, -39.6717, -38.1036, -16.8964, -3.90048, 7.60316, -33.4694, -0.205749, 0.943776, -0.21767, 0.400845, 0.193434, -1.35959e-14
83.3401, -113.145, 380.657, -61.406, -126.604, -162.919, -111.422, -79.1836, -142.965, -92.425, -185.805, -54.1576, 179.336, 31.1652, -132.882, 115.688, -109.928, -83.0124, -4.15247, -286.973, 62.159, 383.287, 360.624, 269.008, -250.07, -64.9326, 304.115, -0.302469, -93.8021, 0.201459, 0.279838, 0.0880319, -6.09083e-15
73.9298, -71.2665, -107.917, -81.478, -102.997, -65.1601, -108.777, 134.505, 128.841, 17.955, 99.6048, -90.0453, -107.2, 7.44377, -75.9543, 61.0866, -74.689, -74.4666, 78.6713, 159.545, 113.945, -113.443, -92.586, 35.3238, 161.486, 69.3362, -90.323, 0.338614, -4.03881, 0.130444, 0.0485423, 0.398094, 3.43592e-14
-96.5349, 124.87, -264.932, 106.689, 96.7162, 141.929, 94.5077, -56.1526, 21.3826, 6.45559, 119.137, -22.6901, -109.342, -70.7817, 125.49, -100.388, 118.273, 96.6308, -92.6159, -42.3651, -66.9846, -322.066, -162.975, -224.205, -31.5851, -31.1243, -205.949, -0.210384, 65.8481, 0.295464, -0.0597197, 0.163972, -3.4749e-14
-35.0707, 35.8193, 352.583, 18.0352, 91.6939, 171.517, 96.5135, -356.63, -302.632, 31.1907, -5.77855, 214.761, -15.9817, -195.595, -1.36393, -26.8169, 36.2671, 34.2428, -299.089, -394.467, -311.319, 253.865, 458.08, -5.48053, -401.061, -127.157, 328.739, -0.0432736, 17.2259, -0.0298609, 0.159539, 0.0395456, -2.2555e-13
11.5317, 10.3012, -0.476975, 28.4425, 48.2116, 47.1837, 46.6085, -129.125, -112.269, 37.9177, 5.93882, 76.6438, -4.01974, -78.386, -13.3114, 15.268, -0.793933, -11.263, -109.974, -179.215, -91.0798, 1.65862, 1.55922, -55.3974, -173.057, -51.6895, -3.11812, 0.219947, 11.6539, 0.0315395, 0.162857, 0.636777, -7.21551e-14
-0.182331, -22.9922, 132.959, -7.74367, 16.4043, -3.05409, 28.059, -57.6351, -144.199, -48.215, -81.1788, 92.2076, 91.4914, -37.5266, -25.8272, 13.1862, -12.5036, 0.237757, -17.085, -80.0377, -40.4411, 144.351, 113.861, 23.7146, -109.901, -46.1318, 114.687, 0.308108, -38.4824, -0.110384, -0.30512, -0.465391, 1.19055e-14
19.3678, 44.2007, -314.205, 100.518, 15.5262, 99.8953, 19.3513, -89.7333, 16.9612, 64.9485, 193.159, -98.0981, -199.777, -159.152, 22.3309, 43.7862, 17.6642, -19.1902, -197.672, -214.324, -2.71248, -323.119, -265.612, -270.082, -149.656, -31.9836, -252.388, -0.12254, 33.2243, -0.27333, -0.0677392, -0.24105, -1.91028e-14
-13.5724, 49.3742, -253.147, -26.7471, -153.65, -54.1768, -161.697, 148.415, 226.392, 55.9098, 119.857, -237.564, -154.297, 50.8453, 46.7357, -29.5645, 41.4333, 13.5706, 74.0088, 119.902, 167.714, -262.559, -173.878, -23.8521, 159.729, 84.3938, -192.692, 0.213304, 41.8626, -0.0402618, 0.037086, -0.363962, -2.25022e-13
51.6061, -44.4801, 5.53756, -63.2002, -90.7398, -69.5771, -99.391, 36.8915, 59.5023, 46.7886, 53.7878, -56.9202, -59.1916, 0.947312, -48.1963, 46.2636, -48.5135, -51.4539, 22.2469, 45.194, 31.7669, -30.3694, 62.3797, 57.0869, 45.5154, 27.1541, 16.2634, -0.142213, -2.24603, 0.106132, -0.0515138, 0.294954, 1.25308e-13
165.146, -167.352, 176.296, -23.8687, 62.676, 102.567, 67.2293, -148.145, -198.366, -17.6077, 44.4943, 187.774, -41.0346, -160.713, -180.329, 160.04, -171.028, -164.77, -140.818, -132.677, -156.426, 163.045, 172.922, 11.9533, -165.272, -62.4718, 152.511, 0.301026, -34.1436, 0.253856, -0.0458257, 0.520466, 8.52997e-14
-97.5797, 58.1, 39.0661, -3.58788, 17.8715, 9.11217, 24.0583, -73.6341, -134.489, 14.3692, -28.9359, 106.373, 44.3958, -59.9586, 65.3226, -86.5317, 73.8142, 97.4153, -40.8881, -151.688, -23.6161, 60.6892, -7.10126, -55.6797, -146.572, -82.0879, 25.883, -0.317942, -30.8674, -0.00855627, -0.294274, -0.137298, -2.84047e-15
205.52, -200.318, 59.0043, -40.3686, -38.3475, 4.5064, -45.6099, -67.7629, -71.3502, 65.0827, 107.849, 70.7456, -101.323, -124.37, -211.583, 180.89, -207.003, -205.397, -92.274, -42.3093, -84.9654, 72.0919, 36.4519, -39.0468, -69.5908, -59.5049, 45.5654, 0.0495719, -24.6276, -0.153418, -0.251265, -0.12572, -2.20404e-14
102.287, -98.3235, 190.395, -29.4855, -18.4895, -25.4379, -16.292, -99.2453, -101.626, -3.08879, -26.13, 47.1591, 28.3794, -45.0935, -118.541, 114.343, -104.519, -102.959, -72.9754, -153.184, -59.3145, 192.19, 172.235, 118.32, -147.775, -47.1687, 145.8, -0.31918, -30.7843, -0.0368307, 0.328469, 0.457507, 1.14401e-15
-21.7406, 62.7667, -41.1565, 24.4724, -108.03, 58.8741, -109.124, -94.8313, 54.8005, 7.37019, 188.361, -141.051, -244.495, -131.6, 50.0795, -26.7347, 51.322, 21.7033, -184.423, -69.9158, -108.333, -161.954, 185.058, -116.928, -68.4084, -17.1355, 26.6189, 0.209585, 63.7282, 0.534025, -0.306468, 0.224662, -1.55732e-13
-132.421, 115.538, 439.625, -91.3241, -215.363, -155.47, -204.595, -86.3366, -12.517, -75.9461, 51.8804, -52.0679, -56.1182, -14.6828, 83.6746, -132.217, 121.939, 132.475, -53.9147, -28.5699, -129.909, 374.64, 489.307, 151.004, -45.7832, -61.5019, 376.309, -0.111582, 30.7158, -0.0443826, -0.00116552, -0.0179895, 4.90364e-15
108.131, -87.6943, -49.2029, -106.519, -102.653, -80.0888, -110.633, -58.7097, -29.2659, 33.7398, 114.891, 33.5933, -102.34, -100.071, -92.0299, 86.3321, -95.583, -108.353, -86.3048, -39.633, -73.1677, -57.0169, -37.4513, -86.2704, -47.3584, -35.3486, -41.5244, -0.231768, 17.2862, -0.0341149, 0.230428, -0.383246, -2.16778e-14
77.2979, -76.1927, 155.395, -36.053, -127.373, -39.4797, -124.533, 37.5969, 66.9336, 0.692777, 78.9445, -98.6747, -93.7123, -7.06544, -76.3092, 76.261, -75.913, -77.361, 10.2512, 37.1149, 36.2682, 117.28, 203.205, 118.454, 41.8252, 21.6451, 139.8, 0.258009, -7.46133, -0.456145, -0.0951082, 0.0810511, 2.73156e-14
-82.8794, 287.546, 14.698, -36.8784, -138.766, 117.963, -160.266, -735.622, -121.993, 112.691, 243.581, -58.8397, -305.251, -278.863, 282.617, -92.5256, 240.691, 82.6847, -766.327, -688.963, -716.807, -194.317, 397.857, -499.998, -613.995, -230.894, 85.5874, -0.0515159, 302.086, -0.334442, -0.122805, 0.240515, 1.50968e-14
86.9497, -109.619, 192.126, -23.2571, 42.268, 52.1888, 42.3649, -101.961, -165.882, 28.4211, -30.5773, 156.731, 37.2236, -64.4562, -124.976, 95.7588, -105.362, -87.0741, -48.2246, -107.443, -96.7397, 162.661, 201.153, 99.7362, -136.932, -27.4921, 164.451, -0.0712061, -47.0622, -0.293278, 0.114855, -0.255135, 4.32885e-14
-28.2621, 127.395, -376.705, -57.3141, -186.176, 17.5872, -194.947, -110.844, 71.0511, 84.2744, 228.755, -98.9055, -288.154, -148.977, 174.672, -61.8344, 107.231, 28.8043, -228.773, -113.707, -103.067, -426.248, -201.795, -401.154, -82.2177, -46.9748, -247.674, 0.288449, 137.872, -0.388902, -0.258152, -0.221517, -9.93735e-14
-48.9728, 151.873, 178.666, 66.0792, 126.76, 1.52489, 121.118, -787.135, -537.2, 196.55, -279.209, 341.417, 316.217, -141.419, 110.943, -16.9102, 112.865, 48.4336, -564.887, -1044.05, -584.385, 213.616, 120.574, -428.677, -952.637, -387.747, 143.072, -0.0399587, 93.3118, -0.0741718, 0.0501207, -0.347409, -1.71358e-13
-51.9383, 83.1608, 46.0156, -245.162, -349.158, -296.97, -344.343, 0.523084, 118.037, 59.9025, 3.7252, -167.918, -20.0018, 78.7137, 91.51, -45.1708, 76.4526, 52.0567, 1.50265, -80.5203, 56.8248, 61.4179, 50.1959, 82.2493, -23.0289, 37.546, 45.2833, 0.212637, 39.6293, -0.0542929, 0.175488, 0.131645, 2.75695e-14
-259.307, 353.362, -245.506, -353.695, -664.754, -453.232, -682.989, 59.2921, 456.952, 85.1939, 274.346, -553.026, -336.53, 80.5547, 372.027, -307.931, 336.17, 259.331, -93.8501, 16.8704, 90.7096, -303.12, -32.6786, -143.096, 133.842, 64.4789, -132.264, -0.103053, 212.57, 0.185903, 0.236729, 0.0370868, -9.25276e-14
-63.042, 76.0835, 110.618, -68.9549, -99.2947, 29.8332, -96.0811, -212.652, -134.039, 13.4201, 150.679, 92.3855, -163.524, -200.678, 58.4029, -57.8634, 75.1271, 62.6287, -249.69, -208.898, -206.959, 23.9589, 225.431, -112.799, -207.804, -102.539, 123.026, -0.0606929, 31.8542, -0.106056, -0.033262, -0.279052, 1.64805e-14
100.941, -164.952, 149.142, 189.915, 343.382, 185.868, 352.175, -52.8876, -251.456, -45.8396, -178.366, 242.464, 232.166, -17.7504, -142.065, 108.932, -143.996, -100.639, 46.7736, -90.6938, -27.0799, 182.023, 70.1299, 78.6477, -134.415, -33.9237, 101.091, -0.0933852, -93.9324, -0.0374454, -0.0769605, 0.195719, -2.3736e-14
143.519, -87.3959, -397.753, -226.735, -313.999, -203.719, -321.35, 157.765, 249.66, 60.3306, 110.443, -190.495, -149.606, 58.7103, -45.021, 118.876, -107.316, -143.989, 67.4686, 135.127, 166.861, -348.238, -385.469, -139.275, 194.601, 92.5681, -316.787, 0.320165, 33.1195, -0.0058675, -0.046105, 0.0268113, -2.96452e-14
-12.7511, 36.5315, -13.9229, -23.2062, -108.24, -57.7491, -108.901, -51.1276, 59.9468, -27.5772, 63.6089, -127.114, -58.2023, 0.58146, 39.0769, -32.8835, 33.0899, 11.9339, -59.1621, -58.7913, -40.3074, -54.3625, 75.869, -82.9991, -35.9879, -24.576, 4.41847, -0.323103, 65.7382, 0.200995, -0.0924768, 0.308108, -1.00484e-13
617.531, -612.255, 1307.77, 269.15, 357.194, 238.374, 379.359, -1020.8, -1091.35, 85.9824, -325.576, 568.027, 376.539, -490.186, -750.388, 722.6, -648.898, -617.123, -763.317, -1588.92, -602.302, 1326.58, 1194.97, 425.497, -1526.45, -510.893, 1044.71, -0.317605, -259.495, -0.259104, -0.13581, -0.0576486, -1.80421e-13
-193.954, 219.854, -358.685, 8.21076, -198.704, -96.2708, -191.374, 165.955, 281.399, -31.4661, 12.849, -317.526, -76.1951, 146.69, 258.129, -187.453, 218.659, 194.21, 108.78, 146.762, 175.218, -384.007, -244.489, -200.332, 196.344, 85.8236, -262.017, 0.139019, 65.5189, 0.272619, 0.14946, 0.0520618, 4.69703e-14
-13.9196, 28.5441, -420.68, 142.252, -111.59, -64.3032, -79.8757, 285.811, 369.366, -238.982, 39.8268, -610.526, -108.731, 107.847, 115.589, -14.6829, 27.4834, 13.6763, 102.123, -6.11895, 467.392, -434.121, -346.369, -46.6224, 139.176, 72.1856, -358.351, -0.00204095, -3.88464, 0.0266577, 0.0601591, -0.145529, 2.04701e-14
-177.08, 134.51, 66.3579, -301.908, -350.872, -252.765, -342.975, 344.513, 289.465, -150.602, 138.965, -198.046, -159.262, 94.73, 153.369, -203.38, 158.406, 177.565, 237.021, 518.618, 220.359, 27.3032, 106.375, 249.908, 475.745, 215.362, 72.6736, 0.13544, 24.5075, 0.0612902, -0.17701, 0.00505258, 1.27261e-13
-0.0421769, 1.32021, 11.6652, -27.1059, -40.366, -26.4925, -42.3125, 35.6128, 40.3833, -0.0538054, 8.25686, -30.7938, -16.3506, 19.3922, 0.957397, -1.36856, 1.47921, -0.0865069, 26.7867, 54.1008, 22.2276, -1.79743, 33.7524, 43.5129, 48.9933, 19.0405, 17.5303, 0.41846, -0.660912, -0.206397, -0.0785042, 0.0262992, 3.55358e-15
11.2258, -4.57431, 33.3321, 59.1383, -7.29731, 51.5996, -11.7835, 10.2155, 65.5997, 40.4835, 90.1785, -76.5064, -96.24, -13.994, 8.95455, -3.90496, -0.529929, -11.4364, -16.949, 20.534, 2.71342, -21.5948, 113.626, 6.17, 26.399, 3.8078, 42.253, 0.00545898, 25.6865, -0.000743286, 0.303254, -0.0528653, -1.24703e-14
-116.962, 167.946, 177.785, -208.755, -345.476, -184.514, -353.112, -195.938, 22.9928, 26.713, 209.951, -93.3215, -220.498, -111.665, 150.865, -134.406, 159.113, 116.456, -225.247, -156.959, -222.788, 78.1411, 348.382, -45.1974, -140.019, -88.5641, 181.339, -0.181383, 110.769, -0.168109, 0.360842, 0.180796, 4.12294e-14
-33.4193, 39.3937, 126.425, 25.4718, -50.776, -8.27252, -49.3848, -7.00845, 59.0616, -13.5635, 17.6064, -89.2995, -27.5597, 32.2619, 45.9222, -36.7387, 39.527, 32.957, -16.9846, 4.32207, -16.575, 84.6625, 185.359, 60.3568, 12.259, 2.2437, 123.31, 0.0896779, 18.5818, -0.0215077, -0.048634, 0.337211, -2.58605e-14
-44.5327, 168.665, -59.7065, -54.4503, 438.973, -317.516, -434.914, -151.537, -119.542, -35.0556, -41.2493, -135.062, 157.481, -88.9392, -175.082, 182.633, -0.149487, 22.6324, -170.701, -202.122, -113.089, 131.589, -129.189, -33.2371, -158.108, -359.602, -110.409, -353.195, -426.545, 116.503, -59.9227, -32.5137, -76.051, 446.876, 310.57, -266.547, 7.30058, -44.1484, -84.2711, 292.712, -25.7562, 2.16405, 419.181, 6.44692, -24.9976, -70.7167, -550.189, -88.692, -132.472, -11.4528, -134.148, 175.328, -0.686255, -295.873, 255.43, -35.1953, -133.598, -188.267, -90.5867, -64.4928, -182.842, -302.029, -42.6277, -83.4817, -428.251, -194.197, 321.571, -83.3889, -10.6036, -110.98, -78.0371, -196.878, -190.52, -41.2928, -121.141, -172.824, 56.541, -179.372, 10.2068, 0.147614, 470.871, 662.769, -546.653, -105.032, -462.826, 131.093, -57.7376, -247.503, -116.504, 430.937, -104.844, 105.826, -390.214, 77.2838, -380.644, -45.515, -40.5875, -63.2329, -64.7304, -386.384, -95.6174, -212.254, -15.131, -180.387, -97.5965, 89.9099, -15.77, -187.722, -79.0905, -126.852, 96.153, -115.452, 484.523, -387.28, -11.7829, 66.5691, -198.711, -277.066, -258.75, -30.6554, -184.971, -56.0335, 230.298, 28.7052, -125.695, -86.9304, -233.004, -42.0485, 7.83314e-13
109.893, -82.9553, -22.8601, -15.2617, -105.697, -6.26272, -118.197, -89.4749, -21.1353, 2.95567, 88.3797, 61.9726, -118.698, 41.125, -56.3025, -130.841, -0.707075, -175.314, -42.5764, -26.2273, -146.387, -119.878, -56.2063, -6.11692, -31.8004, -175.7, -27.4542, -53.0846, 55.1582, -59.9655, 25.2536, -91.6317, -42.8682, -166.788, -48.1905, -12.2145, 29.8563, 41.8479, 102.367, -142.6, -5.14539, -145.639, -51.2006, 55.3499, -49.0754, -40.3883, 35.2986, -14.5328, -5.66213, -4.95577, -10.4991, -75.2117, -0.594148, -95.9536, -119.509, 10.8513, 9.79594, 49.3739, 0.471317, -42.2747, -88.4177, 5.27705, -43.7611, 27.3289, 10.0104, 3.34079, -90.4015, -50.3433, 21.7441, 11.3306, -16.2425, 102.107, -39.5055, -60.943, 3.64244, -34.7595, -102.688, -60.6725, 13.3951, -0.590785, -44.2836, -134.337, 29.3632, -139.963, 21.8546, 144.741, 4.67317, -14.0356, -98.7596, -25.5657, -150.949, -59.9278, -8.93615, -155.064, 22.6467, -28.2066, -160.231, 10.4785, -156.192, -3.8717, 38.9234, 56.7154, -91.2271, -63.67, 0.658672, -139.869, -71.657, 139.838, 60.5179, -69.5239, -71.5493, -136.362, -124.71, 15.2514, 6.67442, -30.2577, -88.9162, -32.8142, -16.8019, 16.3261, -198.548, -192.937, -41.4676, -86.8768, -3.72768, -70.1616, 113.511, -12.8489, -6.18686e-14
2.79008, 4.01118, 1.68976, 0.296743, 14.3982, -0.0287861, -4.07179, -5.92461, 1.23096, -0.127648, -0.0179068, -1.24697, 1.91411, 2.50879, -0.550236, 2.33598, -0.43559, -4.34457, -5.39699, 7.86703, 2.6673, -1.13065, 6.70079, 7.22544, 3.43954, -2.48664, -0.480064, -0.325047, -1.56942, 8.28668, 0.00917555, 2.19297, 1.4241, -1.05629, 8.26641, 1.00193, -1.1841, 6.3968, 4.0799, 6.66126, 2.22914, 0.975208, 15.7693, 8.47537, 0.774816, 1.44079, -1.15396, 2.46401, 0.124995, 0.287905, 3.7045, 6.84735, -0.320611, 2.92053, -6.95548, 1.31366, 3.0702, 4.54932, 2.91213, 1.77855, 1.3936, 3.37884, 1.3973, 1.94719, -1.51061, 0.142126, 0.780527, 2.92908, 6.70138, -5.00468, 1.66431, 6.32249, 1.39376, -2.46947, 5.59624, 2.65624, 6.06125, 3.67993, -0.106299, -0.517937, 15.3613, 4.05441, -0.0803468, 6.52969, 5.44352, -1.22068, 0.50447, 1.82275, 1.93502, 14.3211, -4.19613, 0.799424, -0.772929, 0.466524, -1.75911, 6.37345, 5.48991, 2.15028, -3.35253, 1.67528, 3.03656, -0.898536, 7.63945, 2.95854, 1.5838, 2.87622, 4.85758, 2.21974, 5.66235, 4.09956, 8.00921, 5.15017, 8.89631, -0.922189, 0.517586, 10.2906, 3.78077, 2.43316, 6.64418, 4.78957, -6.99265, 3.59906, -2.71361, -0.14047, 0.21235, 3.70459, 7.61956, 1.77121, -2.08469e-14
60.4261, 74.5219, 40.0376, 4.54738, 117.038, -29.8288, -107.958, -18.5838, -5.82202, 3.98203, 76.9487, 59.3466, 80.4122, 39.381, 0.658457, 70.1955, -0.197694, 43.9026, -8.26617, 203.648, -13.6462, 55.7924, 109.306, 63.8347, 51.6913, 14.1764, 12.2315, -3.66145, -72.3758, 78.6406, 8.18733, 45.7932, 12.9439, 96.0266, 32.8927, -22.3682, -3.4829, 4.31935, 67.8812, 106.716, -18.1302, 39.7551, 41.8195, 24.3256, 17.548, 48.637, -79.6064, 40.0815, 0.0823042, -6.12419, 138.558, 42.1722, 0.108889, -10.7429, 33.5514, 46.0347, 82.6849, 170.54, 93.3376, 25.259, 87.264, -44.4411, 8.3845, 59.2024, -73.5975, -3.99936, 78.8973, 45.0514, 43.4586, -4.5337, 74.3902, 214.483, 19.5449, 34.5432, 87.8288, 12.926, 49.4057, -12.4419, -1.68189, -0.465613, 53.0065, 71.8909, -108.348, 140.174, -75.8333, -1.82228, 32.674, -7.56598, 65.6027, 23.6393, 14.9209, 53.2356, -38.9824, 38.2907, -86.4819, 79.2359, 109.841, 0.856398, 31.3733, -66.7245, 74.2027, -57.8904, 152.672, 18.8552, -0.234713, 71.6975, 92.3845, 180.178, 116.1, 66.3403, 113.393, 133.101, 82.8062, -67.2587, 51.861, 43.4745, 122.417, 10.4493, 210.964, 43.2071, 18.4451, 117.819, 0.0470883, 41.9497, -6.51802, 40.8788, 257.568, 29.5087, 2.55447e-13
-41.81, -247.634, -22.4975, -25.3564, -623.073, -282.214, -122.273, -231.026, 7.02614, 0.201191, -26.1448, 56.7134, -584.519, -57.3322, -313.006, -500.542, -0.0418497, -543.021, 371.533, -137.547, -1006.68, -395.604, -89.5619, 38.1552, -88.4891, -959.921, -5.93541, -813.538, -259.728, -447.832, -38.5914, -858.045, -384.3, -374.447, -119.339, -378.697, 66.847, -25.2534, 5.88221, -755.713, -109.342, -703.728, -367.541, 92.9598, -13.0882, -12.5496, -690.426, -15.4142, -79.6808, -14.5392, -78.7461, -190.941, 0.189914, -22.955, 48.1459, -29.087, -66.3651, -59.3339, -71.6722, -30.9384, -61.3, -391.693, -17.6845, -5.7677, -315.919, -102.288, -267.787, 5.01862, -9.30739, 143.515, -42.1515, -62.4191, -131.808, -213.958, -9.0944, -590.487, -154.284, -37.9391, -13.4054, 0.350138, -324.4, -186.858, -546.195, -48.8146, -586.539, -83.2249, -17.418, -65.7527, 11.5545, -450.246, -41.516, -219.196, -319.417, -728.308, -307.058, -58.2541, 41.6438, -41.4966, -765.242, -630.82, -46.1207, -161.543, -25.3358, -198.54, -49.5581, -576.095, -34.9865, -68.0612, -91.2605, -61.1892, 229.336, 79.5633, -144.438, -264.838, 3.07398, 104.12, 0.108234, -178.718, -7.50343, 63.9904, -681.328, 57.8416, 165.164, -202.902, -47.5483, 24.3944, -16.5016, -17.9983, -9.84039e-14
-311.351, -693.737, -318.616, -130.942, -1475.26, -370.134, 699.845, 491.106, -106.332, -26.5693, -612.872, -639.589, -747.449, -11.7627, -99.2008, -530.062, 0.372034, 0.454026, -96.8536, -1450.62, -591.487, -195.71, -516.718, -289.679, -537.899, -423.812, -333.953, -653.24, 158.091, -983.028, 100.933, -934.568, -503.005, -199.062, -540.561, -384.34, 128.518, -260.028, -418.584, -1168.22, 294.936, -497.658, -1148.44, -184.229, -80.7607, -156.035, -258.233, -235.156, -103.566, 138.545, -981.61, -579.473, 0.0088639, -254.666, 346.188, -368.732, -794.653, -1204.36, -814.847, -373.494, -929.837, -523.664, -56.5303, -439.251, -96.615, -25.4069, -277.232, -312.814, -288.514, 79.9117, -638.561, -1423.07, -176.513, 57.1705, -420.501, -602.355, -482.921, -81.0207, 21.0026, 0.043124, -982.974, -391.079, -100.516, -496.788, -496.875, 154.95, -240.317, -220.094, -389.735, -734.031, 273.831, -61.3639, -338.212, -552.024, 156.926, -454.517, -359.11, -43.7584, -357.671, -489.159, -378.81, 136.492, -472.337, -375.613, -78.2449, -505.417, -79.0346, -1497.22, -801.277, -707.218, -495.713, -557.391, -639.036, 2.9437, -284.363, -366.992, -566.242, -71.6899, -1224.58, -330.334, 88.4882, -402.209, 315.851, -257.85, -45.7586, -329.439, -1557.28, -10.5206, 1.78186e-12
3.09364, 105.124, -0.338704, -57.2824, 190.656, 88.0447, -113.128, 12.9156, -55.423, 0.525675, -51.3289, -97.2409, 147.843, 50.9265, 42.396, 118.684, 0.0711244, 66.7514, -176.601, -24.6533, 226.085, 73.7429, -12.848, 80.2761, -112.915, 221.456, -117.453, 177.606, 98.9011, 106.909, 23.33, 212.195, 95.8379, 59.7886, 82.995, 96.7165, -24.4986, 40.0905, 13.7666, 197.978, -21.4047, 158.447, 154.382, 37.9431, 10.4216, 30.0199, 181.271, 21.8141, 36.6811, -3.01463, 6.32305, 76.3872, -0.0627176, -141.897, -126.061, -21.8547, -106.842, 15.8319, -59.6282, -47.8314, -86.8676, 122.283, -16.139, 6.44752, 98.2265, 54.7136, 53.5101, 29.6017, 89.0722, -96.3558, -9.78341, 29.032, 61.372, 8.61703, 66.3684, 136.65, 113.538, -121.047, -11.7291, 0.149585, 128.791, 72.83, 135.901, 67.6001, 158.269, -73.7051, 2.40122, 22.0139, 39.5765, 119.148, -110.674, 23.4215, 107.615, 176.355, 80.5312, -36.5536, 60.8851, 24.7799, 177.686, 160.038, 26.1863, 42.4814, 59.9633, 125.408, -87.1376, 111.828, 101.352, -84.6238, -59.9169, -22.9834, 135.58, 82.9124, 90.5162, 79.2734, -32.2878, 45.8131, 77.8888, 91.7475, 86.5712, 11.213, 88.683, 83.3464, -109.773, 58.4606, 21.5976, 0.431315, 60.5549, 5.80494, 1.6251e-14
0.117902, -0.41002, 0.103617, -0.449334, 0.849837, 0.0719845, 0.00577457, -0.114171, -0.874258, -0.0428393, 0.205591, -0.210203, 0.058958, 0.169041, -0.286834, 0.483991, 0.0942113, 0.21452, -0.501957, 0.0668548, -0.246879, -0.592149, 0.144816, 0.256024, -0.183827, -0.533249, 0.0660008, 0.630847, -0.180894, 0.439916, 0.553117, -0.376964, 0.419157, 0.178872, 0.148163, -0.02401, -0.345843, -0.0604013, 0.194349, 0.555237, -0.339138, 0.464013, 0.232232, 0.3207, 0.127549, 0.209384, 0.371064, 0.567671, 0.315553, -0.497509, 0.181853, 0.36324, 0.182028, -0.476292, -0.588714, -0.20566, -0.219634, 0.136063, -0.110969, 0.0478554, -0.200568, 0.165111, -0.275836, 0.0361781, -0.00679737, 0.069304, 0.288177, 0.120051, 0.380698, 0.00243515, 0.0252841, 0.0507722, 0.367967, 0.333526, 0.138611, 0.0428134, 0.196737, -0.644923, -0.415148, 0.10178, 0.280274, 0.345469, 0.0985445, 0.310918, 0.835548, -0.261984, -0.131362, -0.52759, 0.118615, 0.334627, -0.0472876, 0.0956587, 0.105127, 0.205797, -0.378778, -0.0588129, -0.0793454, 0.496851, 0.0783153, 0.413712, 0.451451, -0.420697, 0.247454, 0.120038, -0.535411, -0.505259, -0.0588453, -0.0197351, -0.281715, -0.625937, 0.124698, -0.485979, 0.456168, -0.104814, 0.0247619, -0.0641685, 0.1757, -0.302567, 0.384247, 0.253041, -0.703894, 0.239733, 0.0541229, -0.125435, 0.150544, -0.543854, -0.112736, -0.0121068, 1.01202e-14
331.829, 147.238, -456.905, -596.599, 993.232, 603.238, -1010.83, -52.8608, -631.892, -28.6606, -504.959, -1122.4, 528.857, 799.179, -107.995, 466.934, -0.297589, -3.33087, -2216.87, -1970.12, 1606.91, 101.577, -1222.79, 730.196, -1706.1, 854.99, -1332.62, 1050.23, 1354.57, 355.683, 343.069, 1222.79, 452.05, -59.1636, 686.626, 727.634, 22.0686, 786.666, 254.428, 832.496, -90.4771, 731.261, 1347.67, 662.342, -203.517, -65.3144, 1829.75, -76.2826, 343.852, -9.47262, -1059.26, 260.472, 0.0513126, -2028.55, -1253.18, -493.367, -1496.44, -996.078, -1305.27, -866.961, -1974.75, 1078.21, -428.252, -280.785, 951.93, 556.104, 31.2262, -257.294, 1039.96, -754.567, -844.594, -918.814, 158.449, -125.076, 329.097, 930.251, 366.733, -1374.66, 59.6078, 0.277959, 1229.15, 206.621, 1502.23, -762.74, 1539.23, 352.361, -227.487, -41.4422, -674.496, 1779.58, -1546.01, -33.1372, 780.787, 830.705, 997.519, -1076.39, -851.777, 397.994, 509.966, 1506.39, -8.50951, 919.854, -652.101, 847.422, -695.918, 237.242, 526.975, -1504.81, -1176.62, -1387.42, 579.779, -861.096, 251.679, 739.622, -463.78, 204.288, -472.216, 529.361, -967.77, -196.107, -23.8016, -762.377, -566.394, -125.889, 132.459, -977.247, -879.247, -119.72, 3.52809e-12
-22.4127, 146.848, 125.652, 61.4669, 409.301, 285.542, 253.914, 292.634, 30.3235, 31.4239, 50.5038, 143.969, 578.353, 10.208, 231.642, 568.118, 0.404656, 590.097, 93.6923, 285.237, 986.993, 401.176, -57.7141, -212.923, 105.016, 680.793, 110.062, 688.144, 242.682, 362.016, -11.6367, 681.627, 246.001, 372.091, 50.8143, 308.676, 54.6827, -95.0123, -107.834, 689.943, -38.3812, 755.941, 144.91, -126.589, 87.1291, 47.8005, 466.357, 127.737, 53.862, 3.77633, 221.201, 117.559, 0.671834, 215.079, 21.5647, 69.9074, 198.585, 181.751, 172.059, 94.2677, 387.722, 360.17, 41.5659, 89.762, 320.686, 77.2903, 202.418, 161.432, -272.518, 115.077, 90.9295, 111.846, 77.7, 197.409, 42.6352, 510.555, 64.7681, 98.0381, 1.64866, 0.246307, 104.625, 149.424, 506.855, 192.558, 493.881, -155.01, 110.233, 211.573, 107.453, 337.763, 170.613, 158.527, 312.235, 699.688, 282.215, 31.2171, 64.3198, -23.2982, 526.277, 552.105, 12.3179, 105.489, -85.998, 114.239, -14.7485, 579.275, -241.232, 254.31, 28.7836, 189.974, -383.471, -26.1473, 68.6363, 283.544, 52.6688, 61.2112, 213.147, 88.7315, 54.0051, 3.67955, 767.518, 39.3947, -15.3925, 76.1506, 71.3056, 81.0684, 29.1967, 4.1639, -1.4751e-13
-146.506, -83.5975, -112.878, -66.9698, -173.755, -48.4211, 37.0086, 4.33777, -49.194, -14.5083, -270.164, -304.459, -154.481, 71.3163, -82.0409, -135.244, 0.21504, -94.1238, -160.698, -512.549, -95.9518, -85.7627, -204.943, 45.4903, -242.155, -33.3218, -170.361, -166.433, 115.325, -201.249, 70.6558, -122.351, -67.6017, -55.0582, -20.2982, -56.0994, -9.0907, 5.9107, -208.078, -202.546, 54.9853, -135.33, -71.5763, -52.6235, -36.8292, -39.7567, 15.848, -119.317, 18.2139, 33.1348, -360.69, -57.1806, 0.126067, -189.898, 51.4709, -122.172, -290.388, -473.288, -281.623, -122.029, -335.189, -42.0814, -26.204, -195.521, 15.5663, 70.1327, -64.1816, -139.698, 103.065, -89.6408, -239.688, -555.409, 3.34542, -64.2411, -147.63, -118.459, 11.5828, -95.3186, -5.60544, -0.213858, -83.1541, -0.102651, -3.76501, -138.738, -53.5819, -9.72703, -113.039, -50.8611, -145.328, -90.2735, -19.4226, -60.8963, -18.7124, -73.0977, 61.4675, -158.845, -100.966, 45.7928, -26.7707, -63.3421, -157.865, 70.6698, -108.147, 62.9868, -70.2477, -177.072, 163.626, -610.115, -296.898, -246.349, 57.4424, -173.979, -41.6984, 28.2383, -132.245, -120.437, -214.591, 66.5451, -460.915, -148.841, -127.159, -76.5692, 14.8795, -35.8114, 3.24969, -120.785, -605.462, -13.3457, -5.95346e-13
-0.0441991, -0.282394, 0.0924931, -0.0417731, 0.385236, -0.11078, -0.301464, -0.175174, -0.252363, -0.224179, 0.170501, 0.0869916, 0.25347, 0.41298, -0.273696, 0.109393, 0.10035, 0.049015, -0.277419, 0.123869, -0.10492, -0.188486, 0.019443, 0.475815, -0.0755477, -0.350667, 0.0232497, -0.100608, 0.28955, 0.283861, 0.361366, -0.00644417, 0.327058, -0.151054, 0.142848, -0.378414, 0.0354344, 0.11048, -0.051663, -0.102312, 0.223972, 0.471067, 0.129329, 0.239752, -0.00342864, 0.184288, -0.147392, 0.18362, 0.106748, 0.0293062, -0.112065, 0.141003, -0.0627203, -0.0602477, -0.129477, -0.143831, 0.0827804, -0.154679, 0.259598, 0.0344881, -0.0438066, 0.194615, -0.0230756, -0.178258, -0.19045, 0.165228, 0.0790574, 0.0847505, 0.137994, 0.201274, -0.0417009, -0.0675638, 0.28778, -0.0521681, 0.28194, -0.16715, 0.232187, 0.0157935, -0.123469, 0.173298, 0.00233477, -0.125941, -0.00342953, 0.315052, 0.450298, -0.000905661, 0.103516, -0.382338, 0.0191999, 0.124808, 0.09732, 0.181555, -0.10598, 0.174913, -0.0736678, -0.0563468, 0.05058, 0.380377, -0.127441, 0.109985, -0.0339307, -0.176363, -0.00944068, 0.014277, -0.258613, 0.0829267, 0.22503, -0.0795929, -0.420304, -0.0472108, 0.0236966, -0.319872, 0.356293, 0.32897, 0.119603, 0.0366886, -0.0376786, 0.0646953, 0.13562, -0.0978781, -0.0110367, 0.349561, 0.00393947, 0.0194411, 0.196202, -0.116585, 0.174613, -0.0887693, 3.36513e-17
47.5541, 150.044, 56.4739, -30.3036, 152.309, 99.2066, -379.877, -334.844, -47.1975, 0.185964, 18.5351, -16.0428, -42.637, 98.784, -45.1435, -161.943, 0.410775, -437.804, -288.32, 274.015, -11.3908, -274.221, 226.133, 128.222, 49.749, 169.541, -155.149, 126.077, 206.433, 68.0434, 85.5736, 182.924, 103.067, -453.089, 41.1009, 104.752, -104.661, 90.0114, 37.7876, 11.7618, 142.862, -117.591, 176.539, 21.3437, -19.962, -0.625479, 334.463, -32.5891, 64.1846, 24.9131, 149.752, 45.4659, 0.138438, -123.496, -500.352, 89.5735, 87.2987, 170.427, 108.83, -33.8061, -122.851, 159.976, 21.0697, 36.5728, 163.988, 106.953, -214.672, -62.7818, 258.912, -240.569, 25.7265, 245.696, 124.996, -225.268, -10.3408, 106.392, 123.408, -21.9452, 13.9484, 0.604689, 84.363, -184.83, 176.641, 116.692, 212.868, 208.102, 23.2432, 69.7016, 14.3395, -86.9272, -410.063, -220.403, 139.65, -102.708, 135.87, 223.31, 105.887, 55.7079, 117.048, 213.255, 74.7922, 122.216, 229.917, 199.624, 19.6454, -219.445, 316.625, 122.151, 296.484, 64.2512, 295.954, 144.056, -33.0267, 97.2602, -114.936, -77.2126, 28.5195, 247.437, 224.753, 26.3213, -460.795, 52.7204, -369.716, 22.148, 28.1451, 89.9065, 315.946, 54.1575, 2.69631e-13
28.0925, 86.6348, 10.8795, -18.3344, 247.328, 62.8285, -92.0969, 11.8048, -24.2808, 1.24995, 22.9135, -4.25575, 188.219, 12.5888, 32.0894, 175.204, -0.614261, 111.03, -86.1831, 42.3226, 239.448, 107.41, -11.8599, 24.6653, -36.4565, 143.135, -38.0822, 160.255, 35.4661, 150.987, -3.24297, 208.39, 82.4617, 131.102, 103.512, 73.9901, -6.30344, 35.6859, 30.6791, 255.308, -38.5017, 192.117, 193.662, 31.1974, 2.84869, 7.72102, 108.776, 18.3132, 15.4704, -13.8178, 37.2792, 80.8633, -0.31521, -74.0141, -40.6936, 9.92706, -0.253672, 50.5071, 12.5552, -9.99264, -12.3578, 96.9326, -15.6053, 23.128, 53.4569, 14.4256, 94.2624, 17.7826, 27.9843, -39.322, 16.5392, 61.9738, 19.5046, 28.8171, 33.1108, 138.052, 66.3464, -61.8415, 0.383865, -0.390404, 178.207, 140.476, 88.5486, 10.0604, 118.119, -24.561, 13.4109, 18.1834, 9.123, 187.213, -62.6165, 45.9008, 64.5095, 189.151, 36.5051, -10.6221, 1.46856, 10.4837, 134.314, 129.86, 25.0631, 20.549, 3.70488, 54.0189, -34.8385, 156.609, -12.2838, 49.2627, 9.3384, 0.725052, 35.6769, 13.2669, 113.804, 39.7328, 7.40931, 40.2534, 29.3351, 12.944, 52.954, 19.8327, 115.112, -3.0975, -33.6877, 34.5848, 9.57738, -9.37723, 69.975, -5.97496, 2.71553e-14
-186.241, -241.943, -168.114, 143.803, -337.513, -46.9191, 687.226, 241.379, 169.311, -18.6834, -117.301, -75.7053, -153.366, -315.646, 198.133, -158.71, 0.0302326, 235.449, 323.855, -502.574, -190.438, 119.284, -114.735, -435.495, 217.492, 247.648, 273.491, -112.8, -120.621, -177.574, -80.5691, -191.783, -8.29992, 186.341, -200.482, -39.0039, 38.2302, -205.236, -239.378, -246.929, 130.572, -136.621, -351.863, -307.839, -138.019, -237.549, -59.6165, -212.052, -75.618, 33.2797, -453.374, -165.602, -0.402833, 398.794, 502.322, -76.0377, -18.2002, -577.193, -97.9021, 73.0852, 100.467, -112.534, 62.2897, -224.023, -23.2974, -107.947, 70.7252, -227.751, -388.366, 175.175, -176.671, -722.443, -49.2742, 76.5391, -467.307, -177.849, -271.558, 348.49, -18.842, 0.31482, -303.972, 45.4665, -41.9044, -509.913, -119.213, -88.1015, -136.062, -83.9445, -265.74, -338.789, 570.142, 117.544, -56.952, 69.063, 16.0211, -96.2722, -457.723, -92.6882, 264.389, -145.711, -297.87, -47.4088, -479.772, -303.07, 194.589, 13.0303, -445.019, -361.189, -182.734, -93.3229, -717.424, -538.135, -197.613, 20.5051, 1.19812, -323.816, -579.807, -132.671, -766.585, -184.815, 344.214, -437.574, 156.555, 31.35, -14.2979, -104.867, -924.057, -58.9593, -3.00781e-13
-410.421, -349.867, -297.086, -327.012, -523.972, -253.902, 269.782, 599.573, -158.23, 0.386824, -799.41, -839.834, -77.4932, -150.645, -66.0344, 254.913, -0.0682905, 579.821, 10.0354, -1475.95, -80.0073, 401.637, -530.56, -99.6242, -906.185, -448.441, -598.844, -570.116, -186.757, -457.679, -87.357, -625.866, -338.443, 782.813, 50.8179, -319.641, 86.7341, -44.6194, -314.725, -220.655, -278.97, 118.026, -265.859, 36.9438, -15.7285, -39.4605, -542.303, -59.2679, -82.6241, -25.1996, -924.519, -230.85, 0.366127, -514.622, 595.694, -453.953, -1125.12, -1117.81, -969.501, -368.984, -884.962, -349.3, -20.3647, -396.589, -216.825, -137.866, 328.446, -43.2742, -157.028, -35.2485, -499.351, -1325.06, -160.634, 234.032, -129.598, -418.855, -215.847, -502.501, -84.3246, 0.109451, -28.6793, 663.686, -322.117, -194.64, -434.141, -829.502, -228.432, -139.819, -100.232, 279.409, 431.967, 217.635, -289.695, 36.0651, -154.019, -623.734, -87.9265, -49.0566, -152.113, -448.121, -365.172, -104.255, -318.855, -274.834, -503.006, 185.341, -287.544, -1679.61, -1171.38, -561.412, -10.0653, -134.057, 17.5825, -138.833, -95.6372, 72.4409, -161.156, -245.786, -777.184, -161.812, 536.572, -69.8626, 410.139, -88.1925, -42.5555, -155.745, -1396.83, -87.3696, -5.10134e-13
7.48474, -51.3346, -3.52058, 39.0671, -38.2776, -7.47446, 2.59973, -25.7459, 26.9507, -25.6135, 55.452, 45.1175, -36.6731, -74.3886, -12.0145, -47.231, -0.0337403, -49.1539, 69.6743, 51.3815, -70.2891, -38.2397, 50.8105, -38.5646, 103.396, -25.4248, 93.0902, -23.4053, -28.4915, -13.8357, -0.221398, -33.9946, -7.87067, -72.7346, -31.7017, -10.079, 2.44625, -45.8185, 11.3034, -51.0505, 22.2434, -43.2623, -56.294, -73.6498, -14.8561, -33.0882, -13.4756, -62.5563, -0.468026, 3.53891, 21.8289, -4.67159, -0.0709264, 77.3619, 17.2906, 29.5354, 65.6948, 1.9938, 51.1507, 47.5013, 52.3729, -21.3903, 4.15546, -29.0465, -15.6109, -4.706, -34.343, -36.0419, -31.669, 37.2796, 31.3641, 0.69473, 9.19901, -11.7337, -71.1444, -18.084, 10.4599, 63.6779, 9.23692, 0.0943778, -51.0894, -58.6828, -17.4747, -53.5405, -18.2014, 69.9639, -24.5093, -73.1291, -6.78065, -76.683, 27.3761, -16.7593, -6.56228, -52.3355, -11.042, 14.5744, -21.2335, 4.15771, -34.9347, -36.0533, -13.7776, -11.5886, -24.8926, -5.02014, 63.6659, -30.5447, 23.2158, 47.0673, 63.7711, 23.7188, -84.7103, -9.1747, -16.0826, -3.30078, 17.4042, -88.4897, -92.7885, -3.45049, -1.16552, -50.0542, -52.4787, 15.1208, 27.9595, 18.9787, 1.03837, -0.261485, -14.9554, -0.0473988, 2.79341e-14
-96.1364, 47.2652, 23.2062, 22.0443, 30.6446, 10.5734, 66.3262, 23.9295, 43.1559, 0.81991, -51.1407, -7.20666, 32.0395, -39.8797, 28.7119, 24.8187, -0.0105202, 55.8765, 106.837, 66.1728, 28.6255, 33.3205, 74.9651, -6.80477, 72.9762, 76.2899, 51.9943, 15.9349, -28.9326, 17.7634, -10.0768, 39.2488, 21.033, 51.0145, -7.60539, 6.04256, -41.2901, -29.0131, -80.9878, 39.5472, 3.55211, 33.5497, 0.680736, -62.0358, 20.5999, 11.6111, -18.9596, -17.7483, 4.21956, -1.38629, 14.5141, 19.6597, -0.356694, 104.878, 93.3893, 11.7177, 47.0027, -14.907, 52.0943, 56.6447, 91.467, 5.44096, 34.6123, -19.4477, -1.93255, 4.59141, 22.2627, -10.7989, -1.39819, -8.4923, 28.8316, -39.8474, 21.6428, 17.6035, -45.3789, 10.962, 34.7867, 71.313, -16.1839, 0.26633, -17.4973, 33.8042, -26.2839, 66.0226, -15.149, -84.5825, -4.92047, 22.4826, 43.8198, -62.2962, 116.118, 14.2643, 13.5354, 46.0856, -17.0742, 61.5021, 76.2481, -4.41462, 72.0276, -4.53013, -33.1889, -33.0992, 67.4437, 25.53, 19.8527, 34.8445, 41.3002, -49.0198, 20.0356, 94.5043, 20.8797, 63.5672, 15.302, -5.55161, -1.46946, -44.093, 20.4227, 25.318, 11.7802, -15.7287, 63.4361, 68.5575, 11.5185, 35.3599, 4.13103, 73.448, -35.9165, 1.1414, -1.33832e-13
56.2277, -397.364, -126.451, 514.042, -842.11, -182.236, 1148.39, -33.3541, 459.023, -6.63282, 366.159, 540.064, -758.425, -400.667, 191.463, -819.18, 0.2447, -228.208, 880.892, 61.5118, -1090.13, -309.973, 198.047, -585.475, 1014.65, -286.562, 1003.97, -462.134, -370.967, -342.39, -137.22, -743.767, -158.679, -339.966, -560.276, -186.963, 140.635, -222.117, -81.5916, -984.207, 312.172, -889.753, -768.161, -330.776, -219.262, -332.781, -363.769, -234.941, -170.04, 39.2023, -206.885, -365.661, -0.221807, 1152.1, 735.775, 124.301, 728.684, -221.623, 431.478, 381.682, 807.9, -314.326, 142.917, -87.5641, -225.993, -247.95, -245.745, -298.208, -553.906, 558.949, 74.7077, -300.798, -165.41, -11.5631, -569.042, -476.46, -628.193, 979.682, 21.2327, 0.0439098, -757.644, -582.412, -315.834, -729.23, -367.31, 303.546, -92.9236, -70.5301, -349.687, -905.283, 871.571, -5.90206, -248.033, -651.833, -171.75, 268.891, -717.576, -148.426, -258.116, -479.963, -220.374, -147.785, -548.678, -667.654, 700.439, -505.019, -792.559, 584.817, 413.662, 247.229, -1200.86, -782.907, -639.96, -146.078, 191.383, -473.406, -784.933, -328.932, -734.657, -105.406, -132.36, -774.121, 221.59, -140.399, -67.8171, -20.7371, -583.809, -48.4339, 3.23056e-13
33.4327, -85.9669, -10.9592, 0.205375, -178.377, -48.8061, 1.34261, -48.2508, 1.04637, -0.859515, 8.20863, 1.87166, -155.648, 27.7087, -45.2381, -149.355, -0.150395, -141.157, 11.9515, -21.5798, -195.421, -110.861, -7.63439, -0.470286, -3.46754, -174.282, -4.6551, -126.963, 0.465885, -111.049, 13.9809, -168.814, -77.6803, -137.988, -68.3366, -51.0207, 18.8991, -3.41635, 22.198, -203.582, 12.2729, -170.978, -132.173, 19.0943, -8.40622, -4.63852, -67.4082, -9.22158, -11.1447, 4.05357, -13.6103, -72.9644, 0.141387, -6.16096, -23.0886, -4.8913, -13.9813, -13.7353, -16.5666, -4.07179, -10.088, -73.2145, 1.50458, -9.71696, -41.6382, -4.60758, -81.8491, -8.7582, -9.91469, 12.3065, -8.64721, -0.331181, -26.8033, -40.5243, 8.88732, -91.2801, -66.146, 0.582322, 5.9211, -0.539164, -105.172, -134.491, -48.5145, -10.3702, -83.1898, 50.1895, -10.6003, -26.2653, -10.776, -89.4443, -5.35059, -46.6677, -53.0896, -177.775, -15.8361, -7.00274, -16.2236, -1.59833, -170.436, -96.1801, 1.83356, 9.54329, -15.5809, -47.0238, 11.8122, -154.251, -2.51255, 4.07899, -0.406421, -18.2861, -9.49927, -12.687, -91.2607, -21.0392, 7.69204, -3.55972, -13.0051, -25.6421, -14.4716, -9.96248, -164.622, -5.53466, -11.753, -38.153, -9.03526, -7.679, 5.11117, 4.37422, -1.00498e-13
-0.134665, -0.17668, -0.0545348, 0.340454, -0.190613, 0.218114, -0.0511453, 0.073746, -0.216296, 0.0996519, 0.133948, 0.254146, 0.263267, 0.0721917, -0.394278, 0.681164, 0.182333, -0.120923, 0.00401706, -0.0578831, 0.455016, 0.377535, -0.209115, -0.0117828, -0.107909, -0.158879, -0.0904386, 0.151778, 0.507435, -0.0693009, 0.154615, 0.306365, -0.216116, -0.011539, 0.217644, -0.0439729, 0.298766, 0.14112, 0.0473264, 0.519576, -0.222334, 0.576164, -0.0588973, 0.0326058, -0.345759, 0.292429, 0.335927, 0.00107413, -0.225218, 0.132478, -0.175559, -0.0228045, 0.175249, -0.2777, -0.171814, -0.10007, -0.444496, -0.113895, 0.00394182, -0.282522, -0.285081, 0.104011, -0.0795784, 0.0984057, 0.367064, -0.181362, -0.133209, 0.172142, 0.103695, 0.568578, 0.00580089, -0.335559, -0.311018, 0.180005, 0.143292, 0.155634, -0.0205725, -0.583125, 0.104234, -0.030435, 0.126592, 0.188072, -0.216926, -0.318677, 0.140749, 0.586452, 0.183543, 0.125637, -0.03348, -0.0100732, -0.131783, 0.0708254, 0.402072, -0.177319, 0.396911, 0.0749154, -0.399067, 0.215817, -0.128657, 0.159441, -0.0635409, -0.389873, -0.0878511, -0.0456663, -0.194119, 0.127486, -0.257315, -0.376988, -0.346073, -0.323288, -0.158217, -0.333719, 0.0704066, 0.323497, -0.189456, 0.123917, 0.111239, -0.0640981, -0.185131, 0.183558, 0.202591, 0.0723861, -0.00362501, -0.234483, 0.0262747, -0.172968, -0.0875303, -0.349863, 4.12928e-16
-13.6874, 3.92674, 3.00329, 7.25688, -3.14175, -1.44571, 14.7908, 3.2658, 7.97263, 0.630415, -5.6976, 4.84065, -1.08745, -4.59542, 0.964775, 0.821748, -0.00464995, 5.53424, 20.9937, 10.4118, -1.79816, 0.754629, 8.48663, -6.01852, 16.5216, -2.70362, 14.2674, -1.84704, -4.10574, -1.51689, -0.428636, -2.57055, -1.71732, 5.74083, -5.08919, -1.18723, -3.76564, -9.48433, -15.8686, -1.88591, 2.96458, -0.668999, -9.04778, -14.0902, 3.75902, 2.1745, -3.00278, -6.03502, -0.889271, 0.266996, 1.22996, -0.326106, 0.0453344, 20.0903, 17.5143, 3.3091, 15.651, -3.32527, 10.2936, 10.6843, 20.4528, -2.46499, 4.89308, -5.28737, -1.14519, -0.646108, 0.403343, -2.22613, -5.60361, 3.18907, 3.45095, -6.71039, -1.05983, 5.99595, -10.0646, -1.2925, 0.469626, 14.8116, -1.04989, 0.115602, -10.2569, -0.0586352, -3.33243, 11.1836, -3.25447, -4.94567, -2.60656, 4.61987, 5.1233, -10.8105, 15.5384, 0.572275, -1.87806, -2.02608, -1.35803, 11.8164, 9.3162, -1.21064, -2.07738, -2.90569, -8.43242, -3.37424, 8.39891, -0.155009, 9.80344, -0.00331837, 3.21248, -0.759034, 8.13341, 14.1066, -7.48606, 5.23903, -2.52058, -1.23029, 0.813715, -10.0295, 1.99275, -0.497477, -5.64834, -6.89227, 4.13326, 8.15869, 7.91968, -0.195346, -0.316218, 9.80215, -9.06807, 0.428469, 3.68528e-15
3.48113, 1.15233, 1.80333, -6.88834, 1.49438, -0.0743552, -13.4892, -4.82955, -3.37371, -0.48034, -1.49287, -9.05297, 0.523553, -1.20616, -0.89877, -1.10679, 0.124286, -6.38689, -6.48424, 2.43376, 0.612387, -0.93891, 5.57995, 4.28517, -6.84222, 1.19839, -10.1242, 0.0595198, -0.731441, 0.512773, -1.53934, 1.00438, -0.0196633, -5.17087, 4.55762, 0.233816, -1.21906, 3.80758, 9.73932, 0.941823, -3.58628, -0.0948508, 4.70857, 7.56472, 2.17908, -0.494174, -0.23933, 3.7687, -0.655167, -0.459889, 5.77409, 0.203555, 0.000538962, -7.17661, -10.2476, -0.535661, -12.1114, 6.70952, -4.53982, -0.475388, -6.42707, 0.397709, 3.00563, 3.37018, 0.33004, -1.5692, -0.177937, 6.59801, 1.63968, -9.17806, 7.23097, 7.86012, -0.0663349, -5.03426, 7.48827, 0.874418, 2.88179, -9.21519, 0.170056, 0.314504, 5.92351, 1.59769, 0.277517, 5.039, 0.198458, -6.10878, 2.95578, -3.54296, 8.11081, 5.52806, -0.736998, -1.10898, -0.187362, 0.295116, -0.377108, -1.94557, 8.74464, -0.189732, 0.438019, 0.0980533, 4.87397, 0.154225, 4.61674, -0.607119, -8.05823, -0.227869, 2.44119, -3.80568, -5.01484, 3.11516, 11.8042, 12.947, 5.50974, -0.239128, 4.13957, 8.19034, 5.35084, -0.972109, 16.6177, 5.25334, -7.89436, 10.1163, -9.06156, 3.87537, -0.177984, 6.43156, 11.77, -1.34185, -5.65202e-15
-62.8421, -235.213, -103.299, -53.7664, -413.257, -163.261, 35.7356, -17.7239, -26.3812, -6.35807, -97.7274, -57.8399, -321.33, -41.7987, -158.311, -224.586, -0.204206, -207.888, 48.3837, -466.124, -353.919, -186.818, -242.622, -62.2576, -201.587, -499.551, -95.3825, -368.286, -22.9119, -308.362, -9.26874, -427.55, -227.754, -152.099, -96.1609, -192.467, 46.5293, -7.0842, -85.8736, -424.621, 16.1736, -294.916, -199.219, 55.5572, -44.1007, -80.3682, -231.019, -91.5103, -63.2602, 4.95235, -321.189, -173.267, 0.29387, -139.29, 61.696, -104.705, -179.314, -339.348, -210.618, -102.688, -329.696, -184.848, -42.8139, -105.781, -101.945, -65.2158, -146.573, -136.513, -63.6174, 52.2172, -196.736, -390.162, -121.898, -70.8502, -154.047, -259.079, -201.556, -70.3408, 16.7564, -0.136342, -157.239, -97.8862, -138.314, -290.503, -218.976, 131.426, -74.4475, -72.7226, -184.853, -64.3101, -87.3125, -116.03, -176.057, -360.65, -44.7804, -144.491, -211.052, -18.8576, -380.005, -213.056, -117.979, 21.3627, -226.324, -186.299, -35.814, -304.898, -139.494, -312.713, -211.42, -227.887, -146.86, -273.028, -192.697, -90.5725, -84.5038, -69.8266, -271.176, -129.337, -436.868, -53.0628, -275.799, -268.999, 186.46, -177.911, -36.7985, -129.092, -426.477, -50.1913, 1.05282e-13
31.6039, -39.4816, -47.776, 3.53211, 15.4815, 7.20851, 4.56697, -7.44398, -6.7364, -13.2493, 23.5172, -16.528, 8.00273, -14.8862, 4.97098, 2.11706, 0.125802, -6.35569, -77.497, -109.928, 17.5811, -1.30499, -59.8751, -26.3906, -19.1022, 19.3212, 1.58298, 20.3218, 39.2653, 6.30492, 6.92462, 16.9698, 6.72624, 1.23565, 7.68405, 10.8881, 16.7441, 8.08273, 11.1768, 11.1516, 19.2633, 4.37077, 26.0628, -3.71772, -40.5063, -45.9153, 52.4401, -51.5504, 1.31285, 2.60578, -80.9359, -6.13873, 0.211928, -46.8028, -6.23845, -16.0369, -27.3184, -87.7756, -44.8891, -29.8344, -95.0849, 21.4787, -27.4736, -41.7625, 23.1931, 4.68282, 1.74893, -60.3846, -11.0164, 1.89613, -58.3213, -90.034, -0.623894, -4.19649, -60.4462, 15.6338, -19.9522, -10.3693, 12.3314, 0.0900445, 24.341, 10.7802, 42.5795, -145.631, 34.756, 81.2461, -39.8128, -36.3015, -82.3391, 38.385, -47.7777, -1.36234, 10.4419, 10.7162, 29.6489, -45.9808, -127.79, 6.8557, 18.8604, 36.9663, -23.1598, 33.1197, -105.545, -14.7407, 21.6905, 0.122535, -39.7119, -41.6994, -19.6951, -104.423, -95.3192, -130.034, -12.2512, 14.751, -18.7956, -56.2582, -141.213, -0.265604, -135.534, -45.6351, -5.28101, -111.842, 10.6408, -5.47718, 0.762191, -90.8717, -117.99, -3.25951, -2.47057e-14
0.15158, -0.185315, 0.221961, 0.0746388, -0.498993, -0.170668, 0.0957408, 0.468289, 0.00082841, 0.235469, 0.349048, 0.40083, -0.123434, -0.288215, 0.187047, 0.21516, 0.0482121, -0.393539, 0.420688, 0.281439, -0.0211076, 0.384503, -0.28222, -0.176296, 0.5811, 0.399226, 0.101612, -0.107152, 0.42468, -0.022304, 0.0475516, 0.0540187, -0.452751, 0.0255858, 0.27554, 0.150172, 0.235193, 0.28584, 0.0857615, 0.0453042, -0.160745, 0.107527, -0.0423193, 0.146623, 0.36919, -0.201966, -0.348834, -0.284199, -0.509932, 0.162188, -0.0616198, -0.27926, 0.343541, -0.129184, 0.0932202, 0.30601, 0.285837, 0.321589, 0.239768, 0.132216, -0.168741, -0.314164, 0.29256, 0.386565, 0.136318, -0.129435, -0.0306006, 0.204857, -0.351673, 0.355413, 0.011649, 0.0260002, -0.502442, 0.0482585, 0.173189, 0.359006, -0.118364, 0.184624, -0.17195, 0.0168923, -0.116634, 0.000336794, -0.621057, -0.159199, -0.211563, 0.459091, 0.174358, 0.107467, 0.0575177, -0.0464647, 0.115617, -0.00355818, 0.140815, -0.07037, 0.150704, -0.222624, -0.176307, -0.0996066, -0.547811, -0.60431, -0.107983, 0.247411, -0.00789118, -0.298127, 0.0970491, 0.401738, 0.0474215, 0.291909, 0.314615, -0.104108, -0.247358, -0.47706, -0.263544, 0.101655, 0.0444318, 0.0869667, 0.102343, -0.124452, -0.0849152, 0.127422, 0.248965, -0.0536698, 0.293861, 0.0977237, -0.244246, 0.318815, 0.248151, -0.0116944, -2.19575e-16
-135.285, -193.933, -97.7565, -46.8921, -289.332, -108.983, 170.049, 116.584, -9.73841, -11.1525, -209.598, -176.642, -182.868, -41.8973, -70.7168, -95.7882, 0.00675635, -1.82107, 43.1704, -491.682, -150.861, -46.7998, -229.76, -27.9454, -201.134, -272.792, -90.0149, -246.714, -16.5019, -238.969, -11.766, -282.648, -154.194, 4.32709, -47.0872, -128.318, 22.4185, -13.0275, -143.315, -260.162, -0.575079, -115.284, -137.376, 13.152, -28.3029, -52.8388, -175.893, -77.0672, -34.8712, 8.50467, -333.352, -107.398, 0.0548591, -86.2006, 155.751, -124.874, -242.054, -390.9, -249.607, -89.5583, -278.671, -128.852, -28.0723, -135.973, -65.7701, -30.953, -56.5974, -92.9189, -41.9549, 27.0815, -196.685, -473.76, -83.2316, 9.68663, -116.606, -183.045, -107.458, -44.1347, -8.16333, -0.189516, -107.03, -7.25131, -94.7932, -223.79, -151.564, -57.2006, -88.6082, -59.8833, -126.496, -54.1256, 61.8092, -26.781, -110.505, -153.836, -16.0356, -170.46, -154.28, 0.0429577, -195.743, -163.954, -144.553, 1.27612, -200.53, -103.193, -54.4313, -130.086, -87.821, -490.926, -306.617, -207.498, -85.7425, -199.514, -90.7513, -34.9225, -92.8321, -39.1555, -192.673, -87.3587, -394.396, -77.3683, -20.1809, -165.505, 166.796, -105.451, -21.4192, -113.517, -518.485, -47.3459, 3.2693e-13
71.858, -154.654, -68.6254, 66.9964, -65.864, -29.8912, 147.334, 37.8594, 27.6698, -5.2314, 111.121, 113.412, -36.3868, -98.8257, 10.6816, -15.1575, -0.673843, 31.31, 60.6897, -153.792, -20.5699, -0.136565, -151.292, -192.778, 68.8456, -125.944, 117.4, -2.68789, -22.7292, -22.521, -30.7567, -55.9043, -42.7072, 26.0872, -46.5974, -19.3464, 73.8955, -52.2538, 17.4709, -49.5533, 39.9725, -27.0717, -67.0919, -33.8182, -80.7699, -119.982, 4.97326, -68.7906, -52.6714, 1.15924, -132.845, -83.968, -0.353597, 36.5609, 86.0392, 4.67937, 94.4739, -126.839, 16.1804, -15.085, -31.5548, -32.6122, -50.6622, -36.8985, -7.37432, -73.5123, -4.34034, -93.0124, -193.056, 126.23, -65.0586, -149.98, -95.0334, 34.2439, -156.327, -11.7998, -190.41, 72.4938, 21.6032, -0.581411, -29.664, -15.3695, 39.7869, -346.693, -6.30794, 168.011, -34.3077, -51.9956, -192.089, 37.1478, -13.508, 11.5193, -50.3996, -37.6019, 29.8506, -65.8161, -339.591, -41.5528, -80.0217, -8.48621, -68.4693, 26.6702, -309.051, -203.275, 105.236, -14.8788, -329.462, 109.779, 19.558, -120.947, -397.715, -355.155, -104.787, 8.6668, 15.5468, -85.801, -287.972, -144.004, -314.208, -33.4901, 40.9373, -377.659, 111.616, -104.572, -19.8763, -148.478, -232.783, -41.6358, -5.59838e-15
-55.51, 1.83615, 34.555, 69.4366, -85.6208, 13.125, 53.8726, -62.1373, 63.4632, -11.7785, 53.6624, 103.309, -57.5048, -68.5029, 6.09032, -83.4532, 0.298435, -89.8869, 144.289, 171.909, -64.9951, -81.7083, 104.351, -96.4678, 190.975, 31.0872, 148.405, 11.6046, 0.26641, -26.1461, -1.38076, -1.07327, 8.70506, -122.528, -98.6617, 10.2308, -32.9648, -77.3029, -68.3535, -80.1922, 60.5092, -70.4199, -109.842, -146.57, 8.85433, -24.371, 34.96, -64.2998, 2.62411, 7.41869, 74.8961, -26.8777, -0.0963817, 200.275, 20.2068, 55.7087, 166.667, 37.948, 132.918, 106.349, 192.29, 2.84286, 49.4689, -22.8939, 19.9873, 4.55603, -74.7256, -48.6225, -64.1067, 31.3876, 62.4698, 36.8454, 21.1836, -31.9729, -120.743, -3.13099, -16.7419, 155.86, 13.3463, 0.404596, -135.223, -128.934, 20.9784, 37.6851, 1.17278, 88.5559, -9.79816, 4.30762, 9.01628, -147.782, 90.3526, -58.1335, 18.1367, -75.1325, 18.1681, 111.507, 39.0981, -9.43265, 7.2694, 23.0434, -37.7756, 4.51398, 36.6069, -0.409821, 97.4154, -80.6062, 27.761, 132.354, 154.712, 126.666, -142.984, 0.949268, -104.374, 5.4782, 29.7637, -152.049, -60.0133, 28.4282, -14.3315, -63.0904, -82.9998, 33.0297, -14.8856, 16.9637, 4.82387, 77.9657, 1.54437, 8.39703, -1.27873e-14
77.4691, 11.9992, 5.14603, -15.755, -42.4726, -11.9247, -127.052, -51.8591, -27.8998, 0.93851, 48.3974, 1.34697, -20.4802, 65.6483, -15.4998, -51.9136, 0.0583052, -86.0182, -58.4031, 85.8592, -86.935, -50.0798, 64.3271, 22.6514, -3.34942, 38.2075, -54.2657, 2.73579, 60.0249, -22.8911, 55.9502, 19.8918, -17.3936, -67.0551, -56.1022, -6.46401, 8.15193, -18.5037, 59.2376, -39.6571, 22.4423, -62.1527, -111.907, -31.5343, -15.6733, 5.32966, 56.3441, -16.9879, 15.5737, 14.1177, 52.7737, -53.927, -0.0819366, -95.3481, -52.8184, 32.0172, 29.0719, 68.9394, 42.2449, -18.378, -34.94, -26.7478, 1.85581, 4.51799, 9.62055, 44.2361, -27.9353, -18.926, 54.334, -29.5981, 21.7952, 116.619, 31.9472, -10.0534, 7.74851, 8.45639, 1.11994, -48.8454, 1.68861, -0.0948464, -96.6453, -63.8115, -8.02486, 85.2967, -27.283, 75.2147, -0.0960403, -12.4288, 1.35672, -128.16, -22.8509, -24.049, -0.954047, -42.7627, 16.2418, 40.8617, 60.0634, 10.4094, 40.2848, -26.0087, 25.4544, 22.5608, 95.2849, 32.5223, -5.91508, -68.3743, 157.55, 96.4428, 92.2779, -0.196882, 87.3022, 82.9938, -56.5893, 12.9105, 22.1397, -61.7657, 27.2397, 77.5106, 110.875, -17.8905, -89.6588, 60.2678, -81.4713, 10.4972, 7.37046, 18.098, 151.036, 27.8697, 6.32317e-14
536.755, -594.052, -138.951, -329.161, -1171.35, -367.871, -970.261, -883.906, -283.143, 18.6109, -62.4573, -259.996, -1503.94, 692.85, -870.279, -1409.13, -0.0911157, -1862.18, -462.423, -694.722, -1822.72, -1312.99, -533.355, 707.926, -834.232, -2068.93, -633.571, -1361.65, 252.761, -912.68, 227.5, -1566.43, -735.729, -1637.93, -81.273, -486.767, 235.794, 495.336, 464.051, -1803.23, -217.493, -1681.03, -331.511, 841.208, -66.7736, 76.7911, -600.242, 149.246, 0.74473, 7.13458, -242.333, -371.981, 0.961913, -924.926, -942.9, -200.533, -699.056, -54.8539, -573.541, -392.274, -823.322, -346.013, -193.393, 84.4681, -284.406, 123.767, -954.665, 111.184, 637.743, -102.491, -245.837, 102.433, -262.415, -748.363, 582.474, -841.128, -184.13, -707.246, 31.7375, -0.318209, -277.77, -1037.38, -414.723, -131.277, -429.253, 360.241, -1.08938, -148.1, -103.416, -237.216, -1043.73, -688.407, -366.07, -1764.61, -157.647, -490.725, -130.037, 195.925, -1989.91, -728.039, 222.795, 202.267, -133.801, 10.1468, -355.269, -1654.42, 411.223, -311.937, -477.609, -545.155, 953.038, 15.6806, -393.216, -147.721, -149.547, 583.319, 153.196, -136.844, 101.934, 191.775, -2231.06, 17.7431, -218.652, -553.989, -50.9403, -269.605, 306.707, -34.6868, 2.74079e-13
53.4323, 27.3729, -36.721, -93.0957, 138.542, 26.624, -158.931, 8.28334, -94.9737, 7.34155, -67.9342, -140.122, 78.5735, 103.861, -31.9838, 94.3052, -0.608508, 24.7056, -242.955, -204.616, 143.71, 51.8125, -140.618, 107.649, -243.946, 0.496337, -201.147, 48.6784, 87.7462, 49.8829, 27.6649, 68.6778, 18.1504, 66.542, 124.408, 35.0981, 15.806, 98.9567, 60.7002, 117.494, -59.4146, 91.0831, 179.61, 141.141, -3.17169, 21.9523, 83.3002, 41.3168, 17.8321, -4.8142, -88.166, 46.5953, -0.665112, -271.131, -139.158, -62.992, -206.303, -61.0946, -169.064, -119.833, -234.168, 65.9339, -53.3139, 5.08181, 39.811, 34.23, 54.9528, 25.1609, 100.045, -91.1526, -79.5875, -42.2841, -10.7232, -11.5722, 108.337, 61.8619, 51.5556, -208.781, 0.0360782, -0.443252, 187.948, 121.472, 83.7524, -23.4184, 97.7329, -32.3893, -0.0424513, 1.32382, -28.1242, 231.292, -187.301, 18.5395, 32.6651, 94.7844, 52.2694, -137.695, -35.6932, 29.571, -8.68569, 74.7515, 29.8624, 59.8167, -45.401, 59.472, -121.421, 57.7079, 20.8973, -158.573, -161, -150.413, 152.687, -17.6408, 104.67, 48.9692, -37.5531, 127.691, 46.8364, 0.668054, -17.0248, 35.1064, 9.39262, -27.1372, -50.0587, -16.0963, 5.10189, -83.572, -14.2167, -8.79218, 1.88209e-14
4.24853, -6.40784, -17.9421, -7.36019, 3.85261, 5.67614, -23.7826, -17.8814, -5.1472, -3.74398, -2.0018, -15.1237, -12.9102, -9.45705, -4.84997, -16.3572, -0.791566, -27.8814, -29.6645, -42.0935, -18.9545, -17.3955, -10.3317, 4.15366, -16.9206, -1.45611, -15.4123, -3.0866, 11.4006, -2.09764, 1.34587, -1.30955, 4.50859, -21.5296, 4.75982, 3.86483, -5.94713, 14.3526, 9.89841, -10.6486, 2.39354, -20.0862, 19.17, 3.46646, -17.0033, -16.0842, 22.1381, -19.4851, 2.61318, -1.84708, -33.3211, -4.93529, -0.361636, -30.0161, -22.4485, -7.82458, -21.3281, -29.9478, -20.2075, -12.5779, -47.5956, 12.5064, -8.38601, -14.0005, 9.62715, 2.53364, -10.6428, -26.3453, 20.1037, -16.3123, -14.9621, -23.9547, 2.76262, -12.1584, -21.4643, -2.66619, -4.62298, -15.5886, -0.268936, -0.388461, 16.2565, -1.63658, 8.85213, -45.3082, 15.24, 16.9437, -13.991, -12.5478, -28.8907, 5.63286, -31.9052, -11.3036, 7.22105, -14.6897, 7.5276, -14.4689, -36.1464, 4.24662, 2.58753, 11.0125, -8.39098, 11.2934, -20.8069, 1.35334, -1.39815, -19.4008, 3.9682, -23.2844, -6.30929, -29.4814, 2.41184, -28.3276, -9.89966, 5.32179, -7.05957, -21.8024, -42.7917, 6.32325, -28.9178, -8.81608, -32.3645, -39.9871, -12.404, -3.73322, 0.960076, -21.631, -25.2341, -5.05598, 1.65334e-14
0.0140909, -0.0985993, -0.194427, -0.0507275, 0.0772406, -0.174069, 0.0327657, 0.281852, 0.0421357, -0.0675688, -0.112123, 0.210558, 0.29949, 0.115264, -0.0155796, 0.153768, -0.0680829, 0.213045, 0.0113412, 0.175711, 0.135936, 0.247145, 0.0211124, 0.0716415, 0.28074, 0.117749, 0.192845, 0.00575086, -0.276834, 0.151371, 0.229379, 0.0238856, 0.126777, 0.300947, 0.124782, 0.344767, -0.183688, 0.254061, 0.118182, 0.26253, -0.195576, -0.255279, 0.269147, 0.138819, 0.303459, -0.0666048, 0.335901, 0.156086, 0.26261, -0.00898925, -0.166187, -0.079888, 0.438248, 0.044795, -0.186692, 0.0403321, -0.13901, 0.428269, 0.244883, -0.0215023, -0.332193, -0.255325, 0.211957, 0.333833, 0.171713, -0.119927, 0.0714547, -0.129153, 0.394778, -0.0953553, 0.198983, 0.123494, 0.0849308, 0.215402, 0.011935, 0.0973948, 0.100979, -0.252941, 0.0975287, -0.106316, -0.0101178, 0.272617, -0.171054, 0.175989, 0.0215727, 0.341355, 0.39203, -0.0330335, 0.0749315, 0.411341, 0.0190292, 0.0699004, 0.00363001, 0.117768, 0.0907824, 0.0817257, -0.373784, 0.0772392, 0.0420097, 0.0963194, -0.0130845, 0.0728083, -0.0490298, -0.0714325, 0.0760907, 0.117475, -0.0662675, 0.187827, -0.0503787, 0.0330915, -0.0501611, -0.361685, 0.151431, -0.132256, 0.0688567, 0.320081, -0.0339934, -0.0489839, 0.221383, 0.292492, 0.0439748, -0.293282, 0.261414, 0.0665569, 0.018147, -0.129361, 0.368129, -0.0674476, -4.82704e-15
67.5127, 18.9972, 0.442188, -45.1457, 44.32, 25.7437, -177.168, -89.77, -51.1666, 1.21726, 21.8815, -15.2769, -13.1782, 73.9781, -48.2579, -30.3266, -0.577452, -127.016, -132.86, -9.88892, 0.628886, -70.4956, -41.4511, 78.1838, -96.6005, -39.9102, -95.6231, 15.4192, 77.6655, 11.6595, 29.23, 28.5668, 7.72895, -112.409, 41.4867, 22.0957, 3.05828, 63.6707, 65.057, 0.637294, -15.8024, -29.3697, 80.4253, 78.308, -7.31934, 8.843, 75.6774, 17.6107, 18.1278, -2.74711, 20.9473, 14.248, -0.512752, -148.703, -172.299, -0.736661, -49.8007, 55.1766, -33.1651, -52.7898, -105.099, 53.925, -32.0326, 28.617, 41.0353, 35.2199, -51.5208, 7.53767, 94.4957, -53.9044, -11.9635, 89.7845, 9.51042, -65.2238, 61.9142, 26.0343, 33.8151, -107.395, 7.12116, -0.00548355, 62.3817, -42.1047, 56.1313, -5.64107, 68.2174, 60.8377, 12.8532, 7.17481, -16.3359, 58.095, -188.147, -53.097, 35.3177, -35.2782, 37.0122, -29.9511, -13.785, 26.6291, -47.5409, 58.4157, 46.2669, 51.4785, 8.76661, 58.3222, -51.4768, -60.8288, 66.2409, 33.3151, 3.62059, -55.9706, 114.761, 5.48332, 10.2667, 29.5609, -23.0303, 45.7496, 25.8547, 35.5433, 58.6711, 26.4245, -147.682, -15.2639, -78.3893, -23.7798, 7.63348, -33.3594, 117.229, 0.102817, -5.51929e-15
8.94467, -25.7294, 35.4148, 11.8581, -104.069, -12.2319, 57.8303, 40.0802, -1.83383, 4.80342, -10.0172, 10.3793, -17.8253, 62.7505, -5.98566, -2.93784, 0.274135, 23.3808, 11.8027, 103.661, 21.9463, -3.19577, 32.0954, 1.29664, 31.0685, -41.2647, 14.7172, 20.4932, 34.2539, -28.5977, 21.0098, -26.5112, -45.7731, -29.962, -64.888, -8.85001, 14.0344, -26.0705, -17.2984, -47.6268, 24.3368, 15.864, -118.281, 9.2618, 36.0188, 45.3604, -2.89741, 40.4988, -6.58033, 11.7538, 80.2236, -38.8569, 0.415686, 54.9641, -2.23173, 11.3274, 25.1429, 74.3374, 32.3494, 16.1933, 79.9425, -17.6762, 14.2579, 24.8841, 2.48586, 12.3888, -21.5358, 50.6501, -43.8715, 22.2004, 22.7616, 74.777, -25.5242, 27.2376, 61.9899, 15.8956, -29.5644, 29.3068, 1.75618, 0.288716, -108.624, -97.2158, 23.1269, 120.495, -2.46968, 24.2523, 25.8783, 19.7584, 56.3914, -48.0079, 40.5908, 10.7202, -12.2383, -27.5971, 18.2297, 38.0932, 69.9703, -5.50589, -81.6558, 2.90312, 39.8424, 9.70134, 60.9716, -9.70055, 7.92032, 0.618964, 22.9411, 36.9627, 23.7879, 50.9815, -32.6932, 54.0056, -64.2958, 9.78746, -0.883783, 27.2824, 107.799, 6.10041, 74.7359, -2.39756, 42.6049, 86.3201, 6.52125, -30.9308, -0.976654, 33.753, 97.0683, 25.9411, 8.28602e-14
-67.653, 164.155, 8.26392, -1.72908, 384.672, 149.183, 0.416313, 92.6574, 5.26858, 0.109428, 2.90051, 12.936, 345.217, -119.946, 125.029, 323.362, -0.074101, 312.976, 8.04675, 36.1102, 418.436, 239.629, -18.1904, -16.9775, -19.8854, 355.686, 7.60649, 281.622, 2.88602, 239.096, -68.6544, 375.746, 171.704, 299.573, 137.344, 147.246, -38.8692, 17.6912, -15.7926, 445.337, -89.7969, 360.247, 282.111, -22.4704, 3.03366, -4.68373, 185.443, 3.38994, 33.6353, -43.768, 13.9917, 120.348, -0.0631231, -25.3669, 28.2645, 7.94841, 21.7103, 12.6208, 36.2199, 24.1649, 49.2306, 187.144, -7.01402, 8.51262, 125.957, 0.0458926, 169.373, 6.62053, 1.87238, -18.2594, 27.3496, -1.76584, 86.4827, 96.7949, -23.0806, 216.074, 106.957, -44.0782, -23.4605, -0.231179, 241.473, 246.596, 149.199, -30.7728, 187.948, -210.534, 4.52247, 49.3572, 17.2242, 228.183, 17.4591, 83.1378, 156.737, 376.326, 61.2013, -21.5914, 8.48616, -10.6504, 375.024, 239.113, -18.448, -15.7892, -12.9556, 99.7962, -56.6901, 317.499, -87.0453, 23.1564, -33.696, 36.4762, 35.7368, 20.2928, 137.95, 69.3282, 11.5729, 6.25393, 3.10347, 51.5679, 20.3199, 11.3985, 357.967, -18.4893, -30.5778, 86.3832, 28.0151, 13.3081, -7.82382, -35.5274, 6.59881e-14
29.9768, -46.1925, -28.8378, 3.51851, -17.8959, 0.634151, -15.9372, -16.1999, -0.833288, -9.20925, 43.977, 29.0072, -7.3032, -30.7054, -7.4536, -10.0134, -1.18558, -21.7638, -6.97928, -55.5818, -9.24557, -12.8895, -50.3312, -54.3612, -1.10551, -31.4914, 15.2947, 4.83194, 14.6062, -5.31794, -0.619952, -0.970214, -6.27524, -14.2745, -17.2005, 1.24149, 16.4489, -12.6731, 16.4003, -10.9241, 8.74657, -11.459, -16.5999, -18.6345, -34.4699, -46.3641, 28.5529, -42.9185, -8.67873, -2.80613, -45.122, -26.8585, -1.11636, -26.3231, -2.22569, -0.917124, 8.00817, -39.0209, -7.83424, -11.8478, -49.1546, 6.81053, -23.112, -21.2814, 10.9856, -9.50956, -9.31512, -50.0748, -39.1063, 20.8442, -24.817, -32.8678, -17.8541, -7.68545, -65.0155, 3.67612, -49.2184, -7.39863, 10.2922, -0.912845, -10.3715, -12.4626, 26.6091, -126.626, 16.8818, 79.4829, -21.8251, -30.8984, -76.0772, 10.3806, -40.5263, -8.36782, -0.283111, -14.4674, 17.8058, -29.3466, -119.525, -5.26058, -16.5121, 16.4734, -19.2027, 22.973, -98.0489, -43.172, 19.371, -12.4678, -68.9575, 31.7703, 14.26, -55.1959, -123.471, -122.537, -39.4021, 7.5448, 3.17952, -57.7505, -122.032, -23.7423, -100.337, -28.3322, -27.7033, -124.394, 22.5851, -27.5557, -2.05417, -58.5397, -57.0716, -12.3543, -8.47745e-15
19.4757, -29.9688, -1.86961, 15.6226, -5.80584, -3.75329, 8.74856, -4.28042, 10.7025, 0.513791, 48.4391, 57.6885, -5.36097, -30.6332, -2.61436, -6.14081, 0.603482, -7.18776, 41.8011, 0.902714, -9.1657, -5.51342, -23.7572, -39.71, 27.0705, -28.3745, 37.9298, -4.91864, -13.0673, -1.82529, -11.3787, -5.99298, -5.44817, -8.12993, -10.0309, -3.79338, 12.8094, -8.69818, 16.06, -6.7348, -1.55997, -6.74441, -7.28446, -7.61512, -17.8332, -27.4476, -9.29276, -13.02, -10.6372, -4.05705, -4.4513, -14.6677, 0.0690014, 17.9777, 13.1648, 14.9731, 48.6485, 9.68908, 29.2193, 9.14981, 17.1284, -4.65309, -8.35481, 10.5435, -3.37008, -16.8304, -5.47493, -22.0691, -34.3574, 37.9212, 1.72508, 12.8154, -15.3947, -0.371714, -34.0687, -3.07846, -39.1745, 19.4633, 4.43122, 0.471629, -6.24725, -10.7761, -4.44766, -72.7461, -6.12478, 37.026, 4.97428, -3.73445, -39.8214, -0.543201, -6.55957, -1.70695, -7.45558, -9.28612, -3.7176, -0.0385799, -71.4339, -7.46821, -14.0877, -4.16735, -5.61592, -1.66471, -57.1235, -42.135, 18.8646, -5.51175, -71.5639, 76.0121, 33.2396, -7.61417, -81.3552, -72.1584, -23.7984, -4.48534, 13.8327, -21.8365, -56.2291, -29.1106, -38.6279, 6.3491, -8.26938, -88.7468, 21.4312, -22.6417, -2.79878, -23.467, -4.78025, -14.2521, -6.73018e-15
-21.4257, 39.2618, 25.2449, 189.011, 183.31, 340.095, 449.188, 281.03, 64.6314, 4.63169, 99.4304, 195.346, 411.398, -38.0755, 299.077, 366.735, 0.177289, 357.271, -9.44676, 251.625, 741.598, 195.373, 115.588, -203.524, 343.399, 821.156, 258.48, 812.733, 471.222, 307.799, 61.4152, 638.657, 212.32, -6.91514, -121.697, 331.451, 51.4852, -89.387, -173.095, 443.286, 244.862, 571.684, 6.85146, -122.029, -14.6916, -70.4835, 784.748, -82.3917, 40.6288, 54.1457, 77.4408, -10.7132, 0.0607034, 317.91, -166.193, 90.7798, 341.297, 17.4201, 259.566, 79.8228, 245.469, 462.951, 30.5406, -37.4905, 490.741, 140.7, -23.7952, -94.2234, -235.885, 184.299, -55.3246, -50.2092, 116.36, 157.538, -207.612, 557.034, -11.1893, 335.731, 7.69303, 0.172701, -132.325, -243.748, 697.017, -81.8162, 664.031, 277.044, -8.06891, 186.024, -81.6979, -91.0037, 53.7762, 64.6376, 410.435, 465.169, 456.401, 187.185, -226.815, -4.02697, 531.888, 726.539, -16.0688, 232.123, -111.6, 82.592, 209.046, 363.733, -100.212, 209.519, 228.062, 99.1863, -620.526, -301.042, -255.331, 403.391, -207.476, -267.111, -180.209, 268.748, -205.659, -137.193, 674.553, -201.009, -87.8846, 2.20522, 92.1432, -16.5856, -60.5836, 50.4837, -2.26854e-12
-181.895, 177.363, 36.4056, 59.1089, 531.604, 69.2831, 360.234, 549.691, 106.198, -6.73947, 33.4956, 92.1476, 749.117, -338.205, 381.94, 758.875, -0.0266687, 1040.15, 307.42, 146.405, 804.83, 749.766, 85.2284, -276.608, 156.609, 693.34, 171.976, 482.203, -284.795, 345.44, -154.954, 614.718, 250.136, 1033.46, 106.91, 108.575, -103.704, -173.296, -80.4934, 885.896, -78.1539, 832.599, 186.324, -243.184, 12.8059, -37.7604, -5.73801, -23.3102, -48.7585, -50.3152, 58.1033, 129.929, -0.0640093, 219.063, 664.041, 45.7075, 163.636, 40.559, 142.745, 119.742, 195.035, 23.8549, 40.1831, 4.9793, -29.244, -141.649, 588.918, -24.9504, -314.324, 52.6143, 103.804, -6.82537, 20.6481, 456.184, -159.209, 286.359, 5.31374, 135.411, -33.352, -0.222179, 247.581, 687.266, -12.0336, -72.0955, 16.6924, -307.742, 13.4017, -15.7835, 12.3524, 262.181, 559.594, 412.191, 32.7753, 826.183, -82.3759, 67.2162, -29.3361, -100.058, 830.417, 127.621, -66.9395, -178.872, -43.883, -145.349, 30.3486, 872.252, -346.446, 100.595, 52.874, 149.14, -427.329, -39.1558, 249.274, -46.3947, 119.191, -170.171, -64.2684, -125.241, 2.59887, -23.6962, 1159.36, -122.996, 294.497, 215.235, -9.37386, 56.7679, -68.9356, -50.7101, 1.2807e-13
97.0904, -30.5734, -88.2966, -75.502, 243.69, 62.9251, -171.47, -51.9936, -70.8921, 5.81611, -2.53282, -64.9709, 98.5072, 65.0516, -48.0861, 86.133, 0.0858773, -17.7791, -245.081, -375.544, 199.554, 38.3264, -324.664, 34.5918, -280.595, -12.2752, -170.967, 64.279, 117.05, 86.6094, 12.7464, 130.455, 48.341, 69.1067, 183.342, 78.4521, 58.6283, 111.691, 65.9677, 168.667, -90.9105, 87.8838, 271.879, 125.409, -73.0769, -67.4698, 148.043, -21.6908, 19.9912, -17.0863, -219.757, 57.3272, -0.153702, -331.73, -128.352, -68.544, -154.953, -171.754, -169.616, -133.179, -280.569, 122.374, -97.8854, -20.4731, 74.4468, 32.1645, 56.9072, -63.542, 60.2084, -41.2161, -147.261, -171.763, -33.1746, -47.8192, 2.12033, 91.0591, 6.35739, -213.504, 6.49915, -0.179903, 285.436, 155.956, 142.342, -305.75, 156.866, 28.7506, -26.9234, -7.06731, -195.585, 356.188, -273.27, 9.41736, 67.631, 157.668, 86.3332, -209.548, -298.764, 32.7609, -9.57585, 117.26, -40.0112, 92.9004, -284.247, 32.1544, -94.8103, 39.5708, -137.286, -101.769, -185.447, -259.095, -10.1343, -297.086, 123.884, 91.4295, -31.0102, 90.5171, -185.998, -53.6969, -281.504, 4.74182, -52.966, -301.155, -12.318, -62.6359, 8.91289, -217.017, -214.023, -62.6015, 8.14186e-15
37.4019, -51.0523, 38.7049, 96.1735, 29.9309, -9.06446, 181.997, 38.2836, 74.0307, 17.7397, 54.284, 138.113, -31.7335, 69.6431, -34.3036, 13.633, 0.0406552, 44.6861, 151.861, 132.945, 51.4906, -15.9014, -30.1717, 52.7163, 149.789, -240.33, 174.621, 24.5205, 22.2597, 53.4483, -19.4958, -47.3293, -77.9032, -18.057, 12.9116, -11.4201, 33.5167, 78.8139, -6.21964, -25.8145, -22.4788, 16.0416, 92.8974, 150.35, 35.301, 25.497, -45.8112, 63.3198, -29.0148, -11.3754, 73.5293, -4.83389, -0.0909932, 184.023, 88.5663, 31.4028, 183.354, 91.4018, 134.761, 96.0056, 220.752, 40.6134, 6.36952, 68.3983, -3.7131, -25.8408, -35.8609, 43.6742, -41.3559, 107.392, 38.4499, 72.1578, -114.288, 49.7391, 90.6821, 72.0609, -76.8497, 136.893, 9.9145, 0.403908, 58.4007, -104.239, 48.5602, -23.2044, 51.6688, 67.7216, 43.7695, 62.8305, 17.3802, 136.396, 90.5134, 20.577, -28.7355, -71.137, 12.9593, 40.6485, -58.6987, 8.34357, -254.107, 43.824, 50.8757, 25.9373, -57.4613, -77.3031, 100.897, 3.05378, -171.859, 159.56, 41.7384, 112.01, -104.192, -78.7015, -48.9672, 2.77969, 4.59178, 112.83, 59.5735, -124.182, -5.59387, 60.5375, 43.5083, -82.1838, 94.8291, -122.308, -11.7855, 15.2945, 92.6825, -21.1556, -2.40463e-12
524.365, -769.079, -33.7393, 123.556, -2046.77, -923.516, -661.258, -977.951, 165.956, -81.0662, 489.343, 456.186, -2082.2, 110.363, -606.705, -2166.86, 0.0112933, -2091.18, 546.384, 828.27, -3650.78, -1446.89, 1034.77, 22.2798, 802.346, -2135.77, 321.663, -2151.59, -699.184, -1223.69, 265.063, -2381.61, -906.478, -1720.44, -896.402, -1015.65, 95.1036, -268.086, 404.665, -2633.43, 494.03, -2666.79, -1731.9, -25.6824, -227.54, -128.465, -1574.35, -330.639, -249.709, 122.36, 375.262, -720.266, -0.936477, 467.522, -74.0039, 250.942, 473.492, 558.455, 512.898, 159.763, 131.306, -1279.6, 170.452, 19.3839, -1111.07, -224.549, -872.43, -326.281, 87.2022, 191.076, 186.904, 934.345, -261.528, -603.993, -135.499, -1650.84, -588.636, 481.509, 54.7128, -0.134978, -1496.16, -1373.68, -1671.84, 125.866, -1636.14, 1125.56, -85.7773, -618.17, -66.1024, -2132.72, 18.5408, -423.026, -1036.24, -2546.39, -943.202, 758, 57.1761, -58.7965, -1874.12, -1927.68, 315.605, -344.856, 724.362, -679.015, 416.399, -1917.41, 671.097, 860.101, 1130.21, 271.313, 95.1716, 265.282, -856.704, -841.792, -11.46, -494.003, -312.799, -216.4, 672.249, -46.1088, -2524.82, 221.223, -82.6492, -207.521, -212.932, 276.365, 1282.92, 265.878, -5.18737e-17
-103.17, 174.529, 7.61973, 6.06967, 362.435, 99.5154, 43.619, 126.161, 7.16607, -6.87627, -79.8475, -90.5537, 326.54, -15.9999, 134.14, 289.684, 0.242595, 318.061, -104.216, 16.2755, 445.378, 247.984, 48.3555, 1.44922, 25.5656, 468.251, -12.7291, 298.669, 51.2071, 202.979, 15.4657, 391.913, 188.343, 314.953, 107.287, 135.426, -91.3787, -17.0018, -96.5693, 424.41, 36.3116, 352.57, 225.469, -97.3433, 12.45, 11.8943, 225.036, -38.4325, 38.7593, 7.85911, -15.0988, 135.275, 0.141916, 5.88844, 97.6087, 4.93907, 7.73968, -56.3697, 8.6789, 15.9158, -7.82255, 134.87, 11.9178, -42.4342, 94.151, 46.004, 198.848, -44.948, 36.4487, -116.572, -14.8293, -80.4822, 62.7727, 110.633, -65.9031, 208.312, 143.983, 21.5194, -8.89954, 0.270031, 193.08, 261.562, 148.992, 39.2406, 183.859, -52.3711, -17.9702, 22.0651, -3.57483, 156.142, 69.4564, 123.383, 114.432, 402.265, 80.28, 40.7263, 35.9146, 19.1237, 428.767, 200.322, -31.7421, 22.5436, 62.2517, 119.443, 14.5426, 320.851, 83.3076, -117.61, 15.9245, 22.7703, -13.8318, 9.05213, 166.935, 78.3152, -29.7042, -100.143, -26.448, 80.5711, -49.791, -53.8759, 357.657, 25.2691, -18.4413, 128.161, 16.0564, 14.3784, -97.4025, 12.4993, -8.21505e-13
0.0974715, -0.0223227, 0.0603969, 0.0170315, 0.698298, 0.0474818, -0.0856468, -0.246945, -0.556426, 0.346106, 0.0653816, -0.343326, 0.202139, 0.491201, -0.224572, 0.364679, 0.0341508, 0.420417, -0.517081, 0.11755, -0.0412402, -0.611319, -0.0157795, 0.182272, -0.11269, -0.643754, 0.106392, 0.271307, -0.353061, 0.337838, 0.478054, -0.0552763, 0.387641, -0.0879065, 0.126291, 0.0741114, -0.131894, 0.214667, -0.0506678, 0.210188, -0.0233044, 0.132999, 0.308367, 0.254817, 0.109631, 0.194134, 0.249242, 0.353801, 0.162037, 0.222119, 0.339303, 0.228568, 0.0797178, -0.355834, -0.358418, 0.146745, 0.106435, 0.298208, 0.0297006, -0.163686, -0.0190636, 0.0149221, -0.0674607, 0.00618218, 0.142915, 0.421165, 0.20067, 0.473812, 0.210653, 0.0991898, 0.152998, -0.0643193, 0.285596, 0.0638752, -0.021336, 0.250848, 0.157249, -0.229943, -0.0520419, 0.289755, 0.0731665, 0.0733353, -0.0185897, 0.273317, 0.403231, -0.105616, 0.0989696, -0.374883, 0.155758, 0.246298, -0.0486306, 0.0486591, 0.0621189, 0.238315, -0.416019, 0.0247901, -0.116302, 0.508255, 0.410586, 0.195936, 0.0126667, -0.25503, 0.0708606, 0.4203, -0.504923, -0.357654, -0.195225, -0.167859, -0.177785, -0.430343, 0.181076, 0.0160562, 0.651448, 0.187777, 0.169991, 0.193782, 0.1364, 0.0920362, 0.288752, 0.0637191, -0.136932, 0.292312, 0.0142249, -0.05647, -0.0402754, -0.516752, -0.182728, 0.0781156, -1.00076e-15
1.1398, 15.0691, 7.48617, 16.6741, 13.9869, 68.7229, 26.1295, -12.0756, 6.52743, 0.396797, 14.4989, 18.4867, 13.2208, 7.01366, 30.7661, -5.64782, 0.383269, -21.2542, -35.6436, 45.4757, 86.964, -28.7891, 24.9869, -6.26555, 42.0288, 119.812, 26.5187, 117.206, 85.9182, 32.2002, 11.3974, 90.4916, 45.6147, -85.4366, -23.5677, 68.9625, -7.49819, 2.31901, -6.02525, 17.9917, 32.4375, 31.844, 3.65316, -21.1558, 1.43404, -1.78954, 152.748, -3.79629, 22.5661, 5.80037, 23.2661, 2.81656, 0.298986, 33.816, -87.1, 12.2512, 36.3167, 17.7912, 30.6828, 13.729, 36.258, 88.4311, 5.22043, 0.883733, 92.1567, 36.8869, -50.5696, -2.36143, 9.44629, -5.51727, 11.098, 17.1459, 36.9052, -8.29847, -11.3633, 79.6395, 16.7489, 30.733, 1.1461, 0.204775, -20.2894, -97.6738, 125.027, 11.7439, 122.37, 28.0089, 2.14054, 32.1066, 2.55154, -6.2698, -37.1526, -24.2935, 83.923, 25.3765, 82.001, 24.1679, -5.46026, 11.0916, 60.2463, 127.825, 1.54126, 45.8433, 5.59692, 52.3491, 23.5863, -3.75304, 29.5649, 35.5808, 33.7965, 20.9678, -36.7933, -10.2872, -53.4644, 69.708, -12.1159, -31.1584, -1.75021, 68.9155, 5.90714, -14.0669, 9.30946, -0.737396, -57.4483, 5.59133, 18.834, 2.78022, 13.956, 6.23663, 3.31798e-14
