0.162295, 0.362423, 0.0670215, 0.300328, -0.0877328, 0.142892, 0.0939114, -0.167411, -0.180513, -0.0396155, -0.148382, -0.176154, 0.120431, 0.0553564, 0.0495774, -0.0766188, 0.00263382, -0.166248, 0.182307, -0.27149, -8.80296e-18
-0.243843, 0.103945, 0.381528, -0.251887, 0.0499991, -0.322386, -0.11289, -0.111011, 0.119922, -0.083449, 0.104885, -0.108146, 0.254498, -0.0011632, 0.0814997, -0.0940638, 0.0103057, 0.0175449, 0.31995, 0.121512, -2.01903e-18
0.0232147, 0.164207, -0.195407, -0.0184082, -0.00804642, 0.0655032, -0.233854, -0.0796906, -0.327022, 0.000927785, -0.167379, 0.248162, 0.153004, -0.0799167, -0.186287, -0.135874, -0.0189559, 0.262331, -0.173147, 0.0483015, 1.27983e-17
-0.16039, -0.161095, -0.0618304, -0.207286, 0.19044, -0.0747215, 0.0721389, -0.164146, 0.198487, -0.05777, -0.0553645, -0.0496327, 0.0169855, 0.132714, 0.0889051, -0.0243732, -0.139147, 0.0934286, -0.0571819, 0.0296373, 1.82234e-17
0.189152, -0.0472239, 0.147841, 0.1303, 0.0624826, -0.246373, -0.043491, 0.111039, 0.0384418, -0.240317, 0.0467048, -0.273093, -0.190202, 0.102448, -0.181624, -0.0481416, -0.175366, -0.29212, 0.0598017, -0.19353, -1.7226e-18
0.0332279, 0.255114, 0.0691942, -0.0693206, 0.0761941, -0.0852078, 0.023839, -0.286207, -0.0595713, 0.1599, 0.126001, -0.0979794, -0.227442, -0.136511, -0.157919, 0.23567, -0.0416771, -0.000185111, -0.191134, 0.247197, -6.33024e-19
0.082709, -0.12687, -0.238272, 0.147182, 0.26358, 0.0630275, -0.423547, -0.182364, -0.177817, 0.219499, 0.0943938, 0.0012349, 0.210906, -0.149028, -0.0264135, 0.0462638, -0.0857251, -0.062992, 0.185798, -0.0504053, 1.86546e-18
0.11202, -0.110929, -0.148757, -0.0736247, 0.334251, -0.327481, -0.0679344, -0.221619, 0.0165472, 0.370134, 0.144014, 0.261448, -0.180933, 0.0891006, 0.163695, -0.00545962, 0.123868, 0.395281, -0.0187982, -0.0957766, -5.12973e-18
0.182883, 0.0358325, 0.177757, -0.168118, 0.0811658, -0.423189, -0.0749561, 0.10339, -0.00465471, -0.124046, 0.166654, -0.171341, 0.200483, -0.278164, 0.327128, -0.0292371, 0.177282, -0.0216816, -0.0350987, -0.235319, 8.14989e-19
-0.0118073, 0.130091, 0.208117, 0.285299, 0.0868218, -0.2332, 0.071064, 0.342935, 0.146403, -0.354107, 0.1579, -0.120611, -0.168242, 0.090662, 0.0521849, -0.0091607, -0.10033, 0.125042, -0.269493, -0.319562, -4.67203e-17
0.369253, -0.150256, 0.0142991, -0.151949, 0.0499606, -0.126227, 0.377626, 0.133095, 0.0206996, 0.119093, -0.125051, 0.0625946, 0.201202, -0.110359, 0.077972, -0.0961568, -0.0326111, 0.0607469, 0.144711, 0.403953, 1.94105e-18
-0.309707, 0.0242088, 0.122329, -0.153988, 0.156591, 0.0372012, -0.1384, 0.193643, -0.00496284, 0.246174, 0.110095, -0.228714, -0.123742, -0.0995219, -0.0543683, 0.0879454, -0.116774, -0.290638, -0.0773721, -0.405931, -4.90757e-18
0.355623, 0.173804, -0.0104975, 0.156357, -0.242965, -0.122665, -0.328962, -0.157679, 0.151112, -0.114713, -0.0980963, -0.169576, -0.0526623, 0.07481, 0.00234517, -0.133637, -0.0209684, 0.0691227, -0.201701, -0.209275, -1.91092e-18
0.077445, 0.15494, -0.059204, 0.00800736, -0.0389293, 0.0288018, -0.202898, 0.15252, 0.0692817, -0.186431, 0.247476, -0.296031, -0.00628141, 0.104281, -0.19026, -0.173527, 0.063319, 0.51358, -0.220047, 0.107241, 2.25994e-18
-0.141684, -0.0817013, -0.0490661, 0.241415, 0.365591, -0.285715, -0.089405, -0.0449323, -0.0996094, -0.197325, 0.0996989, -0.43751, 0.0249238, 0.0763481, -0.499582, 0.0372856, 0.15009, -0.19118, -0.0823348, 0.0972079, 4.71944e-19
-0.128152, 0.027873, -0.438548, -0.125637, 0.15213, -0.137433, -0.0724546, 0.0706143, 0.247197, -0.135901, 0.160631, 0.127104, 0.0420638, -0.0148409, -0.0647428, 0.361995, -0.0802147, 0.000258652, -0.0503335, 0.268935, -8.57538e-18
0.18075, -0.172901, 0.194451, -0.14725, -0.20135, 0.0666869, 0.175372, 0.302768, 0.05269, -0.0125438, -0.0472687, -0.11524, 0.101322, -0.334901, 0.347522, 0.0667903, 0.121806, -0.133392, 0.215224, 0.158688, 2.20623e-18
0.0568877, 0.276633, 0.228592, -0.118712, 0.253531, 0.132378, -0.177843, -0.193772, 0.131577, 0.208018, -0.0563443, -0.0697173, -0.00223215, 0.124305, -0.191006, -0.401804, -0.250274, -0.059836, 0.286124, -0.426897, -8.87725e-19
-0.138723, -0.360849, -0.0968208, 0.0942888, 0.0232948, -0.147371, -0.0907486, -0.0261384, 0.181328, -0.137321, -0.288572, -0.0216608, -0.03377, 0.263162, -0.0361668, 0.0738061, -0.106806, 0.0756044, 0.099254, 0.0805899, 5.35373e-19
0.0697612, -0.110905, 0.183496, 0.14959, -0.0355537, -0.200404, 0.062991, -0.397336, -0.196407, -0.0966293, -0.254496, 0.1497, -0.343733, -0.312614, 0.125936, 0.110731, -0.180957, -0.0654669, 0.0881604, 0.0251028, -1.35704e-18
-0.146108, 0.109012, 0.189205, 0.107775, -0.387729, -0.0683316, -0.216598, 0.0721088, 0.30579, -0.293609, -0.142432, -0.0303814, -0.168209, -0.176906, -0.013524, 0.0263096, -0.236427, 0.372852, -0.173653, -0.00981653, 2.76936e-18
0.174659, 0.129477, 0.0154928, -0.394632, -0.0306478, 0.172538, 0.268456, -0.0646288, 0.0827228, -0.288152, 0.0155707, -0.0129942, -0.290982, -0.0522663, -0.00825905, -0.266821, 0.306329, -0.0636406, -0.120711, 0.19982, 3.49786e-18
-0.0757762, 0.0590693, 0.0424042, 0.180786, -0.10482, -0.00579264, -0.0759913, -0.119197, -0.152386, 0.0376631, -0.0956616, -0.0984439, 0.0221499, 0.0692798, 0.0215713, -0.0272427, 0.0828182, 0.214625, 0.294584, 0.170074, 1.44309e-18
0.0907005, 0.170583, 0.246136, 0.00310291, 0.0190887, 0.0905518, -0.00963808, 0.0597325, 0.039027, -0.109408, -0.115666, -0.034633, -0.0496288, 0.0148434, -0.11492, 0.268152, -0.145672, -0.194838, -0.148795, -0.180016, -1.58085e-17
-0.0587722, -0.0863643, -0.305837, 0.0771566, 0.121422, 0.241785, 0.105046, -0.047758, -0.11284, 0.00890422, -0.354086, 0.255288, -0.0589041, -0.192974, -0.0473656, 0.263762, -0.120737, 0.164628, -0.0605718, 0.198789, -2.38555e-18
0.185195, 0.119204, -0.0450811, 0.172599, -0.114369, 0.0415089, 0.205618, 0.096319, 0.0322045, 0.146903, 0.287782, -0.066093, -0.249157, 0.344757, -0.0385324, -0.105919, -0.416895, 0.196057, 0.0226144, -0.235594, 1.64376e-18
-0.0612259, 0.13642, 0.222334, 0.115335, -0.081832, 0.161115, -0.10044, -0.262967, 0.0978618, 0.0389791, 0.166023, -0.31069, -0.00524438, 0.0168765, 0.301107, -0.162283, 0.288575, 0.0878734, -0.354696, 0.212253, 3.69917e-18
0.117048, 0.286114, -0.104984, -0.464709, 0.0685639, 0.0785331, -0.25287, -0.0351798, 0.0952233, 0.197534, -0.349895, 0.172073, 0.105852, -0.229511, 0.323412, 0.351383, 0.330251, 0.279853, -0.317828, -0.0113251, 4.49177e-18
-0.111191, 0.256471, -0.0335089, -0.0501613, 0.439571, -0.139576, -0.10697, 0.0118275, -0.146043, -0.303251, 0.0671781, 0.0581193, 0.345589, 0.00512139, 0.15578, -0.205097, -0.120744, 0.0505897, -0.0121267, 0.0322139, 1.71252e-18
-0.172752, 0.165759, 0.0480941, 0.160437, -0.314901, -0.241243, -0.26633, 0.252959, 0.275171, 0.223377, -0.0285053, 0.0873548, -0.265827, 0.100068, -0.220405, -0.0180706, 0.110064, -0.214942, -0.0626526, 0.0396927, -2.48811e-18
0.154855, -0.179476, 0.164422, -0.238308, 0.31419, -0.108568, 0.442862, 0.121352, 0.0855637, 0.0264388, -0.113653, -0.0951731, 0.0498173, 0.0833431, 0.162534, 0.358606, 0.0486379, 0.109228, 0.225653, 0.0831253, 1.74833e-18
-0.143382, -0.316183, 0.0529698, -0.0859497, -0.0904991, 0.0466421, -0.17124, -0.180581, -0.0417566, 0.106912, -0.267326, 0.440383, -0.080577, -0.109078, -0.200502, -0.156954, -0.0954314, 0.0838743, 0.212134, 0.125257, 3.0862e-18
0.108106, 0.236195, -0.205493, 0.0754211, 0.196748, -0.0213899, -0.0511807, -0.349029, 0.107829, 0.361113, -0.178275, -0.110182, -0.171126, 0.33115, -0.0539325, 0.219983, 0.0788933, -0.253164, -0.200064, -0.0657004, -3.7191e-18
0.103182, -0.142488, -0.15956, -0.0607431, 0.0908046, 0.296645, 0.249415, 0.00545733, 0.301226, 0.0722041, -0.118028, 0.157176, 0.033743, 0.181291, 0.0960418, 0.0962822, -0.140049, 0.377402, -0.000183344, 0.234753, -1.05841e-17
0.281725, -0.377259, 0.0245144, 0.146254, 0.0159487, 0.125198, 0.238959, 0.142391, 0.27114, -0.173353, -0.159239, 0.353963, 0.036618, -0.20604, 0.061426, 0.157387, -0.154302, 0.485369, 0.0954856, 0.390644, -9.15485e-19
-0.215754, 0.0123755, -0.00870496, -0.27039, 0.0796123, 0.257825, 0.0227108, -0.273061, 0.0867376, 0.437524, 0.0823239, -0.432121, -0.262907, 0.191266, -0.285833, -0.0346032, 0.363345, -0.0221316, -0.116722, -0.201785, -1.43267e-18
-0.0899819, -0.181471, 0.0690436, -0.231367, 0.155974, 0.0624586, -0.178502, 0.235975, -0.0407853, 0.155896, -0.0429964, 0.315387, -0.0616808, -0.281904, 0.18136, 0.0819239, -0.361627, 0.0420349, 0.0818398, -0.212077, -1.75865e-18
0.0794821, 0.241217, -0.332164, 0.210244, 0.0922543, -0.16074, -0.0780844, -0.255205, 0.0170856, -0.0451615, -0.14371, -0.394902, 0.0923212, -0.193022, -0.302823, -0.103625, 0.0237438, 0.207624, -0.183311, 0.202772, 2.96777e-19
0.0224592, 0.319445, 0.0434125, 0.0148365, 0.177033, 0.0856489, -0.285089, 0.0844836, -0.142728, 0.00862796, 0.0674958, 0.0277248, 0.242443, -0.0912475, 0.14663, -0.0452994, -0.157064, 0.109314, -0.0654475, -0.22887, 6.74292e-18
-0.101139, -0.117761, 0.0262361, 0.0290974, -0.150313, 0.000661195, -0.171233, 0.170002, -0.0177599, 0.110626, -0.0663473, 0.008171, -0.131283, 0.0445145, -0.0397682, -0.103163, -0.219356, 0.34626, -0.0410077, -0.216916, -3.47509e-18
0.170363, -0.0252232, -0.0146253, -0.133792, -0.130324, -0.0702626, -0.0820494, 0.117549, 0.187525, -0.0449988, 0.307801, 0.113256, 0.26667, -0.0353101, -0.09425, -0.418399, -0.0927793, 0.127723, 0.0449778, 0.287591, 1.335e-17
0.0762041, 0.0505892, 0.190977, -0.0872911, 0.179338, -0.166634, 0.073283, 0.5689, 0.0471191, -0.151807, 0.342297, -0.161939, 0.0151533, -0.16761, 0.0748069, -0.0178228, -0.176691, -0.0622872, -0.394472, -0.149472, 4.66038e-19
-0.207721, -0.0787896, 0.0796488, 0.0230965, -0.0308923, 0.0449134, 0.00620206, 0.178881, -0.106131, -0.162524, 0.344412, -0.208384, 0.132061, -0.224698, 0.054419, 0.274705, -0.16215, -0.0390216, 0.0415014, 0.0756863, -1.30763e-17
0.0718217, -0.162263, 0.0432795, -0.0786447, -0.0350126, -0.328047, -0.310491, -0.0269826, 0.241108, 0.136049, 0.108712, 0.0796581, -0.165848, -0.0297392, 0.186278, 0.123213, -0.0443452, 0.280373, -0.0357726, 0.179485, -1.83132e-17
-0.310203, 0.192038, 0.212069, -0.00886452, 0.167212, -0.131569, 0.169623, 0.237387, -0.160433, 0.130524, 0.0129711, -0.306541, 0.0187286, -0.0837182, -0.0823366, -0.0922184, 0.198755, 0.109822, -0.240584, 0.354728, 1.01711e-17
0.196194, -0.342889, 0.066895, -0.0493929, 0.148349, 0.0534129, -0.0472256, -0.0681666, -0.108375, 0.317639, -0.0136065, 0.195049, 0.112952, -0.0774035, 0.0693773, -0.153439, 0.291529, -0.191755, -0.217312, -0.315581, 6.29886e-19
0.228393, -0.20317, -0.237555, 0.202202, -0.0489378, 0.0999155, -0.00348611, 0.134937, -0.0546053, 0.0269379, -0.112593, 0.0473256, 0.0808127, -0.265366, -0.0451948, -0.395954, -0.140142, -0.0502236, -0.0116773, -0.194067, 6.00939e-18
-0.110571, 0.408714, 0.103095, -0.0893169, -0.12501, 0.117336, -0.0510496, -0.048347, -0.144544, -0.335638, 0.173415, -0.0774787, 0.0257951, 0.0130636, 0.134711, -0.205538, 0.187143, 0.0997106, 0.260465, 0.16031, -8.84499e-19
0.0331208, -0.213909, -0.0884146, 0.137606, -0.171725, -0.261042, 0.0261395, -0.0708446, 0.128592, -0.140805, -0.0644801, 0.167492, -0.0307989, 0.153896, -0.0270493, 0.0123628, 0.307578, 0.248881, -0.200666, -0.0766553, 3.93872e-18
-0.390958, -0.120732, 0.043358, -0.106644, -0.0816611, 0.0784854, -0.0912825, -0.0218364, 0.401391, 0.130876, -0.0780336, -0.261798, 0.211506, -0.0150652, 0.17268, -0.0188671, 0.0242527, -0.189495, 0.0573029, -0.110612, -7.05528e-18
-0.231153, 0.0418931, 0.0103588, -0.0309477, 0.130138, 0.0203748, 0.0655737, 0.00445669, 0.082361, 0.297058, -0.0321006, -0.160341, 0.00666422, -0.0556975, -0.185175, 0.127293, -0.288704, -0.107532, 0.127501, -0.115381, -1.70904e-18
0.0763255, -0.0532776, -0.0852541, -0.0568287, -0.00433204, 0.18274, 0.0860488, 0.101668, 0.112154, -0.0824452, -0.116851, 0.05997, 0.171468, -0.178093, 0.121908, -0.0172941, 0.0570426, 0.00907501, 0.0466164, 0.0550981, -1.27316e-17
0.0180896, -0.0294088, -0.00100902, 0.272602, 0.252784, 0.131748, 0.118529, 0.227375, 0.194655, 0.319449, -0.112827, -0.35665, -0.113947, -0.0204832, -0.0284614, 0.149677, -0.0244633, 0.00882876, 0.0562859, 0.126764, -1.71469e-17
-0.246276, -0.0684092, -0.24907, 0.211098, 0.130114, -0.0242764, -0.366634, -0.0361819, 0.0844973, -0.0653781, 0.125162, -0.00243883, 0.261221, 0.039291, 0.365685, -0.0987688, 0.363878, -0.0197731, -0.341594, 0.083735, -3.58694e-19
-0.13663, -0.0752734, -0.232059, -0.0819872, 0.0147584, -0.141537, -0.381095, -0.373312, -0.127361, -0.0970356, -0.185621, -0.0814637, -0.0811071, 0.0415893, -0.316046, 0.171264, -0.298945, -0.0890507, -0.0844447, 0.174803, 9.04306e-20
-0.274813, 0.0835703, 0.288161, 0.0408144, -0.0091982, -0.232914, -0.157257, -0.220893, -0.0273969, -0.154661, -0.0768709, -0.0335022, 0.0693175, 0.0833232, 0.201702, -0.0136407, 0.13509, -0.105798, -0.353555, -0.0449511, -9.8142e-19
0.0711069, 0.00487201, 0.218215, -0.0659094, -0.0870142, -0.0635277, -0.224017, -0.0554307, 0.047309, -0.0145617, 0.0807704, -0.00654606, 0.123292, 0.000229746, -0.343089, 0.131966, 0.0306205, -0.0490605, 0.0531738, 0.150215, -1.8656e-18
-0.142626, -0.121827, 0.0279529, -0.13815, -0.0756913, -0.238301, -0.265753, 0.0421682, -0.298244, 0.100816, -0.0388856, 0.0638493, 0.196531, -0.0569464, -0.234333, -0.22327, -0.076548, 0.0543007, -0.474984, -0.12002, -1.09694e-18
0.170576, -0.0127591, -0.0196831, 0.137184, -0.198728, 0.197343, -0.111918, -0.136586, -0.0117409, -0.0513275, -0.105452, -0.0582973, 0.0638493, -0.0272483, 0.0309757, 0.377261, 0.309815, 0.0289349, -0.0983984, -0.190544, 2.27131e-18
0.0552988, 0.00151769, -0.227419, -0.291642, 0.129458, -0.209183, 0.252789, 0.178665, 0.285522, -0.0651379, -0.167661, -0.232815, 0.0408022, 0.034906, -0.114469, -0.425398, -0.288051, 0.00191554, -0.182496, -0.0753068, -8.25015e-18
-0.138125, -0.0881732, 0.491718, -0.114565, 0.109513, -0.24121, -0.00808727, 0.142805, 0.108041, 0.213763, -0.210196, -0.158844, 0.0934436, 0.171433, 0.109419, 0.221141, 0.0455645, -0.133837, 0.0915823, -0.0256902, -3.4308e-18
-0.031105, 0.0308362, 0.213518, 0.0783002, -0.218948, 0.0893866, -0.399867, -0.122835, 0.172874, 0.474545, -0.0297007, 0.210738, 0.0356562, -0.180838, -0.0456893, 0.129334, 0.263547, -0.370944, 0.269768, 0.191442, 6.95988e-18
-0.221393, 0.201557, -0.345585, 0.157176, 0.499825, 0.0739966, -0.133491, 0.313455, 0.310883, -0.0914184, 0.0244983, 0.165829, -0.130428, -0.18147, 0.160647, 0.114215, 0.0540868, -0.0647621, -0.0245252, -0.383587, 1.57556e-19
-0.191105, -0.0211003, -0.0568029, -0.203198, -0.0458591, -0.0206089, -0.0868701, 0.0272513, 0.345207, 0.0139382, -0.0983479, -0.145956, 0.370894, -0.339508, -0.153429, -0.00161453, -0.0327479, 0.303, -0.047611, 0.118503, -7.33686e-18
0.0372571, 0.268633, 0.168427, -0.0726296, 0.0506097, -0.313367, 0.123339, -0.350856, 0.132304, 0.139409, -0.200288, -0.0995514, -0.0491592, 0.0711744, 0.367203, -0.239449, -0.14559, -0.282449, 0.141293, -0.155479, -1.39525e-18
0.181025, -0.155167, -0.0702696, -0.145868, 0.228278, -0.456117, 0.0530004, 0.116534, -0.0563446, -0.0137176, 0.108286, -0.150055, 0.00542713, 0.150089, 0.192496, -0.0391529, -0.150692, 0.0347033, -0.357171, -0.254879, -3.90249e-18
0.0355099, -0.123923, -0.242997, 0.174654, 0.0188521, 0.140759, -0.228629, -0.321916, 0.140211, -0.00549771, 0.124228, 0.0826003, 0.0927359, 0.297535, 0.00410093, -0.0694963, 0.00430711, 0.070676, 0.0211234, -0.0474975, 3.68643e-18
0.0492809, 0.125485, -0.175605, -0.305868, -0.0710187, -0.296108, 0.095198, 0.163003, -0.165892, 0.0209891, 0.224651, 0.0631444, -0.295332, -0.250332, 0.042953, 0.24403, 0.170228, -0.112153, 0.00251498, -0.0606417, 5.0092e-18
-0.161165, -0.0259675, -0.242805, -0.0450834, 0.273282, 0.0416785, 0.0164412, 0.341495, -0.192554, -0.178616, 0.00832717, 0.0548661, -0.158755, 0.293147, 0.260534, 0.0699167, -0.223102, 0.152159, 0.18409, 0.263998, 2.14609e-18
-0.0966508, -0.107414, -0.128542, 0.144781, -0.247724, 0.178293, -0.0505888, 0.184643, -0.122737, 0.321856, 0.299178, -0.206898, 0.108886, 0.266193, 0.185383, -0.0379892, -0.281286, 0.0840205, 0.0693408, -0.099854, -2.27609e-18
0.0150909, -0.14117, -0.364254, -0.0801097, 0.291083, 0.106976, -0.308972, 0.00358388, 0.0357953, -0.113622, 0.286746, 0.0858961, 0.0665184, 0.225031, -0.122122, 0.0260339, -0.171851, 0.308699, -0.0772924, 0.283989, 1.38846e-18
0.179382, -0.320195, 0.159415, -0.082817, -0.25848, -0.132811, -0.323717, 0.309414, -0.242075, -0.155016, -0.147389, 0.101093, -0.0765878, 0.167478, -0.224288, 0.167474, -0.320283, -0.131308, -0.175889, 0.212066, 2.73238e-18
0.350363, -0.0366091, 0.180013, 0.0868562, -0.0461048, 0.101665, 0.0486728, 0.103135, -0.126735, 0.116848, 0.265789, -0.168618, 0.0126711, -0.0814202, -0.0829188, 0.0382332, 0.0784118, 0.0114835, 0.183005, 0.0241008, 3.35655e-18
0.117399, -0.241377, -0.0477383, -0.289571, 0.164562, 0.124139, 0.197763, -0.104199, 0.100551, 0.392981, 0.250241, 0.035125, -0.176649, -0.186657, -0.25189, -0.0822646, -0.210089, -0.104191, -0.275564, -0.131945, -8.33208e-19
-0.195816, -0.0256337, 0.121349, 0.442937, 0.109652, -0.032459, -0.0988179, -0.15727, 0.237765, -0.0558405, -0.0955995, 0.132667, 0.0594141, -0.0485703, 0.11478, 0.144516, 0.0462425, 0.226116, -0.270982, 0.186695, -7.5348e-18
0.00918199, -0.184926, -0.246034, 0.158036, -0.427951, 0.0231931, 0.109227, -0.176621, -0.0132345, 0.10517, -0.0131894, -0.22406, 0.0159624, -0.0911221, -0.373107, 0.0344148, 0.0702538, -0.0608609, -0.162808, -0.0372933, -1.31424e-18
-0.019883, -0.206809, 0.160228, -0.0407655, -0.0144672, 0.0891272, -0.264156, -0.215511, -0.260599, -0.0386201, 0.127208, 0.226977, 0.000898141, 0.0801115, 0.196404, 0.11392, -0.367399, 0.344187, -0.129701, 0.143686, -2.11013e-18
-0.0361672, -0.233146, 0.12734, -0.0302715, 0.3351, -0.135394, 0.0831088, 0.0788095, -0.314092, 0.183613, 0.0326313, -0.130889, -0.229681, -0.371646, -0.0593864, -0.0904493, 0.202723, -0.015819, -0.315496, 0.0293729, -2.14785e-18
0.167467, -0.0629031, 0.0741813, -0.0591328, 0.235392, 0.134657, -0.104905, 0.0430022, -0.325807, 0.209824, 0.25344, 0.15908, -0.322892, 0.0121151, -0.171282, -0.127569, -0.0118229, -0.318898, 0.127234, 0.266724, -5.27022e-18
0.106941, -0.362438, 0.198809, -0.0834477, 0.36193, 0.246157, -0.0418787, -0.168031, -0.044706, -0.251075, 0.0757389, -0.0365562, -0.0758468, -0.203056, 0.0968081, 0.0404582, -0.175446, 0.234379, -0.0775577, -0.0270539, 2.4208e-18
0.0247662, -0.0417129, 0.0593653, 0.00195287, 0.220668, 0.212639, -0.347213, -0.172755, -0.20027, 0.219712, 0.0115687, -0.11732, -0.058345, 0.215427, 0.113727, -0.177679, 0.0601561, -0.0587342, 0.0550434, 0.0796982, 9.74595e-18
0.251657, -0.0228597, -0.118314, -0.00516184, 0.218728, 0.310484, -0.245436, 0.0752002, 0.00613396, 0.621109, -0.250306, 0.0345278, -0.0350038, 0.160762, -0.115327, -0.0394913, -0.13393, -0.170605, 0.117891, -0.0187393, -4.91424e-17
-0.319557, 0.0198907, -0.162175, 0.350697, 0.0704315, 0.191923, -0.110582, -0.139708, -0.0566284, -0.0471207, 0.119469, 0.264325, -0.173928, -0.103913, 0.180751, 0.0348435, -0.24217, 0.266455, 0.0684375, 0.0940343, 8.52724e-19
0.0354248, 0.0808254, 0.241217, 0.0411843, -0.003851, -0.101487, 0.00287532, -0.0512915, -0.357883, -0.425416, -0.056665, -0.0382501, -0.239526, -0.0544544, -0.090369, -0.109701, 0.214864, 0.0345505, 0.0873904, -0.0760589, -2.47185e-18
-0.202001, 0.0108398, -0.204614, 0.164703, 0.237689, -0.235762, 0.208432, -0.190245, -0.0124889, -0.0384321, 0.0174711, -0.0604764, 0.0352166, -0.161525, 0.102562, 0.256233, 0.466859, 0.10486, 0.0853344, 0.123741, 1.09714e-18
0.0118332, 0.156371, 0.236349, 0.285199, -0.013405, -0.0939826, -0.0441995, 0.418475, -0.191032, -0.0183817, 0.123383, 0.000924144, -0.165141, -0.231182, 0.122495, -0.0549006, -0.0378037, 0.122879, -0.143866, -0.168806, -1.31187e-17
-0.212634, 0.345871, 0.055128, -0.303161, -0.218768, 0.209793, 0.055098, -0.298203, -0.0802236, -0.0307929, 0.224352, 0.147753, -0.0647001, -0.157529, 0.047751, 0.128793, -0.0257087, -0.22262, 0.283986, 0.267955, -3.86397e-19
-0.16301, 0.0178545, 0.0333783, 0.238062, -0.251841, 0.170708, 0.195927, -0.0723364, 0.233185, -0.155417, -0.202644, 0.0352146, -0.0591412, -0.0665763, 0.172838, 0.0285917, -0.24596, -0.32156, -0.0284013, 0.0850556, -1.34354e-17
0.0933727, -0.0695777, -0.0524938, -0.017486, 0.260916, 0.485649, 0.0210766, 0.0294406, -0.350558, -0.269584, 0.0881371, -0.00796369, -0.0683228, 0.0637344, 0.0498015, 0.0999692, 0.274794, 0.230384, 0.0584109, 0.124455, 2.54146e-18
0.207084, -0.17322, 0.268427, -0.110751, -0.266568, 0.0369303, -0.107043, -0.0655153, -0.616811, -0.12506, -0.183406, -0.0889384, -0.0321601, -0.0638264, -0.158932, -0.115357, -0.0345238, 0.08445, 0.208819, -0.0138448, 9.47846e-19
-0.404885, -0.24926, 0.0147929, -0.269488, 0.141057, -0.0130824, 0.0220125, 0.0503835, 0.202584, 0.228122, -0.0267185, 0.118572, 0.124866, -0.321457, -0.0304797, 0.0721299, 0.257502, -0.329469, -0.0548246, 0.192033, -9.69682e-18
0.0351196, 0.0995746, 0.115718, -0.0125393, -0.0399151, 0.28763, 0.078283, -0.10702, 0.0277293, 0.220156, -0.175185, -0.227263, 0.19521, -0.0230946, 0.138141, -0.264913, -0.0208835, 0.117046, -0.138119, -0.0872695, -1.04129e-17
0.118611, -0.0558316, 0.00163691, 0.0662187, -0.11443, 0.288703, 0.194531, -0.221914, 0.168623, -0.368704, 0.00978437, -0.0604203, -0.23097, 0.251662, -0.116959, 0.419799, -0.0588051, -0.168426, 0.154211, 0.41056, -3.4518e-18
0.0355801, -0.258292, -0.0206967, -0.217264, -0.289999, 0.08694, -0.200371, 0.0480403, 0.223006, -0.403703, -0.0726361, 0.415475, -0.0622774, -0.0438995, 0.140367, 0.0688711, 0.0655843, 0.147337, -0.127624, 0.248456, -5.51903e-19
-0.174086, -0.110866, -0.505011, 0.136282, -0.0121896, 0.463676, -0.00311709, -0.00740167, 0.315243, -0.0533934, 0.284099, -0.0628121, -0.0685039, 0.137488, 0.0941144, 0.0611544, 0.243023, -0.177482, -0.038077, 0.144303, 4.66235e-18
-0.134747, 0.425234, -0.0807843, 0.286744, -0.0557787, 0.0355452, 0.242657, -0.0576836, 0.197872, 0.224127, 0.262524, -0.241455, -0.0619308, 0.0378221, -0.0255614, -0.113892, 0.0941802, -0.242422, 0.049547, -0.281715, -2.70423e-18
0.0748441, -0.263733, -0.419228, -0.0328244, 0.0334017, -0.0703622, 0.190297, 0.0670159, -0.0612465, 0.189592, -0.0950779, 0.0566992, 0.0232713, -0.0277165, 0.116042, -0.0141275, -0.0198123, -0.0761417, -0.1936, 0.443055, -9.8559e-18
0.345909, 0.286882, -0.312065, -0.136262, 0.000539283, -0.222365, -0.0804067, -0.195012, 0.153517, -0.086998, 0.152304, -0.248232, -0.0263786, 0.0164344, -0.0768395, -0.0356592, 0.330798, 0.404606, 0.00126435, 0.258608, 1.0184e-18
-0.091977, 0.0466387, 0.264442, 0.250435, 0.213841, -0.0389103, 0.193359, 0.136285, 0.230403, -0.0271299, -0.0490597, 0.0365774, -0.0320345, -0.105481, 0.287669, 0.0581758, -0.00915508, 0.12363, -0.124171, 0.047852, 5.55597e-18
-0.0800933, -0.0913403, -0.0057481, 0.196775, 0.0467828, 0.165922, 0.173868, 0.293976, 0.0364392, 0.084004, -0.0833341, -0.159321, 0.130143, 0.0858758, -0.243533, -0.397895, -0.0444099, -0.0438117, -0.14433, -0.00913877, -1.1779e-18
-0.0397218, 0.397343, 0.0173506, -0.128264, -0.112004, 0.130891, -0.225323, 0.0556368, 0.136998, 0.0823195, 0.231744, -0.132882, 0.0810796, 0.129999, 0.165335, 0.191149, 0.403289, 0.0647819, 0.017141, 0.291474, -7.9219e-18
-0.0497172, 0.186233, 0.125965, 0.0349986, -0.0715933, -0.189667, 0.0406242, 0.205135, -0.121357, 0.213727, 0.110857, -0.151359, -0.118895, 0.313787, 0.109759, -0.0555318, -0.192943, -0.112811, 0.108406, -0.168665, -1.42506e-17
0.100158, -0.040994, 0.00766296, 0.046933, 0.299451, -0.083945, 0.0391958, -0.0149387, 0.0560641, -0.141577, -0.370571, -0.0789544, -0.125834, 0.247303, -0.173369, -0.0350159, 0.139776, -0.290192, 0.201751, 0.310699, -2.41538e-17
-0.0170173, 0.139379, 0.0409644, 0.0628505, -0.434207, 0.205852, -0.000584857, 0.0798271, -0.116661, -0.0562156, -0.0591309, 0.345681, 0.123284, -0.159176, -0.196982, 0.0279769, 0.148858, 0.26387, 0.058178, 0.129341, -4.8924e-18
0.0883902, -0.169356, 0.238461, 0.137278, -0.150888, 0.130388, -0.0479605, 0.217089, -0.00921976, 0.0843207, 0.00644291, -0.105916, 0.175814, 0.32357, 0.113569, 0.0414584, 0.149779, -0.142556, 0.135767, 0.113798, -4.53231e-18
0.214826, -0.0819064, 0.0120474, -0.0362512, -0.11418, -0.0240911, -0.173407, -0.185945, 0.151317, -0.119252, 0.0863493, 0.136108, 0.127082, -0.0341001, 0.0245405, -0.0362482, -0.122802, -0.145793, -0.162839, 0.0309246, -8.70402e-18
0.267744, 0.112733, 0.209622, 0.105533, 0.175957, 0.204023, 0.332845, 0.0344577, -0.132035, -0.0461655, 0.0386064, -0.0855204, -0.0701912, 0.107346, -0.372455, -0.0712871, 0.0266563, -0.196747, -0.0374961, 0.0195228, -2.75784e-18
0.150085, 0.01171, 0.0262363, -0.0704842, 0.0223397, 0.149747, -0.036782, 0.00511718, -0.00897983, -0.439041, -0.0563239, -0.092355, 0.117523, -0.078934, -0.0784179, -0.0468708, 0.043039, -0.258572, -0.0599201, 0.27983, 3.12084e-18
0.100703, -0.0388767, -0.0573427, 0.0077174, -0.32394, -0.260129, -0.141011, -0.13359, -0.241975, -0.143061, -0.349921, 0.380376, 0.111985, 0.119481, -0.385385, 0.103384, 0.215169, 0.0695881, 0.189578, -0.116815, 4.30758e-18
-0.297183, 0.38368, -0.342714, -0.0392561, 0.192561, -0.0318117, -0.132668, -0.00354304, 0.0180343, -0.0771347, -0.19818, 0.236063, -0.127556, -0.194945, -0.106103, -0.114592, -0.144929, 0.0255632, -0.0389601, -0.240268, -9.41196e-18
-0.12776, 0.00829219, 0.0222837, 0.0949184, 0.0858789, 0.231525, 0.0754804, 0.0370784, 0.176184, -0.170279, -0.0174074, -0.29713, 0.0443905, 0.00670025, 0.0595137, 0.167876, -0.160075, -0.00336376, 0.101646, 0.115611, -5.23073e-18
0.250916, -0.21417, 0.291483, 0.243279, 0.178293, -0.175852, 0.364317, 0.0318626, 0.182192, -0.0126871, -0.0850828, -0.038483, 0.0564455, -0.0586447, -0.21738, -0.19109, 0.191287, 0.12733, 0.214326, 0.0427584, -1.10434e-18
0.219498, -0.125307, 0.0335846, 0.113689, 0.134619, 0.169587, 0.100044, 0.216219, -0.374993, -0.250332, -0.0584844, -0.308155, 0.118864, 0.217129, 0.10518, 0.111553, -0.13938, -0.0484861, 0.192454, -0.242022, -4.63238e-19
-0.0498163, -0.0693657, 0.233865, 0.0340603, 0.229238, 0.0148051, -0.0200006, 0.152238, 0.0291216, -0.0746551, 0.146447, 0.186652, 0.168063, -0.0333993, -0.152484, -0.0680593, 0.130333, -0.193694, -0.139226, 0.152118, -3.18416e-18
0.164942, 0.0156483, 0.0077968, 0.149225, 0.288666, -0.00127068, -0.0546347, -0.0780579, -0.316672, -0.474417, -0.0141548, -0.0035331, -0.21416, -0.0598989, 0.262246, 0.187337, -0.0040867, 0.0736194, 0.0992738, -0.133593, 7.54268e-17
-0.309184, -0.337547, -0.0707004, -0.125202, -0.00181598, 0.316045, 0.204524, -0.192225, 0.157649, 0.166356, -0.0545996, -0.154384, 0.0475943, 0.147026, -0.0221772, 0.0283181, -0.0384736, 0.149465, -0.149678, -0.139437, -3.00474e-18
-0.0647047, -0.278107, 0.349917, -0.265808, 0.0496611, -0.0820801, -0.120029, -0.18191, -0.113694, -0.235252, -0.0120012, -0.137951, 0.116378, -0.250444, 0.344364, 0.0324424, -0.215445, 0.104875, -0.165533, -0.0222354, -3.4825e-18
-0.203654, 0.0584289, -0.0464145, -0.130048, 0.0322385, 0.131257, -0.231841, 0.202692, 0.0408567, 0.130254, -0.0310241, -0.168122, 0.0870612, 0.00950333, -0.16304, 0.00937447, -0.133898, -0.0387566, -0.0233044, -0.00683537, 1.96906e-18
-0.217693, -0.213231, 0.0348627, 0.00073173, -0.0668734, 0.0745395, 0.223834, -0.0065869, 0.0633688, -0.332301, 0.445486, -0.363294, 0.183874, -0.0967845, -0.144301, -0.203196, 0.0945131, 0.105009, 0.301234, -0.398944, 1.95628e-17
-0.0116437, -0.136648, -0.172093, -0.0641847, -0.00715164, -0.0146529, 0.25578, 0.102461, -0.0588757, -0.142533, 0.190123, -0.26398, -0.137618, 0.110709, -0.0803547, -0.248689, -0.199543, 0.224075, 0.2385, -0.0906864, 3.01437e-19
-0.00277725, 0.00479836, -0.118073, -0.326636, 0.317147, -0.0968255, 0.1893, -0.111535, -0.0716256, -0.0491538, -0.209102, 0.0529847, -0.0983396, -0.112508, -0.0202845, 0.0607208, -0.014201, -0.327286, -0.0415962, -0.150833, -1.56255e-17
0.201973, 0.0429848, -0.153173, 0.0226665, -0.184043, -0.014877, -0.255391, -0.266355, 0.425201, 0.00712363, 0.0452097, -0.111633, 0.188065, 0.201127, 0.109129, -0.0788405, 0.224956, 0.0564645, 0.258887, 0.0419286, 2.65069e-18
-0.109134, -0.073937, -0.00194725, 0.186271, 0.355573, -0.075459, -0.0915945, 0.407841, -0.00671765, 0.112025, -0.385256, -0.248617, -0.0769015, 0.022124, -0.0802576, -0.0164368, -0.0132502, 0.0210013, -0.265011, -0.168944, 5.56918e-18
-0.284153, -0.144878, 0.354106, 0.235161, 0.140962, 0.264582, -0.16944, 0.138931, 0.0132143, 0.26268, -0.100717, -0.210775, 0.0288112, -0.251051, -0.255466, -0.00342738, -0.380128, 0.0719326, 0.254111, 0.227642, 4.24951e-18
-0.385495, 0.257884, 0.0192244, 0.186691, -0.0412547, 0.310139, -0.0417162, -0.0207192, -0.219435, -0.0575109, -0.202704, 0.123553, -0.132522, 0.245199, -0.183027, 0.144595, 0.069855, 0.100735, 0.0642548, 0.0774968, -1.69981e-18
-0.0128744, 0.108081, 0.00769536, -0.0499312, -0.091974, 0.0751198, -0.247057, 0.110593, -0.247893, 0.170511, 0.118659, -0.160879, 0.0324222, 0.279244, -0.0271952, -0.0319903, 0.0291408, 0.359454, -0.0377048, -0.0772089, -1.35131e-17
-0.422964, -0.300005, 0.364753, 0.30543, 0.173204, -0.242102, -0.32485, 0.232779, -0.080786, -0.0196413, -0.0324599, 0.256623, -0.0631096, 0.0699507, 0.143757, -0.229261, -0.00116531, 0.152987, -0.0351775, 0.0743761, -9.39814e-19
-0.125717, -0.154487, 0.0931964, 0.0722466, -0.00647296, 0.0758953, 0.227608, 0.224896, -0.108612, 0.101774, 0.00367721, -0.0709472, -0.16432, 0.130214, -0.0210378, -0.0702545, -0.111671, 0.0802627, -0.14189, -0.129574, 4.68174e-19
0.311222, -0.178114, -0.320447, -0.00915276, -0.0222228, 0.14643, 0.18926, 0.000313903, -0.129843, -0.0590712, -0.158116, -0.14751, 0.179142, 0.216697, -0.0150923, 0.302091, 0.12765, 0.108042, -0.188421, 0.0480799, 1.65915e-18
-0.0106857, 0.105498, -0.146688, -0.537902, 0.453182, 0.0840512, -0.0937716, 0.1726, 0.318884, 0.0791469, 0.0157422, -0.145856, -0.0161923, 0.181713, -0.445161, -0.235904, 0.140399, 0.0372593, -0.0876531, -0.163329, 8.13898e-18
-0.259053, 0.131458, 0.0818981, -0.133291, 0.0771798, -0.0744589, 0.052641, -0.169129, 0.19003, -0.221083, 0.06386, 0.239044, -0.021376, -0.130133, -0.244595, -0.0518842, -0.102885, -0.190015, 0.0381878, -0.173024, -3.7418e-18
0.260438, 0.161068, 0.410588, 0.0647189, -0.173638, -0.108236, 0.283042, 0.174694, -0.0569176, -0.0463824, 0.113186, -0.0953745, 0.171556, 0.0281512, 0.0429017, 0.00870495, -0.0371218, 0.0837148, 0.0295461, -0.0234206, -1.42677e-17
-0.291996, -0.313441, 0.221182, 0.0795724, -0.19341, -0.100349, -0.0506207, -0.183791, 0.0964843, 0.243574, 0.281972, -0.11651, -0.259515, 0.101744, 0.243192, 0.0411556, 0.059813, 0.114473, 0.0348323, 0.0191206, -6.72736e-18
0.281562, 0.19558, 0.190983, 0.0853693, 0.000996602, -0.0275107, 0.230427, 0.211749, 0.168856, 0.185837, 0.370769, -0.00538831, -0.118384, 0.175089, 0.152198, 0.285689, -0.361167, 0.217024, -0.0280072, 0.000995075, -9.68193e-18
0.0839266, -0.225173, 0.117702, -0.150839, -0.0139251, 0.131251, 0.109154, 0.109507, -0.0873877, -0.291712, -0.131081, -0.0512186, 0.0621704, -0.00765907, -0.218362, -0.0358801, -0.340961, 0.194749, -0.133051, 0.0771771, -1.49841e-17
0.144379, -0.12491, -0.0885162, 0.115298, 0.0547697, -0.032666, -0.14563, -0.072799, -0.364331, 0.296411, -0.0611813, -0.0106955, -0.321977, -0.18486, 0.0217165, -0.280912, 9.30657e-06, 0.0808933, -0.120845, 0.0515596, -4.65144e-18
-0.0276276, 0.0672208, -0.243, 0.0841001, -0.125793, -0.0972201, 0.0279246, -0.255185, 0.108451, -0.0027921, 0.193437, -0.047105, -0.0954203, 0.0107242, -0.0330273, -0.169998, 0.120813, -0.0510653, 0.116001, 0.0532866, -7.44691e-18
0.255263, 0.000299903, 0.0217044, -0.199797, 0.0933902, 0.0511445, -0.0615411, -0.152377, 0.0767425, -0.166413, 0.471441, 0.118166, -0.0298977, -0.0226723, -0.238215, 0.175529, 0.0892455, -0.368076, -0.187842, -0.159786, 9.36998e-19
0.368048, -0.564031, -0.181161, -0.109704, 0.195124, -0.0152371, 0.182903, -0.159145, -0.3988, 0.14613, 0.0991397, -0.0209432, 0.0903537, -0.0121948, -0.133225, -0.0163428, -0.0851101, 0.0356097, 0.000893102, -0.0473616, 1.38836e-18
0.0283356, 0.403157, -0.0818476, 0.449119, 0.211507, 0.0253255, -0.207236, -0.229246, -0.279768, 0.194547, 0.0177027, -0.0655724, -0.258536, 0.186675, -0.0642671, -0.220307, 0.216929, -0.191939, -0.0853074, -0.01003, -3.12249e-18
-0.0579602, 0.0305993, -0.218604, -0.0277983, -0.00841897, -0.0918448, 0.029541, -0.0722359, -0.107803, -0.11994, 0.32518, 0.0241161, 0.0826301, -0.0832077, -0.0883517, 0.237364, -0.170093, 0.204386, 0.271579, 0.110416, -7.58677e-18
-0.0664543, -0.101738, 0.130932, -0.110973, 0.298275, 0.0899183, 0.0417705, 0.107278, -0.0664648, 0.214683, 0.0245182, -0.240851, -0.221503, -0.26589, -0.0325602, -0.0548478, -0.081609, -0.252361, 0.149134, 0.0902176, 4.39376e-19
0.145438, 0.0308479, -0.0181175, -0.238116, 0.0223264, 0.182575, 0.287412, -0.150888, 0.00400429, 0.0237474, -0.136368, 0.120466, -0.0252101, 0.32308, -0.313713, 0.177297, 0.0738294, 0.228281, 0.10236, 0.321311, 2.77843e-18
-0.132147, 0.0557813, -0.0575572, -0.351111, -0.138996, -0.386694, -0.155199, -0.0100179, 0.00327152, -0.0748222, -0.0843693, -0.124253, -0.216404, -0.0363378, 0.23012, -0.226473, -0.180886, 0.338575, 0.272668, 0.0331401, -2.32551e-18
0.0303111, 0.00736425, 0.175735, 0.0753916, 0.246945, -0.271219, -0.110775, 0.286997, 0.354281, 0.0960597, -0.0411894, -0.040991, 0.03356, 0.0201912, -0.251186, 0.0154857, -0.0549051, 0.0354226, 0.216996, -0.151205, 1.06799e-17
-0.131284, -0.0776359, 0.011976, 0.170864, -0.122891, 0.360463, 0.125376, -0.0538244, -0.170823, 0.00141956, 0.134197, 0.0118216, -0.0224692, -0.282662, -0.0720346, -0.0247235, 0.164813, 0.0194748, -0.146376, -0.147702, -1.47498e-17
-0.226656, 0.0848682, 0.0948509, -0.309109, 0.20935, 0.135372, 0.0560776, -0.00772032, 0.131126, -0.280565, 0.44678, -0.136927, 0.220285, -0.0261472, 0.16807, 0.0823173, -0.122986, 0.0765135, 0.230241, 0.114974, -1.16694e-18
0.205497, -0.162822, 0.0595194, 0.128541, 0.0685543, 0.30419, 0.0036335, 0.105912, 0.425511, -0.0151686, 0.0202608, -0.109502, 0.311307, 0.259682, -0.0816765, 0.0859426, -0.0817062, -0.276278, 0.114508, -0.0251003, 7.45161e-18
0.225146, -0.225361, -0.0288625, 0.1785, -0.035517, -0.158668, -0.274266, 0.0696797, 0.200578, -0.131182, 0.226994, -0.170402, -0.152533, -0.0985694, -0.22988, 0.101131, 0.110681, 0.114184, 0.198188, 0.0777077, 4.5248e-18
-0.024506, 0.293421, -0.104681, 0.217974, -0.100649, -0.0291006, -0.0600558, -0.0581468, -0.207954, 0.212369, 0.167741, -0.0470165, 0.0720745, -0.0240247, -0.110378, -0.0844392, 0.124531, -0.419495, -0.114843, -0.177704, -1.01967e-18
-0.428159, 0.19341, -0.169332, -0.0607964, -0.113999, 0.051284, -0.159236, 0.14933, 0.0459606, 0.175927, -0.0736685, -0.166581, -0.0307304, 0.0437116, 0.124875, -0.0172503, -0.277812, 0.0163889, -0.381583, -0.410613, -1.7953e-18
0.109925, 0.117224, 0.177645, 0.192809, -0.0686498, 0.208308, 0.15986, 0.148138, 0.26337, -0.189975, -0.255372, 0.219535, 0.199539, -0.273503, 0.0182047, -0.0816502, 0.175828, 0.368405, -0.00995495, -0.030622, 3.54511e-19
-0.602067, -0.0891897, -0.0597751, 0.230535, 0.0786944, 0.0952024, 0.147153, -0.193838, -0.0484466, 0.168324, -0.17557, -0.277234, -0.011626, 0.331088, -0.0671442, 0.174175, 0.0888669, -0.417296, 0.142345, -0.142066, 7.50265e-18
-0.0728699, -0.00738827, -0.0527836, -0.0542157, -0.130134, 0.470098, -0.142202, -0.0906288, 0.213729, 0.172977, 0.283107, 0.0171535, 0.156191, -0.0939592, 0.036054, -0.115482, -0.204815, 0.324405, -0.17028, 0.0495817, -4.36075e-18
0.152483, -0.123051, 0.122724, -0.0639666, -0.23883, 0.218681, -0.393111, 0.0621144, 0.298714, -0.224617, 0.168024, -0.0637178, -0.126744, -0.0756822, 0.442184, -0.0167143, 0.389377, 0.0910796, -0.128545, -0.158937, 3.69776e-19
0.0797111, -0.0519496, -0.530617, -0.19801, -0.116619, 0.0295856, 0.142188, -0.283214, 0.146852, -0.0140869, -0.071868, 0.133535, 0.276444, -0.175782, -0.0193426, 0.209313, 0.0666851, 0.114218, 0.0301179, -0.29552, 2.74628e-18
0.0499215, -0.100401, 0.0438373, -0.330738, -0.452907, -0.0162624, 0.106529, 0.207591, 0.0418911, 0.00232692, -0.407263, -0.0945805, -0.0738476, -0.0447441, -0.261692, -0.0164306, 0.00587993, -0.329969, -0.241524, 0.0439332, -1.46811e-18
-0.0040099, 0.0670056, 0.152292, 0.104022, 0.0692375, -0.0440468, -0.0680069, 0.0843445, 0.102641, 0.0113117, -0.144845, 0.0935877, -0.122812, 0.253301, -0.0852944, 0.294662, 0.303922, -0.0596381, 0.463349, 0.047885, -2.20288e-18
-0.104965, 0.170638, -0.241481, -0.0353744, 0.095654, -0.21863, 0.186118, -0.160494, 0.044782, -0.0406771, 0.0438077, 0.11039, -0.0194585, -0.219802, -0.0158626, -0.154979, -0.0316899, 0.227557, 0.166257, 0.0794067, 2.57118e-18
-0.156866, -0.0575978, 0.0645814, 0.10334, 0.0860255, 0.00888756, 0.0348369, 0.121337, 0.00171543, 0.287966, -0.0769841, 0.0644426, -0.281334, 0.104881, 0.156673, -0.0668034, -0.131712, -0.0395984, -0.312388, -0.0386875, 9.75603e-19
-0.0984327, 0.139286, 0.104502, -0.0421499, -0.0738913, 0.169284, 0.242408, 0.0355119, -0.00833924, -0.0977233, -0.0361473, -0.0891874, -0.217468, 0.00771301, -0.160218, -0.114892, 0.137033, 0.20009, -0.0834892, -0.0354131, -5.45712e-18
-0.0708269, 0.249717, 0.383067, 0.0717074, 0.0878167, 0.145243, 0.145195, 0.393825, 0.0641265, -0.0169186, -0.121984, -0.081701, -0.17327, 0.2579, 0.104479, 0.0729196, 0.100513, -0.104774, -0.0610682, -0.0888774, 8.14298e-18
-0.172442, 0.3107, -0.129782, -0.235423, -0.0802555, -0.297247, -0.0972513, 0.111358, -0.535076, 0.0637959, 0.104136, 0.0503005, -0.0488763, -0.0551398, 0.0989645, -0.0130159, 0.0581189, -0.128039, -0.172121, -0.0761463, 2.55547e-18
0.0115809, -0.0679657, 0.232086, 0.362912, -0.0297705, -0.0234892, 0.0451123, -0.289686, -0.211524, 0.0948323, 0.173551, -0.117137, -0.0408426, 0.0454108, -0.120474, 0.105968, 0.0587888, -0.25563, -0.230147, 0.0231739, -3.95632e-18
-0.0231168, 0.228694, -0.0169934, -0.362237, 0.128802, -0.230662, -0.101802, 0.145251, 0.222439, -0.247693, 0.00597772, -0.0939094, 0.170874, -0.0809878, -0.03607, -0.298108, -0.118844, -0.0633977, -0.16857, 0.0145031, -1.11597e-18
-0.304703, 0.0575651, -0.0418411, 0.232384, -0.121099, 0.155022, 0.159786, 0.253055, 0.177683, -0.0233753, -0.00336506, 0.0387386, 0.473998, 0.0672077, 0.314872, -0.0706446, -0.336946, 0.174943, 0.197152, -0.0774092, 1.04157e-18
0.150601, -0.0150359, -0.194389, -0.0607471, 0.148258, 0.105163, 0.28371, -0.210504, 0.0887932, 0.0105763, 0.432805, -0.367884, -0.0190081, -0.30428, -0.120923, 0.131386, -0.0697154, -0.0879993, -0.235174, -0.16381, 1.97984e-18
0.101845, -0.21168, 0.0878194, 0.0984068, -0.0878328, -0.142975, -0.196364, -0.179434, -0.13658, -0.239052, -0.0161935, 0.0339297, -0.0819575, -0.0912312, -0.177591, 0.0698828, -0.291471, 0.187582, 0.0337345, 0.0876388, 7.31071e-19
0.0438268, 0.154494, -0.293113, 0.0651925, -0.315919, -0.2705, 0.277253, 0.0226066, -0.149464, 0.258365, 0.0327019, 0.10362, 0.00520449, -0.119413, 0.245104, 0.0503721, -0.0237974, -0.182944, -0.0263162, 0.0449722, -1.21601e-18
-0.162684, 0.152283, -0.0936592, 0.0612292, -0.106286, 0.0319172, 0.321089, 0.141926, -0.0426149, -0.0763364, 0.291623, -0.0351275, -0.0281771, -0.273433, 0.142903, -0.0212974, 0.456992, 0.264282, 0.131869, -0.119874, -4.73486e-19
-0.286421, -0.0475886, -0.154274, 0.0418376, -0.172391, 0.148183, -0.0797921, 0.0774744, -0.0453687, -0.19655, -0.150106, 0.228418, 0.16555, -0.250302, 0.098603, -0.0208631, -0.0177923, 0.498861, -0.0846368, -0.0786169, 4.22671e-18
0.107625, 0.0910537, -0.236737, -0.0177058, -0.0128905, 0.0104231, -0.097105, -0.15452, -0.130757, 0.282268, -0.062072, -0.16108, 0.188753, 0.0536935, 0.125473, -0.141848, -0.0769119, 0.113255, -0.136776, -0.206339, -3.16799e-18
-0.0649946, 0.0164645, 0.0292271, 0.22316, 0.116075, -0.115864, 0.204467, 0.000483769, 0.0119036, -0.111575, 0.0479291, 0.199388, -0.158844, 0.0284249, -0.116181, 0.0548385, -0.153938, -0.546584, 0.120949, 0.0219435, 1.28973e-19
-0.174764, 0.146753, -0.417794, 0.178504, -0.229099, 0.0526429, 0.0311241, 0.0271622, -0.218177, 0.114546, 0.0945593, -0.163246, -0.101118, 0.225741, 0.144102, -0.0422922, 0.165936, -0.301592, -0.274574, 0.172399, 9.9977e-19
-0.225879, 0.166053, 0.0318657, 0.0645464, -0.438617, 0.108622, -0.0924601, -0.295211, -0.25363, -0.0686507, 0.0584786, -0.0164854, -0.212307, -0.0295925, -0.0614617, -0.00681539, 0.340863, -0.172831, 0.172828, -0.0614557, -2.43217e-18
0.0982802, 0.05993, 0.306879, -0.32172, -0.217183, -0.2251, 0.173694, 0.160144, 0.0421988, -0.0386766, 0.144125, -0.0335349, 0.169181, -0.0240979, 0.0951578, 0.129787, -0.0394752, -0.014052, -0.150353, 0.0902922, 2.15747e-18
-0.0844858, 0.00134607, 0.0613915, -0.241341, 0.171941, 0.0178191, -0.493872, -0.0170118, -0.0506458, -0.213618, 0.200371, -0.262307, 0.00657978, -0.0197599, 0.0886722, 0.00971353, -0.0667119, 0.262579, -0.0287014, 0.140216, -4.18384e-18
0.0826716, -0.0576056, -0.130596, 0.132325, 0.137334, -0.243488, 0.0638073, -0.310672, 0.0217354, -0.168939, 0.206307, -0.0844012, 0.103882, 0.0973551, -0.301156, 0.0404349, 0.0490327, 0.11376, -0.0458298, 0.0608459, -5.79913e-20
-0.0209384, 0.106954, -0.208178, 0.160493, 0.203171, -0.0234066, 0.213891, -0.0918696, 0.0319948, -0.0534518, 0.0253836, -0.0912004, 0.147912, 0.187751, -0.0298997, 0.227883, -0.294424, -0.0643154, -0.0551102, -0.193157, -2.12286e-18
-0.0814107, -0.236769, 0.144988, 0.0550994, 0.125611, 0.00952114, -0.146732, 0.0739301, 0.330889, 0.0806056, 0.0773752, 0.057768, -0.0816978, 0.1678, -0.162129, -0.418842, -0.167148, -0.122716, -0.0899054, 0.0370982, -2.50275e-18
-0.192834, 0.358751, 0.329313, 0.196441, 0.0324215, 0.0708925, -0.232514, 0.113914, 0.0083214, -0.0891587, -0.139931, 0.128915, 0.128907, -0.177088, -0.292399, -0.282328, -0.00463877, 0.0352692, -0.158707, 0.0990659, -2.29216e-18
-0.0578506, 0.273563, -0.162519, 0.216614, -0.0856573, -0.212412, 0.242427, 0.101289, 0.0105499, 0.0228482, -0.0449765, -0.0766715, -0.128339, -0.225751, -0.37977, -0.0312244, 0.001411, 0.3318, 0.210005, 0.221032, -3.71873e-18
0.114927, 0.159567, 0.202162, 0.0490591, 0.100873, -0.0629478, 0.263767, -0.0473934, -0.131188, 0.0342525, -0.00152079, -0.0167815, 0.0131637, 0.0654982, -0.159975, 0.175242, -0.0134969, -0.253816, -0.154369, -0.491564, 3.46279e-18
0.340114, 0.0392313, -0.29272, 0.0632277, -0.153028, 0.08834, 0.161573, 0.0537457, -0.221294, -0.109992, 0.210486, -0.0923402, 0.116222, -0.120854, -0.166375, -0.170574, -0.0338894, -0.0314856, 0.0387678, 0.136287, -3.91281e-18
0.124983, 0.288466, -0.319106, 0.0566919, 0.117044, 0.00181595, 0.136772, 0.329275, 0.101028, -0.238501, -0.0883003, 0.0810841, 0.0701411, -0.0724079, 0.0244615, -0.0573857, -0.103715, 0.0895018, 0.234559, -0.0600661, 2.51793e-19
-0.0789378, 0.0608866, -0.0964141, 0.141436, -0.0953916, 0.216271, -0.0974107, 0.0902671, 0.221027, -0.17041, -0.0332959, -0.156433, -0.118876, -0.132307, 0.0193709, -0.0187354, -0.501493, 0.0864267, 0.0949928, -0.0907998, -3.94271e-18
0.365666, -0.0924737, 0.176969, 0.232902, -0.125995, -0.224985, -0.240042, -0.000604182, 0.0550342, -0.0683824, -0.255674, 0.0771198, -0.194453, -0.0578914, 0.191995, -0.105048, -0.132746, 0.262314, -0.0547321, 0.134422, 2.02049e-18
0.172501, -0.241799, -0.0564383, -0.12187, 0.318783, -0.215849, 0.137705, -0.15369, -0.227106, -0.247255, -0.134599, -0.151717, -0.146251, -0.0239379, -0.0727375, -0.281796, -0.000764296, -0.283554, 0.00379651, -0.23212, 5.41132e-18
-0.254509, 0.250348, 0.0774592, 0.0671981, -0.0473923, 0.0785794, 0.0295526, -0.174128, 0.287457, 0.317226, 0.0939165, 0.208528, 0.161886, 0.300633, -0.308215, -0.176075, 0.510074, 0.0913912, -0.273939, -0.108218, -3.65721e-18
0.142374, -0.338571, 0.135973, -0.110145, 0.131896, 0.0834703, -0.0806905, 0.259584, -0.0123244, -0.0260848, 0.0411391, 0.105931, -0.15669, 0.0582472, 0.181707, -0.123656, 0.288993, 0.03952, -0.0245308, -0.284365, -4.48835e-18
-0.302578, -0.0283924, -0.120257, 0.0923252, 0.0745751, -0.180655, -0.109332, -0.061728, 0.235232, 0.178115, -0.439521, -0.102604, -0.00229638, -0.21135, 0.108759, -0.0698359, 0.157186, 0.0601988, 0.01546, 0.0266284, 1.02951e-17
0.0211155, -0.108661, 0.154289, 0.128105, 0.081042, -0.201611, -0.0479143, 0.141218, -0.227467, 0.263788, -0.111786, 0.0602355, -0.194292, 0.350241, -0.259938, 0.072964, 0.16925, -0.0139382, -0.202333, -0.292054, 9.21998e-18
-0.474411, 0.248301, -0.0324879, -0.111084, 0.0694334, -0.1603, -0.0602334, -0.114361, 0.106266, -0.191958, 0.217197, -0.0336565, -0.185766, -0.124688, -0.000413319, -0.101185, 0.260656, -0.269223, 0.459337, -0.013801, -2.5197e-20
0.110638, 0.134258, 0.179503, -0.0640889, 0.116797, 0.132469, -0.213108, 0.306043, 0.141775, -0.186499, -0.079745, -0.213995, 0.195991, 0.0737389, -0.0133093, 0.0287879, 0.0913646, 0.0376266, -0.404469, 0.0442219, -6.76243e-18
0.184651, 0.31246, 0.382061, 0.0205172, -0.144082, -0.328098, 0.013415, 0.223981, -0.035843, 0.0784276, 0.245864, 0.0332531, -0.166248, -0.101888, 0.26944, -0.247157, -0.0815153, -0.101444, -0.074423, -0.0256986, -2.31063e-18
0.456977, 0.0238287, 0.0817074, -0.224049, -0.14867, 0.175863, -0.0333986, 0.0631187, -0.0954253, -0.0659971, 0.242392, 0.0853489, 0.156157, 0.363843, 0.0483102, 0.0855037, 0.153189, -0.0712279, 0.281936, 0.00518842, -4.14379e-19
0.044842, -0.081208, 0.092349, -0.0388355, 0.0575891, 0.116831, -0.00661503, 0.0754525, 0.210761, 0.0869856, -0.0503947, 0.146721, 0.179714, 0.159748, 0.0235711, -0.29777, -0.403234, 0.0430696, 0.330927, 0.00852277, 3.0675e-17
-0.0176982, 0.138841, 0.178576, -0.0129068, 0.0246955, 0.416785, -0.0598365, -0.142602, -0.0893354, -0.0823791, 0.266519, -0.452738, 0.199242, -0.0575874, -0.12796, 0.0274741, -0.226812, -0.164934, -0.184857, 0.0196792, 1.19131e-17
-0.0050613, -0.302764, -0.280352, 0.079089, 0.055838, -0.18838, -0.125374, 0.0452388, -0.166183, 0.134857, 0.141698, 0.121359, -0.0469852, -0.192435, -0.173168, 0.119555, 0.0995881, 0.0276688, 0.0435577, 0.0922236, 3.48526e-19
-0.0982677, -0.109798, -0.0509654, 0.0580659, -0.0904966, 0.225475, 0.0411556, -0.270427, 0.38069, -0.0139264, 0.193902, -0.0246474, -0.106041, -0.30685, 0.291119, 0.0708779, -0.239196, -0.185335, -0.0645332, -0.0782356, -6.36071e-19
-0.0829908, 0.262056, -0.105727, -0.189548, 0.166137, -0.0451702, 0.20339, 0.121746, 0.204046, -0.0402451, -0.078979, 0.0584674, 0.188276, 0.20204, -0.151073, 0.0224665, 0.0101625, -0.0220759, 0.28695, -0.106917, -8.30142e-19
-0.0997123, 0.149975, -0.169687, 0.124912, -0.311848, 0.0054011, 0.335863, -0.0235883, -0.0223195, -0.0299108, 0.187955, 0.0423506, 0.158966, 0.134911, 0.270338, 0.138223, -0.0458937, 0.160622, -0.0253803, -0.198829, 1.67405e-17
-0.132299, 0.115379, -0.428771, -0.169768, -0.16232, -0.0026831, -0.00304215, -0.0637884, -0.202112, 0.170133, -0.0866882, 0.129492, 0.112883, 0.266616, 0.091138, -0.403112, -0.034905, -0.151088, -0.290005, -0.108007, -1.73098e-19
-0.232781, 0.0485718, 0.09631, -0.151743, -0.263794, -0.0424193, 0.3722, 0.239778, -0.11485, -0.0542799, 0.193861, 0.138141, 0.142012, 0.0200484, 0.343274, -0.14858, 0.0194574, 0.232881, -0.360095, -0.0658637, -5.87003e-18
-0.127535, -0.0172166, 0.0451013, 0.301344, -0.38913, -0.0169687, -0.262046, -0.0497091, 0.00666679, -0.0835686, -0.20963, 0.0902707, -0.20674, 0.0555091, 0.0202857, -0.0825731, -0.147229, -0.0997014, -0.218358, -0.200202, -5.11381e-18
-0.0748808, -0.164983, -0.213805, 0.0993523, 0.18211, 0.0664824, -0.0278892, -0.0762834, -0.118672, -0.169903, 0.245555, -0.0911862, 0.112154, 0.0828664, 0.190895, -0.0649319, -0.0508002, -0.205754, -0.0848258, -0.0311635, 1.76403e-17
-0.0314875, -0.1719, -0.161336, 0.100056, -0.211082, -0.313098, -0.325956, 0.177318, 0.0316105, -0.188633, -0.0122235, 0.132549, 0.0264936, -5.51896e-05, 0.127776, -0.0825808, -0.0251572, -0.111094, 0.063283, -0.110354, -1.31131e-18
-0.0667707, -0.0341341, 0.01697, -0.0343291, -0.131888, 0.0167627, -0.0453806, 0.143222, 0.122875, 0.0316841, 0.27394, -0.333147, -0.0378773, 0.137022, -0.0320669, 0.104977, 0.00844007, -0.227444, 0.0300865, -0.0952191, -8.08333e-19
-0.344695, -0.153575, 0.0570615, -0.0562589, 0.152962, 0.482241, -0.113338, 0.164056, 0.183247, -0.14089, -0.277432, -0.0600298, -0.206598, 0.166829, 0.1747, -0.0273732, -0.193178, -0.103696, -0.203639, 0.199013, 6.26384e-18
0.00121551, -0.103137, -0.150125, -0.0292034, -0.147105, -0.194013, 0.114618, 0.129024, 0.0998529, 0.138748, -0.0659395, 0.0875577, -0.202743, -0.130656, 0.419714, 0.300943, -0.159423, 0.0866908, 0.139224, -0.0634399, 3.86313e-18
0.102185, 0.404982, 0.0502692, 0.0684278, 0.4898, -0.374803, 0.259958, -0.261637, 0.127272, -0.0682665, 0.160212, -0.229038, -0.24278, 0.0186577, 0.0364861, 0.177643, -0.21654, 0.154372, -0.328635, 0.211259, 2.71272e-18
-0.245665, 0.211631, -0.143677, -0.147122, -0.168329, -0.232107, -0.0573497, -0.160701, 0.0187391, 0.0770065, -0.035158, -0.0902945, -0.0271109, 0.0549815, -0.261598, 0.146506, -0.262309, 0.260634, 0.0206922, 0.186814, 8.4802e-18
-0.187195, 0.181062, -0.0515777, 0.332464, -0.0794299, 0.0269546, -0.107135, 0.10354, -0.196351, -0.0376261, -0.0966016, 0.0558783, 0.143937, 0.426213, 0.0216273, 0.163453, 0.135917, 0.248105, 0.0765003, 0.0204548, 3.86179e-18
0.0359306, -0.0717945, 0.115453, 0.214462, 0.0579259, 0.0993168, -0.304695, -0.0833444, 0.213919, 0.000456405, 0.0133741, -0.00101956, 0.0828758, 0.0484935, 0.0071759, -0.308423, -0.0772866, 0.222294, -0.0818365, -0.493941, 6.2199e-18
-0.00572249, -0.232471, 0.0194981, 0.141479, 0.0668229, 0.0570091, -0.0828433, -0.0355094, -0.0196945, -0.0285802, -0.077521, 0.0448352, -0.326885, -0.0649026, -0.517763, 0.0574342, -0.081334, -0.229823, 0.0908437, -0.141453, 3.14813e-18
0.11554, -0.103442, -0.184526, -0.0868724, 0.167446, 0.0125031, -0.232909, -0.248151, -0.118249, -0.0343881, -0.204034, -0.303044, 0.0884089, -0.258589, 0.103632, -0.244962, 0.115882, -0.0114153, 0.0501964, -0.0455924, -1.43729e-17
0.0522526, -0.121534, 0.0976902, -0.202883, 0.073183, 0.244164, 0.218315, -0.0642288, -0.216695, 0.0760725, -0.125707, 0.145182, -0.352048, -0.0688568, -0.0664157, 0.216824, -0.0300671, 0.236975, -0.263349, -0.171212, 2.18619e-19
0.0174768, -0.210878, -0.184523, -0.0253777, 0.192106, 0.0349202, 0.00463454, -0.201546, -0.257071, 0.0188312, -0.121274, 0.141346, -0.0183103, -0.148115, -0.0403637, 0.194871, 0.0388101, 0.150271, 0.118684, 0.180013, -1.5692e-18
0.0131724, 0.0572104, -0.0986833, 0.122683, -0.408437, 0.146636, 0.219647, -0.215222, 0.32252, -0.214147, 0.036527, 0.212787, 0.162985, -0.11979, 0.052561, -0.0227922, 0.100687, 0.0751307, 0.229538, -0.138119, 6.61039e-18
0.166797, 0.328734, 0.199417, -0.162685, -0.0336052, 0.0373508, -0.034227, -0.0830067, -0.126943, -0.105563, -0.158339, 0.03938, 0.057432, 0.257248, -0.135246, -0.183192, -0.11612, 0.00849666, 0.0236948, 0.0452355, 3.62204e-18
-0.0755308, -0.121808, 0.0661231, 0.0997919, 0.13864, 0.0242066, 0.173376, 0.0542882, 0.0261836, -0.210494, -0.124, 0.353829, 0.0110559, 0.0341008, -0.0679489, -0.234821, -0.0200827, 0.0328717, 0.108087, 0.311525, 2.01956e-18
-0.0107806, 0.158536, -0.216962, 0.155702, 0.0516082, 0.141712, -0.060417, -0.0325104, 0.0302182, -0.0473633, -0.0517878, 0.0544881, -0.0791001, 0.100068, -0.053685, -0.0451004, 0.182127, -0.140008, 0.242159, -0.0878869, 1.80662e-17
-0.193392, 0.0556353, -0.0818593, 0.145953, 0.0640425, -0.0246772, -0.0890445, -0.178502, -0.31035, 0.0398268, -0.296276, 0.00256331, 0.163706, -0.137629, -0.0487608, 0.0347951, -0.131997, 0.325331, 0.187245, 0.164177, -2.02364e-18
-0.241998, -0.133431, -0.025673, -0.136969, 0.00750124, 0.0193026, 0.278136, -0.0408793, -0.172935, -0.0291308, -0.271663, -0.326583, -0.170603, -0.126301, 0.23753, -0.0947711, 0.297572, -0.144865, 0.13696, 0.210267, 1.39154e-17
-0.450239, 0.167392, 0.315565, 0.315625, 0.108283, -0.141411, 0.11055, -0.0585561, 0.138448, 0.361371, 0.119569, -0.128224, -0.250203, -0.018004, -0.0436819, -0.283983, -0.00568575, 0.158667, 0.0460417, -0.0098643, -5.82533e-18
0.0534027, 0.0465827, 0.150405, -0.261303, 0.194419, -0.0657127, -0.331082, 0.248726, -0.0950518, -0.0940036, -0.0289439, -0.0464802, -0.155479, -0.16757, -0.190534, -0.0788921, -0.0532355, 0.118999, -0.0409946, 0.163186, -6.04172e-18
-0.211401, 0.290594, -0.147599, -0.125352, -0.255064, 0.110802, -0.0354253, -0.15165, -0.383791, -0.00817826, 0.211725, -0.0627436, -0.311881, -0.216763, -0.271481, -0.146721, 0.110398, 0.0560071, -0.356321, 0.0787649, -2.86879e-18
-0.178178, 0.494645, -0.106892, 0.12192, -0.352675, 0.128499, -0.0044545, 0.139564, 0.111114, -0.0942069, -0.207956, 0.255273, -0.187978, 0.220222, 0.0993103, 0.210646, 0.27351, 0.0669414, -0.136867, 0.00344904, 4.41985e-18
-0.248688, -0.0380584, 0.134686, -0.0686713, 0.0771365, 0.210999, -0.203008, 0.557978, 0.0171309, -0.106039, 0.263717, 0.187767, 0.024069, 0.0344766, -0.328969, -0.0710217, 0.096971, -0.176502, 0.140784, -0.0382435, 2.43229e-18
-0.0131635, -0.284124, -0.243498, -0.36636, -0.272034, 0.107988, 0.00186574, 0.135311, 0.252583, 0.109542, -0.0494065, -0.146916, -0.00395598, 0.125612, -0.0382581, 0.268186, -0.262579, -0.204598, 0.0716587, 0.0441563, -3.39771e-18
-0.0523854, -0.100923, 0.100003, -0.194207, 0.0492329, -0.0387696, 0.174621, -0.103317, -0.0315822, 0.244407, 0.0248019, -0.00697425, -0.253302, 0.00419847, -0.204305, 0.120845, -0.167657, 0.309388, 0.553405, -0.169689, 3.00208e-18
0.133468, -0.129053, -0.0157988, 0.00607036, 0.0398884, 0.144426, 0.252366, 0.100398, -0.190276, 0.132282, -0.127873, 0.0198302, -0.250787, -0.106045, 0.238218, 0.0508413, 0.0701484, 0.030261, -0.0664664, 0.259792, -2.35561e-18
-0.157567, 0.0953052, 0.134387, -0.00732135, -0.223528, -0.0313503, 0.199792, 0.213247, 0.338566, 0.329757, 0.0315247, 0.084792, 0.0154856, 0.29676, -0.100234, -0.0441637, 0.161871, 0.115146, 0.146512, 0.0836813, 1.20573e-18
-0.142301, -0.00480424, -0.0804606, -0.471242, -0.0374524, -0.121742, 0.260514, -0.0712661, -0.0277151, 0.224909, -0.0374591, -0.0146628, 0.131574, -0.21774, 0.183761, -0.246106, -0.0141963, 0.415723, 0.0162495, 0.0411237, -2.16037e-18
-0.282155, -0.0105472, -0.120923, 0.118671, -0.239671, -0.235787, 0.0501789, 0.236358, 0.0758249, 0.107339, 0.232256, -0.0736011, 0.160028, -0.226971, -0.0989655, 0.498371, 0.0239796, 0.0183917, -0.110067, 0.101507, 5.19717e-18
-0.160221, 0.0658819, -0.138945, -0.0681942, -0.113579, -0.301483, -0.212097, -0.209549, -0.322665, -0.246276, 0.014384, 0.17975, 0.0176605, 0.205683, 0.0974549, -0.228742, -0.288634, 0.201458, -0.0146665, 0.136519, -3.12204e-19
0.0854689, 0.14912, -0.135302, -0.000189858, -0.0646332, 0.288822, 0.0909238, 0.160688, -0.0638866, -0.237159, 0.223171, -0.340926, 0.0217307, 0.100601, 0.0625901, -0.0945883, 0.166748, 0.106724, -0.384981, -0.0655626, 4.24964e-18
-0.0408559, -0.00919589, 0.325711, -0.0953242, -0.133897, -0.357393, -0.207465, -0.0332343, 0.0959813, -0.166691, -0.308667, 0.122411, 0.0524634, 0.0677563, -0.0533176, -0.00460088, 0.0518703, 0.00964062, -0.0894985, 0.0711438, -1.5625e-18
0.17162, -0.0197569, 0.128654, -0.0502134, 0.193568, -0.103733, -0.354641, -0.197832, 0.155766, 0.127973, -0.24668, -0.14776, 0.211935, 0.336114, -0.0148509, 0.063842, -0.159116, 0.235209, -0.0743796, 0.0434337, -8.31793e-19
-0.102419, 0.0216745, 0.0548855, 0.126358, -0.0132863, 0.0359579, -0.0805047, 0.0885839, 0.117627, -0.264984, 0.0126171, -0.0996435, -0.129467, -0.172033, -0.0375983, -0.0482052, 0.125933, -0.209878, -0.325776, -0.430743, -4.4402e-18
-0.0145826, -0.381987, -0.222477, 0.0817807, -0.0974279, 0.14313, -0.045822, -0.0117229, 0.0165721, -0.0667001, 0.0473035, 0.0173204, 0.101365, 0.0124202, 0.227647, 0.155812, 0.079007, 0.430078, -0.162418, -0.0307005, -8.39834e-19
-0.0385074, -0.26706, -0.207312, 0.0182174, 0.00719612, -0.0664591, -0.136046, -0.0125045, -0.269857, -0.0399941, -0.0415012, 0.31555, 0.000417365, -0.206648, 0.124624, 0.0658638, -0.254195, -0.0390306, -0.35516, -0.273015, 1.31193e-17
0.00981975, 0.0966134, 0.00389006, 0.0963244, -0.214683, -0.0372845, 0.0577007, 0.13785, -0.399558, 0.0901772, -0.199882, -0.00113974, 0.284312, -0.0440457, 0.0143997, -0.13794, -0.0403879, -0.0204456, 0.328125, -0.0907821, -1.18131e-18
0.024863, 0.284166, -0.395356, 0.0984461, -0.165877, -0.0858063, -0.066121, 0.120769, -0.0775613, 0.0143343, -0.0910144, 0.128898, 0.178614, 0.325631, 0.0441097, 0.16921, -0.00462419, -0.295429, 0.164072, 0.0718504, -1.82653e-18
-0.0194078, 0.0664784, 0.113653, -0.212215, -0.119933, 0.267554, -0.219714, -0.204092, -0.055273, -0.251387, -0.130874, -0.0671509, -0.212844, -0.0248584, -0.182002, -0.364534, -0.0552157, -0.127925, 0.00315971, -0.163172, -2.06872e-18
-0.194086, -0.0333106, -0.052394, -0.112602, -0.321603, 0.0269478, -0.0713874, 0.121759, -0.0102131, -0.0613295, 0.0965365, 0.0486584, 0.0773714, -0.144498, 0.0852754, 0.0583609, 0.0583415, -0.132107, -0.311063, 0.0494271, 1.48851e-18
-0.027428, -0.21842, 0.102602, -0.0473158, -0.228358, -0.098188, -0.138948, 0.241506, -0.316285, -0.0354997, -0.20882, 0.169885, -0.0463701, -0.218562, 0.185624, -0.0869789, 0.119037, 0.0864141, -0.280624, 0.129716, 2.40223e-18
-0.366152, 0.0391281, -0.250989, -0.211743, 0.19578, 0.400408, -0.30077, 0.0194442, 0.0359511, 0.00530849, -0.259381, -0.0965658, 0.197147, 0.187149, -0.165051, -0.129842, 0.142746, 0.24525, -0.0388366, 0.140333, -2.67342e-18
0.117605, 0.119824, -0.0457995, -0.309607, -0.136904, -0.16332, 0.144294, -0.212063, 0.178238, 0.20052, 0.127436, 0.19447, -0.159528, -0.368538, -0.0762621, 0.229419, 0.284265, 0.0312184, -0.0919825, 0.324675, -1.19479e-17
-0.0119492, -0.0817294, -0.216931, -0.0901269, -0.137809, 0.103689, -0.162185, 0.22345, -0.134481, 0.0412625, 0.135154, 0.0706731, -0.217752, 0.201123, 0.000701868, -0.270448, 0.212208, 0.0593151, 0.180641, 0.0245363, 3.77637e-18
-0.193535, 0.0695322, 0.179167, 0.065143, 0.149718, 0.292592, 0.0349012, -0.2015, -0.0489101, -0.123912, 0.42399, 0.115086, 0.119666, 0.119193, -0.113435, -0.0626534, 0.214017, -0.155682, -0.0824266, 0.13419, -2.9162e-18
-0.0365471, 0.219912, -0.0045273, -0.0164242, -0.0304174, 0.216417, 0.0128685, -0.233312, -0.00672921, -0.00212973, -0.023574, -0.0909189, -0.112728, -0.246471, -0.0369152, -0.0288344, 0.0128004, 0.16406, -0.187311, 0.11408, 2.74178e-18
-0.0620137, 0.0198561, 0.150013, -0.477616, -0.128013, 0.0838943, -0.191492, -0.284693, 0.321149, -0.179403, 0.264593, 0.378675, -0.111457, 0.073799, 0.0314281, -0.14219, -0.00049584, -0.321704, 0.111704, -0.0277424, 9.39612e-19
-0.116988, 0.15402, -0.218155, -0.0577668, -0.29805, -0.0976785, 0.131061, -0.26362, 0.189211, -0.2247, 0.458791, -0.261454, -0.0406044, 0.248067, 0.125322, 0.108176, 0.00716262, 0.144229, 0.0650453, 0.182363, -9.20115e-19
-0.199016, -0.446015, 0.174271, -0.0708272, -0.237034, 0.120279, -0.344371, -0.235164, -0.160453, 0.0570936, 0.0792532, 0.0768032, 0.111334, -0.233377, -0.106924, -0.23832, 0.253924, 0.136762, -0.246989, 0.0890727, 2.71002e-18
0.136869, -0.172548, -0.170863, 0.243742, 0.296497, -0.224162, 0.101449, 0.318653, -0.167543, -0.345369, 0.111401, 0.0748769, 0.253607, 0.145816, -0.0679155, 0.0536279, -0.112452, 0.00338688, -0.175819, 0.161897, -5.6937e-18
0.0168919, 0.0327887, -0.0303743, -0.0411344, 0.0210129, 0.0165405, -0.0317722, -0.0177039, 0.0417791, -0.0255077, -0.00414407, 0.0367683, -0.0329129, 0.0577318, -0.019785, -0.0307082, -0.0772659, -0.0303971, -0.0177282, 0.0649155, -0.00795854, -0.0413202, 0.00177205, 0.004803, -0.131907, -0.0131596, 0.0578102, 0.0159024, 0.0386264, 0.0202442, -0.0262169, 0.0155977, -0.0327178, 0.0460091, 0.0597261, -0.104926, 0.0162022, -0.0208834, 0.0450211, -0.0352821, -0.00342252, -0.0647425, -0.0415149, 0.0897505, -0.00133794, 0.0903207, 0.0255626, 0.106615, -0.0585368, 0.0397537, -0.0895292, 0.0843707, 0.0152952, 0.0113898, 0.0338375, -0.0266655, -0.00317431, 0.0155645, 0.0244325, -0.12186, 0.0322568, -0.0421017, -0.0967606, -0.0293135, -0.051517, -0.018346, 0.033776, 0.0261898, -0.00214137, 0.0954537, -0.0175759, 0.00470134, 0.0700768, -0.104162, -0.0843932, -0.0782225, -0.0720827, 0.0088113, 0.0160136, 0.040334, -0.0954789, 0.0793729, 0.00602459, -0.0218539, 0.00455582, 0.0343004, 0.0381067, 0.0403679, -0.0121485, 0.0232563, 0.0193788, -0.0300567, -0.0931746, 0.0417767, -0.0967137, -0.0287286, 0.0103274, -0.0365796, -0.0287176, 0.0173027, 0.0123188, -0.022661, -0.0464861, 0.0361405, -0.026506, 0.0998283, -0.0518497, -0.0294716, 0.0970508, -0.0333722, 0.0859696, 0.0302776, 0.0606173, -0.0348342, -0.057057, -0.0328376, -0.0175954, 0.0387579, 0.00635184, -0.0871203, 0.0507772, 0.0133015, 0.0010531, 0.0112582, 0.0407856, -0.0969494, 0.00769309, 0.036633, -0.00263671, -0.0069533, 0.0823248, 0.10347, -0.0378902, -0.0331741, -0.0888527, -0.105539, -0.0392275, 0.0241544, 0.0327256, 0.118678, -0.0651741, -0.080821, 0.0668305, 0.0401355, 0.0355667, -0.00295617, -0.0366061, -0.0409476, 0.00294074, -0.0479811, 0.0292779, 0.00728207, -0.0107133, -0.106366, 0.0836619, -0.00475909, 0.00832445, 0.0809118, -0.0135303, -0.035907, -0.0448957, 0.0368947, 0.0668174, -0.0125765, -0.0519677, 0.0691912, 0.0437417, 0.0317777, -0.0996551, -0.132634, -0.0177529, -0.0104734, -0.023335, -0.0860675, -0.0507979, 0.0672509, 0.0802779, 0.0595517, 0.0196288, 0.0238637, -0.0526803, -0.0724216, 0.0604707, 0.0218537, -0.0697806, 0.0285276, 0.0313104, -0.016648, -0.0926996, 0.0639115, -0.0640685, -0.0486358, -0.0306665, 0.0460368, -0.00650503, -0.0184069, 0.00601308, 0.00687768, -0.0569046, 0.0659776, -0.0523745, -0.0566179, -0.0395482, -0.0398553, -0.0291445, 0.0180436, 0.0727793, -0.0267075, -0.00107398, 0.0849502, 0.0620303, 0.0407137, -0.0292864, 0.119428, -0.0529051, -0.130798, 0.0235363, -0.0603917, -0.0261662, -0.0526613, 0.0166562, 0.0202582, 0.0356722, -0.0321011, 0.047943, -0.00227505, 0.0635253, -0.0168943, -0.0232835, -0.056165, 0.00108303, 0.0370184, -0.0360238, 0.0202685, -0.0263054, -0.0819364, -0.102362, 0.010901, 0.00427139, -0.0653532, -0.0376127, -0.0445796, -0.010735, -9.46386e-05, 0.0137606, 0.0412201, -0.0131666, 0.00391883, 0.0806899, 0.00780141, -0.0735104, -0.045936, 0.0407766, 0.00708454, 0.0626062, -0.0540007, 3.35941e-17
0.00438077, 0.0147453, 0.0152048, 0.0523754, -0.0383424, 0.00148354, 0.0640757, -0.0696708, -0.0095999, 0.116528, -0.0517504, -1.64822e-05, 0.0345614, 0.0124533, 0.0130695, 0.0475003, 0.0408961, -0.0167011, 0.032122, -0.000477604, 0.108319, -0.0151754, 0.0114201, 0.0522087, -0.0263765, 0.0265774, -0.0384311, -0.014133, 0.135184, 0.0627486, 0.0152774, -0.0057149, 0.0300692, -0.000928371, 0.0113747, -0.00663198, 0.059536, -0.0369865, -0.0996736, 0.194536, -0.00102072, 0.0155467, -0.132377, -0.0367422, -0.0129826, 0.0339581, 0.0717184, 0.0109253, 0.00616315, -0.0226107, 0.0350656, 0.0376964, -0.0651382, 0.00763322, 0.0802404, 0.00783457, -0.0203052, -0.00969802, -0.0110449, -0.0475837, -0.0300946, 0.0470184, 0.040619, -0.0117813, -0.000459672, 0.0739572, 0.109269, -0.0634918, -0.0723155, -0.0449574, -0.0589185, 0.0169303, -0.0143139, -0.0809655, -0.0135394, -0.0136126, -0.040461, 0.0123808, 0.0257118, 0.0259521, -0.057689, 0.0713515, -0.00895499, 0.0453886, -0.104128, 0.0190501, -0.00879679, -0.0443521, -0.0158771, 0.0205175, -0.0752827, 0.0642702, 0.0524614, 0.0625935, 8.9037e-05, -0.0418734, -0.0140467, -0.0721444, -0.0134499, -0.00500398, -0.0642689, 0.0567671, 0.0464868, -0.0642634, 0.0288042, 0.025556, 0.0808929, -0.0408395, -0.020947, -0.0112739, -0.0437471, 0.0381421, -0.0192222, 0.00508312, 0.0510699, 0.0484777, -0.0536992, 0.0260985, 0.0202177, 0.00206428, -0.0505485, -0.0131655, -0.0132999, -0.0422046, 0.0234734, -0.0416429, 0.00884501, 0.0169863, -0.00610834, -0.0770093, 0.0255955, 0.0358161, -0.0688105, 0.0143692, -1.76522e-05, -0.0140868, -0.0903778, 0.0139097, -0.051146, 0.0582306, 0.0134362, -0.00893542, 0.0412855, -0.0352723, 0.056336, 0.0696568, -0.0206995, 0.0179349, -0.0637489, 0.00236182, 0.084467, -0.000337673, 0.039249, 0.0961923, -0.0548041, -0.0233364, -0.100992, -0.0113592, 0.0176562, 0.0051808, -0.120009, 0.0214385, -0.00732586, -0.080766, -0.0343879, 0.0500649, 0.00973923, 0.0391025, -0.0523992, 0.0778972, 0.0327109, 0.0137444, 0.0338614, -0.0439759, -0.0866675, 0.0544885, -0.103079, -0.00478398, 0.0500604, -0.0107307, 0.0342929, 0.0526088, 0.0602468, 0.0521141, -0.026106, 0.0551227, -0.0277252, -0.0651104, -0.00592986, -0.00388733, -0.00892277, 0.0216173, 0.0997693, 0.019535, 0.0816259, -0.0784403, 0.0226168, 0.0408786, -0.0348023, 0.0484247, -0.0638444, 0.0103626, -0.0261153, -0.0459716, 0.0460384, 0.00131977, -0.106615, 0.0521673, 0.0148166, 0.019276, 0.0792991, 0.0259604, 0.0978561, 0.0254892, 0.0560434, 0.00270079, 0.0423276, -0.0581488, 0.0259498, -0.0476549, 0.0706218, 0.112962, -0.0195369, -9.7727e-05, 0.0899674, 0.0607442, -0.0416921, -0.0212544, -0.00757447, -0.0123094, -0.0238315, -0.0135984, 0.0607907, 0.0081299, -0.02046, 0.0641812, 0.0111059, 0.0121257, 0.053268, -0.0447107, 0.0394273, 0.0424557, 0.0324692, -0.0186286, 0.0047036, -0.0698548, -0.0167861, 0.0975548, 0.0304229, 0.0039563, 0.032099, 0.0302875, 0.119222, 0.0396663, 0.0656589, -0.0538044, -4.34677e-17
0.0823938, 0.0683339, -0.0142416, -0.0425624, -0.0124094, 0.0190176, 0.11762, 0.0121289, -0.00800105, -0.109432, -0.0230378, 0.0029054, -0.0203311, -0.0658731, -0.0213536, 0.0759164, -0.0199719, -0.0402313, 0.0471689, -0.0516585, 0.0190273, -0.0232523, -0.0325941, 0.0224811, -0.0137972, 0.0878316, 0.0349875, 0.0690171, -0.0259476, 0.047424, -0.0502339, -0.0108106, -0.0151684, -0.0520929, 0.0157584, 0.031939, 0.0490937, 0.0147341, 0.0971229, -0.0387133, 0.0030676, 0.0172206, -0.0490764, -0.0356293, 0.0689265, -0.0120361, 0.00199868, -0.0526429, -0.044115, -0.058929, 0.0737151, -0.02441, -0.0807, -0.0666999, 0.00136157, -0.036593, -0.0239418, -0.0607734, -0.0274447, -0.0281291, 0.00229147, -0.0459854, 0.0338056, 0.0371969, 0.0210526, 0.0496609, 0.0328465, -0.0193008, -0.0227232, -0.0911131, -0.0664378, -0.0463958, -0.0429322, -0.036393, 0.0521785, 0.104555, -0.0316325, 0.0106732, -0.0636015, -0.0838952, -0.0679767, 0.0191163, -0.0772355, 0.00116644, 0.0150593, 0.0429978, -0.0218199, -0.0186831, -0.0171717, -0.111116, 0.0532588, -0.0340453, -0.00965112, 0.0198768, 0.0507599, -0.0586146, -0.0897593, -0.0183536, 0.0281948, -0.0417382, -0.00400105, 0.0583072, -0.0613145, 0.0596559, -0.00101052, 0.0227982, 0.0289214, -0.0266905, -0.00739036, -0.067603, 0.00969718, 0.0323279, -0.0657957, -0.109093, 0.000183329, 0.00028867, 0.00175511, 0.0528867, 0.0231264, -0.06801, 0.071759, 0.123641, 0.0724275, -0.0474547, -0.033779, 0.028355, -0.0459904, -0.0314665, 0.0930449, 0.0717839, 0.0729782, -0.0726621, 0.00346459, -0.0430377, -0.0105521, -0.0792972, 0.100376, -0.0115796, -0.00367171, 0.132813, 0.0010595, 0.0446154, 0.0448236, -0.000884673, -0.0843342, 0.0460305, -0.0162952, 0.00867377, -0.0644761, 0.064553, 0.0462057, 0.0739506, 0.0263789, -0.0351546, 0.0105214, 0.074616, -0.00304383, -0.0809837, -0.0471615, -0.0751262, -0.0794187, -0.088948, -0.0566661, 0.0538435, -0.0269761, 0.105697, -0.00938688, -0.0274351, -0.0902824, -0.0806394, -0.0254682, 0.0452326, 0.00364471, 0.0255111, -0.00940801, -0.0091279, 0.0815797, -0.0530187, -0.0428453, -0.148914, -0.0866744, -0.0124343, 0.0148233, -0.0664047, -0.0254754, -0.0655149, -0.0299489, 0.0585828, 0.0335539, 0.0603238, -0.107151, 0.0721426, -0.00828171, -0.0186409, 0.0960223, -0.0363133, 0.0108881, 0.027007, -0.0270071, 0.032956, 0.00728145, 0.0668294, 0.0640993, 0.0361608, -0.0698073, 0.0426832, 0.0261227, -0.0161696, -0.0398285, 0.0335635, 0.0701195, 0.0571249, 0.0620323, -0.00777289, -0.0762507, 0.0240998, -0.00569804, -0.0923233, -0.0280468, 0.0190216, 6.02654e-05, 0.0261519, 0.046597, -0.0113824, -0.09742, 0.0192639, -0.00475202, 0.101672, 0.036598, 0.115331, -0.0100253, 0.0429118, 0.00768789, -0.019986, 0.000604343, -0.0847058, -0.0862161, 0.00362011, 0.0238766, -0.12703, 0.0265452, 0.054882, -0.0190207, -0.013576, 0.0913132, -0.00945171, 0.0825877, -0.0375501, 0.00867007, -0.0521045, 0.027799, 0.0123626, 0.0852886, -0.125426, 0.0545863, 0.078247, -1.08784e-18
-0.105042, -0.00439188, -0.0606743, -0.0549191, 0.0831424, 0.0134225, 0.0280814, -0.0907272, -0.0355744, -0.0311942, 0.0233179, -0.0608673, 0.0349674, -0.0467292, -0.0636123, -0.0108043, 0.0262898, 0.0249691, 0.0977497, -0.0320521, 0.0379315, -0.0199171, -0.0278867, -0.0304131, -0.0736733, -0.0396793, 0.0106012, 0.0119776, -0.0460437, -0.00714718, -0.00844328, 0.013122, -0.0100554, 0.0271458, 0.014356, -0.0345092, -0.0331835, 0.0835975, 0.00296709, -0.0243205, 0.0204073, -0.109943, 0.0567572, 0.0501097, -0.0260145, -0.0289272, 0.00553001, -0.111727, 0.0723002, -0.115214, -0.0332305, 0.0216911, 0.0125409, -0.0347562, -0.0269558, -0.00273309, 0.147655, -0.0391124, -0.0401671, 0.0223104, 0.0790371, 0.0162594, 0.00506129, 0.0197801, -0.0613927, -0.0464044, 0.00315705, -0.0303812, 0.0152805, -0.0333141, -0.0152972, -0.00686463, 0.00753593, -0.0295669, 0.012245, -0.010756, 0.0690793, -0.0877683, 0.00201259, 0.0335826, -0.0807021, -0.0359917, -0.0434108, 0.0109535, 0.00102299, 0.0147691, 0.0211201, -0.0012685, 0.0112913, -0.0165737, 0.0311519, 0.0769826, 0.00679457, -0.0283412, 0.0232843, -0.0422951, 0.0584496, -0.0644909, -0.0311694, 0.0011532, -0.0232399, 0.0325994, -0.00113809, -0.0357846, -0.0417017, 0.0208963, -0.0251403, -0.0676605, -0.0703694, 0.00446607, -0.113677, 0.0781093, 0.0590092, -0.0206535, 0.0342069, 0.0574936, 0.00637777, 0.00580074, -0.0193688, 0.039819, 0.0428241, -0.0655902, -0.0385745, -0.0606746, -0.0235884, 0.000843973, 0.084022, 0.0537985, -0.0339437, -0.00523831, 0.072914, 0.00208791, 0.0301695, -0.00781185, -0.0170095, -0.0300837, -0.0626073, -0.122005, -0.0080884, -0.0565046, -0.0569637, -0.0204122, -0.0719268, -0.0330029, -0.0774031, 0.0559363, 0.035394, 0.00777416, -0.0504532, 0.0137436, -0.140577, 0.0116071, 0.0151303, -0.0701393, 0.0129424, -0.00692669, 0.0350214, -0.0260333, -0.00819107, -0.0212089, -0.0304669, -0.000824808, -0.022741, 0.0600835, 0.0392433, -0.11846, -0.0301002, -0.0832101, 0.0512719, 0.00726412, -0.0145082, -0.0600179, -0.0187504, 0.00243008, -0.00326988, -0.00120802, 0.0123195, 0.0310777, -0.0181692, 0.0406649, 0.0202179, -0.0538359, 0.0255798, -0.0466867, -0.0463026, -0.0290712, -0.001259, 0.00207507, -0.0381385, -0.0344123, -0.0154789, -0.00561262, 0.0622527, 0.0596823, -0.0206936, 0.0284978, 0.0355491, 0.00750719, -0.0288613, 0.0535652, -0.057212, -0.0180591, -0.037023, 0.0240123, 0.0393661, -0.065679, -0.0068557, 0.0922176, 0.0759334, 0.0430406, -0.101346, 0.0467533, -0.000531563, 0.0353595, 0.0542002, -0.0839871, -0.0153272, -0.0545748, 0.00891035, 0.0388545, 0.00380562, 0.00627352, -0.0035957, 0.0391315, 0.0332616, 0.0344409, -0.0601649, 0.0194247, -0.0494723, 0.0583277, 0.0438883, -0.041558, 0.00202144, -0.0645919, -0.00926565, 0.0589438, -0.0216665, 0.122562, -0.029955, -0.0595898, -0.0169033, -0.0694504, -0.086765, -0.00508704, 0.016799, 0.0761835, 0.00147889, -0.0683337, 0.111101, 0.0529052, 0.0641021, 0.0670427, -0.141623, 0.0439302, -0.0331916, -0.00471394, 2.94627e-17
0.0479509, -0.00318471, -0.00783437, 0.0350137, 0.0255971, 0.0632162, -0.0437542, -0.0190642, 0.0569301, -0.0109823, 0.019162, -0.0292164, 0.0198256, -0.0470353, 0.0728024, -0.0338749, 0.0755324, 0.00804215, 0.0498896, 0.0111855, -0.0757254, 0.00857387, -0.0394649, -0.0769931, 0.0830211, -0.0778729, 0.0273731, 0.0299718, 0.0292368, -0.116859, 0.00979885, -0.0030232, -0.0217547, 0.0257754, -0.00217802, 0.0659045, 0.0944294, -0.0392568, 0.0222901, -0.0285543, -0.0266487, 0.0628878, -0.0101337, 0.0625012, -0.0297777, 0.0443295, -0.0302944, 0.0297978, -0.0705033, -0.0351485, -0.0443116, 0.0440709, 0.0333275, 0.00625875, 0.0462582, 0.0263329, 0.0402616, -0.0835968, -0.0129162, -0.0746675, 0.0669718, 0.0402976, 0.0467062, 0.0798798, 0.0211012, 0.112868, -0.0428599, 0.00907659, 0.0303006, 0.0629798, 0.0179357, 0.0269398, 0.00701005, 0.0822422, -0.0308436, -0.0190607, 0.0310785, 0.0597983, 0.0407766, 0.026608, 0.0178544, 0.0558626, -0.00544654, 0.000371416, -0.0115358, -0.0532026, -0.0400016, -0.0154906, -0.0513903, -0.0174694, 0.0297497, -0.0224079, 0.0555957, 0.0236901, -0.0479348, -0.0510525, -0.011522, -0.0123727, 0.0326858, 0.0667565, 0.125803, -0.100464, -0.00461946, 0.0439691, -0.0406001, 0.0314711, 0.0749889, -0.0693628, 0.0247849, 0.0161508, -0.0563577, 0.0328364, 0.0746059, 0.11629, 0.0689507, -0.0976366, -0.0499679, -0.122966, 0.101553, 0.0445935, -0.00735518, 0.038481, -0.0118919, -0.107288, 0.0132555, -0.056738, 0.0463047, -0.0245362, -0.0912121, -0.0602746, 0.0224047, -0.00395823, 0.0465908, 0.0254547, -0.0604963, 0.047673, -0.0781526, -0.0130652, -0.0937276, -0.0099508, -0.0674223, 0.00376248, 0.0677727, 0.0194517, -0.0488076, -0.0693737, -0.0712106, 0.0927856, 0.0600441, 0.0016313, -0.064937, 0.0669801, -0.0249533, -0.0534767, 0.021255, 0.0435424, 0.00627436, 0.0432254, 0.0115249, -0.0452704, 0.0540766, -0.0568117, -0.0397397, 0.0701529, -0.0105635, -0.0136857, -0.0270682, 0.0616883, 0.00112967, 0.0923668, -0.0455783, -0.0409122, -0.0223092, -0.0195609, -0.0238688, 0.0920647, -0.010453, -0.0049909, -0.0581752, -9.80511e-05, -0.0357372, 0.0577372, 0.054942, 0.0247195, 0.0292153, 0.0338413, -0.03281, -0.0349609, -0.0174677, 0.0140042, 0.0269737, -0.0482439, 0.0705513, -0.0731321, 0.0636013, -0.000228781, -0.0606611, 0.00660151, -0.0629916, 0.0524929, -0.0385459, 0.000747112, -0.00677058, 0.0407792, -0.0722809, 0.117899, 0.0820367, 0.0392637, 0.0479935, -0.023957, 0.0107599, 0.0495457, -0.00590182, -0.0390957, 0.0335037, 0.0122578, -0.0102162, 0.0163896, 0.0245936, 0.0876138, -0.0658397, 0.00266125, 0.00430673, 0.0632457, -0.0155568, 0.034989, 0.0571089, 0.0417722, 0.0417247, 0.00336822, 0.139662, 0.0120194, 0.0500893, 0.00228619, -0.0169815, -0.0316016, 0.0702416, -0.0761203, 0.039529, 0.0431228, -0.037782, -0.00419292, 0.132338, 0.0147684, 0.0219321, -0.0854986, -0.0488562, 0.00786302, 0.105392, -0.0691399, -0.0650493, 0.0359677, 0.00506823, 0.0692882, -0.0207905, 0.00760978, 2.9052e-17
0.0548037, 0.0132133, 0.0528264, -0.0119361, -0.0377084, 0.00769117, -0.0244214, 0.0667544, -0.0416669, -0.072643, -0.0120284, -0.0516192, 0.0752094, -0.0257714, 0.0238291, 0.0289934, 0.0772853, -0.0124553, -0.0262906, -0.00260794, 0.0842422, -0.04564, 0.0361307, 0.0112597, 0.0317118, -0.0612267, -0.0840447, 0.0662883, -0.0272229, -0.0242354, 0.0483556, 0.0416779, 0.0420226, -0.0155017, 0.00906081, 0.0902, -0.0256288, -0.0354201, 0.0869971, -0.0780983, 0.0526848, 0.0138518, -0.00573716, -0.0340092, 0.00265613, -0.0179803, 0.0645084, 0.0316722, -0.00324547, -0.0229649, -0.00888402, 0.0757455, -0.00779344, -0.0573918, 0.0357626, -0.037461, 0.0666479, -0.0619063, 0.0493554, 0.0961465, 0.0479507, 0.0133026, -0.0643229, 0.0178423, -0.0711942, -0.0795682, 0.0131285, -0.0595071, -0.0253247, -0.066992, -0.0186599, -0.100274, -0.0583547, -0.0497994, 0.0387181, 0.00313645, 0.0627142, -0.00528478, -0.0583959, -0.0460053, -0.0170769, 0.0474767, 0.00452721, 0.0628203, 0.0447808, 0.0435193, 0.0107775, 0.0586833, 0.00380801, 0.0308652, -0.0752206, 0.103475, -0.00336111, 0.00402329, -0.0455205, 0.0728481, -0.0456744, -0.0240811, -0.0634027, -0.00789053, 0.0564672, 0.0622668, 0.0140126, 0.0171622, 0.0530584, -0.0476714, 0.0334541, -0.00839165, 0.0227685, 0.0165595, 0.0527248, 0.000106846, 2.70879e-05, -0.0495157, -0.00109763, 0.0258837, 0.0132326, 0.000910249, 0.0201331, 0.106518, 0.0485536, 0.0462448, -0.0493018, -0.0502347, 0.0142381, 0.0706094, -0.0744335, -0.0105126, -0.0285429, 0.0523353, -0.0466602, -0.00667183, -0.0239015, 0.0267802, 0.114924, 0.071142, -0.0319003, 0.0470358, 0.0255041, 0.0222829, -0.0513558, -0.0421021, -0.00229271, 0.00112743, 0.0204626, -0.100698, 0.0347782, 0.00126839, -0.0809742, 0.0856198, 0.0756133, -0.0909866, 0.0407277, -0.0514767, -0.0385429, 0.0420732, 0.0126401, -0.00890518, 0.0216777, 0.0135014, 0.0379966, -0.0107611, -0.121023, 0.0195625, -0.0581932, -0.0231769, 0.030661, 0.0176208, -0.00038512, 0.0458789, -0.0464105, 0.145463, -0.00786029, -0.0818586, -0.0376904, 0.033318, -0.0543109, 0.00522759, 0.0832576, -0.00494686, 0.0861006, 0.0134523, 0.0854393, -0.00325734, -0.0803122, -0.0229669, -0.0158218, -0.0799668, -0.0683092, 0.0469295, 0.0453279, 0.0294347, -0.0560334, -0.047858, 0.0160896, -0.0325417, -0.0321675, 0.0658025, 0.0432363, 0.0722683, -0.029823, -0.053985, -0.0664599, 0.00412195, 0.0119204, 0.00737936, -0.0129307, -0.0132418, 0.0118115, -0.0738053, 0.0158671, -0.0778817, -0.0490257, 0.00201628, 0.0290175, 0.030945, -0.0325294, 0.035861, -0.0680891, 0.14479, 0.0893405, -0.0848302, -0.0594544, -0.066841, -0.0748673, 0.0242222, -0.0575231, 0.0251917, -0.0400474, -0.0792735, -0.0245423, -0.0299534, 0.0423885, -0.0582981, 0.00411039, 0.0315428, -0.0709198, -0.00677351, 0.0310956, 0.0733386, -0.00617555, 0.0315666, -0.0487413, -0.12831, -0.0134634, 0.0573354, -0.0138474, -0.0301613, -0.0890659, -0.0145201, 0.0148291, 0.0586883, 0.0406452, -0.0739334, -0.0497084, 0.0683632, 1.41899e-18
-0.096402, -0.0127757, 0.0207288, 0.03458, 0.060402, -0.0473582, -0.00831433, 0.0380568, 0.0299184, -0.00771973, 0.0370237, -0.0134786, 0.0319643, -0.043344, -0.0448966, -0.0351677, -0.0431041, -0.026381, 0.0358976, -0.0309831, -0.0685854, 0.0718669, -0.0324541, -0.00939458, -0.0265716, 0.00113919, 0.0691433, 0.0534639, 0.0190205, -0.0375819, 0.0631784, -0.00342079, 0.0415815, -0.00453863, 0.0588835, 0.0252777, 0.0579335, -0.0277233, 0.0569553, 0.0561733, -0.0932724, 0.0651875, 0.004198, -0.00191418, 0.0159526, -0.00463501, 0.0216938, 0.0529932, -0.0247257, 0.0703596, -0.0325571, 0.0539877, -0.0695673, 0.0410536, 0.0776806, 0.0196852, -0.039775, -0.0448588, 0.0266271, 0.0837463, 0.0180637, -0.0479706, 0.0473424, -0.056755, 0.0201961, -0.0208183, 0.0731146, -0.0249755, -0.0318294, -0.0648135, 0.0108218, 0.0166148, -0.020811, -0.069528, 0.0146999, -0.0755283, -0.0190139, -0.0552115, -0.0486931, -0.0318167, -0.0306003, 0.0603327, 0.0036564, -0.0575012, -0.0943567, -0.0413403, -0.0181451, 0.0593809, -0.0273823, 0.0380201, 0.0565768, -0.0365758, -0.00252077, -0.00387358, 0.0786453, 0.0146616, 0.070482, 0.0291769, -0.00492441, -0.0347027, -0.0110128, 0.0791022, 0.0495829, 0.0153725, 0.0996014, -0.034411, -0.0324345, -0.0234127, -0.000914719, -0.0867457, 0.00389202, 0.0350972, -0.00722346, 0.0272693, 0.0194004, -0.0569418, -0.0580964, -0.0715486, 0.00253674, -0.0617156, -0.0403919, -0.0631009, 0.0312719, 0.0103913, -0.1067, -0.0236256, -0.0387527, 0.0440352, 0.009375, 0.00353527, 0.0176287, 0.0155065, 0.0188863, -0.0103665, -0.0248317, -0.0860568, -0.0445323, -0.00274895, -0.0215837, -0.052301, -0.0603781, 0.0650267, 0.032303, -0.0440401, 0.0305027, -0.00130641, -0.0864824, -0.077305, -0.00558955, -0.026915, -0.0699449, 0.0586935, 0.0255565, -0.051865, 0.0242343, -0.075504, 0.0395026, 0.0301277, -0.00104635, 0.0491105, -0.0288564, -0.0586749, -0.0686811, -0.0547494, -0.0373675, -0.00487883, -0.0837266, -0.0342163, -0.0192347, -0.0943616, 0.182961, 0.00885366, 0.0609936, -0.0147801, 0.0127117, -0.0337553, -0.0233414, 0.0396303, -0.0185552, 0.0290647, -0.0329014, -0.0389486, 0.037471, -0.0517099, 0.166836, -0.0220296, -0.00871466, 0.09207, 0.0321899, 0.0422046, 0.0535781, 0.0127667, -0.0523189, -0.00849495, -0.0499614, -0.0924, -0.0460503, 0.00434592, -0.0103767, 0.0145482, 0.0198787, 0.0268077, -0.0165515, -0.0551676, -0.0105252, 0.00885862, 0.0207907, -0.0377566, -0.00908084, 0.0523127, -0.0253968, 0.110075, -0.0777556, -0.0251223, -0.0424323, -0.106668, 0.0327314, 0.0206197, -0.0436018, 0.0398243, -0.03526, 0.0518901, -0.0261004, -0.000599488, 0.00132511, 0.0666683, -0.056695, 0.0945489, 0.0194136, 0.0300004, 0.0556933, 0.0550834, 0.00369073, -0.0589232, -0.0919679, 0.0250418, -0.012355, -0.0519399, 0.0661854, -0.101055, -0.0152802, 0.0945905, 0.0462386, 0.0069103, -0.079281, 0.0231701, 0.0665054, -0.012463, -0.0585496, 0.0519216, 0.00902507, -0.00342975, -0.0159751, -0.100194, 0.00645687, -0.0575233, -7.06663e-18
-0.0120445, -0.0877776, 0.0494522, -0.133949, 0.0236494, -0.0790693, -0.0234129, -0.0517618, 0.0573045, -0.0183133, -0.020588, -0.0131042, -0.0291481, 0.0141011, -0.0339009, -0.0348613, 0.0267736, -0.0786638, 0.0594639, 0.0018142, 0.0285832, 0.0409704, -0.00290024, -0.0368916, 0.0611622, -0.0149607, 0.0273196, 0.0973712, -0.0181923, 0.0397334, 0.0551196, -0.0468811, 0.112235, 0.0908769, -0.0807623, -0.0666116, 0.0104055, 0.0354028, -0.020001, -0.0320805, -0.0506128, 0.035158, 0.0469084, 0.0552055, 0.0377936, -0.0806156, 0.0737398, -0.0573828, 0.00776792, 0.0450128, 0.0358603, -0.00676335, 0.0769221, 0.0624568, -0.0711588, -0.0239179, 0.00986549, -0.0653415, 0.0277991, -0.00581732, -0.00950703, -0.0231631, -0.0219438, 0.117267, 0.00896466, -0.0109219, -0.0170613, 0.0490945, 0.0422665, -0.0410736, -0.0204301, 0.0191403, 0.0380186, 0.000883623, -0.028708, 0.0133286, 0.011316, 0.0682575, -0.0152885, 0.0336572, 0.0414708, 0.000928121, 0.0531926, 0.0886486, -0.0118598, 0.0371152, -0.0599262, 0.172231, -0.0374399, 0.00434857, 0.0573356, -0.0128783, 0.105296, 0.114441, 0.0073846, 0.0303338, -0.0181536, 0.0321292, 0.00744489, 0.0187575, -0.0651243, 0.0196256, 0.0807908, -0.0307231, 0.00317074, -0.0580074, 0.0473316, 0.0619717, -0.120941, -0.0273641, -0.00840821, 0.037854, 0.0177404, -0.00888472, 0.0741874, 0.0518993, 0.0189653, 0.0599202, 0.0454515, -0.0132464, 0.0376517, 0.0218423, -0.0129735, 0.0217518, -0.0120822, 0.0618685, -0.0574355, -0.00458879, 0.00992802, 0.124076, 0.0143353, 0.0397882, 0.0230978, -0.0745259, -0.00397842, -0.0735644, -0.0228309, -0.0348714, -0.0811956, -0.0453668, -0.117227, 0.0340542, -0.0201294, 0.0377229, 0.0449085, 0.0723634, 0.0194638, 0.0532051, 0.0119934, 0.000536015, -0.0951855, 0.0865273, 0.05351, 0.0464859, -0.00977411, 0.00766453, 0.102835, 0.0105746, 0.057497, 0.00869114, -0.0950479, -0.0477655, -0.010584, 0.0656976, 0.0343877, 0.0653392, 0.0393586, 0.0547216, 0.0879854, 0.017483, 0.0583638, -0.10391, 0.00146687, -0.0247124, 0.107278, 0.0185347, 0.0867996, 0.0440334, 0.115068, -0.0358351, -0.0029723, 0.0539186, 0.00145828, -0.00597516, -0.0224465, 0.067211, -0.03394, 0.060044, 0.0418294, -0.0463285, -0.034998, -0.0108421, 0.0322768, -0.0600664, -0.0164304, 0.000666503, 0.0939318, -0.140897, -0.0474462, -0.00228636, 0.102954, -0.0802624, -0.0150339, -0.0317328, -0.0163907, 0.0305735, -0.057386, -0.0291707, 0.101789, -0.0680523, 0.0206465, -0.00998116, 0.0411347, -0.0507953, 0.0492707, 0.0146452, -0.00528721, 0.00393451, 0.0337111, 0.00458574, -0.0565983, 0.0801694, -0.0129793, -0.0117673, 0.0318744, 0.0507674, -0.0344561, -0.0587982, 0.0343822, 0.00945975, -0.0118111, 0.0849809, 0.0228448, -0.0182601, 0.0513058, 0.0173027, -0.0516914, 0.0351345, 0.0211487, 0.0248821, -0.0312987, -0.00783707, 0.0361301, 0.00765687, 0.127551, -0.0466479, 0.0546953, 0.0153165, 0.0518897, 0.0225511, 0.0200706, -0.114707, -0.00376937, -0.0467187, 0.0538328, -0.0360566, -6.78346e-17
0.0959904, -0.0578927, 0.0598459, 0.019279, 0.0279201, 0.0218441, -0.0553232, 0.0196696, 0.0400008, 0.0536936, -0.0552445, -0.036873, 0.00696945, 0.0913128, 0.0528901, -0.100534, -0.0779446, -0.028035, 0.0513877, 0.0606499, 0.0536871, -0.00654021, -0.0572151, -0.00851715, -0.015726, 0.0338329, -0.0531904, -0.0176323, -0.00574352, -0.0411513, 0.0442492, -0.0399277, 0.0774269, 0.0674924, -0.106296, -0.0360453, -0.0110339, 0.0973824, 0.0433348, 0.0326042, 0.0159166, 0.131206, -0.0248348, -0.014447, 0.0364062, -0.0260077, 0.0179359, 0.00679995, -0.0531301, -0.0351008, -0.0424824, -0.0097589, -0.0567518, -0.00267654, 0.00911284, -0.00288118, -0.00319537, 0.00696184, 0.0591411, -0.00274572, 0.035948, -0.0457662, 0.0480955, -0.0558301, 0.0378862, -0.045472, 0.0107714, 0.00638998, -0.102299, 0.0106293, -0.0360083, 0.0368806, -0.00311238, -0.018989, -0.0379058, 0.0497622, -0.00859254, 0.0120927, 0.052547, -0.0064594, 0.0697015, 0.0226839, 0.0824393, -7.29872e-05, -0.059939, -0.0789942, -0.0291566, -0.0737633, 0.0128653, -0.0901685, 0.0290291, 0.0305079, 0.0230178, -0.0321935, -0.00375673, -7.27236e-05, 0.0270958, -0.0710187, -0.0455982, -0.0804292, 0.0438618, 0.00959252, 0.0297963, 0.0938414, -0.0955159, 0.0368051, -0.0707283, -7.69542e-05, 0.00822649, -0.012681, -0.0552537, -0.0297244, 0.031591, -0.00224129, -0.0280317, -0.00706828, 0.0814767, 0.0313099, 0.0399824, 0.00587516, -0.0189852, 0.00723418, 0.0454492, -0.0125446, -0.0475273, 0.0745227, -0.0269717, 0.0942677, 0.0148349, -0.0453143, -0.0199955, 0.0122359, 0.00554336, -0.000180885, -0.0752232, 0.0838582, -0.0854072, -0.0531901, 0.0123537, -0.00656018, -0.0424955, -0.000659093, -0.0139778, 0.131116, -0.007386, 0.00567304, 0.0352492, -0.0894924, -0.0511289, 0.0224721, -0.0773291, -0.0669605, 0.0564094, 0.0423416, -0.0209169, 0.0494315, -0.0441459, 0.0248373, -0.0197797, 0.0127114, 0.00870389, -0.0373798, -0.0278593, -0.0299943, -0.0144852, 0.0749019, -0.0323199, -0.0229508, 0.0475651, 0.00813175, 0.0428734, 0.0039411, -0.0583713, 0.0320194, -0.069172, -0.0152098, 0.000988952, 0.02976, -0.0234005, 0.0168563, 0.0418672, 0.013197, 0.0590036, 0.0555795, -0.0373676, 0.031833, 0.0679165, 0.0239598, 0.0224963, -0.114529, -0.0502015, 0.00810052, -0.0951272, -0.0574196, 0.0610006, -0.00827761, -0.0639251, 0.0662672, 0.0361906, 0.0458339, 0.0177466, -0.0983034, -0.0898523, 0.106367, 0.0446433, 0.0122435, -0.0668966, 0.0104886, 0.100924, 0.0733847, -0.00652555, 0.0690233, -0.0327305, -0.00318938, -0.100203, 0.0544015, 0.0146375, -0.0626092, -0.018423, 0.00541906, 0.0149735, 0.0233945, -0.0196954, 0.0863203, -0.0033948, 0.0419918, 0.00849192, -0.082052, -0.00136741, 0.0475694, 0.0444569, 0.0665545, -0.0404092, 0.0412408, 0.00907473, -0.0270527, 0.0469544, -0.0503635, 0.00794601, 0.139843, 0.027735, -0.00039226, -0.0256718, 0.12774, -0.076203, 0.0277505, 0.100288, 0.0784214, 0.0251327, 0.0105987, -0.00248312, -0.0423127, -0.0559816, -0.0404046, 0.00793237, -0.0266128, -5.3448e-18
-0.0524522, 0.0234366, -0.0167057, 0.112848, 0.114889, -0.00734615, -0.0487954, -0.0317707, -0.105887, -0.135926, 0.02045, -0.0534993, -0.0352638, 0.0212686, 0.089339, 0.0110244, 0.0935042, 0.0258955, -0.0383037, -0.0314533, -0.0222703, -0.0755627, 0.0868768, 0.065144, -0.0177643, 0.0134052, -0.00986297, 0.0506655, 0.05807, 0.00448295, -0.119231, -0.0690722, -0.0125577, -0.0232019, -0.0321016, 0.0449025, -0.0883261, 0.0400023, -0.109529, -0.0484388, 0.0507827, -0.0396381, -0.0266684, -0.0446533, 0.00814619, -0.058525, -0.0763169, 0.0330302, 0.0273223, 0.0883214, 0.0140842, -0.101955, -0.0277492, -0.0170075, 0.00310666, 0.0168588, -0.0672626, -0.048074, -0.0834921, -0.0087593, -0.00479546, -0.0730104, 0.00507332, -0.000214453, -0.00469393, -0.0266056, -0.0101311, -0.0340739, -0.0134904, 0.0569336, -0.088933, 0.0435698, -0.0455732, 0.000658559, 0.0111753, 0.0464235, -0.0753673, 0.0193857, -0.05029, -0.0999571, 0.0496048, -0.00887546, -0.0424966, 0.0177785, -0.06282, -0.0608453, -0.0542362, -0.0245314, 0.0172703, 0.020005, -0.0869285, 0.0275528, 0.023734, -0.0292186, 0.077683, 0.0888071, 0.0164685, 0.0277995, -0.0746741, -0.0638009, -0.046541, 0.015467, 0.0454214, 0.0231131, -0.0197328, -0.00850429, -0.021669, 0.0246315, -0.0299425, 0.0523072, -0.0302013, -0.0482122, 0.0245907, 0.000284214, -0.00790838, 0.0152713, -0.0116274, 0.0907607, -0.0216008, -0.0228043, -0.0326802, 0.0341454, -0.0692613, -0.00877565, 0.0675626, 0.0258782, -0.0585026, -0.0477506, -0.0696598, 0.0508415, 0.00894755, 0.0107329, -0.0702149, -0.0366361, 0.0561722, 0.047791, -0.00663657, 0.000643531, 0.0207648, 0.00667897, 0.0372322, -0.0259245, 0.00308577, -0.0416064, 0.0208595, -0.0140672, -0.0391113, 0.0785666, -0.105777, 0.0323114, 0.0261209, -0.00273523, 0.0141122, -0.00374844, -0.0331297, -0.0106225, 0.12999, 0.00302532, -0.0981357, -0.00631326, -0.0601038, 0.0295068, 0.0947859, 0.00651597, 0.0345898, -0.0276873, -0.0934212, -0.0275519, -0.00640321, 0.0146687, 0.0830697, -0.0590827, -0.0230335, 0.0413955, 0.0432871, 0.0227366, 0.0287035, -0.0635243, 0.0517798, 0.054225, 0.0703927, 0.0117401, 0.0014161, -0.00649109, -0.00382128, -0.0424874, -0.0316286, -0.0993465, -0.0508501, 0.00118145, 0.0435316, -0.0676131, 0.0626223, -0.0542539, 0.125468, -0.0598243, -0.054639, -0.0251101, -0.0719128, -0.0119638, 0.103126, -0.0686831, 0.0384147, -0.0517735, 0.0675687, -0.000808132, 0.0456753, 0.14124, 0.0309625, 0.0372493, -0.0501925, -0.0928717, -0.0361664, -0.106, -0.0447677, -0.0767456, -0.0501782, 0.0523014, -0.0131679, -0.132935, 0.101293, 0.00593923, -0.0762246, -0.088775, 0.013814, -0.0256404, -0.0505126, -0.0128192, 0.00202886, 0.0549099, -0.00736863, -0.0156899, -0.0199035, 0.0229576, 0.0124551, -0.0356875, -0.0101919, 0.0935901, 0.0201371, 0.00160371, 0.0470151, -0.0362992, -0.00792155, -0.0303838, 0.0184501, -0.00764176, 0.0198082, -0.00754082, 0.071222, 0.0510574, -0.0375434, -0.155929, -0.0953998, 0.00924806, 0.0292109, 0.0271791, -1.53106e-18
0.00922626, -0.0128256, 0.0672902, -0.00341993, 0.0485889, 0.00208664, -0.0297174, 0.020576, 0.064413, 0.0409183, -0.0114201, 0.0476142, -0.0207842, 0.0497249, -0.00122336, -0.0323359, 0.0381863, 0.0247492, 0.051439, -0.0275499, 0.0514112, 0.0262116, 0.00294015, -0.0111903, -0.0420806, 0.00607356, -0.0243815, -0.0190201, 0.04589, 0.00791959, -0.0636122, 0.0128525, -0.051447, -0.0059331, 0.0511824, -0.0858725, 0.0742289, 0.0431697, 0.0809564, 0.0726224, 0.0470869, 0.0496041, 0.0316937, 0.0623903, -0.0378475, 0.042041, 0.0506924, -0.0433286, -0.0859791, -0.0139146, -0.00772677, 0.0624562, -0.0545715, 0.0133016, -0.0686444, 0.055634, -0.041328, -0.0453142, -0.0560666, 0.0464225, -0.118751, -0.0294518, -0.115496, -0.0420741, 0.0621971, 0.0354653, 0.0271092, -0.0637079, 0.0362861, 0.058709, -0.0146477, -0.0329052, 0.0372181, -0.0208053, 0.00983456, 0.0403312, 0.0561189, -0.0661903, -0.0167839, 0.0204421, -0.0265035, -0.074716, 0.0338802, 0.00159079, -0.0123169, -0.0385517, 0.0166453, -0.0789362, -0.0103545, -0.0473785, -0.0732395, -0.0781464, -0.0193389, -0.0140499, -0.0738973, 0.00718921, -0.0712405, -0.0417198, -0.0376077, 0.0103915, -0.00945459, 0.0682866, -0.0033834, 0.0671923, -0.0374032, 0.0276785, -0.00296787, -0.00673483, 0.0279522, 0.0434735, -0.0214727, -0.0327281, -0.0764248, -0.0189808, 0.0229654, 0.0370649, -0.0430415, -0.0518337, -0.0696709, 0.0560431, -0.019787, -0.070051, 0.134084, -0.11986, 0.0354482, -0.028062, 0.00670729, 0.017596, -0.0205669, -0.0850921, 0.0303946, -0.0474697, -0.000685878, -0.0243331, 0.128507, -0.0589419, -0.0504134, -0.00621042, -0.0312511, 0.00886812, 0.0689175, -0.083693, -0.0237711, -0.0194454, -0.0198079, 0.0290496, 0.0411451, -0.0155291, -0.0276145, 0.0506873, -0.0196946, -0.035056, 0.0620747, 0.0620561, 0.00921368, -0.0756401, 0.0218073, 0.0315152, 0.148664, -0.0703844, 0.0399717, 0.0256584, 0.0388157, -0.0600575, 0.0369764, -0.045312, -0.0174056, -0.0186735, 0.0324603, -0.00787339, -0.0486862, 0.0834316, -0.00823913, -0.0119405, -0.0523836, 0.0505747, -0.0655122, 0.0729803, 0.0183502, 0.00904491, 0.0333923, 0.0127062, -0.0521534, 0.0346382, 0.0106269, 0.107823, -0.00570842, 0.0173353, 0.0395184, 0.0338135, -0.0170262, 0.0370437, 0.0734344, -0.0521513, -0.062094, 0.0289441, -0.0909513, 0.092828, -0.065785, -0.0370729, 0.00535553, 0.0380621, -0.00477071, 0.0288818, -0.086795, -0.00924166, 0.092907, -0.101475, -0.086221, 0.05742, 0.0500881, 0.0738319, 0.0948925, 0.0537198, -0.00745598, -0.0379387, -0.0444628, 0.0590731, -0.0455848, 0.0703374, -0.0255149, -0.0515694, -0.00311344, -0.00527241, 0.0561037, -0.0330942, -0.016086, 0.0378745, 0.06707, -0.0924709, 0.0233195, -0.0173392, -0.0531283, -0.0615567, -0.0275616, -0.0207715, -0.00189276, -0.0171596, 0.00835578, 0.0276425, -0.0107351, -0.00308873, 0.00549242, 0.0700433, -0.0222165, 0.035951, -0.0193703, 0.0301752, 0.0268884, -0.0347609, 0.0293106, 0.0127795, 0.0638109, 0.10846, 0.0154157, -0.0230144, 2.09319e-18
-0.0442186, -0.0133262, -0.0249565, 0.067238, -0.0386862, 0.0565751, 0.0696966, -0.101029, 0.0105044, -0.0560661, -0.0285671, 0.0671053, -0.0634033, -0.0843345, -0.0020781, 0.00695151, 0.030379, 0.0296545, 0.0369754, -0.0640649, 0.0220457, 0.0486512, 0.0386542, 0.024693, -0.0712365, -0.0300909, 0.0229221, -0.0404036, 0.00880778, -0.00906507, -0.124025, -0.0657018, -0.0765207, -0.0253465, -0.00983158, -0.0324483, -0.075884, -0.0153466, -0.1114, 0.0376984, 0.0956062, 0.0368174, -0.0260309, 0.0318367, 0.0147367, 0.055055, -0.0207105, -0.0604587, -0.0862289, 0.0101429, -0.103164, -0.0497365, -0.0411157, -0.01533, -0.0285124, 0.0368738, -0.0571001, 0.0306793, 0.0529821, -0.054451, -0.00845995, 0.01235, 0.00591597, 0.0218459, 0.024107, -0.0409364, -0.0137699, 0.0184221, -0.0725542, -0.0507614, 0.00689346, -0.0655208, 0.0712727, -0.0602908, 0.00980801, -0.060062, 0.00238284, -0.0457298, 0.0278311, 0.0337414, -0.0452748, 0.0443656, -0.0948144, -0.053673, 0.0298147, -0.0183856, -0.0526065, -0.0985273, -0.018178, 0.0637978, 0.030355, -0.0113997, -0.0246608, -0.0582584, -0.00924841, -0.0821312, 0.00772059, -0.0771932, -0.0907479, -0.00253007, -0.0125139, 0.0168076, -0.0135918, -0.0274517, -0.0447288, 0.0608277, 0.0236216, 0.050198, -0.0129574, -0.0563001, -0.0460108, 0.0148889, -0.0159947, 0.0172074, 0.0640847, -0.0272184, -0.0771128, 0.00532432, -0.0393502, 0.0430099, 0.0184239, 0.0721571, -0.0747774, 0.0249242, -0.0242165, 0.00232584, 0.00619034, 0.0107242, -0.132092, 0.0661043, 0.0155958, 0.0770308, 0.0204382, 0.094823, 0.0358364, -0.0638973, -0.00951406, -0.054967, 0.0303403, -0.0419367, -0.0252096, -0.0686342, -0.0743993, 0.0196918, 0.0449453, 0.00949747, -0.0448682, 0.0134568, 0.0304436, -0.0937567, -0.0828242, 0.00444802, -0.130408, -0.058533, 0.0245201, -0.0499776, -0.137088, 0.0131167, -0.01663, -0.0907422, -0.0165827, 0.0161925, -0.0360723, -0.0582873, -0.0692056, -0.0205859, 0.00598422, 0.0870823, -0.0310595, 0.0156757, -0.00889731, -0.0407549, -0.0595235, 0.0688817, -0.00867961, -0.0217193, 0.0647528, -0.000869837, 0.0173053, -0.00390996, -0.0736163, 0.013688, -0.0580614, 0.016941, -0.0300918, -0.102336, -0.0455863, -0.059209, -0.0502738, -0.074304, -0.0469233, 0.0441353, -0.0733861, -0.0439089, -0.0148891, 0.00166304, 0.0335401, -0.0392942, 0.0898238, 0.10327, 0.0476767, -0.00404769, 0.0294888, 0.0249161, -0.0209194, 0.0192147, -0.106818, -0.0708228, 0.120935, 0.00101547, -0.048503, 0.0216838, 0.0839063, 0.0548554, 0.0170653, -0.0217646, -0.0277519, 0.0531608, -0.0815453, -0.0350806, -0.00338657, -0.12806, 0.038808, -0.000363864, -0.0165223, -0.0155978, 0.049016, -0.0565587, 0.0606597, -0.0263739, 0.0134563, -0.0669515, -0.0565493, -0.0743793, 0.00218504, 0.0197652, -0.00345071, -0.0350346, -0.0997002, -0.0768453, -0.0725974, -0.0205544, 0.00382749, -0.0629278, 0.0423851, -0.0724963, 0.0100383, 0.00586417, 0.0346433, -0.0865954, -0.0775694, -0.0670655, -0.014015, -0.063033, -0.0201022, 0.0561427, 3.84363e-17
0.0187689, 0.14283, -0.0128397, -0.0739578, 0.0128755, 0.00438471, 0.0905523, 0.0132863, 0.0277851, -0.0420056, 0.077305, -0.0455138, -0.0403081, -0.101517, 0.0438029, -0.0278077, -0.0715458, 0.0756787, 0.00901342, 0.00115729, -0.0487622, -0.0039726, 0.07589, 0.0312742, -0.050051, -0.029497, -0.0219528, -0.0198498, -0.00011777, -0.0368859, -0.038099, 0.0830746, 0.0391893, -0.115484, 0.0294272, 0.0222554, -0.0258498, 0.0217329, -0.00545004, 0.0281601, -0.00323584, -0.0360802, 0.0102486, 0.0430669, 0.0247442, -0.0646078, 0.0265844, 0.0351552, 0.0237552, -0.0300171, 0.0438044, -0.0288115, 0.0179311, 0.0558533, -0.0270687, -0.0215379, 0.00359479, -0.0100863, 0.0153668, 0.00227528, -0.00672435, -0.0471962, 0.0408662, 0.000777203, -0.108752, -0.022367, 0.0395746, 0.0101821, 0.0721019, 0.00574935, -0.048934, -0.0638206, -0.0485257, 0.0116653, -0.0309151, -0.0376045, 0.00449833, -0.0311324, 0.0525057, -0.0453795, -0.0657597, 0.0285301, -0.0041687, 0.116527, -0.0138199, 0.10937, -0.0122176, 0.0181919, 0.0831461, 0.0640254, -0.0193524, -0.0187903, 0.040199, -0.0541237, -0.029237, -0.0835968, 0.061848, -0.000106467, -0.0325147, -0.0998066, 0.0439197, -0.146991, 0.0144191, -0.0434172, 0.0917375, -0.0372412, 0.0385344, -0.00117767, 0.0150199, 0.0200156, -0.0486305, 0.0336162, 0.0095488, 0.0404049, -0.0216525, -0.00156162, 0.0368786, -0.0861218, 0.0981143, 0.0386782, 0.0415863, -0.111527, 0.0109741, 0.0878083, 0.0154439, -0.0645588, -0.00752889, -0.0309216, -0.0893625, -0.00679398, -0.0320312, 0.00326206, -0.0106476, -0.00194236, 0.0249874, -0.0383372, -0.0432256, 0.0235726, -0.000875723, -0.00460125, 0.00647572, -0.0418687, 0.00184126, 0.0182545, -0.0570041, -0.0518183, 0.0124749, -0.0236732, 0.0276731, -0.0649779, 0.068711, -0.0127512, -0.0432283, -0.0741954, 0.0441917, 0.011329, -0.0273676, 0.0226935, -0.0188704, -0.0451928, 0.0225924, 0.11254, 0.058306, -0.00673336, 0.0219132, -0.0632975, 0.0307472, 0.0590344, -0.00551419, -0.0251315, -0.00973376, -0.0616843, -0.0864208, -0.105026, 0.0489591, -0.0649947, -0.100282, -0.02375, -0.0238121, -0.0315865, 0.0625343, -0.0136561, -0.0288656, -0.07107, 0.117065, -0.0313894, 0.14799, 0.00393911, -0.0885316, -0.0238919, 0.0205286, 0.0104803, -0.0570503, -0.0661276, 0.00703472, -0.0120088, 0.0694912, -0.00461238, 0.0983875, -0.0351267, -0.00458091, -0.0531377, 0.025538, -0.0137174, 0.0276359, 0.0583373, -0.0394404, -0.02217, 0.020267, 0.0094249, -0.0132535, -0.0672389, 0.121683, 0.0485901, 0.0503815, -0.0065844, 0.0123964, 0.0227055, 0.0545369, 0.068479, -0.00281214, -0.0102134, -0.0657624, -0.054066, 0.0248544, 0.0152552, 0.0535945, 0.0579121, -0.0372715, 0.0355018, 0.0193749, 0.0142017, 0.050445, 0.0204953, -0.0370305, -0.0331521, -0.118717, 0.081252, -0.065618, -0.051343, 0.0966599, 0.0403699, 0.0332515, -0.0166198, -0.00165067, -0.0861769, 0.0195414, -0.0224163, -0.0202696, 0.0219935, 0.00739938, 0.0967684, 0.0235695, 0.00419303, 0.0352707, 0.0230962, 2.23443e-17
