-0.042115, 0.0135283, 0.248809, -0.196389, 0.196245, -0.104625, -0.0391896, -0.155522, 0.243522, -0.00665441, -0.0223552, 0.0800046, -0.0017932, 0.204274, 0.155221, -0.0598924, -0.0264098, -0.0877288, 0.00780465, -0.0224728, 0.0683081, -0.232845, 0.116671, -0.0459905, -0.0303159, 0.0324032, -0.195161, 0.051529, -0.0741424, -0.0170404, -0.0551277, -0.0475052, 7.22484e-17
0.067651, 0.0784185, 0.14343, -0.231495, -0.0383497, -0.0176707, -0.0804041, 0.201329, -0.238732, 0.101162, -0.0326799, 0.158869, 0.119781, 0.163994, 0.0463553, 0.126569, -0.0225262, 0.0172899, 0.0697509, -0.164161, -0.0289883, 0.0094649, 0.102375, 0.0886392, -0.0207782, 0.0193992, 0.0576663, -0.234654, -0.235191, -0.0645675, -0.0669183, 0.149584, 1.71521e-17
-0.211707, 0.162397, -0.0250054, -0.228185, -0.154939, 0.42979, -0.253013, -0.108005, -0.14482, -0.182283, -0.0641097, -0.0453537, 0.238853, 0.105525, -0.159709, 0.0961583, 0.155702, 0.133707, -0.153254, -0.0684109, -0.190901, -0.380081, -0.0822214, 0.00865925, 0.171107, 0.0097945, -0.0869317, 0.135844, 0.0684938, -0.029427, 0.178066, 0.02314, 5.95947e-17
-0.127021, -0.279823, -0.118592, -0.110397, 0.154524, 0.0431589, 0.0985527, 0.0277012, 0.02435, -0.032898, -0.140636, 0.107042, 0.109697, -0.232722, 0.0921919, 0.175384, -0.19118, -0.0916613, -0.0382752, 0.0233103, 0.0898496, -0.214317, -0.00507564, -0.186022, -0.00502371, 0.0947351, 0.100381, -0.118558, -0.0718804, 0.32454, 0.147751, 0.161228, 2.16102e-16
0.0256179, -0.00120042, -0.0572271, 0.0749281, 0.152738, 0.004779, 0.109533, 0.139516, -0.168776, 0.0790927, 0.148775, -0.0145943, -0.118076, 0.0619553, 0.128057, 0.0701446, -0.241034, 0.238224, -0.189121, 0.0391351, 0.273253, -0.0847926, 0.042917, -0.0587067, -0.0702712, 0.111602, -0.228025, -0.0670597, -0.212947, 0.135676, -0.0957077, -0.0814406, 2.28238e-18
-0.159045, 0.100183, 0.0152866, -0.272468, -0.0330869, -0.0675774, 0.186356, -0.0201208, 0.174477, 0.123594, 0.117073, 0.0997813, 0.0632024, -0.210567, 0.0479407, -0.197157, -0.0615385, 0.0656432, 0.102631, -0.189823, -0.0510236, 0.118287, 0.0718877, 0.102843, 0.10502, -0.266342, 0.308742, -0.131753, -0.0492703, -0.210203, -0.0912979, 0.200653, -4.78627e-18
0.178055, 0.142026, -0.185355, 0.396025, 0.107923, -0.136327, -0.228194, -0.00732398, -0.305452, 0.0542603, -0.0400024, 0.029127, 0.0172156, -0.0198478, -0.180261, 0.212275, -0.11729, -0.30668, 0.0270579, 0.0712675, -0.0247125, -0.097259, -0.0441323, -0.211872, 0.125813, 0.0363455, -0.0875472, -0.0475598, -0.0742101, -0.257591, -0.0725736, -0.124319, -5.15973e-18
-0.244223, 0.237216, -0.0764575, 0.282298, 0.11363, 0.129052, -0.0584453, 0.208304, -0.0152077, 0.194208, -0.172443, 0.0299801, -0.128704, 0.0922852, 0.0978395, 0.012111, -0.275133, 0.185871, -0.127861, -0.0348276, 0.225851, 0.103253, -0.235564, -0.0872103, 0.161952, -0.199467, 0.19025, 0.258325, 0.0744077, 0.135622, 0.0804178, 0.0758855, 3.81841e-17
-0.056722, 0.0971221, 0.135051, 0.26346, 0.300138, 0.0933761, -0.0311794, 0.234466, -0.286656, -0.0851351, 0.145295, -0.140904, -0.055536, 0.0621476, 0.0706082, 0.0761873, -0.0132118, -0.193627, -0.00367602, 0.223356, 0.178108, -0.137866, -0.0346533, 0.048178, 0.0497007, 0.151945, -0.213848, 0.230181, 0.145709, -0.0773985, -0.156484, -0.214162, 2.28549e-18
0.0805699, -0.0639915, 0.0948249, 0.219161, 0.220234, -0.296262, 0.0081824, -0.00219475, -0.143617, -0.0132817, -0.0340966, 0.0533419, -0.0728214, 0.148133, 0.126055, 0.120151, 0.0770716, -0.158402, -0.225099, -0.2966, -0.0108667, -0.104521, -0.0437344, -0.00563573, 0.0221108, 0.225316, 0.0717204, -0.184171, 0.492156, -0.0116798, 0.0175154, -0.0416767, -2.60136e-16
0.0415352, -0.0509454, 0.134868, -0.0757997, 0.251451, 0.243021, 0.263699, 0.261436, 0.0361101, 0.010783, 0.100926, 0.0659308, -0.00657308, -0.172019, -0.31783, 0.00189357, -0.0782895, 0.358757, -0.211298, 0.111517, 0.21379, -0.0548991, -0.224286, 0.159089, -0.269949, -0.150234, -0.0565004, -0.133734, -0.0546988, 0.0289421, -0.0422988, 0.0249369, -3.48824e-17
-0.00798065, -0.0995205, 0.114197, -0.0554819, -0.254884, 0.17195, 0.00537009, 0.061707, 0.029799, -0.00805679, 0.0250649, -0.0234375, 0.277821, -0.0789558, -0.173026, 0.0191048, 0.0650296, 0.143006, 0.156441, 0.173469, 0.0218513, -0.117769, 0.163366, 0.291865, -0.0240745, -0.0294132, 0.123352, -0.245532, 0.142382, -0.118241, 0.40087, -0.273021, -8.99045e-17
-0.130413, -0.271124, -0.0866459, 0.0378498, -0.104279, 0.107894, -0.0313889, 0.0398064, -0.0824813, -0.12719, -0.097292, 0.284153, -0.161086, 0.0005825, -0.0827205, 0.0387627, 0.00662337, -0.0214198, 0.136746, -0.0922869, 0.079353, -0.189939, 0.263085, -0.320416, -0.157026, -0.259666, 0.150234, -0.123229, 0.103842, -0.103971, 0.128907, -0.0921351, -8.22048e-17
-0.0254302, -0.0383919, -0.168004, -0.128894, -0.176278, 0.221995, 0.154351, 0.281713, 0.139908, 0.135838, 0.102614, -0.0330264, -0.0225841, 0.085001, 0.0261417, -0.00980838, -0.0632868, -0.197016, 0.0253919, 0.0102141, 0.00827029, 0.0547766, -0.00929066, 0.218919, 0.160494, 0.139503, 0.151294, 0.131399, -0.0710587, -0.122284, 0.155402, 0.108263, 1.1349e-17
0.268295, -0.128962, 0.0855394, -0.0175096, -0.113458, -0.00549122, 0.251658, 0.0635621, 0.00632233, -0.133606, -0.216547, -0.234672, 0.0460134, 0.00763987, 0.470952, 0.19906, -0.194517, -0.302323, 0.144793, 0.182035, 0.0169453, 0.0354566, 0.0963154, 0.241624, -0.298515, 0.0582757, 0.147701, 0.00347489, -0.065592, -0.409184, -0.015581, -0.144172, 9.9359e-17
-0.0907184, -0.184231, -0.194768, 0.185344, -0.0295008, 0.217761, -0.0149598, 0.186778, -0.243425, -0.120954, 0.119857, -0.158618, -0.0221994, 0.234367, -0.128525, 0.0911389, 0.242752, -0.0116612, 0.237774, 0.100547, -0.13513, 0.0474988, -0.0151337, -0.00913276, -0.0955379, 0.0343372, 0.0264132, -0.162649, -0.300562, -0.0324539, -0.0710146, -0.0281604, -4.69367e-18
-0.0481352, 0.075933, 0.0841399, -0.178365, 0.237402, -0.0235786, 0.0460556, -0.154776, -0.0550874, 0.179282, 0.00475432, -0.108218, 0.0830653, 0.195953, 0.176275, 0.0669902, -0.0691028, 0.0881585, -0.0255965, 0.0707907, -0.211764, 0.0159446, 0.0809174, 0.354209, 0.157932, -0.104833, 0.0810577, 0.074501, -0.083199, -0.0349644, -0.0821657, 0.135025, -2.83598e-18
-0.0181303, -0.00908827, -0.0627173, -0.0370694, 0.0353376, -0.0963158, -0.249109, -0.0656064, -0.0436997, -0.228978, -0.0610138, -0.328809, 0.0470126, -0.249784, 0.127933, -0.0763514, 0.117911, -0.111975, 0.12068, -0.194507, 0.0509933, 0.323847, 0.160063, -0.0530563, -0.178606, 0.0484631, 0.00986981, 0.192885, -0.16115, 0.158718, -0.0590539, 0.0868763, -3.55198e-17
0.0418566, 0.0687513, 0.24997, -0.167816, 0.0270716, -0.175849, 0.0576436, 0.121653, -0.190176, 0.0567794, -0.126148, 0.0981192, 0.0195823, -0.0586835, 0.130155, -0.0314482, -0.0299406, 0.087246, -0.234883, -0.0348849, 0.0995433, 0.273942, -0.0616657, 0.0990627, 0.0637545, 0.0799309, 0.0733344, -0.155165, 0.136161, 0.226642, -0.122465, 0.201984, 1.7119e-17
-0.122846, 0.0753847, -0.0435475, 0.0976564, -0.0554628, 0.1875, -0.193485, -0.0470937, 0.0315053, -0.0271841, -0.110008, -0.218154, 0.0480413, -0.0677122, 0.0855192, -0.132901, 0.285242, -0.171805, 0.024771, -0.175886, 0.0551079, 0.139078, 0.0757019, -0.101926, 0.0348102, 0.090879, -0.00466251, 0.0737384, 0.298638, -0.177045, -0.150839, -0.0375438, 2.87872e-17
0.087503, -0.129399, 0.0665387, -0.289186, 0.120849, -0.0185362, 0.0405858, -0.000799812, -0.16244, 0.13237, 0.0687848, 0.0468494, -0.269609, 0.114189, 0.0161931, -0.0232342, 0.293397, -0.0577742, -0.127749, -0.0645375, -0.079784, -0.24627, -0.087048, -0.222932, -0.0558246, -0.0203922, -0.094799, 0.115802, 0.0789187, -0.0775307, 0.0921484, -0.0301949, -3.91471e-17
-0.09467, -0.16946, -0.0757634, 0.129168, -0.0230464, -0.00105482, 0.313079, -0.185, -0.15131, -0.0457477, -0.228054, -0.0925976, -0.0372041, -0.0327364, -0.225175, -0.010661, 0.0312107, -0.0194243, 0.050188, -0.186823, -0.146317, -0.0807215, 0.0546282, -0.131217, 0.151651, 0.161731, -0.235698, -0.00364234, -0.0619971, -0.0388585, 0.059323, 0.06645, -2.35496e-17
0.408126, 0.0536713, 0.00732654, 0.0782964, -0.252171, 0.108533, -0.251989, -0.0119787, 0.19373, -0.0132166, -0.107995, -0.252734, -0.294782, -0.33768, -0.188583, -0.0458068, -0.153232, 0.0916139, 0.00997583, -0.0205085, -0.193299, 0.0218546, -0.292561, 0.103632, -0.168568, 0.137384, -0.079003, 0.0660047, 0.191455, -0.0931081, -0.234098, -0.080993, -2.85568e-17
0.35029, 0.115663, -0.00405137, -0.131333, -0.133679, 0.0839808, 0.344261, 0.0259814, 0.0738963, 0.234119, -0.256513, -0.0704546, -0.0670933, 0.186691, -0.164451, 0.0653689, -0.219598, -0.281233, 0.0901783, -0.321548, 0.103264, -0.0145395, 0.184192, 0.231274, -0.00849085, 0.0073779, -0.0775067, -0.0213484, 0.102292, 0.125635, -0.0712014, -0.0199361, 1.27415e-17
-0.0860617, 0.139219, -0.0202655, -0.0991547, -0.308093, 0.29817, 0.154058, 0.119106, 0.251874, 0.162157, 0.133519, -0.132582, 0.125836, -0.0252976, -0.0210843, -0.212471, 0.0198279, 0.173028, 0.115563, 0.040758, 0.150621, 0.131012, 0.105377, 0.13725, 0.139594, -0.0395807, 0.245636, 0.238196, -0.0788566, 0.147741, 0.167675, 0.336317, -3.74683e-17
-0.118808, -0.149538, 0.00642024, 0.272615, -0.0287301, 0.0556773, -0.104234, -0.0975166, 0.0461732, -0.26654, 0.12103, -0.0356198, -0.243306, 0.0783231, -0.0324892, -0.168769, -0.0934715, -0.0639836, 0.212897, 0.0499746, 0.236205, -0.0960209, 0.0942638, 0.00955011, -0.0349293, 0.123068, 0.196543, -0.19216, 0.0315897, 0.0368776, -0.172672, 0.021419, -7.68266e-17
0.234525, -0.153945, 0.21059, -0.0220341, 0.00445009, -0.192002, 0.0709525, -0.113387, 0.0364648, 0.100088, -0.0389814, 0.106956, -0.282305, 0.164983, 0.0928375, 0.202449, 0.191571, -0.114168, 0.0323919, 0.346216, 0.0833676, 0.257431, -0.0520833, 0.131395, 0.0174271, 0.424096, 0.0533419, 0.00661751, -0.186296, 0.297453, 0.172528, 0.328077, 3.50924e-17
0.0372752, -0.163401, 0.00141558, 0.133945, 0.270562, 0.0644094, 0.016637, -0.165585, 0.0724917, 0.0127257, 0.0412069, 0.253459, 0.149909, 0.0608237, 0.048123, -0.0486343, 0.120943, 0.0839314, 0.171626, 0.132774, -0.22155, 0.128509, -0.109775, -0.15397, 0.0580208, 0.0841707, -0.169611, 0.157614, 0.0650797, -0.0810639, -0.0395224, -0.289963, -1.02105e-18
0.283938, 0.0370945, -0.0803283, 0.126975, -0.0950208, -0.0610919, 0.383018, 0.0135087, 0.097428, 0.205252, -0.222082, 0.0181186, 0.174205, -0.0460527, 0.0868004, -0.032973, 0.0251605, -0.107861, 0.0387874, -0.158806, 0.237255, -0.269006, -0.187553, -0.0701362, 0.0191771, -0.0302688, -0.132875, -0.0606315, 0.0177493, -0.0999221, -0.0413123, 0.147779, 2.43297e-17
0.173847, -0.00836374, 0.265211, 0.159809, 0.00259714, 0.205302, 0.0397647, 0.147562, -0.163965, -0.0836717, 0.134547, 0.0984345, 0.341246, 0.179455, -0.299796, -0.120476, 0.0100338, 0.111468, 0.341115, 0.146035, -0.112121, 0.0800244, -0.0826826, -0.08817, 0.0856499, 0.000729776, 0.148395, -0.11341, -0.00793982, 0.155605, 0.0445281, 0.0424187, 2.25561e-17
-0.226049, -0.00378937, -0.179755, -0.196306, -0.260535, -0.141208, -0.0832581, -0.200736, 0.204793, -0.0708948, -0.199446, -0.315384, -0.0975107, -0.0405524, -0.214036, 0.135208, 0.156649, 0.358028, 0.00761812, 0.0178039, 0.0785574, 0.107182, -0.18943, 0.0537807, -0.0109108, 0.084178, 0.119768, -0.311855, -0.176316, 0.294773, 0.272644, 0.394249, -4.35168e-19
0.13819, -0.301873, -0.0615421, -0.265622, 0.0781504, -0.257727, -0.211647, -0.0171388, 0.110188, -0.0670245, 0.12248, -0.0515271, 0.0869786, -0.218473, -0.0957639, 0.134246, -0.081671, -0.0175097, 0.23953, 0.0151298, 0.0650906, -0.000592846, 0.00841821, 0.154844, -0.0686844, 0.0613842, 0.181509, -0.0831065, -0.230379, 0.0444847, -0.202904, 0.233586, 3.34819e-17
0.129093, -0.0171252, -0.0533234, 0.174039, -0.0243036, -0.0529537, 0.393573, -0.103645, 0.00953092, -0.0211467, -0.321828, -0.259063, -0.166867, -0.0832614, 0.0100775, 0.18121, 0.159071, -0.116235, -0.0804321, -0.137282, 0.135279, 0.0662248, 0.163038, 0.140127, -0.0884814, 0.122202, 0.156508, -0.484836, -0.0755784, 0.141587, 0.286317, -0.144892, -2.67364e-18
0.167204, -0.0716588, 0.154783, 0.006056, 0.183358, 0.0353157, 0.143524, 0.0618963, 0.132826, 0.0482429, -0.160943, -0.0589649, 0.106991, 0.00130829, 0.0877997, -0.0392485, 0.205746, -0.153344, -0.026063, 0.00143131, -0.0640216, -0.145036, 0.0745707, -0.0192264, 0.0147982, -0.179953, -0.130707, 0.176208, -0.179546, -0.336557, 0.000649709, 0.167466, 1.72092e-16
0.0733644, 0.182666, 0.27173, -0.166104, 0.132251, -0.19311, 0.0200442, -0.166363, -0.184759, 0.108131, -0.112993, 0.146039, -0.153142, -0.127408, 0.0886278, 0.196623, 0.187862, 0.0335514, 0.00121023, -0.141246, 0.0193368, 0.333374, -0.0157655, -0.131217, 0.0848357, 0.285878, 0.123585, -0.0950944, 0.0828897, 0.0532685, -0.0399296, -0.402905, 1.51968e-17
-0.181107, -0.0793569, -0.0457207, -0.131331, 0.307868, -0.117753, -0.238859, -0.0884834, 0.0917827, 0.293212, -0.0488836, 0.176503, -0.0438464, 0.116271, -0.205697, 0.319736, -0.0452067, -0.165079, -0.124808, -0.010039, -0.238026, 0.135939, 0.0426629, -0.111468, -0.114947, -0.0424004, -0.0705567, 0.172416, -0.134833, -0.129504, 0.117144, 0.198338, -1.33459e-17
0.307516, 0.0375585, -0.171354, 0.123251, 0.147034, -0.106978, -0.086664, 0.321681, 0.089938, 0.277731, -0.0968186, 0.112709, -0.275646, -0.074882, -0.0093259, -0.246278, -0.0732858, 0.0874814, 0.332263, -0.0172331, -0.0901094, -0.0982348, -0.0126297, -0.081218, 0.0362783, 0.0619417, 0.0395138, -0.0929479, 0.143929, -0.129514, -0.187492, 0.196705, -1.8947e-18
0.17205, -0.0496612, -0.0980227, -0.0826611, 0.0978043, -0.000658043, -0.1352, -0.0556077, -0.0376157, 0.0901066, 0.0889519, 0.248927, 0.138487, -0.068315, 0.0571678, 0.0374384, -0.134686, -0.223739, -0.0570474, -0.0902514, 0.122471, -0.445324, 0.156222, -0.0365721, 0.270077, 0.127626, -0.0379445, 0.252067, -0.108443, 0.0172327, 0.172221, 0.169374, 1.15074e-18
-0.146314, -0.0489501, 0.0326438, 0.0716803, 0.240123, -0.0535567, -0.0719282, -0.118038, -0.318122, 0.314907, -0.126354, 0.0976669, -0.237668, 0.0710769, 0.166694, 0.146416, -0.213667, 0.320559, 0.0823912, 0.00928671, -0.400526, 0.17294, 0.244542, -0.0937735, -0.199653, 0.191959, -0.153193, 0.178003, 0.0867842, -0.428987, 0.0427953, 0.137457, -4.33395e-18
-0.124542, -0.608092, -0.281607, -0.247454, 0.0735546, 0.324822, 0.251644, -0.0387753, -0.02657, -0.117349, -0.0236803, 0.144838, 0.254575, -0.244074, -0.135546, 0.0573016, -0.0629488, -0.265305, -0.140144, -0.00355656, -0.247608, 0.116113, -0.0598918, -0.254057, -0.221416, 0.0278047, 0.0467409, -0.323009, -0.041127, -0.399214, -0.154761, 0.0858549, -1.48293e-18
0.019514, 0.00502425, 0.356913, 0.335339, -0.068557, -0.00391324, 0.0739687, -0.233592, -0.137328, 0.0309453, 0.156034, 0.00146933, 0.187026, -0.112379, 0.124156, -0.119806, -0.0282802, 0.0208198, -0.11905, -0.110758, 0.195543, -0.132961, -0.0761737, -0.384577, -0.0184718, -0.170766, 0.0445254, 0.310409, -0.0938357, 0.0885612, -0.080862, 0.254871, 2.76818e-17
0.161241, 0.0150407, 0.278051, -0.0980396, 0.0413225, -0.0878816, 0.150154, 0.258425, 0.161046, -0.169496, -0.112207, -0.164112, 0.00431918, 0.148357, 0.250664, 0.0201699, -0.446938, -0.201438, -0.108866, 0.0432661, 0.00334725, 0.142046, 0.226081, 0.293578, 0.0163223, 0.0560649, -0.00446026, 0.0168896, -0.113648, 0.0279171, -0.158991, 0.278896, -4.38527e-17
-0.0251816, 0.146167, -0.225445, 0.0282048, 0.0139867, 0.00642489, 0.0894989, -0.11623, 0.0861354, 0.0581183, 0.0956855, 0.15232, 0.0128277, 0.224331, -0.253816, -0.00143121, -0.0554675, -0.0160486, 0.100278, -0.0336295, 0.266412, -0.161488, -0.119536, -0.0212422, -0.242953, -0.0259043, 0.0141853, -0.0297079, 0.0427827, 0.265831, 0.0159971, 0.194341, -9.37885e-18
0.230347, 0.111001, -0.302246, -0.232361, -0.0611694, 0.0933304, 0.0219984, -0.235729, -0.00638144, 0.0931918, -0.0382319, -0.0655586, -0.0620954, -0.119212, -0.177125, 0.0626996, -0.0476261, -0.228055, -0.0413508, 0.052069, 0.293228, -0.0120529, 0.109081, 0.0235482, -0.311478, 0.16756, -0.219353, 0.0644237, 0.114793, -0.0920634, 0.17172, 0.095923, 9.69347e-18
-0.286027, 0.274709, 0.0785846, -0.0708349, -0.29819, 0.303587, 0.0388404, 0.218214, 0.144202, 0.198844, 0.107179, -0.147588, -0.14515, 0.201887, 0.176704, 0.17936, -0.142641, -0.273687, -0.00732114, 0.323074, -0.00561965, -0.154034, 0.311248, -0.0803301, 0.13613, 0.00978173, -0.0319037, -0.000599894, -0.0972616, 0.211091, -0.148509, 0.0240073, 9.43256e-18
-0.282764, -0.0755288, 0.151116, -0.123866, -0.174268, 0.0302109, 0.206498, 0.00875586, -0.120832, -0.150353, 0.0994708, -0.101877, 0.163798, 0.211859, -0.0181918, -0.468381, 0.0257423, -0.121797, -0.171163, -0.0236657, -0.219622, -0.0811176, 0.0197237, 0.0194442, 0.0442525, 0.109365, 0.106295, -0.0587545, 0.0178268, 0.333431, 0.0289974, 0.143358, 2.06272e-17
0.037758, 0.0419517, 0.0112707, -0.255412, 0.0658498, -0.260212, -0.128786, 0.106358, -0.000596614, 0.0342466, -0.0217081, 0.123577, -0.162827, 0.00913673, 0.00665927, 0.0203118, -0.133347, 0.125147, 0.0272292, -0.209244, -0.162749, 0.0869077, 0.0255758, -0.0855666, 0.0184053, -0.177594, 0.0880985, -0.0954595, 0.184529, 0.0254898, 0.0269969, -0.0975095, -4.21688e-18
-0.436097, -0.00580653, 0.242012, -0.229432, -0.101064, 0.127765, -0.337905, 0.173876, 0.156444, 0.077675, -0.365013, 0.0874764, -0.0758661, 0.125652, 0.0624912, -0.0720183, -0.181244, -0.0200571, -0.0913864, 0.122959, -0.211018, -0.0968126, -0.023768, 0.0939615, 0.023576, 0.187431, 0.0121855, 0.0336248, 0.0414643, -0.293169, -0.0418037, 0.0194135, 4.80982e-18
-0.219418, 0.230174, 0.028172, -0.0644798, -0.0225847, 0.082674, -0.0302962, -0.00523352, -0.118611, 0.166732, -0.0322856, -0.131397, -0.166544, 0.276565, 0.168221, 0.249535, -0.204368, 0.264253, -0.0278363, -0.14101, 0.0749492, -0.148972, -0.082163, 0.35186, -0.207701, -0.0568566, 0.164298, -0.101835, 0.246862, -0.156877, 0.019509, -0.0432106, -3.55282e-17
0.126867, 0.0332592, -0.434048, -0.120503, 0.00937184, 0.0422664, -0.0907784, 0.10475, -0.269646, -0.225856, 0.235284, -0.18063, 0.198721, -0.175954, 0.0143876, 0.00621845, 0.162262, 0.128603, 0.0665951, -0.0148241, 0.0969275, -0.176451, -0.401658, -0.170684, -0.169924, -0.0114677, 0.0393786, -0.0316803, 0.00134339, 0.115842, -0.292097, 0.015189, -6.66904e-18
-0.0818048, -0.116093, -0.178869, 0.044548, -0.130642, 0.0548579, 0.131202, 0.271862, -0.0385964, 0.0115182, -0.0890818, -0.0916399, 0.231879, 0.0538749, -0.0210871, -0.0452074, 0.0765118, 0.0187474, -0.251471, -0.0464373, 0.0984691, -0.333961, -0.136487, 0.0228632, -0.0476157, -0.26629, -0.0712958, -0.0831509, 0.26548, 0.180403, 0.068415, -0.0824938, 2.28477e-17
0.111778, -0.197281, -0.0791586, 0.16487, 0.0405092, -0.0548929, -0.276734, 0.0932731, -0.0761499, -0.290789, 0.0942929, -0.0223547, -0.373082, 0.170013, -0.0606643, 0.238767, 0.0162574, -0.00601262, -0.0940303, -0.204362, 0.517292, 0.0119004, 0.262325, 0.165183, 0.121421, -0.210494, -0.202106, 0.233194, -0.0130029, 0.0880648, 0.0854932, -0.33944, 4.02913e-18
0.0348531, 0.113145, -0.0293778, -0.0845438, -0.058007, 0.0664842, 0.0931211, -0.0189001, 0.00844307, -0.00999074, 0.230435, -0.184659, 0.108724, -0.0530684, 0.0452167, -0.388577, -0.0132353, 0.207234, 0.10956, 0.210941, -0.234256, -0.0865199, 0.0907528, 0.0134717, 0.275414, -0.00249411, 0.103867, -0.147085, -0.101264, -0.293342, -0.0475897, -0.22064, -2.56895e-17
0.163101, 0.35175, -0.0399167, -0.0433396, 0.114851, 0.129222, -0.216102, 0.50941, 0.0498842, 0.163393, -0.0604804, -0.147223, 0.0413752, 0.0142009, 0.231779, -0.196716, -0.247552, 0.0587271, -0.245454, -0.133866, 0.211329, -0.072903, -0.180387, 0.137681, -0.17201, 0.0836762, 0.339189, 0.136821, 0.108071, -0.0782484, -0.0526707, 0.0898885, -7.26326e-17
0.116315, -0.0541229, 0.165102, 0.00249012, 0.100004, 0.141354, -0.122128, -0.0226889, -0.15332, -0.0995367, -0.00256655, 0.0530049, -0.0530884, 0.0846759, -0.0391941, 0.0312288, -0.00833289, -0.1311, 0.0687331, 0.214123, 0.00875638, 0.176511, 0.438182, -0.107159, 0.112564, -0.0200122, 0.0586094, -0.158561, -0.0339092, 0.26293, 0.0896452, 0.244901, -8.77825e-18
0.0462101, -0.0766034, 0.0222313, -0.280632, 0.101167, 0.0217886, -0.0236194, -0.0400802, -0.0213385, 0.0236429, 0.176408, 0.103744, 0.0292837, -0.220926, 0.127734, 0.188933, 0.128517, -0.182135, -0.159967, -0.124529, -0.0216461, -0.274278, -0.074924, 0.102589, -0.129822, 0.245223, -0.161336, -0.0412653, -0.128952, 0.0236406, 0.068734, 0.00483194, 1.23486e-17
-0.249683, 0.0521298, -0.127235, -0.00801824, 0.116194, -0.116604, 0.0089264, -0.164683, -0.0642663, -0.0572453, -0.167603, 0.107558, 0.259762, 0.0319336, 0.069379, 0.389738, -0.0836137, -0.151553, 0.253827, 0.167042, -0.251954, 0.257428, 0.193354, -0.00345039, 0.0580948, 0.042684, 0.123199, 0.0104034, -0.224697, -0.0192585, 0.182659, -0.0763684, -5.72742e-18
-0.116065, -0.0851385, 0.0948471, -0.102221, -0.0958772, 0.058461, 0.252367, -0.292791, 0.000335515, 0.178084, 0.207667, -0.043677, 0.265488, -0.125772, -0.0707486, 0.170077, -0.255905, -0.0644562, -0.298585, 0.171306, 0.21298, 0.200648, 0.102782, -0.0443252, -0.245813, -0.143832, 0.0362276, 0.0548296, 0.163105, 0.0896726, -0.126402, 0.244768, -3.12696e-18
-0.199305, -0.0999578, 0.281271, 0.237396, -0.227714, -0.0581607, 0.060887, 0.131235, 0.122673, -0.225393, -0.0839741, -0.224294, -0.0483303, -0.0582346, 0.150633, 0.128328, 0.176742, 0.00107472, 0.0101057, -0.220751, -0.0495757, 0.138687, 0.128228, 0.033909, -0.0421683, 0.0619722, 0.0367499, -0.110785, 0.0299303, -0.118113, -0.0170159, 0.115822, -8.68134e-18
-0.226597, 0.154093, -0.227989, -0.0722083, -0.0520982, -0.0847343, -0.0078919, -0.321184, 0.0337886, -0.00545034, -0.138757, 0.0664309, -0.0606988, 0.267892, 0.524426, 0.125569, -0.299695, 0.185696, -0.258979, 0.212868, -0.0193978, -0.0616052, -0.23812, -0.0668132, -0.0615273, -0.232342, 0.172176, 0.29775, 0.181563, 0.121254, -0.0573647, -0.130191, -4.58259e-17
0.124048, 0.016175, 0.187481, -0.0741564, 0.0948591, 0.0790842, -0.0781487, 0.303104, 0.131168, -0.197859, -0.102705, -0.0676714, 0.182038, 0.1832, -0.205431, -0.0702625, 0.0189077, 0.0326278, -0.112892, 0.107313, 0.0523606, -0.300138, 0.0777191, -0.141514, 0.288019, -0.022533, -0.0418143, 0.197959, -0.0272013, 0.108799, -0.142394, -0.0065293, -4.8093e-18
-0.133067, 0.162296, 0.124478, 0.0766253, 0.103391, -0.015465, -0.0916787, -0.0814229, 0.150454, 0.0156239, -0.0950504, 0.0279078, -0.00251902, 0.1148, 0.0737633, -0.229123, 0.126834, 0.161958, 0.0592404, -0.0954878, 0.0158258, -0.037905, 0.113548, 0.0127479, 0.0968307, -0.0996845, -0.178255, 0.0147711, -0.0670312, -0.119986, -0.308331, 0.154492, 2.55658e-17
0.0159972, -0.207623, 0.028738, 0.1164, 0.0548812, -0.0892126, -0.16783, 0.0346494, -0.0795942, 0.213374, 0.0096439, -0.0571038, -0.207744, -0.10422, -0.0401702, -0.0208691, -0.157108, 0.160048, 0.0616457, 0.125361, 0.141156, 0.169407, -0.143269, 0.0346021, 0.0262002, -0.00381899, -0.0150125, -0.0720174, -0.216724, 0.102574, 0.0372144, -0.228552, 2.43883e-17
-0.195718, 0.0419986, 0.0088535, -0.0099395, 0.0201062, -0.104198, -0.0121068, 0.117609, -0.112023, 0.175285, 0.0740485, 0.0396679, -0.0395918, -0.172279, 0.191322, -0.0248358, 0.0878483, 0.156605, -0.0763391, 0.140963, -0.143395, 0.0314229, 0.0566494, 0.196764, -0.075184, -0.189553, 0.0741103, -0.00680474, -0.383618, -0.0184168, 0.00957119, 0.0824167, 1.46186e-17
0.341719, -0.0086978, 0.0142337, 0.0903944, -0.0522492, 0.402877, -0.0904973, -0.107952, 0.140098, 0.175198, 0.00825783, -0.233907, -0.16113, -0.0287913, -0.125694, 0.168266, -0.0142857, 0.0739959, 0.0489553, -0.321888, 0.341105, 0.0619295, -0.0497157, 0.152624, 0.379754, -0.0470406, -0.109513, -0.02629, 0.0169593, 0.322978, -0.0677233, -0.127539, 2.5144e-17
-0.38636, -0.140647, -0.0785354, 0.0476651, -0.00628686, 0.00813114, 0.0527856, -0.118278, 0.107514, 0.171973, -0.110706, -0.166112, 0.130516, -0.0182738, 0.248426, -0.22406, 0.10212, 0.0447125, 0.0985434, -0.0860894, -0.0510578, -0.0472951, 0.0158106, -0.14889, -0.0490405, -0.00738694, 0.0319601, -0.0565102, -0.287354, 0.062233, 0.0641804, -0.0918735, -3.01387e-18
-0.0477671, 0.144048, 0.22733, 0.189383, -0.0807442, 0.068587, 0.263429, -0.0158231, 0.0707641, 0.122525, 0.319345, -0.0351526, 0.302349, -0.0361126, 0.174613, -0.186288, -0.222005, -0.103139, -0.242348, -0.0619845, 0.150576, 0.00669272, 0.0133238, 0.17967, 0.0245347, 0.0320376, 0.09874, -0.0593038, -0.0409699, 0.233322, 0.135097, -0.0263305, 2.18779e-17
0.035899, -0.0102516, 0.0168046, -0.479304, 0.129538, -0.150018, 0.0653852, 0.0604803, 0.029496, 0.191625, -0.0287123, -0.110571, -0.0651203, 0.284499, -0.247614, 0.179889, 0.125067, -0.0427915, 0.258922, 0.0611614, 0.0521707, -0.0133404, 0.0692718, -0.131039, -0.012571, -0.0365881, 0.29838, 0.244076, 0.0525917, 0.00683234, -0.0695797, 0.159268, 1.68368e-17
-0.0871533, -0.149971, 0.0800577, -0.0566591, -0.0897866, -0.126335, 0.496145, -0.205013, 0.143466, 0.06702, 0.0632207, 0.218857, -0.108621, 0.220258, 0.0182815, -0.304692, -0.327452, -0.0308739, 0.114865, 0.223816, 0.434184, 0.129166, -0.0471314, 0.251891, 0.149912, 0.0263964, 0.230908, 0.201181, -7.7135e-05, -0.0644819, 0.163491, -0.206218, -8.3753e-19
0.192869, 0.171302, -0.118751, 0.216103, -0.0486361, 0.0949064, -0.124429, 0.0620533, 0.0209445, -0.0184007, -0.0395995, -0.0660331, -0.151996, 0.147, -0.216358, -0.107775, 0.0351319, -0.0545677, 0.132628, -0.265286, 0.115189, -0.244917, 0.00591761, -0.153127, -0.135903, 0.00117182, -0.0631687, 0.106109, 0.0340709, -0.0047256, 0.0330315, -0.0542206, -6.08139e-18
-0.102349, -0.184568, -0.035409, -0.184843, -0.0611535, 0.168266, -0.0914717, -0.204109, -0.196109, 0.080462, -0.137782, -0.131435, 0.0649998, 0.10675, -0.157248, 0.00249948, -0.0535073, -0.0717678, -0.00617921, 0.0705913, -0.172627, -0.148595, 0.0374041, 0.132334, -0.230296, -0.103804, -0.161412, -0.134225, -0.112587, -0.169337, -0.182215, -0.142752, 6.71055e-17
-0.0659143, 0.113964, -0.161169, 0.020748, 0.0831305, 0.0589347, -0.111442, 0.0448333, -0.135882, -0.0366813, -0.0944241, 0.108264, 0.0393546, -0.282908, 0.167087, 0.166618, -0.0620056, -0.378343, 0.155132, 0.060738, 0.0622205, 0.113779, 0.0735746, 0.139742, 0.070345, 0.0356105, -0.0715906, 0.153387, -0.26989, 0.00625018, -0.10035, -0.143213, 2.27079e-17
-0.036951, -0.297772, -0.0747847, 0.219128, 0.196205, -0.0568013, -0.173917, 0.169869, -0.194921, -0.00135502, -0.16826, -0.0939314, -0.19072, -0.0582482, 0.151733, -0.16434, -0.116385, 0.30092, -0.0583067, -0.133204, 0.024362, -0.315492, -0.0562026, 0.0292999, 0.1764, 0.118343, -0.217649, 0.0141174, 0.0213673, -0.141364, -0.263958, 0.0991402, -4.16789e-17
-0.372988, 0.0198433, 0.102648, 0.0282236, 0.303592, -0.0625053, 0.0535149, 0.0552564, -0.266881, 0.204924, 0.0628376, -0.155823, -0.226291, -0.199075, -0.14282, -0.186011, 0.156789, 0.093516, -0.0401017, -0.0571818, 0.0608948, 0.00423282, 0.0387756, 0.0609612, -0.000450339, 0.0389452, -0.0110486, 0.121121, 0.0565758, -0.0750452, 0.0555834, -0.12176, 1.26619e-17
0.00987304, 0.196722, -0.0681046, -0.0489494, -0.211334, 0.0597219, -0.289887, 0.0427645, -0.0639546, 0.229038, -0.258981, -0.144093, -0.0878391, 0.0542394, 0.0128908, 0.186271, -0.0324119, 0.0367109, 0.465522, 0.317525, 0.0213567, -0.175442, 0.0212384, 0.0140176, 0.0104903, -0.0433978, -0.127679, -0.0311762, 0.0558374, 0.058496, 0.0406779, -0.100528, -9.367e-18
0.0932408, 0.143394, -0.0357811, 0.0122511, 0.0269027, -0.081699, -0.194122, -0.215951, 0.0481721, -0.0392202, -0.0111025, 0.0482134, 0.470791, -0.138218, -0.0996837, 0.0847422, -0.240293, 0.157881, -0.0784619, 0.139903, -0.302232, -0.022099, -0.0402743, -0.0275938, -0.213081, -0.0711081, 0.140003, 0.130353, -0.0282272, 0.0556024, 0.134815, -0.0859063, 4.21957e-17
0.161672, -0.13329, 0.0232283, 0.010515, 0.0147795, -0.0751982, -0.0193372, -0.0161701, 0.0884267, 0.0091235, 0.314526, -0.316616, -0.0546175, 0.0741413, -0.141299, 0.017257, -0.149255, 0.387374, -0.0822905, -0.0565221, 0.0319732, -0.0344959, -0.139658, 0.222061, -0.0728504, 0.0561915, -0.119063, -0.231481, -0.0855116, -0.133915, 0.0617464, 0.0791554, -4.13376e-17
-0.0157175, -0.0327259, -0.0488156, -0.151671, 0.101306, 0.145715, 0.0930569, -0.0694362, -0.167887, -0.135875, -0.129248, -0.102248, -0.228434, 0.0766354, -0.0284577, 0.0318387, 0.0281572, -0.190228, 0.0988515, -0.187199, -0.262337, -0.050092, 0.217813, 0.0730963, 0.110541, -0.209464, 0.0327189, -0.084426, -0.097104, 0.305584, 0.1193, 0.0485477, 1.4199e-17
0.184828, 0.202952, 0.215632, -0.0493707, 0.162737, -0.188067, -0.209487, 0.114809, -0.192167, -0.106752, 0.156584, -0.183927, -0.10403, 0.13973, 0.175595, 0.0370934, 0.0270305, 0.0221544, 0.0521127, -0.434975, 0.0566958, -0.0133662, -0.0767934, 0.186423, 0.236343, -0.0306676, 0.293339, 0.293725, -0.039322, 0.0491536, 0.191702, 0.26798, -1.32538e-17
-0.0873379, -0.0896555, 0.358811, -0.150405, -0.127355, 0.00504112, 0.0636616, -0.0482794, -0.0320898, 0.0693611, -0.150039, 0.0163563, 0.0724853, -0.0132085, 0.322993, -0.125212, 0.0938206, -0.110962, -0.123612, -0.145093, 0.060776, -0.101264, -0.218346, 0.118547, 0.0884559, -0.083416, -0.202819, -0.0439771, 0.214522, 0.171657, 0.00673054, -0.13287, -3.59736e-17
-0.00429523, 0.094708, -0.0257826, 0.149069, -0.161706, 0.163082, -0.0504109, -0.0193299, 0.00848093, -0.0633617, -0.000218823, 0.0625663, -0.0589105, -0.088462, 0.0891054, -0.320904, 0.263256, 0.119019, -0.173359, 0.0345991, -0.22794, 0.0687484, -0.0642164, -0.0946852, 0.168423, -0.0896132, -0.144418, -0.0429043, 0.16308, -0.0690865, -0.10347, 0.204197, -2.24257e-17
0.081354, 0.0928102, -0.104406, -0.0589198, -0.00124102, -0.0852542, 0.190002, -0.14155, -0.104725, -0.0261931, 0.164706, 0.205433, 0.0284267, -0.189756, 0.0788889, -0.0538668, 0.000491261, -0.0937123, 0.138535, -0.203777, 0.139532, -0.0552324, 0.0494466, 0.0395517, -0.169989, -0.115133, -0.132782, 0.218558, 0.298619, 0.0219107, -0.0228281, 0.157526, -2.74383e-17
-0.130472, -0.160489, 0.0568042, -0.105064, 0.205124, -0.0412962, -0.200574, 0.00949485, -0.158201, 0.0284612, 0.046803, -0.00506681, -0.119417, -0.08123, -0.1737, -0.32941, -0.118587, 0.254156, 0.248115, -0.0310337, -0.180174, -0.248346, 0.115548, 0.0566129, 0.12246, -0.0387675, 0.0425198, 0.173678, -0.260244, 0.222055, 0.103644, -0.084596, 1.78643e-17
0.125403, 0.0255605, 0.0921039, -0.00386682, 0.237994, -0.0252969, 0.00878156, -0.0149647, 0.0419173, -0.00484325, -0.109458, -0.152529, 0.0750388, -0.039577, 0.0780058, -0.236702, -0.00316031, 0.224141, -0.081762, 0.0891219, -0.272823, -0.195519, 0.0870674, -0.204125, -0.096919, 0.0279343, -0.0960105, -0.0256362, 0.0680168, 0.201158, -0.0629404, 0.129824, -3.36967e-17
0.0310052, -0.0853076, -0.0278203, -0.15481, 0.0658466, -0.030393, -0.000852752, 0.00363926, -0.255972, -0.21179, 0.037272, -0.10591, -0.0850595, 0.0060411, -0.165336, 0.103673, -0.118222, 0.0977174, 0.218184, -0.0219134, 0.239461, 0.20737, 0.131946, 0.0637256, 0.104587, 0.176707, -0.182817, 0.160376, 0.252344, -0.0101761, -0.0147571, 0.11639, -7.59859e-18
-0.261542, -0.0484385, -0.14947, -0.164858, -0.181577, -0.058884, 0.35698, -0.1589, -0.10533, -0.205997, 0.157765, -0.212064, -0.0275474, 0.0868281, 0.0516456, 0.310524, -0.108801, -0.273672, 0.0820936, -0.243507, -0.19518, 0.0230077, 0.127145, -0.143071, -0.00882987, -0.249399, -0.00301001, 0.139841, -0.174479, 0.0510951, -0.122945, 0.0325829, 2.56681e-17
0.0874288, 0.133914, -0.112488, 0.0628324, 0.189157, -0.180164, -0.239565, -0.186751, 0.0528625, -0.167443, -0.137834, 0.229696, 0.0794629, 0.145734, 0.168238, -0.29915, 0.125572, 0.0849159, 0.150866, -0.119354, -0.297543, -0.0373266, 0.0645502, -0.100561, 0.0826379, -0.060092, 0.117144, -0.305493, 0.00646939, -0.285121, -0.248308, -0.221688, -2.74172e-17
-0.088581, 0.097256, -0.0926727, -0.0620842, -0.0312507, 0.0564223, -0.000439385, -0.00956357, -0.188868, -0.124807, -0.162633, 0.0264365, -0.0522126, -0.0411801, 0.158524, -0.209797, -0.0478108, -0.0169325, 0.232139, 0.161959, -0.115306, -0.262302, 0.022471, 0.00388791, -0.320732, 0.0323969, -0.0425672, 0.0567192, 0.10277, 0.109333, -0.0612484, 0.138186, 9.11224e-18
-0.278448, 0.0359217, 0.150916, 0.0269946, 0.0162312, 0.131418, 0.0345766, 0.0940715, 0.165454, 0.0201811, 0.302011, -0.119874, -0.139523, 0.109921, -0.0728944, 0.176754, 0.284629, 0.0253433, 0.0817374, 0.0363303, 0.0325408, 0.317049, -0.037407, 0.327296, 0.0705974, 0.187778, 0.202098, 0.283901, -0.030283, -0.0216095, -0.0653494, 0.0138367, -3.10504e-17
-0.0534672, -0.162261, 0.0990943, -0.00688688, 0.0928945, 0.0569947, 0.100707, 0.0587582, -0.220211, -0.114769, 0.0847799, -0.296663, 0.0664414, 0.0651487, -0.185504, 0.0757392, -0.10489, -0.155619, -0.11927, 0.166611, -0.0673208, -0.0599812, 0.142545, 0.457064, 0.311724, 0.0582456, -0.283416, -0.0679388, 0.166554, -0.197278, 0.26012, -0.0906202, -7.89719e-17
-0.269607, 0.0206431, -0.188268, 0.214504, -0.2052, -0.00537624, -0.151229, -0.183319, -0.0201486, -0.171802, -0.1359, -0.224056, -0.0404018, 0.226468, 0.00184138, -0.251558, 0.33508, 0.0576034, 0.123947, 0.135243, 0.0277315, 0.0230498, -0.00673993, -0.0379479, -0.188202, 0.0472288, -0.00374987, -0.126796, 0.143579, -0.0203257, 0.0158962, 0.038443, 2.44857e-17
0.19036, 0.228513, -0.0650769, -0.035436, 0.192816, -0.0728536, -0.200742, 0.0139123, 0.160118, 0.0539785, -0.103373, 0.00775425, 0.0473014, -0.15832, 0.133857, 0.0739432, 0.280277, -0.0495669, 0.102292, -0.00554614, 0.0598697, -0.0733721, -0.110965, -0.0991301, 0.172541, -0.0957691, -0.0713118, 0.210716, 0.00715893, 0.0850352, 0.0757884, 0.186195, -1.51516e-17
-0.0586305, -0.137734, 0.244718, -0.152351, 0.0209016, -0.185307, 0.0797007, -0.135638, 0.173305, 0.199089, -0.203376, -0.0038955, 0.251961, 0.177081, -0.078007, 0.0406744, 0.131887, 0.155239, 0.161232, 0.027781, -0.133665, -0.118882, 0.0729642, -0.0528145, -0.346298, 0.0709207, 0.171896, 0.00284844, 0.330252, 0.232771, 0.0231423, -0.203074, 9.35834e-17
0.0129418, 0.0342289, 0.00669036, -0.153252, 0.127352, -0.338522, -0.249699, -0.104853, -0.0435683, 0.0845213, 0.0812955, -0.00786701, 0.0130522, 0.139031, 0.293769, 0.357097, 0.00990068, 0.213267, 0.206904, 0.141835, 0.12597, -0.00288266, -0.00293467, 0.178304, 0.178308, -0.498048, -0.0805753, -0.0470484, -0.175341, -0.140294, -0.00410513, -0.0619328, -8.96133e-17
0.0167912, -0.00892444, -0.0752619, 0.0440366, 0.115832, 0.313794, 0.12018, -0.141435, -0.0731257, -0.0918693, -0.000281805, 0.0334636, 0.0149231, -0.0855007, 0.0963006, 0.21911, -0.184981, 6.97936e-05, 0.0661598, -0.00257411, 0.0479076, 0.106328, -0.209436, 0.0152127, -0.181585, 0.0404278, 0.121714, -0.432281, -0.142193, 0.0941206, -0.284835, 0.120493, -1.35989e-18
-0.0192294, -0.232922, -0.0958047, -0.00156459, 0.0097078, 0.157535, 0.151902, -0.0467125, 0.181735, 0.0830479, -0.217953, -0.147128, 0.0708642, -0.294449, 0.103137, 0.401163, 0.151462, -0.103259, -0.139358, 0.0606573, -0.0957699, -0.294608, 0.0285865, -0.0369953, 0.155243, 0.0477655, 0.0778458, 0.0565901, 0.258815, -0.0733454, 0.291199, 0.0166784, -2.31683e-17
0.0571378, 0.221823, 0.330827, 0.0283479, 0.0423143, -0.023775, -0.190735, 0.0687254, 0.105394, 0.142623, 0.116656, -0.05817, 0.106108, 0.138346, -0.072512, 0.052172, -0.233725, -0.0742859, 0.00152117, -0.193649, 0.215387, -0.0926589, 0.152415, 0.382399, -0.0906488, 0.16923, -0.0871018, -0.0180192, -0.0225634, 0.0475632, 0.26565, -0.119613, 7.47433e-18
-0.0437632, -0.160201, 0.00598721, 0.00729046, -0.181541, 0.0264246, 0.00323739, 0.0423741, 0.0764774, -0.226997, -0.0405479, 0.0644543, -0.167691, 0.0183873, 0.0813887, 0.0114059, -0.112221, 0.0200232, -0.239119, -0.0263926, -0.309986, -0.0401111, -0.107652, -0.193409, -0.0902712, -0.0939036, 0.122725, 0.0849107, 0.0679699, 0.164962, -0.196986, -0.298119, 6.48299e-18
0.407014, -0.0218558, 0.0287944, -0.204987, -0.369252, 0.0614264, -0.00837536, 0.0571796, 0.0727831, -0.230681, -0.107701, 0.247571, 0.0627354, 0.0608713, 0.0820185, -0.119367, 0.101604, 0.0227738, -0.0350843, -0.00564694, -0.218543, -0.209437, -0.101354, -0.110357, -0.021284, -0.317622, -0.152843, 0.206994, -0.0349935, -0.251563, 0.069422, 0.0337287, 1.35912e-16
0.108568, 0.166237, -0.0449356, -0.069805, -0.151011, -0.0616698, 0.0786179, 0.17232, -0.0739966, 0.0314688, -0.0679483, -0.225629, 0.20387, -0.132497, 0.0959253, 0.149916, 0.206845, 0.017847, 0.0139829, -0.181125, 0.295573, -0.389093, -0.0341349, -0.181087, -0.472089, -0.0463141, -0.190551, 0.13738, -0.205495, 0.186677, -0.0804839, -0.0209997, 4.68218e-17
-0.360747, -0.0972551, 0.188683, 0.236687, -0.0104265, -0.146529, -0.0245173, -0.0414356, 0.22794, 0.105557, -0.0541092, -0.12619, -0.0717789, -0.00115844, -0.00951887, -0.144371, 0.141078, -0.164475, 0.0374862, -0.149682, 0.00558928, 0.0899506, 0.0390252, -0.0705214, -0.227483, 0.0781067, 0.113383, -0.0368995, -0.116504, -0.0041965, 0.0257051, -0.337132, 7.25429e-17
0.0112082, 0.109849, 0.117138, -0.0677405, 0.106468, 0.0710914, -0.0601539, 0.0556658, 0.113532, -0.0919166, -0.142921, 0.150319, -0.15977, -0.0987365, -0.372501, 0.192979, 0.126535, -0.0838419, 0.192348, 0.0423309, 0.0890177, -0.205782, 0.195414, 0.124531, 0.228462, 0.169259, -0.0328415, 0.0974148, -0.00988342, -0.0483522, 0.149035, -0.0301363, 2.26605e-17
0.293867, 0.224947, -0.0372633, -0.18325, 0.177131, -0.150054, 0.107521, 0.205636, 0.0118273, 0.0966472, 0.418875, -0.117076, -0.127642, 0.102811, -0.0718899, -0.0245735, 0.104217, -0.170646, -0.146022, 0.43633, -0.171921, -0.00295259, 0.334258, 0.0203565, 0.187575, 0.0251207, -0.176406, 0.129211, 0.132113, -0.0801255, 0.417458, -0.00661866, -8.5785e-18
0.205735, 0.122248, 0.356317, 0.093111, -0.159577, 0.197937, -0.186919, 0.118401, 0.129974, -0.0945362, 0.0282019, -0.0329714, 0.020464, -0.0706214, -0.161217, -0.0203207, -0.0410554, -0.0719264, -0.0710461, -0.132852, 0.132697, -0.0853333, 0.161351, 0.00161876, -0.0393321, -0.217604, 0.0243736, -0.010849, 0.0588985, 0.0452972, -0.194619, 0.508185, 5.50744e-18
0.138853, 0.0339461, 0.0567686, -0.0483597, -0.0835398, 0.0447596, -0.031062, 0.239781, 0.0969979, -0.186181, 0.209475, 0.0488799, -0.0690117, 0.0790994, -0.0115446, -0.258955, 0.0259177, 0.197828, -0.0555669, 0.061372, -0.247556, -0.0408899, -0.00123533, -0.161598, -0.16062, 0.0305329, 0.0386178, -0.0484737, -0.029996, -0.160645, 0.0826564, 0.0418849, -1.8667e-17
-0.0522827, -0.161558, 0.27609, 0.0543961, -0.100594, -0.191743, -0.242494, 0.294503, -0.201642, 0.125136, -0.224699, -0.178446, 0.0767715, 0.0136718, -0.268015, 0.0582079, 0.0322744, 0.0578331, -0.0222983, -0.0870071, -0.0882064, 0.204403, -0.0135892, 0.0172198, 0.210888, -0.0399559, 0.22728, 0.304529, -0.0443096, -0.207101, 0.273487, -0.0165368, 1.14648e-17
0.0379496, -0.20172, -0.254035, 0.186215, 0.0272837, 0.0408638, 0.00260149, 0.0306778, 0.174457, -0.0379095, -0.0900052, 0.180174, 0.070962, -0.210114, 0.0732569, -0.0987531, -0.0515489, 0.0189025, -0.0389321, -0.1502, -0.103962, -0.141457, -0.154455, -0.258216, -0.0257162, -0.140182, 0.0334435, 0.0979942, -0.123028, 0.0195616, -0.0734777, 0.19978, -1.55814e-17
0.167462, -0.016094, 0.0587082, -0.107179, 0.0176626, -0.198599, -0.00379217, 0.0869466, 0.12111, -0.119568, -0.00707219, -0.00299872, 0.185985, 0.109368, -0.0690709, 0.221101, -0.306484, -0.0288914, 0.261294, 0.00348953, -0.100863, -0.199814, 0.248681, -0.00525496, -0.0753637, -0.0235994, -0.0408769, 0.0881905, -0.0306958, -0.0435169, -0.111892, -0.215154, 5.03368e-18
-0.121895, -0.0102206, 0.0763793, 0.0208221, 0.250305, -0.0580119, -0.125403, -0.25237, -0.0587987, 0.0450297, -0.0735035, -0.0609843, -0.186617, -0.162035, 0.0306035, -0.105445, 0.10019, -0.314504, -0.138406, -0.184145, -0.10407, -0.142144, -0.0352555, -0.101879, -0.00949443, 0.163015, -0.415896, 0.0140392, -0.270743, -0.408689, -0.1265, 0.0721799, 4.12859e-17
0.106541, -0.164833, 0.00869564, -0.00809372, -0.0702825, -0.0516981, 0.217986, 0.141395, -0.317162, -0.207729, -0.194851, 0.0133726, 0.165425, 0.293598, 0.0384608, 0.0802129, -0.28313, 0.0203303, -0.119176, 0.00651223, 0.0228684, -0.241124, 0.0942468, 0.157444, -0.0251894, 0.017933, 0.113815, 0.0720283, -0.141566, -0.084562, -0.206679, -0.221036, 1.37556e-17
0.173082, -0.020664, 0.113688, 0.174536, 0.239466, 0.0215969, 0.0674132, -0.182273, 0.0520294, 0.0634324, -0.0211876, -0.149197, 0.249805, 0.0856934, 0.134192, 0.166409, 0.0474867, 0.130214, 0.128985, -0.0925646, -0.178186, -0.124986, 0.32586, -0.0656493, 0.00688975, 0.184141, 0.123552, -0.0684557, -0.156357, -0.213393, -0.0192602, 0.237318, 5.72138e-17
0.068097, -0.0526554, 0.106302, 0.0932381, -0.0361379, 0.254258, -0.192363, -0.0281475, 0.0487361, -0.204946, 0.319661, -0.0139959, -0.32391, -0.0182705, -0.12456, 0.0378, -0.105998, 0.0463858, -0.0524112, 0.112286, 0.201059, 0.146144, -0.127201, -0.267455, 0.0845511, 0.0863477, -0.224536, 0.0544546, -0.0389346, -0.235409, 0.00353741, 0.0498454, 2.00997e-17
-0.000798065, -0.137634, -0.0382349, -0.10967, -0.172252, 0.172874, 0.110963, 0.10531, 0.164449, -0.205786, -0.0668865, 0.0685545, -0.0804798, 0.420495, 0.0756656, 0.214647, 0.122617, 0.0169066, 0.614341, -0.0119006, -0.0855245, 0.126985, -0.163245, -0.242056, 0.101132, 0.0882302, 0.00985617, 0.178358, -0.0547244, -0.213351, 0.0774882, 0.11521, -1.53613e-17
0.0374128, 0.00908139, -0.188448, 0.0698674, -0.0766047, 0.163618, 0.288408, -0.157915, -0.0329583, 0.282756, 0.08306, 0.385967, 0.0654524, 0.0565518, 0.0228743, 0.243202, -0.0764221, -0.205468, -0.0552512, -0.153125, 0.24955, -0.0864715, -0.290238, 0.0503037, -0.0695127, -0.00584824, -0.180656, -0.0926076, 0.170832, 0.252609, -0.195392, -0.139251, 6.08903e-17
-0.0134063, 0.0193979, 0.0785591, -0.105778, -0.105383, 0.310862, -0.0527285, 0.0675479, -0.354506, -0.30285, -0.0158944, 0.00239708, -0.107658, 0.162343, 0.0851997, -0.285493, -0.0593143, 0.119251, -0.188912, -0.0167951, 0.179836, 0.094151, -0.0999821, -0.0678773, 0.123155, -0.231537, 0.0148108, -0.205946, -0.111811, 0.207553, -0.020886, -0.0129034, 1.00884e-17
0.00148675, -0.204939, 0.0443354, 0.123536, 0.122799, 0.0565906, 0.179028, -0.0510361, 0.148607, -0.0455199, 0.124, -0.0908244, -0.0412913, -0.102886, 0.0962182, 0.0335862, -0.0208904, -0.158738, 0.114389, 0.0875536, 0.179243, -0.020198, 0.194825, -0.0234916, 0.129496, 0.0484569, 0.0422695, 0.0227327, -0.380506, 0.0431159, 0.0464024, -0.11053, 9.86698e-18
-0.0364237, 0.0882831, -0.206479, 0.13437, -0.0995468, -0.181268, -0.233012, 0.0593161, 0.134963, -0.136782, 0.218198, -0.0866124, -0.267335, 0.254833, -0.163406, 0.168581, 0.176224, 0.193582, 0.149763, 0.0433168, 0.308679, -0.0572912, -0.0178556, 0.152524, 0.0803014, -0.119233, 0.00241497, -0.28388, 0.0659192, 0.0272372, -0.0829046, -0.0323195, -1.17569e-17
0.00484586, 0.0123016, 0.279912, 0.0505211, 0.0986548, 0.0203802, -0.207913, 0.0166144, 0.365477, -0.0722288, -0.0619157, -0.00816482, 0.0184374, -0.116234, -0.239683, 0.0846995, -0.171977, -0.139205, -0.0717251, 0.171682, 0.122734, 0.109861, 0.0449778, 0.0370999, 0.28691, -0.0219243, -0.0448676, -0.0470851, 0.0733096, -0.0334393, 0.110806, -0.0474711, -1.86915e-17
-0.130196, 0.0574268, 0.0417797, 0.0596366, -0.0718415, -0.155914, -0.306586, -0.299609, 0.196336, -0.269935, 0.0963147, 0.174906, 0.085595, -0.145835, 0.146986, 0.183672, 0.0729449, -0.0671701, 0.107593, 0.152552, 0.24487, -0.113668, 0.0373006, 0.103776, 0.0209049, 0.328687, 0.352103, -0.138724, 0.0860502, -0.0176761, 0.0206229, 0.344175, -7.66461e-17
-0.208666, -0.0315616, -0.0234747, -0.130093, -0.0388267, -0.0609172, -0.212608, 0.125947, 0.0457348, -0.245118, -0.26675, 0.138009, 0.00976362, -0.0782438, -0.30158, 0.128905, 0.0243961, -0.0724078, 0.210616, 0.239146, 0.155086, 0.17533, 0.0737065, -0.0501058, -0.165339, -0.0744202, 0.226052, 0.320133, -0.0194671, -0.190983, -0.211349, 0.0308036, 9.63934e-18
-0.125941, 0.162861, 0.093955, -0.0129668, 0.19063, -0.261008, 0.0903505, 0.023083, -0.0749924, 0.115263, 0.182352, -0.168339, 0.0608776, 0.0974842, -0.139484, -0.143914, 0.135459, -0.0598184, 0.138879, 0.289582, 0.199464, 0.276686, -0.259868, -0.0475653, -0.0726514, -0.00937271, -0.175106, -0.147526, -0.121382, 0.0412375, 0.00364245, 0.0344393, 1.28302e-17
0.225258, -0.0684882, -0.266119, -0.0460184, 0.139199, 0.155738, 0.00145878, 0.0570958, 0.39984, -0.186807, 0.00291374, -0.0604711, 0.23429, 0.130609, 0.0322888, -0.102674, 0.262535, 0.058039, 0.184065, -0.23037, -0.096539, -0.0739237, 0.112872, 0.044375, -0.060927, -0.0840353, -0.0822308, -0.17146, 0.185708, -0.0362118, -0.0294741, -0.208537, -3.41041e-17
0.101983, 0.296937, -0.176888, -0.160603, 0.0394721, -0.042245, 0.237858, 0.00264283, 0.121334, -0.0434655, 0.0799128, -0.191494, -0.102497, 0.0190911, 0.198697, -0.114412, 0.091061, 0.23295, 0.17622, 0.0697995, -0.0691853, -0.0877176, 0.149197, 0.220044, -0.0767272, 0.272861, -0.0240957, 0.169116, 0.29368, -0.107326, 0.0310027, -0.130448, -2.22854e-17
-0.0728946, 0.511183, 0.101705, -0.0840316, 0.118994, -0.113283, 0.116922, 0.141972, -0.143804, 0.0587569, -0.074387, -0.190602, -0.0958326, 0.0212296, 0.0136661, -0.0258409, -0.132535, 0.185576, -0.0979712, -0.0418377, -0.00385629, 0.243433, -0.142735, -0.154307, 0.232504, -0.00470101, 0.0351562, -0.071509, 0.217387, 0.260865, 0.0516902, 0.391421, 8.32681e-18
0.384188, -0.153043, -0.2428, 0.0786614, -0.134245, -0.0644423, -0.0485428, -0.318021, 0.127013, -0.139215, 0.0836399, 0.193412, 0.17923, 0.185956, 0.393318, 0.0606088, 0.19198, -0.0530358, 0.0559612, -0.218327, -0.00899434, -0.0281154, -0.0289371, -0.230214, 0.160778, -0.119194, 0.0698156, 0.297127, 0.170283, 0.0901906, 0.118342, 0.116388, 4.51926e-17
-0.00498974, -0.0954943, -0.0540166, -0.192844, -0.220736, 0.0235999, 0.0249235, 0.010958, -0.0734399, 0.00541519, 0.23497, 0.0412212, 0.212403, 0.123656, 0.0813764, 0.0291606, -0.419964, -0.14709, 0.0634148, 0.25637, 0.0368354, 0.281075, 0.056427, 0.11734, 0.0503073, 0.00973931, 0.234936, -0.24345, -0.0114236, -0.0579255, -0.166379, -0.0509411, -1.14719e-17
-0.0129863, -0.00838413, -0.348698, 0.152358, -0.0577748, 0.239097, -0.012424, -0.0450457, 0.100893, 0.148505, 0.0332528, 0.256228, -0.101115, -0.0813032, 0.163523, 0.0868479, -0.265823, -0.0542899, 0.0489657, 0.128509, 0.0545806, -0.0375333, -0.348423, 0.084882, -0.0340169, 0.0709833, -0.110573, 0.134955, -0.233411, 0.206071, 0.0479737, 0.261371, -5.43437e-17
0.128721, 0.00721702, 0.0887445, 0.201407, 0.0876354, -0.1491, -0.0483702, 0.048553, -0.0731761, 0.277057, 0.247441, 0.103742, 0.0881449, 0.00129114, 0.105139, -0.0362634, -0.0555723, -0.141304, 0.128646, 0.191497, 0.230213, -0.207893, -0.191734, 0.15635, 0.136769, 0.0993775, -0.210321, 0.162992, -0.0925911, -0.193256, -0.0289539, 0.299403, -3.65623e-18
0.0934809, 0.00493354, 0.160855, 0.143948, 0.191672, 0.00131903, -0.0609547, 0.199562, 0.0819446, -0.00920847, -0.0598287, -0.0549533, -0.0156182, 0.0341075, -0.0681156, 0.00259178, 0.0141928, -0.0492832, 0.0683101, -0.0522123, 0.103602, 0.0267585, 0.0106919, -0.0833385, 0.119413, 0.101455, -0.00812683, 0.0756656, 0.0350436, -0.1345, -0.143519, 0.0213435, -0.109236, 0.0363218, -0.0227306, 0.0590177, -0.113515, 0.0856541, -0.0297141, -0.0144399, 0.0813326, -0.0563134, 0.0206937, 0.0726116, -0.0721651, -0.0335257, -0.0466081, 0.0704961, -0.0653453, -0.0374635, 0.0262731, 0.0430351, 0.0344536, 0.121795, 0.107018, 0.0166807, 0.055613, 0.266857, 0.0189634, 0.0432415, -0.0650618, 0.000220568, 0.0420255, 0.0209814, 0.0434549, -0.00617532, 0.0186459, 0.0283478, -0.00339009, 0.0184792, 0.0458989, 0.110574, 0.128983, 0.0193571, 0.0439606, 0.073591, -0.115417, 0.0140919, -0.00925942, -0.0278117, -0.0424966, 0.0954374, 0.0565415, 0.0272246, -0.0522398, 0.0388043, -0.00662058, -0.031171, -0.0923986, -0.0623784, -0.0149496, 0.012815, 0.0109793, -0.0488398, -0.0411651, -0.189981, -0.0754456, -0.0369749, 0.0451194, 0.0208654, 0.0926918, 0.0777971, -0.00136383, -0.0549766, 0.0438962, 0.0229844, 0.0356613, -0.0946626, 0.0959456, 0.106401, -0.0212295, 0.010852, -0.118357, 0.144874, -0.0238423, -0.0198134, 0.0933355, -0.0767881, 0.0467777, 0.0377755, -0.0198861, -0.0471022, -0.0239974, 0.120981, -0.138313, 0.0285494, 0.0988897, 0.0524703, 3.49786e-16
0.00699059, -0.03911, -0.112174, -0.227445, -0.0305499, -0.0268819, -0.266559, -0.0469033, 0.012868, -0.00338835, 0.032539, -0.0895295, -0.0438949, -0.13981, -0.140485, -0.0739516, -0.0219546, 0.00478712, -0.128904, -0.137367, -0.106363, 0.0778511, -0.0261339, -0.0627877, -0.063386, -0.0189218, 0.123438, -0.084112, -0.109031, 0.010148, 0.0230136, 0.0281144, 0.154075, -0.0742406, -0.0845765, -0.0839901, 0.0243639, -0.138277, -0.0537787, -0.197322, 0.0225259, 0.13617, -0.0924495, 0.0824452, -0.130996, -0.13128, -0.0778246, -0.178018, 0.0539911, -0.073856, -0.186875, 0.0629533, -0.0709097, -0.0725603, -0.0116009, -0.0259202, -0.0648109, 0.00983644, -0.0323138, -0.0749319, -0.00956232, -0.0652236, -0.0309395, -0.0333294, -0.020938, -0.110286, 0.0425767, -0.0206383, -0.0541325, 0.0302917, -0.0776252, 0.0237201, 0.0325085, 0.00211774, -0.0892115, -0.11546, -0.0664712, -0.036771, -0.129778, -0.0651507, -0.16186, -0.125873, -0.029431, -0.112937, -0.00935094, -0.0202681, -0.0816844, -0.239092, -0.0515637, 0.000231546, -0.13978, 0.070678, -0.0358554, -0.0607352, -0.00324571, -0.155398, 0.0131397, -0.0832999, -0.132259, -0.355168, -0.0181799, 0.182998, -0.0145507, 0.0936586, -0.0466441, -0.00260096, -0.0376096, -0.103801, 0.075752, -0.178719, -0.0910532, 0.0505274, 0.0417473, -0.172419, 0.0169764, 0.0677834, 0.0822166, -0.109373, -0.0465331, -0.0590227, -0.0951825, 0.0865247, 0.0924776, -0.108492, -0.136705, 0.129192, -0.0569031, -0.0981502, 6.35722e-17
-0.0169656, -0.017402, 0.114249, 0.211625, 0.0361542, 0.0587406, 0.225923, -0.0153607, 0.0231957, 0.116366, 0.0330073, -0.194749, 0.0712176, -0.168511, -0.074875, 0.0754468, -0.0404439, -0.0136633, 0.00810302, -0.0956241, -0.0865947, 0.10889, 0.110532, 0.0548051, 0.0515209, -0.0365421, -0.0982048, 0.0552425, -0.030493, -0.0940141, -0.0822675, 0.0100738, -0.0065639, 0.0578686, 0.00932719, 0.132021, 0.148989, 0.0569336, 0.10696, 0.0711211, 0.0157394, 0.143604, 0.00482726, 0.196348, 0.00829112, -0.121841, 0.00599804, -0.0695998, -0.0229689, 0.0405556, -0.0223212, -0.0947766, -0.0599716, 0.129637, -7.13442e-05, 0.0507215, 0.100362, 0.00247573, -0.0859163, 0.147985, -0.0926205, -0.0588333, -0.00252648, -0.07484, -0.168438, 0.0650174, -0.145465, 0.0527674, -0.0418823, 0.0656861, 0.123681, 0.122672, -0.113257, -0.160573, 0.0787708, -0.000143241, -0.027857, -0.0105046, -0.00775425, -0.0314871, -0.107789, 0.00613183, 0.0320019, 0.0252609, -0.0480432, 0.126875, -0.0785958, -0.0384477, 0.0581449, 0.0825363, -0.00713423, 0.0144766, 0.0214845, 0.0397508, -0.0728896, 0.0378496, -0.0630875, 0.107373, 0.128724, 0.155558, 0.0980851, 0.0356865, -0.0533211, 0.111455, -0.124803, 0.044528, 0.132069, -0.0208432, 0.0655687, 0.0258477, -0.0151701, -0.020097, 0.0231184, 0.275696, -0.0518447, -0.0473381, 0.0378958, -0.037213, -0.00728372, 0.0053507, -0.0496496, -0.0960915, -0.222066, -0.0516879, 0.0579434, -0.161192, 0.030207, 0.0627861, -4.68628e-17
0.0501556, 0.0992886, -0.0130453, -0.109524, -0.0730362, -0.11237, -0.0369493, 0.00993882, 0.069212, -0.0260847, 0.0845445, 0.135897, -0.0500046, 0.0134718, -0.155552, -0.000358218, 0.130823, 0.0484634, 0.0201988, -0.00869995, -0.156132, -0.0983892, -0.0273031, 0.0482171, -0.0316418, 0.0572837, -0.0871792, 0.0450092, 0.0085106, 0.169511, -0.0459917, -0.0841518, 0.0158998, -0.0188703, 0.0810211, -0.128438, -0.0979133, -0.0195652, -0.124695, 0.0412303, -0.0510885, -0.018592, -0.131181, -0.0839954, -0.159519, -0.188585, -0.09462, -0.0149744, 0.00940914, 0.00379711, -0.00599435, 0.111546, -0.0483639, -0.0478496, -0.0646496, 0.0749769, 0.0360233, 0.0729769, 0.075187, -0.0450368, 0.0704563, -0.0151956, 0.0288386, -0.0137783, 0.128215, 0.0134574, 0.0340107, 0.0827457, -0.0231723, -0.0586261, -0.0428124, -0.14508, -0.0902094, 0.101045, -0.0593219, 0.00740862, 0.0440975, -0.0420186, -0.130258, -0.0376205, -0.0156596, 0.0328997, -0.119607, -0.0125942, 0.0985045, 0.097269, -0.211819, -0.028747, -0.0367782, -0.0852258, 0.0524623, -0.0259725, 0.000574133, -0.0289786, -0.066887, -0.0422038, 0.016669, -0.0820917, -0.0895044, -0.0724752, -0.0422911, 0.066158, 0.0773975, -0.000373775, 0.024717, 0.0459771, 0.0464204, -0.0903174, -0.135696, 0.0707484, 0.0437618, -0.0376626, 0.0824526, 0.0282407, 0.00602413, -0.0329012, 0.00778678, 0.0242273, -0.0943238, -0.0470563, -0.11654, -0.00190256, 0.0455335, 0.0209012, 0.0277116, 0.00843549, 0.0219717, -0.0249822, 2.9857e-16
-0.109757, 0.0158093, 0.194127, 0.00152515, 0.0654004, 0.0203117, 0.117481, 0.116579, 0.0818031, 0.0167737, -0.024942, 0.10967, -0.062208, 0.171381, -0.0861636, -0.0178916, -0.0208944, 0.0854626, -0.127914, 0.114051, -0.0361758, -0.123917, 0.0870652, -0.0923228, -0.0320285, -0.0580138, 0.154972, -0.00642395, 0.233823, 0.0493689, 0.124586, -0.0675883, 0.0997911, -0.00583615, -0.0871347, -0.0900545, 0.0272191, -0.210655, -0.0510864, -0.0586319, -0.0289341, -0.0583558, 0.0212611, 0.111268, -0.086972, -0.118788, 0.0161039, -0.0640878, 0.00813032, -0.131934, 0.00946591, 0.081157, -0.0242604, 0.00599422, 0.0573173, 0.176525, -0.0891316, -0.0787757, -0.0190903, 0.0165852, -0.0736888, -0.00150517, 0.0625753, 0.0175437, -0.103491, -0.0612318, -0.147077, 0.00689099, 0.170724, 0.104351, 0.0824617, -0.0498168, 0.00749955, -0.0346497, 0.0188133, -0.0584919, 0.119708, -0.0633366, 0.0101982, -0.11996, -0.163132, -0.117099, 0.0889273, 0.0281442, 0.0688193, -0.11599, -0.106957, -0.084176, 0.0622163, 0.0677929, -0.0418948, -0.0517036, 0.0412947, -0.0665502, -0.0754386, -0.0162995, 0.0580397, -0.0579936, -0.115739, -0.0223688, 0.0164643, 0.0833772, -0.0767913, 0.072703, 0.0256243, -0.0875131, 0.108567, 0.114893, 0.0853435, -0.113007, -0.0395989, -0.0628449, -0.0985186, 0.0567039, 0.0623078, 0.071913, 0.184001, 0.0119898, 0.00557086, -0.0632969, 0.0949346, 0.0913504, 0.0796462, 0.0555431, 0.107224, 0.0311081, 0.0738271, 0.00548448, 2.14014e-17
0.0910771, -0.0223774, 0.0326724, -0.0866404, 0.0378483, 0.0680979, -0.0741991, -0.0802898, -0.0707525, 0.0612127, 0.0987346, 1.6626e-05, 0.0772677, -0.0418421, -0.0908829, -0.13294, -0.0313255, -0.0452905, 0.00885555, 0.0103657, 0.00176825, -0.0584091, 0.0395784, -0.084934, 0.122359, -0.0371277, -0.0633642, -0.127309, 0.113387, 0.0169233, -0.11825, 0.0375647, -0.0151815, -0.0430229, 0.124802, 0.017068, -0.133347, -0.0540099, -0.0480045, 0.0555174, 0.0805781, 0.0458571, -0.0688551, -0.109752, -0.087185, 0.122507, -0.0305458, 0.0609827, -0.0760903, -0.0787404, 0.0499418, -0.0431962, 0.091409, -0.0471228, 0.0567791, 0.0662923, -0.0109017, -0.0446692, -0.0413512, -0.0496313, -0.0281219, 0.0712041, -0.0956713, 0.0289693, -0.0530198, 0.0980342, -0.05692, -0.0913138, -0.177061, -0.0307105, 0.10769, -0.06257, -0.00357315, 0.110329, -0.0713969, 0.02718, -0.0329425, 0.10693, 0.106503, -0.0352625, 0.121631, 0.07467, 0.0855714, -0.0234317, -0.165671, -0.0865411, -0.0609257, 0.0691027, 0.030902, -0.0277943, 0.04292, -0.0851322, -0.0169779, -0.0668507, 0.0743865, 0.102204, -0.215644, 0.0815543, -0.0425497, 0.051834, -0.0490935, -0.017272, 0.0115909, -0.0550313, -0.0314714, -0.125682, -0.0630752, -0.0113427, 0.0451715, -0.0245219, -0.101496, -0.0235095, -0.041768, 0.0500024, 0.0990369, -0.0281548, -0.0990687, -0.0589217, 0.0537931, 0.0374097, -0.0206696, -0.0330458, 0.0671728, 0.115034, -0.185244, -0.117, 0.0323313, -0.0531124, 1.21818e-16
0.0299385, 0.144579, 0.0253543, -0.0765087, -0.105918, 0.0172565, -0.0249773, 0.0507034, 0.0108415, -0.0599394, 0.103753, -0.0240959, -0.16585, 0.0465198, -0.0633314, 0.0718776, 0.0391685, -0.095429, -0.0391615, -0.0934851, -0.0626857, -0.0749223, 0.0106834, -0.0759069, 0.0145282, 0.06432, 0.0464829, -0.045906, 0.0495189, -0.048562, -0.0282827, 0.170806, 0.0328023, -0.139762, -0.0411751, -0.0381054, -0.00586886, 0.178479, -0.197436, -0.0391456, 0.115064, 0.10198, -0.0530753, -0.0350625, -0.136733, -0.0994592, -0.00537153, -0.124035, -0.0506425, -0.0316431, -0.0519953, 0.210995, -0.15962, -0.0786149, 0.0298598, -0.0555336, -0.108634, 0.00554052, -0.027232, -0.0259793, 0.0113479, -0.109008, 0.0369157, -0.0129164, -0.0269966, 0.0916766, 0.0255004, 0.221927, 0.135185, 0.0490498, -0.0515146, -0.0771939, 0.0206283, -0.0345754, 0.0138351, 0.0908729, -0.00386365, -0.0453478, 0.0643337, -0.0544752, -0.0855964, 0.097267, 0.0625607, 0.0413107, 0.0552678, 0.0667872, -0.141282, -0.0615765, 0.109804, 0.0199568, 0.0942398, -0.123931, -0.00487537, -0.141051, 0.00289333, 0.0711404, 0.0900515, 0.000846525, -0.171149, 0.0584653, -0.0590917, 0.0634245, 0.0551415, 0.0664291, -0.0944968, -0.0159428, -0.00796705, -0.115755, -0.102355, -0.00989985, -0.00147443, -0.0754979, 0.00607127, -0.143985, -0.00664493, 0.0575532, 0.0825626, 0.0830689, 0.140495, 0.00713127, 0.0709402, -0.0633202, -0.0802244, 0.0383784, -0.0621116, -0.0492433, 0.0380687, -0.0545824, 2.41854e-16
0.0718275, 0.0168568, -0.090858, -0.098936, 0.0434145, -0.0275107, -0.023938, -0.0106485, 0.0764556, -0.171611, 0.0156034, 0.171818, -0.0177548, 0.0569446, 0.0422158, 0.0475546, -0.0942454, -0.100222, 0.0330436, -0.128621, -0.124308, -0.00546544, -0.100626, 0.133825, 0.025136, 0.00186661, -0.0656727, -0.0722885, -0.0290852, 0.0125277, 0.0432573, 0.0522591, 0.127551, -0.100342, -0.0599968, -0.0425431, 0.120688, 0.0637719, -0.0348083, -0.156573, -0.119888, -0.116772, 0.000854231, 0.0140879, 0.0635423, -0.0950337, -0.0298267, -0.096973, -0.108501, -0.143827, -0.0287184, -0.104923, 0.062932, -0.125, -0.070708, -0.0530186, 0.0588999, -0.0818818, -0.058987, -0.0995109, 0.0358753, -0.0282364, 0.0214143, 0.119865, 0.0521586, -0.10847, 0.0033492, -0.0496593, 0.002543, 0.0138455, 0.0195848, -0.0998562, -0.0350239, -0.135531, -0.0971803, -0.0358188, 0.0146293, 0.00939628, -0.151516, -0.100318, 0.0424496, -0.0224913, 0.0465822, -0.0583842, -0.0630521, -0.174647, -0.0157594, 0.011694, 0.0562012, 0.0454543, -0.0438676, -0.0364857, -0.013675, 0.0306422, -0.0325611, -0.165664, 0.0719399, 0.0969597, -0.0531033, -0.0677942, -0.0482738, 0.0845855, 0.0609452, -0.074048, -0.0842683, -0.0429969, -0.191119, 0.226029, -0.0769068, 0.0903054, 0.0812807, 0.0211051, 0.0101955, -0.0194726, 0.0267944, 0.280534, 0.027466, 0.0941389, -0.0145942, -0.00512994, 0.0622275, 0.105594, 0.038034, 0.101812, 0.0326036, 0.00135109, 0.180917, -0.0498971, 1.01714e-17
0.0212854, 0.0544543, -0.0371461, 0.0886281, -0.0477422, 0.0814142, 0.1048, -0.0247517, -0.114294, 0.234189, 0.00840196, -0.073507, 0.00909061, -0.0190395, 0.113979, 0.0855775, -0.10168, 0.103326, 0.017686, -0.165212, -0.119883, -0.0586322, -0.100344, 0.0046748, -0.0350633, -0.0831215, -0.0601588, -0.121506, 0.154333, -0.0838401, 0.0109862, -0.0941123, -0.105031, -0.0638698, -0.0654444, -0.0213325, -0.0817342, 0.109223, 0.0297097, 0.039208, -0.0306575, 0.024048, 0.134009, 0.101573, -0.0231204, 0.228835, -0.0574604, 0.0112359, -0.0567758, 0.0881502, 0.089023, 0.0381442, -0.107193, 0.0363406, -0.0882359, 0.0853465, 0.151336, -0.0517319, 0.00148886, -0.0163491, 0.164061, 0.012423, -0.0270843, -0.0493295, -0.0859858, 0.0457794, -0.02583, -0.0643451, -0.032895, 0.0977238, 0.0990709, -0.195414, 0.0657711, 0.020122, 0.0532567, 0.120149, -0.0531917, 0.10483, -0.0613907, 0.0224773, -0.0805115, -0.046659, 0.0228333, 0.101095, 0.0759861, 0.0286583, -0.155579, -0.10199, 0.0668067, -0.021266, 0.0480349, 0.00109077, 0.0193389, 0.0780402, 0.0490275, -0.0593126, 0.0745968, 0.00924759, 0.053537, 0.166856, -0.101678, -0.0750273, -0.0246729, -0.159424, -0.00056467, -0.0235812, -0.0281892, 0.00476708, 0.0296865, 0.109383, -0.0422325, -0.0620754, 0.134031, 0.0485581, -0.0154777, -0.119661, 0.0114726, 0.0114737, 0.154613, 0.142228, 0.105479, 0.180215, -0.179001, -0.137108, 0.140178, -0.0502809, -0.0391845, 0.0789224, 1.60006e-16
0.00777793, -0.0516173, 0.0191963, -0.0107783, 0.00202243, -0.0979401, 0.0591068, 0.104092, 0.0440103, 0.08107, 0.0233729, 0.25311, 0.0183735, 0.122437, -0.184919, 0.0434254, 0.101078, -0.0347611, 0.0312541, 0.0101893, -0.00815446, 0.0421527, -0.0890623, -0.00262331, -0.049524, 0.0241743, -0.0887815, 0.104189, 0.0357016, 0.104696, 0.0634147, -0.0251185, -0.101607, -0.00702783, -0.0134124, -0.0334164, 0.0245158, 0.114003, 0.123726, 0.0312157, -0.117791, -0.116697, 0.0508898, -0.0524832, -0.0767601, 0.0126216, -0.11314, -0.0410393, 0.0434575, 0.0629965, 0.0727573, -0.00487271, 0.2183, 0.0263291, 0.0802166, -0.0256552, 0.0411464, -0.0292441, -0.051473, 0.0844448, 0.0115086, 0.057248, 0.0358735, 0.027884, -0.00137016, 0.132151, -0.0460682, 0.0234712, -0.163497, -0.071317, 0.105551, 0.0297568, -0.00434813, -0.00790953, 0.101399, 0.0666174, -0.0622781, 0.00782638, -0.0138953, -0.117179, -0.0530756, -0.110488, 0.0702203, 0.0617225, -0.0225079, -0.0414096, 0.0140845, 0.0734111, 0.0334106, -0.0298276, 0.206784, 0.0224352, -0.0275196, -0.00657623, -0.0887407, 0.033194, -0.10495, 0.00403441, 0.0561717, 0.0769873, -0.203364, 0.0250765, 0.05509, -0.0273543, -0.0400112, -0.110433, 0.0251751, -0.0258197, 0.0577644, -0.0312451, 0.0568948, 0.0866952, 0.144762, -0.117397, -0.02161, 0.0309244, 0.0756166, -0.0853793, -0.017371, 0.0518344, -0.0280276, 0.196375, 0.216387, -0.0378017, -0.0196058, -0.0950801, 0.00880776, -0.0471316, 6.03852e-17
-0.0133353, 0.0797394, -0.00190453, -0.00478605, -0.0949714, 0.0336959, 0.0273159, -0.0652592, -0.0619806, 0.000453272, 0.118787, 0.0614998, 0.0479237, 0.016548, 0.0949954, -0.146001, 0.173725, -0.132328, -0.0434372, 0.019606, 0.0779513, 0.0250462, -0.112847, 0.0658652, 0.102318, 0.0883089, -0.101019, -0.0226127, -0.16151, -0.0853808, 0.0392244, -0.119597, 0.105544, -0.0482213, 0.136555, 0.0422356, 0.0301208, -0.0989922, -0.00719977, 0.0431881, -0.00207094, -0.102385, -0.0283733, -0.116096, 0.0673742, -0.162513, 0.0181378, -0.0613748, 0.0652781, -0.20199, 0.0134253, -0.0346496, 0.0205125, 0.174288, 0.0456088, -0.0716215, -0.0436816, 0.0823038, -0.0626972, 0.145949, -0.0886408, 0.0487412, -0.097559, 0.0395596, -0.0132024, -0.0835291, 0.116865, -0.0336762, -0.0210642, -0.0514475, -0.0383851, -0.115294, -0.00276161, 0.0162652, 0.0200689, 0.00474278, -0.0645975, -0.124752, 0.0631926, 0.0466096, -0.0722998, -0.0766686, 0.0783025, -0.138282, -0.016965, -0.0216374, -0.00222043, 0.0467587, 0.178005, -0.145027, -0.0797234, -0.0541235, -0.067034, 0.00175124, 0.021416, 0.0980994, -0.0668106, -0.0955235, 0.101346, 0.0903199, 0.0810385, -0.092423, -0.0866119, -0.00555077, -0.0953225, 0.0463291, -0.0221723, -0.038939, -0.0474131, -0.0789255, 0.0326035, -0.108202, -0.00773761, 0.0463309, -0.0698421, -0.0163671, -0.014488, -0.103675, -0.0145876, -0.0677432, 0.0689307, 0.0453725, 0.0903208, -0.00744191, -0.00917271, -0.133933, -0.0861607, -0.0474252, -1.19404e-16
-0.0845412, 0.139657, -0.161118, 0.018288, -0.123414, -0.107302, 0.125368, 0.0511391, 0.0149895, 0.0391842, -0.136065, 0.144402, -0.0506207, 0.053994, 0.0581996, 0.0511475, 0.141836, 0.0362022, -0.143549, -0.0568102, -0.00657566, -0.00628923, 0.00205865, 0.0364808, -0.0436226, -0.0590639, 0.0167327, 0.0248397, -0.066709, -0.00140267, -0.00272469, 0.00207222, -0.0267256, -0.187452, -0.0246958, -0.00149132, 0.124051, -0.0690494, -0.104876, 0.0127949, 0.0507949, 0.00277327, -0.0410889, -0.0761015, 0.0819161, 0.174431, 0.108441, -0.0521948, 0.0685749, -0.0301496, 0.0454977, -0.0372527, -0.0231898, -0.0419843, 0.021115, 0.0327113, -0.00770497, 0.0737814, -0.0790113, 0.0123562, 0.00691675, -0.0625063, 0.126531, 0.0689797, -0.0513448, 0.0235613, -0.108409, 0.0727939, 0.0770409, -0.0649105, 0.197771, 0.00161289, -0.0575229, -0.168349, 0.0243222, 0.0420436, -0.0299902, -0.0417672, 0.00663292, 0.124649, 0.0338888, 0.177326, 0.0015541, 0.0479741, 0.206143, -0.0224528, -0.0857839, -0.0457211, 0.00602271, -0.0416914, -0.0639454, -0.0378169, 0.0849419, 0.0226199, 0.0366263, -0.00884243, -0.0795853, -0.0102197, -0.0526684, -0.0383653, -0.0815626, 0.157127, -0.0566693, 0.0627916, -0.120884, 0.0955245, 0.116635, 0.0395503, 0.0758829, 0.0287531, -0.00986982, 0.0961292, -0.0378309, -0.0566464, -4.95377e-05, 0.00979321, -0.0795935, -0.0809098, 0.129531, -0.0705059, 0.0413709, -0.0220614, 0.0670831, -0.049201, -0.0393945, 0.0121867, 0.0261675, -0.00650342, 3.92684e-17
-0.0482971, -0.116843, -0.0116787, -0.161347, -0.0224321, 0.0406111, 0.00523799, 0.101382, -0.0652727, -0.0355392, 0.141557, 0.0556963, -0.00980482, 0.00665534, -0.0637095, 0.0124449, -0.0888456, 0.0217611, 0.0442363, -0.022278, -0.008137, 0.064236, -0.0742481, -0.0644819, -0.0273338, -0.0731942, -0.0639724, 0.00295735, 0.0907832, -0.0140453, 0.0135176, -0.111271, -0.0124197, 0.0164542, -0.0137927, -0.0392596, 0.0369107, -0.0295259, 0.0145822, 0.135003, -0.129422, -0.220325, 0.0556145, -0.173549, -0.0257516, 0.00968108, -0.0240425, 0.059483, 0.120677, 0.0876726, 0.0650878, -0.0234284, 0.0541113, -0.109676, -0.155159, -0.0220412, -0.0262083, -0.0612143, -0.0757618, 0.0691824, -0.0604848, -0.0748447, -0.102215, -0.117093, 0.107872, 0.109131, 0.0351001, 0.0441507, -0.00720115, 0.0316225, -0.0694323, -0.0963662, 0.0711053, -0.0501897, -0.1286, -0.0567584, -0.0649286, -0.0606533, -0.0699136, 0.227312, 0.180045, -0.034968, -0.0368496, 0.060048, -0.048551, 0.0145107, 0.0182254, 0.107286, 0.0513218, 0.0510763, -0.170899, 0.0883084, 0.0151779, 0.0616071, 0.145265, -0.0916391, -0.0618543, 0.0648811, -0.0362727, 0.0641201, -0.0179546, -0.0059419, 0.00385984, 0.149325, 0.115815, -0.0434769, 0.0225157, -0.0230849, 0.091434, 0.0892274, 0.00495855, 0.0514005, -0.0612102, -0.102335, 0.0350821, -0.102085, 0.0766304, 0.0677936, 0.035628, 0.00359768, 0.00723175, 0.0953354, 0.122082, 0.0411393, 0.0131847, -0.211543, 0.0046291, -0.0180897, 6.06475e-17
-0.0800781, 0.019931, 0.202101, 0.115917, 0.0733951, 0.000370837, -0.0304708, -0.00394421, -0.17159, 0.049576, -0.0378966, 0.0416205, -0.141066, -0.0638889, 0.0487296, -0.0644229, -0.150946, 0.0259487, -0.00408403, -0.0271854, 0.00422317, 0.0578022, 0.0406175, -0.117055, 0.0521121, -0.0989912, -0.100305, -0.0184298, 0.102058, 0.0763391, -0.08259, 0.0017017, -0.0763093, 0.16308, -0.0311985, 0.00443314, 0.0177527, 0.0379914, -0.0254997, 0.0752275, 0.0237966, -0.0353086, 0.165342, 0.00666093, -0.0609369, -0.0139158, 0.0562656, 0.0405317, -0.0237314, 0.0275871, 0.17589, -0.0999155, -0.0888395, -0.0833869, 0.00140051, 0.0430331, 0.173725, -0.0390962, -0.115721, -0.0899698, -0.0426591, -0.117563, -0.0407056, 0.160762, -0.0199631, 0.0020325, 0.065699, -0.0915907, -0.0575793, 0.0476328, -0.00033499, 0.0754332, -0.00107425, 0.062091, -0.0386671, 0.181258, -0.0566153, 0.153096, 0.02604, 0.028077, 0.13494, 0.111773, -0.0303868, 0.037245, 0.000589827, 0.0367033, 0.063834, 0.0585351, -0.151561, -0.0463585, 0.0802604, -0.0344215, -0.0249575, 0.0181846, -0.00551995, 0.0827867, -0.0345953, 0.0752801, 0.172241, 0.164171, -0.064668, -0.139909, 0.0919616, -0.0697633, -0.116907, -0.09706, 0.180485, 0.010829, 0.032375, 0.0891707, -0.122492, 0.057125, 0.0593463, 0.144461, 0.114581, 0.00983781, -0.0678225, 0.040471, 0.0766939, 0.0605564, 0.0711527, 0.0465317, 0.106829, -0.0123187, 0.118357, 0.0431428, 0.0165433, -0.0743829, 1.02661e-16
0.0972487, 0.0707154, 0.133984, 0.00422303, -0.00818806, -0.0770679, 0.00780695, 0.0696014, -0.264719, -0.143008, 0.0628952, -0.105869, 0.170749, -0.0201665, 0.0372273, -0.0269687, 0.0172832, -0.00939154, -0.0786899, -0.0372351, 0.0280801, 0.0480859, 0.0482244, -0.0595918, 0.0162222, 0.0119479, -0.00639541, 0.0167848, -0.0556114, 0.0428253, 0.00852587, -0.0470962, -0.0507109, 0.103449, -0.0236805, 0.0106333, -0.0170292, -0.120356, -0.0261391, 0.00568553, -0.0464546, -0.00534619, -0.141108, -0.0161281, -0.00980691, -0.0138219, 0.0655147, 0.0206703, 0.0508932, -0.0722157, -0.117301, -0.0707672, 0.0465861, -0.043523, 0.0726847, 0.0422276, 0.116302, -0.0293545, -0.116318, 0.159975, -0.00151345, -0.0515153, 0.030962, 0.0224835, -0.0283462, -0.0761757, 0.0580362, -0.0410711, 0.0339458, -0.117579, 0.0561689, -0.0512032, -0.128588, 0.0477138, 0.0676714, 0.134437, -0.00198777, 0.0806737, -0.0595389, -0.0232065, -0.0748516, 0.0132724, -0.0371584, 0.0667881, -0.0912675, 0.163375, -0.097437, -0.0745743, 0.0251441, -0.262133, -0.00198843, -0.0664924, 0.153386, -0.0544366, 0.0203592, -0.0978564, -0.0766704, 0.000499754, -0.0166756, 0.0637465, 0.135735, -0.0943669, -0.133431, 0.101487, -0.0899823, -0.101548, 0.103819, -0.0478556, 0.0772964, 0.063327, -0.0409247, 0.0307091, -0.114126, -0.0671441, -0.0634154, 0.0694905, -0.188878, -0.112067, 0.0780207, 0.00933331, -0.0378814, 0.0518072, -0.105987, -0.000417515, 0.155952, -0.0601486, 0.0274509, -0.0210215, -9.6929e-17
-0.0350463, -0.160067, 0.0245678, 0.0454328, 0.156813, -0.116527, 0.0541271, -0.0251227, 0.0444074, 0.0839807, -0.0109717, 0.144782, -0.0946443, 0.0132109, 0.0346147, -0.166515, -0.00993121, -0.0570027, -0.0859015, 0.0242095, 0.0156763, -0.0605917, 0.0562541, 0.0989821, 0.00827042, 0.00475041, -0.120395, 0.0500612, -0.0493609, 0.0764498, -0.166892, 0.0242577, 0.149591, -0.107755, -0.195384, 0.0901001, 0.0182625, 0.0191294, -0.0750528, -0.00850324, 0.0173152, -0.0691743, -0.151848, -0.00145317, 0.0793957, -0.0183341, 0.000271435, -0.163053, -0.0699574, -0.076044, -0.00464235, 0.0727774, 0.06416, 0.062026, 0.0331111, -0.0342403, -0.0810006, -0.0562633, 0.0508406, -0.0869652, -0.0124189, -0.0534904, -0.0693072, -0.0279971, 0.0928718, -0.0286457, -0.00243573, -0.0178219, -0.0925291, 0.0291552, -0.0114429, -0.0917066, -0.0321546, -0.0313994, 0.0324583, 0.0431243, 0.0123291, -0.00836824, -0.0470126, 0.00475493, -0.0791965, -0.0675583, 0.0460912, -0.141167, 0.0328324, -0.0649267, -0.025554, -0.0646715, -0.0346855, 0.115585, -0.0809963, 0.0214394, -0.104432, 0.0557896, -0.0323619, -0.00448087, -0.0265953, -0.155176, -0.19462, -0.0853143, -0.209937, -0.0405689, -0.0699494, -0.0190805, -0.0124296, -0.0325368, 0.0221915, -0.0404067, 0.045223, 0.0481834, -0.026357, -0.0121303, -0.0969085, 0.0688764, 0.0470198, 0.0121451, -0.051566, -0.0488538, -0.018213, -0.13009, -0.0419941, 0.089164, 0.046562, 0.0110732, -0.0767512, -0.162732, -0.029906, -0.0150242, 3.09251e-17
-0.036194, 0.0520726, -0.0777087, -0.128577, -0.077811, -0.00202293, -0.0830622, -0.115032, -0.0563157, -0.0452319, -0.0148703, -0.0317765, -0.00605287, 0.0215636, 0.100948, 0.00540135, -0.0737641, 0.0187128, 0.0225143, -0.0942458, -0.0419077, 0.0449423, -0.0545035, -0.00118692, -0.0379818, -0.0192584, -0.0439275, -0.007979, -0.0623964, -0.044329, -0.071272, 0.0692006, 0.127837, -0.156434, 0.0899212, -0.1523, 0.00098797, 0.0338889, -0.0967385, -0.10669, 0.0273747, -0.0242137, -0.0402923, -0.138694, -0.0417948, -0.0787121, -0.0213225, -0.0720915, 0.0481673, -0.0393973, -0.0816557, 0.0370793, 0.080383, -0.087622, 0.0985948, 0.0528779, -0.0574367, -0.0153649, 0.0247192, -0.0300166, -0.097692, -0.0367011, -0.14263, 0.0721563, -0.130032, 0.0900926, 0.0754056, -0.0994503, -0.104444, -0.0444201, 0.0062352, 0.0776386, -0.0442609, 0.00457185, -0.0256687, -0.04268, 0.0074017, 0.10617, -0.171182, -0.038829, -0.0595429, -0.107334, -0.0053532, 0.0149324, 0.160877, 0.0413665, -0.128263, -0.18741, -0.082831, 0.065943, -0.102637, -0.0339837, -0.165059, 0.0138168, 0.0479215, -0.0252689, -0.0900577, -0.0174123, 0.00259884, -0.261496, -0.113933, 0.00354346, -0.0562908, 0.0306102, -0.0167793, -0.0145981, -0.0946189, 0.0917213, -0.0958428, 0.0590763, 0.118964, 0.039199, -0.0236981, -0.155884, 0.0496198, -0.0424088, -0.0258256, -0.00474523, 0.0934508, 0.0384268, -0.13171, -0.0203879, -0.0730788, -0.0940046, 0.00327745, 0.0510062, -0.0901565, -0.0409063, -2.55637e-16
0.032726, 0.0580089, 0.0467723, 0.0399322, 0.0779502, -0.0614404, 0.0604698, 0.0892495, -0.0630036, 0.0630521, 0.0834182, 0.0558045, 0.114543, -0.0313936, 0.010535, -0.118211, -0.102631, -0.0928785, 0.117829, 0.00361248, 0.132732, 0.0235047, 0.0653442, -0.128769, 0.0466647, -1.89218e-05, -0.0887847, 0.0679551, 0.0895984, -0.065784, -0.117073, -0.0182294, -0.0190802, 0.135349, 0.018198, 0.0670225, -0.196838, -0.0726187, 0.00725771, 0.0386899, 0.0595378, 0.0212513, 0.0210327, 0.0628161, 0.0551438, 0.206073, -0.123937, 0.0283223, -0.0938903, 0.046261, 0.0207574, -0.0326549, -0.037128, 0.00819978, 0.0342261, 0.16787, -0.00852886, -0.00520018, -0.125603, -0.0532688, -0.0587581, -0.0155737, -0.057992, -0.0298613, -0.0298513, -0.00536956, -0.0322515, -0.0835935, 0.0397798, 0.0761184, 0.0621779, -0.0486377, 0.0678127, -0.0598393, -0.0524435, -0.0372879, 0.0383652, 0.100636, -0.0638108, 0.179568, 0.0774463, 0.226808, 0.0294208, 0.157827, -0.0465342, 0.0476635, -0.00168222, 0.025329, -0.061045, 0.00306087, 0.0285692, 0.136405, -0.0104076, -0.0358829, -0.092895, -0.0240988, -0.0187121, 0.139655, 0.0206666, 0.0377979, 0.101775, -0.02501, 0.0625606, 0.0679433, 0.0629873, 0.00553691, 0.0165865, 0.0470742, 0.00382645, -0.0447464, 0.0504345, 0.0868394, 0.0598536, 0.0521292, 0.015156, -0.113766, 0.0136457, -0.110492, 0.0401829, -0.041781, -0.0905829, -0.0761755, 0.05312, -0.0119257, 0.0373792, 0.059907, 0.0620307, -0.119433, -6.88298e-17
-0.099172, 0.0109141, -0.102816, -0.0959194, 0.16324, -0.0337716, -0.041107, -0.0703283, -0.0380465, -0.0612359, -0.00176294, -0.0895842, 0.108412, -0.0385097, -0.0628181, 0.0859404, 0.0214903, 0.105751, -0.084305, 0.0356175, -0.139572, 0.0278122, -0.164499, -0.11972, -0.0780307, 0.077619, -0.0973116, -0.0222005, -0.157903, -0.0275681, -0.0960922, -0.0366622, 0.0379254, -0.000712994, -0.161648, -0.209066, -0.0258259, 0.0238695, -0.106374, -0.0917338, -0.111169, -0.0205565, -0.00820388, 0.058367, -0.032852, 0.0937836, -0.194705, -0.028838, -0.0669743, -0.0412373, -0.0722508, 0.109418, 0.0277521, -0.00596843, 0.00175946, -0.175322, -0.120486, -0.184233, -0.0905191, -0.203357, -0.0954168, 0.0894505, -0.00972652, -0.0988002, 0.0268535, -0.174717, 0.0425266, -0.00286925, -0.0144775, -0.0252741, -0.104799, -0.0353812, 0.0415448, -0.0526212, -0.0969928, -0.167139, 0.0230725, -0.0475917, -0.0970352, -0.0417963, -0.0701219, -0.168835, -0.0351614, -0.127615, -0.025685, -0.0509288, -0.0361141, 0.0943113, -0.056135, -0.0740126, -0.0706307, -0.052787, -0.142929, -0.138145, 0.0205022, 0.0367326, -0.1574, -0.274769, -0.0808775, 0.0468821, -0.347319, 0.0392196, -0.0501229, -0.00812443, 0.071574, -0.0862685, -0.0745089, -0.0275808, -0.111949, 0.0353659, 0.106489, -0.058645, -0.214261, 0.0417012, 0.0645088, 0.0300193, -0.0369135, 0.0805559, 0.0615795, -0.112535, -0.132902, -0.0325832, -0.0616079, 0.0519411, -0.204725, -0.196868, -0.063199, 0.0367247, -1.48481e-16
-0.0026465, 0.1037, 0.0528904, 0.0455821, -0.0390484, -0.0610322, -0.0517278, 0.0233397, -0.0491372, -0.11089, -0.143949, 0.0191709, -0.116911, 0.071241, -0.0938867, -0.0850312, 0.0218949, -0.0604994, 0.0225246, 0.139779, -0.137127, -0.0111927, -0.0506747, 0.129189, 0.115699, 0.0384907, 0.181639, 0.000162762, -0.0532941, -0.0178246, -0.0790808, 0.166426, 0.00538178, -0.0818229, -0.0641672, -0.0469852, -0.00922845, 0.0671008, 0.0479939, 0.101641, -0.0709247, 0.153817, -0.0106028, 0.0317972, 0.0834506, 0.116239, -0.126639, -0.088813, 0.0304029, -0.0347013, 0.108559, 0.0206651, 0.0212249, 0.20293, 0.00679595, -0.0800965, -0.0493501, -0.104429, 0.0208089, -0.162269, 0.0377795, 0.0915093, 0.0880441, -0.0922457, -0.0498592, -0.0885357, 0.0657436, 0.114601, 0.0179869, -0.0619305, 0.146649, 0.0872508, -0.0750382, -0.122886, 0.0781402, -0.148914, -0.0469436, 0.194759, -0.131685, -0.127614, -0.0521298, -0.0389759, 0.0260297, -0.0599603, 0.103155, -0.0304094, -0.116099, -0.151873, 0.143581, 0.0558187, 0.0770304, -0.0999173, -0.0283383, 0.089752, -0.00164658, -0.0983747, 0.0673447, -0.0329224, 0.0499345, -0.0656853, -0.0869387, 0.0495398, 0.00900411, 0.0105029, 0.150636, 0.0626319, -0.0796373, -0.0089403, -0.022095, -0.116325, 0.0668112, -0.00438453, -0.0321166, 0.0463856, -0.0830025, -0.000751804, 0.0531513, 0.216896, 0.00220338, -0.0454076, 0.0249512, 0.0339887, -0.0278596, -0.116213, 0.0140775, 0.0977121, -0.0326899, -0.0710248, -4.33006e-17
-0.0492891, -0.0154241, -0.0544417, -0.0335648, 0.0159126, 0.0362984, -0.0838074, 0.00769337, 0.00854279, 0.127563, -0.042514, -0.0455775, -0.00368051, -0.0853734, -0.0284259, 0.00550293, 0.0296359, -0.0410686, -0.00148373, 0.161648, -0.108577, 0.130588, -0.0589751, 0.0828663, 0.0140032, -0.0237336, -0.0843366, -0.0125485, 0.0599603, -0.0403208, -0.0126621, 0.0101595, 0.0270388, -0.00531966, -0.043069, -0.166447, -0.0437768, 0.0175244, 0.043961, -0.111146, -0.0987579, -0.0768654, -0.0556787, -0.013993, -0.0230781, 0.147514, 0.0207624, -0.0362611, 0.17537, 0.0783537, 0.110447, -0.0455419, 0.0623638, 0.173808, -0.0511463, -0.130147, -0.0167483, 0.0643512, 0.0516041, -0.0862244, -0.150728, -0.0723297, -0.0701608, 0.0307392, -0.24906, 0.0654889, 0.0291395, -0.101813, 0.0571818, -0.00598396, -0.032447, 0.0327458, -0.050694, 0.00564329, 0.0397186, 0.0500804, -0.0223647, -0.0817579, 0.0984189, -0.0390137, 0.0125624, -0.190238, 0.0551658, -0.0679714, -0.0486356, 0.0521083, 0.0916759, -0.0378478, 0.0599375, -0.101373, 0.133727, 0.0736311, 0.0266541, -0.0931198, 0.0953522, -0.148427, -0.0607996, -0.162599, 0.0769408, -0.0420125, 0.120273, -0.0371825, -0.0785469, -0.125434, 0.0779045, 0.0554685, -0.131344, 0.128059, -0.0913994, -0.027305, 0.0494616, 0.0221714, 0.0828873, -0.00105808, -0.0353835, 1.15598e-05, 0.117515, -0.106961, 0.0803858, -0.0727002, 0.101286, -0.00765482, -0.0586801, 0.185157, -0.0287646, -0.0765744, -0.0477882, -0.0377179, -5.55573e-16
0.0865447, -0.0416829, -0.161432, 0.0224341, -0.211985, -0.0694104, -0.0533015, 0.0351168, -0.100706, -0.0456556, -0.049844, 0.0976764, -0.00745736, 0.0130955, -0.0322001, 0.181324, 0.163057, 0.0657115, -0.0332679, -0.157063, -0.130133, -0.0558046, 0.0243244, -0.136827, -0.0710263, -0.0221759, 0.0228791, -0.0736645, -0.111504, 0.0506699, 0.03773, 0.122141, -0.0305358, -0.0945463, 0.0361197, -0.02664, -0.0965783, 0.0299359, 0.00176145, -0.0531394, -0.0565965, 0.0667348, -0.0724537, -0.0729621, -0.0235259, -0.163196, -0.158077, 0.0554029, 0.0151814, -0.0179669, -0.0540245, 0.0862476, -0.0980647, -0.106503, 0.135029, -0.0123691, -0.0072174, 0.00877896, -0.026939, -0.0094197, 0.0189035, -0.185846, 0.0809855, -0.0680996, 0.00405473, 0.019499, 0.0382385, 0.0075934, -0.115341, -0.20028, 0.0540709, -0.0686636, -0.110217, 0.0863967, 0.0818188, -0.114521, -0.0289295, 0.112377, 0.0149593, -0.160362, 0.0153395, -0.127937, 0.041174, 0.010747, 0.132144, -0.0910088, 0.0014049, -0.0404193, 0.0764141, -0.0471066, -0.0131225, -0.108435, -0.0762704, 0.0523908, 0.114203, 0.0111399, 0.0256057, -0.137852, -0.0151292, 0.00926811, 0.104532, -0.0304162, -0.0206358, -0.0464341, 0.0422755, 0.123677, 0.0723204, 0.0271168, -0.062574, 0.0321494, -0.0188123, 0.00108651, -0.0804841, -0.144536, 0.128347, 0.117013, 0.0474202, 0.0322609, 0.0196852, -0.0736564, 0.00976387, 0.0478983, -0.0169553, -0.124132, -0.0654145, 0.073345, -0.0979331, 0.0736248, -6.05137e-17
0.0801549, 0.167772, 0.0246661, 0.0825292, -0.129051, 0.0557166, -0.0907593, -0.0270994, -0.0397164, 0.0660655, 0.0368096, -0.155233, 0.0369379, -0.00968135, 0.0465572, -0.0397691, -0.0526437, 0.197852, 0.0225964, -0.0580278, -0.0747742, -0.125566, 0.0302557, -0.111966, 0.0585623, -0.0497849, -0.178191, 0.0332888, -0.0681261, -0.129365, 0.106018, 0.0699434, -0.013106, -0.105782, 0.168322, 0.0362119, -0.0348297, 0.0638031, -0.150681, 0.0152966, -0.124679, 0.00809763, 0.0310244, -0.118533, 0.0187615, -0.0516529, 0.0394393, -0.0382307, -0.0467065, 0.0233339, -0.0299053, -0.00283421, 0.124114, 0.0362217, -0.0327337, 0.109328, 0.104781, 0.0826663, 0.062047, -0.0119495, -0.148247, 0.149343, 0.0513929, -0.00312398, 0.0219646, 0.135631, 0.00365072, 0.100349, -0.0811794, 0.0777571, 0.0277484, -0.0296985, 0.175912, -0.107067, -0.05918, 0.00135846, -0.0196308, -0.0427325, 0.0167645, 0.0421735, 0.0807921, -0.156881, 0.0279554, -0.113708, 0.0185264, 0.205273, 0.0550605, -0.0698291, -0.075818, -0.155938, -0.0701081, 0.00738795, -0.0536657, 0.0207151, -0.0218967, 0.0876662, 0.0385878, 0.144186, 0.198286, 0.02521, 0.0884843, -0.0594236, 0.0822466, 0.0531466, -0.0346896, 0.027982, 0.126302, 0.0533771, -0.040816, 0.0512577, 0.0327223, 0.0462808, 0.0725379, 0.0175007, 0.166606, -0.043674, -0.110631, 0.0382713, -0.0334891, 0.00898024, -0.0649673, 0.0662062, 0.0561711, -0.106091, 0.0836071, 0.0485751, -0.0821888, -0.0537568, 9.56178e-17
-0.0167638, -0.0761318, 0.0240899, 0.0269809, 0.0239902, 0.00852579, 0.0704301, 0.0113726, -0.104427, 0.132813, -0.113592, 0.0271802, -0.114025, -0.0832124, -0.0144058, -0.0252173, 0.112806, 0.138501, 0.0163468, 0.0520796, 0.00415759, 0.0653126, -0.0702951, -0.0389786, 0.0840846, 0.115504, -0.0691446, 0.0547977, -0.0345586, -0.019427, -0.0948996, -0.00439952, -0.0164313, -0.0134468, 0.135649, 0.152106, -0.179448, -0.035284, 0.0898815, 0.0760476, 0.190265, 0.114297, -0.109508, -0.0337493, 0.0104438, -0.160839, 0.0272459, -0.0634492, 0.14958, 0.0494886, 0.0174384, -0.0839096, -0.0624027, -0.0500561, -0.0185987, 0.0217427, 0.00398733, -0.067743, 0.00517495, 0.0362466, -0.0344943, 0.0421352, 0.0338441, -0.00500895, -0.0882898, -0.000187432, 0.0500644, -0.0321294, -0.0227315, -0.0841092, -0.0665223, 0.124648, 0.0304815, 0.121809, -0.130456, 0.00909522, -0.0122603, 0.012641, -0.0682899, 0.0905669, 0.116112, 0.0390803, -0.0504295, -0.0871729, -0.0558558, 0.052973, 0.00298353, -0.0798485, -0.065623, 0.214812, 0.0855599, 0.0504633, 0.0258662, 0.0103898, 0.0430486, 0.0435393, -0.019014, 0.105661, 0.0251961, -0.0212203, 0.0208519, 0.0411759, 0.0839774, 0.0322498, 0.0653178, -0.0581493, -0.00628049, -0.0754826, 0.0540086, 0.131455, -0.123285, -0.0124048, -0.00830434, 0.102802, 0.0808002, 0.0328389, 0.128283, 0.0484613, -0.0888558, 0.033161, -0.0347026, 0.019724, 0.129069, 0.107436, 0.0424106, 0.0109139, -0.119242, -0.0210983, -4.5175e-18
-0.0118484, 0.0723132, 0.0459927, 0.0716451, -0.0925401, 0.0358296, -0.044918, 0.0566369, 0.136415, 0.0948165, -0.0238934, -0.147784, -0.0572127, -0.119387, 0.0154451, -0.0677078, 0.0713116, -0.0507927, 0.233243, 0.0463238, -0.0103824, 0.0063323, -0.0497338, -0.087816, 0.00537457, -0.144914, -0.0863201, 0.021033, -0.138698, 0.115582, -0.206796, -0.0928412, 0.00402752, 0.038171, 0.0100427, -0.000989551, -0.0555457, 0.0219287, 0.103734, -0.0118686, 0.036482, 0.0378377, 0.0183308, -0.0791124, 0.0719114, 0.0110824, -0.0420486, -0.104045, 0.0844098, 0.011588, -0.0168312, -0.0213752, -0.0510281, -0.0403589, 0.110059, 0.0369884, 0.0349141, 0.0709794, -0.00264482, -0.0439733, -0.0747747, 0.0320062, -0.0769519, -0.0635367, -0.188157, 0.0239894, 0.0130202, 0.000484489, -0.105337, -0.047217, -0.0103429, 0.0297662, -0.00170745, 0.0250348, -0.0217222, 0.0612173, -0.0507184, 0.097573, 0.0336683, -0.103203, -0.00772034, 0.165526, 0.151006, 0.102171, 0.044113, -0.104677, 0.0263081, 0.104061, -0.0771711, -0.0150278, -0.0418608, 0.0458657, -0.00918147, -0.0665602, -0.0246966, -0.0485391, 0.0804725, 0.00156873, -0.177334, 0.0373721, -0.0308967, -0.180001, -0.0974679, 0.0380566, -0.130485, 0.0856427, -0.00430967, -0.0540774, -0.0437033, 0.0608356, -0.0670141, -0.0233618, 0.0203415, 0.0514491, -0.0501512, -0.100452, -0.0603855, -0.127486, 0.0542361, 0.0833627, -0.0471334, -0.0876751, 0.097966, -0.0475291, -0.0927173, 0.0633601, -0.114077, 0.0165976, -3.92066e-18
0.0383897, -0.109025, -0.028866, 0.00299872, -0.125379, -0.0997593, -0.0170681, -0.094767, 0.0968521, 0.00777149, 0.175503, -0.0203931, -0.0787865, -0.150688, -0.021376, 0.00472308, -0.00565419, 0.0736643, -0.0997828, 0.0617242, 0.102358, -0.0886447, 0.0633307, -0.0674289, -0.0950963, -0.0714465, 0.0177114, 0.0655721, 0.0194777, 0.000801076, 0.116196, 0.0497869, 0.0118673, -0.0970814, -0.0879882, 0.0231898, 0.100907, -0.11771, 0.0227382, -0.115976, 0.117108, -0.11404, -0.061339, -0.128738, 0.120286, -0.0178758, 0.00746109, 0.023676, 0.261888, -0.103512, 0.0826068, -0.0647505, 0.0872657, 0.00300259, -0.0393697, -0.00893088, 0.129679, 0.0190729, 0.0912991, 0.0522607, -0.0990166, 0.0117984, -0.0646992, 0.12752, -0.0730001, 0.102128, -0.0274609, -0.0140859, -0.0709943, 0.134809, -0.0340753, -0.039573, -0.0190582, 0.111565, 0.152602, -0.115275, 0.0395959, -0.101054, 0.0301622, 0.0258938, -0.0489542, 0.113026, -0.0276267, 0.0716577, -0.0865779, -0.0298835, 0.074478, 0.0662794, -0.022282, -0.027926, 0.0117193, 0.00539662, -0.0168246, -0.0176317, 0.0170329, 0.00972, -0.0186917, -0.00687518, -0.0178268, 0.0740889, -0.0125764, 0.0557021, -0.0339932, -0.00322188, 0.068869, -0.0335711, -0.003419, 0.0343197, 0.146857, -0.0118799, 0.112216, -0.0471027, -0.00254621, 0.00776994, 0.181471, -0.0222248, 0.046181, -0.121158, -0.0981858, -0.0280245, -0.0322394, 0.100258, -0.0435116, -0.0308777, 0.0527707, -0.00562602, -0.138334, -0.0577341, 3.23159e-17
0.0212702, -0.0799133, 0.0248827, -0.126403, -0.0273514, 0.0476633, -0.119998, 0.0507133, -0.0206105, -0.0563952, 0.00659671, 0.0108559, 0.00800731, 0.0242822, -0.00390901, 0.0237528, 0.119468, 0.0563495, -0.0112491, -0.00111527, -0.115964, -0.0170374, -0.0412844, -0.159059, 0.0100228, -0.0321668, -0.0976147, -0.019493, -0.00609128, -0.0448653, -0.00333246, -0.109424, -0.111934, -0.141263, -0.191988, -0.0235608, -0.0401284, -0.129866, 0.0395903, -0.0524466, -0.143742, 0.0337789, -0.0848558, -0.0191684, -0.0414357, 0.0619493, 0.10022, 0.104204, -0.0291249, 0.0681427, -0.0998646, -0.117238, -0.00909702, -0.100049, 0.0551093, 0.0570283, 0.0565171, 0.0301651, 0.186449, -0.00725518, 0.0382955, 0.00162093, 0.00961084, 0.0832306, 0.0927527, -0.142457, 0.136364, -0.0255991, 0.0485446, -0.0787897, 0.147627, 0.0515803, -0.0826285, -0.041583, 0.163621, -0.0221665, 0.0780083, 0.206304, 0.0672499, 0.0316671, -0.107305, -0.167156, 0.0428259, 0.0660203, -0.0506374, 0.118147, -0.0436521, -0.035453, -0.0396102, 0.0133588, -0.0745948, -0.142167, -0.00149483, 0.0611047, -0.0106895, 0.0417939, -0.0786698, -0.107028, -0.0519628, 0.0392723, 0.0191142, -0.0771714, 0.0462276, 0.191579, 0.0952866, 0.0920221, -0.0140159, 0.0552179, -0.0981577, -0.0773375, -0.0531226, -0.0270632, -0.102063, 0.116578, 0.000508269, -0.0484084, -0.0554623, -0.00472108, 0.028935, -0.0419372, 0.0902426, -0.0810666, 0.0382988, -0.0405145, -0.0259383, 0.155924, -0.107282, -0.134634, 1.32504e-16
0.0565938, 0.12302, -0.015622, -0.029108, 0.0152669, -0.12749, -0.0143567, -0.00249925, -0.00965642, 0.0244079, -0.0203366, 0.121898, 0.0371104, -0.0721309, -0.064884, -0.045157, -0.035484, 0.0631378, 0.0784782, -0.0335528, 0.16852, 0.0136431, 0.104449, -0.112772, -0.0687902, -0.0204568, -0.0159527, -0.0506661, 0.137669, 0.0416252, 0.0749318, -0.0459767, 0.0319459, 0.0837362, -0.106344, -0.035773, -0.118205, -0.00810263, -0.0176991, -0.0107632, 0.0467355, 0.0541635, -0.0102979, 0.149459, -0.00395089, 0.0769031, -0.0156108, 0.0170435, -0.0267644, -0.0839697, -0.0574068, -0.105855, 0.0194501, 0.0459744, 0.0484075, -0.0344574, -0.00610689, 0.242855, -0.0725366, -0.0176312, -0.031271, 0.0220701, -0.130595, 0.0257186, -0.0520944, 0.0165461, -0.0526887, 0.0555936, 0.00630255, -0.126193, 0.146249, 0.0624315, -0.0666771, -0.0178907, 0.15644, 0.0801099, -0.0890015, -0.0736602, -0.0796986, 0.0993798, -0.146701, 0.0246688, 0.0026529, -0.0893974, -0.0141451, 0.054707, -0.138565, -0.0545362, 0.0035513, -0.00571758, -0.119637, 0.0114789, 0.106168, -0.0626598, 0.00631773, 0.0241766, -0.0856213, 0.00433153, 0.0515857, -0.0548812, -0.0125173, -0.09444, 0.149275, 0.0682254, -0.0448879, 0.101829, 9.44018e-05, -0.0365625, 0.0807342, 0.0438045, 0.0832397, 0.0117207, -0.0882639, 0.0373253, 0.0401352, -0.0889808, -0.0707337, -0.0116282, 0.0694924, 0.0415474, 0.00653673, -0.114149, -0.0858916, -0.0613139, -0.0941349, 0.0680824, -0.00836916, 0.0546518, 1.4105e-17
-0.0448251, -0.0210745, 0.0244321, 0.00411163, -0.0299385, -0.0423193, -0.130348, -0.0202631, 0.0275112, -0.0304884, -0.142027, 0.136272, -0.183209, 0.0228856, -0.126206, 0.0218176, 0.0801963, 0.0118476, -0.0383723, -0.0522148, -0.0420684, 0.0145544, 0.00654914, -0.039732, 0.151042, -0.00267382, -0.125454, -0.0461073, -0.118579, 0.0987297, -0.0420118, 0.00898638, -0.0257591, 0.0497645, 0.0870167, -0.191187, -0.0640629, 0.0318435, -0.0659856, 0.0680247, 0.0107079, 0.11243, -0.0664334, 0.0923096, -0.0793621, 0.0288281, -0.074135, -0.0770333, -0.0445958, 0.0681149, -0.0132117, 0.0218549, -0.00839768, 0.073798, -0.0550839, 0.0167605, -0.0204528, -0.0470561, 0.0879838, -0.0825092, 0.0098938, 0.00157766, 0.0415605, 0.107839, -0.150772, 0.0153039, 0.00534833, -0.10362, 0.095104, -0.0596138, 0.00831856, -0.0999702, -0.0881531, -0.00245789, -0.138918, 0.0290355, -0.0508564, -0.0456542, -0.0340881, 0.0965918, -0.0535217, -0.0377353, 0.0717466, 0.00524946, -0.0259565, 0.0674196, 0.000308261, 0.00724587, 0.106376, -0.104272, 0.00409569, 0.0231847, 0.068153, -0.0882731, -0.0517618, 0.0876852, 0.080084, 0.0251631, 0.0922235, -0.211317, 0.0158341, 0.0605341, -0.138491, 0.0362615, -0.0186948, -0.00440983, -0.0878689, 0.00519622, -0.0788387, -0.00819054, 0.0592052, -0.0521467, -0.0363588, -0.103652, 0.0438752, -0.143233, 0.0685005, 0.0347639, 0.143259, -0.0299363, 0.0645563, -0.0371485, -0.02386, -0.108043, 0.022157, 0.0156612, -0.0489146, -0.00280744, -1.73178e-17
-0.115268, 0.055453, 0.0224311, 0.0327645, -0.0447168, -0.0416834, -0.0340063, -0.0862428, 0.142321, -0.0971129, 0.115663, 0.0995948, 0.0343613, 0.0545162, 0.1108, -0.112655, -0.0400906, -0.0221669, 0.00561861, -0.0556033, -0.0646279, 0.0227288, -0.11428, -0.0103543, -0.0946766, -0.0190718, 0.0479683, -0.0648751, -0.0676281, -0.0353737, -0.0256802, -0.022783, 0.00153941, -0.110105, -0.0187958, -0.104916, -0.0389501, -0.0119145, -0.0418444, 0.0376288, 0.0133592, 0.121541, -0.145214, -0.0669864, 0.0452628, 0.00594527, 0.0358169, -0.0335901, -0.194328, -0.10188, -0.145119, 0.0890477, -0.0613161, 0.0152325, 0.0632987, 0.0123272, 0.0290312, -0.0172648, 0.0358643, 0.000542107, 0.00678605, -0.129199, -0.00831399, -0.208418, 0.189358, 0.0452558, 0.028446, -0.162144, 0.020966, 0.0909842, 0.000983478, 0.190584, -0.0228668, 0.0539042, -0.0071047, -0.0794759, -0.0120531, 0.0293223, -0.00892428, -0.253931, 0.111409, -0.124588, -0.145263, -0.0510767, 0.130437, 0.2045, -0.250643, -0.0994793, 0.0913444, 0.152564, 0.0614857, -0.0258464, -0.0249453, -0.132542, 0.00112541, 0.0220024, -0.0119645, -0.0635671, -0.191111, -0.175284, 0.080387, 0.0996219, 0.0857899, 0.122813, -0.128358, -0.11797, -0.0740265, -0.132035, -0.0943021, -0.00641748, -0.0248858, -0.00215378, -0.0366923, 0.0870501, -0.0276241, 0.0435576, 0.0150869, 0.0781593, -0.0776585, -0.118471, 0.0388507, 0.0657092, -0.0456518, -0.0752165, -0.0115303, 0.0585205, -0.135439, -0.0572632, -1.10866e-16
-0.00853582, 0.0508469, -0.0738455, -0.0734401, -5.53675e-06, -0.0420674, -0.242501, -0.0481525, 0.0123107, -0.122686, 0.0977218, 0.217077, -0.154696, 0.164859, 0.194341, -0.0062736, -0.0492101, -0.0396717, 0.0346206, -0.119165, -0.123975, 0.0289339, -0.204874, 0.0560151, 0.047353, 0.121424, 0.167042, -0.095649, -0.146635, 0.00545629, -0.0768203, -0.00246822, 0.0488158, -0.0744183, 0.020823, -0.276513, -0.0158957, -0.0214259, -0.214054, -0.20364, -0.200733, -0.0427397, -0.110371, -0.206178, -0.0233319, 0.0316688, -0.221692, 0.102936, -0.0335633, -0.151316, -0.168964, 0.161677, -0.0848125, -0.0614029, -0.0544181, -0.267376, -0.0132266, -0.0868087, -0.0231312, -0.131654, 0.00966602, -0.0410405, 0.15131, -0.0138207, 0.00251899, -0.0897489, -0.00419643, 0.158857, 0.107873, -0.0672405, 0.102472, 0.0640716, -0.0051782, 0.152435, -0.0110035, -0.314696, -0.103898, -0.198362, -0.0683703, -0.093971, -0.0258087, -0.163997, -0.0547925, -0.138227, 0.194606, 0.0348634, -0.087508, -0.147765, 0.155848, 0.253193, -0.000364452, 0.0249273, -0.151865, -0.0526912, 0.101432, -0.111938, 0.13522, -0.281179, -0.304252, -0.175358, -0.153146, 0.15752, 0.0161758, -0.0472078, -0.0747498, 0.125131, -0.157115, 0.115648, -0.233817, -0.0831231, 0.0165007, 0.0744393, -0.00704077, -0.259028, 0.0295417, 0.0858626, 0.0452278, 0.306305, 0.0900641, -0.0076242, -0.180388, -0.00912789, 0.00552715, -0.0419675, -0.104131, -0.256871, -0.082537, -0.0126171, 3.69631e-17
0.0691367, -0.033329, 0.0367896, -0.000746882, -0.0850935, 0.0219396, -0.101757, -0.0315648, -0.0857618, 0.032801, -0.0263801, -0.0773282, -0.0790697, 0.0951535, 0.0939017, 0.0879121, 0.133936, 0.0492556, 0.123691, -0.0287499, -0.109335, 0.0638389, -0.0830461, -0.0250063, -0.162686, 0.0347413, 0.0601141, 0.0232259, 0.031905, 0.0190264, -0.0323609, 0.0344597, -0.0562381, -0.128249, 0.134, -0.244867, -0.0280402, 0.0388014, -0.153322, -0.0172432, -0.0681812, 0.142284, -0.131061, -0.0279798, -0.0666849, -0.022624, 0.00998091, -0.183472, 0.040098, -0.11914, -0.0399657, 0.0586965, 0.00867172, -0.0859336, 0.0390664, 0.0140215, -0.00400466, -0.0473378, 0.00602593, -0.102027, -0.128802, -0.0902439, 0.0247608, 0.118703, 0.0835165, -0.0285885, -0.0486444, -0.0790107, -0.0756694, -0.146061, 0.0292563, -0.0919546, -0.0235371, -0.0159426, -0.0903965, -0.0468443, 0.0547819, -0.121232, 0.0414028, 0.0493598, -0.0698456, -0.12094, 0.00923239, -0.0471783, -0.0276514, -0.102709, -0.00470284, -0.0617102, 0.00658505, 0.0202501, 0.114777, -0.122653, 0.0205267, -0.134884, 0.0584987, -0.151244, 0.306217, 0.0197938, -0.0367493, -0.104716, 0.0595576, 0.104237, -0.0716141, 0.170835, -0.242901, -0.069469, -0.0965814, 0.0740263, 0.0321196, -0.0147718, 0.092237, 0.0306543, 0.0172235, 0.03092, -0.0661763, -0.00792974, 0.0762127, -0.070438, 0.0287079, -0.0528718, -0.13363, -0.0887746, -0.00964394, -0.0260125, -0.188651, -0.0304665, -0.0552865, 0.00224753, -1.47366e-17
-0.0299012, -0.0379599, 0.0692128, 0.0547396, -0.0294729, 0.027527, 0.0551423, 0.0308548, 0.0350315, -0.111352, -0.0459334, 0.0274689, 0.0946139, 0.111219, -0.0656617, -0.0345902, -0.0779992, -0.107355, -0.0265212, -0.108166, 0.195145, 0.0868698, -0.138341, 0.0323236, -0.15577, -0.0651479, -0.155629, -0.0542284, -0.0448239, 0.0320681, -0.0939251, -0.176979, -0.0351205, -0.084421, -0.100072, 0.0625236, -0.114797, 0.132661, 0.0659085, 0.0714121, -0.0864015, 0.0502205, 0.0151013, -0.0778465, -0.0336727, -0.0112238, 0.12446, 0.0565, -0.0215383, -0.00835115, -0.150258, 0.0726661, -0.00461576, -0.0108363, 0.0450328, -0.0779963, -0.0495131, 0.0858618, 0.02605, -0.041901, -0.0605056, 0.0456102, -0.0164035, -0.00332116, -0.130148, 0.0703258, 0.0123173, 0.010175, -0.0449043, -0.0319244, -0.0471562, -0.0970263, -0.0711491, -0.110069, 0.0259761, 0.0279844, 0.0494925, 0.0522738, -0.0553242, -0.11775, 0.0578743, 0.0286823, -0.00832977, -0.0530997, -0.0991523, -0.0209962, -0.0975574, -0.140779, -0.0489212, -0.120185, 0.0476017, -0.114638, -0.035486, -0.119576, 0.117903, 0.0243872, -0.0255808, 0.0417348, -0.16551, -0.0792938, -0.0500689, 0.120209, -0.0528808, 0.0160915, -0.00979555, 0.0184222, 0.0461956, -0.0737168, 0.244626, -0.0341851, -0.120805, 0.07024, 0.0934382, -0.000790387, 0.030169, -0.079539, -0.0647613, -0.0761403, 0.0632345, -0.0942895, 0.00522638, -0.00558116, -0.00706634, 0.0580772, -0.0688467, -0.11692, -0.0841934, -0.00866168, 9.77991e-17
-0.0416404, 0.0886645, -0.192738, -0.0269365, -0.224303, 0.119431, -0.178822, -0.0977208, -0.155742, -0.170164, -0.120771, 0.199297, 0.0871421, -0.00630715, 0.145512, -0.0599484, 0.0120714, 0.151262, 0.0991351, -0.00834788, -0.0960691, -0.161099, -0.0209074, -0.042457, -0.0339796, -0.0546903, 0.0113611, -0.235728, -0.0564688, 0.0315491, -0.0758509, 0.152292, -0.0604461, -0.255766, 0.0255861, -0.145338, -0.22163, -0.0882147, 0.0162585, -0.0663181, 0.0165858, 0.127249, -0.16684, -0.100267, -0.0396307, 0.188023, 0.00742634, 0.0486667, -0.0189136, -0.113596, -0.270989, 0.0462951, -0.139605, -0.0769414, 0.0319183, -0.165919, 0.0249187, 0.0250407, 0.0838923, 0.0319151, -0.123732, -0.0296066, -0.0862971, -0.0448124, -0.0238307, -0.11919, -0.160244, 0.0817487, 0.110023, -0.227219, 0.118236, -0.0333844, -0.171648, -0.0252735, -0.0679345, -0.0471784, -0.0999882, 0.0191473, 0.119335, -0.0869963, 0.116426, -0.0600801, -0.068099, -0.0382963, 0.0450227, 0.0567392, -0.0656262, 0.0440278, -0.044404, -0.0714745, -0.0243242, -0.0801197, -0.0823107, -0.104585, -0.175064, -0.131109, 0.140318, 0.00320943, -0.0385078, -0.113778, -0.044878, 0.0960429, 0.0310081, 0.141623, -0.0711386, 0.145146, -0.167531, 0.0695253, -0.133632, 0.0436332, 0.0207274, -0.143722, -0.112322, -0.0871615, -0.130402, 0.0118498, 0.0422213, 0.0484094, 0.0992644, 0.0441039, -0.21657, 0.0265906, -0.0754553, -0.051772, -0.217219, -0.192005, -0.0620605, -0.224862, -8.6589e-16
0.0535836, 0.000418181, 0.109858, -0.0311526, 0.134436, 0.0499303, 0.0735193, 0.0676179, -0.100074, 0.113815, -0.123753, 0.0642892, 0.062065, -0.0357062, -0.0982659, -0.0767299, -0.0022189, 0.0934068, 0.0746006, 0.151144, 0.0711984, 0.11982, 0.0663094, -0.0705165, -0.0530463, -0.11689, 0.0151701, -0.117329, -0.0527506, 0.0340874, -0.0268656, 0.00346982, 0.0832778, 0.134119, -0.0405938, 0.0440583, -0.0529688, 0.00304719, 0.0595411, -0.0791536, 0.07342, -0.05822, 0.0148829, 0.0793198, -0.07004, 0.215455, 0.0506749, -0.0192953, 0.0408989, 0.210968, 0.163203, -0.0362921, -0.0421432, -0.095795, -0.197404, 0.0423429, -0.0739392, -0.0374298, -0.0165662, 0.00640093, -0.122121, 0.0913876, -0.0216572, -0.106231, 0.00208309, 0.0615759, 0.0611452, -0.0307524, 0.0913409, -0.0547642, -0.0296293, -0.0500766, -0.077866, 0.0709468, -0.127402, 0.0267224, -0.0467368, -0.107298, 0.0457332, 0.0426243, 0.0355777, 0.054475, -0.00157748, -0.0908285, -0.0856534, -0.0879383, 0.192015, 0.0834958, -0.0451727, -0.0447966, -0.0541894, -0.111364, -0.0116789, 0.0504345, -0.0888965, -0.0872921, -0.0530609, -0.0166897, 0.0718934, -0.104053, -0.0464969, -0.121173, -0.00910882, -0.0655714, 0.1105, -0.0890289, -0.0863319, -0.205613, 0.00979552, 0.0190605, -0.0961105, -0.104278, 0.132809, -0.0303465, 0.132664, -0.0143769, -0.0210652, -0.108939, -0.118039, -0.00716909, 0.00540105, 0.0441678, -0.0260023, -0.0486206, 0.114616, -0.0822673, 0.00433347, -0.0201328, -1.89081e-17
-0.148619, -0.0705417, 0.0102538, -0.085075, -0.0445129, 0.0722535, 0.0396237, 0.0315302, -0.0755835, -0.0259256, -0.115323, -0.11136, -0.0699713, 0.0604581, -0.0513184, -0.138353, -0.0356474, 0.0550825, -0.0763981, 0.0646987, 0.0218848, -0.0126082, 0.0788896, 0.17541, -0.0676767, -0.06839, -0.0889265, -0.0494743, -0.0458876, -0.0666714, -0.0950533, -0.116697, -0.0601135, 0.0806214, -0.00942224, -0.0913852, 0.0362087, -0.0619948, 0.0640221, 0.00822564, 0.0803383, 0.0876422, -0.0682918, 0.0415136, -0.054002, 0.092882, 0.0579344, 0.0637708, -0.100936, 0.134203, 0.0770065, -0.0593502, -0.0360581, 0.115154, -0.0250924, 0.0107412, -0.0653197, -0.0448582, 0.115794, -0.0801269, -0.0502009, 0.0369878, -0.0793189, 0.173819, -0.100408, 0.0470677, 0.12817, 0.0645788, 0.0323277, 0.0708089, -0.0336054, -0.213207, -0.117144, -0.0155513, 0.123557, -0.016344, -0.0418312, 0.172414, -0.0202377, 0.00453565, 0.0715258, -0.0550937, -0.1568, 0.155126, 0.0318639, 0.0851921, 0.0513618, 0.0214416, 0.022049, -0.0575428, -0.00518368, -0.097362, 0.155379, -0.031966, -0.0313502, 0.0407611, -0.00525185, -0.00937376, 0.0389102, -0.00433651, -0.0177607, 0.0528738, -0.0532433, 0.0106314, 0.000967743, -0.0804107, -0.042866, -0.159739, -0.0147306, 0.04013, -0.0475159, -0.0567805, 0.0475797, 0.142325, 0.147881, -0.0142611, -0.0521742, -0.0729787, -0.0053055, 0.027118, 0.12916, 0.0697068, -0.0548954, 0.0660212, 0.018016, 0.0100658, -0.0492553, 0.0905061, -4.67038e-17
