-0.490673, 0.103605, 0.702167, -0.0555863, -0.182373, -0.157401, -0.0295083, 0.143782, -0.00153594, -0.0514432, -0.250439, -0.401847, -0.0662334, -0.114365, -0.126313, 0.338181, 0.29851, -0.0144231, 0.416434, -0.137587, -4.78487e-20
0.486228, -0.215536, 0.443788, 0.301042, -0.249125, -0.412577, 0.215444, -0.198421, -0.201959, 0.0475022, -0.329548, 0.0846523, 0.0149284, 0.0403063, 0.3349, 0.318743, 0.211186, 0.00981473, -0.115238, 0.440633, -4.9948e-20
0.339295, 0.0738638, -0.932133, 0.0317494, 0.199262, -0.192557, 0.00283838, -0.231349, 0.124117, 0.111207, -0.383527, 0.163731, 0.209727, -0.013205, 0.37386, 0.437382, 0.506177, 0.0255862, 0.235672, -0.212899, -9.12226e-19
-0.233094, -0.0540034, -0.338017, 0.048399, -0.296368, 0.463847, -0.0122765, 0.150645, 0.00808942, 0.210938, -0.442411, -0.0430134, -0.30036, 0.347861, 0.307594, 0.400184, -0.0811617, 0.41908, -0.0143002, 0.0803169, 1.26151e-18
-0.128052, 0.206959, -0.195339, 0.216023, 0.0432612, -0.262487, 0.367906, -0.657468, 0.181168, -0.183504, -0.275043, -0.374063, 0.0673309, 0.156206, -0.183377, 0.448499, -0.126126, 0.0667834, -0.155988, -0.0289849, 2.92925e-19
0.629289, 0.245656, 0.220069, 0.197445, -0.0116583, -0.221306, 0.163434, 0.288747, 0.576393, -0.22555, 0.253943, -0.544491, -0.195903, -0.223699, -0.262762, 0.392369, -0.275574, 0.0209547, -0.207667, 0.580026, -4.99131e-19
-0.0684677, -0.321541, -0.386712, 0.284552, -0.00264564, -0.13825, 0.397136, 0.437909, -0.0897219, -0.0803531, -0.364399, -0.225903, -0.404042, 0.278024, -0.0247183, -0.0372375, 0.280021, -0.112938, 0.243659, -0.224362, 6.26788e-20
-0.0140045, 0.00726712, 0.175113, 0.0167412, 0.081513, -0.234033, 0.222854, 0.186495, -0.301858, -0.232768, 0.0883038, -0.218951, -0.105331, -0.296229, -0.0437123, 0.0797033, 0.365879, 0.159546, 0.186866, -0.00778508, 2.17754e-18
-0.0186358, 0.0714993, 0.346276, 0.149641, 0.0289524, 0.547485, -0.495441, -0.0701828, 0.21005, -0.113243, -0.0859633, 0.572274, 1.0224, -0.0795955, 0.481832, 0.214504, 0.294959, -0.126586, 0.657248, 0.282009, 1.32839e-18
-0.0428105, -0.591155, 0.0985699, 0.106095, -0.443198, 0.362698, -0.208818, -0.289771, 0.108991, -0.0106154, 0.416252, -0.248229, 0.0871699, 0.124526, -0.0296751, -0.074084, 0.230961, 0.0313436, 0.249778, -0.095789, -2.80704e-18
-0.0132598, -0.48429, 0.660247, 0.124743, -0.216351, 0.00723167, -0.232978, 0.456584, 0.238114, -0.76225, -0.31356, 0.29608, -0.100361, 0.0749115, 0.185833, -0.336244, 0.13739, -0.135503, -0.202775, 0.0163473, 8.91981e-19
-0.493156, 0.415514, 0.412217, -0.172118, 0.0271639, 0.27459, 0.00995591, 0.35602, 0.303088, -0.216866, 0.250897, 0.0130974, 0.2661, -0.350919, -0.339792, 0.234385, 0.278683, 0.363555, -0.170393, 0.122627, -5.6224e-19
-0.0983835, 0.222895, -0.446052, 0.0805569, 0.222082, -0.425071, -0.0401049, -0.259619, 0.0529073, -0.173026, -0.476403, -0.279234, 0.0297213, -0.0510243, 0.139968, 0.011536, -0.0687149, -0.0656977, 0.283069, 0.171796, 9.96786e-19
0.196405, 0.038286, 0.270985, -0.0889007, 0.124742, 0.184886, -0.028052, -0.33298, 0.148328, -0.632568, 0.0217478, -0.34325, 0.566502, 0.328433, 0.209623, -0.0237293, 0.155048, 0.311712, 0.022122, 0.22588, 6.4751e-19
-0.134636, -0.314812, 0.370566, -0.0925747, 0.221161, -0.0716473, -0.363634, 0.690342, 0.584858, -0.191444, -0.206792, 0.53006, -0.0657834, -0.542254, 0.274347, 0.167695, 0.127027, -0.120818, 0.22194, -0.0549888, -8.45934e-19
0.0952777, -0.146958, -0.00640979, -0.355339, 0.142622, -0.255998, 0.320578, -0.0453578, -0.138344, -0.326642, -0.334247, 0.218129, -0.218253, -0.165088, -0.100163, -0.349197, 0.071734, 0.0270422, -0.774885, -0.413376, -8.18493e-19
0.418745, -0.149837, 0.484341, 0.521529, -0.153308, -0.2756, 0.275277, 0.407143, 0.0611782, 0.101441, -0.108306, -0.287367, 0.258066, 0.212335, -0.0322396, 0.223469, -0.487704, 0.212675, 0.14138, -0.495987, 2.94079e-18
0.0819104, -0.211582, 0.0779366, -0.0354209, -0.332554, -0.185369, 0.0170803, -0.329122, -0.113754, -0.0363525, 0.252857, -0.542899, 0.046841, 0.129479, -0.938607, 0.538209, -0.0672305, 0.298517, 0.741692, 0.179367, -2.36433e-19
0.0398382, -0.111195, 0.174987, 0.0637143, -0.0763876, -0.0723615, -0.225043, -0.229987, -0.0939051, 0.167751, 0.347487, -0.370101, 0.0101498, -0.0690637, 0.496881, 0.316182, 0.449253, -0.0688521, 0.134631, -0.0511643, 5.91348e-19
-0.332784, 0.208938, 0.0312066, -0.25316, 0.533195, 0.345271, 0.560446, -0.294232, -0.427431, 0.125866, 0.347144, 0.33901, 0.279761, -0.406761, -0.177761, 0.294731, -0.278554, 0.125561, -0.355896, -0.278938, -2.57289e-19
0.811511, 0.168703, -0.336794, -0.218841, -0.107709, 0.353319, 0.0354136, -0.22009, 0.217121, -0.288792, -0.0132261, -0.401303, 0.579792, -0.11766, -0.103893, 0.267425, 0.26177, -0.024054, -0.436917, -0.531821, 8.43906e-19
-0.0724816, 0.0271417, 0.185241, 0.0582908, 0.447548, 0.125747, -0.233219, 0.697503, -0.0346969, 0.252679, -0.157438, 0.346842, 0.290832, -0.177562, -0.224991, -0.633519, -0.206463, -0.739375, 0.0984521, 0.0187753, -9.09734e-19
-0.138884, 0.201076, -0.0515845, -0.104646, -0.106709, 0.291904, 0.138766, 0.188185, 0.174207, 0.583547, -0.416284, -0.0415017, 0.132329, 0.146248, 0.291659, -0.361834, 0.28197, 0.0384939, 0.126638, 0.442668, 4.80801e-19
-0.179654, 0.0480228, -0.161397, 0.406503, -0.165334, 0.250669, 0.144666, -0.242716, 0.185662, 0.0961873, 0.109269, 0.188468, 0.271758, 0.419842, -0.0329678, 0.122633, -0.299355, -0.23182, 0.222237, -0.30529, -1.30568e-19
0.238462, -0.119636, -0.181246, 0.15437, 0.297741, 0.0587267, -0.269695, 0.0514842, -0.237943, 0.286686, 0.15179, -0.0296251, -0.076211, -0.231126, 0.188076, 0.49004, -0.0982663, -0.0240258, 0.52254, -0.154087, 3.34216e-19
-0.03501, -0.184114, -0.468748, 0.235828, 0.419013, -0.117767, -0.645474, -0.270904, -0.0490431, -0.148993, -0.419113, 0.0123234, 0.0782913, -0.177316, 0.169139, 0.114169, 0.230525, 0.267694, 0.309787, 0.203188, 1.09565e-18
-0.280337, 0.302094, -0.286937, -0.012555, 0.202976, 0.36866, -0.219074, 0.00980566, 0.00950521, -0.30022, -0.0182662, -0.166303, 0.758678, 0.315366, -0.153254, 0.225202, 0.146754, -0.0951367, 0.316174, -0.178029, -4.45968e-19
0.38996, 0.500393, 0.258945, -0.384569, 0.107649, -0.0654139, 0.416979, -0.0766439, 0.260021, -0.12755, 0.223751, -0.0308617, 0.114458, -0.341818, -0.306587, -0.434889, 0.120992, 0.51768, 0.115286, 0.193762, -2.22314e-18
0.134274, 0.312859, 0.183388, 0.0107418, 0.482932, 0.0671626, 0.396112, 0.183978, -0.263397, 0.0328241, -0.144651, 0.232692, -0.481735, -0.138519, -0.486078, 0.153985, -0.257197, -0.189509, -0.245809, -0.524014, -1.01691e-18
0.408316, 0.254626, 0.29475, 0.320605, 0.223214, 0.236276, 0.47986, -0.0588682, 0.556932, -0.0425404, 0.0655298, -0.637367, -0.339388, -0.0371557, -0.271975, -0.227527, -0.155391, 0.00408096, 0.260621, 0.0631834, 1.15873e-18
-0.485507, 0.0815112, 0.110242, -0.665971, -0.113771, 0.426943, 0.140221, -0.132792, 0.0158884, 0.543456, -0.147706, -0.228951, 0.0392002, 0.243706, 0.22867, -0.17045, -0.0935225, 0.190041, 0.145991, 0.124618, 3.09101e-18
-0.219869, -0.0161804, -0.0348038, 0.30041, 0.293731, -0.423866, -0.0403874, -0.210635, 0.472463, -0.337008, -0.32087, 0.147566, 0.0312559, 0.410442, 0.219433, 0.0369435, -0.0649896, -0.382246, -0.497574, 0.0543004, -4.39722e-19
-0.233925, 0.0286581, 0.031946, 0.764462, 0.165509, 0.418979, 0.174486, -0.272427, -0.0320192, -0.2276, -0.380591, -0.00918845, -0.114698, 0.0415089, -0.245263, 0.366844, 0.271629, 0.0257447, -0.283221, -0.171006, 2.83236e-19
-0.0297236, 0.252825, 0.20804, 0.0358491, 0.0660118, -0.271338, -0.365292, -0.088648, -0.0711927, 0.0504786, -0.265832, -0.0857552, 0.137993, 0.266999, 0.299406, 0.0922006, -0.0885374, -0.0989388, 0.0470068, -0.0751647, -6.93596e-19
-0.524381, -0.43581, -0.489121, 0.240272, -0.0469563, 0.0385, 0.292893, 0.183848, -0.12452, -0.213983, 0.0635928, -0.019607, -0.0706567, -0.0513555, 0.215454, -0.353617, -0.0565729, -0.0872542, 0.342395, 0.216686, 4.02022e-19
0.214434, 0.0579566, -0.250441, 0.532642, 0.166827, -0.0881719, 0.280122, -0.373137, 0.0463679, -0.0599411, -0.131916, -0.341297, -0.311295, 0.227546, 0.0665559, -0.211892, 0.0493646, -0.207929, -0.484715, -0.292162, 7.68564e-19
-0.441566, 0.682165, -0.0175554, -0.129955, -0.117577, 0.229113, -0.201809, 0.0741894, -0.117486, 0.22123, 0.0623883, 0.327911, -0.152318, -0.0714109, 0.509841, -0.20906, 0.0273329, -0.0336822, 0.187554, -0.112153, 1.47725e-19
0.178246, -0.266539, 0.0221069, -0.243414, 0.368473, -0.55693, 0.0148794, -0.325041, 0.342778, -0.161356, 0.514445, 0.0480861, 0.0622239, 0.0701232, -0.0200605, -0.299073, -0.0190483, -0.0679636, -0.0254588, 0.599153, -2.25859e-18
-0.180123, -0.352615, 0.480828, 0.00548433, 0.519352, -0.224185, -0.0576204, 0.235674, -0.122672, -0.0608394, 0.343442, -0.05424, -0.0480524, 0.0395588, 0.481193, -0.152508, -0.387594, 0.20451, -0.0768281, -0.324514, -2.37123e-18
0.223243, -0.15622, -0.300455, 0.501687, -0.1502, 0.213923, -0.21226, -0.134088, 0.163962, -0.185096, 0.848145, -0.326542, 0.0737094, 0.212666, -0.325153, -0.276325, 0.456201, -0.189521, -0.301045, -0.246637, -2.2817e-19
-0.318411, 0.641362, 0.469327, -0.0474073, -0.00931781, 0.327686, -0.110503, -0.0148472, -0.36004, 0.0437057, -0.368444, 0.238481, 0.493085, -0.170807, 0.0267549, 0.0406716, -0.00873936, -0.274132, 0.418383, 0.121737, -3.37014e-19
0.531247, 0.394614, -0.115747, 0.274884, 0.233967, -0.313911, -0.383157, -0.00963633, 0.216654, 0.410655, -0.489032, -0.103446, 0.349377, 0.108767, 0.252513, 0.341283, 0.0892437, -0.251038, -0.208316, -0.562537, 5.21944e-19
0.426533, -0.256146, -0.150781, 0.0568853, -0.482497, 0.368273, -0.159336, -0.448845, 0.970141, 0.273671, 0.252393, 0.396742, 0.025145, 0.0673458, -0.716108, -0.118287, 0.161779, -0.055532, -0.0433049, -0.383499, -2.9652e-19
0.540845, -0.0221198, -0.210088, 0.0304382, 0.00505205, -0.0202376, -0.234001, 0.54017, 0.235193, -0.179642, -0.19928, -0.033991, -0.0451002, -0.588236, 0.392201, 0.227441, -0.0770868, -0.156864, -0.351311, -0.703056, 7.95557e-19
0.319165, -0.41348, 0.0667722, 0.191165, -0.207226, -0.337856, 0.503995, 0.385365, 0.0366207, 0.186711, 0.706531, -0.0324668, -0.379902, 0.408833, -0.450134, -0.0837613, 0.197553, 0.140419, 0.211823, -0.123669, -6.67918e-19
-0.201388, 0.320206, 0.209223, 0.138845, -0.0355003, 0.255845, 0.126412, 0.0971365, 0.400477, 0.0271816, 0.259387, -0.167019, -0.0447017, -0.177202, -0.365489, 0.268742, -0.659323, 0.383734, -0.0688725, -0.0351845, -8.13309e-20
0.50992, -0.259437, -0.96127, 0.00698008, 0.262053, -0.0639158, 0.345692, 0.232068, 0.0332729, 0.00914718, 0.398104, -0.176819, -0.146413, -0.197032, 0.212908, -0.0731743, -0.0630552, -0.102046, -0.333473, -0.298551, -1.91822e-19
0.0606085, 0.414754, -0.229841, 0.132789, -0.41912, 0.367959, 0.122522, 0.0690226, -0.0722444, 0.604136, -0.649191, 0.501177, -0.146581, -0.201349, -0.00900558, 0.0728255, -0.112708, 0.381166, 0.453482, -0.0866689, 2.39135e-18
0.116754, -0.377968, 0.566533, 0.479388, 0.0505939, 0.203819, 0.657764, 0.690102, -0.437096, 0.607646, -0.138931, 0.161549, -0.067576, -0.0899123, 0.0230941, 0.0931091, 0.000176168, -0.0715565, 0.0873137, 0.232574, -7.02227e-19
0.134131, -0.0476604, 0.0644709, 0.10597, -0.411393, -0.333013, -0.273866, -0.00261946, -0.190601, -0.461041, -0.398259, -0.0588029, 0.115186, -0.125838, 0.090117, -0.137397, -0.397151, -0.550346, 0.105097, -0.185437, 1.23979e-18
0.392159, 0.15597, 0.120161, 0.102623, -0.212677, 0.171159, 0.508028, -0.175487, 0.0402934, 0.0403532, -0.476312, -0.0239222, -0.287929, -0.261486, -0.0259132, 0.28737, 0.00805337, -0.185582, -0.125985, -0.147481, -1.20978e-18
-0.41594, -0.0115331, 0.186122, 0.0403053, 0.0323462, -0.252792, 0.0795784, 0.264507, -0.340128, 0.678325, -0.270669, -0.102156, 0.147591, -0.314427, -0.394624, 0.290194, 0.0927685, -0.146289, -0.190927, -0.212988, 3.58362e-19
0.163791, 0.228991, -0.620308, -0.254556, -0.315743, 0.173063, -0.26944, 0.133359, -0.189465, 0.409075, -0.233135, 0.124745, 0.0979032, 0.0708612, -0.191267, 0.70839, -0.204504, 0.164506, 0.38762, -0.181762, -1.93882e-18
0.383237, 0.00854758, -0.0602517, -0.526634, 0.0415548, -0.162166, 0.0578943, 0.0120864, -0.502394, 0.00450051, 0.307781, 0.61229, -0.0616629, -0.0220331, 0.287985, 0.35376, -0.0907811, -0.111114, 0.196877, 0.22252, 7.48794e-19
-0.405035, -0.264538, -0.672263, -0.287255, -0.231759, -0.0858517, -0.0294947, 0.0457089, 0.109667, 0.336571, -0.641817, -0.645484, -0.137091, 0.0717928, -0.280057, 0.393332, 0.227446, 0.0544137, -0.340366, -0.556085, 1.11682e-18
-0.0937425, -0.0251881, 0.386336, -0.0444875, -0.0478279, -0.119993, 0.054807, 0.0505971, -0.301916, -0.015844, -0.030031, 0.284332, 0.531292, -0.0908144, 0.00192019, 0.398773, -0.0522105, 0.340811, -0.0179271, -0.164369, 9.51293e-20
-0.137257, -0.0405362, -0.00181482, 0.0756913, 0.0131969, -0.331125, -0.202746, -0.468193, -0.111773, -0.50648, -0.445493, -0.623603, -0.229177, -0.0591507, 0.206594, -0.61822, -0.00855931, -0.00421412, -0.110106, 0.459964, 7.42395e-19
-0.272372, -0.16323, -0.355494, -0.363862, 0.416569, -0.309358, 0.142659, 0.052442, 0.226795, -0.257221, 0.318776, -0.0574013, -0.290106, -0.217685, 0.0276529, 0.128946, -0.222673, 0.284853, 0.0350437, -0.299929, -1.21346e-18
0.792477, -0.650094, 0.167963, 0.0498699, 0.402677, -0.0802061, 0.359593, 0.185165, 0.325136, 0.157174, 0.0883031, 0.101299, 0.0684172, -0.0589172, 0.0119529, 0.00924322, 0.0241008, 0.129616, -0.303027, -0.2263, 1.71098e-19
0.884729, -0.345045, -0.0220293, -0.466778, 0.205894, 0.359862, -0.277295, -0.17993, 0.106609, 0.0500775, -0.335471, -0.0317038, -0.230899, 0.512691, 0.212348, -0.123895, -0.149107, -0.320733, -0.334024, -0.307446, 1.77785e-18
0.139717, -0.0460806, 0.138844, 0.158168, -0.083349, -0.255636, -0.642775, 0.313094, -0.421195, 0.00666804, 0.0364943, -0.12355, -0.0514291, 0.224824, 0.00676767, -0.373625, 0.100575, 0.12228, -0.0145896, -0.256928, -2.221e-18
0.105403, -0.350463, -0.169962, -0.0971889, -0.105461, 0.147974, 0.403365, -0.1816, -0.14353, 0.0952481, 0.170452, -0.354179, -0.332364, -0.0810317, 0.0364513, -0.123994, -0.140621, -0.304192, 0.311922, 0.529179, 3.80857e-18
-0.613022, -0.00151358, 0.151924, -0.163254, -0.191858, 0.292944, 0.0459347, -0.324153, 0.409485, 0.692963, -0.151516, -0.275122, -0.00357951, -0.670798, 0.885642, 0.197222, -0.368352, -0.277121, -0.281743, -0.135742, -8.94516e-19
0.211513, -0.155623, 0.109383, -0.323997, 0.245889, -0.103563, 0.409459, 0.413351, -0.00582173, -0.23246, -0.0502686, 0.419837, 0.649786, 0.0493776, -0.138926, 0.622889, -0.145581, 0.1992, 0.0310896, -0.0341581, 5.09601e-20
0.0312041, -0.281203, -0.127866, -0.263481, -0.0542686, 0.368884, -0.202781, 0.0580153, 0.154107, 0.282836, -0.440548, 0.0556486, 0.129594, 0.11108, -0.121562, 0.199131, 0.265904, 0.293121, -0.624103, 0.146599, -1.31134e-18
-0.0682125, -0.47902, 0.171484, -0.183161, 0.243739, -0.510123, 0.508565, 0.312512, 0.131252, -0.393703, 0.22129, 0.14883, -0.00278848, 0.0298058, 0.00360624, 0.0454056, -0.108865, 0.186328, -0.314576, -0.380296, -1.84229e-18
0.148732, -0.475877, 0.138907, -0.234416, -0.47527, -0.226837, -0.182825, -0.297947, 0.0511964, -0.442766, 0.314432, -0.612113, -0.0567805, 0.076878, -0.192968, 0.237281, 0.142571, -0.00406309, 0.344611, -0.301119, 2.35259e-19
-0.36239, -0.0980771, -0.242237, 0.345984, 0.980191, -0.00772178, -0.0926789, 0.115994, 0.230537, -0.460882, 0.0898409, 0.500053, -0.208616, 0.176166, -0.66361, -0.133525, 0.315915, 0.377645, -0.17081, 0.369861, -8.74593e-22
-0.0900158, 0.0970278, -0.0256909, 0.320366, 0.0432052, -0.103655, 0.079395, -0.160779, 0.0981454, -0.112172, 0.320219, -0.131008, 0.119407, 0.0051523, -0.396156, -0.290382, -0.171219, 0.039112, 0.167339, 0.0670599, -1.75481e-18
-0.240647, 0.142297, -0.0766678, -0.647073, 0.144755, -0.0817858, 0.0420397, 0.550799, -0.143279, -0.348655, -0.204881, -0.531359, 0.35813, 0.345924, -0.0784266, 0.00760603, -0.326479, -0.295321, 0.308185, 0.110105, 1.90236e-19
0.177774, 0.0921271, 0.271051, -0.225581, 0.137627, 0.0278082, 0.540749, 0.227605, 0.294283, 0.103685, -0.0630547, -0.313051, -0.168776, 0.0687548, 0.0211461, 0.540591, 0.222199, -0.245048, -0.407821, 0.231834, 5.73612e-18
-0.20524, -0.228204, 0.195857, -0.0775753, -0.0995156, 0.050016, -0.0874451, 0.35886, 0.106987, -0.31117, -0.153676, 0.33922, 0.292155, 0.0305801, 0.836429, 0.0136905, -0.0678392, -0.00888144, -0.0193955, 0.106967, -8.42582e-19
-0.160058, -0.0194881, 0.36817, -0.41294, 0.692114, -0.16268, 0.651816, -0.113289, 0.581567, -0.144303, -0.104535, -0.0079512, -0.306074, 0.382164, -0.416261, -0.343019, -0.613742, 0.00132752, -0.302944, -0.416512, -1.3629e-19
-0.315926, 0.138395, -0.477139, -0.434794, 0.107232, 0.297435, -0.100106, 0.559434, -0.00315938, 0.295357, -0.306591, -0.0541744, -0.357739, 0.455833, -0.569283, -0.121083, 0.490625, -0.415366, -0.206616, 0.765956, -1.14799e-18
0.325969, -0.134334, -0.19307, -0.280941, -0.367981, -0.0167056, -0.227829, -0.0444088, 0.0459374, 0.215406, -0.00169774, 0.240427, 0.474937, -0.244073, 0.0403092, 0.750839, -0.315391, -0.276526, -0.0594229, 0.26891, 5.55222e-19
-0.268897, -0.0120779, -0.458115, -0.027751, 0.340768, 0.457449, -0.875614, 0.393227, -0.222661, 0.0515882, 0.123898, -0.435823, -0.126488, -0.148792, 0.281895, 0.000580895, 0.110706, -0.364788, 0.0859882, -0.10339, 1.41226e-18
-0.385968, -0.225606, -0.175747, -0.160279, -0.286384, -0.163974, -0.0312426, 0.270257, 0.339887, 0.038522, -0.218751, 0.33593, -0.297425, -0.325998, 0.225726, -0.0447893, -0.228329, 0.323647, -0.257346, 0.0296492, -1.03793e-18
0.213763, -0.0478815, 0.0350338, -0.138331, -0.0947108, -0.169051, 0.434599, -0.328845, -0.231955, 0.420737, 0.416428, -0.22594, -0.261587, 0.20299, 0.123012, -0.064456, -0.317954, -0.246143, -0.0413774, 0.565331, 5.40681e-18
-0.00287527, -0.214106, 0.317365, -0.095627, 0.198787, 0.150696, 0.213027, -0.160724, -0.0268597, 0.442086, 0.689113, 0.1982, 0.236603, -0.156874, -0.137401, -0.00413141, -0.491043, -0.0838926, 0.210625, 0.174968, 1.3045e-18
-0.0655201, 0.328951, -0.059284, -0.170496, 0.349436, 0.190196, 0.303852, 0.201406, -0.380788, -0.227107, 0.0974212, 0.356066, -0.32689, 0.0884776, -0.0952686, 0.13942, 0.0813761, 0.511598, -0.434867, 0.173051, 9.36777e-19
0.0798371, 0.135843, -0.0730541, 0.144295, -0.0118672, -0.133483, -0.365855, 0.00994366, 0.389996, -0.0386981, -0.141463, 0.301408, 0.233971, -0.29226, -0.117227, 0.0511252, -0.065996, 0.184485, -0.132747, -0.00964008, -5.68394e-18
0.0124636, -0.0843687, -0.246134, 0.0961636, -0.192918, -0.0588849, -0.217686, -0.128884, 0.21294, -0.13071, -0.256345, 0.0716342, 0.501693, 0.0287214, -0.249187, 0.143296, 0.288318, 0.234829, 0.0929396, -0.288611, 4.78425e-19
0.0746752, -0.238313, 0.182993, 0.218766, 0.123544, 0.0861836, -0.315694, -0.468447, -0.8386, 0.273377, -0.326926, -0.156446, -0.679503, 0.462777, 0.353313, -0.0344931, 0.469256, -0.594627, 0.0569409, -0.200687, -1.49741e-18
-0.0432421, 0.512179, 0.311423, -0.0026998, -0.372879, -0.704579, -0.0183163, -0.426644, 0.303068, -0.150038, -0.42002, -0.515843, -0.16916, 0.283443, -0.474261, 0.152082, 0.124158, 0.0196433, -0.294442, -0.143131, 4.5486e-19
-0.00187783, -0.239392, 0.279799, 0.254977, -0.0589703, -0.561346, -0.0773159, 0.0495532, -0.0323705, -0.0520721, 0.322251, 0.44714, 0.0272399, -0.256817, -0.323354, 0.282155, -0.465594, 0.223807, -0.129465, 0.0848458, -1.76661e-18
-0.175278, 0.367811, 0.101005, -0.323815, -0.226627, 0.253862, -0.378491, 0.312259, -0.0768367, 0.0920098, -0.00429498, -0.400869, 0.105359, -0.0919361, 0.109827, -0.582746, 0.52393, -0.189348, 0.00849469, 0.0978584, 6.7735e-19
0.345024, -0.0475355, 0.00152865, -0.366446, -0.570746, -0.239323, -0.149621, -0.33992, 0.266339, 0.455825, -0.182687, -0.500366, 0.251844, -0.0411044, -0.581421, 0.305431, 0.0478731, -0.0533352, 0.247857, 0.0149978, 1.3943e-18
-0.34201, 0.484833, -0.332814, 0.0813191, -0.326211, -0.292081, 0.148655, -0.173418, 0.253598, 0.0863644, -0.272078, -0.328147, 0.0032106, 0.43391, -0.258218, -0.535411, 0.130315, -0.291142, -0.00835027, -0.512582, -4.10648e-19
0.207292, 0.265056, -0.0128818, -0.118371, 0.282981, 0.0896881, 0.0151317, 0.0718081, 0.475755, 0.436253, -0.0032762, -0.052043, 0.387262, -0.203534, -0.493411, -0.276547, -0.23186, 0.67265, -0.210302, 0.185941, 4.25771e-19
-0.268499, 0.24102, 0.0314582, 0.339146, 0.450348, -0.378014, -0.413729, 0.219632, 0.178998, -0.0136551, -0.444792, 0.342929, -0.129294, 0.180775, -0.163913, -0.0727463, 0.00733535, 0.271836, 0.23924, -0.0209788, 1.84294e-18
-0.0428706, -0.102286, 0.00257615, 0.199121, 0.0916668, -0.0513693, 0.327912, 0.28149, 0.0350048, 0.129746, 0.466107, -0.135859, -0.374148, -0.155238, -0.238827, -0.112206, -0.0618426, -0.133869, 0.175571, 0.168072, -2.75973e-19
-0.199975, -0.475205, -0.354927, 0.160175, 0.512757, 0.0306109, -0.463178, -0.0661342, 0.202268, 0.094513, 0.341684, 0.226792, -0.0182418, 0.00287115, -0.619496, -0.395435, -0.0030204, 0.00348538, 0.0362099, -0.215577, -1.17235e-18
-0.18733, -0.245959, -0.148201, 0.367245, 0.309102, -0.459784, 0.160768, -0.0501928, -0.148717, 0.24156, -0.356519, -0.24429, -0.209676, 0.413564, 0.0256773, -0.055362, -0.0470335, 0.186197, -0.112201, 0.193907, -1.5529e-18
0.840797, 0.255447, 0.466254, 0.0346386, -0.106415, 0.0272401, -0.178835, 0.0471412, 0.542374, 0.481778, 0.175395, 0.239787, 0.348261, -0.00953632, 0.166226, -0.22528, -0.19191, 0.0685956, -0.403944, -0.275427, 1.56715e-18
0.00231504, 0.0354966, -0.0873834, 0.212006, 0.201926, -0.252065, -0.00575954, 0.160527, -0.13258, 0.243213, 0.0156649, 0.524273, -0.0377474, -0.103596, -0.0794188, -0.202869, 0.255616, -0.126655, 0.12838, -0.371241, 4.85499e-18
0.310049, -0.0629891, -0.0672284, -0.343296, 0.236113, -0.140947, -0.244895, -0.259442, 0.260136, 0.239268, -0.628632, -0.161604, 0.238011, 0.0288432, -0.109586, 0.248175, 0.204183, -0.412059, 0.501959, -0.0700394, -1.47925e-19
-0.0398727, -0.24611, 0.355306, 0.1333, 0.316573, -0.105831, -0.383596, -0.154252, -0.226236, 0.0887998, 0.00432126, 0.108034, -0.380701, -6.54121e-05, 0.275671, 0.0489044, -0.438394, -0.247692, -0.180562, 0.09656, 7.05251e-19
0.167534, -0.209166, 0.0519168, 0.55284, 0.0333203, -0.0807415, -0.403566, 0.153497, -0.251878, 0.310067, -0.209614, 0.171433, 0.44639, -0.142074, 0.512998, 0.12705, -0.0754395, 0.295229, -0.0154964, -0.0662701, -6.98252e-19
0.209008, -0.0328741, 0.0663593, -0.536391, -0.136032, -0.177087, -0.293421, -0.0320177, -0.343386, 0.0639878, -0.120599, 0.423709, -0.144224, -0.0785991, 0.0859072, 0.0621346, 0.157336, -0.065292, 0.024424, 0.474581, -2.62609e-20
0.0501095, -0.0394163, 0.27182, 0.0641756, 0.125323, -0.0090705, -0.23841, -0.319506, 0.0422811, 0.0722252, -0.170485, 0.337318, -0.167291, 0.570944, 0.0942011, -0.229031, 0.63, 0.529576, -0.489829, 0.00545867, 4.46525e-20
0.0324602, 0.097642, 0.0509251, -0.640297, 0.153485, 0.0847671, 0.221996, -0.517631, -0.44425, -0.24049, 0.0144373, -0.551838, 0.228378, 0.214473, 0.385069, 0.0878541, -0.186758, -0.0517785, 0.469462, -0.147008, -3.45033e-18
0.00414827, -0.108846, 0.0542161, -0.144043, 0.197208, -0.255815, -0.0692759, -0.403152, -0.304768, -0.0338839, 0.517574, -0.138059, -0.15856, -0.230669, 0.0967448, 0.0154567, -0.119399, 0.291035, -0.134553, 0.344812, 1.10162e-18
-0.22887, 0.58831, -0.345293, -0.324354, -0.0943093, 0.359305, 0.0144432, -0.0162866, 0.0101596, 0.54672, -0.00626403, 0.0422789, -0.233674, -0.125585, -0.315884, -0.0434548, 0.145983, 0.187549, -0.201923, 0.431669, 1.0737e-18
-0.129464, 0.835629, 0.165989, 0.011094, 0.0630335, 0.00151051, 0.148368, -0.00616203, 0.0322051, -0.270449, -0.347714, 0.181511, 0.19869, -0.295679, 0.301246, -0.547012, 0.264614, 0.295015, -0.638414, -0.000980981, 1.30535e-18
-0.301264, 0.0469482, -0.385628, -0.12342, -0.303431, -0.115338, -0.364348, -0.329402, 0.025882, 0.0461364, -0.270735, -0.199166, 0.14107, -0.318025, -0.292826, -0.010836, -0.331549, 0.0825152, -0.421604, -0.0108963, -1.08197e-18
-0.316004, -0.0423929, 0.0369564, -0.152164, -0.249224, 0.123474, 0.186043, 0.251856, 0.210396, 0.0309694, 0.125096, 0.0633874, -0.0985245, 0.198856, 0.0337525, 0.00943413, 0.282048, 0.535932, 0.268003, 0.0265098, -2.00915e-19
-0.211092, -0.0403782, 0.329387, -0.0416989, -0.127828, 0.0726287, 0.182774, -0.101163, -0.247337, -0.290479, -0.162014, 0.0382023, -0.0527578, 0.223059, -0.12943, -0.0433661, -0.24936, 0.370176, -0.321264, 0.58526, 8.40573e-19
-0.358748, 0.15782, -0.382309, -0.272738, -0.0364463, -0.413871, -0.137109, 0.194142, -0.182335, 0.0742987, 0.542542, 0.183398, -0.0696362, 0.443759, -0.344023, -0.707483, 0.0468269, 0.0187946, -0.0492338, -0.177055, -1.58337e-18
-0.291966, -0.540732, -0.439138, 0.132409, -0.0249109, -0.100559, -0.129978, 0.187416, -0.135543, -0.151119, 0.0208012, -0.395456, 0.00849183, 0.111813, -0.427196, 0.120776, -0.017101, -0.255371, -0.223965, 0.463211, -5.99214e-19
-0.358507, 0.234805, 0.0679368, 0.451003, -0.591289, -0.0092513, -0.0985148, -0.221266, -0.372934, 0.311355, 0.464672, -0.00418669, -0.446618, -0.209254, -0.100096, -0.546541, -0.415853, -0.304626, 0.220215, 0.0424172, -3.70387e-19
0.462533, 0.323178, 0.452401, -0.12748, -0.12964, -0.0481553, -0.352399, -0.154408, 0.0832456, 0.171846, 0.298432, -0.174942, -0.426631, 0.0520427, 0.226761, -0.319365, -0.00403269, -0.2117, -0.202214, 0.225315, 8.65326e-19
-0.198367, 0.312496, -0.463879, -0.214513, -0.153767, -0.129431, 0.0437675, 0.236314, -0.235093, 0.0495578, -0.0743226, -0.242101, -0.163917, 0.442945, -0.307629, -0.0789076, -0.207132, -0.0917151, 0.0673772, 0.0857131, -4.46288e-19
-0.826082, 0.0329281, 0.120368, 0.300674, 0.389234, 0.189903, -0.267027, -0.262005, -0.207883, 0.0397022, -0.0910717, -0.532467, 0.0988724, 0.0870319, 0.295692, 0.0382729, -0.376352, -0.0185495, 0.09522, -0.222346, 1.14162e-18
0.219036, 0.32797, 0.219358, -0.246096, 0.335903, 0.249309, -0.767205, 0.29205, -0.166959, -0.461958, 0.159307, 0.306796, -0.236412, 0.214625, 0.0752616, -0.183308, 0.454344, 0.303838, 0.104886, 0.840486, -1.32473e-19
0.416106, -0.00973363, -0.0373205, 0.10335, -0.715525, -0.315114, 0.0530015, 0.00545175, 0.0238966, -0.301376, -0.725753, -0.208592, -0.11616, -0.0172158, -0.0981073, -0.0918706, 0.334224, 0.344172, -0.167833, 0.0848267, 6.5812e-19
-0.889717, -0.548717, 0.240552, -0.0205462, -0.463052, -0.147405, -0.412492, -0.475097, -0.366524, -0.252701, 0.174735, -0.256354, 0.281356, -0.083858, -0.184114, -0.0247483, 0.131962, -0.417666, 0.0400378, 0.817975, 1.36784e-18
0.336529, 0.272532, 0.0503896, 0.0436266, -0.0728921, 0.360649, -0.134426, 0.0278523, 0.0224621, -0.25469, -0.291226, -0.638043, -0.256189, 0.0352316, 0.245634, 0.0882836, -0.0543491, 0.0180387, 0.539072, 0.12989, -3.17515e-19
-0.392946, 0.0618527, 0.361196, -0.596425, -0.248278, -0.38538, 0.0684858, 0.180706, 0.443216, 0.0468479, -0.46043, -0.481854, -0.102917, -0.228622, 0.625261, 0.355285, 0.458753, -0.109672, -0.069651, -0.555328, 1.07084e-18
-0.164811, -0.354031, -0.57174, 0.129383, -0.255529, 0.251794, 0.227076, 0.125689, -0.0194425, 0.0148049, -0.0831789, -0.117785, 0.471145, -0.14317, -0.451401, -0.122202, 0.105068, -0.119467, -0.381687, 0.161531, -4.34291e-19
0.368869, 0.0318963, 0.220662, -0.117414, 0.198933, 0.0513317, -0.255942, 0.0823516, -0.108579, 0.354646, -0.0954781, 0.00650438, -0.346868, -0.664866, -0.234025, 0.0936145, 0.140687, -0.0261367, 0.619609, -0.117346, 2.03796e-19
-0.50713, -0.18474, 0.324555, -0.14257, 0.183578, -0.11452, -0.228774, -0.154582, 0.182192, -0.445164, 0.451402, 0.222066, -0.57783, 0.110475, -0.0625277, 0.252181, 0.0854539, 0.0590117, 0.521423, -0.301733, -7.17472e-19
0.365466, 0.130317, 0.13889, -0.0985802, 0.0552524, 0.492037, 0.275698, -0.173001, -0.159174, -0.165502, 0.0260413, -0.0408669, -0.111544, 0.578796, 0.540213, -0.221266, 0.181305, -0.221623, -0.257805, 0.146208, -9.98343e-19
-0.229046, -0.545644, 0.241147, -0.00897586, -0.31327, 0.0834485, 0.0790234, -0.29762, 0.316838, 0.00847919, 0.168774, -0.555704, -0.103154, -0.315394, -0.0730129, 0.23158, 0.106477, 0.00520574, 0.468681, 0.0335518, -1.24291e-18
0.106389, 0.284543, 0.0469635, 0.239087, 0.176423, -0.385561, -0.0560084, 0.182298, -0.0473959, -0.494443, 0.109756, -0.09934, 0.0134998, 0.337862, 0.26738, -0.0962081, -0.0999225, 0.0692121, -0.300348, 0.288022, 5.63629e-19
-0.468902, 0.117004, -0.462274, -0.0850309, 0.0560321, -0.114606, 0.216279, -0.0341107, 0.18371, -0.231996, 0.23789, -0.0437965, 0.065555, -0.01887, 0.31524, 0.315631, 0.0583738, 0.177869, 0.04537, 0.167392, 8.37706e-21
-0.361828, -0.517032, 0.515215, -0.0303661, -0.083818, -0.249656, -0.513191, -0.0170284, 0.292, 0.0368924, -0.0239713, -0.259018, -0.103842, 0.382509, -0.0413981, -0.0383353, 0.623866, -0.364448, 0.410181, -0.0564153, -1.89769e-19
-0.0580025, 0.157312, 0.198625, -0.314613, 0.0900542, -0.818535, -0.0487499, 0.417217, -0.143953, 0.0235691, -0.0835533, 0.190246, 0.275267, 0.253243, 0.334777, 0.192099, 0.321119, -0.302373, 0.274044, 0.439998, 3.09261e-19
0.153142, 0.135336, -0.412342, 0.129197, -0.0474232, 0.339084, 0.0877378, -0.247553, -0.079735, -0.109511, -0.0738072, 0.123899, 0.00926046, -0.144071, -0.166736, -0.170786, 0.238417, -0.457888, 0.0607195, -0.310821, -3.9405e-18
0.169289, 0.104813, 0.0378601, -0.167943, 0.312103, -0.117641, 0.147247, -0.516884, 0.705765, 0.118224, 0.0160704, 0.0458238, 0.271888, 0.515068, 0.235774, -0.00932696, 0.0206257, 0.627057, 0.0745318, -0.11133, -6.42649e-19
-0.5543, -0.276063, -0.07085, 0.0138398, -0.273618, -0.0807833, 0.312691, 0.0810555, -0.400318, -0.0931067, 0.155313, 0.0766384, -0.0711046, -0.204944, -0.0410993, 0.219838, -0.364659, 0.187951, 0.40003, 0.0726671, 1.74221e-19
-0.249718, -0.359897, -0.00230857, 0.112934, -0.177045, 0.117583, -0.00383011, 0.0741845, -0.313334, -0.162611, -0.211108, -0.00174997, -0.424323, 0.372452, -0.447508, -0.150208, 0.129637, 0.566691, -0.375844, 0.0610408, -9.67697e-21
0.231304, -0.0450924, 0.0505117, -0.38263, 0.573183, 0.197466, 0.123216, -0.0288831, -0.0122731, 0.195299, 0.0564377, 0.0439474, -0.163714, -0.229326, 0.515632, -0.273265, -0.116121, -0.36401, -0.158941, -0.0325699, 2.30903e-19
-0.00296229, 0.41438, 0.370814, -0.219904, 0.168569, -0.507535, 0.352806, -0.0429614, 0.0878849, -0.0428668, -0.104878, 0.0109917, -0.0696257, -0.0287741, -0.473766, -0.215697, 0.472334, -0.135311, 0.30592, -0.0662231, -6.15299e-21
0.483444, -0.0066031, 0.159986, -0.43895, 0.0708765, 0.189768, -0.106099, -0.0973473, 0.0672124, -0.315278, -0.234885, -0.301143, 0.420987, -0.186929, 0.128646, 0.00993326, 0.133684, 0.261419, 0.0812147, 0.0675798, 1.25514e-18
0.221305, -0.0999992, -0.389298, -0.198439, -0.279349, -0.158182, 0.282514, -0.236036, 0.33928, -0.30589, 0.124219, -0.112027, 0.170189, -0.0189461, -0.0379392, -0.324876, -0.304114, -0.0428973, 0.422838, 0.0436456, 6.03886e-19
0.128534, -0.51016, -0.0327028, 0.24216, 0.510754, -0.303954, 0.139711, -0.0130817, -0.0896871, -0.256794, -0.098682, -0.1395, 0.205909, 0.103332, 0.330241, -0.00225034, -0.251224, -0.0644692, 0.259724, -0.441996, -8.22902e-19
0.393468, -0.282969, -0.0135773, -0.186002, 0.396141, -0.0967512, 0.26212, -0.309284, 0.0160919, -0.178225, -0.221182, -0.109086, -0.277392, 0.269241, 0.0930736, -0.190664, 0.466579, 0.365798, -0.102146, 0.178772, -2.90515e-19
-0.297287, 0.211866, 0.0669696, 0.0250971, -0.407511, -0.175063, 0.146032, -0.483371, 0.157805, -0.156069, 0.321372, 0.223886, -0.175917, 0.341252, 0.131856, 0.0235522, 0.145561, 0.174516, 0.297704, -0.16878, -1.25818e-20
-0.0405575, 0.119186, 0.357167, 0.224657, -0.435787, -0.183442, -0.374766, -0.1541, -0.27942, -0.101314, 0.162339, -0.162698, 0.364229, 0.220499, 0.109799, 0.479939, 0.0546636, 0.12443, -0.249168, 0.0231153, -2.27325e-19
-0.00671587, -0.140589, -0.0920169, 0.454608, 0.106495, 0.241846, 0.441331, -0.418863, -1.93806e-06, -0.10182, -0.403213, 0.529718, -0.125106, 0.174766, -0.534877, -0.334059, -0.384599, -0.435448, -0.0924903, -0.313681, 3.6038e-19
-0.112167, 0.176248, -0.379002, -0.293455, 0.00316295, -0.218552, -0.0722953, 0.235532, -0.268141, -0.0282319, -0.428401, -0.0537129, -0.343812, -0.10984, 0.3108, 0.0449983, -0.386023, 0.137399, -0.198476, -0.219406, 2.49713e-19
0.0375775, 0.0460124, 0.123965, -0.0024695, -0.221415, 0.046641, -0.185105, 0.375644, -0.492146, 0.297763, 0.331871, 0.23543, -0.00630169, -0.422621, -0.513271, 0.263391, 0.0277636, -0.187372, -0.193018, 0.320604, 1.00016e-18
-0.263364, 0.388936, 0.103305, 0.429397, -0.411993, 0.164782, -0.00275648, -0.427061, -0.305132, 0.0811087, 0.433128, -0.446602, -0.365711, 0.193953, -0.210092, 0.320829, -0.0816585, -0.408357, -0.215723, -0.421768, 5.21544e-19
-0.117142, -0.497132, 0.228159, -0.262748, -0.0357347, -0.268051, 0.349787, 0.240756, 0.0131291, -0.386775, 0.179227, -0.213213, 0.176123, -0.289601, -0.115925, -0.525892, 0.198731, -0.476376, -0.108052, -0.324946, 1.29107e-18
-0.480958, -0.439725, 0.0244392, -0.0361673, 0.480309, -0.241137, 0.0654687, 0.077767, 0.75269, 0.122593, 0.326528, -0.146219, -0.0163025, 0.143858, 0.0981582, 0.137249, -0.135088, 0.315201, 0.514615, 0.397585, -3.47136e-18
0.56523, 0.679419, -0.240333, 0.0870913, -0.204027, 0.277307, -0.666325, -0.107405, -0.268049, -0.478823, 0.193523, -0.049823, 0.1678, -0.0500641, -0.524793, -0.0585458, 0.0213992, 0.0522124, 0.129216, 0.109583, 6.95263e-19
0.128501, 0.162749, 0.478192, 0.144943, 0.352614, -0.231672, -0.261101, 0.0945702, -0.332049, 0.0329792, 0.283111, -0.22525, 0.0498434, 0.201164, 0.210493, -0.105521, 0.224127, -0.0230421, -0.607823, 0.371911, 1.79423e-18
0.330717, 0.278089, 0.605897, 0.0841322, 0.336383, 0.13609, -0.097661, -0.352152, 0.449462, 0.0603855, 0.131214, -0.170785, -0.250298, 0.164949, -0.128608, -0.276429, 0.10355, -0.690816, -0.224874, -0.150138, -2.31139e-19
-0.243915, -0.123569, 0.155003, 0.416156, 0.205438, 0.814388, 0.107075, 0.149854, -0.364717, -0.0264603, 0.111165, -0.358489, -0.490627, -0.0970012, -0.68905, -0.0329187, -0.0592389, -0.046101, -0.0488263, 0.363979, -1.64869e-19
-0.138614, 0.0593039, 0.131968, -0.0409213, 0.0150164, -0.170755, -0.289162, 0.0522257, 0.0125821, 0.128164, -0.000328112, -0.23206, -0.347546, -0.135809, -0.033213, 0.131774, -0.269788, 0.456079, 0.0207608, 0.25161, 5.4091e-19
0.21148, -0.12571, -0.508535, -0.35739, 0.477549, -0.195598, 0.0999136, 0.480802, 0.0767419, -0.0980581, -0.183425, 0.0246894, -0.0816748, -0.377478, 0.527818, 0.12302, 0.427734, -0.531146, -0.0655122, 0.0689454, 5.884e-20
0.154676, 0.0902633, 0.321182, -0.118251, -0.365425, -0.105925, -0.342364, -0.385115, 0.519598, -0.095131, -0.0818845, 0.0882638, 0.653452, 0.0339822, 0.182879, 0.19809, 0.0792327, -0.036158, -0.414327, -0.147714, 4.38435e-19
0.0855544, 0.415518, 0.170771, 0.0996077, 0.481046, -0.56916, -0.102271, 0.0920972, 0.312342, 0.0801817, -0.507798, 0.0523925, 0.416197, 0.375797, -0.0879262, 0.162688, 0.420886, 0.296662, -0.105807, -0.454835, 1.11999e-18
0.0281292, -0.325442, 0.0656555, 0.0728169, -0.102346, 0.000633238, 0.431217, -0.0358254, -0.144295, 0.570742, -0.18297, -0.0776709, 0.120191, -0.117633, 0.148818, 0.296852, 0.326912, 0.0483263, -0.184544, -0.59818, 7.50988e-19
0.0620745, 0.298579, -0.435555, 0.0176296, -0.189385, -0.000661484, 0.0446836, 0.0127451, -0.00451652, -0.360726, 0.224011, 0.693026, 0.203417, 0.257252, -0.064146, -0.177438, -0.253756, 0.496858, 0.110785, 0.276132, -1.52151e-19
0.139918, -0.109816, -0.027167, 0.157156, 0.202945, -0.00142556, -0.303818, -0.0920023, 0.438238, -0.302409, -0.550629, -0.719133, -0.0623195, 0.40389, 0.0610683, -0.497122, 0.330593, -0.447865, -0.00791083, -0.243269, 4.17042e-19
-0.0412241, -0.211065, -0.0791508, -0.0319411, 0.0687337, -0.179038, -0.337439, 0.12231, 0.327981, -0.519252, 0.0212175, -0.192093, -0.274928, 0.205768, 0.00486058, 0.363639, 0.33951, 0.312057, 0.0401019, 0.58943, -5.10876e-19
0.214446, -0.305163, 0.177821, 0.241493, -0.288355, 0.153296, 0.317118, 0.0221347, 0.20842, 0.109446, -0.133682, -0.150741, 0.114649, -0.160529, 0.246988, 0.418109, 0.177849, 0.167296, -0.0126406, -0.0314943, -6.49608e-19
-0.286587, 0.232315, -0.297987, 0.154147, 0.357515, -0.450037, 0.471469, 0.365538, -0.13994, 0.31493, 0.0805209, -0.375713, 0.112616, -0.0341654, 0.28175, -0.815563, 0.114774, -0.231809, 0.449457, 0.300422, -5.68226e-19
-0.607434, 0.24366, 0.0264805, -0.0918298, -0.19112, 0.230853, -0.186561, 0.453429, -0.354622, 0.0929946, 0.470903, -0.389835, 0.469132, -0.0328722, -0.0297661, 0.221314, -0.378051, 0.00668544, 0.0237339, 0.0327576, -4.03565e-19
0.0295713, 0.115181, 0.111044, -0.428974, 0.223586, 0.282235, 0.205905, 0.0451727, -0.0554334, 0.400116, 0.503966, -0.159266, 0.469891, -0.334871, -0.13755, 0.367801, -0.121981, 0.0865969, 0.27394, 0.0822183, 5.77004e-19
-0.113792, -0.50236, 0.207337, -0.0135491, -0.465201, 0.0663601, 0.187967, 0.147446, 0.255743, -0.0394437, 0.276533, -0.272462, 0.345525, -0.0878671, -0.291344, -0.0219227, -0.210676, -0.0591151, -0.0490321, 0.492477, 2.01976e-18
0.0964455, -0.444398, 0.328619, 0.144354, 0.127153, 0.297979, 0.272795, -0.209344, 0.295234, 0.588931, -0.0965114, -0.166419, 0.0889213, 0.312704, -0.257697, -0.261987, 0.092149, -0.314597, 0.0627569, 0.0976051, 2.23319e-19
0.131648, -0.255178, 0.0905771, -0.158572, -0.0946308, 0.077832, -0.517346, -0.226206, 0.0831833, 0.177755, -0.219879, -0.162053, -0.0425543, 0.382825, 0.0203718, -0.167644, -0.0830295, 0.0177818, -0.0944098, 0.252417, -4.66272e-19
0.201726, 0.345887, 0.259219, 0.0567123, -0.328572, -0.429036, -0.186528, -0.188094, -0.763514, 0.46234, 0.105445, -0.667525, -0.196789, -0.488379, -0.441156, 0.30458, -0.445549, -0.0266179, -0.12739, 0.0474004, 1.93509e-18
0.450011, -0.477035, -0.086217, 0.0294171, -0.249142, 0.40375, 0.105533, -0.26833, -0.00916532, -0.00559629, 0.332956, -0.525306, -0.176119, 0.0664857, -0.181338, -0.0475808, -0.0981402, -0.0574333, 0.233238, -0.357108, 1.11387e-18
-0.594983, 0.0594497, 0.109376, -0.0461108, -0.0632258, -0.283719, -0.127534, 0.177643, 0.0140272, 0.021971, -0.521226, -0.231367, -0.286909, -0.25357, -0.160725, 0.077557, 0.266497, 0.00440311, 0.185565, 0.153024, -2.30329e-18
0.143133, -0.582703, -0.25563, 0.0738014, -0.265054, -0.649501, -0.312336, 0.117289, -0.086165, 0.408465, 0.530762, -0.433196, 0.0281002, 0.193493, 0.162269, -0.0774728, 0.440232, 0.504394, -0.507225, -0.590779, -8.8786e-20
0.123307, 0.333362, 0.365057, -0.229302, -0.238784, -0.379411, 0.127313, -0.0264981, 0.324483, 0.225528, 0.130318, -0.477663, -0.489052, 0.645641, 0.734104, -0.340227, 0.0821736, -0.244982, 0.0443814, 0.12402, 7.8159e-19
0.0967612, 0.163431, 0.315811, -0.174244, 0.0158102, 0.519035, 0.134385, -0.472537, 0.275869, 0.505867, -0.0606936, -0.0878736, -0.174597, -0.0562635, 0.113307, 0.389413, -0.611909, -0.132352, 0.121631, -0.400876, 4.61442e-19
-0.317468, -0.0702172, -0.0691721, 0.173961, -0.135764, -0.362421, -0.190988, 0.374846, 0.669513, -0.348058, 0.245582, 0.0242485, 0.388831, 0.264259, -0.0124626, -0.452576, -0.52336, -0.324006, -0.0290028, 0.228734, -7.48004e-19
-0.457035, -0.115969, -0.160306, 0.26423, -0.169127, 0.148013, 0.0981665, -0.361468, 0.621969, -0.649886, 0.14507, -0.0900359, 0.141773, 0.133055, -0.321045, -0.174941, -0.420579, -0.217342, -0.138614, -0.17958, 9.18001e-19
-0.622838, -0.191965, 0.139539, -0.0119915, -0.412494, 0.491345, -0.559488, -0.698253, -0.0439722, 0.185093, 0.291062, -0.172082, 0.339009, -0.0180759, -0.240098, 0.412211, -0.386467, -0.173285, 0.00317226, 0.303078, -1.1039e-18
0.465563, 0.273243, -0.510046, 0.235162, 0.0836199, 0.0760474, -0.0687725, -0.461808, 0.156987, 0.0775893, -0.222291, 0.066403, -0.40101, -0.0209686, -0.253553, -0.0238336, 0.0969002, 0.0563497, -0.496227, -0.31079, -3.96014e-19
-0.15695, -0.0675326, 0.151485, -0.51264, 0.0200371, -0.643081, 0.516697, -0.231843, 0.369885, 0.00792911, 0.360831, 0.21203, 0.160381, -0.731173, -0.595182, -0.726099, -0.0324928, 0.0130858, 0.454419, -0.21451, 6.28567e-19
0.190326, -0.0529246, -0.192427, 0.278602, 0.495073, 0.207779, 0.193993, 0.177159, 0.43662, 0.121443, 0.101924, -0.0629233, -0.252267, -0.11562, 0.205247, -0.0996577, 0.200161, -0.0187102, 0.204502, 0.236164, 8.54747e-19
-0.16503, -0.0261817, 0.162552, 0.26314, 0.12027, 0.233842, -0.411915, -0.0263867, 0.0691644, 0.0193817, -0.2076, -0.0446126, -0.453559, 0.104347, 0.0655988, 0.199735, 0.162231, -0.201826, -0.248773, -0.0696382, -4.7712e-19
0.00116563, -0.211627, -0.477862, 0.423522, -0.197204, 0.0696488, -0.310859, -0.191709, 0.114358, -0.0924816, -0.0586984, -0.0304225, 0.325085, -0.637982, 0.0655388, -0.000168582, 0.200218, 0.0533619, 0.046461, -0.120649, 1.94467e-19
0.253857, -0.112781, 0.101307, 0.355665, 0.10427, -0.205997, -0.011497, -0.00274035, -0.277288, -0.119473, 0.122119, 0.362852, -0.294389, 0.416759, -0.189435, -0.135503, 0.167651, -0.270237, 0.225462, 0.379547, -2.84167e-20
-0.30676, 0.332246, 0.121685, 0.256228, 0.22488, 0.0496112, -0.259871, 0.227787, 0.103842, -0.313682, 0.504812, 0.430502, 0.323117, 0.311161, -0.0716109, 0.0874224, 0.102309, -0.117174, -0.0559048, 0.279057, -1.47943e-18
-0.0728214, 0.11618, 0.102456, -0.261873, 0.058386, 0.418653, 0.305129, 0.193725, 0.219319, 0.719505, -0.106901, -0.14681, 0.102492, 0.221332, -0.0587413, -0.397958, -0.112418, 0.163418, 0.0157381, -0.327238, -5.20963e-19
-0.218121, -0.120988, -0.870149, 0.237598, 0.634775, -0.205823, 0.179355, 0.341966, -0.334435, 0.111589, 0.281438, -0.423653, 0.417027, 0.209967, -0.118606, 0.00427475, -0.0632304, 0.0123898, -0.256191, 0.113973, -1.36389e-19
-0.29556, -0.0306175, 0.226995, 0.343048, 0.165994, 0.142491, 0.145282, -0.217815, -0.126731, -0.187914, 0.386485, -0.791168, -0.573079, 0.495909, 0.239015, 0.0253534, 0.382986, 0.0135826, 0.674197, 0.167065, 1.94014e-18
-0.299546, -0.00199633, -0.206281, 0.209397, -0.0853891, 0.338958, -0.169079, 0.422679, -0.0150759, -0.332156, 0.0155084, 0.363481, -0.0711194, 0.0791283, -0.208102, 0.0696475, -0.0847182, -0.107149, 0.0271713, -0.654032, 2.37283e-18
0.283271, 0.520665, -0.007014, 0.0674563, -0.13873, -0.322674, 0.230017, 0.445404, 0.0696268, 0.000293484, -0.187468, 0.245683, -0.13911, -0.306858, -0.316479, -0.22959, 0.215488, -0.404946, -0.210552, 0.051547, -1.99275e-19
0.205619, -0.512228, -0.406244, -0.454768, -0.784159, -0.431459, -0.242459, -0.0720014, 0.0251615, -0.332017, 0.127828, -0.0851054, -0.261581, 0.0155887, -0.480566, 0.399586, -0.369156, -0.264214, -0.032499, 0.319322, -2.10031e-19
-0.261824, -0.203126, -0.289963, -0.46344, -0.373391, 0.212781, 0.221529, -0.0316974, -0.0829039, -0.121366, 0.228007, 0.293326, 0.166774, 0.54625, 0.277821, -0.16478, 0.394513, -0.79159, 0.103897, -0.285815, 4.67648e-19
-0.0143334, -0.119951, 0.211871, -0.146319, -0.312852, -0.0623628, -0.0368059, 0.392341, -0.075231, 0.0155027, 0.336955, -0.312992, 0.465422, 0.305523, -0.0388494, 0.514617, -0.290713, -0.270845, 0.168654, -0.080255, -1.38859e-19
-0.49105, -0.149588, -0.423254, 0.15767, 0.303628, -0.356285, 0.305524, 0.332389, -0.367058, 0.107113, 0.222678, 0.11594, 0.013108, 0.0684064, -0.131543, -0.180973, -0.637752, -0.372706, -0.0743455, -0.535074, 1.84308e-18
0.0477638, -0.0133648, 0.485661, -0.330265, 0.0127469, 0.351378, 0.250303, 0.0833542, 0.146373, 0.139211, 0.452652, 0.377052, -0.277959, 0.255862, -0.193676, -0.419966, 0.388201, -0.0209846, -0.307558, -0.246711, 1.89344e-20
0.371003, -0.0536117, 0.35542, 0.439448, -0.150369, 0.133723, 0.558363, -0.0927372, 0.0459941, 0.270701, 0.153333, 0.61522, -0.340585, -0.0491955, 0.406559, 0.557456, 0.0328432, -0.0520613, -0.262999, -0.189076, 9.7449e-19
0.179329, -0.105519, 0.0972322, -0.175178, -0.178788, 0.530342, -0.645893, 0.580423, -0.580041, -0.268504, 0.209876, -0.0855351, -0.434399, -0.15694, 0.244781, 0.251665, -0.882071, -0.125139, 0.075015, 0.413702, 1.43833e-18
0.360347, -0.505521, 0.0763425, -0.201628, -0.405759, 0.123343, -0.20465, 0.191599, 0.246557, 0.230392, 0.752529, 0.178939, -0.692848, -0.0960128, 0.292397, -0.0630267, -0.139722, 0.0560721, 0.00165035, 0.175269, 4.98521e-19
0.368423, 0.264677, -0.0539181, -0.188133, -0.230644, 0.701636, 0.196123, 0.0210805, -0.232654, -0.0848315, 0.290716, -0.26935, 0.35983, 0.223028, -0.168086, -0.572027, 0.0817952, 0.186413, 0.303819, 0.279961, 4.36043e-19
0.353002, -0.0649462, -0.214794, -0.0613568, -0.233419, -0.189257, -0.451326, -0.0815402, -0.339897, 0.36166, 0.159898, 0.234891, -0.0603155, 0.0322982, 0.154901, -0.0221961, -0.0263094, -0.804035, 0.405291, 0.20135, 3.54902e-19
-0.277277, 0.227844, 0.449982, 0.000271683, 0.0792381, 0.158467, -0.261041, 0.495802, -0.144944, 0.342647, -0.0541086, -0.509221, 0.122012, 0.271929, 0.213066, 0.0342601, -0.0808134, -0.0333182, 0.488609, 0.300678, -3.35237e-20
0.0093278, 0.423823, 0.339291, 0.244418, 0.0410353, 0.305827, 0.290814, -0.0248261, -0.00141652, 0.0529932, -0.398285, -0.434871, -0.233061, -0.252694, 0.11566, -0.12465, -0.0203132, -0.323102, -0.178606, -0.412541, 1.12858e-18
-0.00302399, 0.611903, -0.228742, 0.456292, 0.335765, 0.0823282, 0.0784305, 0.347518, -0.255915, 0.343837, 0.227254, 0.000255261, 0.11502, 0.591481, -0.343765, -0.0406852, -0.045545, 0.0963135, 0.283613, -0.205861, -9.90828e-19
-0.245281, 0.122372, 0.356535, 0.199474, -0.566795, 0.347301, 0.75455, 0.479967, -0.147677, 0.294142, 0.232278, 0.266218, -0.294531, 0.50982, 0.305368, 0.251649, 0.102935, -0.257023, -0.10915, 0.0715976, 5.58026e-19
0.00277329, -0.184964, 0.4125, -0.45693, -0.0853201, 0.181391, -0.0740708, 0.206481, -0.187142, 0.423352, 0.613576, 0.501377, 0.186361, -0.0669767, 0.00676187, 0.139848, -0.448777, 0.103697, 0.115778, 0.146195, 1.04641e-18
-0.315288, -0.217288, -0.186883, 0.392885, -0.0394417, 0.311852, -0.0697342, 0.188653, -0.0613642, -0.402671, -0.104076, -0.160127, -0.240971, 0.244293, -0.0718498, -0.251965, -0.024947, -0.257578, -0.271404, 0.311026, -8.21505e-20
0.174293, 0.0267808, -0.140867, -0.0138035, 0.200404, -0.0936479, 0.260264, -0.140135, -0.0851102, -0.581271, -0.0687003, 0.0433507, -0.174938, 0.431443, -0.118243, -0.141516, -0.175155, 0.111996, -0.00974068, 0.288362, -1.97477e-18
0.0964637, -0.00862409, 0.127485, -0.655958, -0.0569152, 0.483393, -0.244459, -0.132632, 0.0903466, -0.06649, 0.16223, 0.673436, 0.272238, 0.00192797, 0.06337, -0.131871, 0.327952, 0.0999786, -0.132645, -0.0571913, -2.57201e-19
-0.271651, -0.0397789, -0.271855, -0.150231, 0.224573, -0.0934331, 0.00316769, 0.0371344, -0.216806, 0.405601, 0.0685088, -0.214185, 0.468774, 0.0216764, 0.184564, 0.0176593, -0.204925, -0.0663081, 0.088894, -0.34733, -3.14456e-18
0.0288893, -0.127842, 0.165751, -0.275503, -0.263418, 0.0797823, 0.212202, -0.290487, 0.0828879, 0.25575, 0.197423, 0.139625, 0.237337, -0.160118, 0.681178, 0.482725, 0.115414, -0.592201, -0.859238, 0.100153, -5.71426e-19
0.229104, -0.187081, 0.742357, 0.0436207, -0.314677, 0.0243259, 0.757616, -0.0612255, 0.0220531, 0.144857, 0.0849459, 0.266502, -0.20749, 0.267139, -0.118456, 0.0612664, -0.373837, 0.103135, -0.212342, 0.347832, -2.41008e-19
-0.542382, -0.251786, 0.118565, 0.478445, 0.285335, -0.158455, -0.0750481, -0.00343067, -0.272699, -0.122936, -0.473031, -0.139425, -0.0548235, -0.0668604, 0.296071, -0.165673, 0.101056, 0.217756, 0.0500152, 0.149912, -2.52532e-20
0.256079, -0.120783, 0.373124, 0.45521, 0.107684, -0.189047, -0.0569725, 0.17587, 0.134357, -0.0578821, -0.189707, -0.000597484, 0.516508, 0.2658, 0.428007, 0.543056, -0.107803, -0.40015, 0.0272762, 0.0685234, -2.0207e-18
-0.49943, 0.100179, -0.371194, -0.150865, 0.163447, -0.277271, 0.234276, -0.557383, -0.157759, -0.0612791, -0.368036, -0.409783, -0.434679, 0.438103, 0.377052, -0.511564, 0.226627, 0.254226, 0.202635, 0.27866, 2.27871e-18
0.0402603, -0.448898, -0.103343, -0.112298, 0.0610722, -0.348552, -0.131736, -0.265851, -0.325068, 0.0589248, 0.572503, 0.257389, -0.13217, 0.0142689, -0.0965809, 0.20622, -0.621826, 0.244912, 0.260833, -0.0680007, -2.29958e-18
0.191757, 0.122583, 0.119671, 0.0981178, 0.277003, 0.161021, -0.0504984, -0.16435, 0.158477, -0.179768, 0.0564096, -0.0187892, -0.0608102, 0.198162, -0.14525, -0.292936, 0.0484019, -0.0297932, 0.604454, 0.514105, 1.64682e-18
-0.404244, -0.322428, -0.196072, -0.498145, -0.048831, 0.0365742, -0.0461065, 0.551386, 0.218675, -0.410576, -0.284004, -0.553049, 0.0926463, 0.361798, 0.711674, -0.359491, 0.324484, -0.283471, 0.150643, 0.113086, 3.21594e-20
-0.0166884, -0.433439, -0.579459, -0.0961278, 0.100142, -0.117216, -0.121441, -0.200458, -0.106776, 0.25045, 0.00157458, -0.135154, -0.0915078, -0.216234, 0.355624, 0.0289793, -0.423314, -0.13784, 0.0842869, 0.391898, 1.46574e-18
-0.195518, -0.0635794, -0.395385, -0.185415, 0.0435057, -0.236795, 0.338251, -0.314779, -0.184705, 0.267585, 0.332521, 0.168912, 0.731573, 0.541459, 0.303037, 0.112222, -0.248365, 0.208626, 0.012152, 0.264675, -2.87262e-18
-0.184256, -1.11632, 0.109402, -0.428877, 0.161988, -0.247088, 0.185199, 0.0584024, -0.157304, 0.299345, 0.337641, 0.549199, 0.294066, -0.314792, 0.304603, 0.243829, -0.173407, 0.489422, -0.0476341, -0.208107, 1.77719e-19
-0.105545, -0.443993, 0.0765408, 0.183449, -0.137856, -0.13306, -0.201114, 0.12332, -0.373288, 0.0607613, 0.325087, 0.0890619, 0.189372, -0.17157, -0.771925, 0.0456392, 0.158678, 0.0804531, 0.111746, -0.0191422, -2.32053e-19
-0.0554607, 0.219103, -0.0232864, 0.291865, -0.462092, -0.42489, -0.340883, -0.174046, -0.132547, 0.274955, -0.030562, 0.111138, -0.253391, 0.714209, 0.226997, -0.168711, 0.565003, 0.460866, -0.239231, -0.266131, -1.05926e-18
0.0883254, -0.0124309, 0.0162076, -0.191145, 0.0970415, -0.502159, 0.321521, -0.122636, -0.124454, 0.267699, 0.342796, 0.0415958, -0.447771, -0.664359, -0.0321112, -0.0342027, 0.123234, -0.360277, -0.0751115, -0.305957, -4.91748e-19
0.0191814, -0.038382, 0.732782, 0.358767, 0.343518, 0.115031, -0.0370357, 0.537855, -0.183978, -0.601447, -0.0284055, -0.516941, 0.0384868, 0.248536, -0.107725, 0.0247376, 0.638591, -0.0982549, 0.321772, -0.0613277, -3.53041e-19
-0.439052, 0.836721, 0.130296, 0.0146997, -0.198846, -0.335684, -0.504577, -0.466988, -0.103945, 0.373608, 0.0235554, -0.19044, -0.00218177, -0.241234, 0.468709, -0.0212801, -0.0262079, 0.38565, -0.350112, -0.202283, 2.55464e-19
0.0457938, -0.0992337, 0.102619, -0.0933297, 0.307921, -0.186961, 0.309974, 0.15683, 0.637739, -0.51864, 0.194124, 0.337253, -0.108898, 0.0409041, -0.228272, -0.112847, 0.362663, -0.0580249, -0.0700505, 0.293921, 1.13257e-18
0.266525, 0.425982, -0.0809479, 0.077605, -0.0894961, 0.319423, 0.462101, 0.311813, 0.162828, 0.0358258, -0.339909, 0.365479, -0.072543, 0.0388352, 0.0794541, 0.525841, 0.126239, 0.0382613, -0.0690957, -0.573233, 5.95375e-19
0.0392528, 0.279292, 0.070026, -0.0488712, 0.171131, -0.211267, 0.455299, 0.109997, -0.133801, -0.0193407, 0.0469956, -0.196746, 0.466178, 0.844461, 0.143673, 0.424586, -0.217099, 0.484829, -0.152313, -0.322074, -1.35271e-18
0.258894, -0.0553152, 0.210372, 0.160021, 0.374756, 0.000867291, 0.422048, -0.715989, 0.455183, 0.0340218, 0.468686, 0.0611949, 0.524985, 0.344422, -0.0723156, -0.118263, 0.298898, 0.168974, 0.6067, 0.054576, 9.34926e-20
0.393363, -0.408257, 0.19059, -0.669108, -0.0577901, -0.132877, 0.420671, 0.261607, -0.0316188, 0.15348, -0.191397, 0.121179, -0.0398189, 0.212599, -0.0614009, -0.229647, 0.158617, -0.0801407, 0.0386062, 0.204745, 1.49879e-19
0.116407, -0.0357799, 0.199832, 0.0653849, -0.349601, 0.0105903, 0.0369562, 0.458822, 0.151433, 0.065823, 0.118114, 0.148825, -0.253098, -0.0713251, 0.144795, -0.57737, 0.0712224, -0.128562, 0.390431, -0.421306, -1.04334e-19
-0.139026, 0.306871, 0.23799, 0.408214, 0.0563557, 0.988928, -0.300044, -0.460989, -0.417195, -0.132188, -0.340445, -0.0577063, -0.462057, 0.133308, 0.374706, -0.121107, 0.0776222, -0.12724, -0.185642, 0.0671749, 1.03355e-18
-0.348969, -0.11134, 0.010821, -0.13421, -0.589905, 0.019721, -0.0510647, -0.445534, -0.0514774, 0.684708, 0.370573, 0.239452, -0.214784, -0.365776, -0.0489968, -0.369449, 0.15195, -0.239448, 0.753504, 0.218412, -8.45502e-20
-0.404381, -0.236415, 0.544377, 0.163606, -0.38527, 0.4921, 0.00362271, 0.184218, -0.187012, -0.190422, 0.496948, -0.0904115, -0.0231686, 0.34405, 0.250439, -0.310996, -0.165042, 0.164522, 0.24373, 0.24753, -1.02666e-18
-0.141708, 0.0281459, 0.359527, -0.0168864, 0.173929, -0.206268, 0.0164426, -0.506648, -0.250565, -0.34276, -0.283068, -0.240715, -0.150159, -0.284683, -0.207201, -0.431326, -0.306518, -0.348412, 0.179189, -0.208312, -7.85452e-19
-0.252618, -0.00767047, -0.181041, 0.357265, 0.0281622, -0.175759, 0.356029, -0.562095, -0.0631641, 0.613238, 0.174282, -0.404845, -0.305487, 0.200752, -0.0427652, -0.613223, -0.130395, -0.389632, -0.481992, 0.0347379, 2.21136e-18
-0.174644, -0.308157, 0.00166817, -0.0426559, 0.643638, -0.0407186, 0.0243777, 0.28961, -0.562291, -0.133964, -0.0192266, -0.0404475, 0.100864, -0.281498, 0.136858, 0.0206524, 0.0906224, 0.9687, 0.117052, -0.312529, 9.84717e-19
-0.317538, -0.210991, 0.245859, -0.527889, 0.263312, -0.261184, -0.526468, 0.139415, 0.355649, 0.0246196, 0.179613, -0.292694, 0.233808, 0.27514, -0.38685, -0.0301216, 0.0375536, -0.25374, 0.170209, -0.0439368, 4.21486e-19
0.165019, 0.0717994, 0.547966, 0.247067, 0.637152, 0.173776, -0.109005, 0.104022, 0.0962393, 0.167169, -0.286577, 0.380137, -0.259912, -0.4943, -0.102104, 0.25515, 0.129123, -0.312985, 0.00292857, -0.0736525, -8.09698e-20
-0.0186583, 0.111683, 0.0720978, -0.0861374, -0.293781, 0.0692553, -0.211317, 0.317479, -0.0712454, 0.11934, -0.425264, 0.307824, -0.149201, -0.238094, 0.385353, -0.0980847, -0.236487, -0.754655, -0.312326, 0.161971, -7.88874e-19
0.110192, 0.269926, -0.555051, -0.104474, -0.411547, -0.0905201, -0.120832, -0.027955, 0.216095, 0.0972178, 0.114687, -0.210202, 0.046704, -0.160563, 0.0352042, -0.018573, -0.103144, -0.0688091, 0.364781, 0.0960934, 1.50407e-19
0.0526663, -0.000965958, 0.0130757, 0.306579, -0.470666, -0.311273, -0.0238353, -0.0268983, -0.103949, -0.284328, -0.266763, 0.162079, -0.478895, 0.115094, 0.11439, 0.152716, 0.0548161, 0.0922695, -0.119151, -0.403964, 1.16009e-18
0.284098, 0.806195, -0.0251182, 0.468501, -0.0863574, 0.679057, -0.470626, 0.19427, 0.440995, 0.271336, -0.307804, 0.0889624, -0.0915313, -0.321606, 0.272686, 0.110758, -0.0225296, 0.199293, -0.244492, 0.0800699, -1.63583e-18
0.0616629, 0.0391167, 0.0123756, 0.314452, 0.0212054, 0.158027, 0.296922, 0.331593, -0.0167072, 0.0751395, -0.379309, -0.473974, -0.136541, 0.591065, 0.614776, -0.362102, 0.34836, -0.0340847, -0.127683, -0.325496, -9.62352e-19
0.0386611, 0.375606, -0.266926, 0.833547, -0.0647798, -0.0719068, -0.2903, 0.213606, -0.302474, -0.139372, 0.257759, -0.33979, -0.212681, 0.567313, 0.0455803, -0.0630803, -0.41595, 0.368182, 0.163506, 0.306653, 4.53245e-19
-0.339738, -0.549706, 0.353546, -0.523526, -0.23418, 0.154613, -0.066457, -0.201801, 0.569795, 0.318708, -0.27041, -0.263251, -0.208312, 0.410336, -0.496758, -0.0192395, 0.241207, 0.0904729, -0.053373, -0.657553, 1.35774e-18
-0.193901, -0.528411, 0.205759, -0.140623, -0.0303175, -0.294615, 0.194131, -0.220239, 0.48129, -0.244751, 0.0414948, -0.287666, -0.0726736, 0.368579, 0.00248114, 0.477689, -0.28251, -0.0253171, 0.30207, 0.182332, 2.03036e-18
0.239548, 0.278561, -0.433673, -0.0940873, 0.280531, -0.049436, -0.0170032, -0.220929, 0.32722, -0.482259, -0.259962, -0.20703, -0.0863284, -0.047484, 0.516583, -0.521701, -0.353878, 0.0719141, 0.341368, 0.00411291, 1.10095e-18
-0.126814, 0.173623, -0.381218, 0.199592, -0.292274, 0.289065, 0.0466444, -0.15865, -0.313142, 0.249426, 0.462863, 0.243534, -0.0294226, -0.151311, -0.146028, 0.257095, -0.43213, -0.361852, -0.192202, -0.818612, 3.93306e-19
0.258852, -0.779221, -0.43079, 0.251314, 0.0974427, -0.147147, 0.598677, 0.390487, 0.268291, 0.0781396, -0.50234, -0.0989094, -0.00397776, -0.0842575, -0.0268867, 0.326127, -0.500987, 0.619094, 0.186892, 0.0295284, -1.35296e-19
0.304952, -0.241219, 0.745713, -0.0186402, 0.583863, 0.0974264, -0.109373, -0.21116, -0.163049, 0.715337, 0.953531, 0.132999, 0.177202, 0.418774, -0.0615846, 0.216068, 0.341601, 0.104316, -0.0210639, 0.0350753, -2.12221e-19
-0.114585, 0.0997228, 0.521889, -0.182863, 0.0149023, 0.00320575, 0.971655, 0.0214691, -0.140471, 0.0361549, -0.00889043, 0.00110168, -0.301408, -0.164191, 0.177434, -0.0836312, -0.320105, 0.187186, -0.447151, -0.334883, -3.67603e-19
0.570076, -0.264361, -0.146013, -0.286421, -0.499198, -0.00929365, 0.105964, 0.0486281, 0.172674, -0.0989223, 0.373756, 0.298166, -0.0654406, -0.263373, 0.266387, 0.182858, 0.0822668, 0.0145312, 0.257607, -0.0403953, 1.32216e-18
-0.166382, -0.0091545, 0.0126, -0.466706, -0.556063, -0.8127, -0.179772, -0.224131, -0.0981284, 0.0298907, 0.0601456, -0.189328, 0.105439, 0.400524, 0.259365, 0.333639, 0.180819, 0.145251, -0.0363333, -0.159853, 1.2713e-18
0.260991, 0.210815, -0.0727359, 0.299292, -0.565625, 0.00990824, -0.312601, 0.240015, -0.273631, -0.136411, -0.0400418, 0.503101, -0.0739414, 0.70284, -0.177086, 0.0955436, 0.135282, -0.104766, -0.258206, 0.472229, -1.45375e-18
-0.1377, 0.448515, 0.0371129, 0.253233, 0.27855, -0.260535, -0.176738, 0.35022, -0.150884, -0.0474059, -0.16856, -0.607181, -0.26131, 0.188328, -0.147184, -0.131095, 0.0270769, 0.273713, 0.256179, 0.215223, -6.1272e-19
-0.238057, -0.137656, 0.114241, 0.193989, 0.364826, -0.245749, 0.397475, 0.0240626, 0.0482366, 0.0091819, 0.257115, 0.0508971, 0.0109226, -0.136782, -0.195093, -0.651477, -0.234712, 0.259478, 0.262215, 0.405279, -2.61291e-19
-0.0456314, 0.306225, -0.519981, -0.0622047, 0.0628276, 0.256542, -0.0486254, -0.0430036, -0.0946904, 0.0119567, 0.342816, 0.267277, -0.0357036, -0.135166, 0.25313, -0.225688, -0.527196, -0.214898, 0.0762979, 0.54729, -1.25417e-19
-0.14881, -0.265404, -0.0328822, 0.531508, -0.174883, -0.166428, 0.144598, -0.344861, -0.224943, -0.0630318, -0.279353, 0.034245, -0.0368638, 0.0283337, -0.181391, 0.600966, -0.147737, 0.42018, -0.400048, 0.399067, 9.96305e-19
0.04242, 0.286603, -0.526575, 0.158196, -0.0492179, 0.0572581, 0.0170156, -0.160839, 0.116868, -0.182631, -0.387395, 0.243939, 0.0433309, 0.255385, 0.154654, -0.260468, -0.0871614, -0.111243, 0.414927, 0.00815733, -1.49001e-18
-0.225748, -0.242458, 0.217813, -0.056608, -0.237613, -0.391532, 0.30373, -0.110327, 0.249545, 0.141597, -0.25306, -0.0775685, 0.106203, 0.134764, 0.351263, -0.0814848, -0.473737, -0.251075, 0.424775, -0.451716, 6.47426e-19
-0.0524653, 0.0367754, -0.0438805, 0.0451403, -0.0465872, -0.0467117, 0.0420019, -0.0315673, -0.0739629, -0.114081, -0.0902061, 0.0172115, 0.0252223, 0.073781, 0.181923, -0.10394, -0.0898995, -0.0367777, -0.105194, 0.04622, 0.067716, 0.0782485, -0.0227201, -0.144164, -0.0576046, 0.0760388, 0.107502, 0.0564313, -0.0209872, -0.00232077, 0.0235301, 0.0489783, 0.0296123, -0.0373814, 0.111209, 0.0492607, 0.141292, 0.125214, 0.0122166, 0.0754284, -0.0265524, -0.100217, -0.132375, 0.0240983, -0.0252108, 0.0219228, -0.115757, 0.0356715, -0.0385637, -0.0248335, -0.0264932, 0.0796016, 0.047014, 0.117433, 0.0747567, 0.098885, 0.0715459, 0.163498, 0.150115, -0.0621806, 0.0143691, -0.0181104, -0.0389143, -0.00496894, 0.00883761, -0.135882, -0.126298, 0.0102195, 0.0638488, -0.00295729, 0.106513, 0.0876083, 0.00699962, -0.0539376, 0.0494623, -0.0457196, -0.0193997, 0.0697339, -0.0949441, -0.0444868, -0.0342672, -0.00911182, 0.0270269, 0.0526851, 0.0278523, 0.0467156, -0.0927253, -0.0520394, 0.107265, -0.0126361, -0.0221799, -0.0200735, 0.0915724, 0.125532, 0.00209122, 0.0298463, -0.135805, -0.0346072, -0.082985, -0.0514473, 0.0418512, 0.0808907, -0.0671907, 0.0803644, -0.0176586, 0.0646748, -0.0148616, 0.00286959, -0.104991, 0.127302, 0.0400884, 0.0606864, 0.0438855, -0.0572296, -0.193194, -0.0911436, -0.0420394, -0.0896156, -0.041881, 0.0284658, -0.0584387, 0.0428696, 0.0904521, 0.0169046, 0.200226, -0.0366602, -0.0193362, -0.0614373, -0.0962771, 0.156853, -0.0786912, -0.0873612, -0.0925398, -0.0275233, -0.0378603, 0.00275688, -0.0501783, -0.111853, -0.0547017, -0.0748608, -0.0425987, -0.0354809, -0.0558923, -0.115649, 0.00559584, 0.0133395, -0.03992, 0.0123923, -0.170697, -0.052749, -0.0670793, -0.159775, -0.0601815, -0.101296, 0.0267154, -0.0309664, -0.021844, 0.101092, 0.0216565, -0.0263372, 0.0534719, 0.0425916, -0.0715324, 0.0699645, -0.00392556, 0.19729, 0.124219, 0.00260618, -0.123146, -0.0119198, 0.0391302, 0.0318613, 0.0435529, 0.0864608, -0.0785227, -0.0497066, -0.0100354, -0.115292, 0.0581858, 0.0712916, 0.0222705, -0.000881573, 0.134588, -0.0662797, 0.00644326, 0.036318, 0.101521, -0.0672354, 0.0370668, -0.0681745, 0.0895651, 0.0637834, 0.031144, 0.010392, -0.0947056, -0.0313001, -3.30469e-05, -0.215231, 0.117126, 0.0158915, -0.0254755, 0.0894895, 0.0405949, 0.064252, -0.0140703, -0.028922, 0.0359647, 0.0394467, 0.0457258, -0.0907835, -0.110223, 0.0547641, 0.0494621, -0.0506896, 0.116281, 0.0813559, 0.19319, 0.0105125, 0.0215002, -0.0240854, -0.0881534, -0.0632423, -0.0190392, 0.0406014, -0.0041401, 0.0363946, 0.105405, -0.0530903, 0.0422607, -0.0270564, -0.078363, -0.0573128, 0.0164248, 0.0733285, 0.107738, 0.0811932, 0.0284175, 0.128722, -0.0939424, -0.0771132, -0.118549, -0.114707, -0.0559546, 0.106752, -0.0462029, 0.299099, -0.0814686, 0.0623702, 0.00716666, 0.0493569, -0.0152071, -0.00726349, 0.0877998, 0.0517828, -0.105048, 0.0019909, 3.931e-18
0.0683637, -0.0641241, 0.0540031, -0.0969118, 0.0124986, -0.176786, 0.0900939, 0.0101314, -0.0831753, -0.0044645, 0.158259, -0.00529689, -0.0523857, -0.0245336, 0.231587, 0.0529015, 0.0391406, 0.0362273, -0.0200346, 0.0772345, 0.0256343, -0.0619819, -0.075378, -0.0832715, -0.0463739, -0.0286795, -0.0769128, 0.169744, 0.061676, -0.13841, 0.0440614, -0.0222963, 0.103924, -0.0302242, -0.00533308, -0.0634703, 0.127813, 0.138899, 0.0103392, -0.0559879, -0.0862749, -0.0237057, 0.0266983, -0.104756, 0.0219468, 0.121829, 0.0898369, 0.0816294, 0.0987424, -0.0059456, 0.0379177, 0.0543827, -0.133264, 0.0438223, 0.115977, 0.0252043, -0.0902148, 0.0241698, 0.0520797, -0.00817664, 0.0472638, 0.015779, 0.0328808, -0.054073, 0.00077925, 0.0680699, -0.107559, -0.130405, 0.0588981, 0.0712456, -0.0330822, -0.105681, -0.10158, 0.070638, -0.0555546, -0.0676147, 0.120299, 0.128232, -0.145364, 0.0276897, -0.0150019, 0.0417072, -0.108207, -0.0148828, -0.0888395, -0.039911, 0.032609, -0.0124146, -0.118812, 0.0692389, -0.101635, -0.132992, -0.109846, 0.0314726, -0.0436278, -0.0638046, -0.0322841, -0.0307706, -0.0148244, 0.148182, -0.032522, -0.0216298, -0.0166342, -0.040733, -0.141921, 0.0108424, -0.0863813, 0.00681908, -0.0232773, -0.0443749, 0.116173, -0.00539626, -0.0396895, -0.0809616, -0.00399792, 0.0528615, -0.0610344, -0.000907248, 0.0286152, -0.0205967, 0.0259274, 0.085394, 0.012443, 0.0490969, 0.0975847, -0.012721, -0.0227167, -0.00112616, 0.128161, -0.0276278, -0.0422673, 0.0658954, -0.0985704, 0.123787, 0.00222989, -0.0480993, -0.0731865, -0.0493373, -0.0237709, -0.0392764, -0.128424, -0.0681, 0.255915, 0.154254, 0.0487006, -0.0637546, 0.0706257, -0.110097, 0.0875412, 0.0385893, 0.0951226, 0.0354867, -0.0983575, -0.0362337, -0.0129695, 0.0502731, 0.0157211, -0.0589564, 0.0434182, -0.00106336, -0.12328, 0.0651739, -0.0939223, 0.0710202, -0.0402324, 0.0206258, -0.0309034, 0.178064, -0.0439721, -0.0671661, 0.0125455, -0.102656, -0.0496035, 0.0631963, 0.13576, -0.0864579, -0.0829231, -0.0170041, 0.0898635, -0.0261029, -0.0169904, 0.0324354, -0.111846, -0.000426875, -0.0077249, 0.108626, -0.0400648, 0.0262667, -0.0325264, 0.0571705, -0.0440329, 0.0292846, 0.00481048, 0.166776, 0.0441882, 0.0890387, -0.0108381, 0.0637402, 0.134366, -0.055862, 0.0159056, -0.0540202, -0.0908763, -0.0974424, 0.0205124, 0.0629894, 0.146324, 0.0721589, -0.10144, -0.151373, 0.0458157, 0.00922125, -0.0239954, -0.0863193, -0.0372563, 0.0322414, 0.0473644, -0.0401852, -0.044591, 0.120561, -0.0233664, -0.0257631, 0.0125805, 0.138507, 0.102754, 0.0524151, -0.0547734, -0.0171312, -0.0394564, 0.108418, -0.011986, 0.0281331, -0.015494, 0.00296934, -0.0676989, -0.162859, 0.0361225, 0.081201, -0.121383, -0.0292695, 0.178359, 0.00163591, -0.0407684, -0.0277548, -0.0568052, 0.0667197, -0.0102002, -0.0690007, -0.0105426, 0.0461974, 0.0660605, 0.138919, -0.0456689, -0.0744554, 0.0491083, -0.0311589, 1.17771e-18
-0.0263579, -0.141218, 0.0126392, -0.125458, -0.00707317, -0.0531942, 0.0699022, 0.0358519, 0.122182, -0.060595, -0.0143054, -0.00265086, 0.0210741, 0.0302943, 0.0176052, -0.0082232, -0.0124362, -0.000576103, 0.0365074, 0.0454336, -0.0632902, 0.0223004, 0.262265, 0.0114693, 0.14127, -0.0582962, 0.0804783, -0.0925691, -0.0775144, 0.00483332, -0.0266045, 0.0912163, -0.0696783, 0.00720855, -0.0679564, 0.19661, -0.0128186, -0.190332, 0.176249, -0.093621, 0.085517, -0.0267249, -0.0197188, 0.0238762, 0.0604126, 0.0681243, -0.125503, -0.111721, 0.106298, 0.0612773, 0.228096, -0.037423, 0.0264193, 0.0498296, -0.0399419, -0.0294221, -0.0250824, 0.00750503, -0.0313536, -0.0872918, 0.0837348, 0.0758027, 0.0907161, 0.0446059, -0.0420224, 0.0417386, 0.0879719, -0.185258, 0.154924, 0.0960681, 0.0222633, 0.0887105, -0.0573918, 0.00442491, -0.0607971, -0.103274, -0.024662, -0.00339434, -0.0118371, 0.00987751, -0.157889, -0.0252182, 0.0853028, -0.233729, -0.160898, 0.0886108, -0.047965, -0.031127, -0.0858243, 0.00304565, -0.00538254, 0.0166683, 0.0696215, -0.122952, -0.171152, -0.116621, 0.112747, 0.0797895, 0.0443315, 0.102398, -0.15069, -0.0253994, 0.0431033, -0.103412, -0.056827, 0.152042, 0.0491603, -0.0586877, -0.142602, -0.0473252, 0.00306549, 0.144825, -0.00214514, -0.00787473, 0.0259311, -0.212346, -0.0850698, 0.00555992, 0.153871, 0.0155257, 0.0466676, 0.108289, -0.0109237, 0.160683, -0.0623713, -0.138583, -0.0475163, 0.0370439, -0.0367243, -0.147539, 0.00686471, -0.0178082, -0.0313521, 0.13465, -0.0069411, -0.0380276, 0.0599316, -0.0464714, 0.224736, 0.0755074, -0.0684753, -0.0296371, -0.0992877, -0.0623205, -0.0230782, 0.00989491, 0.0330955, -0.0634774, -0.0283381, -0.0388228, 0.0554093, 0.0872321, 0.0761238, -0.154967, 0.0789667, 0.162821, -0.030513, -0.0617346, 0.0453488, -0.102718, -0.00553151, -0.11624, -0.0409376, 0.183359, -0.0907568, 0.0084005, 0.110667, -0.0295143, 0.0330619, 0.122422, 0.114255, -0.0380128, 0.0407898, -0.146477, 0.0568607, 0.0263098, -0.0570394, 0.0918383, -0.131682, -0.100324, -0.0660029, -0.074551, -0.130915, 0.0468711, 0.0573635, -0.0712345, 0.0343085, 0.0418185, -0.0236765, -0.0690735, -0.0755899, -0.0849829, -0.0336531, -0.0590946, -0.019295, -0.0425161, 0.0756744, -0.0915367, 0.0652177, -0.0837778, -0.0233823, -0.0122783, 0.021184, -0.0693164, -0.0827072, 0.102513, -0.0261846, -0.0125109, -0.0561895, 0.03455, 0.0860679, -0.125189, -0.0430865, 0.132651, -0.0477531, -0.0566935, 0.0741095, -0.01676, 0.132977, 0.0673392, -0.248141, -0.0354741, 0.0102114, 0.0770785, 0.059866, -0.0291959, 0.127223, 0.03875, -0.0484622, 0.176384, -0.0441336, -0.0802108, 0.0817458, -0.00742443, 0.0369667, 0.0239555, -0.191814, 0.0222778, 0.0315731, -0.0543611, 0.0733051, 0.0706708, -0.0689111, -0.0108357, 0.0014025, -0.178412, 0.0610182, -0.0667992, 0.0666822, -0.0559085, 0.0240124, -0.0439143, 0.0459881, -0.0322078, 0.0182307, -0.113495, -3.34449e-18
-0.0592936, 0.0147395, 0.160909, -0.0714848, -0.0461096, 0.0916324, 0.154229, 0.0294666, 0.0392428, -0.0301742, 0.0195225, -0.100537, -0.206656, 0.0131963, 0.067032, -0.117303, -0.0223908, 0.0851983, 0.0231223, -0.0356546, 0.00482829, -0.0247325, 0.0833177, -0.0739604, -0.110322, -0.0622613, 0.0328748, -0.175432, -0.0585284, 0.118306, -0.0225949, -0.0628472, 0.0561283, -0.0494423, 0.0878449, -0.0807142, -0.0482021, 0.0727996, 0.0222522, -0.0338449, -0.0366117, -0.0343157, 0.0228606, 0.0938078, -0.12301, 0.0269837, 0.0231603, -0.0697914, 0.0520176, 0.0178194, -0.0664829, 0.0993351, 0.121201, -0.131916, -0.0793657, -0.136011, 0.015426, 0.0238924, -0.068737, -0.0488558, -0.178062, 0.0246555, -0.0561716, 0.0980992, 0.00545903, -0.0998986, 0.125827, -0.00614055, 0.000880328, 0.026075, 0.0261554, -0.00352471, -0.0331736, -0.161871, 0.0393381, -0.111235, -0.0613603, 0.0701291, 0.022836, -0.228191, 0.0286027, -0.0590914, 0.00531515, 0.0516673, -0.0445798, 0.00739953, -0.0062249, -0.00370003, 0.0363158, 0.142142, -0.00214843, 0.0837505, -0.101882, -0.00391062, -0.0923988, 0.0587023, 0.0199691, 0.0474209, -0.0520046, 0.0384989, 0.0400851, -0.0959108, -0.0244095, 0.0804104, -0.0774342, 0.0927827, -0.082155, -0.0316602, 0.0176626, 0.0360485, -0.170453, -0.0312971, 0.0217178, 0.0822476, 0.0362795, 0.0154245, -0.0248821, -0.0522731, -0.131142, -0.0534108, 0.10785, 0.0725902, 0.109305, 0.127696, 0.0734969, 0.0214931, -0.0228591, 0.0331266, 0.0603251, 5.31396e-05, -0.0293674, 0.0781494, -0.146418, 0.112301, -0.0258753, -0.0422529, 0.154427, -0.0245907, 0.0154887, -0.118322, -0.0780893, 0.0514145, -0.0383048, 0.030439, -0.044809, 0.0203576, 0.0720098, 0.104266, -0.0162062, 0.055408, -0.0797076, -0.0534431, 0.0429372, 0.0542973, 0.0848236, 0.100485, 0.00220441, -0.127413, 0.0761547, -0.0951912, -0.148548, -0.049913, -0.0434095, -0.0281681, 0.137357, -0.121348, -0.064564, 0.0865135, 0.056974, 0.168512, 0.0700123, -0.180971, -0.0456021, 0.0122414, -0.104939, 0.0866773, 0.0402385, 0.148708, -0.0609242, 0.027295, 0.0956223, -0.0467548, -0.118218, 0.0703971, -0.0487467, -0.00370625, -0.00151203, 0.0288861, -0.116223, 0.0256688, -0.0907253, 0.00774639, 0.0147545, 0.176716, -0.0821109, -0.229196, 0.0222177, 0.0639002, 0.0114771, 0.122037, -0.00471829, 0.0734115, -0.00788495, 0.0303868, -0.0454728, 0.0353188, -0.0395912, 0.0547962, -0.128611, -0.0347646, 0.0870039, 0.068983, -0.0340196, -0.00127362, 0.155337, -0.077644, -0.102703, -0.169021, 0.043456, -0.0171654, -0.0124501, -0.00476957, 0.0538083, 0.162484, -0.0822661, 0.045045, -0.0538804, 0.0829251, -0.0227923, 0.0612724, 0.011644, 0.106839, -0.0959519, -0.0524778, -0.0776902, -0.00516625, -0.00725503, -0.0431299, 0.119505, -0.0461547, 0.109174, -0.120266, 0.0726905, -0.0573817, -0.00237323, 0.0405278, 0.117364, -0.0677156, 0.0725723, -0.118359, -0.0207068, 0.0511685, 0.0751924, 0.0377032, -0.0266331, -0.101408, 3.37191e-18
0.0120311, -0.00694196, 0.00409891, -0.0319018, -0.0670956, -0.0147494, -0.0778625, -0.0311851, -0.0472467, -0.0465982, 0.00927905, 0.00680776, 0.00441917, 0.0299577, 0.168581, -0.0675202, -0.0689302, -0.0466155, -0.0515781, -0.0187667, -0.0581764, -0.0951011, 0.0940536, 0.0682357, 0.0918673, -0.0437653, 0.0715014, -0.00348038, -0.099158, -0.0156177, 0.00787913, -0.156854, 0.118131, -0.120264, 0.0339801, 0.0752879, -0.00136872, 0.017691, -0.0506233, -0.120134, -0.00646748, -0.108031, -0.144676, 0.132358, -0.0512254, 0.0111247, 0.0624106, -0.067015, -0.040685, 0.0303102, 0.11786, -0.000880015, 0.102405, -0.0447745, 0.0410031, 0.0930947, -0.0430546, -0.0500197, -0.0894007, 0.0868611, -0.0247882, -0.0320041, 0.0145417, -0.075237, 0.00721522, 0.138263, 0.07723, 0.0233503, 0.120175, 0.15085, -0.00938583, 0.0518521, 0.065533, -0.0796256, -0.106211, 0.0352074, -0.0507481, -0.0840093, -0.0365595, 0.00223725, -0.0885055, 0.0836284, 0.103865, -0.0382976, 0.063631, 0.0149993, -0.147272, -0.11034, 0.100394, 0.0552007, 0.0623944, -0.0119882, 0.0454978, -0.0803606, 0.0463062, 0.0611482, 0.0646874, 0.0971326, 0.0787723, 0.138227, -0.0765436, -0.00336612, -0.0801568, 0.067572, 0.19206, 0.1158, 0.0288624, -0.0738999, 0.122481, 0.0656019, -0.0147723, -0.0241921, -0.0600099, -0.0803281, -0.0611413, 0.00447536, -0.00354593, -0.0604127, -0.20066, 0.0513384, 0.154151, 0.0345723, 0.0188599, 0.203405, 0.0164535, -0.0389905, -0.0724916, -0.017396, -0.0804982, 0.0094307, -0.0533138, -0.00413005, 0.0299297, -0.0449969, -0.0731424, -0.0108352, 0.0402241, 0.00545666, 0.0756532, -0.0463496, -0.00256322, -0.067339, 0.130356, 0.0720473, -0.0467272, 0.0239712, -0.1236, -0.0269149, 0.171256, 0.0519629, -0.00879566, -0.0509436, -0.118028, 0.0483548, -0.0512933, 0.0604029, -0.0975298, 0.0408556, 0.0807934, -0.0196355, -0.178145, 0.102092, 0.034323, -0.0667054, -0.0534249, 0.0423021, 0.0878953, -0.0142863, -0.0509542, -0.0460564, -0.112925, 0.0776414, 0.115551, 0.055235, 0.106398, 0.0751581, -0.0189738, -0.101632, 0.02094, 0.0268012, -0.0767779, 0.0840548, 0.010579, -0.0857034, -0.0304755, -0.0323797, -0.0374597, 0.05768, 0.0341954, 0.0482652, -0.0324731, -0.0832189, -0.0462162, 0.0823212, -0.00728213, -0.00440681, -0.0680824, -0.0403463, 0.126587, -0.0484841, -0.00281174, -0.00884144, 0.0679392, -0.0595138, 0.0241578, -0.0203015, -0.0081207, -0.184743, -0.0160542, -0.0604897, 0.0538388, -0.0498823, 0.00155164, 0.0107215, 0.0137363, 0.0150165, 0.204634, 0.219245, 0.097137, 0.0432534, -0.0735495, 0.0442587, 0.0664124, -0.0279178, -0.0298819, -0.0586894, 0.011846, -0.00547561, 0.131833, 0.070167, -0.0744737, 0.0414514, -0.0251431, 0.0823468, 0.129813, 0.0132748, -0.074249, 0.155985, 0.0914717, 0.0745465, -0.166608, -0.0440646, 0.0267328, 0.0804736, 0.131318, 0.165156, 0.099491, -0.0510239, -0.0209478, 0.0101209, 0.129356, -0.0290418, 0.0875587, 0.0819463, -0.0231403, -0.02269, -4.97674e-18
-0.0582914, -0.00385735, 0.125441, -0.0305225, -0.0569115, 0.152065, 0.0329852, 0.0255699, 0.094378, -0.0204837, -0.013032, -0.0185375, -0.0461929, 0.0011489, -0.0642942, -0.120634, -0.0108546, 0.0213317, -0.0705539, -0.102356, -0.116512, -0.00343901, -0.121665, -0.0224148, -0.0215109, 0.0620534, 0.139873, 0.119208, 0.0271051, -0.0820851, 0.121359, -0.0887393, 0.0465621, -0.0624911, 0.0292327, -0.0861213, -0.00272582, -0.039034, 0.01921, 0.0523328, -0.136839, 0.0948481, 0.0434635, 0.0568643, -0.212108, 0.109816, 0.0550148, -0.0545656, -0.0549627, -0.001687, 0.00482964, -0.139371, -0.0566476, -0.117459, 0.0319865, -0.00104156, -0.0828676, -0.0375087, 0.104753, 0.0612613, -0.018641, -0.109129, -0.00444073, 0.0140197, -0.0917899, -0.0685968, 0.0178649, -0.106395, 0.0402398, -0.00666468, 0.0209364, 0.0593988, -0.0858376, -0.0132855, -0.0473991, -0.013876, -0.138259, -0.0470367, 0.0334765, 0.0107533, 0.0173187, -0.0797292, 0.0839752, -0.0401232, -0.065347, -0.0781479, 0.00771748, 0.0702255, -0.055844, 0.047433, -0.051372, 0.0916902, 0.275642, 0.0757146, -0.128976, 0.0171355, -0.0813268, -0.00721583, -0.0380246, -0.0784992, -0.0405659, -0.111471, 0.0792741, -0.0769801, -0.0331153, 0.172521, 0.0108938, 0.063983, 0.0678983, 0.169753, 0.014256, 0.0138005, 0.109961, 0.124215, -0.11876, 0.00450944, -0.0671006, -0.00395201, -0.0290834, 0.0585369, -0.0412742, -0.0633197, 0.0293024, 0.046866, -0.020181, 0.0200777, -0.12659, 0.0219715, -0.0777155, 0.0174634, -0.16338, -0.151196, -0.0617283, 0.0688644, 0.0875703, 0.0434638, -0.0596003, 0.0112785, 0.0091354, -0.13679, -0.114892, 0.0949088, 0.0314167, 0.0769915, -0.0536638, 0.183829, 0.0645487, 0.0480348, -0.0934015, -0.0180459, -0.0326423, 0.120905, 0.0900926, -0.0124897, 0.00660318, 0.0742662, -0.0680699, 0.023385, 0.00736126, -0.0454992, -0.0468087, 0.0255401, -0.0158482, 0.0129409, -0.0852084, 0.131761, -0.012199, -0.000597807, -0.00419765, -0.0166636, 0.0621273, -0.0278919, 0.0504242, 0.167887, -0.148601, -0.140682, -0.0905997, 0.120057, 0.0559353, 0.0724571, -0.17884, 0.049046, 0.134646, -0.175668, -0.0814849, 0.0982957, 0.0520929, -0.101865, 0.0454644, -0.0624183, -0.112977, -0.032805, 0.046059, -0.0973395, 0.0636135, -0.0880818, 0.0409547, -0.0532118, 0.185146, 0.0423981, -0.0832001, 0.0510846, 0.00897909, 0.0874535, -0.00153892, -0.005891, -0.011014, 0.0940093, -0.079959, -0.0925542, 0.173708, -0.0885324, -0.0907457, 0.0564108, 0.126205, 0.043637, 0.0301274, 0.0457424, -0.1804, -0.0243995, -0.0089574, 0.0676146, -0.0850661, 0.0774978, -0.0463286, -0.136743, -0.204672, 0.0408969, -0.0306488, -0.0467751, -0.0491882, -0.146133, -0.00254924, -0.0665141, -0.217863, 0.00753487, 0.157196, 0.0330866, -0.0692023, 0.0489975, -0.0201377, -0.0470549, -0.00814791, -0.00783973, -0.111173, -0.131872, 0.0718567, 0.0918578, -0.0653134, 0.0393612, -0.0176906, -0.0747068, -0.0222457, 0.137464, -0.0267607, -0.00116301, -9.87831e-18
-0.116669, 0.0511019, 0.0145657, 0.00809772, -0.221195, 0.0159394, 0.00904273, -0.0328109, 0.0278522, -0.0158025, -0.128774, -0.0711768, 0.0290638, -0.120211, -0.0615192, 0.0856966, -0.082284, -0.0265246, 0.120463, 0.0820511, 0.0267145, 0.0527744, -0.0614673, 0.0650037, -0.151401, 0.0530824, -0.111099, 0.236708, -0.0364999, -0.178564, -0.0214145, -0.00906269, -0.0910745, 0.0862603, -0.0895968, 0.0533081, -0.0244911, -0.0671317, 0.164826, 0.111292, -0.0139449, -0.0255396, 0.0865067, 0.078565, 0.046353, -0.0148426, -0.0637048, -0.0458775, -0.173054, -0.0553047, 0.0280229, 0.0474289, -0.194992, 0.0171418, 0.0524145, 0.0464206, -0.039522, -0.171598, 0.0316627, -0.0649978, 0.0301559, 0.0512593, 0.0247787, -0.0394022, -0.0573131, 0.00413292, -0.0507134, 0.133418, -0.0380685, -0.0522823, 0.0334188, 0.136681, 0.0230062, 0.166163, 0.102233, -0.090883, 0.0360888, -0.127463, 0.02183, 0.0954759, -0.114737, -0.200361, 0.0677828, 0.00735629, -0.0189279, -0.0688161, -0.040592, 0.128362, -0.0588985, 0.0601794, -0.0544856, 0.138886, -0.16483, 0.0574942, -0.07008, -0.0311775, -0.121727, 0.104215, 0.0278735, 0.067293, 0.018871, 0.153081, 0.0379666, 0.101864, 0.0625178, -0.174372, -0.035043, 0.0175942, 0.0261484, -0.0368014, 0.0251748, -0.0864709, -0.0397413, 0.0408821, -0.0200588, -0.134343, -0.00852064, 0.0194832, 0.115221, 0.0349132, 0.0104856, 0.0709312, -0.068242, -0.0315471, 0.00663956, -0.203668, -0.0221466, -0.0558865, -0.0494229, -0.0576543, 0.107685, 0.0289376, 0.113584, 0.0617436, -0.158354, -0.0218805, -0.00574183, 0.0888745, -0.0774723, 0.0178786, -0.0461353, 0.1304, -0.00962291, -0.0531689, 0.0603215, -0.0164228, -0.0123825, 0.156358, -0.0219731, -0.0319083, 0.0682814, 0.0617488, 0.109543, 0.0823166, -0.0332374, 0.0434721, 0.141266, 0.0263635, 0.0106239, -0.0234004, -0.0119735, 0.0862211, 0.0715654, 0.156541, 0.0786307, -0.129344, 0.0250517, -0.162071, 0.0229516, 0.0896684, 0.0985642, 0.0240216, 0.0362165, 0.0629436, -0.000175627, -0.238767, 0.157819, -0.0810529, 0.0281845, 0.0380291, -0.0498778, -0.0411661, 0.0102898, -0.00720785, 0.0590042, 0.0139561, -0.0358061, -0.0287865, -0.0369956, -0.0340587, 0.0218135, 0.00647224, 0.0541171, -0.103263, -0.0348354, -0.00728028, 0.0728716, -0.110614, 0.041363, -0.0109673, 0.0699366, -0.007697, -0.0794656, 0.0230402, 0.023361, 0.0213113, 0.0961271, 0.0046358, -0.0702964, 0.0678178, -0.0434906, 0.0392318, 0.0159295, 0.0379832, -0.0264405, 0.0982582, 0.0835187, 0.103736, -0.036303, -0.0248971, 0.047455, -0.130465, -0.0811726, -0.21952, 0.0313553, 0.0394018, -0.153213, 0.0616201, -0.0434712, 0.116887, 0.0255435, 0.0967094, -0.0445479, -0.0219106, -0.167721, -0.0404181, 0.00394414, -0.070402, -0.0973941, -0.0766076, 0.0228798, 0.0388558, -0.0617514, 0.0113275, 0.0578189, -0.0560587, 0.215396, -0.132352, 0.00428156, 0.0227359, -0.0384752, -0.0293413, 0.00644378, -0.00912574, 0.00991055, 0.0469909, 8.87798e-19
0.0250461, -0.161471, 0.14964, -0.0696501, -0.00553411, 0.0672034, 0.0290471, 0.13451, 0.0539965, -0.0215524, 0.0390166, 0.0350159, 0.03207, 0.0184748, -0.013213, -0.0224539, 0.10334, 0.0122966, 0.0559946, 0.0378706, -0.0123947, 0.0605823, 0.095874, -0.0551945, 0.0703456, 0.0939984, 0.00171299, -0.0185572, -0.135872, -0.00436452, 0.177028, -0.108021, 0.13799, 0.00737806, 0.0295234, -0.00926332, 0.0541771, 0.0857, 0.034915, 0.0591679, 0.0658587, 0.0728277, 0.112162, -0.0357415, -0.0476081, 0.0938307, 0.0148531, -0.111784, 0.0277399, -0.0298571, 0.00191516, -0.0419211, 0.0016315, -0.0542385, -0.0101576, -0.217662, 0.0223559, -0.0897307, 0.00912574, 0.024768, 0.0127835, 0.0686878, -0.0985376, 0.0451528, -0.0920068, -0.0960687, -0.0976454, -0.00881964, -0.0364382, -0.0274019, -0.0886483, 0.0237169, 0.00923144, -0.0187883, 0.072504, 0.0794318, -1.25281e-05, -0.0900499, -0.0999393, -0.0265904, 0.00578409, 0.103689, 0.034936, -0.123432, -0.0233614, -0.05733, -0.0351623, -0.12268, -0.0503302, -0.0683814, 0.044749, -0.105285, 0.00361955, 0.0763904, 0.164822, 0.0212694, -0.0616723, -0.0116959, 0.0574167, 0.0648114, 0.0687564, -0.109889, 0.0864862, 0.055645, 0.0106024, 0.0571606, -0.112049, -0.0853742, 0.00754576, -0.0288697, 0.117426, -0.153289, 0.0693723, 0.0329521, -0.018715, -0.0516854, 0.051636, 0.0689227, -0.213938, -0.0163987, -0.0744363, 0.170852, 0.172717, -0.10189, -0.0197912, -0.0485403, 0.0559623, 0.106879, -0.041343, 0.180135, -0.0275719, -0.0537494, 0.0858654, -0.0193041, 0.0590896, -0.0276677, -0.0209179, 0.0460306, 0.0212374, 0.0545088, -0.0670005, -0.0661617, -0.141192, -0.0310425, 0.12934, 0.00834447, -0.0114911, -0.024446, -0.00794147, 0.0108218, -0.00248179, -0.0495184, -0.0916161, -0.030281, -0.0234342, -0.101151, -0.0327049, -0.191936, 0.0450628, 0.0619856, -0.014756, 0.10791, 0.0595667, -0.0208962, -0.187376, 0.0807806, 0.00215942, -0.0107928, -0.0660345, 0.130388, 0.124131, -0.0673206, -0.0271169, -0.00346461, 0.0385667, -0.169368, -0.00508952, 0.0460319, 0.125567, -0.029797, -0.0740916, -0.0214515, -0.0606654, -0.102813, 0.0153822, -0.0045198, 0.0416593, 0.129853, -0.120324, 0.00402168, -0.0505096, -0.00702298, 0.00385094, -0.057151, 0.00658652, -0.149891, 0.0225166, -0.00983268, 0.193103, 0.0221775, 0.0610542, -0.0756734, -0.0831046, 0.00805674, -0.00310774, 0.0220403, 0.0819997, -0.010448, 0.00550188, 0.0691594, 0.110281, 0.0538655, 0.0446488, 0.0193908, -0.0592434, -0.0980934, 0.176679, -0.081218, 0.0146989, -0.0741411, 2.25872e-05, 0.0107615, -0.015227, -0.0286306, 0.0417182, -0.00271525, 0.0055342, 0.0407595, 0.040377, 0.214339, 0.0252408, -0.0393185, -0.0665351, -0.10397, 0.0279069, -0.0609989, -0.0261092, 0.0552149, -0.12125, 0.112964, 0.0669741, 0.0262769, 0.148719, 0.0197672, 0.0366442, -0.0602895, 0.0521403, -0.167433, 0.0646369, 0.00100021, -0.0522948, -0.0218502, 0.0402304, 0.0345425, -0.0289187, 0.0359001, -1.09588e-18
0.0717549, 0.0524339, -0.0230381, -0.0363213, 0.0170094, -0.0461717, 0.0137146, 0.0140825, 0.0254201, -0.0696963, 0.112755, 0.100683, -0.0849302, 0.0830712, -0.166258, -0.146425, -0.0683834, -0.0601197, -0.0576366, -0.0141656, 0.0222799, -0.0462152, 0.00623187, -0.0396773, 0.0307328, -0.0147749, 0.0718672, 0.121169, -0.0542252, -0.07211, 0.0312685, -0.018509, -0.018161, 0.018275, -0.0197235, 0.0154363, -0.0526758, 0.145446, 0.00878745, -0.0350075, -0.0471445, 0.025007, -0.0126116, 0.108579, -0.0286672, -0.032843, -0.00607693, -0.0548808, -0.117923, -0.0478988, -0.104651, 0.0712917, -0.0335643, 0.00349709, 0.0563371, -0.140095, 0.0293431, -0.0333237, 0.00555057, -0.146088, 0.0384697, 0.0877773, 0.109736, 0.0516506, -0.111415, 0.107423, 0.0629917, 0.0509802, 0.00535983, 0.0047915, 0.07962, -0.0492322, 0.164332, -0.0149842, 0.0969794, -0.0389964, -0.196704, -0.0657394, 0.238751, -0.043271, 0.195496, -0.137382, -0.191705, 0.00402371, 0.00819252, -0.15498, -0.05985, -0.105033, 0.0111275, 0.0335319, -0.0496331, -0.0920539, -0.0125852, -0.0793148, 0.0534937, -0.0497392, 0.0437595, 0.0460573, -0.0174322, 0.0267224, -0.067709, 0.0728545, 0.0877562, 0.0374085, -0.0911453, 0.0207815, -0.0226214, 0.110295, 0.135065, -0.134622, -0.0640097, 0.0397599, 0.0377995, -0.0914881, 0.153444, 0.0823726, 0.0576425, 0.0506618, 0.0902542, -0.0616934, 0.0366218, 0.0988213, 0.086124, -0.13504, 0.0796832, 0.0622243, -0.0411742, -0.0881968, -0.00309508, 0.13632, 0.137521, 0.0194304, -0.0376784, -0.0383869, 0.00956946, -0.0583463, 0.0131731, -0.0934785, 0.106531, -0.037523, -0.0278283, -0.0624081, -0.0940116, -0.0206056, 0.120305, 0.165134, -0.0069578, 0.0410426, 0.130218, 0.0388738, 0.0669639, -0.0374959, 0.0464818, 0.0387074, 0.03007, -0.0338393, -0.0455318, -0.0545116, 0.0435059, 0.0975526, 0.00569325, -0.132721, -0.00776489, 0.0552404, -0.110646, -0.00584934, -0.00284965, -0.0280271, 0.0484982, 0.041545, -0.0280331, 0.0123179, 0.082089, -0.0842222, -0.175759, 0.107232, -0.0174018, 0.0140517, 0.0528303, -0.00464697, -0.0840502, 0.0629345, 0.209411, 0.00013124, 0.0267894, 0.025745, -0.00249326, -0.00640214, -0.139448, 0.0279343, -0.0691182, 0.0559933, 0.0414424, 0.0576411, 0.0823022, -0.0336824, -0.0480443, -0.115028, -0.164441, 0.0325314, 0.040489, -0.0147583, 0.0335179, 0.00973649, -0.120296, -0.033991, -0.0415307, -0.0778372, 0.0504679, 0.0287273, -0.00635612, -0.0363957, -0.0697597, -0.127406, 0.115701, -0.104609, -0.00614365, 0.0456391, 0.0280893, 0.014495, 0.0472093, -0.122942, 0.046699, 0.058775, 0.0718852, 0.009056, 0.0276226, 0.103371, -0.0634442, -0.0304159, 0.0969238, -0.0241241, -0.0324256, 0.115653, 0.131199, -0.0854769, 0.150658, 0.0307524, -0.0811487, 0.016044, 0.0548189, 0.123296, -0.110908, -0.0649824, -0.0493164, 0.0122759, 0.00676619, 0.0338494, -0.140757, -0.000881934, -0.0781116, -0.194386, 0.0568084, -0.0360436, 0.00488742, 0.0197533, -2.05005e-18
0.034949, 0.0740713, 0.0268473, -0.0275621, 0.0177859, 0.00935386, -0.0338328, 0.0581369, 0.0743798, -0.0300909, 0.0847291, -0.0532177, -0.0173924, 0.0576626, 0.0842995, 0.0344542, -0.221712, -0.0318429, 0.0919308, 0.0659642, 0.0311223, -0.0497754, -0.013225, 0.11081, 0.121163, 0.0872548, 0.0149704, 0.0297532, 0.0362908, 0.0143913, -0.0378398, -0.169843, 0.119771, -0.016499, -0.00283779, 0.0838551, 0.0593909, -0.148145, -0.0587813, 0.0699731, -0.0202953, -0.0712044, -0.0503987, -0.145155, -0.01059, 0.0442462, 0.0504721, 0.0483048, 0.172677, -0.0278164, 0.0894571, -0.0310891, -0.00771725, 0.00505872, 0.0705533, -0.00207181, 0.0302762, -0.124306, 0.0947094, -0.176374, 0.00124388, 0.00607621, 0.0676438, 0.0982984, -0.00831701, 0.120597, 0.122123, 0.0382774, 0.0542617, 0.198948, 0.0370177, -0.0312734, -0.0336249, -0.022703, -0.0224478, -0.0397637, 0.033032, -0.00570542, 0.0811982, 0.03276, 0.0130984, -0.0532384, 0.0170229, 0.0299328, 0.00928662, 0.128969, 0.124001, -0.0314952, 0.096835, -0.0795379, -0.0612021, 0.0874233, -0.100086, -0.0286742, 0.0417115, -0.0379806, 0.0282003, -0.0446976, 0.0281548, -0.147413, 0.114204, 0.0898901, 0.0550357, 0.0159332, 0.069515, 0.0752035, 0.0142978, 0.0907435, 0.0344864, -0.0115564, -0.0396777, 0.044817, 0.0443499, -0.00550107, 0.100303, -0.0498615, -0.0339866, 0.0708751, -0.0468262, 0.0971717, -0.0594305, 0.0303658, 0.105024, 0.122269, 0.00199657, 0.155929, 0.0275792, -0.099489, -0.146915, 0.00464497, 0.101505, 0.0817665, 0.00653589, -0.00503129, -0.0829345, 0.0947115, -0.0845049, 0.0777825, 0.0998777, 0.00825831, 0.0840552, 0.0841287, -0.0795233, -0.0778817, 0.0609696, -0.0340872, 0.134619, 0.00522243, 0.0420166, 0.0172975, 0.188179, 0.0275033, 0.135992, -0.000250986, 0.00518732, -0.0687223, -0.0355941, 0.0670184, 0.181547, 0.031497, 0.00332526, 0.136404, -0.108453, -0.0517382, 0.119624, 0.0987531, -0.0130604, -0.0152124, -0.0554989, -0.0576963, -0.074904, 0.183978, -0.0274659, -0.0218418, -0.0238781, -0.0808993, 0.133661, -0.0229952, 0.0829151, -0.152269, 0.0133618, 0.0141885, -0.044004, -0.0142554, -0.132432, 0.0306026, 0.139742, -0.0503582, -0.0242645, -0.0364212, 0.102841, -0.206416, -0.0844952, -0.0329911, 0.066625, 0.0153453, -0.0447967, 0.00819236, 0.0909695, -0.0771018, 0.0608653, -0.0278472, 0.0101935, 0.00480653, -0.184366, 0.00420677, -0.0419406, -0.0266304, 0.0357838, 0.0770369, -0.0123566, -0.0504465, -0.0244178, -0.0525156, -0.0569413, -0.0105975, 0.047208, 0.127725, 0.103685, -0.0197329, 0.0379642, 0.00107737, 0.125697, 0.0869626, -0.026344, 0.0249156, 0.0931644, -0.101976, 0.202101, 0.0366477, 0.0287338, 0.0761752, -0.0434438, -0.104039, 0.0171899, -0.18221, 0.00895692, -0.14761, -0.0595349, -0.102705, 0.0432954, 0.0246953, -0.205796, 0.139213, 0.018912, 0.0177452, 0.0758478, -0.147258, 0.0269268, 0.0213662, -0.0341202, 0.00339286, -0.0827512, 0.0925755, 0.026985, 0.0702063, -1.01601e-17
-0.0432723, -0.236619, 0.0561727, -0.0901961, 0.000273834, 0.0947321, -0.00617045, -0.114965, 0.00367436, -0.0684408, 0.0130579, 0.0857425, 0.0758218, -0.148269, -0.0665241, -0.0534002, 0.00783892, -0.0856703, -0.0524832, 0.0145851, -0.120074, 0.0101514, 0.0445851, -0.00599266, -0.0452479, 0.00778793, -0.105659, -0.0823342, -0.0768218, 0.0501176, 0.0420451, -0.0382734, 0.0695832, -0.107556, 0.0438847, 0.041613, 0.0252755, 0.0941885, 0.0488807, 0.000714169, 0.0651394, 0.0226917, 0.0740853, -0.01883, -0.0389018, 0.0207886, 0.0796485, -0.0431092, -0.0516883, -0.0896354, 0.00179351, -0.197508, -0.0690551, -0.0898378, 0.00403702, 0.0308697, 0.0691911, 0.0383565, -0.0524194, 0.00139038, -0.0445283, -0.0374462, 0.0532314, -0.0226607, -0.0737757, -0.0450103, -0.112561, 0.204623, -0.119311, 0.117702, 0.120577, 0.0839019, -0.142593, -0.0996348, -0.0757418, -0.0302011, -0.0861653, 0.0375721, 0.18303, -0.0135991, -0.0583408, 0.0283518, -0.0194715, -0.00684473, 0.0216409, 0.0293701, 0.0383103, 0.0151084, -0.0302742, 0.120856, 0.088249, 0.0831383, -0.036471, 0.00866002, 0.110624, 0.0684236, -0.0562296, -0.0515099, -0.145067, 0.101233, -0.0742972, -0.0600432, -0.00495786, -0.178438, -0.0245424, -0.0405528, 0.0677567, 0.0904084, -0.102189, 0.0694751, 0.0175615, -0.0644093, 0.00185679, -0.114437, 0.13201, -0.0751498, 0.0451085, 0.0419182, 0.0122245, 0.0785128, 0.111748, -0.123866, 0.0059833, 0.0595354, 0.124888, -0.0825544, 0.0555526, -0.195832, -0.29915, 0.053468, -0.0671229, -0.0693886, 0.0555469, -0.012688, 0.0718756, 0.101467, -0.130968, -0.0696, 0.1209, 0.0188276, 0.00852875, 0.0252308, -0.128102, -0.0813896, -0.146608, 0.0692051, -0.0138124, -0.0406581, -0.18744, 0.03593, 0.108823, -0.0919775, -0.0629519, -0.103899, -0.0112544, 0.0510273, -0.0273205, 0.179999, 0.0219878, -0.166575, 0.0224054, -0.0265167, -0.0725242, -0.14228, -0.0502307, -0.0190791, -0.0905703, 0.0254264, 0.0518316, 0.0349236, -0.0444017, 0.0645628, 0.0388527, -0.03709, 0.0406521, -0.109027, 0.0713666, -0.134204, -0.0586284, 0.0654949, -0.223661, 0.0330637, -0.142096, 0.0832313, 0.0986764, 0.0595318, -0.0413624, 0.0105876, -0.105066, -0.133379, 0.0646314, -0.0698308, -0.040421, 0.0783864, -0.0581608, -0.0715136, 0.0454578, 0.0380341, 0.0635423, 0.033159, 0.159733, -0.0707768, -0.0878073, 0.0913683, 0.143941, -0.0067861, 0.0119867, 0.0123772, -0.0448512, 0.109744, -0.0716709, 0.0189182, 0.0250661, -0.0314005, -0.0461438, -0.0643472, -0.0336436, 0.055861, -0.0401612, 0.0190424, 0.00334209, -0.0397327, -0.0880215, 0.0857319, -0.137343, 0.0742728, 0.175538, -0.0577756, -0.00610647, 0.0777145, -0.0620339, -0.0445978, 0.187699, 0.0564365, -0.181519, 0.206192, -0.0555708, 0.121726, -0.0559647, -0.0726478, 0.0520062, 0.0886854, -0.0350783, 0.0276411, 0.0965776, -0.0566202, 0.0524507, -0.0193016, -0.160419, -0.00270246, 0.0886251, -0.0285623, -0.170864, -0.0521819, 0.0697254, 0.11382, 1.40287e-18
0.0737606, -0.114452, -0.0921135, 0.139749, -0.0719616, 0.171776, 0.0408527, -0.0148586, -0.103537, 0.0540149, 0.0509514, 0.0736528, 0.0864406, -0.0791971, -0.045969, 0.0400979, 0.0681253, 0.144987, 0.0495399, 0.0659324, 0.00944525, 0.0177401, -0.0374838, -0.0205003, -0.0529081, -0.0861129, 0.110082, -0.0137916, 0.0105451, 0.0650853, 0.0550084, 0.00192545, -0.0796139, 0.0562029, -0.000774704, 0.00820847, 0.107751, 0.0718942, 0.0308663, 0.132335, 0.0862806, 0.106282, 0.0359035, 0.0360626, 0.0265965, 0.00677959, 0.000849179, 0.00448879, 0.0294287, 0.0190918, -0.0192839, 0.0828857, 0.0560115, -0.0112067, 0.0035372, 0.0256403, 0.105996, -0.00102863, -0.0630948, -0.0559375, -0.0718561, 0.058599, -0.0750906, 0.0438719, -0.158332, 0.114861, -0.22231, 0.0657872, 0.101602, 0.0351106, 0.184747, -0.0564125, 0.0446572, -0.102709, 0.0143682, 0.0217394, 0.00292604, -0.0224515, -0.0425814, 0.0629889, -0.0200362, 0.0452097, 0.0477613, -0.022946, -0.0861136, 0.0986483, -0.0640474, 0.0253454, -0.0381826, 0.0551383, 0.029304, -0.112786, 0.0478416, -0.124412, 0.0255705, -0.104084, 0.101478, 0.080209, -0.0351872, 0.0409222, -0.02455, -0.0314462, 0.0466475, -0.0167064, -0.170959, 0.0756012, -0.0201455, 0.037813, 0.17319, -0.076909, -0.0179301, 0.0624537, -0.0629852, -0.156568, 0.0677049, -0.0577758, -0.0154447, 0.013308, -0.108716, 0.0251187, 0.0511352, 0.089158, -0.0342995, 0.142108, -0.0791627, -0.0694294, -0.0182345, -0.0371845, 0.0165379, 0.0229877, -0.0608515, 0.128304, 0.102607, -0.036488, -0.138069, 0.0221672, 0.0136457, -0.152586, -0.110744, -0.00910592, -0.0574393, 0.0388181, -0.0279875, -0.0155785, -0.0959824, -0.107034, -0.133744, 0.00834777, 0.020198, -0.109792, 0.095079, -0.0291574, 0.0382392, 0.111045, 0.141521, -0.109346, -0.0978331, 0.0871973, -0.126577, 0.142423, -0.030174, 0.15724, -0.0960436, 0.0777707, 0.025964, -0.00691514, 0.0423893, -0.0686016, 0.085243, -0.190813, 0.0340619, -0.0340576, -0.0209693, 0.12024, -0.0537149, 0.0628967, 0.00327766, 0.0873647, -0.0549633, -0.0428494, 0.129955, 0.00667448, 0.0823964, -0.116723, 0.075108, -0.0894858, 0.102208, 0.126856, 0.180796, -0.0344188, 0.0165916, -0.0328456, 0.0595371, -0.0527228, 0.131506, 0.0670666, -0.0310255, 0.0625724, 0.0463915, -0.00265942, 0.0356421, 0.165812, -0.0876019, -0.103989, 0.0674679, 0.0545059, 0.027138, -0.046917, 0.0133848, 0.148471, 0.221196, -0.055912, -0.112574, -0.0331897, 0.0929223, -0.00962937, 0.113744, 0.0236604, 0.127911, 0.0616151, -0.00241895, -0.073502, 0.0120719, -0.17961, 0.0296388, 0.0874381, -0.0736933, 0.175042, -0.128394, 0.0207924, -0.0119588, 0.0245123, 0.0425121, 0.0652333, 0.0968701, 0.0942537, 0.0163557, 0.0786001, 0.0972213, -0.0329071, 0.0495403, -0.0652849, 0.142662, 0.0284566, -0.0808451, -0.0140715, 0.0672751, 0.151931, 0.0725109, 0.133889, -0.132209, 0.0721031, -0.023074, -0.0758881, 0.00246498, -0.0145897, 3.24735e-18
-0.0348139, 0.0580293, 0.0164342, 0.0252498, -0.0158978, -0.0474093, 0.0277403, -0.125681, 0.0358397, 0.120421, 0.102213, -0.08725, -0.0333285, 0.0106208, -0.0705089, 0.00774206, 0.00874456, 0.0955049, 0.0520144, 0.00219757, 0.0890302, -0.0498694, 0.0209456, 0.0307349, 0.132893, 0.0709884, 0.0255111, 0.0453036, 0.00954752, -0.0642521, -0.0889866, -0.0527436, 0.0855784, 0.035596, 0.0851708, 0.00801617, 0.10436, -0.136871, -0.0552623, -0.0349562, -0.0429121, 0.0106336, 0.0693604, -0.0940652, -0.0217643, -0.00285562, 0.0496401, 0.0721549, -0.0900764, 0.0695681, -0.0882054, -0.0761423, -0.0857401, 0.0453641, 0.14422, 0.0749536, 0.104665, -0.154635, -0.0582901, 0.0965418, 0.134819, 0.0352091, -0.0718295, 0.0272969, 0.0255663, 0.0506802, 0.0167967, -0.0209836, -0.020775, -0.0734852, -0.0975361, 0.0657386, 0.0943242, -0.0571114, -0.0722864, 0.0262916, 0.00117501, -0.000667972, -0.120999, -0.0059624, 0.07601, 0.059099, -0.0741438, -0.0880459, 0.10566, 0.179806, 0.0631634, -0.03851, -0.0111734, 0.0266959, -0.0652578, 0.0840171, 0.0636115, 0.110667, 0.0339842, -0.0168136, 0.044934, 0.00633954, -0.0612774, -0.00604926, 0.0112224, 0.0112885, 0.123816, 0.137515, -0.149422, -0.000997596, -0.0214153, 0.103025, 0.0391655, 0.0745349, -0.0696345, 0.109531, 0.192793, 0.0862591, -0.101501, 0.0946654, 0.075144, 0.169129, -0.0872855, 0.0541249, 0.0987226, 0.0484509, -0.097922, 0.0795982, 0.0445358, 0.0684024, -0.0496157, -0.0362001, 0.00521081, -0.092959, -0.043565, -0.0574216, -0.0850065, -0.10699, 0.147757, -0.111894, -0.116545, -0.0406747, 0.0642471, -0.0610165, 0.0557173, 0.111978, 0.00751445, 0.158908, -0.020284, -0.0507931, 0.0457772, -0.0674881, -0.00605081, -0.0176019, 0.0842448, 0.0131326, 0.0619484, 0.132725, -0.0883431, -0.0207191, 0.114015, -0.0393729, 0.116838, -0.10574, 0.0278191, -0.114441, -0.0191973, 0.0732885, 0.00291315, 0.041813, 0.0461946, 0.214335, 0.159269, 0.227221, 0.0781922, -0.0345231, 0.0360755, -0.11178, -0.00753039, 0.0705034, 0.0919587, 0.0123402, -0.0165215, -0.108573, 0.0444216, 0.056779, -0.110475, 0.0171269, 0.0130604, -0.043382, 0.00143246, -0.134089, -0.0625787, 0.030413, -0.107005, 0.149591, 0.0127079, -0.0815547, 0.0194765, -0.106322, -0.0265225, -0.0700957, 0.0604396, -0.117767, -0.0498625, -0.00174985, -0.030057, 0.141005, -0.0789655, 0.107567, 0.110968, 0.0368611, 0.0541188, -0.00401518, 0.0701684, 0.00614422, 0.185065, 0.0319722, 0.0159791, -0.0329775, 0.0806132, -0.0107562, 0.0856382, -0.0873207, -0.0780898, 0.0190473, -0.00791633, 0.0537852, -0.00317878, 0.039381, -0.0312636, -0.0345363, 0.0336041, -0.028858, -0.0676827, 0.0860723, -0.0318588, 0.0588355, 0.0408685, -0.151925, -0.0224873, 0.0589207, -0.0776337, -0.235012, -0.00365265, -0.0535004, -0.0290712, -0.047729, -0.0314211, 0.0663294, 0.079324, 0.0461967, 0.0880142, 0.0164831, 0.0544965, -0.0313506, -0.0752403, 0.142323, -0.0602608, 0.0432927, -1.28121e-17
-0.0833042, 0.0995633, 0.00301197, 0.0723148, 0.00667603, 0.0491912, 0.0187237, -0.148667, 0.0603833, 0.0674723, 0.132678, -0.0548961, -0.0475338, 0.0541747, 0.0818424, 0.0888872, -0.0576644, -0.015228, -0.18463, 0.00839004, 0.00814784, -0.00716987, 0.0246761, -0.180862, -0.111368, 0.0561833, 0.0211975, 0.0624056, -0.133734, -0.0207577, -0.0941885, -0.0648017, -0.0662251, 0.0266163, 0.0478812, -0.0502227, -0.0124252, 0.00844791, -0.0817686, 0.0407191, -0.0607554, -0.0255028, -0.0047193, -0.126848, 0.123936, 0.0524237, -0.0705809, -0.0881326, 0.0412793, 0.0519674, 0.0782804, -0.0708365, -0.00768349, -0.013593, 0.0637805, 0.0885478, -0.0973198, -0.104315, 0.0924614, 0.0518335, -0.0257782, -0.0999914, -0.024053, 0.0278747, -0.0357406, 0.0876567, 0.133614, 0.0472873, 0.0321564, 0.105695, 0.087652, -0.0553844, 0.011786, -0.0384318, 0.0635786, 0.107585, 0.0315153, 0.0643264, -0.0369344, -0.0286943, -0.00629862, 0.00192712, 0.121866, -0.0269974, 0.0183493, -0.0398183, -0.0469885, 0.0295584, -0.0610847, -0.0301095, -0.0699586, -0.0351304, -0.0281042, 0.072676, -0.0103367, -0.0385346, -0.00957372, 0.0578366, -0.0252001, 0.022386, -0.142261, 0.0642099, -0.175256, 0.135846, -0.0734159, -0.156357, -0.253528, 0.0991892, -0.0156236, 0.0649025, -0.0680137, 0.016891, 0.0304597, -0.115867, -0.0278013, 0.0144259, 0.00271819, 0.00802152, 0.0834378, 0.042938, -0.0109452, 0.102841, 0.0367011, -0.0646528, -0.0833431, 0.0346804, 0.0124893, 0.0602128, -0.0766543, -0.214052, 0.0181506, -0.0290152, -0.00599897, 0.0848077, 0.00283627, -0.0438908, 0.0916693, 0.0489367, 0.0212869, -0.0484092, 0.109616, -0.00209142, -0.011444, 0.0868646, -0.034858, -0.0992028, -0.0359306, -0.061739, -0.0367512, -0.0543197, -0.102809, -0.0495593, -0.0671064, 0.167179, 0.0135963, -0.0925586, -0.0355446, 0.112424, -0.092909, -0.0192365, -0.0209609, 0.0204925, 0.12232, -0.030895, -0.0548034, 0.182445, -0.0495761, -0.0864364, 0.035286, -0.0991732, 0.00838016, 0.173057, -0.0945432, 0.0718399, -0.017391, 0.160451, -0.0146694, 0.0574963, -0.0441003, 0.252332, -0.0326001, 0.0638555, -0.107308, -0.111092, -0.102796, -0.0631791, 0.0670039, -0.0559262, 0.0256608, -0.00748811, -0.132712, 0.0484944, -0.0296651, -0.0451444, -0.1469, -0.0725387, -0.209405, 0.0368236, 0.0451443, 0.0906014, -0.116879, -0.0717686, 0.0697525, 0.0398066, 0.0597708, 0.0796168, -0.0236561, 0.120265, 0.00606083, 0.00233369, 0.0468369, -0.0215544, -0.0656131, 0.0775275, 0.0905917, -0.0487563, -0.0514496, -0.0876227, -0.0268939, 0.0930777, -0.0994873, -0.0518142, -0.0407478, 0.186584, 0.0188595, -0.00712799, -0.00615969, -0.129843, -0.136601, -0.0807953, -0.106731, -0.0128416, -0.0472681, -0.128731, -0.087366, -0.130387, -0.109378, 0.0869418, 0.050629, 0.0545639, -0.0152724, 0.171288, 0.0283312, -0.144458, 0.0250039, -0.0249533, 0.114847, 0.0211347, 0.0703939, -0.137708, 0.0353147, 0.0504209, 0.0339303, 0.149851, -0.130143, 0.173195, 3.43832e-18
