-0.0175425, 0.197217, 0.315868, -0.205015, -0.253705, -0.236392, 0.000332415, -0.0529809, -0.00701641, -0.0228515, -0.381664, -0.159937, 0.0339079, 0.00192967, 0.122292, -0.0798029, -0.155744, 0.0519734, 0.0966378, 0.297904, 6.13908e-19
0.000867113, 0.0561984, 0.0570555, 0.0858145, -0.064562, -0.0915825, -0.188682, 0.0448591, -0.0744683, 0.363974, -0.365929, -0.0564289, 0.0855358, -0.144307, 0.182241, -0.21559, 0.116707, -0.108453, 0.177149, 0.0100951, 5.44843e-18
-0.148811, 0.0381504, -0.189242, 0.232533, 0.1473, 0.114128, -0.194208, 0.0711764, -0.280903, 0.525785, -0.19949, 0.014555, -0.183138, -0.121776, -0.0506497, 0.0262715, 0.135395, -0.00147311, 0.107984, 0.0343975, 2.74734e-17
-0.261671, -0.0107643, 0.0808036, 0.121497, 0.0269584, -0.18988, 0.0327717, 0.249261, -0.286792, -0.283666, 0.123909, -0.0745867, -0.313016, 0.0179709, 0.316979, 0.0623951, -0.0599175, -0.096521, 0.235711, 0.252625, 1.1331e-17
-0.0553937, 0.032594, -0.0576599, -0.35558, 0.0828292, -0.0541219, -0.423364, 0.226226, 0.0876754, -0.329616, -0.288388, -0.0291187, -0.0239265, -0.0330716, -0.0180521, 0.256692, -0.00790947, 0.0887138, 0.0978665, 0.0276295, 2.43356e-18
0.144746, -0.132728, -0.0634889, -0.156447, 0.0941319, -0.00536869, 0.159252, 0.20776, 0.138689, 0.127181, 0.252075, 0.095751, -0.0389701, -0.26323, -0.0555809, 0.152804, -0.271717, -0.110414, -0.0566873, 0.00343128, 3.90899e-17
-0.102761, -0.133986, -0.31825, -0.231391, -0.00496103, -0.0774867, 0.0284641, 0.0416754, 0.496546, -0.255655, 0.340328, -0.125815, 0.277741, 0.311079, 0.10758, 0.0124565, -0.0398623, -0.154481, -0.218222, 0.41502, -2.41836e-17
-0.131056, 0.062452, -0.0366705, 0.302547, -0.072493, -0.253474, -0.369102, 0.04, 0.296703, -0.0249968, 0.154665, 0.126456, -0.288471, -0.225263, -0.32172, -0.0296602, 0.187884, -0.131543, -0.128979, -0.422997, 9.55711e-18
-0.0982837, 0.0551068, -0.057687, -0.0104027, -0.0314483, -0.0635221, 0.0114257, -0.0171562, 0.245687, -0.164792, 0.217359, -0.0407033, -0.0290835, -0.0180005, 0.00136756, 0.13793, -0.152669, -0.0827275, 0.050856, -0.0780231, 1.58898e-17
-0.00589489, -0.0315122, 0.00119894, -0.131235, -0.24811, -0.242543, -0.148224, -0.00728415, 0.333855, 0.203284, -0.0649078, 0.151732, 0.319887, 0.190619, 0.158441, -0.0639899, 0.0278231, 0.102954, 0.111775, -0.118508, -2.34735e-18
0.0215999, 0.0202113, 0.184803, 0.111728, -0.0663763, 0.144823, -0.192784, -0.250392, -0.240119, -0.0592884, 0.207162, 0.177601, 0.292452, -0.0988394, -0.173278, 0.326064, -0.17396, -0.367479, -0.0206196, -0.304192, -1.06555e-17
0.397085, 0.247525, -0.189422, -0.0578255, -0.115223, -0.232607, 0.182327, -0.144518, -0.13175, -0.0800283, -0.413335, 0.223824, -0.165035, 0.00826372, -0.188358, -0.280818, 0.136758, -0.242239, 0.288243, -0.104081, -6.42384e-18
0.169093, 0.17157, -0.110036, -0.369217, 0.447375, -0.238723, -0.250766, 0.0100898, 0.231981, -0.487177, 0.287553, 0.413797, 0.104257, 0.251106, 0.185463, -0.09629, 0.147585, 0.215274, -0.0222928, -0.238093, 1.77566e-17
0.0293886, 0.145915, -0.0974549, -0.0909239, 0.383518, 0.188205, 0.232596, 0.281379, -0.0499235, -0.0877727, -0.152548, 0.0146855, 0.0148529, -0.136643, -0.0894808, 0.311939, 0.106399, -0.159683, 0.25485, 0.0991638, 3.54989e-17
0.0106995, 0.104541, -0.447982, 0.19251, 0.2114, -0.359928, -0.0118398, 0.292598, -0.0565428, 0.1279, -0.240168, 0.204561, -0.00762436, -0.37157, -0.10225, -0.223913, -0.140804, -0.0793714, 0.279206, -0.234333, 3.12973e-18
-0.010819, 0.0877007, 0.00577305, 0.07716, -0.116308, 0.0933914, -0.0661916, -0.0298433, 0.082769, 0.0701118, -0.136002, -0.0377719, 0.255741, -0.064781, 0.218545, 0.416341, 0.235284, -0.176711, 0.255575, 0.0261259, -4.76697e-18
-0.104289, -0.185333, 0.290387, -0.232504, 0.0782446, -0.105102, 0.0969964, -0.139313, 0.196111, 0.131636, -0.197926, 0.041773, 0.144737, -0.197846, 0.131666, -0.0893228, -0.177322, -0.030065, 0.0165256, -0.246026, 4.83383e-17
-0.209737, -0.030151, -0.199095, -0.217825, 0.194582, 0.0185602, -0.121097, 0.123154, 0.165372, -0.0647283, -0.0883219, 0.10424, -0.140065, 0.136081, -0.0213183, 0.275373, 0.0191022, -0.0534624, 0.083532, -0.0990351, 5.92986e-17
-0.43013, -0.215374, -0.0999706, -0.115856, -0.323458, -0.155937, 0.0122629, -0.00888228, 0.146556, 0.0555661, -0.0782205, -0.108516, -0.134024, -0.0245486, -0.3262, 0.242132, -0.24931, 0.0174454, -0.0920467, 0.0339218, -6.69458e-18
-0.116972, 0.0820942, 0.284744, -0.0385321, -0.0470316, -0.174628, 0.426855, -0.0610967, 0.0751624, -0.0692203, -0.192972, -0.101041, 0.076253, -0.0239996, 0.294446, -0.0738171, 0.0143456, -0.0711519, -0.00167306, 0.00586974, -2.28366e-17
-0.0444625, -0.0589318, 0.103603, -0.180681, -0.281925, -0.0166945, -0.190806, 0.158677, -0.00821979, 0.0468624, 0.0865564, 0.178464, 0.167349, 0.121348, 0.446115, -0.18653, 0.163491, 0.145968, 0.00948511, -0.127453, -1.30741e-17
0.0120133, 0.160411, 0.177287, -0.390886, 0.0637283, -0.189492, -0.167845, -0.0172851, -0.165383, 0.187182, 0.521694, -0.180618, -0.196785, 0.0245693, -0.141168, -0.0181497, -0.105758, -0.0824724, -0.0135629, 0.00167325, -4.42333e-18
-0.220243, 0.00481149, 0.106854, 0.0755878, 0.135209, 0.175424, 0.168792, -0.229464, -0.020493, 0.115737, 0.347872, 0.114072, -0.0347686, -0.339706, 0.0610724, -0.0954285, 0.0907842, -0.0897712, -0.173454, 0.141834, -1.61522e-17
0.0122157, -0.223524, -0.15521, -0.0636418, 0.0476993, 0.0671123, -0.0855324, 0.119793, 0.0846512, -0.136676, 0.274499, 0.0418471, -0.336831, -0.227382, 0.123659, 0.0660793, 0.0996656, -0.0353547, -0.130184, -0.156926, 1.27677e-17
0.132905, 0.0800965, -0.0188801, 0.0462284, -0.0838516, -0.000436868, 0.0892352, -0.0184939, 0.274623, -0.220602, -0.0394783, 0.114789, 0.0863994, 0.0514273, 0.0171405, -0.515058, -0.167038, 0.154617, 0.277002, 0.228927, -5.6582e-17
-0.119442, 0.169477, 0.0881728, -0.0194811, -0.133221, 0.0321439, 0.159895, -0.131607, 0.0769447, 0.42365, -0.156897, 0.120358, 0.0844535, 0.218732, 0.129259, -0.222457, 0.0620942, -0.0846084, 0.116964, -0.36694, 6.7983e-17
0.0416909, -0.4222, 0.332018, -0.204721, -0.139287, -0.0578138, 0.0167337, 0.389935, 0.0592136, 0.0632754, -0.0709356, 0.28353, -0.385439, 0.112112, 0.120407, 0.306769, -0.0877203, 0.26443, 0.222577, -0.289606, -1.92812e-17
0.0484805, -0.251668, -0.00728207, 0.032815, 0.00679777, 0.0804704, 0.202594, -0.135894, -0.113595, 0.220211, 0.196956, 0.300112, 0.17888, -0.433948, -0.283597, 0.161009, -0.0451043, -0.152802, -0.0855892, -0.0643732, 2.53846e-17
-0.363558, 0.0816853, 0.129804, -0.140931, -0.295841, 0.0214526, -0.41845, -0.0830764, 0.173435, 0.117524, -0.231338, 0.0374182, -0.221877, -0.00126052, -0.0683821, 0.286608, -0.296212, -0.0383467, 0.0324581, -0.00447216, 2.06243e-17
-0.325234, -0.0271268, -0.0121678, -0.518847, 0.0911456, 0.145516, -0.214478, 0.328067, -0.150666, -0.0591139, 0.035521, -0.183509, 0.0971064, -0.159373, -0.232395, 0.281708, 0.1747, 0.0546813, 0.0434378, 0.00356668, -1.19812e-17
0.0880261, -0.206179, 0.0278648, 0.0499931, -0.0572131, -0.0512806, -0.293813, 0.182482, 0.237016, -0.269972, -0.0304001, 0.0779405, -0.0335602, 0.0217657, 0.329407, -0.0545927, -0.12591, -0.476104, 0.511261, 0.0478728, 1.59207e-17
0.0416165, 0.138408, -0.249454, -0.27372, -0.132209, -0.135172, 0.214127, 0.0204774, 0.0172105, 0.0171375, 0.22958, 0.0781353, 0.113786, 0.000351121, 0.313329, -0.0784883, 0.0455405, 0.194865, 0.104477, -0.181213, 3.85574e-17
0.34915, 0.253276, 0.269056, 0.541265, 0.173382, 0.454591, -0.10111, -0.0107363, -0.054926, -0.0113161, 0.183051, -0.155079, 0.56734, -0.184105, 0.0730071, 0.169884, 0.243377, -0.160457, 0.231196, -0.0447933, 5.84012e-18
-0.0919811, -0.045057, 0.198766, -0.19801, -0.0264445, 0.157217, 0.135949, -0.114163, 0.170801, 0.158168, 0.440224, -0.053081, 0.10385, 0.348202, 0.106726, -0.169043, 0.106925, -0.177101, 0.0161811, 0.266139, -5.56171e-17
0.291783, 0.210348, 0.0845044, -0.0553662, 0.403504, -0.203095, 0.0615115, 0.223537, 0.0317778, 0.074423, 0.291685, -0.0311737, 0.233556, 0.119604, -0.154088, -0.108677, -0.0690979, 0.500453, 0.170831, -0.14956, 1.85709e-18
0.0194099, 0.107257, 0.24988, 0.338006, 0.11164, -0.248918, 0.25199, -0.283457, 0.165915, -0.337038, 0.112298, -0.121056, 0.0312272, 0.153016, 0.11625, 0.160105, -0.158193, 0.261056, 0.20393, 0.371725, 1.70436e-17
-0.240006, 0.133912, 0.110074, -0.299306, 0.045179, -0.104398, 0.00343795, -0.339079, -0.0314663, 0.0331003, 0.0414638, 0.19498, 0.291323, -0.00677899, -0.124153, -0.518205, -0.145736, 0.160136, 0.221447, 0.167999, -2.44267e-17
-0.138343, 0.267007, 0.0820343, -0.14481, -0.249735, 0.0872139, -0.0254512, -0.147856, 0.0825807, -0.410727, 0.0861298, -0.165046, 0.148438, 0.0426402, -0.0279157, -0.0924607, 0.107031, -0.187531, 0.109373, -0.264001, -4.10382e-17
0.100161, 0.020954, 0.547601, -0.00237669, -0.00951126, 0.0736663, 0.0465608, -0.078161, -0.00943846, -0.120996, 0.000872401, 0.0799758, -0.00807664, 0.292586, 0.0698195, 0.278914, -0.27228, -0.252256, -0.168118, 0.146053, -7.00382e-18
-0.379993, 0.00498908, 0.354815, -0.256688, 0.0339318, -0.0357744, -0.381376, -0.181316, -0.0683407, 0.0516971, -0.0311333, -0.0190272, 0.186695, -0.0333062, -0.121196, -0.0456643, 0.189258, 0.291375, 0.0540641, 0.123159, -2.73335e-19
0.0305961, -0.270015, 0.180467, 0.209402, -0.0208906, -0.239057, -0.052549, 0.00488729, -0.14448, 0.0440651, -0.0890787, 0.138536, 0.260159, -0.0855214, -0.0719375, -0.500662, 0.0636336, 0.0565921, -0.08488, -0.0343822, -1.20459e-17
0.237414, -0.201938, 0.0988595, -0.255424, -0.0860642, 0.0526797, -0.0485995, -0.283668, 0.0494607, 0.351756, -0.202451, -0.154016, -0.0675134, 0.0446021, -0.172343, 0.0786949, 0.412236, -0.043758, -0.212949, -0.321755, -6.16756e-17
-0.147672, 0.0403892, -0.00300076, 0.226781, -0.187716, 0.135122, 0.334514, -0.028849, 0.355653, -0.22947, -0.0185187, -0.297713, 0.2296, -0.0368441, 0.125938, 0.110782, -0.0564745, 0.106971, 0.125763, 0.0328477, -3.22975e-17
-0.0889797, 0.23411, 0.00108171, -0.00608939, 0.030712, -0.0223808, -0.173061, -0.0540088, -0.214628, 0.0116612, 0.305081, 0.111207, 0.278915, -0.418668, -0.058061, -0.170446, -0.0725798, -0.180607, -0.156912, 0.0978775, -2.34879e-17
-0.00180915, -0.08201, -0.309006, -0.179589, 0.282741, 0.0329373, 0.13508, -0.11339, 0.190982, -0.175268, -0.331869, -0.0156564, -0.0498521, 0.0336922, 0.175423, 0.255465, 0.102865, -0.190442, -0.0516447, -0.200436, 6.37777e-17
-0.34656, 0.0132037, -0.00144256, -0.0659839, -0.172773, 0.184255, 0.033524, 0.0343842, 0.0992837, -0.27996, -0.149468, 0.0372081, 0.454765, -0.117947, 0.137078, -0.248356, -0.18081, 0.176423, 0.0220491, 0.060563, -5.01381e-17
-0.101774, -0.00255735, -0.0933052, 0.187074, -0.0300351, -0.136473, -0.0354018, -0.288076, -0.195339, -0.0949449, -0.050507, -0.109839, 0.182418, 0.0466251, -0.0903301, -0.00460037, -0.0831217, -0.362556, 0.0727227, 0.162745, 4.61446e-17
0.129178, 0.0142864, 0.0861181, 0.201227, -0.145841, 0.0658255, 0.0237479, 0.0667283, -0.0237077, -0.009431, -0.0736999, -0.305355, -0.259417, 0.0620644, 0.160834, 0.0680983, -0.0678026, 0.0201894, 0.0589523, 0.0352334, 2.27635e-18
-0.0942066, 0.204173, 0.0340192, -0.341773, 0.216719, 0.0230071, -0.0925048, -0.0405616, -0.0439101, -0.199755, -0.0639543, -0.0286268, 0.228333, 0.11462, 0.0297047, -0.168716, -0.0790931, -0.100294, -0.0142044, 0.164967, -2.04732e-18
-0.127601, 0.138769, 0.104427, -0.0502912, 0.155043, 0.303284, -0.0544883, -0.100844, 0.210771, -0.124654, 0.0189023, -0.183838, -0.365052, -0.160504, -0.221925, -0.172334, 0.0608469, -0.0112275, 0.192689, 0.223106, 6.77259e-18
0.0782696, -0.24006, -0.273446, -0.184215, 0.0548456, -0.0286719, 0.107131, -0.324721, -0.234149, -0.0148715, 0.100235, -0.223654, 0.00487099, 0.083892, -0.0754501, -0.0101333, 0.427506, -0.140381, 0.229362, -0.406855, -1.05026e-17
-0.196098, -0.147201, 0.165291, -0.505026, -0.182333, 0.0575795, 0.139811, 0.223926, 0.00569907, 0.336154, -0.248521, 0.0709357, -0.0444573, 0.167925, 0.255582, -0.383646, -0.0994393, -0.0870797, 0.110814, -0.233315, -3.40077e-17
-0.0802328, 0.263829, 0.100126, 0.209617, 0.244809, 0.12026, -0.125224, -0.20098, -0.290542, -0.0414484, -0.158988, 0.124503, -0.396304, 0.263795, 0.0882762, 0.00250157, -0.0359828, -0.392192, 0.0882262, 0.342693, 9.99417e-18
-0.00138303, -0.282078, 0.0429427, 0.0341216, -0.109422, -0.562728, 0.182225, 0.221977, -0.1376, 0.132783, -0.0565124, 0.00186077, 0.13906, -0.190148, 0.267031, -0.127633, 0.515572, 0.209155, -0.341917, -0.0622444, 5.9485e-17
-0.0774258, 0.190761, 0.0881594, 0.0210026, 0.0573656, -0.00980328, 0.0991331, 0.301327, -0.019647, 0.387468, 0.0519883, -0.104117, -0.194421, 0.210352, 0.38532, -0.223687, 0.0881332, 0.27588, 0.293549, 0.167459, -1.39236e-17
-0.0972421, -0.405321, 0.0596082, -0.202717, 0.0278372, -0.226425, -0.0385244, -0.0297167, 0.143168, -0.00949107, 0.2988, -0.184935, -0.499874, 0.00181155, -0.0433372, -0.106171, 0.205377, 0.095388, -0.00271456, 0.1914, -1.74598e-17
0.203538, 0.18986, 0.139206, 0.0652342, 0.195404, -0.124228, -0.230717, -0.336846, 0.0783264, -0.0553301, 0.0515755, -0.0538474, 0.136196, 0.468992, -0.0563855, 0.105729, 0.162793, -0.091817, 0.157047, -0.17901, 9.03726e-18
0.230062, 0.303587, 0.0463937, -0.0301474, 0.158202, 0.140234, -0.115887, -0.0395506, 0.024878, -0.30247, 0.278131, 0.259014, 0.239617, 0.0857073, -0.239494, 0.0868472, 0.110206, -0.174801, -0.320893, -0.0895316, 3.04247e-17
0.374681, 0.109326, 0.311129, -0.0295178, 0.310672, 0.0752741, 0.277753, -0.166761, 0.27517, -0.0394117, 0.221479, 0.0304931, -0.016426, 0.015737, -0.285278, 0.25059, 0.0632286, -0.15889, -0.195879, -0.0759125, -3.80488e-19
-0.200093, -0.0460795, -0.158176, -0.175226, -0.0498522, -0.349186, 0.204685, -0.0174691, -0.241761, 0.246455, -0.0780759, -0.209547, 0.122243, -0.270669, 0.105428, -0.085855, -0.00730444, -0.0349667, 0.0650481, 0.0560075, 2.36527e-17
0.0112824, 0.101937, -0.0417095, -0.0796154, -0.0390615, -0.327693, -0.105559, -0.0153034, 0.209238, -0.212287, 0.135044, -0.150677, -0.0309028, -0.0778515, -0.0222137, -0.139979, -0.136774, 0.0275597, -0.0712534, -0.214949, -9.55881e-18
-0.161182, -0.0518241, 0.0458551, -0.0846376, 0.217173, 0.0523473, 0.0369645, 0.158738, -0.0632699, -0.313867, -0.0942771, -0.0612064, 0.170969, 0.303608, -0.562966, 0.227655, 0.09401, 0.0741326, 0.149755, 0.123618, 1.671e-17
0.0165224, 0.0857343, 0.019574, -0.0117279, 0.288556, 0.0613413, -0.12669, -0.126153, 0.113684, 0.101256, 0.0237527, 0.0980193, 0.0690319, -0.1824, 0.036368, -0.0172164, -0.190251, -0.0328083, -0.158487, 0.0998793, 1.57728e-17
-0.0473212, -0.338996, 0.27287, 0.0331214, 0.221348, -0.0204533, 0.0980257, 0.24201, -0.149361, 0.0853391, -0.0883385, 0.14723, -0.0578124, -0.126774, 0.288176, 0.129662, 0.0430409, 0.00215277, -0.0528639, -0.347886, -1.98165e-17
0.119167, -0.271745, 0.113494, 0.189237, 0.174967, -0.088444, -0.342884, 0.0491554, 0.0702472, 0.141214, -0.241648, 0.144645, -0.153394, -0.0671168, -0.0946007, 0.0749745, -0.0677103, -0.404098, 0.331532, 0.226169, 1.75313e-17
-0.0407425, 0.0940008, -0.1134, 0.350103, -0.0992555, 0.0964294, 0.0554883, -0.0230523, 0.0307069, 0.107944, 0.350714, 0.289843, -0.184471, 0.118206, -0.06202, -0.161998, 0.157709, -0.131078, -0.0910669, 0.22258, 4.81728e-17
0.0920291, -0.0847898, -0.132533, 0.208186, 0.214242, 0.0164016, -0.0740086, -0.283833, -0.100666, 0.145725, 0.0302775, 0.397091, 0.158942, -0.308681, -0.179072, 0.0631237, 0.30957, 0.146866, 0.0519795, -0.020644, -4.78843e-17
-0.10728, -0.0527755, -0.14802, -0.0798869, -0.112057, 0.0858757, 0.089855, 0.297698, 0.108346, -0.0694084, 0.0358716, -0.408774, -0.289972, -0.209217, -0.0356138, 0.100187, -0.0416508, 0.281118, 0.122101, 0.154489, 5.69434e-17
-0.461715, 0.0633746, -0.178815, -0.0753139, 0.188748, 0.051009, 0.0371427, -0.0725575, 0.125658, 0.217721, 0.176917, -0.185396, -0.189654, -0.259753, -0.0988624, -0.172204, 0.0839899, -0.0234563, 0.0426843, 0.190428, 2.60599e-17
-0.04825, -0.210909, -0.103406, -0.232104, -0.0105831, 0.0830528, 0.223942, -0.0398591, 0.217327, -0.33675, 0.0172398, -0.149752, -0.0554774, -0.383343, 0.106016, 0.024874, 0.443757, -0.385088, 0.202937, -0.07806, -4.36615e-17
-0.349654, -0.132727, 0.027, -0.0439687, 0.284854, 0.015329, -0.0623494, -0.332979, 0.165468, 0.0572058, -0.174997, 0.0139196, 0.0449038, 0.053053, -0.0337366, 0.158297, -0.24942, -0.122209, 0.135046, -0.123064, 6.83387e-17
0.156131, 0.180144, 0.00941448, 0.0227578, 0.147565, -0.255807, 0.231664, -0.0294222, -0.052115, 0.358116, 0.251504, 0.278339, -0.049542, 0.0443555, 0.0965255, -0.0252835, -0.0814718, -0.162101, -0.0815744, -0.0177356, -1.41288e-16
0.0951318, -0.0311189, -0.14975, -0.117374, 0.296001, -0.129103, -0.157788, 0.31942, 0.00349907, 0.112196, 0.0187197, 0.0517623, 0.156928, 0.0548581, 0.276245, 0.118553, 0.0585607, 0.171753, 0.0936864, -0.00465352, 2.63743e-17
-0.219423, 0.345485, 0.258096, 0.0618448, 0.462868, 0.0545912, 0.006252, 0.185742, -0.152345, -0.251177, 0.0310318, 0.215079, 0.132449, -0.0247548, 0.0235889, 0.0315263, -0.347348, -0.0915247, 0.183506, -0.0283096, -1.94055e-18
-0.0202494, 0.129557, 0.179644, -0.304146, 0.272459, 0.0719589, 0.127164, 0.160545, -0.344423, 0.115402, 0.218764, 0.0291571, -0.121361, 0.231425, 0.285675, 0.0861993, 0.0908218, -0.13318, -0.0302662, 0.227539, 2.05194e-18
0.074758, -0.397925, 0.0573388, -0.279884, -0.136393, 0.456853, -0.00158647, -0.373957, -0.234854, -0.151141, -0.539645, 0.204658, 0.0140242, -0.22571, -0.0918551, -0.302576, -0.464885, -0.0442558, -0.651642, -0.357069, 1.2016e-18
0.0514518, -0.166, -0.0765152, -0.203666, 0.177273, 0.15714, 0.278819, 0.0228184, -0.157625, 0.0918914, 0.325321, 0.0867201, -0.114476, 0.0131499, 0.111892, 0.105967, -0.106149, -0.0300174, 0.120158, -0.228047, -4.30651e-17
0.191065, -0.012572, 0.181177, 0.201185, 0.0653589, -0.0703064, -0.212647, 0.073146, 0.00262695, -0.200921, -0.0687985, 0.00757889, -0.223526, 0.0787163, 0.0214949, -0.139389, 0.180685, 0.0842087, -0.34706, 0.277416, -6.41354e-18
0.0767558, 0.103212, 0.192354, -0.220152, 0.00609808, 0.21764, -0.0402384, 0.164747, 0.142853, 0.0288456, 0.27631, 0.032904, 0.119932, 0.345536, 0.0990647, 0.117556, 0.388623, 0.121692, 0.263425, 0.00406134, 1.95402e-17
-0.115696, -0.0478896, 0.113578, -0.11665, -0.373608, -0.0340552, -0.203293, -0.0720634, 0.414652, -0.338727, 0.0341129, 0.368778, -0.13657, 0.455797, 0.00216501, -0.0721136, 0.176651, -0.267515, -0.0815076, 0.234196, -1.21586e-18
-0.0679338, 0.0529283, 0.180177, 0.336774, 0.0722942, 0.0773539, 0.0683051, -0.410229, 0.40109, 0.0414941, 0.00052979, -0.0432239, -0.0331244, 0.0261739, -0.0452686, 0.150097, 0.022748, -0.174327, 0.216987, -0.193165, 2.49258e-17
-0.23857, -0.261378, -0.0885626, -0.0995847, 0.0264119, -0.195127, -0.0142199, -0.130929, -0.226146, -0.24156, -0.00789322, -0.101041, 0.0119972, 0.198996, -0.194763, 0.167995, 0.178213, 0.115626, -0.0195234, 0.0505708, -1.16678e-16
-0.420806, 0.148843, 0.162407, 0.223326, 0.227918, 0.169791, 0.427186, 0.126478, -0.320235, -0.263575, 0.0499483, 0.00830579, -0.0986762, 0.0635723, -0.0554611, -0.118057, -0.0014892, -0.246711, -0.12952, -0.177537, 4.33729e-18
0.0516362, -0.15124, 0.354744, 0.186127, 0.200287, 0.145913, 0.143172, -0.275674, 0.0702667, -0.00877819, 0.00318944, -0.283294, -0.143872, -0.167715, -0.215315, 0.154823, 0.134749, -0.267132, -0.0851116, -0.0698234, 8.33304e-18
0.149262, -0.171152, -0.0698235, -0.0747085, 0.0429477, -0.0763333, -0.00671637, -0.125034, 0.26505, -0.187436, 0.0638282, 0.0896493, 0.178683, 0.1513, -0.0215286, 0.252236, 0.0335608, -0.0458945, 0.0219089, -0.219819, -4.1748e-17
-0.0154795, -0.0567463, -0.300137, -0.12943, -0.147633, 0.0632653, -0.110141, -0.0150065, -0.00891886, -0.119557, -0.25184, -0.314492, 0.130567, 0.00470416, -0.192508, 0.250949, 0.103888, -0.200977, -0.213902, 0.229497, -4.13095e-17
-0.209009, -0.00936908, 0.0708854, 0.0946127, -0.146376, -0.21706, -0.0530145, -0.0620341, -0.0252296, -0.0778334, 0.00284327, 0.184742, 0.105897, -0.177374, -0.06897, 0.123781, -0.307044, -0.0482003, -0.196817, 0.126893, 5.60452e-19
0.0232391, -0.324389, 0.304722, 0.208418, 0.0575684, -0.387195, 0.067743, 0.280063, -0.286701, -0.200086, 0.0322817, -0.0293871, -0.0579769, 0.216721, 0.234061, -0.304995, 0.176401, -0.0462671, 0.341591, -0.120669, -8.14808e-19
0.0260931, -0.125252, -0.222415, 0.0778532, 0.00028755, -0.186208, -0.0423715, 0.0743896, -0.258562, 0.257874, 0.0782151, -0.0521081, -0.174957, -0.233589, -0.162579, 0.0680841, 0.219976, 0.0221918, -0.161635, -0.0773951, 5.66971e-19
0.181041, 0.105313, -0.209397, 0.189536, -0.054256, 0.211186, 0.200576, -0.111616, 0.0292065, -0.167987, 0.0933988, -0.00246698, -0.0143143, 0.0874339, 0.106868, -0.178706, 0.108269, -0.0856049, 0.151313, 0.145088, 1.15207e-17
0.14434, 0.0342082, 0.0661915, -0.0183981, -0.268014, -0.0610401, 0.238622, 0.11087, -0.0956993, -0.260128, -0.267042, 0.00962207, -0.0792163, 0.0826038, 0.434287, 0.183435, 0.0232337, 0.141523, -0.0133656, 0.340809, -2.72338e-17
0.215068, -0.309455, -0.0806398, -0.433867, -0.248155, 0.309176, 0.365001, 0.0877497, -0.167784, 0.274902, -0.0821122, -0.0900428, -0.0497317, -0.0986378, 0.279605, 0.238377, 0.0517425, 0.0897743, 0.0409041, -0.0507039, 2.2541e-17
0.172002, 0.182087, -0.234733, 0.0772618, -0.123747, 0.0371208, -0.340569, 0.0294645, -0.140837, 0.112951, -0.0160156, -0.412855, 0.225781, -0.0776387, 0.0892473, -0.0111087, -0.179283, -0.211759, 0.000304503, 0.2628, -3.42633e-17
-0.285015, 0.111132, 0.138383, -0.303849, -0.0265424, 0.188121, -0.0450157, 0.0272805, 0.0672877, -0.0551805, -0.356111, -0.135545, 0.233212, 0.0550591, 0.144831, -0.0458103, 0.09107, -0.132251, -0.0685035, -0.0277393, 1.12477e-17
-0.104601, -0.0438592, 0.18274, 0.0595622, 0.141357, 0.115862, -0.0843456, 0.347212, 0.301549, -0.16019, -0.135387, 0.15416, 0.0548686, -0.00522824, 0.0737975, -0.0275853, 0.157203, -0.108729, 0.0392567, 0.12713, -6.08071e-17
-0.168565, -0.102243, -0.116122, 0.111471, 0.259844, 0.276718, -0.102859, -0.231642, -0.0900284, 0.152205, -0.0298369, 0.138819, -0.176026, 0.0683567, 0.124101, -0.404951, 0.0477275, 0.099087, -0.0861593, 0.291614, 2.28999e-18
0.332817, -0.135226, -0.0897585, -0.139132, -0.208468, 0.195683, 0.199457, 0.324299, -0.0284468, -0.0365527, 0.110156, 0.075379, -0.0342893, 0.197606, -0.0551159, -0.265127, -0.0994784, -0.066483, -0.205943, 0.0316941, 5.29068e-18
-0.0533216, 0.273996, 0.0634258, 0.00565937, -0.179011, -0.0412275, 0.0356458, 0.216842, 0.165064, -0.0305154, -0.0987602, -0.46607, 0.0153666, 0.120274, -0.232448, -0.1622, 0.139811, 0.043484, 0.0110081, 0.0221633, -1.25545e-16
0.140828, 0.134805, 0.0914464, -0.0219507, -0.176921, 0.10248, 0.24249, -0.0539614, 0.00734324, 0.277734, 0.136911, -0.241889, 0.0221827, 0.0247942, -0.10689, 0.238214, 0.373039, 0.0294084, 0.215037, -0.415347, -1.3933e-17
-0.379903, 0.0182222, 0.161233, -0.359438, -0.0844368, 0.120945, -0.0194038, 0.0113467, -0.142633, -0.0479887, 0.266407, 0.105616, -0.095464, -0.243333, 0.0288021, 0.0644555, 0.183543, 0.0805581, -0.169686, 0.237119, -2.53946e-17
-0.205018, 0.055884, -0.0507697, 0.280385, -0.332303, -0.0983887, -0.0241746, -0.0477077, 0.002185, -0.0685814, -0.120406, 0.204878, 0.429701, 0.252178, 0.221059, -0.0467201, 0.00803378, 0.19882, -0.166918, -0.0476802, 4.16913e-17
-0.144008, 0.411232, 0.120714, -0.125433, -0.398403, 0.0882292, 0.392299, -0.0701957, 0.495877, -0.098278, -0.161201, -0.0774761, -0.0114941, -0.0697515, 0.248251, -0.212698, 0.128776, -0.284662, 0.233236, -0.013424, -3.70245e-18
-0.218181, -0.180936, -0.0845768, 0.128479, 0.0168648, 0.0897052, 0.54219, 0.0327061, -0.122016, -0.00934485, -0.0681188, -0.099148, 0.179076, -0.146618, 0.330333, 0.0130069, -0.116231, 0.0843687, -0.292547, 0.283698, -1.55437e-17
-0.355299, 0.198198, 0.175921, 0.017244, -0.134056, 0.105873, 0.0615663, 0.0294459, -0.346313, 0.156085, 0.000305546, -0.265507, -0.218687, -0.0337636, -0.137144, 0.284343, 0.184419, 0.0269103, -0.0793769, 0.0562268, 1.59936e-17
-0.0935338, -0.101096, -0.0535681, -0.0738805, 0.0539738, 0.400474, -0.029672, -0.0764621, 0.058623, -0.130482, 0.0704578, 0.0518116, 0.0515665, -0.134385, 0.119198, -0.350676, -0.277006, -0.150924, -0.00152965, 0.0348749, -6.76608e-17
-0.0177428, -0.153984, 0.178471, -0.117434, -0.0551728, -0.200903, -0.240379, -0.337687, 0.0276989, -0.217567, 0.120043, 0.0508188, 0.0484264, -0.20065, -0.0296634, -0.132683, -0.275764, -0.0207648, -0.224733, -0.135044, 1.74206e-17
0.119287, 0.0603059, 0.0635302, 0.180254, 0.314522, -0.131258, 0.20134, 0.0578872, -3.45468e-05, -0.162982, -0.411923, -0.0676153, -0.321552, 0.0582909, -0.0581638, -0.111714, 0.282244, 0.00898209, -0.00174904, -0.296216, 2.60947e-17
0.153239, 0.0166537, -0.281961, -0.400947, 0.0561351, 0.21277, -0.0866311, -0.271957, -0.00427466, -0.253173, 0.0649781, -0.167779, -0.233327, 0.067806, -0.189204, 0.263695, -0.173153, 0.0580803, -0.193536, 0.109707, -1.48664e-17
-0.268754, -0.0880839, 0.126115, 0.00769905, 0.0899734, -0.18085, 0.52765, 0.341696, -0.21118, 0.0458864, 0.198238, -0.0297796, -0.328924, 0.0171509, -0.132924, 0.0477428, -0.076566, 0.351234, -0.288328, 0.0751267, 2.41414e-18
0.138527, 0.338719, 0.110021, -0.314572, 0.109707, 0.183568, -0.0447852, -0.148087, 0.288207, 0.066287, -0.107533, 0.195706, -0.141496, -0.118898, -0.0704152, 0.274995, -0.246444, 0.000584604, 0.212523, 0.00855845, 2.07141e-17
0.0358394, -0.280662, 0.263728, 0.166775, -0.0296152, -0.204445, -0.27881, 0.0664584, 0.0243702, -0.179924, -0.0750149, -0.157587, 0.140489, -0.293871, 0.0349975, -0.286744, -0.286373, -0.102255, 0.174059, -0.103211, -3.3557e-17
0.104399, -0.216627, -0.22363, 0.283909, 0.224193, 0.191932, -0.338087, -0.349605, 0.0515509, 0.349915, 0.0951921, -0.20275, -0.161004, 0.127025, -0.132942, -0.122993, 0.093576, -0.0393985, 0.332665, -0.191823, 2.05226e-17
0.396797, -0.0400436, -0.0177125, -0.121561, -0.0847242, 0.312387, 0.15442, -0.00950689, 0.0944337, -0.247776, 0.0645222, 0.0381036, -0.0729655, 0.124663, 0.0864444, 0.0705014, -0.0210291, -0.187505, -0.153257, 0.455053, 5.84012e-17
-0.0240627, -0.0757071, -0.00445099, 0.257496, -0.193256, 0.0888306, -0.292823, 0.136101, -0.0837271, 0.27366, -0.0870075, -0.209048, -0.0303857, 0.0540079, 0.188164, -0.307441, -0.0570173, -0.233635, -0.0125975, -0.097565, 2.04055e-17
0.114008, 0.0466362, 0.263789, 0.00462044, 0.00337386, -0.35973, -0.00940922, 0.241349, 0.130625, -0.17486, 0.0412726, -0.0539584, 0.200874, 0.110438, 0.235938, 0.260338, 0.0100414, -0.0614526, 0.14785, 0.13948, -2.87651e-17
-0.338831, -0.101718, -0.0068573, -0.0696778, 0.212279, 0.123034, 0.26089, 0.137213, -0.0627339, 0.102877, -0.133203, -0.186603, -0.100896, 0.219918, -0.0125944, -0.190478, -0.0431685, 0.00659969, -0.0117401, 0.444935, 7.16844e-17
-0.230433, 0.108552, -0.151386, 0.159188, 0.202497, -0.0808207, -0.288011, 0.359251, -0.241323, 0.223685, 0.262476, 0.0149403, -0.0404511, 0.0388647, -0.144042, -0.0820224, 0.0270092, -0.0140198, 0.187598, 0.029231, -4.24388e-17
0.154736, -0.182831, 0.518921, -0.00548711, 0.104447, -0.0382838, 0.05573, -0.316687, -0.081179, 0.0923527, 0.186282, -0.0680671, 0.10352, -0.0247768, 0.0949268, 0.0550762, 0.0488077, 0.0370368, -0.402541, 0.202405, -1.93978e-17
-0.122109, 0.206664, -0.207013, -0.452755, 0.0135651, -0.145217, 0.0797282, 0.148079, 0.221088, -0.117098, -0.114391, 0.367947, 0.255436, 0.0386706, -0.00659216, -0.00730523, 0.153992, -0.0974847, -0.202965, -0.106354, 4.51931e-18
0.0593079, -0.147689, 0.0832571, 0.183778, 0.0229844, -0.0183917, -0.0693276, -0.258772, 0.128167, 0.312892, -0.286436, 0.0300322, 0.0811932, -0.168746, -0.0435388, -0.336387, -0.205325, 0.0121118, -0.0522291, -0.0536889, -2.06883e-17
0.077862, -0.209457, -0.000818567, 0.32761, -0.467819, 0.0104335, 0.18619, -0.178889, 0.154117, -0.0860059, 0.145468, 0.196644, -0.222803, -0.247646, -0.459606, -0.367466, -0.00743336, -0.135879, 0.102957, -0.0791735, -3.93235e-17
0.0304196, 0.1566, -0.227692, -0.182337, -0.265501, 0.0500856, -0.374468, 0.297103, 0.186933, -0.23119, 0.24659, -0.242671, -0.135586, -0.0840249, 0.106929, 0.0701463, -0.00529385, 0.00813105, -0.2426, 0.084336, 1.14373e-17
-0.291467, -0.321317, 0.171374, -0.132306, -0.00418626, 0.280186, 0.085945, -0.332866, 0.366061, -0.250917, 0.282204, -0.14685, 0.503238, 0.160596, -0.0430102, -0.165119, -0.141057, -0.423165, -0.204577, 0.401196, -1.93191e-17
0.0249407, 0.226221, 0.121752, -0.0704766, 0.17842, -0.256064, -0.0532085, 0.221826, 0.0319065, 0.138348, 0.0763881, -0.187009, -0.0921847, -0.155546, -0.128501, 0.097283, 0.0255778, 0.171829, -0.259373, -0.277403, -5.81939e-18
0.169865, -0.118993, 0.20729, 0.0245661, 0.230433, -0.0446734, 0.2206, 0.230827, -0.0061589, -0.158945, -0.213972, 0.0610962, -0.206732, 0.122692, 0.0293729, 0.132782, 0.320561, 0.272021, -0.0985621, 0.0939137, -8.93461e-18
0.217976, -0.111587, -0.244485, 0.0434933, 0.00434466, -0.111767, 0.159092, -0.0989763, 0.0289925, -0.0352426, -0.0171706, 0.186729, -0.00967898, -0.221791, 0.342851, -0.0792265, 0.226141, 0.214683, 0.0154377, 0.237946, 5.0488e-18
-0.0611647, 0.0149806, 0.143263, -0.132682, 0.348571, 0.183194, 0.0140692, 0.107573, -0.0868166, 0.183981, -0.163851, -0.00852654, -0.042093, -0.102689, 0.0163786, -0.107441, -0.0049624, 0.210409, 0.106026, 0.0914756, 5.38047e-17
-0.0157746, -0.106271, -0.0667887, 0.147914, -0.317808, 0.127498, 0.0213083, 0.124324, 0.0753425, 0.0817588, 0.323424, 0.15771, -0.256791, -0.00164495, 0.102827, -0.146681, -0.216181, 0.298288, 0.0877758, 0.147955, 3.7305e-17
0.0921476, -0.0277702, 0.0127438, -0.0616507, -0.0195671, -0.1404, 0.169015, -0.0946292, -0.0294334, -0.00275785, 0.00887672, 0.0692933, 0.0918315, -0.086198, 0.0724293, -0.00725375, -0.00854176, -0.0934045, 0.134118, 0.034917, 0.0692628, 0.0988919, -0.115043, -0.0559072, 0.0358208, 0.133693, -0.026228, -0.00224567, -0.0398575, -0.063701, -0.0243676, -0.101633, -0.126255, -0.0669892, -0.0578338, -0.0658562, -0.136983, 0.140877, -0.128364, -0.0180674, 0.0875362, -0.043554, 0.0330542, 0.0132266, -0.11036, -0.0536428, 0.0217071, 0.0959261, -0.173211, -0.00912627, 0.0685688, 0.125712, 0.0804472, -0.0355315, -0.100369, -0.0907605, 0.182347, 0.0626898, 0.0240819, -0.00980081, -0.0269246, -0.0345127, -0.0481516, -0.128866, -0.0672779, 0.0718914, 0.0853247, -0.0557891, -0.00030522, 0.0324197, -0.0453027, -0.0292085, 0.0568887, -0.004834, -0.0429169, 0.0904802, 0.0527327, -0.0474424, -0.0663104, 0.00481466, -0.0485197, 0.0424758, -0.0253959, -0.0339694, 0.0246644, 0.0131847, -0.0439312, 0.0195606, 0.116864, -0.149496, -0.0929423, -0.0809697, -0.0278233, -0.0370486, -0.135169, -0.0610552, 0.0101034, 0.000194777, 0.0294725, -0.187139, -0.12846, 0.125301, -0.0871033, -0.113683, -0.0729252, -0.0682259, 0.109466, -0.120769, 0.121705, -0.00839037, -0.139419, 0.14775, 0.0895672, 0.0504633, -0.116905, 0.189618, -0.143421, 0.0213022, 0.0148137, 0.00763314, 0.00474325, 0.0478346, -0.0023257, -0.21209, -0.0665772, 0.00916248, 0.0830404, 0.0186878, -3.4519e-17
0.00414153, -0.103262, -0.0358064, -0.036204, -0.0899982, 0.120186, 0.0857409, 0.000801418, 0.0729751, 0.00208232, -0.0322968, 0.0644557, -0.0934638, 0.13577, 0.0777927, -0.0786424, -0.0188275, 0.00682736, -0.0301253, 0.0341216, 0.0329309, 0.0791654, -0.0565646, -0.151966, 0.137382, -0.0917226, 0.089213, 0.00656978, 0.0540439, -0.0392183, -0.0466427, -0.0816705, 0.0685035, -0.0721286, -0.0149396, -0.14389, -0.0579016, 0.0930049, -0.143671, 0.0752921, 0.0336288, -0.0112841, -0.100711, -0.103345, 0.108573, 0.0334184, 0.0552197, -0.07871, 0.0400881, -0.148765, 0.0482307, 0.00382525, 0.00314604, 0.0580343, -0.0992396, 0.138998, 0.0764866, -0.0466285, 0.114219, -0.0733892, -0.03267, 0.0919058, -0.0248511, 0.0694797, -0.0729511, -0.147388, -0.0239897, -0.173833, -0.0713899, -0.0501234, 0.0687945, -0.0962848, -0.0128338, -0.0753188, -0.055596, -0.132544, -0.091383, -0.0218502, 0.119909, -0.132309, -0.0337366, 0.0917365, -0.0323296, 0.0577247, -0.00779438, 0.112322, -0.16776, 0.0521768, 0.0905658, -0.00911114, -0.174247, -0.0563975, -0.113668, -0.0521518, 0.0539433, -0.0358829, 0.0223474, 0.0118365, 0.0270232, 0.024144, -0.0345332, 0.0794472, 0.010666, -0.0473325, 0.01467, 0.00651423, 0.0328022, -0.051737, 0.0595339, -0.0138615, -0.0652402, 0.166635, 0.0593403, -0.0873227, 0.119346, 0.0651221, -0.0757147, 0.0990275, -0.0632629, -0.0435333, 0.0508852, -0.111371, 0.0256834, 0.0537935, -0.0126333, 0.057565, 0.0231693, -0.0313079, -2.65098e-17
-0.091145, -0.0221532, 0.121558, 0.0432591, 0.053358, -0.0297926, -0.0503784, -0.0308536, -0.0586615, 0.0295214, 0.00270307, 0.0353499, 0.0710628, -0.102495, 0.00212783, -0.0520637, 0.0382289, -0.0297191, -0.0406738, -0.0268677, 0.089066, 0.0902871, 0.024964, 0.0528094, 0.138161, -0.0149248, 0.229065, -0.117068, -0.0494082, 0.0448857, -0.040234, 0.12152, -0.00915177, -0.00833437, -0.0439284, 0.112325, 0.0118365, 0.0422117, 0.0416704, -0.0676401, -0.0806319, -0.0321369, 0.0382698, -0.0403437, -0.0476791, -0.145823, -0.137596, -0.0949984, 0.0168911, 0.0450814, -0.0465216, 0.0236215, 0.0738865, -0.04886, -0.0368118, 0.0478053, -0.0766677, 0.0572739, -0.0119714, -0.0331656, 0.0227493, 0.0728416, -0.0248909, -0.0503423, 0.0204228, -0.0376786, -0.0370357, -0.00404938, -0.0372132, -0.110357, -0.063501, 0.0215707, -0.0970067, -0.108338, -0.176076, -0.0743299, -0.00331757, -0.00725572, -0.0169281, 0.0961044, 0.0733028, 0.0955792, 0.00191553, -0.0347841, 0.155268, 0.145782, -0.0892289, -0.0402216, -0.0212304, 0.12876, -0.145465, 0.221197, -0.0188039, -0.0735353, 0.0530016, -0.0399803, 0.0151797, 0.0118547, -0.0547858, 0.0302747, -0.0544608, -0.0873917, 0.0510191, -0.00456765, 0.0175062, -0.0496488, -0.0307261, -0.0951251, 0.0600649, -0.0350695, -0.064417, 0.0756387, 0.0290437, -0.00343996, -0.0678456, -0.128352, -0.0121193, 0.0814458, -0.0305278, 0.00905964, 0.00173401, -0.092627, -0.119172, 0.0481119, -0.0706427, -0.0255407, -0.0300533, 0.072882, -1.35129e-17
-0.0930885, 0.0723734, -0.0318517, 0.0284413, -0.00477738, -0.15206, 0.016605, -0.00443886, -0.0870798, -0.0105853, -0.081056, -0.0529748, -0.0288882, 0.0248082, -0.0656672, 0.0778209, 0.022173, -0.12899, -0.00546796, 0.071343, 0.140051, -0.145949, 0.0916096, -0.0206986, 0.0315073, -0.0194819, 0.179843, 0.0735699, -0.0779994, 0.0625015, 0.112485, 0.0197373, -0.0344058, -0.0485122, 0.0486666, 0.0749288, -0.0622337, 0.125374, 0.00162952, -0.0263356, -0.0308363, -0.133059, -0.0173287, 0.139551, 0.0113508, -0.0428854, -0.0130921, 0.129749, -0.0459105, 0.107732, -0.0249184, 0.038213, 0.114555, 0.136453, 0.00474485, -0.0650871, 0.0189125, 0.0208613, 0.0160539, 0.0618498, 0.0250655, -0.0493449, 0.0342077, 0.0238218, 0.00631395, 0.0171134, -0.115416, -0.0770322, 0.047923, 0.0251352, -0.057643, 0.0822596, -0.0704442, -0.0673755, 0.0409928, 0.13024, 0.0341674, 0.0295775, 0.0692325, 0.055766, -0.0314748, 0.0200309, -0.0603349, 0.0911017, 0.0870079, -0.0218282, 0.10898, -0.0597179, 0.0488462, -0.139599, 0.0422894, 0.0653367, 0.0691873, 0.0606523, -0.0487671, -0.072805, -0.0402467, 0.0969182, -0.10565, 0.0110289, -0.0252174, 0.229061, -0.118442, -0.0192678, -0.0397967, -0.0226181, -0.0539883, -0.0570444, 0.0221653, -0.0938827, -0.0959459, -0.00715265, 0.0301727, -0.0676417, -0.0690951, -0.0101515, 0.000119376, 0.0125168, -0.0267942, -0.0630331, -0.0538381, -0.00713767, 0.00104191, -0.0320494, -0.016462, 0.101883, -0.00162326, -0.130781, 5.89467e-17
0.063044, 0.00682226, 0.105788, 0.0590431, 0.094662, -0.0546532, -0.0582745, -0.083592, 0.0646292, 0.113653, 0.220587, -0.0176007, -0.0753271, 0.0415242, -0.0274998, -0.0363509, 0.0196835, 0.00886034, 0.0280321, 0.0191624, -0.0646911, 0.0313617, 0.0280567, 0.00176253, 0.0519284, -0.0438092, 0.0771318, -0.034211, 0.0111274, -0.156735, -0.0603695, 0.0340458, -0.0361087, 0.0168959, -0.0888743, 0.0479588, 0.105495, 0.023779, 0.072777, -0.0679862, -0.0730201, 0.0538551, 0.0304029, 0.0908218, 0.112209, -0.00950466, -0.0403248, 0.0138211, -0.0486751, -0.00354353, 0.0603698, -0.0185049, 0.0815973, -0.00643444, -0.0885185, 0.0184849, -0.112776, -0.00763999, -0.0308709, 0.056997, 0.0466785, -0.0225766, 0.0481109, 0.0747914, 0.109763, -0.00206092, 0.0168755, 0.05613, -0.00981145, -0.00331126, 0.151614, -0.083676, -0.0573628, 0.0943407, -0.0726212, -0.0701758, -0.0570248, -0.0262192, -0.0933325, 0.0132327, -0.0358566, -0.159544, -0.0680826, -0.0108861, -0.0959916, 0.0399135, 0.0422153, -0.0176197, -0.0785966, -0.0794384, -0.111567, -0.0550797, -0.148228, 0.0879255, 0.110659, -0.0050357, -0.0785995, 0.0369938, -0.0288597, 0.0526032, 0.1461, 0.00288018, 0.0422612, 0.159493, -0.00571989, -0.0361867, -0.0989135, 0.0770752, 0.0804625, 0.0905205, -0.0132099, 0.059146, 0.0816948, -0.0485374, -0.0297787, -0.0141297, 0.106582, -0.0110918, 0.00780707, 0.0564885, -0.029858, 0.00266469, 0.00977874, -0.0903757, 0.0479274, -0.0583264, 0.0693996, 0.0598458, -1.14869e-16
-0.0798414, -0.0655057, 0.1768, 0.0483556, 0.0523383, 0.0452069, -0.0937444, -0.147438, 0.00619062, -0.0417446, -0.0488083, 0.0143671, 0.0798781, 0.216898, -0.0391434, -0.0122782, 0.0238704, -0.00344798, -0.187727, 0.0787352, -0.0674993, 0.00599746, 0.0331654, -0.0460978, 0.0458304, 0.0401912, -0.108948, -0.0836583, 0.066834, -0.00884151, 0.00378417, 0.064191, -0.0292356, 0.00663499, -0.0116543, -0.0747042, -0.0119643, -0.0855765, 0.078984, 0.00208322, 0.0067014, 0.0115153, -0.126103, 0.0280492, -0.124193, 0.0102697, -0.188291, 0.0231086, 0.0200941, 0.111744, -0.0158818, -0.141969, -0.129054, -0.0726656, 0.00994513, -0.167609, 0.0312867, -0.0548702, -0.260756, 0.102808, 0.0146541, -0.0510321, 0.013621, -0.185353, 0.0426459, 0.0664781, 0.0285175, -0.078549, 0.0043969, -0.0790789, 0.0538845, -0.128421, -0.115343, 0.0322253, -0.00752666, -0.0218948, -0.0183646, -0.123773, -0.0461636, 0.00100615, -0.0246235, -0.181145, -0.0439366, -0.0384899, 0.0273336, -0.000574343, -0.00418361, 0.111431, 0.0663819, -0.142068, -0.112939, 0.0216575, -0.0169657, -0.0937533, 0.0881114, -0.0514194, -0.0105196, 0.0528873, 0.0338747, 0.0757455, -0.0018934, -0.0275441, 0.125412, -0.099621, -0.0238007, -0.11106, -0.178613, 0.0229743, 0.051029, 0.0335145, -0.0415323, -0.132278, -0.0372, -0.0282119, -0.116009, -0.0666747, 0.0770675, -0.0314998, -0.054811, 0.0137943, 0.0498605, 0.00561978, 0.0597991, 0.0490999, -0.0426586, 0.113571, 0.142009, 0.020014, 1.79807e-17
0.0190454, 0.0455473, 0.135744, -0.098242, -0.0129494, -0.0280501, -0.084715, 0.166569, -0.056332, -0.0933388, 0.0241859, 0.12245, 0.093964, -0.0496556, 0.0520939, -0.0715853, 0.110961, 0.0141848, 0.017675, 0.0678373, 0.0239255, 0.0266483, -0.0227957, -0.0740378, -0.084124, 0.0410577, -0.149678, -0.124123, 0.0919117, -0.0327614, -0.0366274, 0.0583206, 0.0136269, -0.025591, -0.0670548, 0.038513, 0.0729956, 0.0988429, 0.0140777, 0.103039, -0.022359, 0.0219091, 0.0671763, -0.165709, -0.000458914, 0.14184, 0.0347851, -0.0464237, 0.022003, -0.00404874, 0.0306795, -0.0573306, 0.0753237, -0.0621004, -0.129633, -0.0403211, 0.139925, -0.0179873, -0.0260984, -0.189424, 0.0659707, -0.0328596, -0.0529608, -0.0498763, -0.0853081, -0.0769265, 0.0504433, 0.0471378, -0.157843, 0.0106271, 0.100493, 0.0272314, 0.0794002, 0.131159, 0.0314762, -0.122453, -0.0540373, -0.0274263, 0.0705414, 0.0823461, -0.0326681, 0.111294, -0.0296956, 0.00906121, 0.0862326, -0.10431, -0.0270793, -0.0681358, -0.0254639, -0.0921014, -0.00915701, -0.255623, 0.0716493, 0.0401574, 0.0250654, -0.0103843, -0.0627429, 0.0379394, -0.0378127, 0.0240446, -0.121676, 0.0502959, -0.0836869, -0.0512954, 0.0121643, 0.029099, 0.0362187, 0.0616342, -0.0648592, 0.0837442, 0.0131031, 0.00588611, -0.0785228, -0.052201, -0.0819067, 0.138808, 0.091248, 0.00732571, -0.0394138, -0.0947505, -0.131376, 0.100132, 0.120533, -0.0173076, -0.0440234, -0.016331, -0.0681063, 0.0314753, 2.47913e-16
-0.0390934, -0.111812, -0.247254, 0.0318254, 0.162152, -0.0465517, -0.0922129, -0.0425061, -0.118285, -0.0490946, 0.143142, 0.0961101, -0.037446, -0.0843479, 0.00309377, -0.0767828, 0.0396129, 0.104715, 0.0126049, -0.00217634, -0.13791, -0.0209537, 0.0724624, -0.00454334, -0.0352542, -0.00410609, -0.150903, -0.0533509, -0.0272289, 0.0515223, -0.0479351, -0.000472448, -0.0864876, -0.111182, -0.124707, 0.112568, -0.0444755, -0.111283, -0.155498, -0.0472135, 0.0430237, 0.0837027, -0.00296666, 0.00900738, -0.0464503, 0.172153, 0.147859, -0.0127168, 0.0860585, -0.114757, 0.162815, -0.0540325, 0.0591347, 0.046442, 0.020536, 0.0975209, -0.0734857, -0.00906217, -0.0484792, 0.0312518, 0.0185501, -0.0896806, -0.0650408, 0.0878638, 0.226276, -0.00371275, 0.100987, -0.0316305, -0.159096, -0.0529559, -0.0343832, -0.0402894, -0.0250301, -0.0520442, -0.107652, -0.0340781, 0.0820078, -0.0197506, -0.0560167, 0.0394289, 0.012404, -0.0277616, -0.00411221, 0.0185606, -0.0324021, -0.00965642, -0.0981953, -0.138775, 0.0572437, 0.0521158, -0.0284704, -0.0602711, -0.158253, 0.12778, -0.139183, -0.0664678, 0.0473074, -0.0778018, -0.131012, 0.0996296, -0.00544503, 0.0131136, 0.0725086, -0.0724505, 0.0660305, -0.049094, -0.028379, -0.10104, -0.0464751, -0.0586481, 0.00653217, 0.0294388, 0.0563695, -0.0563043, -0.086231, -0.0341906, 0.0168536, 0.128628, 0.0265523, 0.036256, 0.0145367, -0.0806368, 0.139997, 0.0210782, 0.0470385, -0.119823, -0.0325441, 0.030285, 1.85354e-17
0.0360483, -0.0519609, 0.0601808, 0.0605607, 0.127557, 0.189372, 0.0665286, 0.0411431, 0.151407, -0.0204835, 0.158131, -0.0947224, 0.0611136, -0.0542343, 0.000493636, 0.257269, -0.0350755, 0.207196, -0.0623371, -0.0481289, 0.0179409, -0.198378, 0.0694708, -0.0443353, -0.0341666, 0.080043, 0.0757747, 0.0971287, 0.109134, 0.0887808, 0.0602675, 0.021487, -0.0187183, -0.00408541, -0.0392966, 0.0529359, 0.114747, -0.0228267, 0.0608878, 0.122839, -0.0285401, 0.0191119, 0.100764, 0.017744, 0.098158, -0.0457597, -0.0534991, 0.181097, -0.0198178, 0.104952, -0.0993682, 0.018618, -0.0344695, -0.0652674, -0.121516, 0.0188828, 0.0464823, 0.0661825, 0.095293, -0.0826045, -0.00363304, 0.104073, 0.0343377, 0.169487, 0.0395653, 0.04057, 0.0644653, 0.106126, 0.0385842, -0.0256739, 0.148987, 0.0845013, 0.127336, -0.0230622, 0.132278, 0.0537872, 0.107792, -0.0790345, 0.149364, -0.00872456, 0.112475, 0.143349, -0.0194085, 0.0519835, 0.159915, 0.0732139, 0.0779314, -0.0629673, 0.0463983, 0.0151419, 0.00433272, 0.113308, -0.0554746, -0.129796, -0.032197, 0.0302107, -0.000692798, 0.102826, 0.115621, 0.0636026, -0.033574, 0.00965172, -0.0943319, 0.117526, -0.138685, 0.0312885, 0.0307722, 0.092678, 0.00424937, 0.0740859, -0.00505858, -0.0237422, 0.0214937, -0.0355088, 0.0108983, 0.0855676, -0.124481, 0.0466844, -0.0494028, 0.00687945, -0.0708375, 0.0637314, -0.148381, 0.131413, 0.0617477, -0.0103224, 0.0615181, -0.136828, -9.74777e-17
0.0802016, -0.0614739, 0.0973472, -0.0386054, 0.0520905, -0.00543774, 0.011296, 0.0122487, 0.0462871, 0.0693069, -0.0342311, 0.0097647, -0.0736424, 0.0882149, -0.0551271, -0.119438, -0.0262194, -0.112903, -0.153871, -0.00151221, -0.000845251, -0.110763, -0.0596135, -0.0844431, -0.111306, 0.16001, -0.0868902, -0.0628898, 0.063642, 0.0990853, 0.0932726, -0.0358323, 0.00794732, 0.00753265, -0.171853, -0.055591, -0.0662817, -0.00327801, 0.128769, 0.0764239, -0.0253084, -0.0136513, -0.0333482, 0.0579338, -0.155704, 0.0574959, -0.0451094, -0.0701315, 0.000596611, 0.147835, 0.0918898, 0.0993326, 0.0619402, -0.0288982, -0.0856747, -0.054727, 0.0774679, -0.0492269, 0.0108097, 0.11843, 0.0805819, -0.0323333, -0.0317058, -0.0893819, 0.0248303, -0.00304786, 0.000814899, -0.074207, 0.129157, 0.0477066, -0.0487104, 0.0340636, -0.0254628, -0.0269271, 0.125152, -0.0370445, 0.0571517, -0.0171107, -0.0319408, -0.122555, -0.112071, -0.138359, -0.106304, 0.181532, 0.017223, 0.0507325, 0.0706154, 0.0267987, 0.0238398, -0.00908433, 0.142723, -0.0382582, 0.02101, -0.0320044, 0.0703861, -0.0033304, -0.0179823, -0.0482281, -0.104041, 0.0357806, 0.0983613, 0.124421, 0.0420274, 0.0301586, -0.0170605, 0.00745474, 0.0794015, 0.00232862, -0.212882, 0.0253403, -0.041996, -0.0953439, -0.0944277, 0.0317383, 0.00694513, -0.0141574, 0.193366, -0.0593444, 0.158708, 0.145368, 0.160438, 0.0293885, 0.0400175, 0.0240767, 0.104412, -0.0367829, -0.00731117, -0.0147759, 2.2477e-17
0.0695474, -0.0465582, 0.0578827, -0.0858003, -0.0476015, -0.0821235, -0.0607849, 0.0819235, -0.0922656, 0.000934677, 0.0865157, -0.00946488, -0.103361, 0.0980337, 0.0229652, 0.113202, -0.00301427, -0.107729, -0.00408047, -0.0569987, 0.228795, 0.179948, 0.014418, 0.0881009, -0.0477136, 0.069424, -0.0274557, -0.102822, 0.0556367, 0.0514312, 0.0740557, 0.102109, 0.0552162, 0.039963, 0.0997958, -0.0134665, -0.0535775, -0.133802, -0.0140397, -0.0371487, -0.00994296, -0.0298365, 0.0139377, -0.0627215, -0.0558784, 0.0807303, -0.00559099, 0.0412082, 0.00029848, 0.057688, -0.0396373, 0.0553636, 0.0593347, -0.0261789, -0.0350073, -0.0364369, 0.0552856, 0.0689763, 0.0879797, 0.0131554, -0.0900118, -0.0602205, 0.053338, -0.0417645, -0.0118428, 0.051131, -0.0608777, -0.0236562, 0.0080092, 0.021378, 0.0215499, 0.204565, -0.0907725, 0.00462176, 0.105753, 0.0381396, 0.0528797, 0.000553443, -0.0975086, 0.0239054, -0.019495, 0.0473362, 0.0525765, 0.0013472, -0.0113008, 0.0891672, 0.0810346, 0.103645, -0.116484, 0.0252527, -0.00934628, -0.0519296, -0.0177746, -0.0378141, -0.0227349, -0.0601714, -0.0510397, -0.0247815, -0.0554557, -0.104244, 0.116374, -0.00525105, -0.0600133, 0.110076, 0.0418393, 0.0415576, -0.0591412, 0.0624804, -0.0451526, 0.0922734, 0.010663, -0.117963, -0.0229065, 0.0557485, -0.0427876, 0.0258479, -0.107567, -0.0754365, 0.0227809, 0.0623647, 0.00260329, -0.0605203, -0.160016, 0.115422, 0.00614726, -0.102249, -0.038306, -0.0764565, -4.43961e-17
-0.0539326, 0.0562776, -0.168731, -0.0679802, -0.11823, -0.0187528, -0.013315, -0.0172969, 0.00722587, -0.0549097, -0.00887403, -0.025345, -0.016462, -0.0703775, -0.0378061, -0.0152252, 0.0753265, -0.0377549, -0.152214, -0.0947356, -0.0364653, 0.0896712, -0.0932145, 0.041398, -0.0833998, -0.0168118, 0.109321, -0.0339994, -0.0483291, -0.0279594, -0.152092, 0.019568, -0.142543, -0.0234754, 0.175006, -0.0260145, 0.0102668, -0.0234017, 0.0219719, -0.00934774, -0.0727785, 0.0637102, -0.145944, -0.0730159, 0.125505, 0.167634, -0.0347426, -0.0620987, -0.0395159, 0.0542695, -0.0310491, 0.0735503, -0.00982667, -0.0566296, -0.129882, -0.00138445, 0.0676569, 0.16915, 0.056106, -0.0450118, 0.192019, 0.0086233, 0.0412109, -0.0908603, 0.0219613, -0.0465482, 0.0523878, 0.185499, 0.00759459, -0.065452, -0.0715134, 0.0277257, 0.133634, 0.0162698, -0.010055, 0.0198406, 0.16903, -0.124008, 0.079317, -0.0556609, 0.135792, 0.0595379, 0.00963137, 0.0795645, -0.0261004, -0.125204, -0.125263, -0.0357876, -0.0529256, 0.122635, -0.0394588, -0.0541078, 0.117835, -0.0368565, 0.0450694, 0.0137375, -0.0780599, 0.0116519, -0.0740147, 0.0343842, -0.0738505, -0.0201999, -0.0454678, -0.0778282, -0.0621559, -0.00864035, 0.0472479, 0.0914229, 0.0301752, 0.0950253, -0.0056665, 0.0342677, 0.0018413, 0.10346, -0.0311078, -0.0240915, 0.0539303, 0.0465279, -0.070582, -0.0656631, 0.00384509, 0.109706, 0.0249085, 0.104129, -0.0626786, -0.0177606, -0.0458941, -0.010388, 9.77159e-17
-0.0786738, -0.0383405, -0.00526935, -0.0142049, -0.0251474, 0.0181678, 0.0897685, 0.0606485, -0.0188542, 0.00495333, -0.122292, 0.052989, 0.0379563, -0.021603, -0.0837725, 0.0731867, 0.0324418, 0.0268577, -0.0713965, 0.0420526, 0.0719944, 0.0135276, -0.0763982, -0.132939, 0.0246123, 0.0155444, -0.0804001, -0.109621, -0.0844717, -0.105312, -0.115323, -0.0418227, -0.0115514, 0.0644086, -0.0654196, 0.0032267, -0.127112, 0.0422772, 0.120825, -0.0597414, -0.0763554, 0.104201, -0.0627, 0.00994527, 0.0032102, -0.0319822, 0.0398004, -0.0161284, -0.0777825, 0.0952915, -0.00307117, -0.154914, 0.0451922, 0.12808, -0.104386, 0.0962637, 0.0855961, 0.0658759, -0.0793274, -0.0728983, -0.105165, 0.00686973, -0.0831066, 0.0777447, -0.0168792, -0.0172128, 0.10478, -0.116638, -0.0482077, -0.124148, 0.0531755, 0.0119645, 0.0324176, -0.13661, 0.0158922, -0.117656, -0.00468496, 0.0564522, 0.0705701, -0.0750689, -0.0487905, 0.0296469, -0.0310799, 0.176204, 0.0325184, 0.0185415, -0.0487909, -0.13993, -0.0353148, -0.0937052, -0.00943074, -0.123312, 0.0131926, -0.0982043, -0.127417, -0.0138886, -0.0619363, -0.00678879, 0.00208874, 0.0222575, 0.0346022, -0.0301039, 0.0475319, 0.0159293, -0.0347205, 0.0913945, -0.0562664, 0.0138765, 0.0527564, -0.159321, 0.0832777, 0.064957, -0.0937851, -0.0477763, -0.0545475, -0.132172, 0.0142546, 0.0530387, -0.141941, -0.0239492, 0.0808286, -0.139084, -0.0818237, 0.11364, -0.0282528, -0.135445, 0.139851, -0.0584941, -1.47023e-16
0.114661, -0.118444, 0.00762788, -0.137183, -0.00447947, 0.100014, -0.00126976, -0.0232677, 0.102911, -0.0930862, 0.072303, -0.124676, -0.0110729, 0.0872772, 0.0543933, 0.077059, 0.00170675, -0.0249849, -0.0330597, 0.00311659, -0.078771, -0.100049, 0.0681926, -0.0324611, -0.0363441, -0.114111, -0.0802492, 0.0961103, -0.0194408, 0.116763, -0.0935952, 0.112871, 0.075696, 0.0721999, -0.016655, -0.0218701, 0.0716617, 0.0178622, -0.183034, -0.0594807, 0.0142034, -0.00691774, 0.130462, -0.0377542, 0.0039114, 0.0839463, 0.0545216, 0.0766135, -0.0234085, 0.0141755, 0.0373242, 0.0120222, 0.0220429, 0.0757651, 0.06559, -0.0307126, 0.0461769, -0.0300316, -0.111544, 0.0069843, -0.0694138, 0.024456, 0.119178, -0.0323163, 0.0265363, 0.0735585, 0.0620916, 0.0736744, -0.129327, -0.0913884, 0.0982913, -0.018068, -0.104775, -0.0486674, -0.0723726, 0.0960785, -0.00607054, -0.0209633, -0.014989, 0.150205, 0.0839469, -0.028052, -0.0383397, -0.0580091, 0.131574, 0.0914845, 0.0486911, -0.0817369, -0.0668194, 0.0929625, 0.0192701, -0.0273517, -0.00128585, -0.156181, 0.0279876, 0.0151496, 0.0529503, 0.00974496, -0.0945241, 0.0809877, -0.0673522, -0.0284922, 0.0820855, -0.10574, -0.0739721, 0.127841, 0.126187, 0.00267702, 0.0405416, -0.0153074, 0.0373413, 0.0505803, 0.0187765, 0.0675059, -0.0441551, -0.0179647, 0.0630737, 0.0775284, -0.00575189, -0.132987, 0.0440422, -0.0538818, -0.0651162, -0.0725784, 0.0184776, -0.0113292, 0.0216603, 0.00937049, -1.01167e-16
0.0901678, 0.0165973, 0.0692735, -0.0457563, -0.0536055, 0.0449733, -0.121453, -0.113371, -0.0273771, 0.146696, 0.0338745, 0.0723456, 0.0726563, -0.0429832, 0.0779147, 0.0616495, 0.134014, 0.0634641, 0.08648, 0.0211741, -0.0988903, -0.0561094, 0.17542, 0.012586, 0.0388677, 0.00263496, 0.115164, -0.0806166, -0.0899135, -0.022375, 0.00405029, -0.117812, 0.158376, 0.0343433, -0.0122122, 0.0367553, 0.145101, -0.0262714, 0.157618, 0.0649721, 0.0029768, -0.0605624, 0.0247623, -0.0143366, -0.0143135, 0.0212172, -0.110203, -0.0882233, -0.0338835, 0.106558, 0.0364474, 0.0660148, 0.103968, -0.0937857, -0.0478277, 0.0991822, -0.160309, -0.0428231, 0.0349388, -0.0604264, 0.0935927, 0.0688872, 0.0307238, -0.150484, 0.151666, -0.0251615, 0.0684348, -0.0151227, -0.0262737, -0.0573007, 0.1541, -0.00855935, -0.0683747, -0.035789, 0.0151517, 0.000182385, 0.109519, 0.0133579, 0.0311784, -0.00403693, 0.0574468, -0.104043, 0.0215366, 0.0724658, -0.0139054, 0.151521, 0.0425784, 0.030893, 0.0229206, 0.028812, 0.0246535, -0.00122475, -0.0560736, 0.077096, -0.0921254, 0.0294056, 0.0069719, -0.143098, 0.0940113, 0.0401617, -0.122075, -0.0396565, 0.0325141, -0.0504563, -0.0417252, 0.0430963, -0.0451243, 0.0240816, 0.060816, 0.100101, 0.164269, -0.0111779, -0.0706949, 0.0342997, 0.0125826, 0.0454339, -0.0532673, 0.069224, -0.172296, 0.0599406, 0.106733, 0.131276, 0.00346082, -0.0759229, 0.0580478, -0.058853, -0.0534258, -0.0630571, 6.89597e-17
-0.0419006, -0.108311, -0.00418866, 0.0254556, 0.0836794, 0.161718, 0.033925, -0.0794861, -0.0663379, -0.0219365, 0.0391644, 0.00578994, -0.186801, 0.0172153, -0.0268454, 0.115522, -0.0922919, 0.0296505, 0.0496486, -0.0510515, -0.127296, 0.187323, 0.216422, -0.0721874, 0.0527834, -0.0639928, 0.00809709, 0.145736, 0.100084, -0.0189424, -0.0276605, 0.121079, 0.0776765, -0.188025, 0.106157, -0.0211273, -0.144567, -0.00226396, -0.00088556, -0.0491678, -0.106698, -0.0778144, -0.0617611, 0.0919498, -1.17245e-05, 0.04592, 0.0206302, 0.0374805, 0.0723336, -0.150661, 0.135286, 0.20934, -0.0685303, -0.095392, 0.0914116, 0.0478739, -0.00417238, -0.0746624, -0.00195632, 0.116678, -0.0389304, -0.0277215, -0.0532513, 0.0592294, 0.0581981, -0.0219004, -0.0737604, 0.0459468, 0.0852494, -0.118061, -0.00935342, 0.0638712, 0.0407182, -0.0837143, -0.0593546, -0.0041629, 0.185513, 0.175158, -0.0496528, 0.0589862, 0.00839438, -0.0391282, -0.058994, 0.0180441, 0.0912403, -0.0750043, -0.121111, -0.0287589, 0.0216241, 0.0972769, 0.0133147, 0.00305257, -0.0662802, 0.0568242, -0.137459, 0.0846531, 0.016724, 0.0139576, -0.110225, -0.0597729, 0.0698349, 0.0543002, -0.00742921, 0.00672913, -0.0830993, 0.0768262, 0.0254062, 0.0379053, 0.145403, 0.0411929, -0.0501111, 0.0338622, 0.00289744, 0.0828837, 0.00363644, -0.00970729, 0.0067318, 0.0204857, 0.0800121, 0.0253807, -0.0118763, -0.090408, -0.161727, 0.0674885, 0.130274, 0.0406832, -0.0489111, -0.020733, -2.57302e-16
-0.0562117, 0.139468, -0.0643685, -0.0780741, -0.00458241, -0.0221604, -0.0304628, 0.0821623, 0.108086, 0.000771704, -0.060464, -0.162606, 0.0664782, 0.0413346, 0.127978, -0.0736937, 0.0035896, -0.0267466, -0.00678873, 0.0399747, 0.093692, -0.0377715, 0.00141964, -0.0519974, 0.0909937, -0.11715, -0.029306, 0.00734746, -0.0869919, 0.0143161, 0.0616494, -0.0512174, -0.0944818, -0.0648612, -0.0127999, 0.0450439, 0.0637758, 0.0427501, 0.00349518, 0.116217, 0.0915379, -0.0993336, -0.0457262, -0.0317803, 0.0109205, 0.108448, 0.00528745, -0.171018, -0.00186317, 0.0655369, 0.0648959, 0.030561, -0.0392016, -0.0679021, -0.00117793, -0.0173706, -0.0223488, -0.0443597, -0.0193579, 0.00363778, 0.0289927, -0.0173364, -0.0555134, -0.0529787, 0.0666405, 0.0159216, -0.0930077, 0.00895039, -0.00498989, -0.0294359, 0.00905034, -0.0126635, -0.0699357, 0.0840073, 0.0532306, -0.0300069, -0.157723, -0.1419, 0.0405937, -0.191323, 0.0449672, -0.145758, -0.0355478, 0.062249, -0.00413709, 0.0935271, -0.099582, 0.0875463, -0.0795741, -0.0579708, -0.0835898, 0.00683251, 0.00496067, -0.0943391, 0.158343, 0.0335889, -0.0786179, -0.00126461, -0.0271511, 0.164077, 0.0194407, -0.022399, -0.013764, -0.0224902, 0.0163028, 0.0679619, 0.040196, 0.0495954, -0.0122547, -0.0825236, 0.109814, 0.0214396, -0.0267158, -0.0524865, -0.0315604, 0.085881, -0.017484, -0.10787, -0.0971808, -0.00214139, -0.0182795, 0.0875298, -0.110471, -0.113803, -0.00399413, -0.0241797, -0.0977392, 0.0280327, 3.5829e-17
0.0624687, 0.0142289, 0.155973, -0.0880841, -0.0380827, 0.087816, 0.00710417, -0.0874669, -0.0922104, 0.0961978, -0.0022678, 0.00016143, -0.215914, 0.182131, 0.00218154, 0.0814539, -0.050445, 0.129192, 0.0240083, -0.00556484, 0.0395085, -0.0540227, 0.0344445, 0.0677495, 0.0101724, -0.029631, 0.0798552, 0.0626445, -0.0959071, 0.120014, -0.00946631, -0.103162, -0.0203789, 0.0373693, -0.000784693, 0.0762854, 0.0327268, 0.0107368, -0.0872534, -0.0341823, -0.0798762, -0.103199, 0.0587682, -0.00785772, 0.0779161, -0.00856409, -0.0878678, 0.0805394, 0.104136, -0.0669644, -0.102838, 0.0049911, -0.0218404, 0.0344813, 0.0825907, 0.0378772, -0.00371472, 0.0483497, -0.0760632, -0.0243252, -0.0141235, -0.0890893, 0.0672125, 0.038662, 0.0110466, 0.00932365, 0.0738087, 0.124468, -0.0783844, 0.0129826, -0.108647, 0.0856122, 0.0199247, -0.037175, -0.0264997, 0.0855869, 0.042951, -0.048215, -0.0492246, -0.0683659, -0.0163024, 0.00466708, 0.00727991, -0.0672647, 0.00183781, -0.0492844, 0.00173748, -0.0983837, -0.0435699, 0.0577932, 0.0715271, 0.0585099, -0.0181344, -0.023453, 0.123962, -0.0947649, 0.0869331, -0.00467258, -0.0449194, -0.108705, 0.060219, -0.00534938, -0.0714682, -0.0126808, -0.0255247, -0.0129499, 2.20286e-05, -0.0462186, 0.0399969, 0.0556138, 0.0762174, -0.014057, 0.0074609, -0.0697462, -0.0467767, 0.00198566, -0.0758496, 0.115699, -0.115055, 0.0889905, -0.0463772, -0.027831, 0.0991887, 0.0747429, 0.0271389, -0.0510099, -0.0333895, 0.168418, -5.57913e-17
0.0210289, 0.0358825, 0.0815366, -0.03356, 0.0473968, 0.130486, -0.00915702, 0.112186, -0.00683639, 0.00765415, -0.0314895, 0.00902097, -0.0531138, 0.127927, -0.0542589, -0.0561988, -0.122881, 0.100054, 0.0273523, -0.0926496, 0.0653613, -0.0280764, -0.0623782, 0.018474, 0.148095, 0.0447149, 0.0405192, -0.0126667, -0.00479073, 0.110006, -0.0107408, -0.0476296, -0.00132058, 0.0244894, -0.0910981, 0.082067, -0.0404748, 0.0982078, 0.00954187, -0.0526275, -0.059034, -0.0226619, -0.116826, 0.231047, -0.0977837, -0.0164311, -0.0284172, -0.145156, 0.0127987, 0.0340549, -0.0369283, 0.0552361, -0.0120321, -0.105988, -0.0619336, 0.0323232, 0.0593012, 0.0485987, -0.108274, 0.0512491, 0.0982823, -0.0117821, -0.0846771, -0.111966, 0.0216457, -0.1007, -0.0295936, -0.0977187, -0.0214569, 0.0233804, -0.0455302, 0.0876226, -0.19769, 0.00759937, -0.0409811, -0.100165, -0.0510471, 0.0309887, -0.122182, -0.043742, -0.0299989, 0.00259734, -0.0786771, -0.103415, -0.0122387, -0.0073406, -0.0595109, -0.078679, -0.0702122, 0.0335171, -0.0366689, 0.0241947, 0.0116343, -0.10483, -0.117, -0.0270133, -0.124042, 0.0614017, 0.0798657, -0.0330637, -0.0548603, -0.079659, 0.0707948, -0.059799, -0.11661, 0.0909984, 0.0666194, 0.0907981, -0.00888275, -0.0541659, -0.135758, 0.0251282, -0.0194309, 0.0645269, -0.167875, 0.0973116, -0.114605, 0.00860625, 0.0690352, 0.113073, -0.108336, -0.128951, -0.0652107, 0.0482425, -0.0236149, -0.0845092, -0.0568396, -0.0125516, 8.46669e-17
0.11245, 0.12304, 0.0723942, 0.029532, -0.0856192, -0.0816181, 0.101151, 0.00953521, 0.00830323, -0.0171443, -0.0126109, 0.07686, 0.0246826, 0.0447282, 0.0503369, -0.0716097, -0.109226, -0.0267872, 0.00645441, -0.123603, 0.134583, 0.0267789, -0.0709876, -0.0653179, -0.110707, 0.063898, 0.103914, 0.0278243, -0.0829925, -0.116021, -0.0216677, 0.16153, 0.115998, -0.132822, -0.011138, -0.219637, -0.106593, -0.00401001, -0.0376297, 0.160801, 0.180975, 0.110607, -0.108119, -0.0804129, -0.0879023, 0.125316, -0.0512437, 0.00349652, -0.0360663, -0.0282248, 0.0338988, -0.0615665, 0.048598, -0.0167298, 0.022989, 0.0112443, 0.0148181, -0.0423944, 0.0029542, -0.0499396, 0.0135438, 0.00265888, -0.0522004, -0.0349277, -0.12543, -0.0340804, 0.102369, -0.161164, -0.182484, -0.0460212, -0.0295241, 0.0138778, 0.0342906, -0.0600935, 0.0514041, 0.0738536, 0.0358395, -0.0427568, -0.0442731, -0.104085, 0.116701, 0.0921479, -0.00972726, 0.0897829, 0.0117801, 0.0284678, 0.0243052, -0.00248925, 0.0943865, 0.00239746, 0.0924384, 0.0629807, 0.00896678, 0.0013769, 0.090583, 0.0247011, -0.00441748, 0.00817911, 0.0781024, -0.169965, 0.0515357, 0.167524, 0.138634, -0.0175475, 0.0473507, -0.0998818, -0.00139579, 0.0776834, -0.0199059, -0.0329099, -0.0758099, 0.118819, 0.00809189, 0.022521, 0.0260705, -0.0395336, 0.0659784, 0.00749357, -0.0652089, -0.0104673, -0.0680694, 0.0204006, 0.179493, -0.0310538, 0.0600223, -0.0126444, 0.161545, -0.0478504, -8.35268e-18
0.0565787, -0.0142885, 0.108286, 0.0605605, -0.0722338, -0.0315817, -0.0223241, -0.0242316, 0.00617963, -0.00289572, -0.0269844, -0.0328226, -0.012284, -0.00359941, 0.0501127, -0.0198506, 0.0453439, 0.0703677, 0.0881785, -0.0298002, -0.0682083, -0.0407603, 0.0596294, -0.108946, -0.107919, 0.0182822, -0.0404994, 0.0231163, -0.0563958, -0.0155237, 0.00840249, -0.0872054, -0.0144075, -0.0656624, 0.0696071, -0.00503594, -0.0768555, -0.202194, 0.0570256, -0.0209876, 0.00280686, -0.00371224, 0.0310661, -0.0230937, 0.00353364, -0.00193268, -0.176567, -0.00630984, -0.0167566, 0.118027, -0.0347461, -0.102176, 0.096199, 0.0317163, 0.145512, -0.0972492, -0.126056, -0.0475153, 0.0154838, -0.0134223, -0.132838, 0.0549222, -0.0720083, -0.0494967, 0.0350934, 0.0940851, 0.126437, -0.018291, -0.0136408, 0.0080284, -0.0360683, 0.0259624, -0.118346, -0.0648669, 0.0532312, 0.187536, -0.0475671, 0.0327157, 0.00545061, 0.0092332, 0.0348698, -0.141784, -0.0799306, -0.00756128, -0.038251, -0.00687602, -0.0113432, 0.125346, 0.038012, -0.0178434, -0.0282425, 0.0485348, -0.0157205, -0.146746, -0.077827, 0.133475, -0.0467658, -0.0108407, -0.0204261, 0.0103196, -0.0154716, -0.0191504, 0.0131268, 0.0494776, -0.0836294, -0.0114085, 0.013189, 0.00343522, -0.00698882, -0.00107656, -0.0585004, 0.00927801, -0.0127682, 0.00330624, -0.0508229, -0.0199554, -0.0778153, 0.0629119, 0.0216197, 0.0341672, 0.0280459, 0.0272312, 0.0302288, -0.0418528, -0.0670913, 0.00740895, -0.0599947, 0.00316788, 1.93893e-17
-0.00742671, -0.0463089, -0.0465399, -0.032353, 0.0155824, -0.0441598, -0.00865185, 0.100681, -0.0589876, -0.099826, 0.029052, -0.00334079, -0.0734015, -0.0521526, -0.0250431, 0.0577344, -0.0698059, -0.0720605, 0.0155435, -0.0711969, 0.0110127, 0.0652766, -0.0962222, -0.0329093, 0.0410385, 0.0556176, 0.0326039, 0.0776073, -0.0581292, 0.0604894, -0.0675707, 0.0644624, -0.0140492, -0.0139524, -0.102012, -0.0334365, 0.137087, -0.0178298, -0.131882, -0.211571, 0.0358619, 0.0704485, -0.0215343, 0.0174013, -0.122451, -0.136787, 0.060211, -0.00992838, 0.0569152, 0.0364469, 0.0572351, -0.114383, 0.0319187, 0.0369369, 0.015784, -0.0132004, 0.0867545, 0.110901, 0.0217069, 0.0379896, 0.0382922, 0.106506, 0.14597, -0.0763586, -0.0219865, 0.0116392, -0.0652034, -0.0708645, -0.183718, -0.119835, 0.0824813, 0.0855473, -0.0308823, -0.102739, -0.0425019, 0.0498903, 0.0967555, -0.115686, 0.0337862, -0.0775986, 0.0578767, -0.0941207, -0.049403, -0.08443, -0.0403256, 0.0166373, -0.021506, -0.00197121, -0.0152514, -0.0832663, 0.129108, 0.0843588, -0.00588256, 0.0941406, 0.158274, 0.0531406, -0.0744835, 0.0315537, -0.0280574, -0.0641956, -0.0237191, -0.0265629, 0.00344918, -0.0324333, 0.0145538, -0.0138046, -0.066435, 0.00802792, 0.0169025, 0.0591718, -0.0425694, -0.00652675, -0.124458, -0.00215887, -0.127393, 0.0189299, -0.0897071, 0.0251642, -0.0895571, -0.0577012, -0.0804315, -0.014384, -0.0756383, 0.0308817, -0.0791603, 0.058177, -0.0316889, -0.0285494, -1.87621e-16
-0.139682, -0.0725083, 0.0517832, -0.0690079, 0.0370312, -0.0109266, -0.214569, -0.101207, 0.1907, 0.0955714, -0.0148595, -0.0250675, 0.0120856, 0.015189, -0.0301876, -0.00925498, -0.0737809, -0.106756, -0.060076, 0.0478757, -0.171139, -0.100377, 0.161251, 0.0716748, 0.000906206, -0.000685804, -0.0625388, 0.0835677, -0.0711275, 0.0752181, -0.0127839, 0.0297666, 0.193953, 0.171265, -0.111418, 0.0259763, 0.0468519, -0.161937, 0.0742297, -0.0765977, -0.0977499, -0.0944117, -0.000231733, 0.0587655, -0.0673933, -0.020846, 0.0316639, 0.024545, -0.0869472, -0.0367922, 0.0203716, 0.0316747, 0.0511262, 0.0678035, -0.0222352, 0.0035501, -0.0571805, 0.0737979, -0.00530051, 0.0108827, 0.0896284, 0.244215, -0.0740229, -0.0573757, -0.0140135, -0.0331084, 0.0805749, -0.0562692, -0.0573223, -0.0596086, -0.0473602, -0.0911277, 0.0278974, -0.0961522, -0.0734527, -0.00771271, 0.0136963, -0.0319793, 0.0409152, 0.0985638, 0.04933, 0.0468319, 0.0568533, 0.178845, -0.0285956, 0.00973177, 0.0048341, -0.00967747, -0.101345, -0.00170192, -0.0671021, 0.0894806, -0.145633, 0.0434168, -0.121878, -0.000521727, -0.062117, -0.0602125, -0.0161805, -0.0716423, -0.103545, 0.0820561, -0.0630157, 0.147521, -0.0592245, -0.0797303, 0.0570217, -0.11561, -0.04162, 0.0364524, -0.104647, -0.0457927, 0.125592, -0.0422287, -0.0698667, 0.0355139, -0.120098, -0.0697331, 0.0703114, -0.0455648, 0.0823099, -0.0399996, 0.02651, 0.0704197, 0.00939675, 0.0507844, -0.142337, 0.0303778, -3.62916e-17
-0.139242, 0.117432, -0.0719694, 0.135946, -0.0572294, -0.0577521, 0.0530845, -0.0626533, 0.0773506, 0.0821176, -0.00810898, 0.0260569, -0.0876156, -0.0443938, 0.0408004, 0.0983399, 0.0124109, -0.0556888, 0.117871, -0.0380577, 0.0586113, -0.0529287, -0.0351763, -0.0227051, 0.0441413, 0.0532648, -0.104387, 0.0223706, 0.0809742, -0.120055, -0.00785618, 0.0124114, 0.0249403, 0.188352, 0.0543847, -0.0682513, 0.0212129, 0.081314, -0.0664729, -0.0838768, -0.0836805, -0.0874066, 0.0920201, 0.135383, 0.0711406, -0.010286, 0.102506, -0.0126187, -0.0800865, 0.013197, 0.00730363, -0.0728273, -0.0580697, -0.0302606, -0.0883332, -0.0513269, -0.0980407, 0.0122114, 0.00773686, -0.0563837, 0.129406, 0.127034, -0.0482878, 0.0855868, 0.0577253, -0.0296586, 0.0714129, -0.1462, 0.0502168, 0.0151908, 0.0614125, 0.225299, -0.0205104, -0.0101176, 0.0364745, 0.0405853, -0.0450272, 0.0644473, 0.063674, -0.00236071, -0.0856016, -0.0557999, 0.0361718, 0.129806, -0.0271049, -0.0221545, 0.0481539, -0.0714059, 0.0813964, -0.096362, -0.0404023, -0.108217, 0.0881152, 0.052206, 0.00697421, 0.0961457, -0.00486209, -0.0141773, -0.0468735, 0.0382769, 0.0468764, -0.0484404, 0.122279, -0.0431314, 0.185554, -0.0298266, -0.0420317, 0.0645108, -0.00342636, -0.0481319, 0.0537539, 0.0574692, 0.118095, -0.0201469, 0.00138183, -0.0901582, -0.00647883, -0.00973664, -0.0324656, -0.0550057, 0.0591028, -0.0198164, -0.0535911, -0.0950835, -0.106822, -0.121513, -0.0574401, -0.02458, 9.71323e-17
-0.0426134, -0.015719, 0.0677213, -0.046994, 0.0166154, 0.0122898, 0.00429763, -0.0622449, -0.00163033, 0.169298, 0.0749313, -0.00967878, 0.019249, -0.0181768, -0.0263034, -0.0114418, -0.0489476, -0.0616474, 0.035887, 0.0782417, -0.00351853, 0.000145877, 0.0621174, -0.0235297, 0.0865622, -0.0361176, -0.0226415, -0.0414955, 0.017752, 0.00958761, -0.0852468, 0.0430365, -0.183758, -0.117835, -0.107823, 0.0685811, 0.0874284, 0.00224535, -0.0747881, -0.0504702, -0.205365, -0.0798963, -0.014842, 0.0565264, -0.0892119, 0.113107, -0.0663545, -0.0584389, -0.00940306, 0.0492875, -0.110412, -0.01567, -0.0180312, 0.0704182, -0.0863623, -0.0502547, 0.101966, -0.0472503, -0.110104, -0.140592, 0.0257363, -0.0228046, -0.0478904, -0.063352, -0.099341, -0.0609223, 0.0632569, -0.125416, -0.0129212, -0.0949411, 0.0959006, -0.0177836, -0.179338, 0.0441297, -0.0804945, -0.100941, 0.0451634, -0.00227981, -0.139899, -0.0654083, -0.114887, -0.0509826, 0.114961, 0.0128576, -0.0693379, -0.0549105, 0.153303, 0.0516895, -0.132521, 0.00142338, -0.0241502, 0.0577323, -0.0100998, 0.0968275, -0.0047067, 0.0257244, -0.00100508, 0.0879798, -0.0266306, -0.0723215, 0.0220032, 0.0590335, 0.037572, 0.0664856, -0.177685, 0.0173057, 0.0169551, -0.0638389, 0.0500469, 0.00870018, 0.143617, -0.0204754, -0.00152872, -0.127065, -0.0205271, 0.121076, -0.0463066, -0.0251359, 0.0951863, 0.0803853, -0.0539371, -0.0963187, -0.066267, -0.040209, -0.007589, 0.0228069, 0.0852888, -0.0493693, -2.74691e-17
0.113195, 0.0214882, 0.0794868, 0.00710791, 0.108599, 0.07314, 0.020915, -0.0632592, 0.0832503, -0.148446, 0.0637657, -0.0345011, -0.00416976, 0.130287, 0.059451, -0.0205246, -0.0562368, -0.0702366, 0.0600679, -0.0319072, -0.02014, -0.0144722, -0.0390645, 0.0414621, -0.0637427, -0.0428889, -0.115567, -0.0758301, 0.0158948, -0.135234, -0.0888209, -0.113018, -0.016308, 0.104979, -0.179671, 0.00911303, -0.0491293, 0.00984853, 0.0437791, -0.0181268, -0.0428943, -0.00963272, 0.158753, -0.0591626, 0.0339556, -0.136912, -0.0419388, -0.123094, 0.132551, -0.0578807, -0.105599, -0.117123, -0.00331878, -0.0922462, -0.0349039, -0.106973, -0.0278883, 0.0922399, 0.019895, -0.0069191, -0.0835589, -0.015686, 0.0393284, -0.0236843, 0.0138595, -0.0969096, -0.0197118, 0.00181086, 0.0393202, 0.0140289, 0.0184391, 0.124862, -0.0681261, -0.0381647, -0.0824605, -0.0409029, 0.0309915, -0.08755, 0.00723814, -0.0352557, 0.0899318, 0.137011, 0.0955176, -0.0939002, 0.0534246, 0.0801044, 0.0480229, 0.0749481, 0.0107557, -0.0454699, -0.00169769, -0.0978931, -0.016509, 0.0415683, -0.0455491, 0.0178378, -0.00152258, -0.0959278, -0.00447439, -0.0418571, 0.083834, -0.067611, -0.0603213, 0.16735, 0.0842446, -0.0465306, 0.0480309, 0.0228087, -0.246106, -0.114471, -0.0611689, 0.116067, -0.086115, 0.106202, -0.0554427, -0.0415869, 0.0872812, -0.0472588, 0.0494821, -0.0806813, 0.108138, -0.131867, 0.22033, -0.0332471, -0.0568403, -0.0277022, 0.0513193, -0.016308, 2.38999e-17
0.0184495, -0.103215, -0.00443449, -0.0904892, 0.0191144, -0.0324521, -0.0638255, -0.0773581, 0.127584, 0.00545055, 0.000312966, 0.0724016, -0.00170276, -0.0232265, -0.0660459, 0.000291682, -0.0921727, 0.125657, -0.125976, -0.218485, 0.00364428, -0.0956889, 0.091638, 0.0711604, 0.056905, -0.0771601, -0.0517627, 0.0918137, 0.096817, 0.0553404, 0.0164547, -0.180628, 0.087203, -0.00103684, -0.0767146, -0.0269524, 0.0718415, 0.0457182, -0.166287, 0.0785793, -0.0712047, 0.0847947, -0.0290077, -0.0462903, 0.0775597, -0.00690581, -0.0275591, 0.0038311, 0.0313001, -0.0445172, 0.0533451, 0.0867058, -0.0768252, 0.156953, -0.198104, 0.0258065, 0.00993381, -0.00713712, -0.0288302, 0.0100839, -0.057711, 0.0243447, 0.0524075, -0.0779572, 0.0474706, -0.0697218, -0.135727, 0.00742503, 0.0383232, 0.0385579, -0.0149623, -0.0266951, 0.0300753, -0.139081, -0.131742, -0.0511815, 0.0674324, -0.0915294, 0.0250821, -0.0473953, -0.0222153, -0.00784785, 0.0153672, 0.050496, 0.00801201, 0.162679, 0.0343901, -0.0324072, -0.00869849, -0.0478549, 0.0254363, 0.14176, -0.114342, -0.0996836, -0.0079271, 0.107126, 0.100161, -0.039209, -0.0175039, 0.0320265, -0.1449, -0.033047, -0.0365274, -0.00318921, 0.0881667, 0.0312695, -0.0277786, -0.0712295, 0.00732814, -0.034024, 0.0378318, 0.0266725, -0.0196333, -0.0897768, 0.00307757, -0.0230576, -0.0228725, -0.0747911, 0.0807608, 0.0896248, 0.121376, -0.00468435, -0.011181, 0.0604768, -0.0951484, -0.0543721, -0.140426, 0.138306, 3.55533e-17
0.072158, -0.143112, 0.0238815, -0.0521997, 0.0381635, -0.167073, 0.0890635, -0.089831, -0.0687005, -0.0708366, -0.0400435, 0.0751737, 0.164427, -0.0065402, 0.0792058, -0.120399, 0.108096, 0.0493749, 0.0140428, 0.0422731, -0.00954553, 0.0417183, -0.0467553, -0.0208709, 0.0524151, -0.098055, -0.0110886, -0.0719037, -0.168095, 0.0105558, 0.0999379, 0.0217377, 0.0427321, -0.0148191, 0.00207959, 0.112379, -0.0842007, 0.125184, 0.0622547, -0.036013, 0.0872291, 0.0373648, 0.00200768, -0.00239219, 0.0173045, -0.0554447, -0.0483908, -0.0336278, -0.0495627, -0.0713769, -0.0761022, 0.036382, 0.0297231, 0.0266987, -0.0524054, 0.120936, 0.047568, -0.0341984, 0.0500605, -0.0306888, 0.0598273, 0.113897, -0.0864862, 0.0226187, 0.0211148, -0.103781, -0.0387102, -0.0644047, 0.0478832, -0.10748, 0.158018, -0.112597, -0.0329983, -0.0606852, -0.0619662, 0.0251203, -0.0545257, -0.01997, -0.0580801, -0.0116754, -0.0163883, 0.119335, 0.0584714, 0.0675478, 0.161688, 0.0521707, -0.167715, -0.00101031, -0.147848, -0.0453225, 0.0724523, -0.0169025, -0.0375569, -0.126914, 0.0260358, -0.0576335, -0.079202, -0.041009, -0.00448637, 0.0464412, 0.0172274, -0.0325123, 0.055163, -0.0403493, -0.0190228, -0.100332, 0.0005104, 0.0272972, -0.0867764, -0.129873, 0.0653488, -0.0120205, 0.0157083, -0.0601247, -0.068903, -0.126582, -0.0578457, -0.0698284, -0.00857779, 0.00420339, 0.0463356, 0.00398826, 0.00180507, -0.0641251, 0.085445, 0.0830402, -0.122535, -0.0582281, 2.4792e-16
-0.063172, 0.0841222, -0.106128, -0.1482, -0.189924, 0.00263181, -0.104624, 0.0502819, -0.17567, 0.0431912, 0.00774719, -0.0676625, -0.0830449, -0.168089, 0.0524301, 0.0713847, 0.00412189, 0.0152412, 0.0839845, -0.032827, -0.039612, 0.079676, 0.0589578, -0.0472083, -0.0653426, 0.0143491, 0.147607, -0.138018, 0.0157644, -0.167808, 0.0717763, -0.0418815, -0.0396113, -0.0598814, 0.0347364, -0.00399099, 0.101093, -0.0175976, 0.117241, 0.0863628, 0.116705, -0.132586, 0.0149066, 0.0260923, -0.082802, -0.0413076, -0.0125056, -0.203376, -0.0394539, -0.112363, -0.0318712, 0.00362278, 0.120973, 0.0548405, 0.00519288, -0.0509246, 0.17158, -0.103277, -0.0368295, -0.0850674, 0.0411931, 0.0617259, -0.0191307, 0.0563013, 0.0523464, -0.0739885, -0.0781204, -0.0913533, -0.116535, 0.0375084, -0.155686, 0.0719396, -0.0443599, -0.0028039, -0.00610961, -0.0418141, 0.122745, 0.0499594, 0.0316351, 0.00391254, 0.170108, 0.0936154, -0.021388, -0.0989266, 0.0303065, -0.0128517, -0.0565264, 0.0965205, 0.0481023, 0.077637, -0.122737, 0.00675871, 0.0180778, 0.0797377, 0.0643262, -0.190605, -0.161172, 0.028118, 0.0442991, 0.0384138, -0.0481752, -0.0161868, 0.000866028, 0.163561, -0.0376445, -0.00344721, 0.0352051, -0.0242867, -0.00207046, 0.0472699, -0.053392, -0.0327554, 0.00266352, -0.0227567, 0.105257, -0.0461611, -0.0297999, -0.0506945, -0.0807139, -0.0364715, -0.115869, 0.0780648, 0.129387, 0.0501386, -0.134153, 0.0669953, 0.0700062, -0.159615, -4.26563e-17
0.0590761, -0.0445326, -0.000900829, -0.000957826, -0.053601, 0.0448019, 0.0575046, -0.0428252, -0.0723699, -0.0398466, -0.00694995, -0.000238054, 0.00103829, 0.0538746, 0.0540257, 0.0617211, -0.0328518, -0.00606882, -0.00755092, -0.0613981, -0.0966509, 0.0969339, -0.0161678, -0.0329127, 0.113111, -0.122578, 0.0829354, -0.0785211, -0.0934548, -0.0070734, 0.0598387, -0.00504819, 0.062866, -0.0203296, 0.0411424, -0.123211, 0.0437544, -0.0321777, -0.0424281, 0.0103358, 0.0377348, -0.0587544, 0.00377017, -0.0370879, -0.139744, -0.074671, -0.0244962, -0.0101518, 0.00419447, -0.0125734, 0.0393344, -0.107775, -0.0361677, -0.0527139, 0.0286656, -0.128248, -0.0754739, -0.0848846, -0.048954, 0.0817938, 0.0869527, -0.00644826, -0.0398646, 0.111272, 0.00517112, -0.0889187, -0.00460485, -0.0957857, 0.0433979, -0.121731, -0.0114548, -0.114352, -0.0174949, -0.0863316, -0.000872372, 0.109681, 0.0445342, 0.0559483, 0.0852492, 0.0926755, 0.0529242, -0.035732, -0.0198304, 0.0583687, -0.0444891, -0.114975, -0.0923585, -0.0433848, 0.0616997, -0.0129922, -0.0734164, 0.0175857, -0.0140235, -0.0632309, -0.0700291, 0.00133101, 0.0726716, -0.059273, 0.149923, 0.0124951, -0.061359, 0.0525236, 0.007206, 0.151273, -0.0273881, 0.0411326, -0.0261491, 0.170825, -0.00532299, 0.00319987, -0.0999925, 0.141139, -0.0570491, -0.00501678, 0.0051755, 0.0751688, 0.0705697, -0.0260297, -0.015393, 0.00910722, 0.0300387, -0.0825292, 0.174239, -0.0302548, -0.00300552, 0.163036, 0.0183243, 0.0594935, 4.55303e-17
-0.0622217, -0.051823, -0.0485015, 0.158637, 0.0185899, 0.0466566, -0.0157393, 0.0467683, -0.0582909, -0.0166183, -0.0096678, -0.0937758, -0.0183707, 0.0833086, -0.0570516, -0.105612, 0.088927, -0.0532378, 0.032451, -0.103126, 0.127633, 0.032612, -0.0878425, 0.133301, -0.0180792, -0.00736659, 0.116542, -0.0680982, 0.0601988, 0.0977253, -0.0846466, 0.0154755, -0.126677, -0.1131, -0.00356515, -0.0282228, -0.0887152, -0.0920867, -0.00172155, 0.0970447, 0.00742591, 0.0593759, -0.00975088, -0.0254995, -0.0275012, 0.0645254, 0.0675778, -0.039065, -0.018151, -0.0846841, -0.0336566, 0.0659414, -0.0463257, -0.024013, -0.0332452, 0.206521, -0.102589, -0.0618771, -0.0698041, -0.0675867, -0.0949124, -0.174864, -0.0508291, 0.0607302, 0.10414, 0.00600903, 0.0661367, 0.0420288, -0.0915498, 0.00220865, 0.104677, 0.0283688, -0.0222145, 0.0405881, -0.0539818, -0.108214, 0.0077457, 0.129409, -0.115996, -0.0975265, -0.0322532, 0.021261, -0.0364106, 0.153962, 0.107064, 0.0119121, 0.0211228, 0.149567, -0.0641974, 0.091028, 0.0773956, -0.116466, -0.0522061, 0.0419091, -0.0445857, -0.0356999, 0.0785689, -0.0343993, -0.136323, 0.053981, -0.0859134, -0.0546425, -0.0807815, 0.0727342, -0.00644384, -0.0367134, 0.0241083, -0.034761, -0.026802, 0.0115467, 0.0503288, 0.0766481, 0.0205006, 0.0443639, 0.0432955, 0.0382255, 0.0866849, -0.023292, -0.024521, 0.0868646, 0.0296904, -0.0501819, 0.0819571, -0.146251, 0.0755836, 0.0337243, -0.0559026, -0.0297061, -1.71164e-16
0.00792188, -0.0395797, 0.018126, 0.101524, -0.0131001, 0.108553, 0.0604704, -0.0729894, -0.0677765, -0.0143973, -0.0409726, -0.102436, -0.0345011, 0.0308002, 0.0598416, 0.0840939, 0.0356139, 0.104111, -0.0275827, 0.0505259, -0.0567427, 0.0293609, 0.0758557, 0.0962104, -0.101664, -0.138164, -0.130521, 0.0203682, -0.0383199, 0.015395, 0.0562433, 0.0964445, 0.0436705, -0.213112, 0.0476729, 0.0126177, -0.139888, -0.0131511, -0.128509, -0.0451764, 0.116803, -0.00429314, -0.0589148, 0.0061853, 0.114391, -0.0663913, 0.00886725, -0.0156803, -0.134015, 0.0521405, 0.061982, -0.0265528, -0.0935762, 0.134613, -0.0963901, 0.0868646, -0.176935, -0.035541, 0.0677519, -0.0136218, 0.0407011, -0.161546, 0.024417, -0.062843, -0.0491223, 0.00851222, 0.0264977, 0.129852, 0.0795647, -0.082371, 0.111994, 0.0754032, 0.0926555, -0.0519862, -0.0831493, -0.267534, 0.0159203, 0.00551452, 0.245901, -0.159721, 0.0675862, 0.0614087, -0.0827619, 0.0109331, 0.0666595, 0.00413748, -0.0314381, -0.0162301, -0.0169133, -0.0802369, 0.0976727, -0.0356732, -0.0115927, -0.263719, 0.000352564, 0.00773211, -0.0614254, -0.0757163, -0.0486021, -0.0767963, -0.0303878, -0.0282558, 0.0320888, -0.0333401, -0.0676627, -0.0623641, -0.100792, -0.0283276, 0.00290717, -0.0691041, -0.0741923, 0.0503649, -0.0607375, -0.0191215, 0.216291, -0.0161804, -0.024168, -0.015588, 0.0498356, 0.0279635, 0.0614317, 0.111746, 0.0693797, -0.0599119, 0.043438, -0.0404355, 0.125012, 0.0790417, -3.80274e-17
-0.0880603, -0.020206, -0.152663, -0.0112514, -0.053294, -0.0441698, 0.0403765, 0.154156, -0.15442, -0.0153383, -0.00648552, -0.0499293, 0.0829417, 0.0680251, -0.00984266, -0.0377139, -0.0776008, -0.0851451, 0.0292027, 0.106347, -0.128235, -0.117744, -0.0777906, 0.111204, 0.0108579, -0.0723739, -0.026722, 0.0299767, -0.0567864, 0.0884943, -0.132595, -0.117457, -0.118041, -0.0423411, -0.124764, 0.0363889, -0.104889, 0.0184804, -0.0104259, 0.0163676, -0.0650311, 0.0215747, -0.0818986, -0.118436, 0.0135523, -0.117183, 0.0686181, 0.111233, 0.0194052, -0.0986753, -0.0810216, -0.00814658, 0.0584262, 0.0751573, 0.0431296, 0.059009, -0.0432076, 0.0268101, 0.00113362, 0.0893032, -0.0927289, 0.0188775, 0.0272641, 0.0204673, 0.029023, 0.122566, 0.0775813, 0.0403803, 0.0577001, -0.0558456, -0.019555, -0.060572, -0.0425379, -0.0228565, -0.0318922, -0.00669719, -0.0508956, 0.0352574, -0.160381, 0.0271454, 0.111075, 0.0215833, -0.125061, 0.0436632, 0.0784995, 0.0964796, -0.0614445, 0.0414663, -0.0767763, 0.108957, -0.05309, 0.0330379, -0.0304966, 0.0712516, -0.0436923, 0.0251266, 0.15322, 0.0520506, -0.177382, 0.063192, -0.140454, -0.00279817, -0.114129, -0.0250873, -0.049507, -0.0155677, -0.0183561, -0.0202636, 0.096565, 0.0394258, -0.0688302, 0.0285224, -0.00454931, 0.012324, -0.0976921, 0.000678689, 0.0170783, -0.015072, -0.0435886, 0.0222531, -0.0219725, 0.029149, -0.0222968, 0.0449488, 0.122404, -0.00436013, 0.0773519, -0.0528209, 6.93514e-17
0.0502278, 0.0849087, 0.10648, -0.120911, -0.022262, 0.047912, -0.0733547, 0.0312821, 0.0318887, 0.0294664, -0.0472963, 0.162692, -0.0696856, -0.168953, -0.158735, 0.0255972, -0.0039002, 0.141348, 0.0262469, -0.0220423, -0.030794, 0.0011974, -0.0224906, -0.0430686, -0.0123698, -0.0154621, 0.00880152, 0.0602556, 0.00998065, 0.0196004, 0.0491815, -0.00883999, -0.105756, 0.103006, 0.138496, -0.0616257, -0.0536556, -0.00988695, 0.109995, 0.025396, -0.000136931, 0.225042, -0.0360189, 0.104418, -0.191054, -0.217426, 0.0280112, 0.0141777, -0.152694, 0.0151841, 0.108278, 0.0260128, 0.0406964, 0.0431888, -0.0938765, 0.107239, 0.128743, 0.0812119, -0.18277, 0.0619161, -0.0660654, -0.0460544, 0.00215181, 0.1276, 0.0138765, -0.0625104, -0.0271162, 0.0474037, -0.137246, 0.0226328, -0.0600013, 0.103009, -0.0767613, 0.050703, 0.00957714, -0.0130008, 0.0730359, 0.0883191, 0.201734, 0.0864263, 0.013651, 0.0842247, 0.021019, -0.0364525, -0.0197608, 0.0354372, 0.026433, 0.0348811, 0.0486211, -0.0464341, -0.01445, 0.0274188, 0.111114, -0.0789285, 0.0332934, 0.0629702, -0.130408, -0.158967, -0.100047, 0.0686154, 0.0247434, -0.0869643, -0.00597548, -0.0689477, 0.163076, -0.117269, -0.046865, 0.029716, -0.0463346, 0.0326084, -0.156111, -0.0332765, 0.130828, 0.136412, -0.0939653, 0.0564922, -0.054529, 0.0434812, 0.00708551, -0.0384412, -0.0371347, -0.0137124, 0.0436075, -0.0572984, 0.130829, 0.0214414, -0.0639634, -0.0133341, 1.0884e-18
0.111375, -0.0706057, -0.174199, -0.0132055, -0.158029, 0.0971172, 0.109703, 0.0355971, -0.0791327, -0.118074, 0.0614506, -0.0641399, 0.0195545, -0.171692, 0.111707, -0.0730002, -0.0668807, -0.093951, -0.00126216, 0.0369246, 0.017403, -0.0542832, -0.0541577, 0.0261223, 0.0576789, 0.0728223, -0.0484272, -0.0489308, -0.103767, 0.153046, -0.127625, 0.127767, -0.139521, -0.0525753, 0.0226142, 0.0937502, 0.05201, -0.0674152, 0.0867596, 0.0805802, -0.0652585, 0.00178167, 0.0436775, 0.0303175, -0.128784, 0.00485942, -0.0577906, -0.0298047, -0.0589467, 0.111422, 0.170343, 0.094274, 0.156024, -0.00979993, 0.108854, -0.110847, 0.05706, 0.0300904, 0.049032, 0.100478, 0.00224638, 0.0201135, 0.0990463, -0.0976973, -0.0213383, 0.0101991, 0.051782, -0.0754042, 0.115854, -0.0234426, 0.201689, -0.0129086, 0.0649088, 0.119011, 0.0212653, -0.00430045, -0.03873, 0.0916148, -0.132184, 0.0524237, 0.135502, 0.0318985, 0.0810639, 0.0241677, 0.071955, -0.000925163, -0.0101596, -0.0338918, -0.0467095, 0.00859656, -0.00189691, 0.0188642, -0.0985282, -0.0504641, 0.0098455, -0.0726542, 0.0293292, -0.154108, 0.0417213, -0.0380181, 0.061929, 0.113804, 0.0155236, -0.00141723, 0.000255655, 0.0128932, -0.10078, 0.0773062, 0.0380737, -0.119662, -0.0169294, 0.0582772, 0.0514916, -0.0850483, -0.0549007, -0.011291, 0.0686849, 0.0607462, 0.0674419, 0.0236425, -0.0369229, -0.1119, -0.0587114, 0.112914, -0.123257, 0.0641929, -0.158975, 0.00188449, -2.24023e-18
-0.134482, -0.11359, -0.000290696, 0.0515772, 0.0659952, 0.012363, 0.0200572, -0.0119073, 0.0161268, -0.0309894, 0.0639148, -0.135201, 0.152374, -0.00943362, -0.0629093, -0.141399, -0.143402, -0.0732283, 0.078144, -0.116246, 0.0604274, -0.00381552, -0.0151636, 0.0874872, 0.0303556, -0.0291525, -0.103989, -0.0484932, -0.0888483, 0.0169125, -0.0209338, -0.146631, 0.112903, 0.0698183, -0.0825628, -0.197549, 0.0640572, -0.0148411, -0.114872, 0.108351, 0.00959948, -0.0214069, 0.0418345, -0.065049, 0.0204964, -0.0228696, -0.0857674, -0.0346357, -0.0954958, 0.0773106, -0.0165296, 0.148239, -0.0997527, 0.0961138, -0.010352, -0.129639, 0.0499724, -0.0175421, 0.0265526, -0.062027, 0.113204, -0.0271504, 0.00632892, 0.0663171, 0.0708305, 0.0269009, 0.0902443, -0.0817317, -0.0118227, -0.0220675, 0.00135997, -0.0378038, -0.0661217, -0.0106622, -0.0681675, 0.0532943, 0.105774, -0.0533246, -0.03457, -0.0909581, -0.103214, 0.00949752, -0.060288, -0.0242484, 0.184141, -0.0154526, -0.167855, -0.135683, 0.10277, -0.0426361, 0.0391382, -0.056372, -0.0375579, -0.0699671, -0.00354526, -0.0354026, 0.0543232, -0.0534379, 0.0702313, -0.107608, 0.10385, -0.0708625, 0.00981533, -0.0291055, -0.0953761, 0.047563, 0.0137727, 0.123387, -0.0574078, 0.0433469, -0.0836938, -0.0921338, -0.0211779, 0.0467275, 0.0894212, -0.0678496, -0.114259, -0.0143017, 0.0136013, 0.00872559, 0.0948373, 0.0598142, -0.10151, -0.147349, -0.0246462, -0.0178641, 0.0952309, 0.00287917, 1.79682e-17
0.0236118, 0.0426205, -0.0467405, -0.112374, 0.0613754, 0.0633652, 0.160288, -0.0988093, -0.0823846, -0.102705, -0.0718961, -0.118967, -0.0572892, 0.0356267, 0.103108, -0.0326519, -0.0501722, -0.137756, -0.0631599, 0.0271792, -0.0924444, 0.0840094, -0.0431302, 0.175655, 0.0417433, 0.0978499, -0.0102807, 0.0421523, 0.0283697, -0.0393414, -0.00909183, -0.0359371, -0.0189316, -0.0740692, -0.0658974, -0.0142636, -0.0793541, -0.00160654, -0.23461, -0.120299, -0.0205211, 0.0124625, -0.0158947, 0.0362578, 0.0448267, -0.0424918, 0.000307089, -0.139484, 0.02557, -0.0158541, -0.0570005, -0.0151859, -0.0188769, 0.0419384, 0.0265713, -0.0135506, 0.0682785, -0.0297049, 0.079653, -0.0764485, -0.000740346, -0.0488133, -0.0400596, -0.132855, -0.0953079, -0.00394096, -0.071187, 0.147337, -0.0449533, -0.103783, -0.0229921, -0.00828378, -0.0611194, -0.10051, -0.0711294, 0.00323497, -0.15131, 0.132339, -0.0315627, -0.067983, 0.0321912, 0.124459, 0.0288901, 0.0654722, -0.0326534, 0.000438027, 0.113524, 0.122867, -0.0445422, 0.0352477, -0.00605501, -0.0313699, -0.00620071, -0.0199655, -0.0554101, -0.0647723, 0.117379, 0.0620764, 0.00278428, 0.126387, 0.0633145, -0.0798885, -0.0313117, -0.00259003, -0.0141241, 0.0697679, 0.0371947, 0.0112603, -0.0661054, -0.0814973, 0.0236174, -0.0942323, 0.0704939, 0.0665185, 0.0734447, 0.00838822, 0.0353572, -0.0851716, -0.00337653, 0.00582147, 0.133406, 0.00486389, -0.0753072, 0.115128, -0.197739, 0.0193931, 0.119844, 0.00637121, 8.68107e-17
0.0332784, 0.0329029, 0.107901, -0.0396102, -0.0270355, -0.0759348, 0.0474015, 0.0496964, 0.0318477, -0.0542936, 0.0334339, 0.0721168, -0.071669, -0.0677999, 0.0235465, -0.0292111, 0.00816304, -0.0691774, 0.0844446, -0.0682065, 0.135055, 0.0513798, -0.0393925, -0.0667262, -0.133915, -0.0559514, 0.188895, -0.0144677, -0.0307092, -0.124589, 0.035715, -0.0986112, -0.0629543, 0.0573916, -0.0350927, 0.144494, -0.0630788, 0.0351938, -0.0135221, 0.0842684, -0.0680314, 0.0167077, -0.0822384, -0.110329, -0.0605565, -0.0772147, -0.0656207, 0.0866608, -0.0845649, -0.0335669, 0.0410455, -0.0136932, 0.060775, -0.0507741, -0.184072, 0.0929439, 0.197205, 0.0647101, 0.0371388, -0.124739, 0.0907248, 0.0996379, -0.0250805, 0.0451486, 0.26555, -0.0707099, -0.0566437, -0.0501526, 0.0291456, -0.00257574, -0.0371855, -0.248621, -0.0916346, -0.000322437, -0.0238552, 0.104466, -0.0510094, 0.0179305, -0.0517198, 0.118155, -0.066738, -0.0221398, 0.0545666, -0.00196738, -0.0569493, -0.0338593, -0.0766166, 0.106358, -0.0351551, 0.0601299, 0.00633836, 0.0869, -0.0945164, -0.0556948, 0.104715, -0.0390898, -0.0508173, -0.0102277, 0.0979099, 0.0158118, 0.0595985, 0.0347161, 0.0509139, 0.0956099, -0.0883329, 0.0576437, 0.0165216, 0.0748276, -0.156535, -0.144898, -0.154234, 0.0952899, -0.137629, 0.121984, 0.00371029, -0.139878, -0.0550044, -0.00712385, -0.106169, 0.0138328, -0.0276678, 0.0128331, 0.011576, 0.0520691, 0.0798346, -0.00101292, 0.110085, -0.00804006, -5.18369e-17
0.0120401, 0.00239951, 0.14589, 0.0346178, -0.0909916, -0.0830098, 0.0472292, 0.012384, 0.0563234, -0.0595059, -0.0696188, -0.104494, -0.145479, 0.0371765, -0.00817746, -0.0405976, -0.0676109, -0.141281, -0.153492, -0.0603811, -0.0532136, -0.0648035, -0.0737221, -0.0270335, -0.0633912, -0.0459131, -0.0661271, -0.0922178, 0.00199456, 0.0138406, -0.140026, -0.128362, -0.0387373, -0.0609469, 0.0626379, -0.032582, 0.05727, 0.0226378, -0.140215, -0.03575, -0.00288116, -0.234091, 0.104444, 0.00261712, -0.000794281, 0.0714967, 0.0640136, -0.103887, -0.00734106, 0.0391325, 0.079446, -0.015606, -0.0416496, -0.0209713, -0.0461426, -0.132815, -0.0694191, -0.114316, 0.0136822, 0.0957663, -0.0229922, -0.0362, 0.0273068, -0.0886295, -0.0331546, 0.0199059, 0.126926, 0.029397, 0.0699124, -0.135845, -5.42291e-05, -0.0411774, -0.0110444, -0.100814, 0.0995326, -0.0771981, 0.147126, 0.0961626, -0.0578387, 0.00630109, -0.0304104, 0.00207214, 0.0352205, 0.0318225, 0.00434514, -0.0787239, 0.0778685, -0.084257, 0.108396, 0.0149524, -0.110494, -0.213524, -0.00618449, 0.0300437, -0.096676, -0.0023885, 0.0667602, 0.024664, 0.00655465, 0.0230924, 0.0199092, 0.0524949, 0.00507688, -0.0108706, -0.0651894, 0.0470455, 0.0408149, -0.0917749, 0.0405978, 0.201213, 0.12396, -0.0192696, -0.085802, 0.0767727, -0.0556517, 0.160988, -0.0400076, -0.0114949, -0.0723327, 0.0144464, -0.0442722, -0.0679345, 0.0440765, -0.0190722, 0.0991003, -0.0300647, 0.171325, 0.0484125, -4.01348e-17
-0.0618239, 0.116577, 0.141179, 0.0083973, -0.168433, -0.0320844, -0.149319, -0.0548896, -0.0886501, -0.0514894, -0.0307952, 0.0441034, -0.00825162, -0.0789738, 0.017681, 0.0712201, 0.0201704, -0.0210408, -0.0107729, -0.162418, 0.105587, 0.0925084, 0.0948032, -0.0213737, -0.113116, 0.125311, 0.0251052, -0.0306754, 0.0722899, 0.0111553, 0.0646273, -0.0549989, 0.085435, -0.0523602, -0.0877175, 0.0617278, 0.0450991, -0.0189228, 0.0408894, 0.0155742, 0.0791006, 0.0651605, 0.113412, 0.00170958, -0.0376666, -0.00628389, 0.0773525, 0.0332728, -0.0519763, 0.0172954, 0.108409, -0.00627112, 0.0161169, 0.0489804, -0.0248306, 0.0689362, 0.0828214, -0.0109378, -0.0290199, -0.092944, -0.0284646, -0.0680973, 0.0256422, -0.0245716, 0.041189, -0.120223, 0.046548, -0.0118014, -0.0365739, -0.0331781, -0.0229826, 0.0793859, 0.0629284, 0.0161329, -0.0638549, 0.0114255, 0.0172461, -0.108163, 0.010179, -0.00103008, 0.0625852, 0.140063, -0.0129382, 0.0796495, -0.0937802, -0.0900801, -0.205199, -0.0542158, -0.0539424, -0.052878, 0.142401, 0.203475, 0.0747225, 0.00134517, -0.0467994, 0.0387665, -0.0153978, 0.0142987, 0.0100533, -0.0142186, -0.0439268, -0.0498699, -0.0802025, -0.0333992, -0.0611434, -0.0690528, 0.0249432, 0.0916342, -0.0375915, 0.0308268, -0.0287741, 0.0845386, -0.037788, -0.0154678, -0.00149766, -0.00587713, -0.0631215, 0.0129826, 0.0160758, -0.0273832, -0.0726011, 0.01147, -0.205676, -0.10775, -0.142914, 0.014952, -0.151411, -0.13845, 4.41918e-17
-0.0914324, 0.0510093, -0.0358151, 0.0351945, 0.0914431, -0.0184454, 0.120707, 0.0272141, -0.116478, 0.0236395, -0.0330796, -0.0188495, -0.0326531, -0.0198591, -0.201671, 0.0996206, -0.0863675, 0.0595877, 0.07034, 0.0181637, -0.00134753, -0.0298337, -0.0263843, 0.21902, 0.0895583, 0.0686449, 0.174743, 0.0240959, 0.0380485, -0.0972168, -0.128179, -0.0425321, -0.103332, -0.0290086, -0.00539178, 0.0448466, -0.120303, -0.0401267, -0.00166124, -0.0236093, -0.0426399, 0.0651874, -0.0261853, 0.102882, 0.108459, 0.0405691, -0.0447166, 0.0758495, -0.0700229, -0.0142843, 0.0635652, 0.0509052, 0.00761424, 0.0783785, 0.0369984, 0.00347112, 0.0191424, 0.0770299, -0.00553121, -0.0226319, 0.0816366, 0.0573149, 0.0260348, -0.143599, 0.0861502, -0.029191, 0.0659283, -0.013529, -0.070497, -0.0771322, 0.0294673, 0.0908726, -0.030631, -0.0857634, 0.0796648, 0.024332, 0.0931969, 0.118873, -0.110146, 0.00640106, -0.0184398, 0.00522638, 0.0857194, 0.054794, 0.155461, 0.0968747, -0.114749, 0.0601411, -0.0144833, 0.183121, 0.108281, 0.091414, -0.0721863, 0.0499525, -0.0894273, 0.0519924, -0.0448996, -0.139064, 0.0424817, 0.16883, 0.0317015, -0.0755223, 0.0786611, 0.0856198, -0.066013, 0.0548712, 0.0706594, 0.160664, -0.152402, 0.156784, -0.0618511, 0.0700315, 0.0543334, 0.0323562, -0.0492925, -0.0664144, -0.0658621, 0.00507769, -0.0617976, -0.0159922, 0.00173711, 0.0846229, 0.0570545, 0.0216451, -0.0106892, 0.0178544, 0.00724033, 0.161904, -2.71508e-17
-0.0339151, -0.101584, -0.0361983, -0.0202633, 0.0449309, -0.0771708, -0.0675896, -0.0404879, 0.0777784, -0.0485806, -0.226168, 0.0388177, -0.126703, -0.000701941, -0.0406032, 0.00270928, 0.0968373, -0.0551512, 0.0652439, -0.00713372, 0.083545, -0.0591568, -0.0865962, -0.0591209, 0.0145852, -0.0490719, -0.00845254, 0.0183269, -0.0458569, -0.0342813, 0.00167848, -0.2027, -0.141188, 0.0938239, 0.0456045, 0.00544295, -0.0367466, -0.0122832, 0.0690681, 0.0236995, 0.00398906, -0.075037, 0.027217, -0.0458022, -0.114857, -0.123824, -0.0477516, -0.0900253, -0.0443596, 0.0673484, 0.047117, -0.0417374, -0.0287237, 0.020946, -0.154653, 0.0375361, -0.00557824, 0.00777638, 0.00489415, -0.0774066, -0.0179135, 0.0125745, 0.0214528, -0.0990838, -0.0700455, 0.0171622, -0.127163, -0.0826271, 0.0446398, 0.0804518, -0.0419175, -0.249746, -0.123206, -0.0340931, 0.0167973, -0.0187419, -0.0954078, 0.0575833, 0.0404122, 0.0588269, -0.0204594, -0.0300527, -0.0845632, -0.0257696, -0.0124754, -0.0375073, 0.00997509, -0.044074, -0.0768092, -0.0538302, 0.0208914, -0.0564228, -0.0107395, -0.0744959, 0.0402586, 0.0693506, 0.00850653, 0.0437983, 0.0493518, 0.00206807, 0.0265218, -0.0470271, -0.0959548, -0.139225, -0.146844, 0.0387876, -0.135994, -0.00737338, 0.0435721, -0.0908094, -0.0604116, -0.0874264, -0.0395056, -0.105477, -0.0498541, 0.0472821, 0.0135807, -0.0779798, 0.0293476, 0.0570492, -0.0785022, 0.0196648, -0.00621749, -0.0173606, -0.0862705, -0.034139, -0.104199, 0.0552103, -9.25644e-17
0.0931683, -0.0936588, 0.139364, 0.0780904, 0.167199, 0.0457301, 0.0209678, -0.0163025, 0.0105197, 0.0951275, 0.0548679, -0.0674582, 0.00372978, 0.136412, 0.0148751, 0.15569, 0.0375511, 0.00288691, -0.0197615, -0.0470484, -0.0112913, -0.051783, -0.00858326, 0.00856394, -0.013921, 0.0216382, -0.0172121, 0.0478012, 0.0807261, 0.122284, 0.0790896, -0.0116254, -0.0636385, -0.0633469, 0.0671443, 0.0308638, 0.0118309, 0.0325871, 0.0597709, -0.031627, -0.0904687, 0.00475501, 0.0767642, -0.0336136, -0.0301824, 0.0173988, 0.0806407, 0.0607161, -0.0569689, -0.0150657, -0.0126203, 0.0388225, 0.111247, -0.131531, 0.0742698, 0.0892722, 0.0753499, 0.0930226, 0.0414748, 0.00661329, -0.00619873, -0.0457416, -0.0894344, 0.141524, -0.0258855, 0.0514609, 0.0297497, -0.0301947, -0.035977, -0.131864, 0.0274017, -0.119133, 0.0747697, 0.0546469, 0.0119634, -0.0221496, 0.153647, -0.0526437, -0.0417882, -0.0662912, 0.00777027, 0.140639, -0.0636902, 0.0451173, 0.245484, -0.0406145, 0.0469563, -0.00811846, 0.0140099, 0.286695, 0.146925, -0.0380857, 0.00467889, -0.048779, -0.146868, 0.116692, 0.0823606, -0.0636053, 0.127831, -0.0230513, 0.0411687, 0.048648, 0.0377959, 0.104185, -0.0716586, -0.103836, 0.0510586, 0.153903, 0.00646985, 0.0222176, 0.00855379, -0.168964, 0.0273167, 0.0168372, -0.0207642, 0.152786, -0.0235784, 0.0194859, -0.0936099, -0.111972, 0.0524967, 0.000783195, 0.0747963, 0.0448623, 0.0771174, -0.013733, -0.012546, -0.0213442, 1.5331e-16
0.0309825, 0.129424, 0.0438379, 0.0173426, -0.0174663, 0.0819874, -0.0461623, -0.0809974, 0.0115421, 0.0425855, -0.0596919, -0.0943802, -0.0135353, 0.0176064, 0.0789096, 0.00281828, 0.00851061, 0.0259391, 0.0687534, -0.0324691, -0.0129517, -0.00383958, -0.0214581, 0.105774, -0.172251, -0.0164909, 0.0521838, 0.131181, -0.00663143, 0.0690167, 0.0682772, 0.122818, 0.169394, -0.0151828, 0.0767221, 0.079497, 0.0222128, -0.0214475, -0.0379371, -0.0212952, -0.00905243, 0.216863, 0.0181825, -0.0413398, 0.200942, 0.0842957, 0.0571911, -0.0515352, -0.00329575, 0.0458438, -0.0372245, 0.0506178, -0.035195, 0.00865115, 0.00325263, -0.041343, 0.0237456, 0.0917537, 0.0421343, 0.0833277, -0.0628554, 0.0211388, -0.0363359, 0.0874565, 0.108348, -0.157265, -0.0358849, 0.00695077, 0.0106262, 0.0429426, -0.0795835, 0.0400897, 0.153114, 0.00333766, -0.00117104, -0.0296319, -0.0180301, -0.0450415, -0.0397159, 0.0345695, 0.060957, 0.0469404, 0.0231177, 0.0688329, 0.0223685, -0.0732272, -0.102625, 0.0720305, -0.0723982, -0.0293728, -0.0148398, -0.0494075, 0.0357058, 0.0549301, -0.116853, 0.027564, 0.162158, 0.0926341, 0.0947501, 0.0261519, 0.0245279, -0.0174402, -0.083116, 0.0505647, 0.0850363, -0.0550278, -0.0782695, -0.0188522, -0.0154909, -0.026032, 0.110337, -0.115897, -0.125974, 0.0229622, 0.109162, 0.000283731, -0.0194229, 0.0290571, 0.0117591, -0.0401938, 0.0399435, 0.0509906, -0.0425416, 0.0658367, -0.0892741, -0.0926076, -0.11898, 0.0425413, 1.54793e-16
-0.025492, -0.0692167, 0.077785, -0.00307132, -0.0917801, -0.0230748, -0.147334, 0.172612, -0.0824657, 0.0493994, -0.0545846, -0.0161746, -0.119453, -0.0472508, -0.0509886, 0.0747481, 0.182826, -0.0649279, -0.0305703, -0.00778501, -0.0171245, 0.0507936, 0.0860571, -0.215575, 0.0451788, -0.00656167, 0.0661927, -0.05165, -0.13526, 0.0688974, -0.0566833, -0.064621, -0.115724, -0.0866893, -0.0303009, 0.153814, 0.0552376, 0.0483787, 0.0146215, 0.127533, -0.0461544, 0.106872, -0.0767871, 0.07207, -0.215493, 0.107016, 0.0574446, 0.0295158, 0.00920813, 0.040819, -0.0310967, 0.0900622, 0.184687, -0.0174925, -0.0512417, -0.0809663, 0.0259171, -0.0186269, -0.0709519, 0.0558307, 0.0223106, -0.0342726, 0.0984667, 0.00477828, -0.0443464, 0.0418696, 0.185501, -0.159702, 0.10188, -0.0424875, 0.0956321, 0.0450158, -0.0148752, -0.0551578, -0.141915, 0.0102555, -0.089817, 0.0401278, 0.021034, -0.0115485, -0.111692, -0.0839489, 0.103872, -0.0878662, 0.0337715, -0.0245865, 0.0256275, 0.07556, -0.0366679, -0.0631275, -0.229374, -0.0922502, 0.127611, 0.0119331, -0.084431, -0.0782109, -0.0500186, 0.133972, -0.0237916, 0.123933, -0.0819621, -0.0229875, -0.0758857, 0.0876276, -0.0550678, 0.0243101, -0.0782555, -0.136918, 0.0695862, -0.0571494, 0.0393857, 0.00328192, -0.154332, -0.0395517, -0.0319848, -0.0240618, -0.0728014, 0.00162242, 0.0820302, 0.0682667, -0.112283, 0.00583442, 0.103909, -0.0162221, -0.10474, -0.214293, -0.0497677, 0.0326602, -2.62047e-17
-0.0152231, -0.00904682, 0.13674, -0.0675448, 0.0537211, -0.119501, 0.14326, 0.0143859, 0.0105581, -0.0238547, -0.0434075, -0.0192042, -0.00555471, -0.00397436, -0.0422353, 0.0217585, -0.0376882, -0.013255, -0.169792, -0.122344, -0.0109915, 0.0155428, -0.0632972, 0.00775967, -0.0352099, 0.125822, 0.0350447, -0.0188634, -0.0750071, 0.00852845, -0.089493, -0.0318857, 0.0109206, -0.130086, 0.0416356, 0.0863168, -0.0777081, 0.0407824, 0.0412271, 0.0173804, 0.135366, 0.0613144, -0.120304, 0.000132693, 0.00524492, -0.117248, -0.101361, -0.111919, -0.0310194, 0.0203164, 0.0471877, 0.0291266, 0.00798509, 0.0291075, 0.0844929, 0.0374014, 0.0130499, -0.0300103, -0.0153343, 0.0630288, -0.0527958, 0.00437831, -0.0961608, -0.0237883, -0.038362, 0.069586, 0.0456673, -0.0782142, -0.136089, 0.0401189, -0.0511724, -0.0989058, -0.0358568, -0.0178682, -0.0849396, 0.143239, 0.00108726, 0.146762, -0.0462073, 0.0843608, 0.0853229, 0.0237824, -0.00776482, -0.107535, 0.0280967, -0.0339355, -0.118349, -0.0477152, -0.0236829, -0.0484028, 0.170153, -0.0950307, -0.0196886, 0.0540094, -0.14078, -0.077283, -0.0819908, -0.0205213, 0.0489764, -0.0364535, 0.0061273, -0.117951, -0.183101, 0.000704092, -0.0747516, -0.0341559, -0.0285351, 0.0982813, -0.0553045, -0.00969071, 0.10737, -0.112258, -0.00329217, -0.123026, 0.155042, 0.0454978, -0.0521581, 0.0589532, 0.0891965, -0.159516, -0.129214, -0.0255805, -0.155387, -0.0548686, -0.00686173, 0.0195028, -0.0689714, 0.00272543, -4.90798e-17
0.0307602, -0.0871357, -0.0356636, -0.150657, -0.110725, -0.0964437, 0.00688503, 0.104037, 0.0504707, 0.0571088, -0.0687965, 0.00312353, -0.0505177, -0.0973818, 0.0456484, -0.174292, -0.112424, -0.12049, 0.111697, -0.119482, 0.00509653, 0.0341334, 0.0261264, -0.0441322, -0.00639936, -0.0230304, 0.0482765, 0.144005, -0.00830391, -0.0962736, 0.000844781, 0.0716369, -0.0538813, -0.0506987, -0.013374, 0.0428472, 0.00454909, 0.0974105, -0.0388688, 0.000682847, 0.0520626, -0.0788867, 0.0133388, -0.0890887, 0.0805512, -0.0220739, 0.0116113, 0.0469578, 0.131733, -0.0917047, 0.141119, 0.062688, -0.0646773, 0.124829, 0.0380568, -0.0661913, -0.0883068, -0.0670537, 0.0574373, 0.0345349, 0.0183718, 0.185869, -0.0311826, 0.0880965, 0.0319263, 0.0348951, -0.096124, 0.0543512, -0.0615363, -0.0144089, -0.174716, -0.0730146, 0.00193536, -0.0787855, 0.0244776, -0.141775, 0.0451015, -0.0863047, 0.00598243, 0.0572239, 0.0599881, 0.0921121, -0.0178772, 0.0270848, -0.03031, -0.0623053, 0.0589221, -0.0403115, 0.0442585, -0.0328244, 0.0979524, 0.155848, -0.0550218, 0.00345569, -0.0624799, 0.0124599, -0.0541651, -0.0324333, 0.0124149, -0.0979415, 0.103652, 0.0447567, 0.0364825, 0.00520294, 0.00350302, 0.230174, -0.109912, -0.00886677, 0.00869857, -0.0337684, -0.119882, 0.0109239, 0.0634561, 0.013403, -0.0298187, -0.0159928, 0.0165793, -0.0469344, -0.0754594, 0.0253502, -0.0366026, -0.0242589, -0.00240561, -0.0778895, -0.0799838, 0.137851, -0.0371509, 0.0779567, 8.96791e-17
0.0915853, 0.00829001, 0.023508, 0.132918, -0.136817, -0.0112066, -0.0402896, 0.0204763, 0.155686, -0.00530649, -0.150656, 0.0519551, 0.00352367, 0.0228925, 0.0513884, -0.0209813, 0.0120763, 0.0768206, -0.0213374, -0.110558, 0.0928891, -0.135744, -0.0543836, 0.0979652, -0.0408294, 0.000381414, -0.0347876, 0.153111, -0.000501456, -0.0864202, -0.00825161, -0.022401, 0.00612413, -0.0826537, 0.0674746, -0.0161811, 0.00450607, 0.0216475, -0.0868841, 0.114195, 0.00795652, -0.0333098, -0.057051, -0.0587901, 0.137073, -0.0952137, -0.0299063, 0.0789361, -0.196495, -0.00776553, 0.162194, -0.120186, -0.0611962, 0.0583402, 0.0192249, 0.00596642, -0.0276963, -0.0212712, 0.0302706, 0.0698951, 0.0812371, -0.048796, -0.0158756, 0.0654094, 0.0803541, -0.078682, 0.058877, 0.0529618, -0.0914924, 0.0653172, 0.0828051, 0.177614, 0.082681, -0.0733534, -0.0412727, -0.0956587, -0.0167579, 0.0567364, -0.0125141, 0.0953026, -0.00550566, -0.0159502, 0.0138805, 0.0332195, 0.0311347, -0.0201812, 0.0902389, -0.150257, 0.11965, 0.0521666, 0.199528, 0.0533958, 0.031981, -0.0493795, 0.00111757, -0.147207, 0.0337773, -0.0656973, 0.0547393, 0.0232483, -0.0231139, 0.0841807, 0.117194, 0.0439925, -0.0731195, 0.0137675, -0.00606394, -0.0403416, -0.0520779, -0.0926218, -0.00739246, 0.177196, 0.0706713, 0.0358052, -0.0924956, -0.0143562, 0.0362415, 0.0263169, 0.0111193, 0.0261423, 0.0304936, 0.0556945, -0.0401933, -0.0218123, -0.0486317, -0.0476365, 0.0461181, -0.0716469, -5.80657e-17
