0.263589,-0.0751203,-0.0602719,-0.13271,-0.093326,-0.107924,-0.591525,-0.0758076,-0.267419,0.121583,-0.127865,-0.115099,0.225827,-0.0682269,-0.337935,0.0779224,0.216068,-0.398479,-0.0543883,-0.546716,-0.545719,-0.219873,-0.167158,-0.195585,-0.1802,-0.147635,-0.159679,0.249007,-0.0213607,-0.133555,-0.242006,-0.258186,0
-0.210745,-0.37759,0.205981,-0.617728,0.58412,0.26575,0.27612,0.383973,-0.52357,-0.0793343,-0.126605,-0.365762,-0.261448,-0.184068,-0.0186227,-0.17152,0.0637133,0.278725,-0.413977,0.0644872,-0.41098,0.0632012,0.0797185,0.0246465,0.418424,0.433088,-0.11878,-0.000807887,-0.0290308,-0.0902674,-0.206049,0.462095,0
-0.00111161,-0.127605,0.365275,0.226568,0.184982,0.278099,-0.314014,0.134382,0.212303,0.247719,-0.40202,0.143377,0.269408,0.154343,-0.694822,-0.185641,-0.210093,0.189369,-0.29888,-0.163834,0.35352,0.444727,-0.402583,-0.199007,-0.0921086,0.040539,0.0652205,-0.228259,-0.256007,0.118046,-0.235781,-0.632332,0
0.255409,0.461163,0.305903,-0.352031,0.0482993,0.107589,-0.423891,0.227925,0.0211732,-0.159807,-0.22696,0.510959,0.209323,-0.168046,0.377003,-0.0462658,-0.557934,0.28796,-0.0331271,-0.0993822,-0.151117,0.119251,-0.486154,-0.214063,0.09744,0.0849679,-0.0193107,0.136242,0.209263,-0.133019,-0.421211,0.544443,0
-0.0875118,0.256342,0.0230591,0.428569,0.00357354,0.182904,-0.00743613,0.0731837,0.147792,0.201577,0.24264,-0.154723,0.255322,0.0114344,0.0899976,0.277441,0.021411,0.0511813,-0.0949899,-0.049412,0.128287,-0.178148,-0.121001,-0.127142,0.517378,-0.0202203,-0.125665,-0.102123,0.582424,0.0523516,0.108825,-0.15274,0
-0.0233,0.288668,-0.440838,-0.156558,-0.210909,0.17053,-0.119111,-0.121573,-0.263599,-0.120645,-0.0979598,0.031371,-0.688715,0.316863,-0.392455,-0.442068,0.0748345,0.26215,0.214815,-0.0558759,0.132698,-0.155875,0.164326,-0.228161,0.0160385,0.152418,0.0948046,0.172133,0.302035,-0.0516153,-0.21336,0.387793,0
-0.13802,-0.550965,0.137243,0.0216326,-0.015413,-0.0691923,0.300285,-0.131416,0.16652,-0.24859,0.416695,-0.117349,0.421742,0.490261,0.104751,-0.280312,-0.026602,0.210113,0.119268,0.050438,0.267863,0.0193004,0.168739,-0.328878,-0.132841,-0.0317482,0.0719916,0.113556,-0.14642,0.336658,0.255684,0.183163,0
-0.133511,0.16067,0.0505683,-0.296426,0.0337837,0.293065,0.176625,-0.177309,-0.0549108,-0.213208,0.0333315,-0.394456,-0.366759,-0.274475,0.0370407,0.187707,0.120778,-0.207437,0.170681,-0.11045,0.119352,0.130079,0.195294,0.51459,-0.110993,0.265991,-0.16827,-0.297256,0.239485,-0.279075,-0.151087,0.138753,0
-0.159931,0.102879,0.575377,0.206149,0.282895,0.23906,0.00107489,-0.393828,0.0599025,0.442435,-0.235543,-0.211489,-0.0551746,-0.513609,0.312328,0.115526,-0.0369131,0.408897,0.0299627,0.378286,0.171979,0.508064,0.489269,-0.310111,-0.0956052,-0.0387699,-0.058515,0.356006,0.102734,-0.159815,-0.285303,-0.0870995,0
0.571334,0.260122,-0.0161805,0.0422795,-0.244141,-0.0527076,0.45429,0.234017,-0.123194,-0.46591,-0.21428,0.213702,-0.106507,-0.254534,0.246833,-0.131737,-0.0450076,-0.308573,0.423093,0.325555,0.0135704,-0.0422268,0.462565,0.172529,-0.272287,-0.215577,-0.245272,0.0199014,0.00562606,0.305936,0.190874,-0.0810934,0
0.358141,-0.210899,0.357808,-0.148465,-0.230068,-0.0490469,-0.317626,-0.178117,-0.0573391,0.152419,0.0133991,0.0599831,-0.264218,-0.060378,-0.322791,0.269885,-0.229494,-0.194292,0.239469,-0.0588579,0.0558625,-0.382743,0.438891,0.0950734,-0.317881,-0.36566,0.276313,-0.378046,0.440551,0.0972958,-0.290493,-0.186161,0
0.0373476,-0.382065,-0.108435,-0.261232,-0.261694,-0.0392983,-0.0973727,0.156119,-0.0694674,-0.377716,0.0233889,-0.065653,-0.0472787,0.0109998,0.0168727,-0.16109,-0.417326,0.223306,-0.381203,-0.418333,-0.159974,0.770931,-0.0755417,0.485505,0.0335371,-0.0616206,0.212849,-0.363897,-0.271447,0.280511,0.360068,0.240232,0
-0.140311,0.320476,-0.277928,-0.287568,0.132386,-0.109382,-0.193166,0.561577,-0.152995,-0.354564,0.0343787,-0.227424,-0.0650766,0.105577,0.186266,-0.418349,0.0355216,0.124996,0.269124,0.113183,-0.105596,-0.115977,0.189701,0.165718,0.0266381,0.185173,-0.0225588,0.0261912,-0.149438,-0.0643009,-0.0826841,-0.128543,0
-0.333811,0.371684,-0.258303,-0.175664,-0.307494,0.23773,0.230071,-0.0862747,-0.193884,0.116469,-0.0410731,0.428276,0.568035,0.0402234,0.621331,0.366814,-0.0992958,0.101388,-0.0765907,0.0827839,0.2215,-0.181509,-0.43139,-0.367234,-0.140868,-0.412722,0.0601095,-0.0589448,0.221723,-0.083375,0.322261,0.057667,0
0.209648,0.216034,0.211581,-0.135125,0.342826,-0.0589939,0.362162,0.0550187,-0.0200769,-0.108889,0.0506332,0.303494,-0.237123,0.0131152,0.286669,-0.0645712,-0.160646,-0.152595,-0.11284,0.0641926,-0.00779623,0.12633,0.276178,-0.369836,0.0698451,0.0745387,0.107876,0.115577,0.0647113,-0.0467114,0.161986,0.183842,0
0.063498,-0.126647,0.0202501,-0.118399,-0.47748,-0.189134,-0.307622,0.482196,-0.0700808,-0.36385,0.490157,-0.157912,-0.266817,0.180084,0.0799673,0.0891233,0.357395,0.177406,0.0348576,0.252192,-0.0286054,-0.180271,0.142215,-0.250024,-0.0441818,-0.175455,-0.40883,-0.345851,0.0787356,0.0943946,-0.168286,-0.299334,0
-0.179674,0.0799976,-0.0779093,-0.389881,0.19238,0.29763,-0.334761,0.0541561,0.151814,0.0488618,-0.302267,0.187994,0.322586,-0.052334,0.0100144,0.360974,-0.169478,-0.251736,0.508506,0.442274,0.038726,0.0806031,-0.170141,0.321175,-0.129196,0.0954189,-0.180807,0.533223,-0.0435804,-0.165029,-0.158277,0.168751,0
0.125954,0.125119,0.0244857,0.164289,0.24593,0.0195838,-0.323527,0.389603,0.135326,0.31007,0.181074,-0.749878,0.200359,0.244915,0.278558,-0.17776,-0.163689,-0.285859,0.0191599,0.385514,-0.54726,0.296329,-0.461629,0.374649,0.0456588,-0.635407,-0.172485,0.316075,-0.454785,-0.157324,-0.207898,-0.0922548,0
0.443007,0.326563,0.421286,0.136116,-0.314881,0.145656,0.229932,0.0119843,0.0706428,-0.54914,-0.190134,0.063057,0.373488,-0.162376,0.373865,-0.250755,-0.249648,-0.30509,-0.352313,-0.196295,-0.0511189,-0.0100399,-0.0512196,-0.0553463,-0.0899537,-0.256853,0.359225,-0.242337,-0.198851,-0.159917,-0.0102553,0.181814,0
0.119131,-0.36828,-0.357218,-0.175177,0.11501,-0.145804,0.438639,0.000408548,0.0213673,-0.236697,0.270675,-0.176492,0.146022,-0.0811778,-0.0493407,0.201928,0.0420321,0.0135464,-0.227458,-0.203144,0.351458,0.198263,-0.0622359,-0.103715,0.0683015,-0.153484,-0.0662797,0.0626096,-0.072167,0.59713,-0.00303531,-0.571859,0
-0.474364,-0.116281,-0.131774,0.238284,-0.543962,-0.673455,0.0492465,0.205318,0.136112,0.542025,0.1248,0.159973,-0.214379,0.030163,0.174184,-0.762219,-0.319265,0.0716827,0.0713147,-0.146468,0.00837542,0.0536708,0.496065,0.214432,0.355684,-0.0105217,-0.204992,-0.0438383,0.0255201,-0.196661,0.085588,-0.079095,0
-0.0324457,-0.269637,0.0928592,-0.337546,0.129121,-0.326182,-0.279599,-0.275926,0.00896045,0.0579511,-0.246401,0.0281672,-0.272204,-0.039129,0.730739,-0.118814,-0.0353975,-0.225969,-0.0949277,0.216579,0.463078,0.251675,0.295117,0.086107,-0.242167,-0.115196,-0.0868301,0.302425,0.159602,0.367762,0.178589,0.446943,0
0.161153,-0.189014,-0.209386,0.0249664,-0.0889745,0.389299,-0.120364,-0.273281,0.404082,0.0692866,0.0532545,-0.225016,-0.0429502,0.255085,0.630084,0.290426,-0.119425,-0.113154,0.12741,-0.138069,-0.280671,0.0189457,-0.0191816,0.306318,-0.161753,0.0760129,0.140915,-0.44948,0.0857011,0.0890769,0.132013,0.0683856,0
-0.193117,0.26622,-0.0963307,-0.0112336,0.149437,0.0607694,0.118994,-0.296573,0.340876,-0.358324,-0.12693,-0.0132979,0.0735777,0.117303,0.386261,0.135526,0.0199024,-0.0227512,0.00754522,-0.23389,-0.0796493,0.096466,-0.14206,0.0433059,-0.25301,-0.153992,-0.20069,0.263021,0.0425921,0.0339516,-0.0846583,-0.287905,0
0.00193234,0.0497389,0.163777,0.369578,0.0892244,0.0471819,-0.0241598,0.266129,0.115854,0.0652099,-0.193395,0.218066,0.198463,-0.0594146,0.158886,0.304602,0.0591259,-0.327118,-0.336723,-0.110712,0.125587,0.255115,0.341364,0.196601,0.244128,0.0659208,-0.00742639,0.272417,-0.289321,0.223174,0.101365,-0.0803437,0
0.265731,0.227071,0.669952,-0.297883,-0.0324861,-0.332752,0.226082,-0.0822852,-0.265791,0.129893,0.0528784,-0.215343,-0.0260546,0.0273087,0.538024,-0.15358,-0.0775132,-0.122967,-0.0470089,0.294385,0.243971,0.373207,0.239759,-0.507357,0.510429,0.236273,0.137805,0.00610176,-0.36214,0.0795607,-0.228325,0.0236551,0
0.276568,-0.231511,0.241008,-0.100011,-0.0251524,-0.573736,0.0746551,-0.209373,-0.323627,0.226692,0.180603,0.439839,0.0580697,0.267765,-0.245647,0.401189,-0.142839,0.0792531,-0.0478677,-0.307531,-0.140989,-0.136041,0.470057,0.261659,0.00232679,-0.332108,0.065117,-0.168283,-0.155994,-0.126599,-0.0674924,-0.473744,0
-0.538753,0.0796486,-0.0860726,-0.198803,-0.323581,0.24828,0.0498886,0.0270086,0.381848,-0.21431,-0.0209868,-0.191722,-0.0447561,-0.134951,0.220651,-0.170529,0.110544,-0.000487139,0.0327666,0.400675,0.0208883,-0.0306957,-0.272644,0.218194,0.389282,0.392294,0.200761,-0.186288,0.342784,0.651996,-0.273296,0.452578,0
-0.0298582,0.0327842,-0.093727,-0.568626,0.39742,-0.471229,0.178491,-0.283354,-0.296965,-0.279381,-0.0826154,0.107842,0.212879,-0.302741,0.0753587,-0.219419,-0.0841953,-0.0127437,0.0556564,-0.0657571,0.151306,-0.0641128,0.10389,0.204299,-0.0887404,0.433846,-0.246814,0.329776,-0.125997,-0.1527,-0.307764,-0.00810364,0
0.123891,0.0121461,0.181224,-0.126393,-0.0174528,0.0458024,-0.0733604,-0.175721,-0.075019,-0.276843,0.330515,0.0767893,0.679997,0.138904,0.192973,-0.559972,0.0557492,-0.307006,-0.0759597,0.219335,0.0283276,-0.485668,-0.318059,-0.187415,0.127677,-0.396011,-0.00421783,-0.180817,-0.109316,0.061496,0.0850244,0.123291,0
0.0172811,0.450967,-0.0582031,-0.00704369,0.0427866,-0.183283,-0.258518,-0.190524,0.0839014,-0.344409,-0.391952,0.3955,-0.127864,0.187155,0.449184,0.0976592,0.22748,0.382575,-0.196618,0.121277,-0.125899,-0.644359,-0.0653291,0.357305,0.39019,0.287787,-0.130025,-0.239904,0.311973,-0.568006,0.402125,0.328395,0
-0.268316,-0.0654763,0.367485,-0.274684,0.0927181,-0.528911,-0.336443,0.0441023,0.418857,0.302652,-0.0877726,0.312054,0.50858,-0.571962,0.355237,0.0890427,0.238995,-0.176219,-0.154954,-0.0861161,0.139496,-0.431346,-0.3628,0.251816,0.0533354,0.221883,0.250145,-0.579889,-0.197658,-0.0784514,0.259984,-0.152007,0
-0.0328414,0.247307,-0.0781538,0.593141,0.0368639,-0.217294,-0.148711,0.177824,0.144905,0.321821,-0.155584,0.0333056,0.154045,0.456528,0.0519459,0.25449,0.0155171,0.133896,-0.460763,0.160239,0.398481,0.303281,-0.0486084,-0.588722,0.261186,0.119583,-0.301682,0.281182,-0.154264,0.220979,0.130873,0.230132,0
-0.0350378,0.265579,-0.273943,0.0212815,-0.203019,-0.101404,-0.179162,0.131766,0.134325,0.332634,0.062012,0.0881971,-0.130466,0.134898,0.0275236,0.136707,0.341027,0.341921,-0.0425923,0.0816967,0.207757,0.611983,0.137243,0.512646,0.25729,-0.0666405,-0.556103,-0.508752,-0.232599,-0.126174,-0.144496,-0.1448,0
-0.434648,-0.591882,0.147006,-0.0971868,-0.0336508,-0.0208185,-0.0680475,-0.0333702,-0.0654414,-0.0233548,0.106653,-0.178183,0.141114,0.0358573,0.277544,0.149026,-0.229669,-0.422562,-0.00467443,-0.0327605,0.135109,0.116675,0.334448,-0.131838,-0.011762,0.0078277,-0.278065,-0.326352,-0.309795,-0.256952,-0.172546,0.00737839,0
0.178981,0.0451743,-0.00843103,0.0959118,-0.238065,0.0394618,-0.0184278,0.481036,-0.0969243,0.548162,0.0714466,0.0371156,0.110668,-0.296502,-0.0486515,0.0377764,0.0957595,0.157818,0.0621958,0.422588,0.380371,0.148419,0.19885,-0.26255,-0.0751679,0.506218,0.428245,0.234384,0.426447,-0.179152,0.355093,-0.227832,0
-0.109226,-0.123221,-0.323725,-0.296983,-0.0114521,-0.140818,0.0644911,-0.125569,-0.392439,-0.262078,-0.325547,-0.338928,0.164921,-0.162693,0.23686,-0.406814,-0.0186187,0.15038,0.105831,-0.0271539,-0.119044,-0.390029,0.278072,0.0175607,-0.206619,0.228269,0.135323,-0.071162,0.127843,0.269039,0.113542,-0.0637133,0
0.146155,-0.0334729,-0.254264,-0.256801,0.00610778,-0.0165044,-0.153801,0.13293,0.0276174,-0.230615,0.0639644,-0.245973,-0.555937,0.493786,-0.424017,0.025945,-0.0901287,-0.105227,-0.208816,0.139656,-0.133534,-0.0738024,0.163806,-0.092114,-0.101293,0.0747549,0.271118,-0.0176278,0.365974,0.0010419,0.0242278,-0.0995177,0
-0.0073804,0.0673926,0.261068,0.263705,-0.117152,0.00137456,0.0615319,-0.0918422,0.26276,0.219572,0.107367,-0.189925,-0.21633,-0.0497675,-0.0188107,0.194532,-0.0440806,-0.510908,-0.00670345,-0.476832,0.127763,-0.362456,0.324996,0.0965772,0.263489,-0.276661,-0.263858,0.103585,-0.256335,-0.179549,-0.0740614,-0.414591,0
0.468437,-0.0156991,-0.149259,0.0824716,-0.430526,-0.371113,-0.167447,-0.0214477,0.175614,-0.116433,-0.075343,0.318821,-0.437305,0.00347233,0.149232,-0.296435,0.336885,0.0428151,-0.105727,0.426584,-0.261665,-0.030228,-0.0265042,0.0840057,0.272619,0.239764,-0.180976,-0.0578578,-0.12311,0.283641,0.13531,0.0652103,0
-0.067428,-0.0778793,0.324,-0.0354089,0.125955,-0.228646,0.388522,0.0990884,-0.142309,-0.13409,0.147511,0.191609,-0.0867016,0.0284846,0.298397,0.214873,0.330988,-0.00390558,0.240972,-0.265604,0.192626,-0.528737,-0.0580197,-0.0465313,-0.0688013,-0.210364,0.318822,-0.253329,-0.00117255,0.0524501,0.0263482,-0.1466,0
-0.207339,0.0292425,-0.489648,-0.0852189,7.29637e-05,-0.448853,-0.459332,-0.0206254,-0.268305,-0.18524,-0.424189,-0.0177484,-0.0229556,-0.0839545,-0.270293,-0.275547,-0.127097,-0.154927,0.147652,0.163988,0.103331,-0.196392,-0.00875551,0.229869,0.00977319,-0.172271,-0.236683,0.323553,0.217229,0.0207547,-0.0958324,0.232101,0
-0.295809,0.240924,0.115357,0.204969,-0.0672889,0.0765801,0.0846204,-0.414426,0.541841,0.0627396,0.0422429,-0.024958,-0.00424089,-0.127361,-0.312648,0.348601,-0.202612,-0.206167,0.195737,-0.177276,0.114501,0.243578,-0.0205447,-0.0233889,-0.118375,0.360565,-0.16179,0.14359,0.384151,-0.183142,0.102188,-0.0506308,0
-0.129561,-0.206102,-0.287419,-0.521528,-0.124944,0.216057,0.194004,-0.426893,0.0294048,-0.264782,-0.0185568,-0.200617,-0.0653195,-0.0981755,0.032516,0.211827,-0.0611988,0.0738457,-0.51101,-0.0816124,0.0460583,-0.0922268,-0.348026,-0.016878,-0.10249,-0.0255003,0.0508479,-0.302254,-0.0589745,0.289113,0.184894,0.168403,0
0.0138589,-0.262998,-0.174496,0.575548,-0.138823,-0.343185,0.0122371,0.371494,-0.318266,0.0649099,-0.0281845,-0.0774229,-0.0140611,-0.110966,-0.176774,0.293404,0.164211,0.241379,0.225434,-0.183548,-0.112184,0.167888,0.167332,0.184751,0.128021,-0.415438,-0.0405786,-0.0995714,-0.20344,0.0116243,0.49736,-0.121445,0
-0.0909596,-0.301621,-0.460373,0.139729,-0.00213531,0.206308,-0.104507,0.00954894,-0.0361939,0.450514,-0.17071,0.051724,0.0679969,0.0629284,0.144059,0.172564,-0.0118282,0.25097,0.0593601,0.128405,-0.0109541,-0.0453916,-0.0785255,0.371696,0.412302,0.226794,0.0315411,0.0834226,0.0282533,-0.275665,0.0875967,0.172827,0
-0.153503,-0.0834423,-0.0340551,0.117032,-0.034512,0.0404626,0.0233918,0.496477,0.254179,0.215707,0.133095,-0.355371,-0.0421629,-0.284976,0.117695,0.0420773,0.112444,0.0935343,-0.0781484,0.201316,-0.123647,-0.306869,0.575419,-0.0395356,0.184236,-0.109519,-0.0654515,-0.052106,-0.113182,0.0363913,0.403415,0.12636,0
0.220847,-0.601987,-0.323618,0.0299302,-0.268629,0.0213086,-0.166176,0.523387,0.4923,0.0433004,0.190154,0.229808,0.325191,-0.270996,0.586715,0.0729775,0.194229,0.0173829,0.150194,0.0926388,-0.420418,-0.229464,-0.0675969,0.0993199,-0.241444,0.0970104,-0.124213,-0.338033,0.108985,-0.00661836,-0.258319,0.487568,0
-0.45803,-0.211137,0.0761303,0.0906138,-0.0660135,-0.0168291,0.0325909,0.162269,0.145846,0.773942,-0.216851,0.388127,0.129337,0.229649,0.374781,-0.202729,0.25251,0.616706,-0.427456,0.264429,-0.570457,-0.417861,-0.111829,0.109825,0.106489,0.0289066,-0.409253,-0.00912607,-0.115655,-0.24398,-0.0970898,-0.0507166,0
-0.361876,-0.0873944,-0.311006,0.030742,-0.119216,0.142708,-0.0587112,0.233264,-0.200752,-0.382473,-0.388377,0.1561,0.125998,0.207816,0.264269,0.0361298,-0.31567,-0.134699,0.252247,0.00365059,0.147709,0.0650391,0.0656748,0.10996,0.0909861,0.271255,0.450013,-0.729493,-0.00136876,0.0791141,0.0484596,-0.403325,0
-0.163866,-0.194187,0.403179,-0.258829,0.410931,-0.40521,0.26703,-0.0766538,0.372652,0.0316866,0.0217707,0.166649,0.428701,-0.0589093,-0.241602,0.149394,-0.156935,-0.61531,0.000384372,-0.0307402,0.18069,-0.129401,-0.0217267,0.0015936,-0.311232,-0.161324,0.196359,0.146315,0.0153576,0.181767,-0.403222,-0.246502,0
-0.23973,-0.0843782,-0.0822047,-0.0751928,-0.379882,-0.228862,0.710306,0.284799,0.429199,-0.0367744,-0.0477583,-0.240861,-0.00293259,0.178894,-0.0597066,-0.155654,-0.315739,-0.396663,0.0653302,-0.185763,0.123852,-0.179572,-0.575652,-0.38567,0.276874,0.359625,-0.389396,0.427804,-0.122767,0.285403,-0.20874,-0.242108,0
-0.126884,0.26517,0.317784,-0.223192,0.108984,-0.238117,-0.299663,0.590359,0.271448,-0.133178,0.422683,-0.176262,-0.142258,-0.187001,0.0073828,-0.0942211,-0.249456,-0.0424845,-0.168328,0.69403,-0.00239155,0.152367,-0.0431052,-0.0263723,-0.243723,-0.317648,0.0769979,-0.121616,-0.120504,0.381772,-0.237295,-0.0192131,0
-0.474905,0.192669,0.146302,0.045491,0.116101,-0.0825154,0.234483,-0.0951705,-0.246273,0.0227446,-0.231905,0.0967023,0.00232731,-0.177268,-0.66101,-0.0229699,-0.0883685,0.136305,0.144939,-0.120534,-0.0429055,0.168046,0.143479,0.543258,-0.0510853,0.316761,0.0283018,0.344546,0.210059,-0.288759,0.112788,0.393935,0
-0.512238,-0.233702,0.571802,0.259332,-0.0219531,-0.158139,0.109852,0.259435,-0.0915454,0.43237,-0.305181,-0.479521,0.275853,0.0447459,0.177404,0.187657,0.315274,-0.240527,-0.38919,0.366943,-0.194726,0.0986995,-0.00818437,0.263998,0.242343,-0.278147,0.126893,-0.138577,-0.162483,-0.265158,0.218322,0.10097,0
0.0184597,-0.490403,0.290846,-0.0523681,-0.161441,0.308792,0.0113305,-0.271363,0.468556,-0.0194023,-0.451769,0.330196,0.139436,0.186733,0.0947019,0.451489,0.0496778,-0.183584,-0.0577012,-0.148415,-0.292168,0.100216,0.477713,0.156481,0.0642875,-0.309173,0.181604,-0.225245,0.138824,0.459429,0.37083,0.0785189,0
0.0105809,-0.179037,-0.0145176,-0.239362,0.0433996,0.0321383,0.179069,0.242446,0.186482,0.00769721,-0.217096,0.31481,-0.124625,-0.691815,0.0235935,0.0381059,0.161679,-0.123853,-0.447316,-0.025129,-0.422862,0.348712,-0.210479,-0.0588521,0.29697,-0.205833,0.021866,0.259756,0.237664,0.102666,-0.0496595,0.0621223,0
0.411073,0.112061,-0.196821,-0.396111,-0.116084,-0.112485,0.34122,0.309611,0.0410678,-0.0587641,-0.16708,0.26124,-0.508223,0.295331,0.220454,0.71634,-0.010277,0.0182079,-0.101657,-0.284185,-0.455623,0.125947,-0.0383546,0.113657,0.294713,0.481721,-0.0505688,-0.167502,-0.306704,-0.383962,0.45704,0.202922,0
-0.270673,-0.391666,-0.120469,0.0562296,-0.0838766,-0.104923,0.295822,-0.0894354,-0.163558,-0.51716,0.176471,-0.392492,0.408368,0.0937825,-0.444157,0.0400899,-0.122767,-0.283323,-0.274535,0.211405,-0.0847824,0.232802,-0.122586,0.0676068,-0.0495311,-0.100276,0.178803,-0.0531012,-0.0284447,0.0532322,0.0905682,-0.307362,0
0.333958,-0.0846476,0.546615,0.21772,0.446012,-0.381661,0.061155,0.109414,0.0457612,0.214647,0.732316,0.263527,0.431745,-0.41049,0.0714245,-0.321233,-0.078148,-0.245105,-0.0466911,-0.0215653,-0.396226,0.0751059,-0.137414,-0.105033,-0.183546,0.130246,0.225547,0.506992,-0.72418,0.0664984,-0.308641,0.303695,0
0.352579,0.108134,0.136161,-0.302115,-0.521003,0.103335,0.0349501,0.263153,-0.222545,0.058683,0.113215,0.271019,0.446319,0.0476929,-0.248416,-0.417774,0.0937023,0.161923,0.413604,0.258943,-0.52387,-0.0778581,-0.344853,-0.257416,-0.125484,0.298595,0.0907566,-0.0207305,-0.499129,0.0718898,-0.27415,0.183092,0
0.0261444,0.0600479,-0.0738377,0.171003,-0.370853,0.36855,0.165768,0.0804692,-0.181313,-0.325218,0.360589,0.0277595,0.14562,0.341317,0.127549,-0.72377,-0.230034,0.0908001,-0.27206,-0.215834,-0.301327,-0.273654,-0.00492421,-0.122246,0.255709,-0.11231,-0.295677,-0.0936575,0.0424882,0.00682274,0.0941545,0.432781,0
0.105076,-0.453555,0.309623,0.0541476,0.0350219,-0.121322,-0.0430102,0.141312,-0.0229046,0.0347186,-0.378775,0.157997,-0.225742,-0.177528,-0.154385,-0.199457,-0.149647,0.051357,0.707897,-0.382089,-0.0629671,0.120377,0.322775,0.221165,-0.140764,0.490782,0.166449,0.123805,-0.501339,0.19623,-0.160001,0.611673,0
-0.128985,-0.558999,0.045541,0.189763,-0.2689,0.210777,-0.700734,0.110169,-0.0972701,0.0399598,0.14,0.13671,-0.124209,-0.0704276,-0.00916578,0.325402,0.426261,-0.102766,-0.15754,0.0574736,0.157903,0.627645,-0.370743,-0.0957959,-0.221005,0.23635,-0.422042,0.476192,-0.124475,-0.178395,0.377786,-0.0519796,0
0.109466,0.168841,0.321842,-0.015361,0.0172899,-0.109263,0.165905,0.171884,-0.176178,-0.260913,0.0891412,0.039645,-0.151193,0.23735,-0.314903,0.154027,-0.0944798,0.415967,-0.250349,-0.0955482,0.374625,-0.0157994,-0.205915,-0.0151934,0.0711426,-0.348472,0.0460709,-0.214047,0.0536959,-0.399285,-0.0432614,0.182789,0
0.366561,0.333464,-0.396086,-0.60305,-0.0756259,0.269425,0.0522287,-0.0480766,-0.222986,-0.0350612,-0.287901,0.575992,0.0345863,0.208989,0.369731,-0.218837,0.395125,-0.160249,0.305648,0.0541832,-0.0882456,-0.0733063,-0.129859,-0.311611,-0.504671,-0.140358,0.0575533,-0.0358138,0.0554103,-0.450371,0.0907162,-0.266304,0
0.536991,0.237949,-0.00219468,0.124642,-0.0995707,0.0441751,0.240298,0.673391,-0.131999,0.445139,0.0168312,0.347608,0.182862,0.175608,-0.0865501,-0.116567,0.237415,0.0642878,-0.167286,-0.203312,0.358835,-0.461718,-0.0607254,0.0338047,-0.0280544,0.310971,0.0737029,0.266923,0.102299,-0.457469,-0.184039,-0.179158,0
0.430861,-0.497097,0.112746,-0.0396893,-0.156651,-0.372136,-0.154014,-0.0892412,0.240603,0.0884606,-0.554612,0.483148,-0.128573,0.0528714,-0.0331954,0.383676,0.127949,0.078555,0.0688191,0.29716,-0.0616034,-0.442891,-0.356715,0.54772,-0.335414,0.393217,0.279415,-0.385892,0.427543,-0.151009,0.0286339,-0.202225,0
0.0399864,0.512349,0.428839,0.135519,-0.215544,0.331911,-0.0487275,-0.0460626,0.189477,0.0212357,0.0877911,-0.358383,-0.339686,-0.0319382,-0.102271,0.343488,-0.147843,0.228016,0.103209,0.0817784,-0.0801298,0.0952551,-0.0751407,-0.00592346,0.182694,0.229815,-0.458,0.186878,0.151179,-0.0256087,-0.0172555,0.0415479,0
-0.049718,0.246519,0.434701,-0.0428822,-0.26794,-0.0748713,-0.38586,0.302751,-0.26921,-0.519587,0.0179392,0.219034,0.0277873,-0.107216,0.205739,0.245263,-0.268246,-0.24866,0.527012,-0.0920423,0.0379115,-0.252338,-0.179675,0.301202,-0.193134,0.172464,-0.275346,-0.424692,0.634268,0.319909,-0.0790727,-0.163975,0
0.350414,-0.185358,0.30599,-0.0174186,0.541805,-0.0144736,0.0056534,0.083773,0.0203967,0.662091,-0.0712128,-0.0239075,-0.292614,-0.0305019,0.358428,0.14875,-0.156031,-0.00166258,0.206769,-0.232509,0.218064,0.0248586,0.028933,0.441082,-0.202838,-0.0739856,0.176048,0.01637,0.216013,0.141173,0.280721,0.581401,0
-0.111584,-0.0616988,0.188514,0.199179,-0.0193071,0.205613,0.0520316,0.113963,0.297114,0.0228001,0.036599,0.200863,-0.166068,-0.122946,-0.131417,-0.0855535,0.136856,0.124164,-0.0752822,-0.388051,-0.130591,-0.0296102,0.0979151,-0.18868,-0.104943,0.0796658,-0.0129406,0.118428,0.047352,-0.173748,-0.186792,0.109375,0
0.134711,-0.00808268,-0.394498,0.286378,-0.173488,0.14067,-0.209001,-0.199819,0.0588732,0.210361,0.0537756,0.264117,-0.00860777,0.45435,0.191245,-0.0987424,-0.0170095,0.0213024,0.024823,-0.204526,-0.522423,-0.190648,-0.0902725,-0.0472174,0.16748,-0.0412146,0.274148,0.205896,-0.0320523,0.547168,-0.14608,0.0341548,0
0.525541,0.0295373,0.0343945,0.175186,0.0165086,-0.2229,-0.180939,-0.228687,0.259392,0.234805,0.327046,-0.0900793,-0.457608,-0.140875,0.107062,-0.189005,0.151551,-0.357828,0.244572,0.0196946,0.297701,0.119836,0.355608,-0.148706,0.154663,-0.0552478,-0.0880662,-0.268853,0.456461,-0.196698,-0.225126,-0.0668643,0
0.0569397,-0.396568,-0.0614543,-0.140409,-0.00424395,-0.0198341,0.133051,-0.117234,-0.159883,0.198927,0.122368,-0.410106,0.192294,0.187353,-0.0849596,0.481586,-0.0653258,-0.00396094,0.0396831,0.234707,-0.0560964,-0.187143,-0.254017,0.111901,-0.489653,0.0776176,-0.18262,0.447448,-0.148517,-0.0978394,-0.145677,-0.180308,0
0.0248401,0.00333043,-0.500905,-0.325224,-0.226143,-0.138916,-0.349922,0.0316017,-0.138072,0.0960359,-0.517756,-0.366264,0.110991,0.00721083,0.224511,0.183878,-0.0597318,0.210268,0.00730257,0.163385,0.253802,0.310436,0.292754,0.267017,-0.330167,0.115642,-0.229991,-0.130828,0.287455,0.219739,-0.549214,-0.140435,0
-0.519712,-0.130473,0.0475991,-0.467242,0.0484945,0.381935,0.635273,0.0129084,0.285007,-0.292539,-0.540797,-0.119856,0.146652,0.353113,-0.060439,0.379289,-0.164847,-0.455504,-0.343345,-0.398994,0.0505169,-0.0913041,-0.15341,-0.00897989,0.0694495,-0.520443,-0.588147,-0.294691,-0.0171429,-0.0494154,0.00495337,0.0190879,0
-0.401801,-0.145175,0.0436787,0.504062,0.376891,0.236118,-0.0575442,-0.136125,-0.290401,0.00843235,0.0251646,0.148893,0.462825,-0.697589,0.0879516,-0.021465,0.223808,0.0108355,0.112126,0.113151,-0.25993,0.287567,-0.150599,-0.161555,-0.343451,0.0958318,0.140673,0.364429,-0.00939284,0.0818898,0.10267,0.0587627,0
-0.579268,0.309824,0.209693,-0.0195368,0.391611,0.0194812,-0.624279,-0.289219,-0.0431044,0.363528,0.546261,0.168221,-0.332822,-0.182275,0.214289,-0.238168,0.112477,0.0875876,-0.0639074,-0.034994,-0.470535,-0.0324796,0.0922589,0.187176,0.013944,0.0712758,-0.425628,-0.0285791,0.184822,0.0685874,-0.0909664,-0.169679,0
-0.00924914,-0.208807,0.135668,0.425422,0.186626,-0.203605,0.135189,0.339206,-0.453093,0.19884,-0.0626726,-0.203813,0.114254,-0.000459799,-0.11972,0.0585379,0.115528,-0.403833,0.2072,0.211507,-0.0721821,-0.233906,-0.121263,0.0729588,-0.272726,0.320512,0.199483,0.170126,-0.443765,0.123682,0.198809,-0.370434,0
0.556932,0.372925,0.172855,-0.18063,-0.237724,0.165027,-0.169113,-0.203308,0.333351,0.520839,0.357707,-0.313232,-0.24462,-0.119891,0.067708,-0.375232,-0.268303,0.0952485,0.110721,0.0616206,0.0269156,0.0378109,0.061009,-0.200117,-0.166438,0.461744,-0.237668,-0.0545279,0.241045,-0.255803,-0.13132,0.130825,0
0.113962,-0.0899347,-0.122894,-0.0340742,-0.150151,-0.197982,0.52771,0.548372,0.235029,-0.105577,-0.0834274,-0.2185,-0.166333,-0.345446,-0.2679,0.0338927,-0.0433003,0.469359,0.0373958,-0.0256618,0.401872,-0.0527998,0.333748,-0.484999,-0.0165613,-0.0210031,0.123291,-0.279515,-0.0360173,0.00863866,-0.00630821,0.188259,0
-0.545707,-0.243675,0.234874,0.0736401,0.152998,0.0103782,0.137259,0.264841,0.0146,0.27013,0.291217,-0.147369,0.247653,-0.167317,0.315051,-0.607134,0.278322,-0.161956,-0.185391,-0.126985,-0.250986,-0.594472,-0.0632618,0.036836,0.0622563,0.270844,-0.011256,0.153185,0.110413,-0.105624,0.122638,0.106834,0
-0.195641,0.0737517,-0.0634608,-0.151762,0.0837806,0.250742,0.209812,-0.068215,-0.0890031,-0.0158253,0.071893,0.479109,0.215162,0.0936258,-0.00363786,0.289792,0.0498446,-0.100647,0.243844,0.0145361,0.0969804,-0.358265,-0.0151704,-0.102908,0.0143679,0.0255988,-0.331763,0.0317815,0.0704333,0.517492,0.369512,0.395786,0
0.187748,0.0742185,-0.147282,0.0325248,0.180213,-0.246885,-0.269533,-0.0818095,0.517753,-0.152476,0.0310211,-0.116086,0.0774373,0.151565,0.354096,-0.336249,0.0852746,0.343824,-0.216437,0.215222,-0.295509,-0.105698,-0.376654,-0.100968,0.0248432,0.120527,-0.644375,-0.144159,0.0079785,-0.197087,-0.290606,-0.229264,0
-0.109772,-0.0787591,0.0209329,-0.228293,0.126283,-0.300302,-0.088614,-0.0537129,-0.383622,-0.227195,-0.22579,-0.851572,-0.510684,0.253262,-0.143075,-0.265697,0.094059,-0.123566,0.15699,-0.0918698,-0.164204,-0.044624,0.443168,-0.298981,0.053626,0.112888,-0.105552,-0.146968,0.0790146,-0.491063,-0.42113,-0.354095,0
0.214046,-0.245128,0.091244,-0.236882,-0.0670842,0.0326411,0.203344,-0.197168,0.0497537,-0.121969,0.0109895,-0.141983,-0.330291,0.0671769,-0.110311,0.406777,0.021607,0.0342221,0.153629,0.291204,0.207798,0.275748,0.343041,-0.405767,-0.0313943,-0.273248,-0.437169,-0.235812,-0.146692,0.100506,-0.345225,0.00545407,0
0.0113092,0.166638,0.213068,-0.21784,0.21187,0.31228,-0.300275,0.149717,-0.0275689,-0.39703,-0.220173,0.15347,-0.157197,-0.19419,0.161341,-0.423587,-0.362698,0.121017,0.0640715,-0.263521,-0.22494,0.51369,-0.396713,-0.0938398,0.467036,-0.0405188,-0.125955,-0.343261,0.0936352,-0.133766,0.457922,-0.0705664,0
-0.366856,-0.444502,0.152514,-0.202328,-0.0405776,0.0798907,0.12613,0.119386,-0.110743,-0.119264,-0.435859,-0.11013,-0.173791,0.154501,0.267771,0.240068,-0.637656,0.122028,0.216383,-0.232006,0.0930992,0.181841,0.112083,0.135467,0.0817841,0.076812,-0.309039,-0.202875,0.00462139,0.22274,-0.0119315,0.0266293,0
0.395047,-0.315361,0.0595522,-0.00453019,-0.158837,-0.144605,-0.234005,0.152194,0.257173,0.26586,0.224051,-0.0183701,-0.0509106,0.0304735,-0.0167005,-0.0903437,-0.212707,0.410673,-0.193973,-0.0810401,0.331674,0.149135,0.347329,0.225268,-0.185312,0.653685,-0.485663,-0.00676907,-0.180805,-0.384116,-0.362593,0.212456,0
0.187717,-0.37106,-0.338209,-0.0308418,-0.0387483,0.305853,0.0234074,0.116332,-0.357594,0.130982,0.476787,0.0313962,0.391072,0.305407,0.555197,-0.0107359,0.197455,-0.351223,-0.081608,0.309533,-0.31562,-0.0929629,-0.037025,0.926273,-0.312442,-0.152997,-0.296386,-0.392656,0.16689,-0.249154,0.172254,0.0805327,0
-0.119453,-0.0751577,0.407617,0.0171133,-0.151597,-0.0374787,0.0115179,-0.42286,-0.0647115,0.196077,-0.215286,-0.143223,0.320068,0.265266,0.105138,0.491705,-0.230204,-0.201997,0.333667,-0.0925234,0.558787,-0.124516,-0.216678,-0.324404,-0.143625,-0.0355418,-0.405007,-0.113963,0.142444,0.0118695,0.119135,-0.367233,0
-0.0883649,-0.0545674,-0.280475,-0.0934162,-0.267045,0.12598,-0.419095,-0.130502,-0.167281,-0.336783,-0.0790278,-0.0635682,0.0430266,-0.126192,-0.102105,-0.260952,0.145164,-0.11132,-0.189797,-0.0568326,0.382964,0.06502,0.0279359,-0.164793,-0.0302767,0.0719008,0.0756329,-0.205749,0.455842,-0.21767,0.400845,0.193434,0
-0.190477,0.167668,0.198586,-0.279293,0.0142069,0.256065,-0.0301837,0.812964,0.00640993,-0.0171025,-0.590691,0.256306,0.317267,0.306695,0.151645,0.00679057,0.237905,0.518151,0.487388,-0.0107214,-0.136922,0.0150957,-0.126578,-0.0703226,0.34651,0.125021,-0.473091,-0.302469,-0.139149,0.201459,0.279838,0.0880319,0
-0.249751,-0.0789293,-0.0420428,-0.320222,-0.0306491,-0.397413,-0.108389,0.191704,-0.0694346,0.0804829,0.0628817,-0.0769007,-0.303671,-0.420409,0.485594,-0.0344718,-0.397354,-0.287076,-0.102511,-0.43314,0.159956,0.164393,-0.107847,0.0532489,-0.230997,-0.186642,-0.0963604,0.338614,0.0987335,0.130444,0.0485423,0.398094,0
0.0252622,-0.37061,0.718042,-0.223027,0.310637,-0.171572,0.164784,0.170592,0.240116,-0.136741,-0.292245,-0.204132,-0.308253,-0.51569,0.222474,-0.200412,-0.203574,0.0706745,-0.310345,-0.173116,0.235765,0.0245038,-0.280307,-0.18743,0.219194,0.0113274,-0.164077,-0.210384,-0.0900067,0.295464,-0.0597197,0.163972,0
-0.57759,0.279748,0.152854,0.0403731,0.251073,0.151522,0.597623,0.0763626,-0.272043,0.27162,-0.0549395,0.258718,0.468431,0.312,-0.486132,-0.138659,-0.370331,-0.250265,-0.0756434,0.171952,0.089923,-0.185887,0.205826,0.235864,-0.130425,-0.142479,-0.339786,-0.0432736,-0.215299,-0.0298609,0.159539,0.0395456,0
0.234915,-0.0552697,-0.202018,0.0370374,-0.145204,-0.0993181,0.395608,0.0833701,0.899739,0.0335746,-0.203606,-0.33256,0.0231014,0.100006,-0.0735449,0.3212,-0.129072,0.0337481,0.0136445,-0.223943,-0.341456,0.106773,-0.0196606,0.182786,0.226614,0.049029,-0.391573,0.219947,0.400133,0.0315395,0.162857,0.636777,0
0.230314,0.0622632,0.420874,0.606302,0.0668125,-0.159875,0.199457,-0.0314806,0.269136,-0.217335,0.368071,-0.223306,0.216819,0.100654,-0.0242873,-0.164094,0.519605,-0.174888,0.0420777,0.33146,0.0845781,0.150486,0.340122,-0.303501,0.0165882,0.0496869,-0.570751,0.308108,0.154529,-0.110384,-0.30512,-0.465391,0
-0.0188661,-0.105814,-0.033954,-0.0317273,0.197282,-0.247101,0.311122,0.276286,0.245419,-0.187788,0.312175,0.0866138,-0.136543,-0.380201,-0.0924987,-0.200581,0.109522,0.196399,-0.34801,0.0740957,0.0137526,0.120335,-0.208687,-0.271671,0.151748,0.529096,-0.264818,-0.12254,0.113036,-0.27333,-0.0677392,-0.24105,0
0.117692,0.0438999,-0.0539555,-0.0185453,0.102892,0.061402,0.0820093,0.205663,-0.0174764,-0.309164,0.197586,-0.348423,0.0827497,0.081861,0.115105,0.0801023,-0.425072,-0.119403,0.0653194,-0.108041,-0.25265,-0.15579,-0.183164,-0.382582,0.297664,-0.241908,-0.0875442,0.213304,0.293254,-0.0402618,0.037086,-0.363962,0
-0.143239,0.120785,-0.0446672,-0.25082,0.199534,-0.0937411,0.0135771,-0.579475,0.0925436,-0.0603929,0.503371,0.189397,0.0378554,-0.0574596,-0.273015,-0.118193,-0.277646,0.295454,0.260905,-0.233465,-0.171038,-0.0994235,0.00172522,-0.0276398,-0.162472,0.4621,0.169986,-0.142213,0.395496,0.106132,-0.0515138,0.294954,0
0.251497,-0.124049,0.0779565,0.206693,0.184876,0.178929,0.198138,0.0366867,-0.0338384,-0.0561796,-0.165127,-0.178074,0.334268,-0.129946,-0.193248,0.0344216,-0.10867,0.124479,-0.0200895,0.0477159,-0.0104574,0.536095,-0.239605,-0.0881352,0.230864,0.186097,-0.243274,0.301026,-0.352104,0.253856,-0.0458257,0.520466,0
-0.316067,-0.105022,-0.00530683,0.194053,0.0652095,-0.37136,0.0415898,-0.0970759,0.0353355,-0.0626741,-0.267059,0.432137,0.0534536,0.412163,-0.421208,-0.0897589,0.127907,0.1516,0.0658204,0.33758,0.29199,0.148353,0.200504,0.102192,0.0689061,-0.139322,-0.655352,-0.317942,0.241078,-0.00855627,-0.294274,-0.137298,0
-0.0161842,0.190602,0.470048,0.00265188,-0.122877,-0.0937179,0.0734241,-0.317227,0.0846988,0.225252,-0.112151,0.136386,-0.381404,0.2953,0.0723537,-0.0401673,0.575034,0.138585,-0.192716,-0.578058,0.258147,0.34925,-0.279112,-0.395329,0.104948,-0.292103,-0.0213755,0.0495719,-0.0543828,-0.153418,-0.251265,-0.12572,0
-0.528226,0.083109,-0.194043,-0.512723,-0.194511,-0.233556,-0.0986182,-0.0455557,0.373187,-0.144945,0.117219,0.235602,0.195513,0.295247,0.0907976,0.106632,-0.0640254,-0.143584,0.0558093,0.0922816,-0.223042,0.645658,-0.260449,0.0709224,0.25392,-0.392336,0.213145,-0.31918,-0.194268,-0.0368307,0.328469,0.457507,0
-0.0942412,0.0965568,-0.0399506,0.373167,0.145793,-0.0197367,0.402473,0.155381,-0.197501,-0.307352,-0.156153,-0.265478,-0.0257255,-0.0545678,-0.213534,-0.0401044,-0.163389,0.0569579,-0.1772,-0.281169,0.0219077,-0.0214733,0.215094,-0.246685,-0.396095,0.185722,0.0506143,0.209585,-0.584963,0.534025,-0.306468,0.224662,0
0.220394,0.213967,0.0215706,0.0351023,0.286889,0.321911,-0.471541,-0.0725128,0.169612,0.12717,0.428703,0.442252,0.165015,0.161168,-0.209747,-0.0730629,-0.0437837,-0.166271,0.27539,-0.346172,-0.290813,0.0455856,0.130697,0.0727949,-0.143849,0.157159,0.146976,-0.111582,-0.184105,-0.0443826,-0.00116552,-0.0179895,0
-0.0951349,0.1242,0.358376,0.000913738,0.0237748,0.0424686,-0.135836,0.225132,0.126083,0.375116,-0.0803479,0.535337,-0.213259,-0.328815,-0.283601,0.19904,0.136029,-0.127159,-0.32265,-0.275724,0.135427,0.116137,0.553333,-0.196258,-0.0403088,-0.107683,-0.0548856,-0.231768,-0.063105,-0.0341149,0.230428,-0.383246,0
-0.035031,0.0258584,0.145763,-0.0512935,0.244942,0.126194,0.115459,0.0231247,-0.339745,-0.108689,-0.472558,-0.0687026,-0.0638379,-0.198826,0.072271,-0.43641,0.139057,-0.028041,0.0597078,-0.235916,0.0933263,0.21391,0.0322628,-0.350703,-0.0565557,-0.0474851,-0.0300605,0.258009,0.0251621,-0.456145,-0.0951082,0.0810511,0
0.214904,-0.346214,-0.567671,0.715445,-0.0320616,-0.0562888,-0.209229,0.288681,-0.340001,0.00895427,0.154961,0.150098,-0.216782,0.123948,0.189817,-0.215385,-0.0794912,-0.409659,-0.17403,0.0481528,-0.401805,-0.168122,-0.0806728,0.0591405,-0.168558,-0.443415,-0.270443,-0.0515159,0.0136934,-0.334442,-0.122805,0.240515,0
-0.304415,-0.176335,0.0152716,0.246593,0.381447,-0.486785,0.369952,0.0111771,0.463567,-0.1404,-0.131408,-0.0660221,-0.416375,0.501485,0.0442779,-0.158112,-0.0819859,0.179938,0.369652,-0.335654,-0.113805,-0.184876,0.192265,0.10797,-0.562911,-0.273601,0.526495,-0.0712061,-0.0412668,-0.293278,0.114855,-0.255135,0
0.360377,-0.0314248,-0.334315,0.0244494,-0.00678908,0.00310404,-0.250611,0.0587312,0.133228,0.0373794,-0.143256,-0.00683421,-0.170411,-0.00788112,0.348646,0.158614,-0.0870796,0.181822,0.328289,-0.212467,-0.15711,-0.0816266,-0.207648,-0.205922,-0.250517,-0.32983,-0.311706,0.288449,-0.16002,-0.388902,-0.258152,-0.221517,0
-0.179233,0.562072,0.311401,0.0481362,-0.475464,-0.364904,-0.133852,-0.120832,0.119178,-0.137789,-0.224777,0.212224,0.257367,0.320696,-0.378713,-0.201642,0.458168,-0.360016,-0.158829,-0.0442227,0.448406,-0.182541,-0.12051,-0.0455933,-0.165117,0.0653554,0.0875269,-0.0399587,0.00426576,-0.0741718,0.0501207,-0.347409,0
0.122201,-0.0580505,0.0420632,-0.0498976,0.105845,-0.0228515,-0.401317,0.125069,-0.0291492,0.32556,-0.0339767,-0.0211943,0.288487,0.0312291,0.380803,0.349354,-0.0211243,-0.00375776,-0.0147138,-0.124142,-0.231226,-0.172769,0.0397653,0.320608,-0.135417,0.00989505,-0.0579036,0.212637,0.0553459,-0.0542929,0.175488,0.131645,0
-0.0651256,-0.420274,-0.34939,-0.372574,-0.0467224,0.141198,-0.284661,-0.298225,0.173025,-0.0392875,0.130049,-0.016859,-0.019609,-0.255772,-0.081533,0.545142,-0.392736,0.0892371,0.188076,0.145119,0.160688,-0.0962092,-0.394135,-0.45384,-0.197104,-0.217332,-0.038717,-0.103053,-0.282265,0.185903,0.236729,0.0370868,0
-0.109301,-0.17614,-0.224117,0.026097,-0.301843,0.359562,0.0277844,0.0880463,-0.515069,0.232653,0.0217847,0.144151,0.261588,-0.210256,-0.555755,0.098732,-0.193145,-0.303929,0.549493,-0.00509605,0.158515,-0.22028,0.0234902,-0.167176,-0.34282,0.236025,0.182989,-0.0606929,-0.263456,-0.106056,-0.033262,-0.279052,0
0.0652984,0.120796,0.368577,-0.20924,0.454776,-0.0448743,0.296203,-0.00336599,0.213452,-0.443947,0.0187067,0.112473,-0.0473491,0.383322,0.0863763,-0.265357,-0.222036,0.23733,0.199235,0.0301736,0.2772,-0.448786,-0.114066,0.203461,0.377601,-0.0465075,0.285364,-0.0933852,-0.0111947,-0.0374454,-0.0769605,0.195719,0
0.149044,0.136274,0.115302,0.374824,-0.287645,-0.0542307,0.280942,0.00281333,0.0727419,0.183393,-0.0780564,-0.100874,-0.334103,0.367818,0.15174,-0.20263,-0.453671,-0.61939,0.169994,-0.0526545,0.364538,-0.1103,0.169114,-0.45128,0.0064642,-0.147202,-0.153637,0.320165,-0.132025,-0.0058675,-0.046105,0.0268113,0
-0.00366991,-0.340399,-0.140034,0.0828624,-0.38457,0.48438,0.016195,-0.153912,-0.123511,0.0668623,-0.0109191,-0.116774,-0.230836,-0.00683675,0.132608,0.122174,-0.196775,-0.813518,-0.257196,0.157467,0.123469,0.197207,-0.357059,0.103673,-0.0767251,0.148351,0.366591,-0.323103,-0.0354234,0.200995,-0.0924768,0.308108,0
-0.0871783,-0.414812,0.716768,0.0801808,-0.131478,-0.352685,0.259028,0.247132,0.0401661,-0.464089,-0.20377,-0.104406,-0.0047699,-0.0675407,0.355187,-0.101469,0.113386,0.494957,0.258186,0.162157,-0.23998,0.183297,-0.0383069,0.183996,0.185621,-0.140267,-0.128212,-0.317605,0.0820382,-0.259104,-0.13581,-0.0576486,0
-0.163412,-0.29988,-0.117541,0.22614,-0.219392,-0.573517,0.237636,-0.350548,0.0347422,-0.359758,-0.0279008,0.125495,0.349223,0.237203,0.0783571,-0.118799,0.0918455,0.419543,0.0263956,-0.0657976,0.177496,-0.351397,-0.193921,-0.417456,-0.29822,-0.0892379,-0.196025,0.139019,-0.130327,0.272619,0.14946,0.0520618,0
0.0544377,-0.14945,-0.143985,-0.180142,-0.237981,0.0439844,0.213552,0.23578,0.207534,-0.125592,0.0021884,-0.578414,-0.0525041,-0.0304012,-0.391424,0.504467,0.206006,-0.297728,-0.211905,0.0413944,-0.0219057,-0.161486,0.320857,-0.0726425,-0.0602207,0.363375,-0.22479,-0.00204095,0.0807796,0.0266577,0.0601591,-0.145529,0
0.163735,-0.291569,0.543707,0.133658,0.0978822,-0.0284325,0.574274,-0.0420819,0.0481355,0.09034,-0.282999,-0.0778467,0.128142,0.45343,-0.244855,-0.0893995,-0.229808,0.321368,-0.458147,0.0557143,-0.127709,-0.166309,0.224768,-0.0368002,0.0427792,-0.121887,-0.102491,0.13544,-0.0778563,0.0612902,-0.17701,0.00505258,0
-0.0113498,-0.200622,-0.0732471,-0.417686,0.300788,0.0398059,0.227065,-0.200017,0.0653687,-0.126029,0.139726,-0.168261,0.231018,-0.0495369,-0.203701,0.149077,0.320591,-0.117334,-0.0792205,-0.141215,0.290726,-0.234681,-0.133295,-0.127657,-0.455507,0.0161654,-0.017688,0.41846,0.170856,-0.206397,-0.0785042,0.0262992,0
0.00757619,-0.0317254,0.0563362,0.0283793,-0.0942164,-0.0549446,0.138723,0.25537,-0.122999,-0.303189,-0.466156,0.102576,-0.0235595,-0.645225,0.176286,-0.208159,0.0694715,-0.218161,-0.252459,-0.105416,-0.10017,-0.204197,0.174746,-0.189176,0.055679,0.204329,0.25086,0.00545898,0.249966,-0.000743286,0.303254,-0.0528653,0
-0.361839,-0.122471,-0.489098,-0.198866,0.385554,-0.0448304,0.206852,0.0374954,-0.260807,-0.426288,-0.11512,-0.0103476,-0.368926,-0.214113,-0.233215,0.502574,-0.225082,-0.143592,-0.410332,-0.427558,-0.157515,0.0500784,0.282262,-0.214457,0.118262,-0.305317,0.518942,-0.181383,-0.0992045,-0.168109,0.360842,0.180796,0
-0.384145,-0.012998,0.00179228,0.34084,-0.142277,-0.0550701,-0.31749,0.0809895,-0.200515,0.155924,0.304114,0.243289,0.290921,-0.125353,0.0121345,-0.305926,0.296969,-0.0780762,-0.0698175,0.109041,0.215934,-0.280535,-0.202243,0.0215541,-0.283783,-0.439456,-0.118231,0.0896779,-0.254708,-0.0215077,-0.048634,0.337211,0
-0.143404,0.169537,0.094508,-0.0774674,0.0172865,-0.0631202,-0.0618617,0.00348809,0.072999,-0.0782606,-0.0600048,-0.0145714,-0.0954374,-0.121716,0.147029,-0.0196908,-0.32583,0.032477,-0.175845,-0.218461,-0.197396,-0.0106908,-0.0526868,-0.0990262,-0.235886,-0.283859,-0.0673453,0.109705,0.0464526,0.302053,-0.0430031,-0.00703422,-0.0727244,-0.0855737,0.0546687,-0.00413515,0.0356121,-0.220654,-0.00756033,-0.0377337,-0.240418,0.0223587,-0.139138,-0.137648,0.0803328,-0.0912746,0.0895139,0.0679322,-6.71473e-05,0.0537584,0.0900943,-0.185821,-0.0185303,-0.174018,-0.147335,0.193057,0.157651,0.188082,0.054718,-0.0239242,0.192167,0.0774917,0.112624,0.0824801,-0.0605461,-0.0214351,-0.162481,0.0800747,0.177153,0.0812376,0.0322187,-0.0499634,-0.0173419,0.149565,0.0372298,-0.0283118,-0.203748,-0.205492,-0.0982369,-0.0625665,0.0254643,0.123523,0.0835651,0.018362,0.127735,0.190626,0.0122507,-0.0209311,0.10801,0.0273422,0.0251624,-0.141869,0.243207,-0.143913,0.0806151,-0.158375,-0.14862,-0.138388,0.0402372,0.180529,-0.111471,0.281412,0.0950955,-0.13509,-0.411659,0.0318166,0.0491166,-0.0583576,0.0446179,0.119425,0.11105,-0.216944,-0.0243071,0.100038,-0.0523809,0.115812,0.0216119,-0.0233859,0.0477059,-0.0989182,-0.0279899,0.176635,0.0558989,0.0913489,0.0930239,0.205804,-0.185889,0.0186606,0
0.330233,0.172174,-0.135462,-0.168287,-0.110556,0.0494971,-0.0647049,-0.0958186,-0.114854,0.165672,0.0729945,9.54138e-05,0.136215,0.0834432,0.107106,0.0574992,0.0999203,-0.0829756,0.201651,-0.0479977,0.130259,-0.23075,0.0914747,-0.243365,-0.0341748,-0.020839,-0.188217,-0.0520392,-0.0401825,0.113096,0.139957,0.265031,-0.229546,-0.108224,-0.103037,0.102481,0.166971,0.149341,-0.0425231,0.0805241,-0.136947,0.0501941,-0.0697884,-0.0604943,-0.0728658,0.237475,-0.00123313,0.0466532,-0.121655,-0.0524663,-0.183306,0.109242,0.0585769,-0.172327,-0.113634,0.00903995,-0.100068,0.159147,-0.11065,0.0122819,0.0141558,-0.0631779,-0.0739249,0.0616959,-0.00727954,-0.313338,-0.111032,0.162014,0.159461,-0.267813,-0.0153619,0.228023,-0.0539053,0.107924,0.0360224,-0.00257873,-0.205638,-0.184195,-0.210464,0.0856701,0.147487,-0.0482382,-0.0494529,0.0465046,0.0522868,-0.118135,0.0850973,0.00031025,-0.0531076,-0.0540372,-0.0706058,0.104617,-0.263064,0.196443,-0.0290469,0.0913359,-0.0563837,0.0591406,-0.174717,0.0145266,-0.159433,-0.067378,-0.0823632,0.081223,-0.136289,0.0808739,0.105161,-0.193887,0.118225,0.0918146,0.285125,0.0752626,0.140457,-0.0742792,-0.0600716,0.159065,0.0888668,0.0642352,0.145649,-0.0441951,0.15502,0.0344141,-0.0550648,-0.0775403,-0.0773488,0.0534828,0.29395,-0.0894786,0
0.0776188,0.0287249,0.143199,-0.261845,-0.0488637,0.111615,-0.0286371,0.10489,0.0467015,-0.0882003,-0.0104734,-0.109542,0.106396,-0.140777,0.0228812,-0.16795,0.0491176,-0.00577935,-0.0284442,0.140022,-0.255262,0.158326,-0.096021,-0.120965,0.0025673,-0.0169238,-0.0412818,0.067044,0.128724,-0.105956,-0.0816606,0.33831,0.0331085,0.0181349,0.0737442,-0.00377263,-0.065957,0.179997,-0.0638904,0.0563246,0.0409882,0.0126179,0.0894374,-0.088753,0.044478,-0.0117841,0.309077,-0.129149,-0.0732262,0.192497,-0.0247595,0.158065,-0.0092182,-0.149988,0.103874,0.0031682,-0.154758,0.148522,0.0325511,0.087249,-0.0514148,0.0827677,-0.0350705,0.128129,0.0858277,0.063309,-0.104465,-0.238383,0.189079,-0.0521411,-0.0840893,0.00160323,0.135237,0.1559,0.031613,0.229481,0.17739,0.0732108,-0.00969674,-0.233548,-0.0221782,0.119267,0.170482,0.272138,-0.185182,0.0922537,-0.0829101,0.098261,0.0190635,-0.171421,0.251798,-0.199781,-0.0300267,-0.189228,-0.0385683,-0.0382373,-0.0948512,-0.0162978,0.120949,0.170597,0.0708952,-0.136556,0.0481131,-0.0149374,0.0679999,-0.0700332,-0.018062,0.081293,0.0448255,0.157932,-0.0444128,-0.174127,-0.154758,0.0020359,-0.1131,-0.164154,0.169902,0.128226,-0.0170331,-0.105099,0.222047,-0.12088,-0.146137,0.0509162,0.0108393,0.188776,0.0729386,0.0821512,0
0.0139767,-0.0416187,0.1398,-0.213546,0.103828,0.211845,-0.0192414,0.102885,-0.00889742,0.375302,-0.104172,0.0416356,0.131127,0.10768,0.240573,-0.0318761,-0.0267667,-0.0518265,0.120036,0.00498072,0.140924,0.225739,0.106705,0.0515384,-0.0887168,0.336942,-0.107154,-0.315957,0.0238936,0.143853,-0.0949154,0.108915,-0.157479,-0.00832564,-0.0870059,-0.260187,-0.0938887,-0.0510588,-0.0377025,-0.069685,-0.283283,-0.0857138,0.0596977,0.0767331,-0.137034,0.100868,-0.0382276,-0.0756251,-0.0329419,0.0186262,-0.125248,0.00252149,-0.0601207,-0.308491,0.162328,0.0657985,-0.100874,0.0984479,-0.0583442,0.0237609,-0.22856,0.0917461,-0.208658,-0.0353131,0.0652788,0.132002,-0.0924069,-0.0860108,-0.204118,0.0520132,0.076272,-0.070251,-0.0181061,0.026351,0.130458,-0.046069,-0.0381372,0.048014,-0.135325,-0.179381,-0.116214,0.00408647,0.0236954,-0.0851923,0.263697,-0.0473268,-0.0408374,-0.199672,0.0839015,0.0718416,-0.0246652,0.172004,-0.0166688,-0.0944272,0.167567,-0.0363886,0.195811,-0.206522,-0.0160181,0.260339,-0.0104648,-0.193183,0.238934,-0.151795,-0.0973378,0.101699,-0.00470796,0.0225756,-0.0820906,-0.179941,0.00672218,0.0924424,0.00818272,-0.234916,-0.12284,-0.112922,-0.0285626,0.0286007,0.0365937,-0.313836,-0.219353,0.18332,-0.110801,-0.0410919,0.0631524,0.0487538,-0.023422,-0.0439119,0
-0.0156436,-0.0385083,0.163146,0.0277104,0.155751,-0.0398551,-0.0772263,-0.0625822,-0.131849,0.0664074,0.0989403,0.0545628,0.0354516,-3.49364e-06,-0.146958,-0.0516263,-0.151917,0.126958,0.239548,-0.179746,-0.259376,0.053652,-0.00208296,-0.011959,0.0522997,-0.0359248,0.0939067,-0.172934,-0.0980273,-0.0845538,0.130413,0.159988,0.0191884,0.118827,-0.0338995,-0.197994,-0.185849,-0.0992432,-0.0515641,0.247863,-0.0388394,-0.274259,0.122156,0.102423,-0.127459,-0.0197037,-0.14712,-0.00103626,0.200614,0.119426,-0.106445,-0.00663933,0.155431,-0.0999931,0.198648,0.00239485,-0.0482919,0.174221,0.0647191,-0.0567151,-0.197101,-0.136943,0.093025,-0.0462758,0.04401,0.0544454,-0.00774116,0.14151,-0.113157,-0.213473,6.73544e-05,-0.0307623,-0.0404982,0.18985,-0.0208312,0.392481,0.00848555,0.155035,0.162673,0.206819,0.000341953,0.047526,-0.0777673,-0.119701,0.0323679,-0.00107274,0.163485,0.0307476,-0.0314076,0.0514602,0.379297,0.0694584,0.00605416,0.145963,0.0234914,0.261962,-0.0346049,0.161377,0.0559979,0.00895601,-0.236945,-0.145174,-0.134996,-0.0219012,-0.196876,-0.124858,-0.0884042,-0.153869,-0.0577233,0.0825293,0.0333217,-0.0354876,0.166251,0.137633,-0.0359524,-0.1168,0.0145273,-0.0868751,-0.0215628,-0.0614107,0.0742708,0.0511673,0.024909,-0.0229207,-0.0568404,-0.159311,0.156931,0.0918995,0
0.217545,-0.12352,-0.0798094,-0.221774,-0.0474749,-0.27881,0.16115,-0.0848266,-0.0930711,0.0705524,0.267434,-0.106915,-0.0446761,0.107556,-0.0564439,-0.00663168,0.111929,0.191305,-0.0393044,-0.0936334,-0.0890847,-0.165081,0.344245,0.0420365,-0.207643,0.0882342,-0.0272284,-0.0609454,0.197538,-0.0156334,-0.0849999,-0.11404,0.0384581,0.131577,-0.340836,-0.108642,0.0879398,-0.0220069,0.00869537,0.140427,0.0208364,-0.000614923,0.205781,-0.144013,0.0360905,-0.032193,0.166013,-0.170038,-0.196355,0.0318646,0.0713492,-0.0711579,0.048077,0.120508,-0.277685,0.00545259,0.168236,0.0963182,0.130114,0.0394528,-0.120171,-0.0806758,-0.26585,-0.00677411,0.0335794,-0.139356,-0.00129855,-0.0319581,-0.101724,0.0349969,-0.052362,-0.0856536,-0.0246265,-0.129731,0.0637514,-0.046016,0.0191408,0.107475,-0.0964249,0.0140357,0.16083,-0.0238486,0.00726205,-0.0513063,-0.182491,-0.0396266,0.0705512,-0.116235,0.395758,-0.0677106,0.0491656,-0.0823378,-0.167782,0.00803647,-0.0406483,0.203187,-0.00331871,0.0102603,-0.196702,-0.0899187,-0.248285,0.173581,0.00593523,-0.0250433,-0.144358,0.0999304,-0.0428918,-0.0235463,-0.0827345,0.0829659,0.062639,0.119275,-0.212669,-0.049012,-0.0371984,0.238921,-0.026776,0.0232772,0.0224146,0.113134,0.198884,-0.056501,0.205461,-0.024561,-0.0825327,0.12732,-0.0597478,-0.131219,0
0.0567281,0.0564996,0.199464,-0.100423,-0.0728965,-0.069265,-0.0937468,0.068264,0.0544459,-0.053575,0.129256,-0.0767475,0.0559537,0.0818222,0.064102,0.0266261,-0.110591,-0.0140173,-0.0437865,0.111111,0.131684,0.029004,0.109438,0.0987568,0.29854,0.113716,-0.0116588,0.176001,-0.0518035,0.0707669,-0.0805824,0.250863,-0.032278,-0.0246453,0.177169,0.0743057,-0.0997553,0.0439936,-0.154913,0.252618,-0.0488374,0.259271,-0.0963748,0.145876,-0.159239,0.00808867,0.0719955,-0.101699,0.0622724,0.172245,-0.00759707,-0.186813,-0.331078,0.0944466,-0.0635308,0.000192143,0.0436539,-0.0704735,0.125957,0.319268,-0.147271,0.0336374,0.138496,0.0182043,0.0868805,0.119903,-0.202447,-0.039639,0.176595,-0.0184031,0.110061,0.108593,-0.00996935,0.0265159,-0.204354,-0.373172,0.174052,0.228072,-0.253925,-0.021861,0.031576,0.0486884,0.173041,-0.0740701,0.00339244,0.179161,-0.0706402,-0.182002,-0.152936,0.133311,0.0526141,0.161093,-0.18768,0.207869,0.147125,-0.0846291,0.100251,-0.0367217,0.0313116,-0.183146,0.112534,-0.0173839,-0.0586077,-0.0688517,0.169822,-0.102124,-0.114028,-0.237362,0.00981067,0.183964,-0.110853,-0.099404,-0.00146252,-0.0598209,-0.185308,-0.269505,0.0212812,0.0974163,-0.221805,0.0162197,0.0548342,-0.0736256,0.0892,0.00341621,0.0136561,-0.0355022,-0.272216,-0.330223,0
0.104639,-0.0513774,0.0381448,-0.289281,0.112222,-0.137142,0.111829,0.039824,-0.0478832,0.0196544,0.120751,0.111855,-0.163182,-0.11425,0.073828,0.00254613,0.0542592,-0.149578,0.0104451,-0.0760066,-0.0939738,-0.0585192,-0.0497536,0.0251933,-0.180787,0.0320769,0.031756,0.192308,0.247526,0.0148456,0.113028,-0.270513,-0.166333,0.120143,0.0288262,-0.151836,0.00620525,-0.116718,-0.00537757,0.168325,-0.259746,0.024894,-0.100316,0.208365,-0.0979348,0.0199664,0.0555458,-0.0832043,0.0642639,-0.142986,0.0139677,-0.132781,0.0180399,-0.0114077,-0.0290455,-0.19817,0.0660527,-0.0612601,-0.19678,0.113002,-0.0836014,0.000941861,-0.295728,-0.144884,-0.0410444,0.0902183,-0.0524914,-0.0175419,-0.039355,-0.0533351,-0.0889486,0.0532034,0.0790994,0.0782842,0.00532463,0.0457207,-0.0266672,-0.226628,-0.194312,-0.0693265,0.0871082,0.0722493,-0.0352597,0.225868,0.0277092,-0.116048,-0.280972,0.00953686,0.110727,0.184337,-0.0194842,-0.0834696,0.170655,0.0695328,-0.13132,-0.162021,-0.00100407,0.167994,-0.200159,-0.127763,0.27285,-0.148399,0.112236,0.109816,-0.0405726,-0.0673545,0.00730503,-0.00291678,-0.132294,-0.01881,-0.0343141,0.00201676,-0.106332,-0.0385739,-0.0720021,-0.176627,0.0200742,-0.316766,0.100216,0.0769972,-0.0935208,-0.0939728,-0.0397931,-0.178122,-0.00296734,0.0064804,-0.125412,-0.0697241,0
-0.109539,-0.128264,0.117019,0.0600865,-0.306522,0.156449,0.0910983,-0.000464686,-0.0519247,-0.0736508,-0.07429,-0.108359,-0.0629638,-0.198228,0.00111588,0.0759296,-0.0794669,-0.103353,-0.0457245,-0.0974492,0.0560155,0.021078,-0.0852844,-0.0499151,-0.159976,0.0178902,-0.226631,0.0480055,-0.0690765,0.0404124,0.0908832,0.176893,-0.0159306,0.0246549,0.0631991,-0.118366,0.210123,0.0438068,0.122112,-0.0438317,0.131885,0.146324,-0.158771,-0.105684,0.0872584,-0.0654664,0.240317,-0.0531189,0.138319,-0.0962562,0.0362888,-0.0287336,0.194293,0.141053,-0.333579,-0.0819248,-0.393304,0.116069,-0.0115075,-0.0934398,-0.168327,-0.0874084,0.140053,0.0422664,0.102993,0.106523,0.00147179,0.0419987,-0.0276415,-0.000990131,-0.164254,0.140107,0.119893,0.133417,0.103348,-0.0293985,0.066908,0.128152,0.0423499,0.310071,-0.183673,-0.122279,0.0254396,0.131913,-0.0958039,-0.140482,0.104015,-0.0166891,0.00501829,0.115452,-0.011055,-0.127733,-0.0355394,0.0674618,0.129341,-0.0561404,-0.17884,-0.0300807,0.00219178,0.0907382,0.0142885,0.184254,-0.0479263,0.203315,-0.063511,0.0461373,0.102113,0.139849,0.140528,-0.130835,-0.126508,0.0256075,0.0324396,-0.162361,0.137113,0.14581,-0.054139,-0.00486501,0.057901,0.0675934,-0.144592,0.185191,0.0863801,0.277818,-0.120788,-0.0963352,-0.0180373,-0.192014,0
0.0402311,0.254995,-0.0241265,-0.00374903,-0.0640596,-0.0227228,-0.166384,-0.155079,0.0564915,0.0707574,-0.0357629,-0.0532068,0.0624654,-0.107673,0.0463525,-0.160951,0.16756,0.0357344,0.0438324,-0.0885887,-0.104078,0.155977,0.119472,-0.00156675,-0.0596297,-0.171485,0.061184,-0.00102469,0.122211,0.0408598,-0.1218,0.0188904,-0.0321653,-0.0653183,0.0192553,0.11931,-0.0276516,-0.0996394,-0.21218,0.0521873,-0.13336,0.102672,0.38097,0.121325,-0.00828034,0.0435023,0.0662999,0.178397,-0.0111353,-0.00546462,0.0704284,-0.137236,0.0828866,0.0360116,-0.00851657,0.0107082,-0.0798804,0.063572,0.188269,0.109015,-0.301435,0.0732859,-0.0644094,0.0591591,-0.055003,-0.024709,-0.139358,-0.0703526,0.00294666,0.0592709,0.0163034,0.032659,0.290695,-0.00488314,-0.0843964,-0.134889,-0.00452131,-0.0100579,-0.197725,-0.0608913,-0.0247901,0.00550822,0.0158771,-0.0906278,0.105025,0.0172426,-0.0308224,0.0205949,-0.0449508,-0.0807017,0.0260065,-0.220329,-0.0137391,-0.00308015,-0.0201118,0.0851184,0.0725494,-0.0446924,0.130593,-0.0903038,0.0491166,-0.134028,0.0648329,0.123167,-0.0602197,0.0548475,0.126332,-0.168792,-0.0343447,0.182907,0.0845044,-0.0453394,-0.031156,0.226973,0.1382,0.199543,-0.0737053,0.0727279,-0.104693,-0.0800363,-0.0949998,0.182629,-0.152986,-0.0406256,0.000979717,-0.0863911,0.0818147,-0.0813573,0
-0.127954,0.0799706,-0.0479389,-0.0255357,0.206291,-0.0445173,0.123,-0.15908,-0.188927,-0.00661281,-0.0478583,0.0165574,0.0931023,-0.201541,-0.0296343,-0.089708,-0.0173737,0.002484,0.119099,0.176927,0.0989453,-0.0708108,-0.0683614,0.195861,0.30565,0.030735,0.0934363,0.291358,-0.0288274,0.0342872,0.0235023,0.0405766,-0.0168031,-0.012448,-0.0786838,0.195921,0.0255309,0.102617,-0.055721,-0.0182106,-0.246429,-0.0762281,0.139787,-0.0802622,-0.0295594,-0.00992779,0.260659,-0.0458407,0.0979689,-0.107349,-0.0050756,0.064127,0.0874297,-0.0922534,-0.105086,0.159584,-0.0723342,-0.163358,0.124108,-0.0767718,-0.0109016,0.0569297,0.0412324,-0.178447,-0.143099,-0.0580429,-0.0814715,-0.203629,-0.0596752,0.0831339,0.0969216,0.143002,0.118117,0.0484958,0.259738,0.230866,0.000430699,0.197,-0.0253473,0.15704,-0.175446,0.0609891,0.102694,-0.0102911,0.0890883,0.0661651,0.0583283,-0.0824944,-0.203672,0.124908,-0.0155912,-0.0448872,0.0535979,-0.165201,-0.188068,-0.12855,-0.19874,0.180025,-0.09526,-0.0121136,0.00749833,-0.0795982,-0.167763,-0.123551,-0.120056,0.104682,0.0447358,0.214079,-0.244065,-0.00200571,-0.0493826,-0.212003,-0.0278222,-0.0753361,-0.0123722,-0.204558,-0.00106468,-0.117427,-0.275188,0.0647784,0.0717472,-0.137064,-0.0449458,0.0164485,0.105812,0.0224837,-0.107773,0.0135253,0
-0.080816,-0.0466052,0.0445709,-0.106783,0.109163,-0.0678317,-0.310683,-0.0378672,0.0769011,-0.224291,0.126711,0.193865,0.258261,0.0536319,-0.123386,0.0354342,0.0637808,0.00830945,-0.140302,0.0454694,0.0984065,-0.0340125,-0.112624,0.125306,-0.0524728,-0.140287,0.0126219,-0.102407,0.325278,-0.00132322,0.0735615,-0.0125825,0.0875614,-0.063149,0.0712668,-0.336759,-0.0210987,0.0549553,-0.131451,-0.0986265,0.00760205,0.295217,0.0100103,0.129956,-0.0978555,0.14932,-0.102356,0.00652559,-0.0689065,0.115234,-0.199647,-0.00566826,-0.0518866,0.103776,0.0650172,-0.154247,0.244096,-0.230836,0.152638,0.119883,-0.0465906,0.132195,-0.0153633,-0.23038,-0.258745,-0.0302531,0.00309018,0.00606619,0.104619,0.117,-0.0400207,-0.0784511,0.0252444,-0.0537896,0.175713,-0.255157,-0.0376307,0.0836597,0.00135478,0.0944852,0.112536,-0.114378,0.00626531,0.143218,0.123657,-0.0151471,0.0231836,-0.106692,-0.0258486,0.11576,0.10533,0.0366948,-0.0805436,0.0818429,0.0562118,-0.0176533,-0.052372,0.2245,-0.166458,0.084847,-0.174655,-0.0164361,-0.145376,-0.0389219,-0.145385,0.127572,0.116382,-0.0197278,-0.307471,0.0123723,-0.0868292,-0.252081,0.0223479,0.192336,-0.0344954,-0.0235731,-0.103996,0.134479,-0.00315972,-0.169313,0.201793,-0.0155946,-0.078565,-0.0791246,-0.051742,0.0409443,0.177342,-0.190013,0
0.104435,-0.0525003,0.0672497,0.0445288,0.155552,0.0637762,-0.134879,0.119639,0.0479199,-0.0934487,-0.0663728,-0.094163,0.105886,-0.198816,-0.00527751,0.176723,-0.0333366,0.0528252,0.179807,0.00364754,-0.0721778,-0.27022,0.26685,-0.0604257,0.142565,0.0498324,-0.06267,0.122521,-0.122114,-0.114072,0.0275257,-0.0457407,-0.146564,0.0871309,-0.146364,0.0785648,0.0503956,-0.0972349,-0.0429438,0.0223565,-0.103555,-0.0235879,0.00666769,0.0142877,0.00507307,0.0300808,-0.0513983,0.00461943,0.124564,0.0851682,0.0534919,-0.115388,0.0679166,0.0985724,-0.00630204,-0.261998,0.0877269,0.0526787,-0.0940965,-0.00409561,0.0478683,-0.150015,0.0232433,0.0747727,-0.142433,-0.0894964,-0.138079,-0.181997,-0.0628236,0.157408,0.110481,0.0494652,0.227369,0.0563318,-0.0763129,-0.204313,-0.277572,0.163065,0.235009,-0.0533155,0.0857575,0.00678048,-0.192153,0.0741991,-0.0128025,-0.102354,-0.039693,-0.107129,0.0726716,0.0589224,0.195494,0.0910498,-0.0127484,-0.0854735,-0.174862,0.0441333,0.359075,-0.160678,-0.187213,-0.0320961,0.0332094,-0.210051,0.174468,-0.0553738,-0.0562838,-0.298372,0.0545449,0.0338125,0.0525059,-0.0670166,0.10406,0.179684,0.0587951,-0.0724043,0.055838,0.0594605,-0.0605294,-0.0202303,0.0882637,0.0930729,-0.0256482,0.120038,0.305236,0.0623207,0.115406,0.24461,0.201247,0.103901,0
0.0616594,-0.186722,0.208094,0.0942886,0.0799244,0.0461158,-0.191165,0.0539388,0.191681,0.0521947,0.201101,0.182777,0.220504,-0.0133276,0.0385537,0.163745,0.0283315,0.0843048,-0.073771,0.0100043,-0.149496,-0.0560846,0.100921,-0.0961958,0.208863,0.0531903,0.0502281,-0.134417,0.121634,0.102951,-0.153674,-0.0368047,0.0999295,-0.147783,0.235722,-0.0568916,0.23567,-0.0945487,-0.0357299,0.0880472,0.0549688,-0.138208,0.109763,-0.120102,-0.0788644,0.0327827,-0.0625323,0.319434,-0.0585464,0.125083,-0.0427383,-0.131457,-0.0189776,-0.0559827,-0.0339016,0.188957,-0.0109291,0.235376,0.183923,-0.133376,0.2382,-0.225749,0.0109494,0.100589,-0.0496777,0.00203621,-0.0779273,-0.0896476,-0.0211546,-0.0559756,0.0607687,-0.155048,-0.0958116,-0.260666,0.109941,-0.030025,0.204276,-0.0656038,0.208508,0.326714,0.229697,-0.112492,-0.000851462,0.0943773,0.0193151,0.22483,0.0155971,0.109794,0.140355,0.168747,0.116068,-0.0177605,-0.306566,-0.0951606,-0.0374406,0.0772101,0.0253758,0.113314,-0.0792466,0.194347,0.197021,0.115486,-0.109838,-0.0211565,0.166695,-0.294082,-0.0551972,0.263969,-0.0265188,-0.133626,-0.147198,0.074943,0.161872,-0.038521,-0.0203308,-0.0548374,-0.065085,0.0372195,0.0304174,-0.0380459,-0.180405,-0.233651,0.081572,-0.0752101,0.0242651,-0.272432,0.0196567,0.113095,0
-0.043625,0.0793195,0.0247305,0.109641,-0.0973635,0.115541,0.0948729,0.176171,-0.080704,-0.0556572,-0.0106658,-0.0239731,-0.0619063,-0.167621,0.0318766,-0.11999,-0.181511,-0.0615081,0.219706,0.092628,-0.0174872,-0.034154,0.182444,0.0653844,-0.183606,0.0367559,0.181675,0.168854,-0.019706,0.039309,-0.0431268,0.0518968,-0.0466317,0.197626,0.128177,0.067859,0.0293196,-0.0300241,-0.0813938,0.051794,-0.183095,-0.104262,0.0673352,-0.251831,0.295582,-0.0946239,-0.0775095,-0.222711,-0.157126,0.0823901,0.11879,-0.0516991,-0.0818553,0.0674717,-0.078762,0.116008,-0.184241,-0.203816,-0.0157929,-0.0628484,-0.0672942,0.0735388,0.115657,-0.045561,-0.109245,0.0980974,0.059203,-0.0943457,-0.050484,-0.0229981,-0.296794,-0.0523317,0.0880629,-0.0524241,0.218137,-0.11833,0.130141,-0.0517768,-0.121495,0.0912865,0.0547853,0.117281,-0.0495576,0.0492694,0.072571,-0.0386493,0.0713163,0.126357,-0.0411893,-0.171891,0.0809345,0.253967,-0.0322405,0.0594586,-0.146324,-0.0283685,-0.132875,-0.24618,0.229326,0.00432577,0.0516828,-0.111174,-0.153741,-0.0638437,0.0701577,-0.0481278,0.0844564,0.0458139,-0.0723715,0.145232,-0.0992498,0.101639,0.037874,-0.146291,0.0248559,0.029684,0.02847,-0.126783,0.256326,0.0502709,-0.0881642,-0.0290758,-0.25625,-0.109397,0.068802,-0.0580734,-0.0448346,-0.0223575,0
0.136021,-0.0207774,0.0261802,0.206678,-0.00294877,-0.0488158,-0.12868,0.104693,-0.28445,-0.0588705,0.066688,0.183165,0.0220405,-0.172057,0.0568536,-0.0319948,-0.358905,-0.112619,-0.249544,0.115927,0.125135,0.0886637,0.15075,0.00110802,-0.102548,-0.067186,0.0329795,0.0754843,0.175121,-0.125517,0.0954142,-0.238175,-0.0836101,-0.172492,0.315982,-0.0488215,-0.0565865,-0.241674,0.152204,-0.102986,-0.172394,0.394731,0.206388,-0.0804553,0.157541,0.026033,0.0527192,0.222505,-0.100821,-0.0268119,-0.036908,0.125824,-0.0273348,-0.0524152,-0.119101,0.0727969,0.0847201,-0.0812477,-0.0758558,-0.0725445,0.1158,-0.0989369,0.17846,0.0767487,-0.10679,-0.0371159,0.395563,0.147854,0.0967359,-0.0810284,0.250051,0.0265728,0.094633,0.107102,-0.0410476,-0.0234152,0.0860644,-0.202056,0.221687,-0.121264,0.0699684,-0.0161595,-0.0255918,0.0124025,-0.0579348,-0.0442828,0.0614054,-0.158813,0.173229,-0.119545,-0.219942,-0.00382292,-0.269102,0.0399351,-0.0906919,0.236105,-0.130381,0.20417,-0.118031,0.0833703,0.0719311,-0.016669,-0.0732965,0.0674704,-0.223849,0.0649072,0.0699976,-0.0368404,0.0869437,-0.0223019,-0.0157318,0.149746,0.168733,0.139529,0.00774787,0.0852394,-0.0401972,0.0518171,0.0210045,-0.0960109,-0.0599656,0.0290445,0.161622,-0.00755704,0.243857,0.109386,-0.00456293,0.181061,0
0.0259627,0.0940349,-0.16544,0.235837,-0.184115,-0.0123578,-0.0437591,-0.108253,0.233805,-0.0129473,-0.0767676,0.142392,0.133188,0.0274345,-0.164322,0.0700378,-0.0658884,-0.147904,-0.0051954,0.124067,0.138745,0.154889,-0.0752962,0.135675,0.110705,0.0343843,-0.0403405,0.180909,0.207813,0.342326,-0.0148677,0.0145124,-0.0532988,-0.074279,0.0369405,0.0483102,0.123092,-0.0620324,-0.0532167,0.133292,-0.330359,-0.112239,0.0197455,0.030912,-0.24186,0.00667341,0.0231027,0.0908065,-0.135695,0.0815587,-0.0681042,0.0285694,0.276743,-0.276747,-0.134654,0.110578,0.0341897,0.102525,-0.249369,0.0207817,-0.304514,0.1601,-0.136569,0.228837,-0.199734,0.0225541,-0.0383217,-0.0579252,0.174604,0.0189664,-0.033847,0.0513677,-0.142598,-0.234046,0.0626845,-0.0180332,0.109294,-0.285029,0.146214,-0.00250201,-0.105402,0.0560551,-0.176681,-0.0766311,0.010715,0.00659535,-0.101128,-0.0177914,-0.0110705,-0.0612922,-0.199689,-0.123606,0.0971078,-0.0693687,-0.0236144,0.0919878,0.251763,0.0758486,0.269678,0.0875655,0.181184,0.12349,0.0547926,0.199482,0.21687,-0.093855,0.00457304,0.0830725,-0.26419,-0.0175369,-0.120335,-0.0461434,0.0934351,-0.0533911,-0.00215043,0.223514,-0.164162,-0.153066,-0.0916912,-0.142349,-0.325126,-0.0296537,0.0629836,-0.150157,-0.156089,0.117937,-0.122887,0.106563,0
0.115814,0.0846437,-0.115178,-0.0155846,-0.271276,0.0377008,-0.11291,0.0317812,0.203801,0.194384,0.25355,-0.0316503,-0.0421911,-0.104546,-0.0734974,0.0862549,-0.131841,0.159862,0.0206635,-0.232716,0.0340109,-0.0694728,-0.116544,-0.137143,0.148705,-0.103088,0.0149325,0.0236353,-0.131015,-0.0362526,-0.0936077,-0.150659,-0.0434497,-0.125326,-0.257536,-0.0516371,0.0496985,0.0893665,0.0228934,0.0190622,-0.260397,-0.112671,-0.104666,-0.117126,-0.160695,0.105376,0.0803718,0.147826,0.130156,-0.103601,-0.111682,-0.0457335,-0.151108,0.0679765,0.0551772,0.0424417,-0.0720672,0.11143,0.148482,0.0434318,0.00653721,0.0843859,0.0572987,-0.0654461,0.0152133,-0.0670141,-0.0349334,-0.166651,0.0606306,-0.00600404,-0.032258,0.155087,0.0318448,-0.00543539,0.108883,0.0336906,0.0240099,0.16955,0.227629,-0.0845292,0.0891844,0.111619,0.0720803,0.0586067,-0.207633,-0.0456936,0.0958918,0.0267512,0.125699,-0.0658067,0.166157,-0.0196119,0.155159,-0.279242,-0.0668724,-0.0780074,-0.170425,-0.14259,-0.00383281,-0.122143,0.0643544,-0.161373,-0.22426,0.0940708,-0.0183818,0.015166,-0.103615,-0.0592799,0.0441612,0.108035,-0.263388,0.0192787,-0.0570333,0.204785,0.025225,-0.0573362,0.0759872,0.25853,-0.226436,-0.182521,-0.213278,0.134139,-0.0191597,-0.0588697,-0.0440867,0.13281,-0.0695467,0.130646,0
0.0529089,-0.0901845,-0.0372774,-0.0247841,0.0551717,-0.0093151,-0.162198,-0.169925,0.23381,-0.0154161,-0.137976,0.0223619,-0.00863402,-0.0232366,-0.152541,0.0254297,0.101469,-0.0621267,0.267268,-0.102881,0.162494,0.0143053,0.0990821,-0.0702195,0.0727633,-0.0610993,0.0458578,0.118758,-0.0483915,0.0279398,-0.0268059,0.146007,-0.0546989,0.0689048,0.0763337,-0.0106198,0.0972129,0.235808,-0.169886,0.0888935,0.0534201,-0.0749158,-0.240713,0.00338032,0.0716203,-0.00419549,-0.0667261,-0.0121028,0.0819701,0.122448,-0.0487231,-0.0141725,-0.256533,0.181565,0.0105711,-0.0628853,-0.157963,0.163042,-0.170513,0.0308319,0.186471,0.0318621,-0.0275309,-0.0897345,-0.223528,0.233243,0.111843,0.119326,-0.15675,-0.107306,0.158211,0.0368121,0.103977,-0.056665,0.305446,-0.148489,-0.16139,0.0270199,-0.037161,-0.10512,-0.0392265,0.225277,-0.0340345,0.0919399,-0.0661984,-0.0344126,0.0247886,-0.0528151,0.201412,0.097522,0.0362986,-0.358505,0.0414089,0.122196,-0.0625461,-0.273444,0.0692102,0.0651418,0.157471,0.110396,0.123427,0.0400856,0.0168152,0.0247311,0.099771,-0.0565524,-0.0861699,-0.112785,0.00729177,0.0289919,-0.128362,-0.0536954,0.102984,0.0218435,-0.0247855,0.103725,-0.00997194,-0.266655,0.000363982,-0.222707,-0.0589764,-0.208896,-0.0102574,-0.0846763,-0.01399,-0.0221415,-0.0246184,-0.0566741,0
0.168807,0.00194092,-0.0308822,-0.22983,-0.0965852,0.222856,-0.0480428,-0.00321028,-0.0114392,0.13703,0.20335,0.14081,-0.0472804,-0.135052,-0.0377952,0.0984922,0.0353317,-0.24102,-0.10149,-0.107798,0.136111,-0.288382,-0.111149,-0.143283,-0.231575,-0.255745,0.064699,-0.0743985,0.114093,0.0877296,-0.17859,-0.1973,0.16184,0.0602908,0.1718,0.023002,0.182322,0.121114,-0.0910084,-0.0970642,0.100069,-0.0691705,-0.0791111,0.0417463,-0.234386,-0.0981824,0.0682346,0.15287,-0.0826564,0.133256,0.0477622,-0.0341173,-0.0112319,-0.075024,0.102249,0.0543357,-0.206908,-0.171393,-0.190651,0.105278,-0.225102,0.176765,0.0185891,0.023484,0.00910045,0.203798,-0.121402,-0.168279,-0.0475547,0.243573,0.0652049,0.106065,-0.12439,-0.0416977,0.101953,0.151025,0.0260198,0.155258,0.0500283,-0.0604238,0.11488,-0.13392,-0.213471,-0.0639886,0.114622,-0.0709995,-0.143797,-0.013708,-0.00224453,0.284561,-0.236382,0.140977,-0.161983,0.144977,-0.161552,0.0585248,0.0763073,0.020372,-0.0676954,-0.0543577,-0.0516791,0.319447,-0.189684,-0.0618291,-0.00672488,-0.0690095,-0.0326604,-0.117041,0.0979309,-0.0803073,0.191336,0.0809756,-0.135766,-0.395201,0.0147623,-0.16067,-0.000176859,0.0223096,-0.0571584,0.19366,0.106307,0.0429931,0.0444363,0.108187,-0.0093939,0.0955086,0.148836,-0.0220564,0
-0.044465,0.152681,-0.0405223,0.252509,-0.0546851,-0.0525028,-0.0709241,-0.111248,0.187234,0.0318694,0.211077,0.192419,-0.0631374,0.173925,0.0324337,0.0946988,0.0833601,-0.0890668,0.175625,0.0418107,0.218592,0.0596713,-0.113587,0.0557608,-0.0262727,-0.254287,0.0335216,-0.100293,0.287155,-0.240118,-0.127405,0.0319467,-0.145209,-0.118932,0.13199,-0.117272,0.0521962,0.027324,-0.0561044,0.0433258,-0.0133567,0.119576,-0.0324432,0.0487021,-0.408706,0.347719,0.201348,-0.203503,-0.0847925,0.104307,-0.155586,-0.106058,-0.0886233,0.0107466,-0.0444711,0.00906878,-0.129851,-0.13665,-0.0910381,0.00511441,-0.220374,0.150779,-0.0765234,-0.0283341,0.216024,-0.156564,-0.0739028,0.0961089,-0.0429042,0.137306,0.084941,-0.0639542,-0.050365,0.053014,0.018023,-0.155824,0.0523599,-0.111989,0.137726,-0.099724,0.0197851,0.0393762,-0.0404881,-0.061019,-0.0705255,0.0819685,0.101461,0.0135567,-0.115317,-0.208649,0.0536835,0.0135756,0.0809843,-0.135125,0.224585,0.129681,-0.0245811,0.123997,0.0203592,0.0516878,-0.0892259,-0.107679,-0.0265202,0.0185925,-0.0299541,-0.14243,0.110456,-0.0645367,-0.0800732,0.007656,0.0263535,0.00903501,0.03766,-0.0245178,-0.267043,0.146337,0.192257,-0.0277384,-0.204845,0.228331,0.0950542,-0.0090444,-0.176892,-0.0815991,0.17188,-0.00431242,0.149124,-0.267017,0
-0.0284829,0.0371701,-0.103354,0.151552,0.127123,-0.00147796,0.310139,0.0265121,-0.259357,0.238289,0.212732,0.151916,0.12376,-0.0143573,-0.00414801,0.12779,-0.14767,-0.0985415,0.170012,0.0559504,-0.0809471,0.0471068,0.130059,-0.131831,0.0351768,-0.00250754,-0.0327735,0.0791554,-0.20272,-0.121319,0.121332,0.050126,-0.242944,0.0685239,0.0371241,-0.179026,-0.155859,-0.135919,0.00976553,-0.0271184,0.0567087,0.120272,0.131867,-0.00744892,-0.328123,-0.0955885,0.0206577,-0.205722,-0.098673,0.125053,-0.207951,-0.0284485,-0.200885,-0.0895818,0.132518,0.168522,-0.028747,-0.105844,-0.0023599,-0.167641,-0.15602,-0.020641,-0.0994963,0.0296638,-0.0810633,0.0250698,-0.0719268,-0.24983,0.053074,-0.00515207,0.0389833,0.101983,-0.00154044,0.0824231,-0.0740055,-0.0682691,-0.139092,-0.287922,0.0775949,-0.178796,-0.0853364,0.214963,-0.266231,-0.0938437,0.0137007,-0.0447894,0.098261,0.0700102,0.0390894,-0.00750221,-0.0555511,-0.0956411,-0.138243,-0.149188,-0.0672811,0.00310775,-0.0369368,-0.146776,-0.162403,0.039849,-0.188355,-0.0161782,-0.0434925,0.0226728,-0.0478016,0.0798514,-0.0205562,0.134821,-0.137187,-0.0455444,0.0800733,0.0833184,-0.12744,-0.00932249,0.210486,-0.333184,0.111105,-0.118069,0.0308321,-0.1161,-0.188968,-0.103203,0.129807,-0.153164,0.0722229,0.00460896,0.0486722,0.117829,0
-0.0445974,0.0603521,-0.0112816,-0.0198261,0.143433,-0.0899188,-0.049915,0.0125765,-0.209331,-0.0655039,0.0386427,0.0205713,0.0766616,0.0243644,-0.0916173,0.00986089,0.0736511,-0.0730614,0.218248,0.0847867,-0.0724574,-0.00450437,-0.0671336,-0.014502,0.0248485,0.0381794,0.0827212,-0.0604232,0.173451,-0.0921663,0.304375,-0.0174847,-0.0935117,0.00988548,-0.223758,-0.0394624,-0.080998,-0.0238369,-0.00697621,0.115917,0.000220775,-0.000953438,0.012349,-0.144592,-0.145153,-0.125227,-0.0635883,0.160305,-0.0308477,0.0390385,-0.029963,-0.0580616,-0.0794096,-0.0824916,-0.139674,-0.000265538,0.0658186,0.127039,0.154387,0.111999,-0.0436269,0.180657,0.0733861,0.0688462,0.0180514,0.0079854,0.0766775,0.111918,0.0824937,0.00257443,-0.316869,-0.207589,0.209447,0.145623,0.304567,0.198353,0.0628667,0.00287643,0.199956,0.0844936,0.0728266,0.111497,0.244842,0.215232,0.0853096,0.259436,-0.109132,-0.0176861,0.20825,-0.0597177,-0.0850065,-0.0486763,-0.118563,-0.0939176,-0.177284,0.0995298,-0.0394981,0.0460093,-0.190352,-0.0496263,-0.0564186,-0.227139,-0.113646,-0.0390479,-0.247736,-0.0251574,-0.13324,0.184081,-0.23309,0.238171,-0.0153186,-0.0304805,0.0948561,0.178673,-0.165485,0.138871,-0.169519,-0.0680601,0.0550041,-0.00583962,0.0697252,0.107985,0.0981416,0.0128401,-0.137471,0.119197,0.229839,-0.128221,0
-0.104745,0.164805,0.0580396,-0.169429,0.0996337,-0.0746701,-0.155751,-0.188209,0.0220226,-0.0474381,0.109373,0.00999399,0.0370283,0.0529956,-0.0788968,-0.013779,0.125246,0.0612597,0.0360117,0.112033,-0.0979415,-0.0794164,0.154882,0.176501,-0.100784,0.0401477,-0.11415,-0.102976,0.0432337,-0.0580839,0.0814879,0.0732214,0.109315,0.0618218,0.0949444,-0.291837,0.244454,0.077292,-0.0351846,-0.00468968,0.0279176,0.0201984,0.000969066,0.208262,-0.107543,0.249725,-0.0337681,0.076299,-0.0663669,0.168085,-0.0667,-0.131053,-0.0644881,0.140533,0.0642998,-0.0194361,0.0261971,0.0895293,0.156121,-0.062171,-0.118162,0.107613,-0.158448,0.090575,0.291186,-0.118756,0.0275452,0.135753,-0.144177,-0.106668,-0.126652,-0.00201917,0.156462,-0.0181093,-0.252633,0.141625,-0.248524,0.0678928,0.0911492,0.145819,0.0880169,-0.205176,-0.0574431,0.00666338,0.0321358,0.308299,-0.151166,0.0849472,0.142234,0.0432971,-0.370756,0.157333,0.0886582,0.0924697,0.0497893,0.0639752,0.196138,0.0979994,0.0580143,-0.066504,0.0885224,-0.0451777,0.0655449,-0.0435257,-0.104207,0.10581,-0.209583,-0.0328648,-0.0488924,-0.0212296,0.115116,-0.0130495,-0.0654316,0.118117,0.0226342,-0.00165718,-0.0741769,-0.180404,0.035968,0.0933402,0.0162873,-0.232877,0.190881,-0.050384,0.117336,-0.0830769,0.159811,-0.064968,0
0.084169,-0.0394942,0.232882,-0.0405174,0.0267344,0.0367087,-0.289154,0.0925336,0.00795359,-0.0445244,0.0455333,0.239384,0.0183372,-0.128042,0.107217,-0.0783017,0.182613,-0.0890348,-0.0419076,-0.0612129,0.0234863,0.0740958,-0.000759418,0.0117602,0.116501,0.0325448,0.000242467,-0.0419967,0.181698,-0.0578236,-0.00248814,0.000223228,-0.0870234,-0.25786,0.032129,0.0871765,0.222845,0.00457305,-0.0168337,-0.0242335,-0.102049,0.0958462,0.0285119,0.0927892,0.0452826,-0.13312,-0.0401612,0.0932264,0.0979873,-0.0376153,-0.0220375,-0.0707215,0.126536,-0.0539216,0.0879989,-0.0376278,0.0206428,0.181912,-0.00605128,-0.0693474,-0.186331,0.0149339,-0.0112552,0.139319,-0.0922709,-0.143636,-0.0888245,0.0417428,-0.200768,0.153127,0.293659,0.165499,0.128298,-0.171857,-7.71627e-05,0.135808,-0.0430438,0.0792906,-0.12687,0.148719,-0.0575929,0.00859276,-0.111197,-0.227241,-0.0995122,-0.0587133,0.152426,0.0367047,-0.052569,-0.0255885,-0.0934186,0.12483,0.134782,0.0786439,-0.142861,0.0839023,0.284433,0.22544,-0.1532,0.218939,-0.104605,0.0919577,-0.0602007,0.0572975,-0.0301779,-0.159258,-0.0758339,0.187678,0.159677,0.0664974,0.092027,0.0560627,0.00952047,0.109324,0.0104931,-0.11569,-0.0198873,0.131635,-0.0783938,0.314309,-0.079092,0.27432,-0.00968313,0.173001,-0.0146173,0.0229146,-0.123793,-0.108935,0
0.0605841,-0.0102035,0.103886,-0.138056,0.0575052,-0.0869028,0.0296845,0.206279,0.0327273,0.0471743,0.0977169,0.00765409,-0.0550359,-0.10028,0.0585123,0.155328,-0.0908138,-0.0525381,0.144546,0.0719722,0.0542584,0.0681816,-0.0995443,0.0771259,0.364267,0.138453,-0.128542,0.0816549,0.186407,0.124903,0.158674,-0.092046,-0.0676766,0.10485,0.00954542,0.050483,0.0744529,0.0646185,-0.042577,0.0144472,-0.104333,0.0850103,0.142582,0.0774128,0.121857,-0.0539276,-0.261039,-0.121542,-0.152223,0.0319245,-0.229898,-0.0860837,0.146998,-0.224037,0.0547144,0.10893,0.0915294,0.117696,0.00346682,-0.0963223,-0.188371,0.010391,0.0687826,0.137986,-0.142723,-0.122439,0.25014,0.0843374,-0.274888,0.0322299,-0.127805,-0.212391,-0.123591,0.0246674,0.0465539,0.0922765,-0.0572991,0.183227,-0.152215,-0.144444,-0.0105098,0.0687928,-0.0711761,-0.147871,0.106537,0.104846,-0.0602209,0.104857,-0.115094,-0.239181,0.297689,0.0137931,0.0441208,0.201875,-0.138505,-0.105448,0.0822253,-0.0670819,-0.159462,-0.295867,-0.0926653,0.0771637,-0.0169956,-0.174802,-0.0186284,0.114651,0.242176,0.0719034,0.0827025,0.0393984,-0.172368,-0.209608,-0.112364,0.0197552,0.0299965,-0.00882229,-0.00866578,0.042648,0.0279227,-0.0829671,0.129103,0.0494418,0.139686,0.0709062,-0.18368,0.22661,0.0217149,0.146544,0
-0.00538576,0.0918759,-0.255871,-0.163066,-0.131943,-0.136863,0.0601074,0.062953,0.167443,0.0599466,0.0171743,0.111945,0.134402,-0.0511758,0.0554111,0.151943,-0.0474936,0.116863,-0.0429519,0.222923,-0.0156804,-0.0600773,0.0687182,-0.135727,-0.044704,-0.0277457,-0.00152584,-0.138398,0.0873587,-0.156143,-0.247123,-0.0251583,0.0725771,-0.0217622,-0.102709,-0.0294367,-0.244506,-0.0808671,0.165646,-0.0148537,-0.0142114,0.0406424,0.226504,-0.0881924,0.110373,-0.0259121,-0.0125148,-0.05273,-0.0686736,0.251127,0.146063,-0.0452999,0.000411507,0.17365,0.0463078,0.0211483,0.0472134,0.129682,0.0283837,0.117812,-0.0407039,0.0137204,-0.0113874,0.134952,0.149499,0.0771391,-0.0941023,-0.0430663,0.0362021,0.157734,-0.116591,0.036061,-0.142473,0.178101,-0.0544051,0.0368505,-0.164832,-0.272481,0.165125,-0.180592,-0.0283867,0.0481278,0.316404,-0.325768,0.0812645,-0.136777,0.0453356,0.00973672,0.0906312,-0.0409473,0.0631577,0.163408,-0.0896125,0.206212,0.0514604,-0.118683,0.00991553,0.156827,0.0412668,-0.00871291,-0.0808161,-0.119677,-0.00736968,0.0634693,0.0935827,0.00897313,-0.00445406,0.133111,0.0178709,-0.0414951,-0.0370266,-0.0457511,-0.205773,0.053428,-0.0624913,0.0491005,0.0256596,0.0782557,-0.00041911,0.0669058,0.0855385,-0.0791495,0.0531592,0.0650053,-0.0242479,-0.0814507,0.0740593,-0.152119,0
-0.0281918,-0.0785769,-0.0312852,0.0159892,-0.186468,0.0162224,0.0541991,-0.0374443,-0.0573346,0.0395501,-0.0561557,0.105069,-0.00316298,0.0259297,-0.245715,-0.00559211,0.0892458,0.145774,0.162033,-0.133483,0.190651,-0.0978719,0.0987428,0.0903281,0.0353228,0.0694987,0.0851641,0.0438726,0.0871536,-0.0690901,0.115738,-0.0132925,0.0156544,0.0938544,-0.0844216,-0.0810379,-0.146,-0.0735533,-0.0784059,0.0666522,0.0758194,-0.100272,0.146984,-0.0552176,0.255328,-0.0275988,-0.183012,-0.0231891,0.209347,-0.0645329,-0.0325768,-0.0177906,0.168454,0.0727823,0.0395838,0.0129765,0.0286862,0.0729685,-0.0832709,0.0683634,0.0394153,-0.0384749,-0.0482313,-0.383839,-0.133184,-0.0617445,-0.0236249,0.0700506,-0.0450975,0.00393767,0.102013,0.116547,-0.349557,-0.0498199,0.154285,0.249937,0.0094507,0.164834,-0.0354341,-0.0992229,-0.0803363,-0.0262074,-0.00660874,0.156133,-0.0682061,0.0077052,0.153775,-0.117371,-0.0808832,-0.21106,0.0514421,0.0403479,0.0200618,0.017598,-0.138292,-0.179331,0.0189828,0.348381,0.0436356,0.341816,0.054832,0.075137,-0.101303,-0.126169,0.194921,0.0957324,0.100349,0.248272,0.0228733,-0.138735,-0.115062,-0.072034,0.0832897,0.117893,0.17222,0.192841,0.0895943,-0.0218973,0.200885,0.0502602,-0.072472,0.0271179,-0.0437794,-0.055206,-0.134592,0.0427158,0.0709009,0.0828357,0
-0.0838146,0.0279201,0.13308,-0.0487605,-0.0407038,0.224614,-0.0465738,-0.036425,0.0368313,-0.0370318,-0.103367,0.0284468,0.0801716,0.0379415,-0.31339,0.124675,-0.13817,0.133687,0.00812884,-0.0825297,-0.10849,0.0736967,-0.0187398,-0.136521,-0.157361,-0.239157,-0.109821,-0.138207,-0.162392,0.0227586,0.0937343,0.0993959,-0.199367,-0.13346,-0.0250706,-0.0825794,-0.141301,-0.0926482,0.0277448,0.0571344,-0.358061,-0.0165247,-0.232551,-0.025666,-0.0335345,0.139466,-0.153946,0.132364,-0.228466,-0.120963,-0.0246515,0.180995,-0.15037,0.267628,-0.00150469,0.00173276,-0.15172,-0.0734248,0.000551193,-0.0110155,-0.00472857,0.254547,-0.177956,0.025938,-0.279288,-0.162101,0.0839567,0.156883,-0.199196,-0.154317,0.059882,0.0759393,-0.196772,0.199941,0.155023,-0.0773268,0.165392,-0.22607,0.0880885,-0.0311636,-0.206121,0.213242,0.0905351,0.141577,-0.119224,-0.0642582,-0.150783,0.0518442,0.0727747,0.0931731,-0.116385,0.0658146,-0.109086,0.0615873,-0.0117939,0.140549,-0.021121,-0.198547,-0.0653221,0.0360759,0.0145434,0.0910643,-0.130665,-0.0122035,-0.0746841,0.0138368,0.191415,-0.058007,0.0921729,0.0050714,0.0354717,-0.180187,-0.0781432,0.180361,0.0339957,0.0899231,0.0589021,-0.174122,-0.108394,-0.101853,-0.024686,-0.091359,0.16601,0.058124,0.0817147,-0.0472578,0.0429269,-0.182019,0
-0.0425459,-0.057193,-0.164876,-0.00390452,0.0708595,-0.108448,0.0631578,-0.021613,0.00495921,0.138824,0.111815,-0.0420355,0.00219681,0.0861639,-0.273542,0.105918,-0.056307,0.0521296,0.0157605,0.0276357,-0.0766251,0.000929424,0.140838,0.178958,-0.0637041,-0.104663,-0.128426,-0.0152346,-0.0717794,-0.168107,-0.176464,0.0905991,-0.0942696,-0.151188,0.0657465,0.0793658,0.0470445,-0.141079,0.00832312,0.184551,0.104641,-0.0911552,0.050498,-0.164036,-0.110528,0.0231297,-0.0254701,0.0875665,0.0215376,0.167457,-0.1396,-0.131613,-0.0204501,0.0501201,-0.0572646,0.0453976,-0.130861,-0.00342358,-0.0801528,0.181566,-0.176039,-0.0664109,-0.0251062,-0.383309,0.160825,-0.0508832,0.0370005,-0.0812998,0.0165717,-0.169722,-0.00557651,-0.0774039,0.0426409,0.154667,-0.0960521,-0.0679118,0.364447,-0.103159,0.134418,-0.00532036,-0.240182,0.131256,-0.182745,-0.175567,-0.16924,-0.180447,-0.0363489,-0.103404,-0.0386,-0.0569035,-0.102274,-0.148617,0.00774206,-0.12545,-0.106455,-0.0140058,-0.113993,0.126162,0.135337,-0.0231911,-0.198561,-0.00500384,0.105849,-0.200415,0.101151,-0.0725483,-0.00909909,-0.0950893,-0.112836,-0.0651112,0.0136234,0.111788,0.0239937,-0.103013,0.0176453,-0.0121612,0.126357,-0.125724,0.0180505,0.0734323,-0.233892,0.0699228,0.168313,0.0072457,0.146527,0.37082,0.00542699,-0.160162,0
0.0664914,0.00532801,-0.17767,-0.0621779,0.180841,-0.0705468,0.133386,0.0316234,0.109221,0.181989,-0.0420262,0.0235698,0.164234,0.0498609,-0.158533,-0.0444559,-0.0961942,0.178644,-0.080938,-0.0800723,-0.0747668,0.0586493,0.0207548,-0.195408,-0.12545,-0.0224448,-0.0701163,0.12188,0.035058,-0.0270696,-0.019878,-0.0288083,-0.207769,0.00779653,0.00504276,-0.0392467,0.0228636,0.0471601,0.111967,-0.013964,-0.122374,0.184834,-0.153182,0.141775,-0.0446242,-0.0912223,-0.0293553,-0.0182471,-0.101239,0.0634827,-0.124783,0.0134718,0.192141,-0.0438583,-0.00465244,-0.0749525,0.103378,0.074918,-0.128109,0.193033,0.0368252,-0.000647511,0.00361052,0.151473,-0.0681787,0.0163489,0.10975,-0.133313,-0.00248264,-0.0529367,-0.0272075,-0.161952,-0.255959,0.0761226,0.0923048,0.0397266,0.133999,-0.0584133,0.0611201,0.218491,0.108142,0.191971,-0.0508291,-0.00422137,-0.0418921,-0.0143464,0.0772015,0.00210808,0.0631504,-0.0861364,-0.113254,-0.12603,-0.0436937,0.160553,0.0637584,0.0611854,0.0234759,0.0843547,-0.0925413,-0.111452,0.0888739,0.0211634,0.0296974,0.00277197,-0.0246011,0.0993875,0.13563,0.0608057,-0.0359322,-0.00923026,0.0558337,-0.095188,-0.056321,-0.0835487,0.0492239,-0.0934003,0.0120618,-0.0841778,0.00875932,-0.128176,-0.064238,-0.0442985,0.0308646,0.159369,-0.0536966,-0.0644307,0.142652,0.00716013,0
-0.0408919,-0.0248929,0.0277595,-0.0234929,-0.220425,0.128223,0.041621,-0.0102903,0.031907,-0.0849075,-0.128664,0.120109,0.17442,-0.108822,-0.067741,-0.160175,0.295806,-0.134632,-0.0528181,0.0581779,-0.214529,0.101371,0.179115,0.150899,-0.124949,-0.171198,-0.143799,-0.168776,0.00998981,0.096196,0.0485082,-0.197967,0.0652072,0.120798,0.0239368,-0.0066271,-0.0176719,-0.0371882,0.0848663,0.0436253,-0.149988,-0.156996,-0.103568,0.189349,-0.0842965,0.047354,0.0987957,-0.133367,-0.116513,0.07475,0.0978095,-0.0609704,0.153426,-0.0637967,-0.161934,0.16538,0.102081,0.0330987,-0.200362,-0.117827,0.0525382,0.178998,-0.0397269,0.327278,-0.0646172,0.202767,0.20207,-0.18726,0.16258,0.228207,-0.166502,-0.112672,-0.180693,0.0219641,0.0935237,-0.0134722,-0.0148398,-0.11417,0.0100071,0.00409406,-0.0537319,-0.00849269,-0.0523919,0.00641486,0.0356708,-0.0807891,0.035013,0.0159355,-0.102523,0.0186133,0.0164613,-0.211336,-0.0856401,0.0512043,-0.015562,-0.0689384,-0.0135938,-0.0794792,0.160045,0.216293,-0.0495613,0.0925186,-0.0242238,-0.0335569,-0.0728322,-0.166971,-0.186763,-0.00803662,-0.162433,-0.0198599,0.0303424,0.0933973,-0.0747972,0.0585961,0.0331994,0.0236939,0.0153118,-0.1978,0.263403,0.162033,-0.0616941,-0.058287,-0.0261618,-0.0807459,-0.117813,0.204413,0.133981,-0.203104,0
0.00422382,0.0995587,0.214738,-0.360764,0.109478,0.0413007,-0.118732,-0.0727333,0.233153,0.104083,0.0376122,0.0660514,0.00126403,0.0402426,-0.211772,0.133308,-0.0510303,-0.169343,0.0644498,-0.0636971,-0.00273771,-0.103244,0.167427,0.0132552,0.0114514,-0.107837,-0.0643421,0.00170385,0.0946002,-0.067889,-0.0972514,-0.0125428,0.0308487,-0.0432832,-0.109759,-0.100766,-0.189955,0.248503,0.070534,0.0703899,0.0408925,-0.0506779,0.153596,-0.00516409,0.213573,-0.100282,-0.0749215,0.0546802,0.0781472,0.175317,-0.0942417,-0.13638,0.0754495,-0.103882,-0.147263,0.0960628,0.198209,0.0396366,-0.0931143,0.0408397,0.0777129,0.0329868,0.297157,0.0737916,-0.0594873,0.133101,-0.136255,-0.0963937,0.0586516,-0.191644,-0.0713461,-0.0607503,-0.177031,-0.0656203,0.10682,-0.0149763,-0.117393,-0.0901525,-0.0227858,0.179513,0.180035,0.121534,-0.303309,-0.039896,-0.0579832,-0.0217091,-0.0236659,-0.228771,0.0821353,-0.208524,-0.0426743,-0.217217,-0.0580948,-0.323674,-0.164109,0.0340198,-0.0386247,0.0150621,-0.0995403,-0.107529,0.202419,-0.0719017,0.163697,0.175238,0.029389,0.037518,0.172359,-0.231654,0.2269,-0.00432543,0.172114,0.0525198,-0.012109,-0.219351,-0.0156351,0.105555,0.153418,-0.027949,-0.0371005,0.199871,0.0475361,0.0875049,-0.0907408,-0.210773,-0.125309,-0.00527981,-0.0455475,-0.0841455,0
0.0445962,-0.00477063,-0.222373,-0.0440554,0.0172671,-0.0715362,-0.0420966,0.0887616,0.151548,-0.19229,-0.308953,0.052252,0.189612,0.0975594,-0.0426111,-0.0547462,-0.141044,0.0969019,-0.00889206,-0.0319892,0.1702,0.189895,-0.0727421,0.0389912,0.152117,-0.0140146,0.0763492,-0.193607,-0.157444,0.276107,0.0829919,-0.0410206,0.0369816,0.0750271,-0.0746897,0.177902,-0.0304831,0.029108,-0.122274,0.0653788,-0.159293,-0.249571,0.213473,0.0682873,0.146738,-0.11845,0.0714956,-0.00236204,0.28666,0.0307055,-0.254095,-0.171166,0.101793,0.138878,-0.244992,-0.0515764,-0.181562,0.139787,0.0572243,-0.129597,-0.0989212,-0.0576924,0.12008,0.0663881,-0.0981177,-0.018492,0.129684,-0.194932,0.144655,-0.232139,0.113825,-0.0224729,0.192052,0.00338805,-0.174474,-0.0495817,0.010539,-0.186062,0.103414,-0.204997,-0.0269458,0.0822516,0.0227528,0.140251,-0.0562636,0.207658,0.102581,0.0777273,-0.0519035,0.143261,-0.0317939,0.0819712,0.10092,0.127737,0.0399325,0.0150695,-0.164151,-0.0655265,0.0351181,-0.00583073,-0.120949,0.0749449,-0.0971644,0.0364345,0.086257,0.0303085,0.00238449,0.0856565,-0.149746,0.274341,-0.0760668,-0.129717,0.0665573,-0.115219,-0.0530899,0.182526,-0.107915,-0.0825462,0.134291,0.0191892,0.0371398,-0.237334,0.00865916,0.0712675,0.0162622,-0.0235006,0.193991,0.0483958,0
-0.120767,0.108455,0.0998912,-0.00286948,-0.102694,-0.227472,0.00715314,0.273644,-0.0436024,-0.149739,-0.0590644,-0.028083,-0.0531369,-0.169316,0.212042,-0.0536725,-0.030338,-0.107377,0.105455,0.137576,0.0251803,0.11883,0.128086,0.0132068,-0.1266,-0.108053,0.0473528,0.103097,-0.170267,0.120543,0.0226823,-0.0617158,0.0536768,0.16664,-0.0212283,0.017704,0.151821,0.0241015,0.140064,-0.0230283,0.0940042,-0.402996,-0.00712978,0.0284125,0.107259,0.0560935,0.133148,0.00419714,-0.122958,-0.0506533,0.0377202,0.279051,0.312454,0.0192182,0.191726,-0.0327492,-0.0091824,0.332034,0.00153795,-0.0404321,0.186727,0.0704286,0.0487079,0.0703719,-0.0336274,0.0772126,0.146087,-0.0599211,-0.0131771,0.100017,0.0827475,-0.0428778,0.0369541,0.239216,-0.0591158,-0.101589,0.11416,0.0339911,-0.262537,0.185438,-0.206841,0.178028,-0.235887,-0.0143895,-0.0628214,0.0207249,0.0344528,-0.0796765,-0.0246323,0.175661,-0.140536,0.0462966,-0.0306018,-0.103065,-0.170819,0.101873,-0.21493,0.00779098,0.0705665,0.111511,0.101354,-0.22997,-0.0568631,0.00872926,0.0496038,0.068497,0.167043,0.0667151,0.104599,-0.125923,0.133942,0.0306991,0.166315,-0.0535098,0.130655,0.0858181,-0.033527,-0.143087,-0.210773,-0.199073,-0.183547,-0.131918,-0.00138666,-0.13832,0.0178102,0.0430115,0.146896,-0.207363,0
0.120615,0.0495992,-0.000859492,0.137074,0.206116,-0.0821208,0.0149185,0.02985,-0.248209,0.0111463,0.0273386,0.156422,-0.059889,-0.0837348,-0.124475,0.0112863,0.0704307,0.0201004,0.144541,-0.0644442,-0.14112,0.0272256,-0.056052,-0.0246674,0.0771296,-0.0941852,0.0539563,0.0227716,-0.216832,-0.0174411,0.0730816,-0.11752,0.263904,0.09044,-0.0237689,-0.066541,-0.0571332,0.168287,-0.0485794,0.184165,0.213504,-0.0690855,0.150068,0.215111,-0.104958,0.0365687,-0.132107,-0.00383731,0.108863,-0.0842756,0.0970949,0.188055,0.287374,-0.0989703,0.11463,0.1295,-0.0595335,0.027439,-0.0398248,0.111564,-0.0889762,0.0602781,0.189988,0.0259147,0.00683569,-0.0187908,-0.00890118,0.0420861,-0.155915,-0.018997,0.148204,-0.0523086,0.0324651,0.0352572,0.0460008,-0.0317519,0.101234,-0.0859071,-0.149696,-0.053701,-0.0330095,0.161095,0.132824,-0.245691,-0.0667078,0.019054,-0.166797,0.201075,-0.0632896,-0.0731147,-0.0301871,-0.24383,0.00816107,-0.0401757,-0.0584878,0.164205,0.30835,-0.104054,-0.00202456,-0.186583,-0.0115592,-0.0390095,-0.136398,0.23821,0.0884986,0.0301108,0.182133,0.0378031,0.0734989,-0.206552,-0.246638,0.141301,0.0970212,-0.0959079,-0.0564815,-0.119056,0.00464668,0.167673,0.10943,-0.290554,0.000974157,0.0368954,0.0416212,-0.142538,0.0173254,0.336908,-0.0652309,0.0919857,0
-0.103303,0.054868,0.00699481,-0.0477331,0.0669122,-0.0835599,0.195249,0.140877,-0.00939208,0.018076,-0.181026,-0.270216,0.0939952,0.0944402,-0.105209,0.0581469,0.087171,-0.0589548,0.0755719,0.187518,0.16622,-0.120398,0.212948,0.120879,0.0567209,-0.122972,0.0772335,-0.0658813,-0.132665,0.0547549,-0.0138386,0.173187,-0.0498502,0.0927442,0.0226908,-0.142361,-0.0591062,0.0822158,0.270306,-0.119138,-0.0923418,0.102859,0.243858,0.15492,0.084863,-0.0606007,0.0499932,-0.315739,0.178312,-0.180796,0.061504,-0.0574449,-0.16269,0.0641335,0.0329593,0.000248344,-0.017132,0.0504541,-0.00133179,0.228599,0.238269,-0.059641,-0.0180555,0.0146104,0.115296,-0.335568,-0.209369,-0.0738968,-0.135494,0.155747,0.196147,0.0300852,-0.394599,-0.238892,0.154476,0.0848342,0.0220138,0.112576,0.126766,-0.0577679,0.168462,0.357808,-0.114533,-0.181243,-0.16795,0.279786,-0.194773,-0.167693,0.206725,0.171851,0.00785843,-0.159617,-0.025039,-0.0386513,-0.143581,-0.144181,0.0813019,-0.188614,-0.0202002,-0.00957206,-0.148836,0.0413365,-0.0222119,-0.198733,0.00937011,0.34085,-0.0243705,-0.0790731,0.133538,0.236199,0.0899165,0.0907385,-0.0377299,-0.148504,0.0242009,-0.105846,-0.199848,0.238635,0.0907682,-0.285859,-0.0551965,0.315499,0.0556875,0.0809541,0.306038,0.0901165,-0.0565717,-0.138357,0
0.00158284,0.102746,0.167688,0.050331,-0.0165808,-0.187685,-0.0153646,-0.167356,-0.0924657,0.262796,0.0872988,0.0376006,0.0229715,-0.0285362,-0.315984,-0.143798,0.0571256,-0.0105868,0.11123,0.310145,0.0982354,-0.172457,-0.0361372,0.0693549,0.0503884,-0.081632,-0.0201654,0.136143,0.0904073,-0.0134291,0.0239366,-0.0591006,0.00010873,0.0435447,0.00707543,0.00568516,0.134115,-0.0649106,-0.146586,0.105277,-0.0404835,0.0568839,0.225777,0.0338517,0.0814794,0.13251,-0.0030406,0.205197,-0.0505339,0.14599,-0.0931198,-0.19402,-0.0630649,-0.0476713,0.117383,-0.126884,0.174442,-0.0790338,0.000341741,-0.116314,0.103737,-0.137459,-0.0364197,0.209241,-0.0695189,-0.155471,-0.0462468,0.0225804,0.0588508,-0.14188,0.0209934,0.318995,-0.33117,-0.0765913,0.0236134,-0.0414125,-0.176988,-0.130212,-0.0235992,-0.0104453,0.183471,0.0671774,0.103386,-0.187569,0.0426233,0.0816953,-0.146697,-0.0103399,-0.167785,0.0546185,-0.143325,-0.117907,0.206705,0.0169509,-0.0733804,0.0131649,-0.0987986,-0.0624264,-0.179805,0.00183241,-0.0411473,0.0195445,-0.00260648,0.0168554,0.062231,0.0793979,-0.20424,0.188217,-0.137556,-0.0255654,0.0379922,0.0281003,0.207743,-0.14743,-0.156268,0.0065045,-0.131462,-0.0144761,-0.0471277,-0.0656846,-0.0962554,-0.011931,0.0820087,-0.165212,0.0380555,0.0498881,0.130944,0.0670439,0
0.0320244,-0.204484,0.097265,0.0362454,-0.149799,-0.173483,0.0693892,-0.0563344,-0.0887189,-0.0386834,0.168407,0.0109859,0.107418,0.199352,0.312848,0.0362165,0.299938,0.0679801,0.0826226,-0.0617979,-0.0424008,0.238729,0.099372,0.127198,-0.0569352,0.0624824,-0.0545156,-0.102013,-0.118544,0.00423343,0.206538,-0.116891,0.167607,0.0616031,0.203775,-0.0312747,-0.024973,-0.104717,0.0132345,-0.00427146,0.0596018,-0.0291813,-0.160026,-0.0771841,0.292594,0.0115153,-0.0748073,-0.129928,0.221783,-0.00762651,0.103351,0.074663,-0.0209456,0.12998,-0.349114,-0.098032,-0.102589,0.113468,-0.103017,0.0332076,-0.0595436,0.0749373,-0.122865,-0.164875,0.0186168,-0.00948303,-0.0370423,0.0811276,-0.0459774,0.0633995,0.0769414,0.269523,0.0612086,0.0987593,0.121529,-0.0145454,-0.301811,-0.00290627,0.104441,0.137157,-0.107023,-0.0766815,-0.121024,0.245248,0.0368927,0.106721,0.0397152,-0.00426338,-0.047735,-0.000127131,0.00092905,0.119523,0.100139,-0.188072,-0.0902186,-0.101003,-0.217503,-0.0953622,0.0207322,-0.0437269,-0.0615823,0.0466107,0.036787,-0.113125,0.317893,0.144675,-0.00279906,0.215785,-0.0791971,0.110359,-0.0602372,-0.0491085,0.0847569,-0.141017,-0.0627159,-0.244297,-0.0339239,-0.170724,-0.0237624,0.108225,0.212027,0.0058617,-0.218639,0.16422,0.115741,-0.0309936,-0.164451,0.123653,0
0.0887524,0.0127859,0.215982,-0.0698189,0.0910343,0.0984712,-0.028872,-0.119482,0.216772,-0.0462684,0.0715846,-0.106799,-0.0916412,-0.129817,0.0943193,-0.0170217,0.104347,0.0510027,-0.0377562,0.120219,0.135614,-0.0106287,-0.0591354,0.126304,0.0587309,-0.139824,-0.0169151,0.102997,0.0636894,0.0817298,0.0200841,0.0237067,-0.0686019,-0.0732335,-0.0522748,0.228213,0.0845352,-0.115256,0.211063,-0.373549,-0.165608,0.0721829,-0.12659,-0.0133159,-0.171205,-0.0485854,-0.0241732,0.138009,0.135326,-0.0810131,-0.0648092,0.0272105,-0.126439,0.00597853,0.38665,-0.012514,-0.178703,-0.0943926,0.104682,-0.0504487,-0.0312216,-0.0301728,0.123452,-0.104103,0.120116,-0.0888341,-0.0973549,-0.121501,-0.045244,-0.0704905,-0.00391291,-0.228102,-0.0497907,0.0740779,0.0997166,-0.100027,-0.174988,-0.0151102,-0.0294715,0.009138,0.039662,-0.123275,0.0252529,-0.00995839,0.109125,0.0149289,-0.1028,-0.0224606,-0.22614,-0.0456094,0.0813974,0.0325287,-0.226018,0.101368,-0.0577621,-0.051025,0.0828957,-0.10797,0.103151,0.06073,-0.340528,-0.118318,-0.0870442,-0.0799515,-0.125377,0.223056,-0.0964163,0.139051,-0.169567,-0.141724,0.0865974,0.0804281,0.103453,-0.0684255,0.236984,-0.0504285,0.150231,-0.0155424,0.129693,0.0467148,-0.0757171,0.100842,0.0431251,0.0915159,0.0257073,-0.0386176,0.128356,0.0221168,0
-0.219704,0.00949853,-0.194501,-0.0876743,-0.116024,-0.0930946,-0.0576867,0.133294,-0.133921,-0.118268,0.167201,0.173773,0.145531,0.142598,0.0262326,0.115538,0.014743,-0.131402,0.0309249,0.0219024,0.0676852,0.128063,0.00554652,0.133999,-0.021982,0.0125614,-0.0463033,-0.0547774,-0.166265,0.0341174,-0.119558,-0.0598097,0.154049,0.0484782,0.150839,-0.0399615,0.0396726,-0.145657,-0.313176,0.0770356,-0.273379,0.00147412,-0.0536717,-0.00194593,0.120132,0.139057,0.0953618,-0.017237,-0.1676,-0.0797561,0.0896992,0.0934328,0.201394,0.0693987,-0.14572,0.071132,-0.00203465,0.0941912,-0.142591,-0.0188909,-0.0622097,-0.120902,0.00815883,-0.183401,-0.156947,-0.00377252,0.0382283,0.0778268,-0.262264,0.136867,-0.0626265,0.221838,-0.147299,-0.26677,-0.00470102,-0.118078,-0.0266995,0.0677879,0.136297,-0.0713637,-0.0313343,-0.0757767,0.122247,0.0663891,-0.014818,0.238814,0.0547827,0.1284,-0.0873072,0.142897,0.0419767,0.164787,0.164328,-0.0986597,0.121726,-0.155324,-0.169367,-0.249076,-0.156383,0.147865,0.0115032,0.225256,-0.0231082,0.0798318,0.122618,0.242048,-0.210259,-0.181207,0.12341,-0.0692701,0.202891,-0.085738,-0.0928725,0.0659369,0.0349127,-0.147294,0.0373546,-0.0793439,0.0899481,-0.0915622,0.204656,-0.179603,-0.221943,0.0272148,0.301212,0.125192,0.173012,-0.117837,0
-0.219233,0.0316902,0.0904771,0.0442341,-0.10167,-0.0131892,-0.15226,-0.0877672,-0.202206,-0.108523,0.0228731,0.0361337,-0.0412874,-0.237662,-0.0708482,-0.427733,-0.0330241,-0.13688,-0.245241,0.011772,0.216935,0.191893,-0.191497,0.114662,0.307603,0.192467,-0.147755,-0.165394,-0.048324,-0.153914,0.00161956,-0.091582,0.0020847,-0.154988,0.158511,-0.0932068,0.205114,0.0211719,0.190883,0.114055,0.164056,0.0544816,0.0962503,-0.0759762,-0.0453921,-0.120985,0.0216205,-0.233163,-0.0603338,0.253946,0.112265,0.0527438,-0.00578024,0.00265902,-0.133796,0.078394,-0.0349399,0.0178293,-0.0914297,0.0411778,-0.0588246,-0.0810357,-0.173084,0.0551289,0.0793814,0.0848555,-0.0117743,-0.0348942,0.106615,0.251704,0.104866,-0.0118384,0.168693,0.106768,0.141055,-0.0178833,-0.270042,0.0265932,0.0311006,-0.205431,-0.0648971,-0.0933257,0.0210187,-0.280905,-0.20583,-0.164557,0.170611,-0.122788,0.0954849,0.00496406,0.0422447,0.153365,-0.101817,-0.0256082,-0.0107029,0.0393565,0.0643979,0.0970341,-0.214551,0.206341,0.0353325,-0.155569,-0.0257941,0.134592,-0.0764239,0.0126834,0.0588987,0.0133747,-0.0570623,-0.0748051,-0.179587,0.0725418,-0.053236,-0.0165678,-0.033704,0.0190012,-0.0372699,0.0549471,0.0849284,0.158477,-0.0749638,0.089913,-0.0772936,-0.00899371,0.0934631,-0.182183,0.101654,0.122716,0
0.139007,0.0241056,-0.085678,-0.0240524,-0.0763547,0.0256239,0.0268171,0.135748,-0.000838663,-0.00573114,-0.0315572,-0.123391,0.177122,0.0202353,-0.242132,-0.121677,-0.170861,0.096039,0.03422,0.2868,-0.191736,0.166273,0.097291,-0.00654287,0.0209799,0.19865,-0.0431819,0.0787206,-0.00277458,-0.154943,0.106916,-0.176598,-0.0303759,-0.00144403,-0.00743786,-0.0263632,0.0927722,0.238591,-0.243599,0.0595266,0.0109374,0.0998498,-0.132064,-0.0315751,-0.119714,0.0377784,-0.0018451,-0.303022,-0.0801572,-0.0336297,-0.113811,-0.109164,-0.0813152,-0.000565922,0.107236,0.0672609,-0.116596,0.151823,0.0231846,0.176983,0.26206,-0.148382,-0.0478802,0.158111,0.000848323,0.0917267,-0.10358,0.194709,0.15429,-0.102845,-0.016394,-0.0167835,0.132175,-0.0350641,0.000833586,-0.0118487,0.00483708,0.111407,-0.228081,0.109387,-0.121364,0.116918,-0.0746131,-0.00820801,-0.152137,-0.0676307,-0.128005,0.0814271,-0.0382645,-0.10658,0.00335148,-0.117644,0.150422,0.111382,0.165576,-0.0890713,-0.0725749,0.0322394,0.136761,-0.0725945,0.0400971,0.0131865,0.101534,-0.163856,-0.00459107,0.0273545,-0.0999842,-0.0808723,0.0714314,0.0940603,0.0630361,0.0344301,-0.0773538,0.0322635,0.061873,-0.10483,0.112121,0.0247045,-0.0961583,0.0264305,0.180598,0.175316,0.169596,-0.203486,-0.00358097,-0.148535,0.118486,-0.144266,0
0.00238765,0.11851,-0.111268,0.000918781,0.168217,-0.129356,-0.180769,0.110822,0.00847253,-0.134524,-0.175802,0.00398446,-0.182532,-0.01782,-0.00888177,0.017487,0.115638,-0.260179,0.188748,-0.100023,0.161639,-0.177737,0.0368405,-0.178981,0.235504,-0.0457265,-0.342609,-0.220154,-0.0565056,-0.0607958,-0.0906374,-0.0247522,-0.0699904,0.122058,-0.282591,0.0746337,-0.220337,-0.0300952,-0.109034,-0.0680658,0.0757248,0.121508,0.269057,-0.0212258,0.00533802,0.10156,-0.0550963,0.105674,-0.165934,-0.106842,0.249559,0.0222101,0.0444319,0.0698041,-0.158264,0.106183,-0.0853856,0.0637383,0.0541257,-0.0975832,0.0162338,-0.0987122,-0.0185554,0.0363672,0.0580889,0.130638,-0.16475,0.122226,0.044809,0.0079047,-0.0563576,0.0888545,0.213801,-0.0589828,-0.0903206,0.0500718,0.0224266,0.0200315,0.0247211,0.0419606,-0.042177,0.0701709,-0.0653188,-0.0178938,0.257988,0.136702,0.128237,-0.0208816,-0.157269,0.0484221,-0.146563,-0.246676,-0.0974496,-0.128218,-0.116151,0.00212273,-0.0520163,0.0677339,0.0432084,-0.0433261,-0.0689164,-0.0203018,-0.0427752,-0.237053,-0.126936,0.118107,0.101529,0.0376774,-0.151193,0.106322,0.0947033,0.0666065,-0.0765915,-0.0452443,0.0115834,-0.172915,0.0610296,-0.030082,-0.324664,0.20743,0.0738654,-0.143007,-0.0643223,0.197734,-0.131955,-0.111174,-0.0140187,0.155744,0
-0.202536,0.0981131,-0.124501,-0.0427676,0.162401,-0.0850991,-0.0753689,0.181796,0.0533879,0.0938803,0.245277,0.0924309,-0.02467,-0.154525,0.0596113,0.0513126,-0.0569923,0.0271471,0.01044,0.1539,-0.0281667,-0.0461133,0.0604096,-0.135104,0.159775,0.231547,-0.15465,0.0409005,0.0840124,0.0270028,-0.216542,0.0441572,-0.31853,-0.13955,0.22109,-0.10223,-0.00968299,-0.00743471,0.162223,0.00888103,-0.0426065,0.127837,0.102275,-0.0936192,0.0222576,-0.0285377,-0.048539,0.11332,0.0774031,0.10643,0.0534278,-0.182957,0.0162856,-0.0406784,-0.231311,0.0531697,0.284139,0.0416703,-0.038541,0.0775248,-0.025296,0.0423528,-0.0209894,-0.0752407,0.115253,0.0427331,-0.159075,0.00681452,0.131551,0.279159,-0.0415351,-0.101073,-0.0132053,-0.0671022,0.196007,0.353004,0.0362756,-0.00991459,0.0562103,0.0172678,0.251725,0.0374839,0.0654065,-0.111709,0.209122,-0.0697427,-0.124323,-0.0803972,-0.0696742,0.0873687,-0.0247846,-0.27162,-0.0129815,0.173046,0.0368002,-0.181361,0.211933,-0.0379554,-0.231156,0.0644347,0.0292987,0.0057966,-0.254653,-0.143438,-0.00885898,0.114266,0.0922651,0.0259009,-0.066211,0.0343444,0.0610189,0.0385169,0.204356,0.0554702,0.118158,0.0995816,0.0418473,-0.278178,-0.00261281,0.101073,0.0263168,-0.106184,0.114298,-0.191734,-0.195087,0.233192,0.015887,-0.0485991,0
-0.0501886,0.243134,-0.0341014,-0.00424009,0.246644,0.0422845,-0.20375,0.012737,0.00280338,0.338629,-0.0230415,-0.0187349,0.0325982,0.180316,0.0157357,0.119038,-0.10156,0.168514,-0.165879,0.0449166,0.111144,-0.172044,-0.183812,0.0209233,-0.0495307,-0.201281,0.0397698,-0.0167751,-0.0899063,0.0171964,0.0982121,-0.0140722,-0.0442703,-0.153863,0.0476133,0.0307865,0.0509125,0.168699,-0.189302,0.000307347,-0.122802,-0.201304,0.086255,0.14199,-0.013316,-0.00901371,0.00332308,-0.143134,-0.0911626,0.342654,0.118037,-0.0659166,-0.00241475,-0.0525288,-0.0826589,0.0825023,0.26069,0.143842,-0.0660249,-0.0968585,-0.0696989,0.0226913,-0.0297212,-0.128042,0.0799725,0.286579,-0.0563651,0.227792,-0.0318988,0.0293305,0.100188,-0.0617853,0.0168881,-0.0653059,-0.213035,0.132645,-0.0458516,0.00544139,0.132017,0.135072,0.0518769,-0.125112,-0.0524963,0.0874071,-0.120728,-0.0323396,0.00808835,0.125319,0.0752194,0.212155,-0.138171,-0.234619,0.204859,0.0252988,-0.185365,0.0713526,-0.146617,0.204942,0.215244,-0.0310664,-0.105421,-0.0790026,-0.020835,0.236678,-0.196816,-0.0721289,-0.119381,-0.183524,-0.0530451,-0.0356398,0.0743818,0.248663,0.220111,0.182664,-0.104846,0.0271387,-0.0497919,-0.0278807,0.0883084,-0.0356845,0.212257,-0.024698,-0.0592781,-0.168331,-0.217244,-0.112132,-0.199197,-0.00947425,0
