-0.102189, 0.402097, 0.108905, 0.180246, 0.272993, 0.0911136, 0.0221486, 0.145889, 0.762961, 0.360027, 0.718201, -0.775132, 0.166765, -0.278891, -0.118562, -0.278151, 3.03825e-17
0.061173, -0.0262224, -0.156702, -0.109593, -0.850536, 0.236541, -0.0728462, 0.109207, 0.256471, 0.127221, 0.477696, 0.0921004, -0.119341, 0.217278, -0.117075, -0.125368, 1.4044e-18
-0.478466, 0.0481957, 0.186083, -0.143036, 0.0647448, -0.16431, 1.02913, -0.569007, 0.424888, 0.115983, -0.719759, -0.424386, -0.309356, 0.0194141, -0.0187836, 0.487426, 1.89047e-18
-0.31203, 0.182352, -0.0145839, 0.173024, -0.0147552, 0.100268, -0.02162, 0.161583, 0.182778, -0.0810866, -0.0611167, 0.0731565, -0.0728948, 0.151272, 0.266677, 0.158051, -4.21924e-17
0.529046, -0.396438, 0.398934, 0.191002, -0.381327, -0.2285, -0.35439, -0.135856, 0.911237, -0.0471339, 0.541736, 0.0340932, 0.236292, 0.428101, -0.345902, -0.217307, 2.34205e-18
0.397957, 0.321115, -0.236797, 0.703026, -0.42422, 0.280915, -0.00604408, -0.188711, -0.0463732, 0.418113, -0.0416182, -0.258097, -0.13895, 0.203913, -0.630103, -0.224642, -1.6751e-17
-0.180476, -0.0736828, 0.314015, 0.0666069, 0.443056, 0.347986, -0.415585, -0.370251, 0.0414624, 0.558688, -0.395534, 0.305211, -0.120413, 0.332477, 0.604002, 0.260283, -1.40817e-17
0.653081, -0.249808, -0.516342, 0.449055, -0.399721, -0.160092, -0.191756, 0.0589719, 0.444895, -0.0899298, 0.132767, 0.385192, 0.497997, -0.411282, -0.112707, -0.120457, -6.7283e-18
0.194625, 0.895492, -0.53921, 0.485443, -0.00840399, 0.294859, -0.719011, 0.111527, -0.106214, -0.125997, -0.372721, -0.0774312, -0.139095, -0.378273, -0.5557, -0.265276, -1.20466e-17
0.00897954, 0.170094, -0.351302, 0.10227, -0.275654, 0.167008, 0.0373059, 0.315365, 0.422652, -0.019512, -0.0765211, 0.144892, 0.261947, 0.594997, 0.494031, -0.0222012, 2.96861e-17
-0.228842, -0.0718337, 0.502034, 0.145249, -0.495973, -0.146396, -0.290854, -0.352235, 0.174659, 0.211303, 0.399144, 0.255008, -0.336761, -0.067312, -0.223204, -0.273565, -3.23825e-18
0.195018, -0.123199, 0.229069, 0.129126, -0.490626, -0.443865, 0.0534382, -0.058193, 0.421456, -0.549041, -0.0599297, -0.343797, 0.0497227, -0.301759, -0.147059, 0.0657517, 1.95331e-19
0.272694, 0.389346, 0.0346425, 0.0207493, 0.410406, 0.0294762, -0.273218, -0.266144, -0.281969, -0.234607, -0.105303, 0.359883, 0.702033, -0.228131, -0.00863187, -0.0246026, -2.55008e-17
0.432053, 0.403761, 0.135497, -0.0263264, 0.336348, -0.12259, -0.237988, -0.155887, -0.653061, -0.660405, 0.173194, -0.0532708, 0.131014, -0.118968, -0.0962507, 0.0542731, 5.00136e-18
-0.0432607, -0.32164, 0.694057, -0.0164075, -0.238518, 0.49837, -0.0401549, -0.0625719, 0.149798, -0.0641685, 0.202659, 0.0182478, -0.0118039, -0.326363, 0.506013, -0.179721, 2.13224e-18
0.402025, -0.0885732, -0.468394, 0.343594, 0.648293, 0.398402, -0.253314, 0.480511, -0.151522, 0.341145, -0.722735, -0.00979232, 0.304145, -0.280063, 0.529119, 0.0248012, -8.05462e-18
-0.280919, 0.38691, -0.168526, 0.0986505, -0.0726175, -0.579307, -0.290046, -0.151205, 0.00704656, 0.218113, -0.461587, 0.818495, -0.0378279, 0.531297, -0.0946705, 0.0859509, -6.39308e-18
0.354724, 0.297214, 0.202009, 0.111523, -0.338372, -0.177082, -0.411284, 0.101793, -0.352502, -0.0991073, 0.124172, -0.120095, 0.302762, -0.177887, 0.364202, -0.0299808, 3.10382e-19
-0.445461, 0.414289, 0.327846, 0.0183492, 0.542939, 0.0402547, 0.489138, 0.32012, 0.0943273, 0.476514, -0.00111128, 0.33605, -0.246113, -0.123162, -0.0125567, -0.336308, 4.10126e-18
-0.218546, 0.0183947, -0.361154, -0.631466, 0.115518, -0.165104, -0.020236, -0.520478, -0.202313, 0.126073, -0.269591, -0.338392, 0.119721, 0.21068, -0.461177, -0.043684, 1.10884e-17
-0.351723, -0.0194181, 0.375164, 0.19215, 0.0780144, -0.361779, 0.436548, -0.104119, 0.125736, 0.154627, 0.289569, -0.160516, -0.181915, -0.140232, 0.775163, -0.293408, 1.40047e-18
0.0206835, 0.372889, -0.522206, 0.440228, -0.322732, -0.161753, -0.195944, -0.23297, 0.078654, -0.0131435, -0.407228, -0.0087901, 0.118363, 0.506934, 0.103435, -0.255661, -3.89457e-18
0.116529, 0.398672, -0.437873, 0.247913, 0.175796, -0.330001, 0.440321, 0.127702, -0.365389, -0.24803, 0.228167, -0.466819, 0.445152, -0.821977, 0.53831, -0.127683, 1.33663e-17
-0.312692, 0.201297, -0.3161, -0.120456, 0.44698, -0.286158, 0.104041, -0.263352, -0.71088, 0.260698, 0.209938, -0.143939, -0.124096, -0.0897834, -0.0425326, -0.225225, -8.79856e-18
-0.0873743, -0.592604, -0.412031, 0.119934, -0.261778, -0.162839, -0.371111, 0.0573786, -0.0217122, 0.127892, -0.393182, 0.488387, -0.376682, -0.0153596, -0.123246, 0.0830887, -7.99524e-18
0.0752682, 0.394239, -0.303497, 0.758698, -0.0484532, -0.372662, 0.0546128, -0.83614, 0.338113, 0.249347, 0.304064, 0.139487, -0.140556, -0.292438, 0.197192, -0.150692, -5.35179e-18
0.206166, 0.494044, -0.0646783, 0.117221, -0.0704137, -0.465402, -0.0894436, 0.0824713, -0.0997163, -0.293462, 0.0251923, 0.0216363, -0.176275, -0.801579, -0.0664352, -0.281601, -1.27327e-17
0.138642, -0.418894, -0.21465, 0.128546, 0.127715, -0.281659, 0.380101, 0.584004, 0.494205, -0.102238, 0.375782, -0.471007, -0.131228, -0.468559, -0.528923, 0.0419154, 3.16735e-17
0.423212, -0.447939, 0.00856176, 0.273752, 0.87955, -0.384005, -0.249812, -0.212724, 0.559309, -0.0142431, -0.0429585, 0.213052, -0.0415748, 0.188269, -0.116405, 0.193745, -1.89794e-19
-0.17505, -0.228433, -0.00932053, 0.357673, 0.37868, 0.273698, -0.448096, -0.0667043, 0.240154, -0.274395, -0.333569, -0.46977, -0.084575, 0.437266, 0.0300611, -0.153951, -9.43496e-18
0.144672, -0.0509078, 0.103276, 0.0206922, -0.213105, -0.388551, 0.0995696, 0.140501, 0.22966, 0.573407, -0.184075, -0.337695, 0.455456, 0.19516, 0.215427, 0.949682, 7.78187e-18
-0.11094, 0.145259, -0.720559, -0.117418, 0.2095, -0.00977094, 0.182567, -0.153216, -0.193333, -0.341454, -0.16514, 0.332291, -0.143999, -0.795999, 0.594518, -0.36303, -9.41913e-18
-0.410905, 0.724328, -0.345038, -0.229008, 0.0344702, -0.359082, -0.0042848, 0.0544702, 0.0658402, 0.328431, -0.133076, 0.00569797, -0.16274, -0.0768815, -0.103236, 0.104777, -1.92256e-18
-0.28798, 0.0957411, -0.534423, -0.348939, 0.426332, 0.123527, -0.0817245, -0.293486, 0.248546, -0.0637613, 0.674562, 0.00416427, 0.044796, -0.403523, 0.365389, -0.237624, 8.67255e-18
0.208223, -0.00772314, 0.134764, 0.189879, -0.136363, 0.292828, 0.203423, -0.00686569, -0.241538, -0.00703845, -0.166407, -0.129992, -0.268164, 0.202864, -0.0582792, 0.169877, 3.06413e-17
-0.01818, 0.374481, 0.332695, -0.276437, -0.391568, -0.649083, 0.184741, 0.350841, 0.00916747, -0.241407, -0.0121293, 0.208609, 0.0415957, -0.0809148, -0.0394147, -0.294022, 1.33743e-17
-0.209833, 0.206169, -0.284395, 0.662579, -0.40932, 0.442938, 0.474737, -0.259636, -0.345874, -0.821828, -0.29344, -0.202514, -0.0350087, 0.17985, -0.158497, 0.00237348, -2.77938e-18
0.0173893, -0.0812823, 0.091597, 0.187569, -0.386935, -0.165545, -0.49068, -1.08714, 0.224662, -0.0634021, 0.437025, -0.298624, -0.0227957, -0.370549, -0.0818304, -0.129864, -5.86718e-18
0.0907274, 0.328653, -0.0420078, -0.107627, 0.475966, -0.191799, 0.208018, -0.556742, -0.410512, -0.198378, 0.244837, 0.140138, 0.133893, -0.128555, 0.159017, 0.673222, 2.04581e-17
0.0793536, 0.135833, 0.640146, -0.0575461, 0.286118, 0.130946, -0.338572, -0.182394, 0.00419968, -0.0618766, 0.0468746, 0.623562, 0.0043561, -0.00260554, -0.122473, 0.388239, -3.63138e-17
0.420088, -0.35692, -0.153464, 0.429201, -0.207091, 0.244782, -0.360465, -0.352967, 0.0966567, 0.44257, -0.206879, 0.352309, -0.450529, 0.086702, -0.144883, 0.0621836, 4.24798e-18
-0.495381, -0.336549, 0.228673, 0.227881, 0.217867, -1.14175, -0.34774, -0.393585, -0.13749, 0.0441115, 0.817977, 0.0105395, 0.0268571, -0.125235, -0.206593, 0.0720612, 9.84904e-18
0.214693, -0.175875, 0.430472, -0.0308581, -0.202842, -0.341646, 0.507211, -0.169888, 0.0248308, -0.00865057, -0.0205175, -0.061756, -0.158463, -0.00333294, -0.197546, -0.232028, -9.28506e-19
0.448554, 0.295767, 0.498478, 0.658963, -0.448786, 0.14743, 0.13519, -0.34312, -0.222825, 0.0134317, -0.0321894, -0.200746, -0.240728, 0.180883, 0.311862, -0.289383, 1.27709e-18
0.636014, 0.0109343, -0.0252288, -0.490836, 0.407835, -0.055529, -0.341624, 0.0132496, -0.0118728, 0.559072, 0.793858, 0.163956, 0.332441, 0.501809, 0.0293652, 0.292182, -5.68451e-18
0.125074, 0.453657, 0.282903, -0.257263, -0.28679, -0.293721, -0.275227, -0.24592, 0.417487, 0.260896, 0.088992, -0.627005, -0.0777144, 0.295256, 0.144894, 0.187851, -1.25158e-17
-0.373952, -0.555924, -0.361722, -0.108396, 0.275295, 0.0804744, -0.355491, 0.0585772, 0.105699, -0.250004, -0.597524, 0.241021, 0.274811, -0.345001, -0.295617, 0.0707576, -3.62372e-17
-0.0306726, 0.131567, -0.312718, -0.529656, -0.430401, 0.357913, 0.220319, 0.518839, 0.0736677, -0.149169, 0.0309503, 0.0131678, -0.295653, -0.028624, -0.677955, -0.461296, 3.40357e-17
-0.548626, -0.238383, 0.264804, 0.181373, 0.40993, -0.22545, -0.147, 0.0247943, -0.197653, -0.380496, -0.251705, 0.382509, 0.162237, 0.239348, 0.544775, -0.281457, -9.04674e-18
0.1288, -0.282549, 0.0148897, -0.209776, -0.55587, -0.131106, -0.517054, 0.206852, 0.225001, -0.0681902, -0.155779, 0.642022, 0.0477572, 0.101992, -0.630686, -0.338852, -6.18282e-18
0.0341768, -0.230741, 0.083104, -0.237942, 0.0978225, -0.00584056, 0.0207123, 0.48946, 0.359366, 0.169834, 0.128676, 0.0253706, -0.395422, -0.489596, -0.0746332, -0.0601439, -2.85869e-18
0.118626, 0.0764997, -0.00788024, 0.339565, -0.222331, -0.531179, -0.42323, 0.787276, -0.247525, -0.474845, -0.359511, 0.462743, -0.472073, 0.344419, -0.762152, -0.0630226, -3.28787e-18
0.479544, -0.0770877, -0.71258, -0.245675, -0.268907, -0.0754835, -0.433381, -0.582303, -0.28905, 0.0161394, 0.0734361, -0.389066, -0.387374, -0.0299399, 0.314409, -0.167655, 8.20996e-18
0.241396, -0.0796677, -0.491622, 0.000971865, 0.939971, -0.0862474, 0.625341, 0.124897, -0.0962023, -0.208722, -0.279034, 0.05234, -0.496862, 0.18735, -0.20333, 0.163389, 7.51732e-18
0.525743, -0.424011, 0.19329, 0.0859148, -0.435898, 0.359037, -0.0199436, -0.19418, -0.155638, -0.0674315, -0.17851, -0.52403, 0.435264, -0.304965, 0.204284, 0.225792, 7.92373e-18
0.503492, -0.287558, -0.174679, 0.0942597, -0.247741, -0.136126, 0.178793, 0.0256091, 0.265361, -0.00262873, 0.214326, 0.212664, 0.0411357, -0.458964, 0.342726, 0.145565, -5.46965e-18
-0.546889, -0.120633, 0.225184, 0.223733, 0.0729427, 0.192389, -0.0397924, 0.479455, -0.558364, 0.39557, 0.307529, -0.212216, -0.378679, 0.06883, -0.0962419, 0.0853414, 2.5584e-17
0.288036, -0.339109, -0.511867, -0.0669626, 0.186426, 0.257186, 0.498612, -0.0880133, -0.147811, 0.0940205, 0.247332, 0.0727706, -0.29942, 0.0712258, 0.112102, -0.13231, -5.01261e-18
0.127252, 0.239354, 0.0895138, -0.269271, -0.0339243, -0.0916163, 0.160643, 0.211273, 0.729799, 0.0511249, 0.0265036, 0.115139, -0.099785, 0.000792869, 0.439689, -0.234821, 7.41898e-18
-0.151804, -0.879195, 0.308596, 0.00211738, 0.323606, 0.18895, 0.168114, -0.0103672, -0.158031, -0.89839, 0.399597, -0.206106, 0.0908075, 0.532838, 0.297549, 0.348972, -1.11137e-17
-0.133088, 0.319859, -0.285674, 0.286741, 0.00782461, 0.677421, 0.152473, -0.248376, -0.174903, -0.144357, 0.120628, 0.520448, -0.207308, -0.366178, 0.47357, -0.521114, 1.44882e-18
-0.429795, 0.0619533, 0.487466, 0.279602, -0.209451, 0.074539, 0.0448405, -0.0249094, 0.116391, 0.153973, -0.339667, 0.224242, 0.169731, -0.284194, 0.2205, -0.156683, 8.87575e-18
-0.20147, 0.3363, -0.229146, -0.24759, -0.400679, -0.0713166, -1.07937, 0.287479, -0.576878, -0.0129648, -0.383944, 0.15938, 0.240972, 0.139578, 0.337022, -0.612363, 8.40009e-18
-0.232904, 0.300987, 0.0174074, 0.169514, -0.00486292, -0.0134322, 0.0907646, -0.220601, 0.105326, -0.316196, -0.0220661, -0.1442, 0.220854, -0.131988, 0.0387003, -0.530353, -1.20103e-17
0.138181, 0.131872, -0.237123, -0.200893, 0.118976, -0.34696, 0.0047678, 0.0162724, -0.326032, -0.052699, -0.033275, 0.321521, -0.0264566, 0.115964, 0.404045, -0.24257, 0.174839, 0.0378016, -0.0392499, -0.111863, -0.123552, 0.11555, 0.382518, -0.294675, 0.248794, -0.0425379, 0.19392, 0.295735, -0.0124589, -0.0306165, -0.0526284, -0.0526813, -0.142976, 0.270539, -0.371477, 0.0579261, -0.0425626, 0.072885, 0.0475, -0.0120908, 0.0146769, 0.119968, 0.342213, -0.122221, 0.185136, -0.0114629, -0.1192, -0.0815656, -0.0829621, -0.0329735, 0.0288751, -0.364173, -0.0002281, -0.199314, 0.0954803, 0.125402, -0.242595, 0.0517473, 0.0116893, 0.384812, 0.189536, -0.245149, 0.0289243, -0.115342, -1.32419e-17
-0.053904, -0.30771, 0.370718, -0.0510955, -0.033126, 0.0678942, -0.0420283, 0.221495, -0.0513798, 0.227786, -0.0423639, 0.0840327, 0.228262, 0.100975, -0.323561, 0.176117, 0.132506, -0.195886, -0.20085, 0.25895, -0.134419, 0.129005, -0.117728, -0.0485486, -0.166186, 0.136758, 0.176596, -0.105287, 0.238764, 0.113191, 0.219831, -0.0941132, -0.178452, -0.192137, 0.403684, 0.0759157, -0.109348, 0.167683, -0.320688, -0.244882, -0.11783, 0.0381882, 0.0875254, -0.148555, -0.317625, 0.151718, 0.0939265, 0.093855, 0.109487, -0.0580013, 0.149034, -0.0674175, -0.225777, 0.0787526, -0.116, -0.186218, -0.00590762, -0.0197977, 0.332541, -0.0450054, -0.253378, -0.0301299, -0.211091, -0.109323, 3.88108e-17
0.0773951, 0.00102473, -0.0428548, -0.360749, -0.0473987, -0.189589, -0.437393, 0.102056, 0.150823, -0.284475, -0.210474, -0.0480217, -0.181209, 0.115787, -0.00179705, 0.171784, 0.00740834, -0.124818, -0.0388195, -0.0533587, -0.145514, -0.0697023, -0.278365, -0.157625, 0.089273, -0.108658, -0.409591, -0.0861275, 0.0306988, 0.054099, 0.0310046, 0.0320899, -0.206137, 0.180296, -0.123559, -0.180778, -0.0802675, -0.102751, -0.289459, 0.0229779, -0.116688, 0.109932, -0.365161, -0.214104, -0.159293, -0.194248, 0.114534, 0.33193, 0.0466791, 0.060444, -0.0485106, 0.186812, -0.228904, -0.24221, -0.0573855, 0.000959074, 0.162312, -0.144937, -0.206057, -0.257688, -0.068044, -0.114442, -0.338434, 0.00948164, 1.27899e-16
0.00529491, -0.142989, 0.194662, 0.106105, 0.176344, 0.142415, -0.277748, 0.112881, -0.0506705, -0.354991, -0.0656405, -0.124912, -0.139646, 0.145649, 0.145241, 0.0246296, -0.0225525, -0.123643, 0.107677, 0.0765185, 0.00813401, 0.166134, -0.0612098, -0.122265, 0.0818638, 0.0888841, 0.0901118, -0.0527626, 0.17206, 0.11639, -0.0297403, -0.20819, -0.0407044, 0.022421, -0.00428951, 0.175618, 0.108789, -0.351091, 0.0383725, -0.0692075, 0.0306496, 0.03722, 0.0128898, -0.00336144, 0.173482, 0.0950928, -0.118586, -0.199342, -0.0248742, -0.11262, -0.184422, -0.275119, 0.0606621, -0.0895805, -0.0571505, -0.0632541, -0.0306393, 0.0924621, -0.155694, 0.0536579, 0.136957, -0.0172205, 0.05221, -0.0844629, -4.65377e-17
-0.221671, -0.215776, -0.0658797, 0.126342, -0.277625, -0.060197, 0.0258656, -0.0238713, -0.0633202, 0.00460036, -0.0735284, -0.187865, 0.0208151, 0.0959408, 0.113327, 0.0639981, -0.1981, -0.14009, 0.0731083, 0.193649, 0.0442543, -0.0907692, -0.0922484, 0.0047317, -0.157388, 0.0537462, -0.104086, -0.119065, -0.0771025, -0.08199, 0.151177, 0.0985058, 0.206073, 0.24293, -0.236913, -0.0726837, -0.0688616, -0.151294, -0.196338, -0.276868, -0.302039, 0.10071, 0.441734, 0.26209, 0.021389, -0.0319967, 0.280792, -0.194066, 0.0878814, -0.186679, -0.0376868, -0.00941693, -0.136702, 0.248131, 0.087183, 0.427713, -0.14584, 0.161155, 0.0817555, 0.26975, 0.138811, 0.0165329, 0.10632, -0.227456, -6.92859e-17
-0.122598, 0.00988894, -0.0297908, 0.252242, -0.320784, 0.0384691, 0.333145, -0.0581381, -0.203185, 0.0098735, 0.114982, 0.0341418, 0.235148, -0.147517, -0.064072, 0.115044, 0.17286, -0.0406505, 0.00162885, -0.162083, 0.037389, -0.147486, 0.120845, 0.0411248, 0.0902153, -0.210863, 0.287265, 0.11458, -0.0614919, -0.0967444, -0.252196, -0.0289714, 0.313276, 0.0325265, -0.035118, 0.30649, -0.116247, -0.0330058, -0.216087, 0.0775423, -0.111346, -0.251457, 0.0399327, 0.180092, -0.153688, 0.0310225, 0.156168, -0.115921, -0.205267, -0.0318925, 0.134989, -0.100695, -0.270745, 0.271414, -0.228729, -0.216123, 0.0171783, -0.23162, -0.0901737, 0.0704285, -0.122648, -0.129876, -0.130958, -0.123226, -7.20046e-17
-0.0842867, -0.276842, 0.166721, -0.108359, -0.014008, -0.275353, 0.133555, 0.0513218, -0.270398, -0.0868498, -0.274539, 0.0807462, -0.0126421, -0.063801, 0.222506, -0.173646, 0.194517, 0.086125, 0.0104945, -0.0590976, 0.338389, -0.172149, -0.0937285, 0.220221, -0.0645545, 0.185765, -0.192038, 0.324809, 0.192122, 0.214298, 0.0410005, 0.11212, 0.015807, 0.10931, -0.307779, 0.0466986, 0.210441, -0.14827, 0.0103873, 0.225346, 0.174076, 0.0275665, 0.115318, 0.181007, -0.180358, 0.25579, 0.0334497, -0.225558, 0.0232961, 0.197287, -0.38453, 0.0450932, -0.236921, 0.0692808, -0.171838, -0.179906, 0.210629, -0.262303, -0.309403, 0.0314818, -0.168772, 0.219801, 0.205644, 0.415963, 1.29268e-16
0.0321349, -0.201406, 0.463906, -0.0674746, -0.2146, 0.177242, -0.318157, -0.0674544, 0.0796223, -0.197043, -0.191372, 0.0182389, -0.077726, 0.277132, -0.180212, -0.201259, 0.0713702, -0.180143, 0.178326, -0.221334, 0.299641, -0.192817, 0.0723961, 0.146628, -0.0557723, 0.244723, 0.304806, 0.276678, 0.201983, 0.0423966, -0.167467, -0.0975362, -0.0617869, 0.00749774, 0.0702616, 0.0794485, -0.153068, 0.00372977, -0.121596, 0.0889961, -0.146724, 0.0110863, -0.0301629, 0.00473768, -0.196617, -0.138986, 0.0638953, -0.0210018, 0.0956237, 0.161967, 0.0205381, 0.11116, -0.0626319, 0.0364835, 0.0457465, 0.00338729, -0.255287, 0.0714734, 0.159686, -0.305517, 0.0807335, 0.0481391, 0.0462529, 0.230109, -1.42693e-17
0.022404, -0.220486, 0.0224223, -0.181699, 0.137613, 0.36556, 0.247242, 0.0990679, -0.15941, -0.100853, -0.0499582, -0.0355459, -0.012205, 0.20003, 0.0369252, 0.28577, -0.531328, 0.0697348, -0.0506264, 0.0907929, -0.0172271, -0.074765, -0.29112, 0.262347, -0.0164159, -0.0868574, -0.260033, 0.173833, -0.188327, -0.0772454, -0.212036, -0.167746, 0.246099, -0.19813, 0.191166, -0.197861, -0.0766873, 0.0585275, 0.165978, 0.0724264, 0.0711596, 0.092189, 0.237469, 0.0542811, -0.173616, 0.0397154, 0.0119012, 0.0740981, 0.0956278, -0.235072, -0.157264, 0.0941072, -0.125669, 0.112977, 0.109974, 0.187171, -0.0473312, -0.115883, -0.0366474, 0.411818, -0.210328, 0.406968, 0.12554, -0.234806, -1.49047e-16
0.225989, 0.269051, -0.0168408, 0.367557, -0.0648731, 0.206563, -0.0377317, 0.196647, 0.0781795, -0.113173, 0.122994, -0.168216, -0.130171, -0.00274683, -0.244256, -0.238973, -0.274122, -0.26935, -0.0681105, 0.0262079, -0.0362078, 0.116211, 0.0151715, -0.0616332, -0.0245109, -0.115162, 0.102866, -0.0454922, -0.0709525, -0.0519053, 0.243927, -0.261767, 0.0995244, 0.0152195, 0.0749155, 0.107414, 0.0743463, -0.0209908, -0.319639, -0.000316129, 0.0407723, 0.241906, -0.170609, 0.102636, -0.0093331, 0.0181006, 0.334014, 0.246234, -0.0618548, 0.00823195, -0.178549, -0.127793, -0.0446934, -0.203898, 0.361626, -0.0991041, 0.168031, 0.0968034, -0.0266435, 0.0785614, 0.00827956, -0.0757224, 0.0343439, -0.114718, -3.3156e-16
-0.0840676, -0.315699, -0.0342676, -0.0413567, 0.19875, -0.00125314, 0.0950358, -0.039328, -0.0323234, -0.27538, 0.14256, -0.0376319, 0.16921, 0.197207, 0.0953616, -0.179354, -0.26056, 0.0183167, -0.214129, 0.0858684, 0.0247118, -0.234, -0.272515, -0.205182, -0.158713, 0.106866, -0.0452225, 0.0274426, -0.338712, 0.0486444, 0.115479, 0.152372, -0.362493, -0.182807, 0.25815, 0.192066, -0.178325, 0.0161746, 0.340828, -0.0600402, 0.172159, 0.200964, 0.328957, 0.0108237, -0.242652, 0.376, -0.184303, 0.16331, -0.250824, 0.0664972, 0.194694, -0.199012, 0.0618206, 0.131543, 0.136782, 0.137924, 0.11608, -0.257766, -0.166359, 0.091743, -0.0896735, -0.211788, 0.09391, 0.112579, -2.87756e-17
0.0747346, -0.101505, -0.000523462, 0.369974, -0.143088, -0.241758, -0.0367933, -0.302025, 0.169811, -0.165893, 0.0182364, -0.26301, 0.0205006, -0.129016, 0.20174, 0.266934, 0.118865, -0.250335, 0.184911, -0.298743, 0.234869, -0.206692, 0.170395, -0.150744, -0.177628, -0.263511, 0.0879386, -0.0303542, -0.0411087, -0.0642896, -0.127447, -0.205767, 0.0909181, 0.0433674, 0.0250782, -0.164494, -0.0221042, 0.137633, -0.153074, 0.091401, -0.127688, -0.0961096, -0.401073, 0.232762, 0.112266, -0.0271356, -0.438436, 0.0596024, 0.318162, -0.260825, 0.170024, -0.444454, 0.1138, 0.183239, -0.150967, -0.276017, 0.375496, 0.151581, 0.277468, -0.00899323, -0.0602809, -0.0521001, 0.366433, 0.00473486, -1.74342e-17
-0.116281, -0.0047504, -0.297343, -0.0259895, 0.146274, -0.0289477, -0.192627, -0.0054192, 0.00673861, 0.232221, 0.121168, -0.136175, -0.122199, 0.00147673, -0.0336178, -0.00305127, 0.199389, 0.187306, -0.264227, -0.233269, 0.00452549, -0.16788, -0.0626159, 0.0802899, 0.0909066, 0.147856, -0.354227, 0.176845, 0.0763413, -0.384348, 0.129907, 0.19864, -0.119177, -0.0674411, -0.135357, 0.229356, 0.227253, -0.108072, -0.135687, -0.198523, 0.1496, -0.0838062, -0.00341319, -0.0670613, 0.124503, -0.0169367, -0.145381, 0.0597433, 0.161318, -0.295448, 0.206798, -0.0957307, 0.222439, -0.0359377, 0.0550425, 0.302525, -0.441713, 0.14295, 0.119064, 0.0538177, 0.0469626, 0.116918, -0.0930551, -0.358207, -7.38259e-17
-0.0379029, -0.165563, -0.236808, 0.104274, 0.117657, 0.124686, 0.0434088, -0.245425, -0.273539, 0.0269729, 0.0198109, 0.0686305, 0.141501, -0.120612, -0.211241, -0.211221, 0.15988, -0.213816, 0.0575009, -0.0914737, 0.0955896, -0.0478859, -0.0722775, 0.119485, 0.247885, 0.0942739, -0.010262, 0.111795, -0.0904193, -0.265591, -0.469516, 0.0106439, 0.138258, -0.100932, -0.160391, -0.00710496, -0.0219507, 0.208787, 0.25011, 0.114862, -0.213702, -0.278154, 0.00906695, -0.133094, 0.081209, 0.0806748, -0.19047, -0.0865017, -0.158873, 0.0608755, -0.251985, -0.126713, 0.417319, -0.00753162, 0.422048, 0.057985, -0.215005, 0.157189, -0.0114147, -0.163501, 0.0793389, -0.21676, 0.160871, 0.00932252, 9.43341e-17
0.0217677, -0.00454458, -0.195479, 0.157627, -0.062689, 0.0977704, 0.171194, 0.212069, 0.115432, 0.265662, -0.100322, -0.071786, 0.131091, 0.0116426, -0.0928104, 0.089288, -0.165363, -0.0396722, 0.107145, 0.0785863, 0.093687, 0.0202132, 0.303064, 0.0843208, -0.177388, 0.0841625, 0.150377, -0.244168, -0.0626818, 0.0217603, -0.251121, 0.177938, -0.118562, 0.0954518, -0.106865, -0.328456, 0.258935, -0.264892, -0.0388218, -0.154389, -0.106832, -0.24132, -0.219313, -0.0149996, -0.11913, 0.0219082, -0.0925925, -0.055409, -0.00607835, -0.114623, -0.05332, -0.0984218, 0.0918841, 0.221547, -0.15001, -0.00223251, -0.0400536, -0.134781, 0.0274981, 0.06912, 0.0265122, -0.278459, 0.104771, 0.0143474, 4.08181e-16
-0.169644, -0.0860445, 0.109032, -0.0776586, 0.0503206, 0.110883, -0.0632039, 0.0282616, -0.205107, -0.246589, -0.166122, -0.0368666, -0.175792, -0.311593, 0.160465, 0.151796, -0.253825, -0.133666, 0.0557553, -0.224642, -0.29025, -0.212153, -0.138097, 0.132625, 0.102657, -0.141182, -0.00398144, -0.12459, 0.0897018, 0.129748, -0.0613015, 0.0447282, -0.173899, -0.145333, 0.222964, -0.0135699, 0.137057, -0.378932, -0.0822547, -0.0570429, 0.107395, -0.168908, 0.0908415, -0.0168192, 0.0293783, -0.203486, 0.0569262, -0.321601, -0.291761, 0.0138301, 0.151919, 0.0285094, -0.0803842, 0.166574, 0.122954, 0.225509, -0.167552, 0.120551, -0.0519287, 0.266515, 0.109691, -0.157593, -0.373474, 0.0211986, -1.22498e-17
0.267661, -0.262235, -0.00776089, -0.0652077, 0.0486154, 0.566206, 0.161943, -0.14707, 0.0553258, -0.209783, 0.0107862, -0.256071, 0.216466, 0.311225, 0.0545045, -0.29712, 0.0202028, -0.199904, 0.040454, 0.339243, -0.298692, 0.162404, 0.0937407, 0.239502, 0.299391, 0.0391807, -0.0154755, -0.467381, -0.208657, -0.0967496, 0.097755, 0.0271438, 0.0305249, 0.0939245, -0.0880031, -0.153001, 0.0566123, -0.0684132, 0.20763, 0.123567, 0.130111, 0.0623338, 0.165931, -0.134985, -0.13543, 0.110899, -0.142173, -0.242313, 0.119658, -0.157787, -0.273403, -0.106386, 0.0484594, -0.149688, -0.0614228, 0.0490641, 0.108271, 0.126926, -0.154999, 0.164148, 0.124462, -0.095821, 0.180532, -0.079499, -9.97965e-17
0.15402, -0.311715, 0.0345178, 0.130796, 0.032932, 0.426756, 0.126294, -0.361835, -0.0907086, -0.140473, 0.069758, -0.343957, 0.0474157, 0.170372, -0.0272578, 0.154298, 0.320806, 0.00536525, -0.192811, 0.109563, -0.170906, -0.115854, 0.0799094, 0.000159807, -0.196149, 0.0774088, -0.156981, -0.235227, 0.0928893, -0.0717638, 0.0388623, 0.179119, -0.0843881, 0.101582, -0.12451, -0.194794, 0.00409459, -0.427052, 0.260059, 0.0116109, 0.0592807, -0.194265, 0.168984, -0.15165, 0.225944, -0.122847, -0.0851402, -0.067018, -0.0128295, 0.228125, 0.134222, 0.403136, 0.0733273, 0.129403, 0.350459, 0.0885131, 0.0756809, -0.0716695, 0.134993, 0.17618, 0.059176, -0.0697374, 0.18177, 0.0665665, -4.88807e-16
0.0920077, -0.157025, -0.0639471, 0.287971, 0.165071, -0.189198, -0.406598, 0.133192, 0.0646037, 0.0634185, -0.161236, 0.102969, -0.13754, -0.0838046, 0.0352359, -0.0084734, -0.328975, 0.095807, -0.043858, 0.103892, -0.0422769, 0.133167, -0.0417018, 0.0226983, -0.0350193, -0.154818, 0.0713789, -0.00339742, -0.389932, -0.0842822, -0.0242862, 0.256107, 0.110774, 0.0912682, 0.120958, 0.299768, -0.0300872, 0.241834, 0.0353402, -0.235458, -0.0192587, 0.0333656, -0.187184, -0.099263, -0.552864, 0.181449, -0.0266799, 0.150296, 0.386874, 0.0689701, 0.0835185, -0.18736, 0.0772603, -0.0786747, -0.278189, -0.07919, -0.222792, -0.010408, -0.0969788, -0.11542, -0.200485, 0.41815, -0.183315, 0.101491, -5.8257e-17
0.0475903, 0.260972, 0.0983548, -0.329762, -0.0899345, -0.238945, 0.0402248, 0.128639, -0.25068, -0.0360766, -0.0347591, -0.0716126, -0.221433, 0.159178, -0.0784503, 0.0473985, 0.103968, -0.0639707, -0.0990125, 0.0563508, 0.192269, -0.0958874, 0.0309913, 0.112808, 0.0109701, 0.0962481, -0.098272, -0.0945022, 0.0241114, -0.395897, -0.0731946, 0.181819, 0.0692359, 0.183954, -0.0874828, -0.0403733, -0.311504, -0.0856112, 0.0184241, -0.0929171, -0.0759822, 0.154947, -0.0557933, -0.239397, 0.187345, -0.061499, -0.4035, -0.0405808, 0.0486359, -0.0423718, -0.00353979, 0.153513, 0.178565, -0.0103207, -0.00190716, 0.0132984, 0.258248, 0.1322, -0.00417971, -0.148401, -0.153852, -0.142158, 0.0793134, 0.128422, -4.21456e-17
0.156371, -0.0383663, -0.0316435, 0.0647744, -0.134197, -0.018781, -0.131547, 0.0979195, 0.045322, 0.357133, -0.0895663, 0.0793561, 0.0437115, -0.165506, -0.106074, 0.119271, -0.0988272, 0.0754147, -0.190743, 0.265723, -0.0423572, -0.162512, -0.191015, 0.0264915, -0.000535091, -0.250282, -0.0055925, 0.109509, -0.0455284, 0.128185, 0.327744, -0.141041, -0.0114123, -0.0847898, 0.0948293, -0.238619, -0.100404, 0.0284287, 0.14168, 0.0457821, 0.252754, -0.0860877, 0.107935, -0.19144, 0.0423645, 0.0467772, -0.0794499, 0.0969862, -0.0513974, 0.175462, -0.340259, 0.00151266, -0.073095, -0.0639447, -0.0671411, -0.115373, -0.164281, 0.0155456, -0.222154, 0.0145132, -0.40066, 0.0187325, 0.163228, -0.0510985, -8.17723e-17
-0.179373, 0.233799, -0.082707, -0.301975, -0.110759, -0.136964, 0.132375, 0.0320276, 0.245142, 0.0694388, -0.0522234, 0.0364139, -0.159771, -0.147112, -0.317826, 0.245115, 0.151924, -0.0563811, -0.260583, -0.0688247, -0.107812, -0.274687, -0.101939, -0.0149003, 0.130351, 0.0705846, -0.222004, -0.0494873, 0.123674, -0.0851148, -0.114515, -0.0797303, -0.0841984, -0.00648247, 0.137763, 0.0290077, -0.295694, -0.103297, -0.107617, -0.0222105, -0.0448731, 0.195264, -0.00930389, 0.0128764, 0.0162443, 0.0492509, -0.0906783, -0.0313313, -0.295251, 0.0968805, 0.13245, 0.0548216, 0.0584653, -0.0687172, 0.148593, -0.2843, -0.0161603, 0.0709103, -0.299872, 0.0126229, -0.0975195, -0.000659166, 0.106253, -0.0925004, 1.76684e-16
-0.0191514, -0.115819, 0.00141238, -0.235492, -0.0803061, 0.0136377, 0.0625464, 0.09843, -0.314386, -0.0429747, -0.33709, -0.181884, -0.103538, -0.089259, -0.122119, -0.0990805, -0.0244652, -0.0175846, 0.15536, 0.0297027, -0.180721, 0.00627264, -0.0539573, -0.152514, -0.0549884, -0.0824152, -0.0154859, -0.191716, 0.398743, 0.274044, -0.0244693, -0.0246566, -0.000668293, -0.0326035, -0.0313904, -0.0798432, 0.0644549, -0.129073, 0.138833, 0.052226, -0.0410432, -0.359978, 0.0597833, -0.00914446, -0.135269, 0.151285, -0.214225, -0.0508931, 0.0629244, 0.00558349, -0.0523844, -0.14948, -0.0716864, -0.153751, -0.256462, 0.335119, -0.092221, 0.148046, 0.0999773, 0.26102, -0.109615, -0.136717, -0.0549795, -0.0958673, -1.14055e-16
0.0175968, -0.0140275, -0.217033, -0.0555954, -0.212302, -0.135511, 0.214361, 0.0576868, -0.0433476, -0.042197, 0.217644, 0.0725776, 0.144764, -0.0284834, 0.1075, -0.209344, 0.0624014, 0.129384, -0.14004, -0.191979, 0.0577874, 0.133501, -0.192734, 0.172347, 0.0475241, 0.0927584, 0.0308431, -0.0348191, 0.0203144, -0.1293, 0.0087315, -0.378414, -0.0921519, 0.117517, -0.383393, -0.10353, -0.168444, 0.149341, -0.0905977, 0.136254, 0.26928, 0.0382339, 0.279505, 0.116565, -0.00790358, 0.160037, 0.0251583, 0.100772, 0.044732, -0.00336543, -0.0228584, 0.118341, 0.0160983, -0.0856309, -0.316137, -0.282277, 0.0905643, -0.00506438, 0.00771667, -0.10819, -0.0924495, -0.0119799, 0.138552, -0.0600719, 2.11417e-16
0.219331, 0.09778, -0.359166, 0.160623, 0.0176166, 0.229731, -0.0934151, 0.0711267, -0.166532, 0.374521, -0.0808539, 0.301548, -0.204762, -0.0664029, 0.0099836, -0.16816, 0.135504, 0.176038, -0.205595, -0.0166613, -0.0999949, -0.110879, 0.0911296, -0.0675837, 0.00121429, -0.170571, -0.0813251, 0.130788, 0.0139555, 0.0904538, -0.0379137, -0.160173, 0.258076, -0.0649978, -0.0908886, 0.26916, 0.0304891, -0.0371418, -0.15976, 0.0903579, -0.126499, -0.128885, 0.121943, -0.342856, -0.156028, -0.301327, 0.0341612, 0.148415, -0.0813757, 0.221326, -0.10126, 0.128753, -0.0383271, -0.0662915, -0.174858, 0.0710528, -0.241911, -0.314978, 0.21642, 0.150994, 0.0550017, 0.0574184, 0.244453, 0.043945, -3.57025e-17
-0.177058, -0.165424, 0.101387, -0.0458854, 0.0584189, -0.0595411, -0.0876443, 0.120599, 0.169359, -0.120317, 0.140058, 0.131914, -0.107808, -0.0423974, -0.148242, -0.00933152, -0.235029, -0.0491607, -0.0307241, -0.308152, 0.0779396, 0.246173, -0.0673359, -0.39256, -0.0733948, 0.0280688, 0.353693, -0.163176, 0.121638, 0.147495, 0.0134522, -0.0387853, 0.0498696, -0.0203811, 0.00519646, -0.159794, -0.00908356, 0.0437924, 0.00949868, -0.126736, 0.0298972, 0.206177, -0.338672, 0.264341, 0.206344, 0.0690133, 0.108187, 0.0827235, -0.0717265, -0.0850476, -0.0926768, -0.0287379, -0.126334, 0.0379889, 0.0376946, -0.0452712, -0.286521, 0.0845625, -0.0659671, -0.108562, -0.133255, -0.0367167, -0.245384, 0.136953, -7.0295e-17
0.108985, 0.00591619, 0.224171, -0.0261855, -0.270356, 0.130964, 0.0294107, -0.330473, -0.000185186, 0.0748101, 0.176238, -0.0100942, -0.183169, -0.152228, -0.330912, 0.00932741, 0.148063, -0.113815, -0.0760557, -0.164724, 0.0782133, 0.155319, -0.213232, -0.0142589, -0.121773, 0.179907, -0.0272132, -0.0512715, -0.0661963, 0.108557, 0.222412, 0.0971037, 0.154617, -0.069274, -0.0280808, -0.316589, 0.137039, -0.153673, 0.317801, 0.0555124, 0.120544, -0.305862, -0.0799991, 0.0110025, 0.0705878, -0.0696099, 0.088463, -0.39662, 0.0196847, -0.080522, 0.0909351, 0.060021, -0.182191, -0.0444041, -0.0193322, -0.0364457, 0.0750268, -0.205382, 0.0222726, -0.255465, 0.176983, 0.0184047, 0.0831936, 0.015281, 3.45431e-18
0.0111595, 0.116505, -0.255301, 0.114711, 0.328332, -0.0838173, -0.00853591, -0.372098, -0.0109856, -0.0164575, 0.0499622, 0.281952, -0.211081, -0.30207, -0.229861, -0.141978, 0.0771558, 0.0885981, -0.159166, -0.0478889, 0.0353248, -0.125337, -0.178344, -0.118131, 0.204149, 0.264936, -0.231086, 0.0584214, 0.184167, 0.0630295, 0.299118, 0.21777, -0.19202, -0.196738, -0.0492614, 0.127261, 0.0591761, -0.0438939, -0.0376945, 0.275006, -0.21357, 0.192846, 0.0441889, 0.00378088, 0.275815, 0.0563717, -0.114084, -0.21079, 0.142196, -0.101345, -0.253726, -0.117115, -0.248586, -0.169567, -0.0527726, -0.0531585, -0.113048, 0.000613859, 0.247711, -0.103643, -0.188075, -0.117298, 0.027606, -0.240623, 6.78413e-17
-0.131773, 0.273603, 0.118582, 0.185597, -0.111416, -0.0343182, 0.0675582, -0.35931, 0.0500763, 0.0206088, -0.159605, -0.0314238, 0.0429329, -0.0829759, 0.342089, -0.0915425, 0.108143, -0.106066, 0.12982, -0.200699, -0.25928, -0.179973, -0.437141, -0.217665, -0.242309, -0.24856, 0.0125531, 0.0158975, 0.0737328, -0.147038, -0.0556132, -0.0040299, 0.0700884, -0.0883799, 0.243198, 0.144324, -0.272152, -0.117565, -0.00174845, -0.0155681, -0.00923319, 0.153454, 0.232285, -0.0628345, 0.163397, -0.0214378, 0.0914107, 0.0537622, 0.356109, -0.14629, 0.127381, 0.0155878, 0.19232, -0.256538, -0.0679719, -0.252013, -0.16876, 0.00563533, 0.171589, -0.0674422, 0.0492299, 0.0457788, 0.011592, -0.093369, -1.20366e-16
-0.119096, 0.311845, 0.1918, -0.185119, 0.0727014, -0.419695, -0.0739747, 0.18112, -0.0668681, -0.204823, 0.0956166, -0.0796332, -0.0117149, 0.14857, 0.112251, -0.16181, 0.00428037, 0.247395, -0.15472, -0.0153739, 0.145961, 0.255923, 0.228151, 0.0380727, -0.285798, 0.39121, 0.0231761, 0.000685611, -0.06973, -0.014395, 0.0776241, -0.00331876, 0.0196219, -0.105784, 0.0974067, -0.122224, -0.301833, 0.10674, 0.0305662, -0.0456088, 0.128489, -0.375176, -0.282843, -0.0551436, 0.164324, -0.177109, 0.288208, 0.074335, -0.0911958, -0.175506, -0.149273, -0.0195219, 0.309747, -0.13163, -0.139871, 0.0260745, -0.108963, -0.135809, -0.203153, -0.201077, -0.135354, -0.219063, 0.0347247, 0.108493, 2.02982e-17
-0.264808, -0.0200199, 0.0672076, 0.0202035, -0.04167, 0.0163552, 0.0148298, -0.0650481, -0.18596, -0.24837, -0.218072, -0.23094, 0.216396, 0.187553, 0.0842927, 0.0525349, 0.158361, 0.0187105, -0.261739, 0.16209, -0.0185553, 0.103822, -0.0565394, 0.0878655, -0.0857194, -0.194264, 0.26121, -0.202168, -0.226837, -0.0824596, 0.111443, 0.0558599, 0.153773, -0.328406, -0.267222, 0.0333044, 0.00177657, -0.0363447, 0.182296, -0.0160323, -0.374397, 0.128251, 0.00824955, 0.117276, -0.020095, -0.230055, -0.0954843, -0.172665, -0.125961, 0.0978749, -0.185627, 0.159553, 0.166042, -0.083903, -0.103985, 0.118752, 0.242016, -0.315306, 0.0766418, -0.143077, -0.344801, -0.10658, 0.214649, 0.168283, 2.85851e-16
0.028991, -0.0110177, -0.0492643, -0.181694, -0.103546, 0.0815158, 0.114629, 0.0550597, 0.245604, 0.0471189, 0.12334, 0.145593, 0.198453, -0.0736247, -0.187577, -0.0746291, 0.153043, 0.0589968, -0.0797207, 0.0108856, 0.134561, -0.103232, -0.341216, 0.246808, -0.0237185, -0.11361, -0.00948628, 0.123799, -0.135418, -0.261114, 0.200196, 0.168449, -0.183922, -0.265853, -0.0790042, -0.36446, -0.0284582, -0.104287, -0.188887, 0.246885, 0.190742, -0.117492, -0.148556, -0.163597, -0.047742, 0.234524, 0.175749, -0.249547, -0.161113, -0.085836, -0.0722372, 0.0991356, 0.179863, -0.147582, 0.0124992, 0.0236059, -0.171406, 0.0232387, 0.173973, -0.392308, -0.0521749, -0.106152, 0.0267128, 0.209998, 1.93018e-16
0.461742, 0.398816, 1.39108, 0.233625, 0.271315, 0.315059, 0.3474, 0.0443998, 0.463913, 0.0675268, 0.272302, 0.683541, 0.261791, 0.314364, 0.734399, 0.887944, 0.603448, -0.0402879, 0.664677, 0.237849, 0.142266, 0.450302, 0.217338, 0.675464, 0.664187, 0.202775, 0.580608, 0.340131, 0.509322, 0.365236, 0.354785, 0.169527, 2.58844
