0.00160311, -0.0070332, -0.000195094, -0.000329463, 0.000663288, -0.000944786, 0.000194917, 0.00129885, -0.00123469, -0.00130134, 0.000128826, 0.00145726, 4.55704e-05, -1.00135e-05, -0.00957802, 0.00766173, -0.00684026, -0.00268421, 0.000741624, 0.00137713, 0.000647956, 0.000971751, 0.000157935, 0.000175877, 0.000897616, -0.000258121, -0.000633267, 0.00150275, -0.0059975, -0.00017509, 0.00114336, 0.000990307, -1.10085e-16
0.00128822, 0.00266153, -0.00440609, 0.0019193, 0.00150709, 0.000244503, 0.00306643, 0.000981732, -0.00236115, 0.00172102, -0.00373123, 0.00133247, 0.00165355, 0.00284699, 0.00266705, -0.00103727, 0.00154216, -0.00340224, 8.61091e-05, -0.000548336, 0.000335457, -0.0025648, -0.00406205, -0.00283347, -0.00163243, 0.000128698, -0.00120048, 0.000437214, -0.0014262, -0.000936063, 0.000533665, 7.46215e-05, 1.36804e-17
0.000524453, 0.00507952, 0.00414792, -0.000370134, -0.000486779, 0.000210515, 0.00122048, -0.00557548, -0.000209944, 0.00289919, -0.000915585, -0.000347239, 0.000639698, 0.00313476, 0.00697756, 0.00400204, 0.00515859, -0.000881778, -0.00527997, -0.00713274, -0.00491709, 0.00173382, 0.0020116, -0.00202342, -0.00400338, -0.0037091, 0.00180665, -2.55703e-05, 0.00799951, 9.63293e-05, -0.000197928, -0.00172643, 9.06077e-18
0.00176964, 0.00504843, 0.00532667, 0.00254439, -0.00222538, 0.0035264, 0.00141975, 0.000213251, 0.00151567, -0.00219958, -0.00138425, -0.000701834, -0.00213069, -0.00157062, 0.003221, 7.29688e-06, -5.41905e-05, -0.00129792, -0.00135131, 0.00177183, 0.00125451, 0.00185657, 0.00357461, 0.00469925, -0.000328317, 0.00259718, 0.00378405, -0.000421603, -0.00134012, -0.000455778, 0.000380621, 0.000144857, -3.9528e-17
-0.00285449, -0.00416251, -0.000217599, 0.00166891, 0.00120729, 0.000283907, -0.000628717, 0.00446306, 0.00123059, -6.81259e-05, 0.000585294, 0.000230213, 0.00157195, 0.00286701, -0.00225832, -0.000700184, -0.0027873, 0.002799, 0.00569312, 0.00397791, 0.00200556, -0.000438683, -0.000260286, 0.00148316, 0.0045055, 0.00264023, -0.00121289, 0.000164697, -0.00477419, -0.00175993, -0.00042819, -0.00122126, -6.04656e-18
0.0047142, -0.00405399, 0.00389686, -0.000964189, 0.00101877, -0.000908498, 0.000806291, -0.00302471, -0.00146909, -0.00381286, 0.00185974, -0.00183664, -0.000332526, -0.00134476, 0.0027463, 0.00362212, -0.00256396, -0.00705211, -0.000242269, -0.000331166, -0.00323201, 0.00066436, 0.00313306, 0.00125033, -0.00186784, -0.000714457, 0.000536101, -0.000651417, -0.00329956, 0.000363863, -0.00159155, -0.00164635, 6.9166e-18
-0.0027423, -0.00493298, -0.00235708, 0.00113663, -0.00176976, -0.000147697, 0.00151991, 0.00336213, 0.0023266, -1.04946e-05, -0.00177586, 0.00016516, 0.000656379, 0.0026004, -0.00248429, 0.000884564, -0.00362316, 0.00369927, 0.00486125, 0.00471728, 0.00338436, 0.000467294, -0.000887376, -0.000248769, 0.00258528, -0.000443795, -0.000488036, -0.000774144, -0.00456092, 3.28067e-05, 3.64133e-05, -0.00018182, 4.67041e-17
-3.52169e-05, -0.00209779, 9.75355e-05, 0.00206536, 0.00162664, 0.00251209, 0.00243049, -0.00143142, 0.00151137, 0.00293745, -0.00115593, 0.00168435, 0.000959061, -0.00150412, -0.000814716, -0.000431052, 0.000371394, 0.000334472, -0.00150252, 0.000182508, -0.00154061, 0.00178792, -7.29921e-05, 0.00129621, 0.000144453, -0.000213986, 0.00257108, -6.46715e-05, -0.000182715, -0.000554229, -0.00103498, 0.000265884, -1.74607e-16
-0.0018898, -0.00305271, 0.00122745, -0.000879213, 9.49995e-05, 0.000592135, 0.00057402, -0.000924986, 0.000703009, 0.00535868, 0.00170794, 0.00205704, -0.00233561, -0.0013167, -0.00358135, -0.00711062, -0.00238609, 0.0039948, 0.000408926, 0.00105819, 0.00081135, 0.00124555, 0.0022449, 0.00422834, 5.09519e-05, 8.43097e-05, 0.000705082, 0.000520041, -0.01064, 0.000653312, -0.00131261, 0.000361171, 1.21735e-17
0.0124022, 0.00743452, 0.000348414, -0.0022719, 0.00157468, 0.00163706, -1.00644e-05, 0.00324968, -0.00192069, 0.00147546, 0.00156724, 0.00396818, 0.00112671, -0.00197394, 0.0102544, 0.00262864, 0.00253817, -0.0112859, 0.00317088, 0.00296143, 0.00325514, -0.00209834, 0.00135607, 0.00487102, -0.000211855, 0.00158579, 0.000408068, 0.000533062, -0.00184083, 0.000729195, 0.00195442, -0.00142041, 3.37648e-17
-0.00307485, -0.00429121, 0.000918131, 0.000126578, -0.000581567, -0.00182372, -0.00231038, 0.00150504, 0.00103632, 0.000543496, -0.00433216, -0.00127201, 0.00416543, 0.00299498, -0.00672054, -0.00274255, -0.0018476, 0.00269954, 0.00372317, 0.00319071, 0.00308965, 0.000697988, 0.00309461, 0.00221178, 0.00353763, -0.000229255, 0.00312334, -0.000843655, -0.00543555, -0.00133451, -0.00194501, 0.000761439, -7.13743e-18
-0.000438545, -0.00597241, -0.00172592, 0.000718622, -0.000986355, -0.00290775, -0.00166079, -0.00013561, 0.00812484, -0.0032132, 0.00155518, -0.00608422, -0.00225758, 0.00169688, -0.00306388, -0.0144445, -0.00452879, 0.000545868, -0.00182235, -0.00477972, 0.00133864, -0.00183459, -0.00127986, -0.00105162, -0.000392474, -0.000914677, 0.000823783, 0.000213945, -0.00474053, 0.000918822, 9.45571e-05, -0.00390063, 2.41886e-17
-0.00808598, -0.00729137, -0.000294346, 0.000831822, 0.000575418, -0.000531469, 0.000320764, -0.000385747, 0.00126568, -0.00110204, 0.000826056, -0.00115701, 0.000193357, 0.000605588, -0.0162561, 0.00142097, -0.00639144, 0.00717885, -0.00103959, -0.00221113, -0.00107532, 0.000944082, -0.0015261, 0.00100144, -0.000735628, 0.00114807, 0.00054054, -0.00168, -0.00446658, 0.00128165, 0.000748674, -0.000107257, -3.55674e-17
-0.00338134, -0.00458123, -0.00226128, 0.00130358, 0.00197868, -0.00387198, 0.000241614, 0.00360994, 0.000486066, -0.000712272, -0.00151951, 0.000736271, 0.00157408, 0.00288554, -0.0067642, 0.00133047, -0.00411055, 0.00294712, 0.00347134, 0.00105579, 0.00105652, -0.00284595, 0.00106471, 0.000678121, 0.0022756, 0.000302001, 0.00335541, 0.000606711, -0.00148192, -0.00204716, -0.00290664, 0.00204898, -3.67675e-17
0.000549462, -0.00310814, 0.000280498, -0.000628019, -0.000234377, 0.000145797, -0.00111165, -0.00218488, 0.00197228, -0.00168202, 0.000915434, -0.00194939, -0.000220499, 1.52075e-05, 0.000422092, -0.00924462, -0.00265138, -0.000279183, 4.15612e-05, -0.00215749, 0.000542765, -0.00311742, -0.00137701, -0.000522458, -0.00230465, 0.000293455, 0.00237001, 0.000235958, -0.000861493, -0.000762606, -0.000254616, 0.000539898, 3.65738e-17
0.00238636, 0.00834206, 0.00277789, 0.00227993, -0.00110975, -0.000565605, 0.000422569, -0.00592589, -8.5937e-06, 0.00785742, -0.000900446, 0.000609674, 0.0001642, -0.000104258, 0.00620262, 0.00572641, 0.00422893, -0.0038152, -0.00576104, -0.00363795, -0.00500566, 0.00260535, 0.00157039, -0.000264726, -0.00493852, -0.00343922, 0.00100181, -0.00148631, 0.0088415, 0.000221007, 0.000304586, 0.00232258, -6.05931e-18
-0.00124719, -0.00218513, 0.00285488, 0.000151905, 0.000757046, 0.00216609, 0.00169665, -0.000910853, -0.00129113, 0.000595614, -0.0034781, 0.00133414, 0.00507508, 0.00120419, -0.00334592, -0.000408165, -0.00234202, 1.79715e-05, -0.000886266, -0.00214213, -0.00263247, 0.00332192, 0.00333826, -0.000752178, -0.00342773, -0.000588593, -0.000660101, -0.000217999, -0.000437307, 0.000485125, -0.000309959, -0.000453766, 9.74365e-18
-9.91353e-05, 0.00854242, 0.000664552, -0.000307921, -0.000796074, 0.000438081, 0.00150536, -0.00349018, -0.000753443, 6.54942e-05, 0.000900953, -0.00530534, -0.00161651, -0.0015359, 0.00392664, 0.00541843, 0.00354927, -0.000743947, -0.00527085, -0.00400952, -0.00715796, 0.000287627, 0.00228957, -0.000735215, -0.0050424, 0.000765849, 0.000956791, -0.000353735, 0.0103521, 0.00249551, 1.0468e-06, -0.000456754, 6.78727e-18
-0.000872316, -0.00954745, -0.000736961, -0.00232756, -0.00301116, -0.00601455, -0.00322622, -0.000869368, -0.00130544, -0.00323499, -0.00269833, 0.000767515, 4.86551e-05, -0.00152102, -0.00624066, -0.0117719, -0.00449845, 0.00208334, -0.00161532, 5.37061e-05, -0.00121511, 0.000435758, 0.00182677, -0.00119006, -0.00201662, 0.00288596, 0.00131119, 0.000216638, -0.00485649, 0.000681978, 0.0010991, -0.000364752, -9.28176e-18
-0.00158978, -0.00852781, 0.000245758, -0.000120739, -0.00108558, 0.00339694, -0.000508104, 0.00171813, -0.0017439, 0.0026426, -0.000536583, 0.00459107, 0.00229071, 0.000138785, -0.0132731, 0.00281371, -0.0070435, 0.00395185, -0.00031542, 0.000464758, 0.0020448, -0.000944597, -0.00075127, 0.00280577, -0.000125441, -0.0027174, 0.000221756, 0.00135399, -0.0090013, -0.00095405, -0.00178304, -0.000466392, 2.98018e-18
0.00102941, -0.0022387, -0.00283062, 0.000909819, 0.00141909, -0.00304723, 0.00138649, -0.00136141, 0.000237377, -0.00485498, -0.00430026, 0.00014565, 0.0013902, 0.000567218, -0.00120828, -0.00178899, -0.000588014, -0.000595646, 0.0010468, -0.00154139, -0.00126537, -0.00307266, -0.00166306, -0.00232539, -0.00331045, -0.000637382, 0.000211805, -0.00199445, -0.000671318, -0.00063804, 0.00142166, -0.000245965, 1.51454e-17
-0.00414953, -0.00252062, 3.31348e-05, 0.00105207, 0.00180444, 0.0019364, 0.000529157, 0.00168375, 0.000891537, 0.00058835, -0.00249773, 7.10168e-05, 0.00271065, 0.00204758, -0.00602333, -0.00624372, -0.000980653, 0.00449193, 0.000688217, 0.000598839, -0.00203814, 0.000244466, 0.00566809, -0.000836653, 0.00039927, 0.000215396, 0.00139341, -0.000561112, 0.00166088, -0.000385636, -0.000623857, -0.000187256, -6.79892e-18
-0.000865839, -0.00757067, 0.000590289, 0.000375631, -0.000222469, 0.00039019, -0.00103897, 0.00097504, -0.00306573, 0.00205375, 0.00174495, 0.0043118, 0.00272344, 0.000845594, -0.0092034, 0.00354712, -0.0048916, 0.000973255, 0.00199692, -0.000102444, 0.00387644, 0.00258869, -0.000208445, 0.000694015, 0.00093077, 0.000222873, -0.000136539, -0.00139106, -0.00359972, -0.000706172, 0.00124592, -0.000945475, 1.65182e-17
-0.000693003, -0.00552158, 0.0011092, -0.00188014, 0.00261962, -0.000886735, -0.000824576, -0.00016355, -0.00226719, 0.000231326, 0.00271695, 0.00256456, -0.00276017, -0.00245892, -0.00296513, -0.00262857, -0.00225161, 0.00196828, -0.0011923, -0.00142771, 0.00266904, -0.000984727, 0.00481227, 0.00456477, -0.00296536, -0.00140387, 0.00159168, -0.00090574, -0.0115278, 0.000314355, -0.00103147, -0.000205803, 5.12928e-19
-0.00353243, 0.00203361, 0.000178257, -0.00051023, -0.00138248, 0.000584514, 0.000234409, -0.00315536, -0.00159415, -0.000229235, 0.00473568, -0.00101304, -0.00339056, -0.000938604, 0.00187558, 0.000390719, 0.0039635, 0.000612931, -0.00123137, -0.0019353, -0.00282219, -0.00143554, 0.000234409, -0.00201516, -0.0031214, -0.00185445, -0.000734638, -0.000597087, 0.00469785, -0.00129919, -0.0014733, 0.000757241, 9.77808e-19
-0.00328719, -0.00475252, 0.000918023, -0.000381363, 3.09228e-05, -0.00141275, 0.00149626, 0.00389354, -0.000180236, -0.00089337, -0.0015358, 0.00100405, 0.00249602, 0.00190954, -0.00508832, -0.00269717, -0.00119845, 0.00470385, 0.00460908, 0.00382582, 0.00582464, -0.00265585, 0.00240977, 0.00312473, 0.00236452, 0.0017676, 0.00285418, 0.00108439, -0.00353988, 0.000733971, -0.000903645, -0.00050362, -6.96798e-17
0.0115368, 0.00128154, 0.00197918, 0.00236947, 0.00135939, 0.000762458, 0.00133413, -0.00321174, -0.0051028, -0.00181994, 0.00296179, -0.00189662, -0.00153534, -0.00218327, 0.00243279, 0.00723886, -0.00327508, -0.0155426, -0.00324641, -0.000426718, -0.00403732, 0.00203208, 0.00102161, -0.00306706, -0.0034418, 0.00137265, 0.00125704, -0.00149501, 0.0129516, -0.000389162, 0.000309422, -0.00112616, -7.97046e-18
0.000827363, -0.00721053, 0.000719206, -0.000388681, 0.00154704, 0.000143308, 0.000917691, 0.00168735, -0.00554519, -0.000492301, 0.000485442, 0.00406896, 0.000922858, -0.0012316, -0.00793332, 0.00132128, -0.00456278, -0.000990293, 0.00430755, 0.000244058, 0.00284003, -0.000659366, 0.00107457, 0.00127923, 0.000821048, 0.000925102, 0.000112245, -4.07615e-05, -0.00362076, 0.000348104, -0.000226567, -0.000806674, 1.671e-17
0.00104188, 0.00518602, 0.00282064, 0.000829661, -0.00104916, 0.000796169, -0.000574049, -0.00641476, -0.00297926, -0.000767517, 0.00100332, -0.000380447, -0.000891515, -0.0011293, 0.00710357, 0.00520714, 0.00478575, -0.00123955, -0.00707067, -0.00513274, -0.00774798, 0.00240044, 0.00177754, -0.00436456, -0.00331635, -0.001819, 0.000446098, -0.000677905, 0.0100371, -0.0010617, 4.31699e-06, 0.00174905, -1.0339e-17
-0.00211557, -0.000732898, 8.61275e-05, -0.000779753, 0.000744828, 0.000562857, -0.00059558, -0.0036548, -0.00227163, 0.00256198, -0.00245797, 0.00241946, 0.000729834, -0.000655905, 0.00324633, -0.000429768, 0.00241036, 0.00179927, -0.00418072, -0.00406635, -0.00103134, 0.00119563, -0.000781391, -0.0026183, -0.00434956, -0.00380504, 0.00143066, -0.00208524, 0.000669125, 0.00160563, -0.000952064, -0.000708298, -6.44918e-18
-0.000907243, 0.00394174, -0.00147321, -0.00167059, -0.00101683, -0.00100893, 0.000118553, 0.00461067, 0.00251137, 0.000952238, -0.00136545, -6.82403e-05, -4.61385e-06, 2.33128e-05, 0.000927652, 7.58999e-06, 0.00216971, 0.00291007, 0.00264749, 0.000839923, 0.00484228, 0.000277205, -0.000440849, 0.00404584, 0.00307534, 0.00285105, 0.0015105, -0.000477756, -0.00290146, 0.000574337, -0.00113158, -0.000313355, -4.0172e-17
-0.00111916, 0.00823248, 0.00158541, 0.000106214, 0.000749431, 0.00209902, 0.00169759, -0.00699375, -0.00343389, 0.000924147, -0.00352673, 0.00170437, -0.00185347, -0.00198616, 0.0071667, 0.00513894, 0.00333159, 0.000973602, -0.00477745, -0.00605523, -0.00602727, 0.000427437, 0.0018147, -0.00211492, -0.00712241, -0.00078712, 0.0012156, -0.000477431, 0.0058159, -0.000751342, -0.000834546, -0.00131055, 1.22973e-17
-0.00305742, 0.00203447, -0.00158403, -0.00174042, -0.000540117, -0.000540809, -0.00176767, -0.00264596, -0.00170078, 0.00389273, -0.000222466, 0.00247042, -0.00102292, -0.00156344, -0.000810296, 0.000988449, 0.000377998, -8.30187e-05, -0.00202167, -0.00482397, -0.000715469, -0.000893673, -0.000607845, -0.000893736, -0.00210476, -0.00235242, 0.00071643, -0.00037067, 0.000194507, -0.00233686, 3.60726e-05, -0.000902466, 1.18238e-17
-0.00214101, -0.00271373, 0.00159876, 0.00141849, -0.000918639, 0.000805116, -0.000644972, 0.00453375, 0.0027153, 0.000173932, -0.00287129, -0.00157132, 0.0012494, 0.00205918, -0.00277584, -0.00238104, -0.000685678, 0.00423766, 0.00480235, 0.00325689, 0.0026535, -0.000383163, -1.26265e-05, 0.00173227, 0.00371727, 0.00248984, -0.000690573, 0.000620712, -0.00301709, 0.00138846, 0.00130516, 0.0018997, 6.73048e-18
0.00080761, 0.00159734, -0.00166124, 0.00271958, 0.000681016, -0.000441729, -0.000326633, -0.00380716, -0.00110467, -0.00336537, -0.0023022, 0.000176447, 0.00116421, -0.00246091, 0.00119738, -0.000227301, 0.00179258, -0.000896485, -0.00281696, -0.00487595, -0.00475034, 0.000450763, -0.00108654, -0.00338609, -0.00197368, -0.00231311, -0.000342237, 0.00141991, 0.00503152, -0.00109199, -0.000779509, 0.00125429, -1.3468e-17
-0.00409776, -0.0035274, -0.000281046, -0.000204665, 4.45602e-07, 0.000567418, 2.04842e-05, -0.000521347, 0.00293966, -1.09586e-05, -0.0012433, -0.00335022, 0.00240147, 0.0028231, -0.00288028, 0.000864552, -0.000612658, 0.00191377, 0.00276241, 0.00215903, 0.00211832, 0.000382928, -3.26695e-05, 0.00269014, 0.00386107, -7.69398e-05, -0.000937308, -0.000363886, -0.00561946, 1.8342e-06, 0.000497114, 0.000481135, 2.55811e-17
0.000766785, 0.00231851, -0.000470208, 0.000197032, 0.000155318, 0.000427815, 0.00371775, -0.00319613, -0.00138449, -0.000919391, -0.00248121, 0.00360888, 0.000985121, -0.00207131, 0.00329359, -0.000883159, 0.00237898, 0.00294233, -0.00286919, -0.0049029, -0.000799615, 0.0014544, -0.000315898, -0.00548944, -0.0039131, -0.0012827, -0.00161658, 0.000997542, 0.0014637, 0.000228202, 0.000813801, -0.00204381, 3.77616e-17
0.00595566, 0.00664342, -0.00196382, -0.000484858, -0.00156116, -0.000418994, 0.000190898, 0.000506962, -0.00405684, -0.000728534, -0.00190827, 0.0031338, 0.00124381, 0.000177657, 0.00880868, 0.00167082, 0.00334123, -0.00812359, 0.00344912, 0.00104566, 0.00022009, 0.00261455, -0.00212853, 0.00276272, -0.000724036, -0.000959266, 0.000120527, -0.00103892, 0.0040999, -0.00140038, 9.79702e-05, 0.00104963, -1.15146e-17
-0.0029137, 0.00400003, 0.00168972, -0.00118145, -0.000600618, 0.000853492, 0.000522824, -0.00388807, -0.00218443, -0.000856465, -0.00136271, 0.00130776, -0.000279777, -0.0014441, 0.00618638, 0.00332098, 0.00590194, 0.00083104, -0.00367079, -0.00304181, -0.00489981, 0.000668647, 0.00259514, 0.000260017, -0.00582036, -0.00185517, 0.0015382, -0.000456702, 0.00372304, 0.000718508, 0.00199701, -0.000839387, 4.55442e-17
-0.00611452, -0.00252325, -0.00115894, -0.00125463, 0.000255874, -0.00288169, -0.00220775, 0.000810399, 0.00256325, 0.00214503, -0.00251529, -0.00234857, 0.00155793, 0.00423522, -0.00690278, -0.00015303, -0.00126745, 0.00595513, 0.00585731, 0.00324984, 0.00260205, 0.000157453, 0.00158394, 0.000295942, 0.00293551, 0.00191546, -0.001145, 0.00115072, -0.00280261, -0.000432957, 0.000687821, 0.001118, 8.20819e-17
0.000650112, -0.00425017, 0.000521851, 0.000579269, 0.00173685, 0.00209123, 0.00237782, -0.000291606, -0.0021442, -0.00151031, -0.00346092, -0.00103125, 0.00180031, 0.00316909, -0.00317075, -0.00111763, -0.00230228, 0.00117074, 0.00319024, -0.00127117, 0.00186021, -0.00183098, 0.00208207, 0.000439398, 0.000748768, 0.00330606, 0.000595693, -5.12451e-05, 0.00370655, 0.00080703, 0.000158958, -0.000918983, 3.31688e-17
-0.00131014, 0.00576954, -0.000864274, -0.000546089, 0.000292531, 0.00180329, 0.0018227, -0.00344448, -0.00284239, 0.00199953, 0.000306487, 0.00012935, -0.00138556, -0.00240655, 0.00585295, 0.00332643, 0.00570605, 0.000900165, -0.00102579, -0.00149114, -0.00459808, -0.0024646, -0.00163739, -0.00367459, -0.00290523, 0.000649037, -0.00382871, -0.000760186, 0.00413955, -8.78744e-05, -0.00180165, -0.00124998, 1.99298e-17
-0.00371384, -0.00298553, 0.00315459, 0.00170817, 0.0020999, 0.000867761, 0.0025213, -0.000383356, -0.00123289, -0.000162886, -0.00224092, 0.00198208, 0.00545586, 0.00319293, -0.00395871, -0.00469785, -0.000455794, 0.00386561, 0.00133618, 0.00192263, 0.00127034, 0.00332625, 0.00330075, 0.000777186, 0.00185443, -6.20478e-05, 0.000638234, -0.000860337, -0.00141565, -0.000448817, -0.000803764, 0.000125105, 1.06124e-17
-0.00286431, -0.00541255, 0.000166675, 0.00120519, 0.00015699, -0.00109143, 0.000314004, 0.00372084, 0.00129514, 0.000385343, -0.000530036, -0.000798621, 0.00484413, 0.00380393, -0.00686544, 7.54506e-05, 0.000578633, 0.00427728, 0.00415546, 0.00301653, 0.00345629, -0.000862087, 0.00244228, 0.00228837, 0.00347627, 0.00361565, -0.003781, -0.000467151, -0.00626451, 0.00277434, -0.000879833, -0.000228843, 4.02753e-17
-0.00514252, -0.00595896, -0.00060798, -0.000630549, -0.00419881, -0.00295268, -0.00205075, 0.000525887, -0.00211013, 0.00146772, -0.00304375, 0.00274522, 0.00420052, 0.00285331, -0.00644544, -0.00283424, -0.000895737, 0.0078273, 0.00311841, -0.000915662, 0.00194323, -0.00456305, 0.000430682, -0.00202836, 0.000348076, -0.00304226, -0.000220176, -0.00117689, -0.00360801, 0.001829, 0.000452547, -0.00132437, 2.72792e-18
0.00178212, -0.00590985, 0.000280688, 0.00105896, -0.000307745, -3.31942e-05, 0.00054057, 0.000646814, -0.00121816, -0.0011507, 0.000824474, 0.00179393, -0.00132883, -0.001881, -0.00604183, 0.0043264, -0.00339704, -0.00132112, -0.00135425, -0.00215539, 0.000601772, 0.00141014, 0.000609636, 0.00223767, -0.00154674, -0.000532003, 0.00141317, -0.000102798, -0.00739022, -0.00149263, -0.00104892, -0.000441465, 1.92774e-19
-0.00161293, -0.0063624, -0.000467862, 0.000328811, 0.001737, -0.00149186, 0.0010572, 0.00364212, -0.00104355, -0.00150592, -0.00228729, 0.00155471, 0.00377017, 0.00359489, -0.00599016, -0.000576266, -0.00170733, 0.00488862, 0.00557124, 0.00267192, 0.00472282, -0.000894849, 0.00183285, 0.00260135, 0.00357727, 0.00149125, -0.000849492, -0.00114392, -0.00495845, 0.000473397, -0.000361181, 0.00138832, 1.1744e-17
0.000647575, -0.00785439, 0.000366189, -0.00185314, -2.55289e-05, 0.00148227, 0.000815862, 0.000574271, 0.000169002, -0.000612892, -1.06855e-05, 0.00118019, 0.00159804, -0.000126349, -0.010265, 0.00595978, -0.00774257, 0.000310855, -0.00139824, 0.000264197, -0.000201042, 0.0004255, 0.000400466, 0.00180654, 0.0014227, 0.000281497, -0.000626451, -0.00119358, -0.00567949, -0.00147395, -0.000817787, -0.00121218, 3.23019e-17
-0.00415681, -0.00584731, 0.00155803, -0.000526673, -0.000662948, -0.00104779, -0.00186136, -0.00148193, 0.00519322, -0.00276159, -0.000493101, -0.000720136, -0.00193476, -0.000813459, -0.00704784, -0.00774413, -0.00340436, 0.00454832, -0.00108889, 0.000118134, -0.00354783, 0.00237252, 0.00209722, 0.00137862, -0.00031537, -0.000152653, -0.000228987, -0.00115899, -0.0079292, -0.00123692, -0.000644729, -0.000868079, -3.80476e-19
0.00249476, 0.00197585, -3.98916e-05, 0.000146453, -0.00116451, -0.00149956, -0.00289029, -0.00508717, 0.00338397, -0.00562686, 0.00259625, -0.00700147, -0.00262838, 0.00027481, 0.00610088, 0.00428549, 0.00458394, -0.00429461, -0.00515807, -0.00310787, -0.00645766, 0.000554023, 0.00356291, -0.0034906, -0.00184885, -0.00170908, 0.000984203, 6.63848e-05, 0.00550722, 0.000539425, -0.00188495, -0.000380594, 1.67426e-17
-0.00198352, 0.000546354, -0.00433249, -0.00129623, 0.00218896, 0.000408813, 3.31699e-05, -0.00221847, -0.00449667, -0.00165812, 0.00106801, 0.00405285, 0.000261694, -0.00363907, -0.00016789, 0.00310406, -6.39389e-05, 0.00297415, 0.00135244, -0.00391817, 0.000417204, -0.00309744, -0.00431539, -0.00136222, -0.00128788, 7.29038e-06, -2.08663e-05, -0.00142675, -0.00261052, 0.000409949, 0.000733667, 0.000617806, -1.73632e-17
-0.00161086, 0.00317111, -0.00190211, -5.04683e-05, 0.00136701, -0.00120653, 4.29974e-05, -0.00220203, -0.00246869, 0.00339908, -0.00313372, 0.00246275, 0.000234692, -0.0009179, 0.0039552, 0.00279393, -0.0015253, 0.00113287, -0.00354016, -0.00590079, 0.000438563, 0.000392693, -0.00126814, -0.00240645, -0.000338547, -0.00364237, 0.000983722, 0.00129264, 0.00207762, 0.00052493, -0.000307789, -0.00204783, 2.14086e-17
-0.00328921, -0.00689169, 0.00138294, 0.00047399, 0.00251264, 0.00219493, -0.0019385, 0.00442798, -0.000193267, -0.000574708, 0.000104282, -0.00015624, 0.00245313, 0.00271094, -0.00550008, -0.000235209, -0.00140637, 0.00361923, 0.00265077, 0.00435035, 0.00400069, -0.00150637, 0.00123748, 0.0016451, 0.00172025, 0.000964175, -0.000477073, 0.000184091, -0.00471635, 0.000342535, 0.000642478, -0.00240681, -6.24421e-19
4.07668e-05, 0.000413055, -0.00223637, -0.00275767, 4.50072e-05, -0.000969971, 0.00085142, -0.000188753, -0.00451862, 0.00213715, -0.0022976, 0.005358, 0.00287261, -0.00314789, 7.68448e-05, 0.00018439, -9.47346e-05, 0.000435384, 0.001266, -0.00183314, 0.00145908, -0.00259703, -0.0053179, -0.0025278, -0.00428015, -0.00463384, -0.00101243, -0.000570121, 0.000226121, 0.00233769, -0.00206134, -0.00127975, -3.94775e-18
-0.00159069, -0.000711785, -0.00377893, 0.00229821, -0.00168318, 0.000110156, 0.00093723, -0.000599049, 0.00399824, 0.000848337, -0.00443174, -0.0035737, 0.00373297, 0.00496623, 0.000225658, -0.00313506, -0.00173372, -0.000463151, 0.000842741, -0.0022701, 0.0012979, -0.00300588, -0.00430282, -1.72085e-05, 0.001085, 0.000574718, -0.000209731, -0.000204947, -0.00385636, -0.00131373, -0.000379048, -0.00131125, 6.21003e-18
0.000750205, 0.00287608, -0.00429139, 0.00210296, 0.00143664, -0.000351036, 0.00155436, 0.000805522, -0.00262118, -0.000747473, -0.000774411, -0.000115878, 0.00435249, 0.00209288, 0.00200302, 0.00096716, 0.00173261, -0.00198143, 0.00100841, 0.000980957, 0.000866745, -0.00334302, -0.00134467, -0.00271676, -0.000964477, -0.0001425, -0.00261686, -0.000536853, -0.00109047, 0.000847073, -0.00163668, 0.0011868, 1.53455e-17
0.00631907, 0.00083602, -4.36102e-05, -0.00143437, -0.00106803, -0.00207561, -0.00174485, 0.0019351, 0.000607138, 0.00124492, -0.00673629, 0.00237267, 0.00523887, 0.000395269, 0.00211412, 0.00155911, 6.5196e-07, -0.00493994, 0.00279215, -0.000209589, 0.00388021, -0.00378991, 0.00273149, 0.00405721, 0.000674758, 0.000160136, -0.00290707, -0.000567722, -0.00505899, -0.000962318, -0.00249701, -0.00238593, -7.0692e-17
-2.36546e-05, -0.000503519, 6.54076e-05, -0.00225861, -0.00376247, -0.00407331, -0.00535272, -0.00018127, -0.000446993, -0.00093606, -0.0023886, 5.02394e-05, -0.00108533, -0.00213902, -0.00121869, -0.00154483, -0.00353765, 0.000262522, -0.000218126, -0.000932166, -0.000372768, -0.000614885, -0.00107837, -0.00135174, -0.000701289, 0.00173909, -0.000806718, -0.000104895, -0.00122456, -0.000500913, 0.00019827, 0.000612168, -1.96836e-17
-0.000221204, 0.00452029, -0.000286002, 0.000642635, 0.00272249, 0.000515288, 0.00188958, -0.00363509, -0.000453172, 0.005316, -0.00238369, 0.0023214, 0.00102103, 0.000313031, 0.00306173, 0.0052594, 0.0027038, 1.58279e-05, -0.00295905, -0.00188203, -0.00169497, 0.00142259, 0.00197656, -0.00189109, -0.00283262, -0.00294598, 0.00134763, 0.000212776, 0.00332604, -0.00060731, -0.000836398, 0.000769342, 1.46662e-17
-0.0048244, -0.0127344, -0.00194592, -0.000951721, -0.000457055, -9.30413e-05, 0.00184927, 0.000912581, 0.0018084, 0.000258437, 0.000589319, 0.00225231, -0.00133885, -0.00145117, -0.0161752, 0.00578742, -0.00947889, 0.00532408, 0.00127291, 0.000284272, 0.000173229, -0.00234475, -0.00298384, 0.00214247, 0.000598471, -0.000664146, 0.000579583, 0.00237746, -0.00636762, -0.000814759, -0.0013696, -0.000690757, 1.00232e-17
-0.00372206, -0.00187673, 0.00285944, -0.000552927, 0.001321, -0.00260334, 0.000327699, 0.000936931, -0.000398259, 0.000858319, 0.000234985, 0.00592297, 0.00156596, 5.41747e-05, -0.00386161, 0.00396611, 0.00290597, 0.00415604, 0.00325668, 0.00181748, 0.00221734, 0.00230556, 0.00211488, 0.0023311, -0.000125914, -0.000418853, -0.00249553, -0.000853488, 0.0131536, -0.000947961, -0.00106278, -0.000674279, -2.16187e-17
-0.00163809, -0.00428106, 1.45885e-05, -0.00114397, 0.000551053, -0.00104129, -0.000793343, 0.00155943, -0.00201137, -0.00188182, -0.00407373, 0.000491438, 0.00208045, 0.00044038, -0.000521163, -0.00360534, -0.000485436, 0.00213704, 0.00418939, 0.00402496, 0.00401036, 6.03602e-05, 0.00420882, 0.000341451, 0.00168884, 0.00213437, -0.00110287, -0.000211019, -0.00647395, 0.00183166, -0.00112725, -0.000446462, -1.32436e-18
-0.00519584, -0.00804656, -0.000108939, 0.0035684, -0.00113032, 0.00296993, 0.0011012, 0.00306824, 0.001615, 0.00112057, -0.00215357, 0.000993142, -0.000524498, 0.00202811, -0.00833959, -0.00143307, -0.00144798, 0.00572439, 0.00509193, 0.00691788, 0.00563954, -0.00117251, -0.00113805, 0.00121175, 0.00461397, 0.00235434, -0.00165902, -0.00206966, -0.00851688, 0.000297218, 0.00127272, 0.000784046, -1.00568e-16
0.00813372, 0.00673366, -0.000619095, -0.00270576, -0.00163104, -0.00167472, -0.00163182, -0.000825617, -0.00339765, -0.00549807, -0.00323173, 0.000615201, 0.00476321, 0.00361856, 0.0071495, -0.000740735, -0.00135775, -0.00790286, 0.00177284, -0.00264839, 0.00202587, -0.000598142, -0.000283496, 0.001911, -0.00030553, -0.00101991, -0.000815626, 0.000137024, 0.00490239, 0.00100916, -0.000953092, 0.00207213, -1.21229e-17
-0.00869205, -0.00996809, -0.00125613, 0.000440781, 0.0019794, 5.86361e-05, 0.00119298, -0.00119773, 0.00280635, -0.00152769, 0.00105435, 0.00114532, -0.000295945, 0.000901936, -0.0195691, 0.00225917, -0.00736329, 0.00857116, -8.25592e-05, -0.00143026, -0.00184047, 0.000562361, 0.000738063, 0.00156763, -0.000419353, -0.0017791, -0.000737822, 0.000898167, -0.00255601, 0.00157609, -0.000356556, -0.000262886, -2.47849e-17
-9.24612e-05, -0.00950476, 0.00080483, -0.00106544, -0.000575414, 0.000205137, -0.000344807, -0.00129741, 0.000932951, -0.00107484, 0.00019328, 0.00015966, -0.0012122, -0.000515036, -0.00761891, 0.00553018, -0.00462512, -0.00187845, -0.000697627, -0.00103853, 6.05038e-05, 0.00100596, 0.000100179, 0.0018928, 0.0013693, 0.000648737, -0.000247668, -0.000320553, -0.00274499, 1.86797e-05, 0.000518918, -0.00014213, -9.64671e-17
-0.00411263, -0.00116102, 0.00138983, 0.000391579, 0.00123451, 0.00278188, 0.0015403, 0.00200966, -0.00505209, -0.000252349, 0.00229783, 0.00516635, -0.00327469, -0.00617067, -0.00808602, -0.00466041, -0.00342295, 0.0023589, 0.00286617, -0.000296295, 0.00692355, 0.000859062, 0.00133943, 0.00509526, 0.000561573, -0.000471497, 0.00129359, 0.00167818, -0.00532315, -0.00172198, 0.000839495, -5.69245e-05, 3.09336e-17
-0.00436256, -0.00437965, 0.00254178, -0.00203371, -0.000488569, -0.00133681, 0.00162738, 0.00491609, -0.00478274, 0.00207522, -0.00214815, 0.00440276, 0.00202759, -0.0040061, -0.00748506, -0.00247428, -0.00115857, 0.00201013, 0.00296455, 0.00351045, 0.00401749, 0.002611, 0.0019219, 0.00629456, -0.000406276, 0.00178177, 0.00213774, -0.000338267, -0.000291297, 0.00107587, -0.00171779, 0.00110952, -5.91084e-17
-0.00032875, -0.00915049, -0.0012802, -0.00144789, 0.000473416, -0.00110814, 0.000850942, 0.000525485, -0.000761536, -0.00123474, -0.000698537, 0.00230908, -0.00148976, -4.61349e-06, -0.0100614, 0.00704146, -0.00651637, -0.000191842, 0.000326851, 0.00184354, -0.000726544, -0.000583202, -0.00105421, 0.00078527, -0.000804118, -0.00221223, 0.000830511, -0.00169338, -0.00829532, -0.00177163, 0.000991087, -0.00062649, 9.6657e-17
-0.00113149, -0.00950622, 0.00197698, -0.00131791, -0.00026569, 0.00247243, -0.00142122, 0.00188991, -0.000224066, -0.00213105, -0.00118881, 0.00324497, -0.00143134, 0.000336001, -0.0106205, 0.00851617, -0.00654283, 0.00132014, -0.000161243, -0.00045026, -7.12601e-05, 0.00156113, 0.00062057, 0.00143869, 0.00142684, -0.000250403, -0.00149541, -0.00156037, -0.00670624, 0.000860796, 0.000681553, -0.000979806, 1.03422e-18
0.0013353, 0.00646388, 0.00289585, 0.000173819, -0.00448083, -0.00307415, -0.00489012, -0.00469357, -2.08338e-05, -0.00172267, 0.000781177, -0.00254569, -0.003324, -0.00153496, 0.00863261, 0.00933172, 0.0063652, -0.00231244, -0.00463555, -0.00316096, -0.00428523, 0.000109038, 0.00669424, -0.000256916, -0.00403989, 0.00185681, 0.00210421, 0.0017288, 0.00886703, -0.000999498, 0.00124882, -0.000766106, 5.84688e-18
0.00154494, 0.00586805, 0.00146365, -0.00432037, -0.00226538, -0.00188216, -0.00106522, -0.000353725, -0.00134654, 0.00336083, -0.00200757, 0.000440164, 0.00232112, 0.000424373, 0.00656094, 0.00492948, 0.00248401, 0.000567235, -0.000975889, -0.00202008, 0.000111762, 0.000941648, 0.00419691, 0.00342309, -0.000974078, 0.00074436, 0.00247726, 4.88639e-05, 0.00620659, -0.00127895, -0.000341906, 0.000425389, 8.39309e-17
-0.0032596, -0.00420312, 0.000319159, 0.000121481, 0.00122943, 0.00101535, 0.00107321, 0.000572123, -0.00331518, -0.00374264, -0.0028969, 0.00280956, 0.00285219, 0.000505603, -0.00742797, 0.00188706, -0.00319598, 0.00119611, 0.0036218, 0.000949437, 0.00288967, -0.00393147, 0.00145059, 0.00278637, 0.000899389, 0.000404056, -0.000593423, -0.0011691, -0.00490097, -0.000755571, -0.00103723, 5.38835e-05, -2.91312e-17
-0.00427877, -0.01207, 0.00237717, -0.00208015, -1.85743e-05, -0.00213086, -0.000254573, 0.00149358, -0.00574667, 0.00260739, -0.00479646, 0.00943736, 0.00410476, 0.000193245, -0.0143815, -0.00221353, -0.0069454, 0.00341558, 0.0015887, -9.10127e-05, 0.00274493, 0.00279387, 0.00689276, 0.00117395, -0.0016845, 2.61724e-06, 0.00204134, -0.000259956, -0.0122682, -0.000922288, 1.85427e-05, 0.000307719, -4.14323e-18
-0.000393995, 0.00391333, -7.86644e-05, 8.05994e-05, 0.0018086, 0.000719283, 0.00208784, -0.00419204, -0.00270425, -0.000966609, -0.00328243, -0.000695138, 9.46347e-05, -0.00134014, 0.00424126, 0.00242176, 0.00412794, 0.00217485, -0.0050294, -0.00540773, -0.00335277, 0.000442077, -0.00283429, -0.0051635, -0.00615771, -0.00328183, -0.000159224, -0.00103211, 0.0014155, 0.000789468, 0.00117918, 0.000486852, -3.83144e-18
-0.00526943, -0.00850704, -0.00286267, 0.00156915, 0.00084272, -0.00127335, 0.000400296, -0.000175114, -0.000132653, 0.00168354, 0.00101186, 0.000785597, 0.00195912, -0.00231614, -0.0108118, 0.0017969, -0.0061528, 0.00242946, 6.40879e-05, 0.000122513, -0.000214863, 0.00115868, 0.000356982, 0.00157011, -0.00166736, 0.000692972, 0.00182117, -0.000151352, -0.00255845, 0.00340345, -0.000858484, -0.00160597, -9.592e-17
-0.00522221, -0.00601612, 0.000168611, -0.00160073, 0.0019055, 0.00160865, 0.00187134, 0.000812598, -0.00459149, -0.00173546, -0.0026786, 0.00645729, 0.00338702, 0.00104171, -0.00570322, -0.00680783, 0.000697391, 0.00854837, 0.00365235, 0.00284092, 0.00082046, 0.0022175, 0.00325575, 0.00453758, 0.000899698, -0.000876886, 0.000795804, -0.00179306, 7.16585e-05, -0.00159795, -0.0009408, 0.000681783, -4.73257e-17
-0.00105877, -0.00151051, 0.000259692, 0.0016696, 0.000731053, 0.00183256, -0.000865879, 0.00317375, 0.00139781, 0.000522988, -0.000915629, -0.00121305, -0.000438816, 0.000341737, -1.34792e-05, 0.000313568, -0.00168067, 0.000810546, 0.000184762, 0.00357644, 0.00175345, 9.97713e-05, 0.000834957, 0.00186855, 0.00166863, 0.00163683, -0.000978235, 0.00106153, -0.00521723, -9.52636e-05, -0.000775111, -0.00181161, 1.90336e-17
-0.00708053, -0.00370297, -4.59065e-05, -0.00198361, 0.0026323, -0.000463822, 0.00160026, 0.00117327, -0.00542063, 0.00408779, -0.00060308, 0.00513967, 0.000275253, -0.000852208, 0.000922651, -0.0268364, 0.00171153, 0.00666072, 0.00234266, 0.00180957, 0.0015363, -0.000298659, 0.00197598, -0.00424484, -0.00342467, -0.000769701, 0.00189223, 0.000397466, -0.0180645, -8.63243e-05, 0.000873223, 0.00112855, -4.83591e-17
-0.000755852, -0.000445299, 0.00255164, -0.00219885, -0.00325239, -0.00124876, -0.00161261, -0.000200734, 0.00248876, 0.000195417, 0.00169417, -6.26544e-06, -0.000875711, -0.000235946, 0.00181324, -0.000705292, 0.00285063, 0.000822262, -0.00106601, 8.01036e-05, 0.000229618, 0.00118721, 6.09046e-06, -0.00350424, 0.000996325, -0.00081818, 0.000321286, -0.000682581, 0.00166264, -0.000336621, 0.00272201, 0.000737918, 9.11214e-18
0.00234501, 0.00567331, -0.00132526, -0.00168458, -0.000941145, -0.00263727, -0.000109919, -0.000162834, 0.0038249, -0.00373455, -0.00321342, -0.00271193, 0.00218607, 0.00325851, 0.00545463, -0.00301554, 0.00143441, -0.00522622, 0.00129101, -0.000559794, 0.00145528, -0.000492273, -0.000600751, -0.00193506, -0.00151745, 0.00135905, -0.00107766, -0.000888681, 0.00477771, 0.000496789, -0.000949978, -9.49388e-05, 1.22174e-17
-0.00696684, -0.00746944, 0.00570442, -0.000464118, -0.00127597, -0.00051305, 0.00161902, 0.00156433, -0.00678332, 0.00202285, -0.00387041, 0.00550473, 0.00487673, -0.00225807, -0.0140846, -0.00433352, -0.00355492, 0.00693177, 0.00616735, 0.000535566, 0.00204294, 0.00315294, 0.00637128, 0.00635931, 0.00120814, -0.000958474, 0.00230573, 0.00184038, -0.00889572, -0.0021381, -0.000108072, 5.47024e-05, -3.26849e-17
0.0131341, 0.00278537, 0.00474084, 0.0020354, 0.0010336, 0.000682341, 0.000983648, -0.00526661, -0.00127958, -0.000218109, 0.00405507, -0.0017302, -0.00453223, -0.00353312, 0.00422036, 0.00775993, -0.00105108, -0.0119498, -0.002564, -0.00239149, -0.00874402, -0.00061851, 0.0039296, -0.00378345, -0.00387372, 0.00221033, 0.0017331, 0.000635299, 0.0084476, 0.00045531, -0.000581502, 0.000172881, -8.91587e-18
-0.00292568, 0.00101137, -0.000511744, 0.00221337, 0.00271386, 0.00198815, 0.0031618, 0.00273323, -0.00125188, 0.00184389, 0.00021671, 0.00213042, 0.00312928, -0.00093083, 0.00188455, -0.00743231, 0.000799247, 0.00296397, 0.00185558, 0.00239106, 0.00322392, 0.000910285, 0.000128153, -0.00044997, -0.00142579, 0.00334285, 0.00340397, 0.000736669, -0.00216442, 0.000699263, 0.000945861, -0.000437431, -2.10056e-16
-0.00228157, -0.00294413, 0.000645274, 0.00142905, 0.000673752, 0.00085651, 0.000947343, 0.00381166, -0.00133592, 0.00318759, -0.0014147, 0.00383587, 0.00128719, -0.000983028, -0.00268035, -0.00299992, -0.00321277, 0.00195073, 0.00332127, 0.00208106, 0.0017735, 0.000206248, 0.000919015, 0.000893034, 0.00187833, 0.00361936, -0.000744607, -0.000305838, -0.00869491, 0.000674483, 0.00124146, -0.000949292, 1.02414e-17
-0.00561956, -0.00434949, 0.000343888, 0.000357656, 0.00153095, 0.000858862, -0.00105795, -0.000852118, -0.00127262, 0.00244889, -0.00253327, 0.00285278, -0.00123159, -0.00128705, 0.00125586, -0.0235268, 0.00128997, 0.00761044, 0.000626589, -0.000618375, -0.000134238, -0.000246917, 0.00156022, -0.00389657, -0.00243235, -0.000907125, 0.00305116, 0.00142714, -0.0161638, -0.00167743, -0.00244138, 0.00090342, 4.57038e-17
-0.00319003, -0.00332869, 0.000797741, 0.00253694, -0.00111083, 0.000718163, 0.000184547, 0.00527473, 0.00196342, 0.000492336, -0.00116225, -0.000380135, -0.000465822, 0.00265414, -0.00308917, -0.00184483, -0.00201892, 0.00416396, 0.00215513, 0.00245502, 0.00261291, -0.000850729, -0.00131179, 0.00140828, 0.00322803, 0.000909225, -0.00164372, 0.00156794, -0.00736696, 0.000254461, 0.000803746, 0.000612567, -2.89337e-18
0.000268341, -0.00720434, -0.00141162, -0.00222089, -0.00319345, -0.00654873, -0.00517526, -0.000614016, 0.00662531, -0.00215976, -0.00225745, -0.00544621, 0.00172968, 0.00790217, -0.00239571, -0.00798338, -0.0030114, 0.000193158, 0.00257668, -7.34901e-05, 0.000707087, -0.00254604, -0.00136639, -0.00268715, -0.000257867, 0.00116, -0.00118702, 0.000155861, -0.00145546, 0.000288134, -0.000858658, -0.00164372, -6.65154e-18
0.00322757, 0.00303444, -0.00257382, -0.00117314, 0.00168773, 0.00110429, 0.000846977, -7.41594e-05, -0.000991981, -0.000352245, -0.000710762, 0.00235813, 0.00333022, 0.0011822, 0.00170696, -0.00018495, 0.00234393, -0.00520242, 0.000213, -0.000586668, 0.000315023, -0.0022066, -0.00371923, -0.00220658, -0.000950313, -0.000328455, -0.00108378, -0.000461907, 0.00252011, 0.001759, -0.000577568, -3.16682e-05, 6.76031e-18
0.00165822, 0.0101565, -0.00207604, -0.000356259, -0.00115008, 0.00180492, -0.00213183, 0.00254033, -0.00381111, 0.000468265, 0.00165634, -0.00237295, -0.00400828, -0.00371361, 0.0103469, 0.00685038, 0.00648743, -0.00279335, -0.00198976, -0.000748111, 0.000863527, -0.0022102, 0.00258637, 0.000539681, -0.000464486, 0.00307866, 0.000979817, 0.00150259, 0.00837228, -0.000285425, -0.000592702, 0.00118407, 2.68107e-17
-0.000968247, -0.00794576, 0.000238424, -0.000311652, -2.55887e-05, 0.00045256, -0.00217864, -0.00280528, 5.2395e-06, 0.000732337, 0.00176598, -0.000230836, -0.00142726, 0.00164806, -0.0116261, 0.00248853, -0.00401031, 0.00341188, 0.00240824, -0.000195805, -0.000947817, 0.000454384, 0.00163522, -0.000658235, -5.90516e-05, 0.000581184, 0.000427435, -0.000906695, -0.000560284, -0.000816793, 0.00205171, -0.00110343, 1.74656e-17
-0.0038377, 0.000459336, 0.000144984, 0.000344941, 0.000815844, -5.43429e-05, -0.00103518, 0.00200677, 0.000496602, 0.000766496, 0.00102468, -0.00123045, -0.00232397, 0.00047494, 0.00289824, -0.0153265, 0.00257462, 0.00704146, 0.00180146, 0.000675442, 0.00250969, 0.000807444, 0.0015965, 0.000583509, 0.00203254, 5.02855e-05, 0.00269269, 0.000958943, -0.00621495, 6.95056e-05, -0.000922153, -0.000615065, -4.07218e-18
0.00380819, 0.000661971, -0.00253889, 0.000668408, -0.000189729, -0.0020058, -0.00239208, -0.00272586, 0.0020459, -0.00211472, -0.00116138, -0.0016691, 0.00136981, 0.00411184, -0.000778155, 0.00150575, 2.75501e-07, -0.00284767, -1.45498e-05, -0.00252557, -0.00121319, -0.00377907, -0.00102319, -0.00371803, -0.00064804, -0.00106711, -0.00231076, 0.000340283, 0.00155931, 5.95681e-05, 0.00119952, -0.00218452, 1.48254e-17
0.00227591, 0.00705374, 0.000688211, 0.000734057, 0.00211172, 0.000734406, 0.000224211, -0.00577516, -0.00221092, 0.00298163, -0.000858058, -0.000402088, -0.00410308, -0.00189782, 0.00695686, 0.00937189, 0.00329914, -0.00208777, -0.00645799, -0.00392295, -0.00709814, 0.00126171, 0.00397544, -0.00271056, -0.00441413, 9.95629e-05, 0.000515585, -1.12968e-05, 0.0110226, 0.0017257, 0.000679055, 0.000316695, -1.13021e-16
-0.00318693, -0.00506253, -0.0016873, 0.00132625, -3.40711e-05, -0.00132889, 0.000499755, 0.00319303, 0.00253232, 0.000439472, -0.00174364, -9.11021e-05, 0.00127008, 0.00503929, -0.00499183, -0.000405451, -0.00318945, 0.00448477, 0.00276155, 0.00521351, 0.00391594, -0.00103191, -0.000809995, 0.00271435, 0.00567255, 0.00407229, -0.000461435, -0.000746024, -0.00765851, 0.00262015, 9.83072e-05, -0.000363934, 3.98124e-17
0.000107391, 0.000164547, -0.00223578, 0.00136755, 0.00102115, 0.000324665, 0.000607039, -0.000239916, -0.000772527, -0.00123246, 0.00084636, 0.000694514, -0.000885867, -0.00334814, 0.000769842, -0.0011247, -0.00141916, 0.00096362, 0.00178927, 0.00181994, 0.0011505, 0.000126371, 0.000435554, -0.000446802, 0.000675456, 0.000923092, -0.00120484, -0.000310787, -0.000704827, -9.78613e-05, -0.000970134, -0.00124175, -3.16259e-17
0.00294122, 0.00809233, 0.00112873, 0.00213466, 0.0006993, 0.000113662, 0.00150931, -0.00598318, 0.00453956, -0.00120971, -0.00215449, -0.00498603, -0.00129249, 0.00128225, 0.00731709, 0.00297861, 0.00462709, -0.00296472, -0.00279536, -0.00627716, -0.00682947, 0.000394785, 0.00593065, -0.00346407, -0.00297477, -0.000857557, 0.00239661, -0.000429658, 0.0119889, 0.00172017, -0.000640248, -0.000988242, 1.54487e-17
-0.00383218, -0.000852952, -0.00176155, 0.00057681, 0.000946962, -0.00343675, -0.00211603, 0.000282045, 0.00548678, -0.00110287, -0.00227835, -0.00336458, -0.000212267, 0.0032857, 0.00250026, -0.0298563, 0.000421823, 0.00313682, -0.000385769, -0.00136746, 0.000850424, 0.000333898, 0.000704489, -0.00544906, 0.00256691, -0.000176313, 0.00185879, 0.0032655, -0.0143248, 0.00205212, -4.74173e-05, -0.00195611, 1.39191e-17
-0.00287734, -0.00577491, 0.000177805, -0.000615238, 0.000427144, -0.000728659, -0.000733678, 5.17847e-05, 0.00236638, 0.00173233, -0.000532321, -0.00174513, 8.38744e-05, 0.000958009, -0.00710772, 0.00299107, -0.00222119, 0.000975377, 0.000942194, 0.00083958, -0.000547958, 0.000100387, 0.00106076, 0.000790311, -0.000783662, 0.000543112, 0.00137101, -0.000268454, -0.0021157, 0.00139023, 6.29504e-05, -0.000292471, 1.42731e-17
0.00442359, 0.000775265, 0.00138615, -0.00293769, -0.0028866, -0.000634187, -0.000286409, 0.00355861, 0.00130582, -0.00110291, 0.000204085, 0.00031278, -0.00014214, -0.000542083, 0.000213832, 0.00271829, -0.00249739, -0.00136839, 0.00279222, 0.00259284, 0.00386538, 0.00256069, 0.00135708, 0.00327129, -4.92563e-05, 0.00156352, 0.00199997, -0.00121712, 0.00255314, 0.000488387, -0.000853306, -0.000798208, -3.42367e-17
-0.0070944, -0.00948072, -0.00315563, 0.00223659, -0.000880333, 8.48713e-06, -0.00274622, 0.0039893, 0.00136577, 0.000523442, -0.00252731, 3.20659e-05, 0.00221922, 0.00185085, -0.00572958, -0.00158841, -0.004041, 0.00579779, 0.00343124, 0.00269668, 0.00425046, -0.00280538, -0.00322965, 0.000433782, 0.00421745, 0.00247834, -0.00274916, -0.000330141, -0.00959361, -0.00116611, 0.000405142, 1.22173e-05, 1.63888e-17
-0.00215372, -0.00784911, -0.00118831, -0.00137446, 0.000375245, -0.00129268, 0.000327123, -0.00100968, -0.000397056, 0.000501279, 0.000218288, 0.000488663, -0.00151794, 0.000378089, -0.00699071, 0.00612809, -0.00631997, 0.0001451, 0.000609963, 0.00143931, 0.000506185, 0.000833962, 0.000780687, -0.000372365, 0.000977977, -0.000713797, 0.00165122, 1.01266e-05, -0.00221117, -0.001089, -0.000432647, -0.00205091, 1.12718e-17
-0.00418847, -0.00271124, -0.00164663, -0.00197547, 2.74455e-05, -0.000223902, -0.00225597, 0.000822723, 0.000372298, 0.000590167, -0.001477, -0.000793715, 0.00465783, 0.00450214, -0.00548957, -9.91394e-05, 0.00121115, 0.00208132, 0.00533853, 0.00152181, 0.000686044, -0.00131736, 0.0017696, -0.00221082, 0.00172546, -0.00132978, -0.000881156, -0.00132116, -0.000833637, -0.000786288, -0.000559703, 0.000447004, 1.09899e-17
-0.000713316, 0.000380686, 0.000946423, 1.97781e-05, -0.000635809, -0.00107045, -0.000698736, -0.00373483, 0.00460639, 0.00171284, 0.000158838, -0.00805712, -0.00058931, -6.69908e-05, 0.002359, 0.00209095, -0.000223242, 0.000434777, -0.00400037, -0.000611487, -0.00620702, -0.00178865, 0.000868478, -0.00146798, -0.00130899, 0.00187485, 0.00457743, -0.00106272, -0.000928058, 0.000922374, -0.000339398, -0.000329165, -6.06932e-17
0.00147342, -0.00293819, 0.00143786, -0.00209078, 0.00100931, -0.00141924, 0.000576452, -0.00282576, -0.00141171, 0.000829143, 0.00118048, 0.000414013, 0.00128302, -0.00283687, -0.00445458, 0.00316647, -0.00216742, -0.00189471, -0.0014527, -0.001802, -0.000221925, 0.0031561, 0.000500676, 0.000621984, -0.00197923, 0.000217768, 0.00198879, -0.00234889, -0.00295913, -0.000783131, 0.00100711, 0.000183906, 4.63138e-19
0.000331487, -0.00927167, 0.00143907, -0.00100015, -0.00199986, -0.000589632, 0.00281872, 0.00105548, -0.000529318, -0.00170399, 0.000217663, 0.00240961, 0.000286706, -0.000290413, -0.0115305, 0.00619303, -0.00632237, -0.00079778, -0.00120514, 0.00138995, -0.00110507, 0.000425289, 0.000198208, 0.00274074, 0.000826485, 0.000445281, -0.00136236, -0.000965666, -0.00513473, -0.000107865, -0.00211465, 0.00017393, 8.26053e-17
-0.000688575, -0.000420231, -0.000749707, 0.00167128, 0.00095209, -0.00183998, 0.00344605, 0.00167176, -0.00122113, 0.00036777, -0.00504989, -0.00338534, 0.0024541, 0.00332882, 0.00289113, -0.00199089, 0.00107937, -0.00173509, 0.00223333, 0.000331794, 0.000578569, -0.00101626, -0.00135251, 0.000374972, 0.0011035, 0.000263897, -0.000873312, 0.00152991, -0.00197334, 0.00150935, 0.0024824, 0.00125803, -3.18326e-17
0.000122367, 0.00413911, -0.000154872, -0.00140933, 0.000544297, 0.000133278, -0.00101368, -0.0047839, 0.000121976, 0.00269265, -0.000435043, -0.000973213, 0.001582, -0.000569313, 0.00423894, 0.00285591, 0.00334726, -0.00144056, -0.00372886, -0.00512311, -0.00714825, -0.00127242, 0.00218339, -0.00538542, -0.005505, -0.0028516, 0.000337703, 0.000714756, 0.00901763, -0.00101046, 0.00220263, -6.70862e-06, -3.12722e-18
-0.0014068, -0.00453484, -0.000343209, -0.0041767, -0.00231394, -0.00339222, -0.00153208, 0.00118017, 0.00187974, 7.38327e-06, -0.00149753, 0.000130776, 0.00283601, -0.000671798, -0.00375041, -0.00199649, -0.00136277, 0.0037198, 0.000951239, -0.000129632, 0.00141783, -0.000454654, -0.000189674, 0.00157734, 0.00386284, 0.000976208, -0.00202989, -0.00196043, -0.00178024, -0.000684615, -0.00109442, 0.000267658, -3.60467e-18
-0.00664013, -0.00771268, 0.00150072, -0.00203405, 0.00132075, -0.00031405, -0.000358128, 0.00173922, -0.00272492, 0.000533679, 0.000627331, -0.00015841, -0.00199278, -0.0052857, -0.00943461, -0.00725845, -0.00373203, 0.00730786, 0.00166998, 0.00283164, 0.00425508, -0.000928179, 0.00199948, 0.000831338, 0.000457589, 0.000425411, -0.000786871, -0.0005571, -0.00801268, 0.00066675, -0.000738035, 0.000176642, -2.43025e-17
-0.00211806, -0.00154642, -0.00059817, -0.00148722, 0.00069092, -0.000100778, -0.0022273, -0.000238189, 0.00348286, 1.10811e-05, -9.07741e-05, -0.00344301, -0.00255496, -0.00022051, 0.000659705, -0.0028013, 0.00135308, 0.000403779, 0.000738466, 0.0011215, 0.00270753, -0.00225188, 0.000253339, -0.001527, 0.00238713, 0.00255307, -0.00151671, -0.00140729, -0.00141542, 0.000171904, 0.000143538, -0.000907684, 3.25016e-17
-0.00730476, -0.0133597, 0.00184814, -0.00157347, 0.000256519, 0.00013096, 0.000406833, 0.00334229, -0.00658383, 0.00175308, -0.00453571, 0.00853034, 0.00424743, -0.000951529, -0.0185364, -0.000628804, -0.00691878, 0.00431455, 0.00268652, -0.000355467, 0.00718806, 0.0024679, 0.00104454, 0.00347737, 0.0020903, -0.00254018, -0.000115773, 0.00141871, -0.018353, 0.000986997, -0.0027613, -0.000690579, 2.7334e-17
-0.00371467, 0.00239498, 0.000797366, -0.00197071, -0.00129358, -0.000320143, -0.00303662, 0.00103467, 0.00402387, 0.00474534, -0.000765539, -0.00265519, 0.00148374, 0.00214232, 0.00317589, -0.0158179, 0.00314039, 0.00246962, 0.00145912, 0.0019562, 0.00171122, 0.000701347, -0.00290684, -0.00157345, 0.00132689, 0.0020814, 0.0013659, 0.00107293, -0.0047336, -0.000303898, -0.00276786, 0.00241268, 1.2126e-17
0.00223648, -1.52702e-06, 0.000719333, -0.00296246, -0.000308956, -0.00109009, -0.00299898, -0.00164169, 0.00322869, 0.00256025, 0.00419372, -0.00451373, -0.00534832, 0.00107033, 0.0020794, -0.000288769, -0.0019717, -0.00323465, -0.00344326, 0.000595682, -0.00309883, 0.000454973, -2.39554e-05, -0.00214647, -0.00228547, -0.000560691, -0.000404803, 0.00126663, -0.00104479, 0.00145271, 0.000991031, -0.00162756, -1.84021e-17
0.00116867, 0.00457777, 0.00208743, 0.00104988, -0.00048861, -0.00159034, 0.000398326, -0.00647481, 0.00608876, 0.00494812, 0.000821935, -0.00532817, -0.0014351, 0.00286496, 0.00536155, 0.00082595, 0.00217573, -0.00295998, -0.00283318, -0.00312572, -0.0065057, 0.00168278, 0.00163718, -0.0031317, -0.00213686, 0.00128642, 0.00355951, -0.00129572, 0.00722374, 0.000872286, 0.00117092, -0.00130516, -5.47619e-17
0.00996334, 0.00482786, -0.000753475, 0.000146204, 0.000419962, -0.00126177, 0.00161948, 0.00177131, -0.0047861, 0.000526106, 0.000673696, 0.000461651, 0.000393602, -0.00137274, 0.00857324, -0.000107452, 0.00040816, -0.0117294, 0.000606768, -3.6634e-05, 0.004623, 0.00010218, -0.00122508, 0.00460027, -0.00218396, 0.00177359, -0.000439111, -0.00086097, 0.00115634, 0.00142511, -0.00138603, -0.00047541, 9.62773e-19
-0.00518651, -0.00586466, -0.00150634, -0.000514896, 8.1347e-05, 0.0011453, -0.00117135, 0.000606718, 0.00391322, 0.00239691, 0.00426985, -0.00216988, -0.0046924, -0.000854977, -0.00687475, -0.00288951, -0.0038988, 0.00527582, -0.00167775, -0.000400488, -0.000426054, 0.00330613, -0.00068967, -0.000713991, 0.00285934, 0.00152904, 0.00391741, 0.00228105, -0.00170302, 0.00114019, -0.00201544, -0.00102527, 4.69566e-17
0.000409828, -0.000668116, 0.000145675, 0.000463627, 0.00157615, -0.00233673, -0.000296964, 0.00250047, 0.00522547, -0.00163964, -0.00219871, -0.00454974, 0.00242498, 0.00628421, 0.00234425, 0.000212776, -0.00107735, -0.000347924, 0.00242529, -0.00213706, -0.00100061, 0.000108744, -0.00136709, -0.00178318, 0.000453081, -0.00126068, -0.00151455, 1.6548e-05, -0.00279925, -0.000547514, -0.000121375, -0.000572979, -1.20453e-17
-0.00220831, 0.00608211, 0.00139724, -0.000945315, 0.00190967, 0.00284343, 0.0029084, -0.00497434, -0.00309146, 0.000556778, -0.00363403, 0.00104138, -0.000873394, -0.00164689, 0.00728039, 0.000897371, 0.00202853, 0.00113455, -0.000726211, -0.00342723, -0.00515179, 0.00155269, 0.00115974, -0.00157651, -0.00260174, -0.000384653, 0.00130117, 0.000497274, 0.00402309, -0.000245068, 0.00183211, -0.00174132, -2.3229e-18
0.0013017, 0.00772612, 0.00506459, -0.00193809, -0.00334543, -0.00133786, -0.00403909, -0.00268527, -0.0012565, -0.000933294, 0.000991337, -0.00234674, -0.00275776, -0.00029439, 0.00789945, 0.00666776, 0.00605229, -0.00193427, -0.00253063, -0.00249352, -0.00502431, 0.000456085, 0.00815102, -0.000662619, -0.00188182, 0.000122779, 0.00322013, 0.000603012, 0.0093287, 0.000707821, -8.68651e-05, -0.00145254, -1.40651e-17
-0.00217635, -0.00248102, -0.00161212, 0.00323642, -0.000353157, -0.00139597, -0.00132489, 0.00291725, 0.00126481, 0.000103643, -0.0020982, -0.00173666, 0.000309588, 0.00124946, -0.000209211, -0.000338356, -0.00283975, 0.000413236, 0.00464305, 0.000718596, 0.00132354, -0.00025304, -0.0021317, 0.00133368, 0.00126685, 0.00110946, -0.000380529, 0.00205296, -0.00407929, 0.000490677, 0.000144295, 0.000393131, 2.75557e-17
0.00305024, 0.00667509, -0.0031932, -0.00086886, 0.00115141, -0.00124236, 0.000461465, 0.000563905, 0.00249297, -0.00251103, -0.00449238, -0.0027397, 0.00291659, 0.00362575, 0.00630767, -0.00133561, 0.00178438, -0.00450863, 0.00264255, 1.43223e-05, -0.000553368, 0.000787826, -0.00411934, -0.0025675, 8.51474e-05, -0.000347304, -0.000684489, -0.000758755, 0.00243533, 0.00110291, 0.00268136, 0.000896753, 7.27967e-17
-0.00339701, -0.0079542, -0.000999794, 0.00081856, -1.15614e-05, 0.000761447, -0.000244404, 0.00623905, 0.00110484, -0.000534362, -0.00207801, 0.000378654, 0.00365598, 0.00076627, -0.00765985, 0.000563044, -0.00235294, 0.00316179, 0.00328358, 0.00443625, 0.00285538, -0.00156847, -0.00140005, -0.00029921, 0.00320476, 0.00153744, 0.000796597, -0.00053766, -0.00798396, -0.000761882, -0.0014306, -0.000443599, -2.35252e-17
-0.00413067, 0.002868, 0.002745, -0.00254549, -0.001196, 0.000168667, -0.00101368, -0.00017459, 0.000628784, 0.00139432, 0.00453619, 0.00315521, -0.000235402, -0.000310515, -0.00198629, -0.00184879, 0.000387484, 0.00342631, 7.6834e-05, -0.000220588, 0.00339632, 7.68346e-05, 0.00141528, 0.00351941, 0.00501096, 0.00347152, 0.000517579, 0.00121861, -0.0046875, 0.000622174, -1.25212e-05, 0.00289918, 1.32786e-17
-0.00113511, -0.00281498, 0.00072278, -3.04318e-05, 0.000389447, 0.0024346, 0.00170329, 0.00153321, -0.00215215, 0.00128561, 0.00122019, 0.000641569, 0.00142014, -0.00185564, -0.00344846, -0.00340081, -0.000690217, 0.0017245, 0.000988848, -0.000363155, 0.00194056, 0.000920632, 0.000231128, 0.00442855, 0.00215033, 0.00308641, -0.00299743, 0.00190511, -0.0078281, 9.91087e-05, 0.000452482, 0.00146788, 5.00108e-18
-0.00424361, -0.00289447, 0.000641318, -0.000263804, -0.0025268, 2.8208e-05, -7.2408e-05, 0.00300096, 0.00229913, 0.00189655, -0.00128706, -0.000614128, 0.00339245, 0.00234734, -0.00552907, -0.00335532, -0.00128937, 0.00425276, 0.00169241, 0.00297868, 0.00326209, -0.00221284, 0.00135838, 0.00145491, 0.00273042, 0.00152203, -0.00062611, 0.00068508, -0.00438407, -0.000487541, -0.000279882, 0.00028185, -3.48011e-17
-0.00346578, -0.0062237, 0.000621627, 0.00185235, 0.000233056, 0.00201825, 0.00191444, 0.00421836, -0.00131589, -0.00131428, -0.00226, -4.64666e-05, 0.000296095, -0.000228745, -0.00634616, -0.00216898, -0.00214613, 0.00293419, 0.00437337, 0.00435767, 0.00232938, 0.000459541, 0.00210165, 0.00171302, 0.00171271, 0.000533103, 0.000415662, 0.00201094, -0.00461716, 0.000142678, 0.000270477, 0.000818854, -2.63311e-17
-0.00341382, -0.004907, -0.00300524, 9.65415e-05, -0.00036105, -0.000840325, -0.0019609, 0.0050903, 0.00299779, 0.000401058, -0.00280191, -0.000554109, 0.0023337, 0.00203596, -0.00577772, 0.00122451, -0.000695471, 0.00475088, 0.00667442, 0.00116053, 0.00350633, -0.00165942, -0.000908828, 0.000250108, 0.00365338, 0.00253014, -0.00164555, -0.000598171, -0.00719171, -0.000910047, -0.000114366, 0.000745903, 2.60704e-17
-0.00276265, -0.000197548, -0.000759883, -0.00147532, -0.000943177, 0.000185338, 0.000133831, -0.00217, 0.000301678, -0.000501639, 0.000367726, 0.00108783, -0.00168094, -0.00122611, -0.00112697, -0.000401047, 0.000707712, 0.00102372, 0.000689326, -0.00178455, -4.51903e-05, 0.0027471, -0.00126639, 0.0023932, 4.324e-05, -0.000186958, -0.000364966, -0.000750483, -7.28439e-05, 6.58623e-05, -0.00140942, -0.000746633, 1.02086e-06, -0.000762353, -6.72447e-05, 0.000628121, 0.000577373, -0.00146529, -2.87947e-05, 0.00113104, 0.000186716, 0.000588898, 0.000585006, -0.000557993, -0.000423007, 0.00015873, -0.000468223, -0.00103471, 0.000843211, -0.00111742, 0.000949555, -0.000844229, -0.000207294, 0.000814988, 0.000171536, -0.00193764, -1.56559e-05, -0.00152234, -0.000197286, -0.00413539, 0.00247116, 0.000605336, 0.000665317, -0.000829955, -0.0019101, -0.00204911, 0.00100517, -0.00170269, -0.0028326, -0.00144253, 0.000410214, -0.000619239, -0.00177367, 0.000633445, 0.00177627, -0.00213162, 0.00048092, 0.000912404, -0.00395831, -0.00158222, -3.06253e-05, -0.000670135, -0.00153715, -0.00240734, 0.00225291, -0.00199335, -8.38782e-06, 0.000837244, -0.00153345, -0.00283931, -0.00174361, -0.000965282, 0.000758999, -0.000331997, -0.00019232, -0.00222316, -0.000922067, -0.000736976, -0.00282304, -0.00063667, -0.00112314, -0.0015548, 0.000340502, 0.000236631, -0.000839022, -0.00223571, -0.00201519, 0.000302871, 0.000615007, -0.000585498, -0.000842706, -6.89044e-05, -0.00211808, 0.000295941, -0.00102781, -6.99381e-05, 0.000211558, -0.00164719, -6.58022e-05, -0.00129461, 0.000690599, 2.49087e-06, -8.05461e-05, -0.0012492, -0.000337974, 0.00168081, 0.00129421, -0.000630161, -9.60493e-17
-0.00942857, -0.00223869, -0.000148204, 0.0013732, 0.000658196, -0.00331113, -1.91544e-05, 0.000400673, -0.00553892, 0.00175902, 0.00153034, -0.00207821, -0.00966495, -0.000565093, -0.0024957, 0.00208463, -0.00257997, 0.00136406, -0.00317814, -0.00834617, 0.000265729, 0.000185557, -0.00625892, -0.000390751, 0.00196568, 0.000662578, 0.00305377, -0.00387602, 0.000167335, -0.0006776, 0.000188748, 0.000666383, 0.000163173, 0.00122504, -0.000278552, -0.000758549, -0.000277479, -0.00431709, 0.00138784, 0.000941753, 0.00227342, 0.00295853, -0.00321745, 0.000447035, 0.00349454, -0.00549233, -0.000277294, -0.00990529, -0.00606011, -0.00264288, 0.00285, 0.00103971, 0.000190504, 0.00288776, -0.00026465, -4.76902e-05, 0.00131502, -0.00340403, 0.00147518, -0.0108772, 0.00260415, 0.000121587, -0.000434255, -0.00150934, -0.0104461, -0.00843111, -0.0056611, -0.00160586, -0.00935669, -0.0117883, 0.00404827, 0.00494419, -0.00377967, -0.00754856, -0.000115115, -0.00314217, -0.00177059, -0.000418195, -0.00637721, 0.00279166, -0.00164759, -0.0012962, 0.00262762, -0.0015811, 0.000416256, -0.00659172, -0.000757533, -0.00155498, -1.6065e-06, 0.00219455, -0.0065475, -0.00372247, -0.00290952, 0.00179302, -0.00055255, -0.00189714, -0.00145771, -0.00945633, -0.0025915, 0.00213882, -0.000593505, -0.00831358, 0.00190148, -0.00287135, -0.00294403, -0.0109917, -0.00196926, -0.000228999, 0.00264194, -0.00498383, -0.000506206, -0.0117655, -0.00516538, -0.00467799, -0.00377762, 0.00336617, -0.000165742, -0.000196298, 0.000934199, 0.00377885, -0.00175597, -0.00101688, 0.000611987, -0.00141707, -0.00260824, 0.00194665, 0.000382428, -0.000174263, 5.84104e-17
-0.0028931, -1.62712e-05, 0.00190183, -0.000946867, -0.00180385, -0.000748355, -0.000708048, -0.00438843, -0.00117955, 9.43459e-06, -0.000237824, -0.00373589, -0.00227123, -0.00099527, -0.00307067, 0.00254223, 0.00189734, 0.0020796, -0.00224657, -0.00380735, -0.000918412, 0.00281721, -0.00279766, -0.000645056, -0.000476142, -0.000271965, 0.00298716, 0.000246051, 0.00326548, 0.000320179, -4.0033e-06, 0.000604026, 0.000651677, -0.00375064, 0.000564497, -0.00115205, -0.000396143, 0.000135093, 0.00274059, -0.000199039, 0.000674977, 0.00255207, 0.000655696, -0.000376352, 0.00132445, 0.000310045, -0.00098677, -0.0023118, -0.00193296, 0.00116482, 0.000196111, 0.00240165, -0.00155019, 0.000729758, -0.000132365, -0.00241611, -0.000229128, -0.00331408, 0.0029357, -0.00443925, 0.00141107, 5.24288e-05, -0.000612853, -0.00161931, -0.00156855, -0.00166639, -0.00173112, -0.00437642, -0.00162671, -0.000715618, 0.00131127, 0.00247218, -0.00049524, -0.000988193, 0.00394919, -0.00290491, 0.000577575, -0.000599638, -0.00373536, -0.00187863, -0.000380976, -0.00180853, 0.00379566, -0.00259165, 0.000762532, -0.000723934, -0.00205601, -0.00044606, -0.000726804, -0.00164091, -0.00205131, -0.000799691, -0.00127427, 0.00229904, -0.00402463, -0.00348067, 0.0018506, -0.00129385, -0.0037175, -8.27596e-05, -0.00102045, -0.00289358, -2.7984e-05, -0.000398708, -0.00034854, -0.00236054, -0.00215301, 0.00170815, -0.00131239, -0.00186429, -0.00199929, -0.00153575, -0.00121522, -0.00118563, -0.0012528, 0.000449867, -0.000236731, -0.00475424, 0.00362468, 3.95284e-05, -0.000395399, -0.00161558, -0.000199029, -0.000753955, 4.47228e-05, -0.000647755, 0.000439361, -0.00182879, -2.6342e-17
-0.000787361, 0.000464477, -0.00104131, -0.00023964, -0.000541824, -0.000444326, -7.23278e-05, 0.00103557, 2.10125e-05, -5.30609e-05, -0.000212225, 0.000949369, -0.000185619, -0.000810941, -0.000210157, -0.000247113, 0.00194036, 0.000981303, 0.000101688, -0.00119558, -1.39007e-05, 0.000931052, -0.00035828, 0.00135606, 0.00117018, -0.00085464, -0.000290845, 0.000554452, 0.000683596, -0.00065514, 0.000564657, 0.000680215, 0.000744942, -0.000123692, 0.00074474, -0.00112694, -8.67865e-05, 0.00061769, 0.00212054, -6.43531e-05, -0.000419551, 0.00141762, 0.000130111, -0.000494747, -0.00119432, -0.000754602, 0.000239604, -0.000907369, 0.000261487, 0.000692468, -0.000471407, 0.00212047, -0.000118713, 0.000281585, 0.00111827, 0.000644838, -0.00115441, -4.93691e-05, 0.00112276, -0.000896263, 0.00118276, -0.000965686, 0.000125089, -2.305e-05, -4.48758e-05, -0.000991219, 0.000401135, -0.000957427, 0.000942635, 0.000906359, 0.00104523, -0.000140831, -0.000362505, 0.000646932, 0.00184027, -0.00100036, -0.000167289, -0.00113918, -0.000743764, -0.00014756, 0.000766262, 0.000269305, 0.00168009, 0.000144615, 0.00142668, 0.000848959, -0.00130661, 4.16229e-05, 0.000123516, -2.41789e-05, -0.000501375, -0.000331644, -0.000227605, 0.000964658, -0.00127696, -0.000846325, 0.00182522, 4.83628e-05, -0.00104293, 0.00050168, -0.000327187, -0.000362554, -0.000726932, -0.00164874, -0.000628719, -0.00117477, 0.000232572, -0.00141787, -0.000393743, -0.000511646, 1.1723e-05, -0.0020505, -0.000571178, -0.000950968, -0.00128582, 0.000399454, -6.95831e-05, 2.73548e-05, 0.00113344, -0.000806546, 0.00011877, 0.000444656, -0.000874991, -0.000391136, -0.00150728, -0.00110553, 0.000760607, -0.000419946, 2.95184e-16
0.00286854, 0.00225993, 0.00229608, -0.0019093, 0.00112074, 0.00238584, 0.00119886, 0.00129322, 0.00311977, -0.00205593, 0.00476369, -0.00105667, 0.00589249, 0.00250509, -2.02827e-06, 0.00274927, -0.00150075, 0.00162202, -0.00014441, 0.00199149, -0.00147247, 0.00133554, 0.000669948, 0.000420546, 0.000693672, 0.00250803, -0.00230007, 0.000119566, 0.000382951, 1.94494e-05, -0.000426004, 0.000705666, -9.8462e-05, 0.000731185, -0.000343371, 0.00133336, -0.00014428, -0.00158005, 0.000577426, 0.0013787, -0.00168433, 0.00302497, -0.00344268, 0.00131656, -0.000594116, 0.000296668, 0.000603878, 0.00111442, 0.00486954, 0.001363, 0.000204843, -0.000606529, -0.000316779, -0.00136222, -0.000754935, -0.000276215, 0.00137518, -0.00129356, 0.00107289, 0.00475669, -0.00735667, 0.00214802, 0.00148779, -0.00117498, 0.00549416, -0.000581891, -0.00359755, -0.00180127, 0.00271486, 0.00065062, 0.00180738, 0.000164087, 0.000777361, 0.000721955, 0.00124956, 0.00424761, -0.00472814, 0.00042125, -0.000252872, -7.35357e-05, 0.000130885, 0.000226068, 0.00130685, 0.00200248, 0.000355342, -0.000429471, 0.00124405, -0.00240656, 0.000192438, 0.000446017, 0.00202155, 0.00268362, -0.00246302, 0.000863835, 0.00231063, 0.00152458, 0.00370735, 0.000315878, 0.00355222, -0.000571412, 0.00217546, 0.00173181, -0.00178917, 0.00557791, 0.00210304, 0.00160033, -2.89894e-05, 0.000629623, -0.000627504, 0.00512051, 0.000277305, 0.00433806, 0.00168323, 0.00152883, 0.00490211, -0.000886166, -0.00274343, -0.00174829, 0.00044996, -3.3362e-05, -0.000649625, 0.00241563, 0.00188048, -4.23741e-05, 0.000572901, 0.00112459, -0.000309496, 0.00286141, -3.63891e-17
0.00206204, 0.00163564, 0.000488054, 7.98997e-05, -0.00177734, -0.000283298, -0.00322282, 0.000308423, 0.000892005, -0.00142441, -0.00283262, 0.00295009, -0.000551791, -0.00167489, -0.000490825, 0.00159477, -0.000683215, -0.00041483, -0.000616156, 0.000638311, 0.00138273, -0.00031717, -3.29719e-05, -0.00183739, -0.0012305, -0.00211766, -0.000377357, 0.000700403, 0.000774664, -0.000605326, 0.000620312, -0.000126002, -0.00133074, -0.00168004, -0.000990946, -0.000932407, -0.000862058, 0.00222419, 0.000125806, -0.00065943, -0.00192356, -0.00104416, 3.29153e-05, -0.00339377, -0.000910208, 0.000903565, -0.00165693, 0.000601008, -0.000672605, 0.000595131, -0.00173691, -0.000146795, -0.00134481, -0.00187739, 0.00155701, 0.00182993, -0.00298372, 0.000107716, 0.000600266, -0.000561065, 0.000627113, -0.00189308, -0.0025118, 0.00196231, -0.000945091, 0.00267161, -7.79256e-05, -0.000660808, 0.00149034, 0.000642054, -0.000491413, 0.00118687, -0.00184577, -0.00169965, -0.00136396, -0.00194142, 0.000248901, -0.000868607, -0.000257316, 0.00169797, 0.00285724, -0.00196106, -0.000428759, -0.000806379, -0.00203491, -0.000514411, -0.00193053, 0.00349632, 0.0020325, 0.000745476, -0.00090387, 0.00018836, 0.00264426, 0.000534894, -0.00220521, -0.000401857, 0.00125821, 0.000781231, 0.000626596, -0.0013049, -0.00269209, 0.000663655, -0.000273901, 0.000264542, 0.000253952, 0.000408163, -0.000131926, 0.000591581, 0.000176476, -0.00152774, 0.000683634, -0.000297437, 0.00107205, 7.92636e-05, 0.00130508, 0.000771296, -0.000238332, 0.00184852, 0.000888023, 0.00167608, -0.00104993, 0.0022723, -0.00255781, 0.00137074, -0.00158138, -0.000608942, -0.00158561, -0.00107887, 7.56124e-17
0.000405807, -0.00222923, -0.00179808, -0.000759712, 0.00146551, -0.00128236, 0.000675845, -0.000323452, -0.00108906, -0.00242396, 0.000413303, -0.00165117, -0.000488769, -1.74941e-05, 0.000271794, -0.00201147, -0.000468284, -0.00258269, 0.00086092, 0.00107914, -0.000418878, -0.000151842, -0.000923171, 0.0011373, -0.000969267, 0.00335073, -0.00160745, -0.000285693, -0.00261831, -0.0015815, -0.0023637, -0.000145131, -0.000580092, -0.000336506, -0.00260258, -0.00223363, -0.000768799, -0.00184474, -0.00286115, 0.000624003, 0.00187965, -0.00175222, 0.00142148, 0.00110596, 0.00124845, -0.000253617, 0.00152554, -0.000284095, -0.00156073, -0.00216425, 0.00153564, -0.0028455, 0.00180064, -0.00068137, -0.00180118, -0.000660787, 0.000502151, -0.00183787, -0.00116552, -0.0004721, 0.000389575, 0.00197258, 0.00183854, -0.00412337, 0.00106976, 0.0006713, 0.00177134, 3.69918e-05, -0.000758715, 0.00181056, -0.00277253, -0.00217073, 0.00268663, 0.00186332, -0.00364863, -0.000884657, 0.00164095, -0.0012325, 0.00269665, -0.00167912, -0.00055708, 0.00163203, -0.00277027, 0.000935695, -0.000216353, 0.00364063, 0.000323302, -0.00201834, -0.00210105, -0.00141484, -0.000845783, 0.00226062, -0.00168378, -0.00120914, 0.000589696, -0.000207968, -0.00328666, 0.00157259, -0.000424875, -0.00209038, 0.000843155, 4.4125e-05, 0.000338442, -0.00222789, -0.000222996, 0.000424739, -0.000936734, -0.0011765, -0.00122408, 0.000413044, 0.000185229, 0.000178979, 0.000341665, -0.00164126, -0.00280267, -0.000687075, 0.0012371, -0.0027933, -0.000391838, -0.00220348, -0.00117298, -0.00381103, 0.000763956, -0.00221842, 0.00100753, 0.000837229, 0.000654528, 0.000982654, 1.62317e-16
-0.0100554, -0.00311601, 0.000907461, 0.00187044, 0.000279956, -0.00235697, -0.00107096, -0.00150076, -0.00258899, 0.00191448, 0.00212202, -0.00216837, -0.0109467, -0.00139168, -0.0032097, -5.11545e-05, -0.00160831, -7.15562e-05, -0.00342533, -0.00986142, -0.000287882, 0.000141531, -0.00662479, 4.84572e-06, 0.00269248, 0.00116198, 0.0022194, -0.00381742, 0.000468574, 0.000147859, -0.000350621, 0.000763011, 0.00021863, -8.25641e-05, -0.000651003, -0.00210734, -0.00023191, -0.00519293, 0.00156333, -4.66746e-05, 0.00431167, 0.000945909, -0.000317358, 0.000441121, 0.00373426, -0.00673703, 0.00126952, -0.00976924, -0.00566056, -0.00291762, 0.00315763, 0.00116911, -0.00105402, 0.00386875, -0.00186554, -0.00161846, 0.0020914, -0.00349857, 0.00097696, -0.0127467, 0.00314187, 0.00170599, -0.000851962, -0.00260516, -0.0106957, -0.0096966, -0.0037792, -0.00107964, -0.0105744, -0.0113493, 0.00287635, 0.00423585, -0.00255707, -0.0055161, -0.00113813, -0.00456852, 0.00066145, 0.000436519, -0.0054327, 0.00170169, -0.00172343, -0.00117467, 0.00105132, -0.00149528, 0.0012671, -0.00528944, -0.00136832, -0.00316437, -0.00121683, 0.00405972, -0.00711279, -0.0019338, -0.000182127, 0.00217095, -0.00215436, -0.00223979, -0.00324306, -0.00949832, -0.00354047, 0.00140606, -0.00150379, -0.00852057, 0.00319589, -0.00379665, -0.00320663, -0.0108479, -0.00237125, -0.00109902, 0.00187058, -0.00438548, -0.000502861, -0.00904174, -0.00270212, -0.00358595, -0.00513205, 0.00215825, 4.74798e-05, -0.00235024, 0.00197532, 0.00601971, -0.000536435, -0.000165665, -0.00142405, 0.00148557, -0.0023046, 0.00223262, 0.00102724, -0.000105297, -5.64787e-17
0.000110203, -0.00548651, 0.00320801, -0.00116689, 0.00284887, 0.00822934, 0.00154215, -0.000903915, -0.00590597, 0.00530509, 0.00276403, -0.00615649, -0.00111214, -0.000105416, -0.00213221, 0.00329944, 0.00300212, 0.00373569, -0.00324904, -0.00591686, -0.00252262, -0.000116982, -0.00502037, -0.00249214, 0.00333269, 0.00110686, 0.0100304, -0.00303087, 0.0061192, 0.00304907, -0.000525467, 0.00619938, 0.000759687, 0.00184544, 0.00353127, 0.00139278, 0.00310756, -0.000437622, 0.0028668, -0.000782498, -0.00011734, 0.00421643, -0.00394171, 0.000613718, 0.000240794, -0.00427284, 0.00210144, -0.000758451, -0.00463775, 0.00710813, 0.0022891, 0.00154075, 0.00142309, 0.00221959, -0.0046865, -0.00248066, 0.00433958, -0.00243248, 0.00237806, -0.00347521, -0.00208982, 0.00415973, 0.00169968, -0.00152949, -0.000478087, -0.00347581, -0.0101606, -0.00625875, -0.00155505, -0.00423872, 0.00536539, 0.00123629, -0.00110023, -0.00563744, 0.00384823, 0.0013707, -0.00473966, 0.00179414, -0.00433413, -0.00175479, -0.00672243, -0.00277037, 0.011989, -0.00248576, -0.0011739, -0.00333088, 0.00181402, -0.00837494, -0.00325703, 0.00332724, 7.40002e-05, -0.000176545, -0.00457515, 0.00570326, 0.000821219, -0.000622519, 0.00370678, -0.00924895, 0.00108358, 0.00269224, 0.00144575, -0.00129269, -0.000267617, 0.00533034, 0.00287008, -0.00174578, -0.00263113, 0.00369829, -0.00300236, -0.0030505, 0.00122777, -0.00934125, -0.00538943, 0.00480029, 0.00424992, 0.00594539, -0.00425339, -0.0022833, 0.00391366, 0.00444649, -0.000123881, -0.00594557, 0.00202823, -0.00660893, 0.000363813, 0.000617423, 1.55478e-07, 0.00262131, -6.91255e-17
0.0018387, 0.00233227, -1.45344e-05, -0.000413008, -0.00235444, -0.000320737, -0.00187961, 0.00129135, -0.000369081, -0.00194598, -0.00346134, 0.00226258, -0.000204122, -0.000730043, -0.00020465, 0.0017014, 0.00105818, 0.000184687, -0.000203518, 9.79197e-05, 0.000542667, 0.000161542, -1.20683e-05, -0.00271479, -0.00136189, -0.0028801, 0.00116117, 0.000947314, 0.00167141, -0.000639496, -0.000613889, -0.000175221, -0.00133549, -0.00199547, -0.000873968, -5.95451e-05, -0.000981542, 0.00307265, 0.00149397, -0.00160147, -0.00204724, -0.00116309, 0.000216365, -0.000773559, -0.00157222, 0.00117907, -0.00305729, 0.000622666, -0.00126586, 0.00101156, -0.0030351, 0.00107208, -0.00262424, -0.00215898, 0.00216071, 0.00264384, -0.00337275, 0.000616789, 0.00102633, 0.000497295, 0.000732019, -0.00369301, -0.00443221, 0.00317188, 0.000167523, 0.000660266, -0.00158702, -0.000949099, -0.00041498, -0.000435861, 0.000948323, 0.000900192, -0.00224108, -0.00304926, 0.000522321, -0.00201852, 0.000112356, -0.0013371, -0.000533431, 0.00154159, 0.00338867, -0.00176521, 0.000121505, 0.000138524, -0.0020298, -2.20335e-05, -0.00258683, 0.00301383, 0.00212098, 0.000295208, 0.000184338, 0.00029464, 0.00160932, 0.00134485, -0.00234333, -4.45674e-05, 0.000765728, 0.000713804, -0.000104981, -0.00206292, -0.00266183, 0.000763279, -0.00255213, -0.000141755, 0.00106538, 0.000566114, 0.00127314, 0.000316013, 0.00116175, -0.00245914, 0.000666353, -0.00201881, 0.0011904, 0.00049417, 0.00139522, -0.000409945, -0.00081412, 0.00300042, -0.000200647, -5.28847e-05, -0.00105898, 0.00296199, -0.00256842, 0.000561019, -0.00157172, -0.00205235, -0.00173065, -0.00224788, -1.3035e-16
0.000792054, 0.000765939, -0.000486027, -0.000524787, -0.00229067, -0.00111785, -0.00232872, 0.000453352, 0.000278167, -0.000605141, -0.00170336, 0.00227674, -0.000217328, -0.00144866, 0.00126885, 0.000309298, 0.0015893, -0.000366759, -0.000801879, -0.000500651, 0.00180379, -0.000342701, 0.000209806, -0.00193002, 8.0077e-05, -0.00261709, 0.000475079, -0.000270719, -0.000998527, -0.000771366, -0.000283329, -0.00101763, -0.000519862, -0.000798352, 7.61919e-05, -0.000400707, 0.000243697, 0.000821776, -0.000696044, -0.00141989, -0.000605624, -0.000331641, 0.000457124, -0.00179467, -0.000880609, -0.000271445, -0.00157118, -0.000157443, -0.00152101, 0.000592476, -0.000771632, -0.000636955, -0.00208028, -3.52057e-05, -0.000628197, 0.00110785, -0.00196442, 0.000664551, -0.000877779, -0.000817687, 0.0011611, -0.0028549, -0.00252334, 0.002653, -0.000594725, 0.000876457, -0.00148298, -0.00112658, 0.00151828, -0.000191775, -1.62864e-05, -5.92894e-05, -0.00112331, -0.00218468, 0.000416785, -0.00180212, -0.000342009, -0.0017849, -0.000927771, 0.000574576, 0.00168272, -0.00287227, 0.00136627, 0.00150781, -0.000927496, -0.000548474, -0.00227238, 0.00258786, 0.000532477, 0.00109987, -0.00136411, 7.91767e-05, 0.00149425, -0.000538071, -0.000927257, 0.0012649, 0.000826518, -0.000511705, -0.000224343, -0.000417285, -0.00114542, 0.000392288, -0.0018696, -0.000207176, 8.02202e-05, -0.00056594, -0.000326358, -0.000462779, 0.000171669, -0.00282563, 0.00110071, -0.00492641, 0.000111381, 0.000639666, 0.000313756, -0.000106151, -0.00102166, 0.00235312, -0.000284278, 0.000409391, -0.00152521, 0.000998807, -0.00369709, 0.00145483, -0.0016787, -0.000993915, -0.00194012, -0.00166281, -3.64662e-17
0.00199166, 0.00179968, -0.000278154, 0.00100536, -0.0014175, 2.65024e-05, -0.00253644, -0.000663252, 0.000139175, -0.000331893, -0.00265024, 0.00152893, 0.000786708, -0.000629187, 0.000155114, -9.89841e-05, 0.000953708, -0.00192474, -0.00137981, 0.00158438, 0.000916799, -9.24753e-05, 0.000687241, -0.00217843, -0.00109477, -0.00246367, 0.000980237, 0.00231207, -0.000641783, -0.00159982, -0.00143653, -0.00255268, -0.00191426, -0.00197443, -0.000320066, -0.00179644, -0.00199962, 0.000726815, -0.000925141, -0.00220021, -0.000337848, -0.000959985, 0.000668652, -0.000439328, -0.00175083, 0.00243011, -0.00175373, 0.00200573, -0.000848483, 0.000649545, -0.00247042, -0.00155302, -0.00228055, -0.00113373, 0.000476065, 0.0012521, -0.00133723, 0.000754547, -0.000247802, 1.50018e-05, -2.18893e-07, -0.00299624, -0.00346876, 0.000335323, -8.04944e-06, 0.00252002, 0.000123101, -0.00081519, 0.00168347, 0.00219624, 0.000412494, 0.00157432, -0.000368063, 0.000467212, -0.00224512, -0.000496776, 0.000406971, -0.0013579, -0.00102682, -0.000148343, 0.0017557, -0.00106457, -0.000710063, -0.00034258, 0.000118061, -0.00169267, -0.00117805, 0.00285803, 0.00175597, 0.000948218, -0.000626362, -0.000765251, 0.00084787, -0.00126584, -0.000795221, -0.00137127, 0.000773893, 0.000474828, -0.000636839, -0.00081965, -0.00240654, 0.00171884, -0.0020335, -0.000569712, 0.00108459, 0.00236383, -0.000789421, -0.000603362, 0.000330502, -0.000718743, 0.000505177, 0.00165606, 0.000525825, -0.00105685, 0.000232123, 0.00179151, -0.000179697, 0.000686136, -0.00165479, 0.000497863, -0.00181009, 0.00159409, -0.00050458, 0.000859882, -0.00199456, -0.00164784, -0.00016526, -0.00151459, 1.53651e-17
-0.00399889, -0.00311093, 0.00040037, -0.00129161, -0.000730786, 0.00216463, 0.00119927, -0.00160637, -0.000327098, 0.00488732, 0.000297875, 0.00192347, -0.00667029, -0.00217409, -0.00307139, -0.000641328, 0.00024808, -0.00223716, 0.000821751, -0.00342211, -0.000582043, 0.000832419, -0.00228415, 0.00381357, 0.000595346, -0.000588807, 0.00139727, -0.00112479, -0.00103467, 0.00227475, -0.00251755, -0.00122453, 0.002172, -0.000774303, 0.000962958, -0.000278506, 0.00157175, -0.000351029, -0.00122892, -0.000325616, -0.000932795, -0.00324258, 0.000651142, 0.00141945, 0.000969089, -0.00203, 0.00138208, -0.00463993, -0.00326694, 0.00177034, -0.000457463, -0.000160587, 0.0011107, 0.00114108, 0.000238411, -0.00138438, 0.00244653, -0.00136008, -0.0013033, -0.00663727, 0.00150728, 0.00339761, 0.0011141, -1.3126e-05, -0.00454542, -0.00288209, 0.00127154, -0.000262212, -0.00532864, -0.00485347, -0.000313343, 8.8578e-05, -0.00101661, 0.00146017, 0.000327198, -0.0037451, 0.00158993, 0.00157239, -0.00434368, -0.00258339, -0.00167394, -5.81677e-05, 0.000824194, -0.00426042, 0.00160776, -0.00172949, 0.00120741, 0.000412871, -0.000648805, -0.00324835, -0.00363971, -0.00425365, -0.000562272, -0.0010302, -0.00139509, -0.00224107, -0.00185026, -0.00419398, -0.00316827, 0.000686433, 0.000439555, -0.00382289, 0.00154363, -0.00109866, -0.00144142, -0.0045626, -0.00292819, -0.00120412, -0.000203034, -0.000263873, -0.000283181, -0.00179088, -0.00484427, 0.00160862, -0.000667588, 0.00216391, 0.00100207, -0.00166242, -0.000416126, -0.000733475, 0.00169096, -0.0039646, -0.000582456, -0.00225785, 0.00291392, 0.000725587, -0.000725866, -0.000621589, 1.31616e-17
-0.000282771, 0.00287589, -0.00141926, -0.00149988, 0.00136241, -0.000511926, 0.00111836, 0.00063843, 0.00327673, -0.000484611, -0.000523928, 0.00801847, -0.00142871, -0.00107389, 0.00169649, -0.000619305, -0.00232211, 0.00063313, 0.0100372, 0.000996364, 0.00326641, 0.00133615, 0.00280809, -0.00207853, 0.000283404, -0.000289689, -0.000205895, 0.00225802, 0.00107681, -0.00063697, -0.00440127, -0.00199776, 0.00197651, 0.000130565, 0.00232226, -0.000420323, -0.000296906, -0.000451472, 0.00029347, -0.00314593, 0.000194039, -0.00124651, -0.000361235, -0.00110313, 0.000872402, -0.000866217, -0.000628059, 0.000324576, 0.00426593, 0.00109326, -0.00219146, -0.000538308, 0.000659352, 0.000551071, -0.00267031, -0.000700771, -0.00189239, 0.00537515, -0.00205906, 0.000365356, -0.00324297, -0.00119974, 0.00275692, 0.00208952, -0.00118264, -0.00124332, -0.00129061, 0.000968513, 3.55359e-05, -0.000599603, 5.01269e-05, -0.00223463, -0.00134128, 0.000827794, 0.000232999, -0.000418316, -0.00119541, 0.000191889, 0.00282123, 0.000913129, -0.00275143, 0.000807632, -0.00129191, 0.00021368, 0.0020581, 0.00395724, 0.000189897, 0.00525489, 0.00248728, -0.00294405, -0.0012419, 0.00160646, 0.00137312, -0.00165441, 0.000161002, 0.000213716, 0.00224257, 0.00767039, -0.000973757, -0.00178214, 0.00155543, -0.000134646, -0.00240709, 0.00199236, 0.000286377, -0.000234166, 7.31451e-05, -2.06704e-05, 0.00411813, 0.0010189, -0.00190348, -0.00157892, -0.00050072, 0.00109053, 0.00311629, 0.00251475, -0.00161535, -0.00220801, -0.000801916, -0.000242934, 0.00106776, -0.00512951, 0.00100369, -0.00350883, 0.00157312, -0.00114832, 0.00229099, -0.000973602, -2.50345e-16
0.000288115, 0.00124522, 0.00105489, -0.000426203, -0.00303934, -0.000638353, -0.00194125, -0.000130524, 0.000734322, -0.000345276, -0.00292769, 0.00185722, -4.95579e-07, -0.00058322, 0.000348183, -0.000289022, -0.000362236, 0.000132922, -0.000875966, -0.000144192, 9.6275e-05, -0.000332827, 3.61437e-05, -0.000866448, -0.000820122, -0.00226187, -0.000136078, -0.00118238, 0.000178518, 0.000131739, -0.000366227, -0.000454057, 0.000784795, -0.00123234, -0.00104439, -0.00239612, -0.00097182, 0.00136177, 6.5976e-05, -0.000620951, -0.00123044, 0.00021726, 0.00060344, -0.00259317, -0.000696076, 0.00200883, -0.00254358, 0.000370504, 0.000278414, 0.000806666, -0.00161929, 0.00132836, -0.00209419, -0.00102469, 0.00134922, 0.000404272, -0.00176058, -0.000285013, 0.00086766, 0.00107928, -0.000241441, -0.00243142, -0.00208487, -7.60317e-05, -0.00142496, 0.00146797, -0.000688791, -0.00112116, 0.000656631, 0.000417999, 0.00143842, 0.00117368, -0.00170716, -0.000949959, -0.000802733, -0.00226689, -0.0005378, -0.000976085, -0.000459982, 0.00138262, 0.00156975, -0.00133758, 0.000839172, 0.000241437, -0.00070245, -0.00174655, -0.000879474, 0.00280976, 0.000308304, 0.000592784, -0.00107624, -0.000997391, 0.00168411, -0.00100531, -0.00195291, -0.000225384, 0.00115627, 0.000888695, -0.0007299, -0.00258491, -0.00290547, 0.0010946, -0.000847164, 9.81177e-05, 5.73917e-05, 0.000685386, 0.000720422, -0.000243941, -0.000549018, -0.00138329, 0.000453992, -0.000438051, 0.000501582, 0.000628763, 0.000419336, 0.00209669, -0.000541672, 0.00126976, -0.00162352, -0.000395958, -0.00144162, 0.00234545, -0.000675919, 0.000812666, -0.00242619, -0.00126458, -0.00229594, -0.00257982, -1.07583e-17
0.000632293, 0.000595705, -0.00361463, -0.000857226, 0.000658718, -0.00156649, 0.00173691, 0.000535566, -0.00164801, -0.000194119, 0.00156477, 0.000286808, 0.00213835, 0.00092741, -0.000542825, -0.00146194, 0.00360076, -0.000683099, 0.00187256, -0.000499487, -0.000545057, 0.00153728, 0.0012235, -0.00227621, -0.000980065, 0.000863113, 0.000517301, -3.55803e-05, 0.000961187, -0.00334185, 0.00150393, -0.00393945, -0.00360633, 0.00195252, -0.000807508, 0.00180296, -0.00328242, -0.000175767, -0.000753706, 0.00209076, 0.00133788, -0.000484251, 0.000722421, 0.00159125, 0.00120027, -0.00179992, 0.000472788, 0.00175177, 0.000283793, -0.00126048, -0.00289907, -0.00264247, 0.00132259, -0.00286975, 0.000168061, 0.00210856, -0.00128757, 0.000373709, -0.00104972, 0.000682284, 0.00418643, 0.000626543, 0.000218226, -0.00170606, 0.00174839, -0.000773525, -0.00135167, 0.000677814, -0.00110078, -0.000493373, -0.00192997, -0.000279139, 4.93415e-05, 0.00154025, -0.00264255, 0.00248535, 0.00216726, 0.000541684, 0.000223906, 0.000334566, -0.000913434, 0.00128253, -0.000364604, 0.0010195, 0.000489859, -6.20691e-05, 0.000766873, 0.00122872, -0.000216448, -0.00103402, 0.00232219, -0.000536256, 0.000639677, -0.00058226, 0.000681348, 0.00155782, -0.00066888, 0.000575119, 0.00172205, 0.000327046, 0.00148999, -0.000130726, 0.000590717, -0.00105315, 0.000481378, 0.000878093, 0.000240699, -0.000271341, 0.000324435, 0.00105197, 0.00013277, 0.000388569, -0.000276638, -0.00158026, -0.00113825, -0.000910094, 0.00157525, 0.00159708, -0.00169512, -0.000271233, 0.00145231, -0.00216136, 0.000889223, -0.000574251, 0.00047843, 0.00122713, 0.00114284, 0.000709084, 2.0741e-16
0.000709126, -3.14762e-05, -5.94588e-05, -0.0013227, 0.000474889, -0.000680707, -0.000538663, 7.45522e-05, 0.000720844, -0.00335361, 0.000824284, 0.0029254, 0.000359179, 0.00122413, 0.00138464, 0.000195268, 0.0037344, 0.000229937, 0.00357694, 0.00117433, 0.000457641, 0.00244971, 0.00200629, 0.00102587, -0.000457059, 0.000761382, 0.000264781, 0.00283814, 0.00274775, 9.28942e-05, -0.00244663, -0.00133213, -0.00147479, 0.000289546, 0.000605289, -0.00104905, -0.00107534, -0.00236458, 0.00206799, 0.000579347, 0.00236921, -0.00107789, 0.00193315, 0.00108942, 0.00165744, -0.000293204, 0.000691457, -0.00191764, 0.00264925, 0.00116044, 0.000795823, -0.000748348, 0.000587655, -0.00301869, -0.000780605, -0.000227381, -0.00207381, 0.00111387, -0.000930729, 0.00115053, 0.00554834, 0.00116977, 0.000126417, -0.00158028, -0.000712597, -0.00149156, 0.000339256, 0.00312318, -0.000797758, -0.000770354, 0.00225321, 0.00167816, 0.00174799, 0.00171173, 0.000543712, -0.000648295, 0.00329127, -0.000667643, 0.00285827, 0.00222691, -0.000776196, 0.00405501, -0.00147575, 0.000313769, -0.000191545, 0.00207577, -0.000162763, 0.00146195, -0.00134567, -0.000670745, -0.00169594, 0.00128113, 0.0005349, 0.000400212, 0.000156189, 5.15687e-05, 8.26422e-05, 0.00256352, 0.000571471, 0.000239212, 0.000592689, -0.00083632, 0.000724873, -0.000617351, 0.00255103, -0.00108508, -0.000154342, 0.000257921, 0.00026213, 0.000547538, -0.000242414, -0.000194319, 0.000409093, 0.00044455, 0.000187272, 0.000289578, -0.00121954, 0.000647255, 4.68347e-05, 0.00267565, -0.000979123, -0.00187167, 0.00208866, 0.000584798, 0.000240596, 0.00036358, 0.00233289, 0.000352763, -1.96048e-16
0.00205284, 0.000894939, -0.000772312, 0.00203429, -0.00221715, -0.000650324, -0.00185379, -0.00056022, -0.00170679, -0.000976831, -0.00179959, 0.00185828, -0.000837479, -0.00231525, -0.000682101, -0.00106666, 0.00242394, -0.000948026, -0.000382727, 0.000774888, 0.00202467, 0.00112926, -5.22596e-05, -0.00256092, -0.00210647, -0.00220489, 0.000301291, 0.00029317, -0.000660879, -0.00269333, -0.000276419, -0.00178434, -0.00331329, -0.00178994, -0.000163059, -0.00236467, -0.000817399, 0.000530453, -0.00116871, -0.00249358, 0.00176447, -0.00198563, 0.00220178, -0.000890262, -0.0011586, 0.00125454, -0.000605963, 0.00204628, -0.00150886, 0.00152793, -0.00305903, -0.00155462, -0.00191059, -0.00116234, 0.00221777, 0.00112938, -0.00021369, -0.000694873, 0.000646221, -0.00082345, 0.00333915, -0.000961342, -0.00450807, 0.00166727, -0.00178016, 0.00173895, -0.000402486, -0.00153291, -0.000646871, 0.00177263, -0.000240925, 0.00138553, -0.000112758, 3.49718e-05, -0.00297743, -0.00225747, 0.00145823, -0.00146624, -0.000834545, -0.00105927, 0.00330483, -0.000444414, 0.000285106, 0.00057599, -0.000746739, 0.00109208, -0.00233723, 0.00274238, 0.00116449, 0.000207824, -0.00116412, -0.000149649, 0.00276051, -0.000576088, -0.00335594, -0.000651656, 0.000385114, 0.000496022, -0.00168879, -0.00135451, -0.0038897, 0.00159626, -0.000149194, 0.000879826, 0.000233313, 0.0024112, -0.000667534, -0.00123538, -0.000564419, -0.00150799, -0.00121139, 0.000316624, 0.000835501, -0.000136641, 0.000233723, 0.00160118, -0.00172051, 0.00110147, -0.000526219, 0.000444918, -0.00054172, 0.00276502, -0.0029321, 0.00196671, -0.00124081, -0.00135419, -0.000951174, -0.0029549, 7.65055e-17
0.00125622, 0.000515257, 0.000225168, -1.29567e-05, -0.00286142, -5.80438e-06, -0.00302186, -0.00121918, -0.000908067, -0.00118829, -0.00189241, -0.00223169, -0.00107446, -0.00294004, -0.00213694, 0.00144462, 0.00188838, -0.00101773, -0.00104081, 5.22125e-05, -0.0017053, 0.00167653, 0.000439988, -0.000217665, -0.00150784, -0.00219822, 0.00105552, 0.00125316, -0.000308985, -0.00145148, -0.00169065, -0.000219839, 3.84203e-05, -0.0028887, -0.000315523, -0.00205153, -0.00143772, 0.00232868, -0.000542798, -0.00128457, 0.000556852, -0.000649698, 0.00139965, -0.00148082, 7.67058e-05, 0.000346011, -0.00327858, -0.000186873, -0.000735428, -0.00071712, -0.000132056, 0.000394055, -0.00232943, 0.00103206, 0.000474217, -0.0020041, -0.00101047, -0.00219633, 0.000514818, -0.00279842, 0.0034195, -0.000726199, -0.00165396, 0.000794445, -0.000525399, 0.00182796, 0.00111614, -0.00263178, -0.000162872, 0.000945814, -0.000776702, 0.000705925, -0.000135269, 0.00109339, 0.000920969, -0.00157327, 0.00189198, -0.00216656, -0.0030351, -0.0012846, 0.00150762, -0.00106838, 0.000779982, -0.00187375, -0.0003626, -0.00023902, -0.00276854, 0.00153219, -0.000315728, -0.00112469, -0.00192703, -0.00024869, 0.000708786, -0.000570302, -0.00413157, -0.00282478, 0.000563083, 0.000842609, -0.00228095, -0.00118839, -0.00237815, 8.76395e-05, -0.000769676, -0.00145438, -0.000171253, -0.00044456, -0.00249287, 0.000245878, -0.000272204, -0.001955, -0.00118711, 0.0014238, -0.000996557, -0.00146062, -0.000651916, -0.000672474, -0.00127249, -0.00204932, -0.000555533, 0.000102272, -0.00131614, -0.00063362, -0.00140267, 0.0001116, -0.000653407, -0.002061, 6.13648e-05, -0.00402205, -5.63683e-18
-0.000661936, -0.000304064, 0.000739605, 0.000652176, -0.00343361, 0.000630376, -0.00218228, -0.00286217, -0.00205398, 0.00011892, -0.00232843, -0.00321331, -0.0030111, -0.00302335, -0.00310148, 0.000987477, 0.00014137, -0.000468714, -0.00114663, -0.00131796, -0.00163049, 0.00192184, -0.0017768, 0.00127172, -0.00102946, -0.00161489, 0.0026164, 0.000826276, 0.00134564, -0.000286018, -0.000698091, 0.00200773, 0.00129408, -0.00393657, 0.000215408, -0.00311382, 0.000999035, 0.00255896, 0.000520221, -0.0018909, 0.000407381, 0.00140473, 0.000376852, -0.00123971, -0.000740384, -0.000284944, -0.000875084, -0.000278058, -0.00287734, -0.000277235, -0.000160337, 0.00165371, -0.0022672, 0.000524583, 0.000587372, -0.00178785, -0.000413928, -0.00222779, 0.000945156, -0.00263483, 0.00222446, -0.00075548, -0.00403789, -0.000466305, -0.000886217, 0.000951225, -0.000279162, -0.00354387, -0.000902651, 0.000284048, 0.00101581, 0.000303777, -0.000410787, -6.37141e-05, 0.00173064, -0.00232875, 0.00160455, -0.00278116, -0.0033589, -0.00212996, 0.00173867, -0.00255079, 0.00219309, -0.00336769, -7.02729e-05, -0.00170172, -0.00298771, -0.00163961, 0.00113291, -0.000360572, -0.00104614, -0.000937098, 8.04035e-05, 0.000985029, -0.00478021, -0.00387013, 0.000512321, -0.00168943, -0.00376843, -0.00121083, -0.00423374, -0.00242707, 0.000244615, -0.000308105, -0.000147777, -0.000988245, -0.00386091, 7.14347e-05, -0.0025176, -0.00259596, -0.00248104, -7.42549e-05, -0.00206836, 0.000320388, -0.000553663, 0.00210367, 0.000274193, -0.00239514, 0.00193248, 0.00110589, -0.000956726, -0.000566213, -0.00269992, -0.000151258, -0.00194448, -0.000685609, -0.00244734, -0.00389975, -2.47589e-16
0.00113678, 0.000632985, -0.00140217, 0.000909349, -0.00278356, 0.000974576, -0.002629, -0.00159153, -0.00196836, -0.00147659, -0.00295824, -0.000830413, -0.000642515, -0.00210876, -0.00204931, 0.000405382, 0.000477524, 0.0001903, -0.000823275, 3.05207e-05, -0.000455399, -0.000329435, 0.000231386, -0.000531994, -0.00149853, -0.00176799, 0.000174676, 0.0016485, -0.001427, 0.00139279, -0.00119158, 9.8054e-05, -0.001259, -0.0043094, -0.00116755, -0.00205243, 0.000950108, 0.00122621, -0.00116917, -0.00139672, 0.000103162, -0.000866284, 0.00210003, -0.00142896, -0.00108449, 0.0014861, -0.0010293, 0.00027695, -0.000868118, -0.000972058, -0.000916644, 0.000275752, -0.00189925, -0.000127646, 0.00107489, 0.000497965, -0.000103142, -0.000619035, 0.000921485, -0.00155486, 0.00224398, 0.000640356, -0.00366606, -0.000862058, -0.000633915, 0.00247922, -5.98488e-05, -0.00154804, 0.000229955, 0.000884022, -0.000526076, 0.00150055, -0.000301601, 0.00154094, 0.000157318, -0.00124037, 0.000463762, -0.00185142, -0.00248046, -0.00116998, 0.00232367, -0.00153722, -0.000971883, -0.00275635, -0.00168772, 0.000694859, -0.00253281, -0.000159996, 0.000527389, -0.000372771, -0.000237779, -0.00114437, -0.000371714, 0.000947895, -0.00503797, -0.0031301, -0.000462845, -0.00154864, -0.00220122, -0.00180159, -0.00139346, 0.00117371, -1.6307e-05, 5.88516e-05, -0.000336446, 0.000984474, -0.00158735, 0.000100403, -0.000379855, -0.00129626, -0.000672727, 0.00231752, 0.000963251, -0.000471561, 0.00051822, 6.04271e-05, 0.000465745, -0.00108684, 0.00131013, -0.000426642, -0.000458672, -0.000253403, -0.0013775, 0.00155812, 0.000134865, -0.00225156, -0.00086794, -0.00312957, -1.85476e-16
-0.00282604, -0.00172715, 0.00081361, -0.000863014, 0.00022314, 0.00151708, 0.000859286, -0.00176992, -0.000717928, -0.00105824, 0.0011127, 0.00100143, -0.00294326, 0.000284228, -0.00165591, 2.49847e-05, 0.000794952, -0.00159521, 0.000856674, -0.0034088, -0.00148392, 0.00177614, -0.00196652, 0.00315117, -0.00117498, 0.000387275, -0.000613279, -0.000235204, -2.12365e-05, 0.000487616, -0.000557571, -0.000471755, 0.000636929, -0.000255191, 0.000694784, 0.000429719, 0.000602271, -0.0013437, -0.001005, -5.19273e-05, 6.39458e-05, -9.42391e-05, 0.000987382, 0.00108739, 5.35694e-05, -0.00249143, 0.00074642, -0.00338197, -0.000676163, 0.000508696, 0.0026913, -0.00125082, 0.000609973, 0.000705381, 0.00034532, -0.000886508, -0.000850108, -0.00143407, -0.00126433, -0.00544657, 0.00253617, -0.000403832, -0.000401412, -0.00116932, -0.00232406, -0.00274058, 0.00056979, -0.000837442, -0.00342252, -0.00475963, -0.000871319, -0.00144116, -0.00132464, -1.39174e-05, -0.000318077, -0.00242119, -0.000110669, -0.000157374, -0.00422077, -0.000523486, -0.000651067, 0.000240618, 0.000666649, -0.00232009, 0.000895649, -0.00128136, -0.000263146, 0.000708812, -0.000622424, -0.00456167, -0.00151483, -0.00284416, 0.00151358, -0.000569153, -0.000926654, -0.00148727, -0.00221196, -0.000894044, -0.0015834, -0.000533699, -3.90326e-05, -0.00262475, 0.000237252, 0.000252373, -0.000483188, -0.00353622, -0.000600191, 0.00158906, -9.76244e-05, 0.000156236, -0.00153245, -0.000651122, -0.0028439, 0.000989393, -0.000453383, -0.000532462, 0.000910613, -0.00100314, -0.000358079, -0.000149362, -0.000604019, -0.0013077, 0.000309372, -0.000607822, 0.000598292, 0.000468712, 0.000987662, -0.000947596, 2.60737e-16
0.000864049, 0.00181153, -0.000341417, 0.00133738, -0.00389392, -0.000154119, -0.0028657, -0.000127438, -0.000767353, -0.00116703, -0.0032127, 0.00016625, 0.00118738, -0.00227523, -0.00109531, -0.000290208, 0.0014396, -0.000674368, -0.000279689, 0.00114017, 0.000335656, -0.000882172, 0.00078389, -0.0012101, -0.00150397, -0.00397729, 0.000183303, 0.000691751, -0.0023501, -0.00164718, -0.00168804, -0.00260518, -0.00218166, -0.00276802, -0.00168416, -0.00287682, -0.00115434, 0.000686669, -0.000658529, -0.00324893, -0.000669697, -0.000808226, 0.000769952, -0.00311463, -0.0031162, 0.00161512, -0.00286399, 0.00173825, -0.000793575, -0.000449924, -0.000598422, -0.000800348, -0.00374484, -0.000619251, 0.000612409, 0.00109524, -0.00128243, -0.00136863, 0.000469978, -0.000977413, 0.00183561, -0.00253058, -0.00459524, -6.66836e-06, -0.00132806, 0.00206702, 0.00040861, -0.00144121, 0.000915101, 0.00199432, -0.000160682, 0.00122519, -0.000499457, -0.00112308, -0.000675269, -0.00168578, 0.00200455, -0.00222213, -0.0012903, 0.000713044, 0.00175346, -0.00130605, 0.000904561, -0.000652167, -0.00288466, -0.000960702, -0.00284258, 0.000360573, 0.00038956, -0.000199279, -0.0012921, -0.00143902, -0.000116933, -0.00130587, -0.00394482, -0.001525, -0.000634929, 0.000778044, -0.00220031, -0.00292164, -0.00477187, 0.0018753, -0.000682842, 0.000453126, -0.000119843, 0.00121168, -0.000678804, -0.00134521, -0.000502272, -0.00278, -0.000957161, 0.000872239, 0.00095239, -8.77862e-05, -0.00100079, 0.00139748, -0.000599794, 0.000106802, -0.000222207, 0.0009626, -0.00181107, 0.00190603, -0.00343439, 0.000633595, -0.00239268, -0.00319273, -0.00186821, -0.00345918, 1.24136e-16
0.00101909, -6.45191e-05, -0.000326664, -0.000180925, -0.00142998, -0.00119007, -0.00162281, 0.000846871, -0.000546038, 0.00051146, -0.000581102, -0.000974151, -0.000616635, -0.00242788, -0.000707432, 0.00130329, 0.000963062, -0.00115157, -0.000667114, 0.00114247, 0.000258065, -0.000900659, 0.000808883, -0.00171174, -0.00206149, -0.00197358, 0.00029453, 0.000628782, -0.000688557, -0.000735415, -0.0011323, -0.00105683, -0.00166888, -0.00106633, 0.00133213, -0.000526752, -0.000889416, -7.37914e-05, -0.00191765, -0.00214613, 0.00104592, -0.00183855, 0.00133754, -0.000216498, -0.00131642, 0.00197811, -0.00165029, 0.000408549, -0.00198074, -0.00157741, -0.00142816, -0.00157306, -0.000714525, 0.000648605, 0.000107391, -0.00049454, 0.000105241, 0.000153888, 0.000119248, 0.00180275, 0.000406447, -0.00149143, -0.00222688, 0.000593837, 0.000347691, 0.00197659, -0.00020445, -0.000519885, 0.000879219, 0.000992471, -0.00214774, -0.000907357, 3.18155e-05, 0.000180676, -0.00220238, -0.000335958, 0.000944174, -0.000464199, -0.0016409, -0.00138024, -0.000508038, -0.000389361, -0.00132255, 0.000167185, -0.00189445, -0.000896057, -0.000420173, -0.000981632, 0.000142771, -0.00233963, -0.00083417, -4.90598e-05, -0.000220853, -0.000501391, -0.000972723, -0.000275785, -0.000236525, -0.000808494, -0.000401031, 8.44661e-06, -0.00174886, -0.000948378, -0.000415081, -5.27969e-05, -0.000129539, 0.000783641, 5.97386e-06, -6.19652e-06, -0.000869808, -0.00135655, -0.000205043, 0.00179228, 8.16097e-05, 0.000578897, 0.000175301, 0.000903191, -0.00109426, 0.000976155, -0.000758115, -0.000927623, -0.000198482, -0.000455206, -0.00185447, 0.000673819, -0.000888894, -0.00107787, -0.000452201, -0.00296211, -1.65576e-18
-0.00107056, -0.000905515, -0.000891352, 6.91162e-05, 0.00131674, -0.00164296, 0.00245846, 0.000686427, -0.00175754, 0.00131982, 0.00229855, -8.84673e-05, 0.00104458, 0.00102873, 0.000640531, 0.000922147, 0.00117184, -0.000300346, 0.000405006, -0.000714942, -0.00141064, 0.00100448, -0.00149165, -0.00314964, 0.000266317, 0.000106531, -0.00214548, -0.000887343, -0.000422176, -0.000535954, 0.00216781, -0.00169229, -0.00102598, 0.00235989, -0.000406393, 0.00118888, -0.00107802, -0.00154517, -0.00140816, 0.00185506, 0.000509791, -0.00186192, 0.00132278, 0.00160503, -0.000492841, -0.000952659, 0.001706, -0.000980441, 0.000391499, -0.000143096, -0.00113717, -0.000996012, 0.000565637, -0.00241876, -0.000129404, 0.00141022, 0.000715771, 0.00102094, -0.00081753, 8.57758e-05, 0.00399857, 0.00133829, 0.00194087, -0.0016034, 0.00013592, -0.000219125, -0.00154254, 0.00169369, -0.00124307, -0.000168725, -5.0225e-05, -0.000253489, -0.000355299, -0.000880417, -0.000780786, 0.00193384, 0.00133292, 0.0018201, -0.000183312, -0.000852058, -0.00210809, 0.00130551, -0.000130705, 0.00120979, 0.000222249, -0.00105875, 0.00114467, -0.00176794, -0.00205031, -0.00140864, 0.000551964, -0.00249029, -0.00136331, -3.24684e-05, 0.00020919, 0.0011597, -0.00111895, -0.00148204, 0.00200341, 0.00118308, 0.000372126, 0.000879175, 0.000412867, -0.00107623, 0.000256702, -0.000191249, -0.000560387, -0.0012041, 0.000767795, 0.000880985, 0.00011658, -0.00018833, -0.00308341, -0.000101633, -0.000362761, -0.000997693, 0.00122111, 0.00125268, -0.00141034, -0.000543768, 0.000455198, -0.00204729, 0.000842595, -0.000292963, 0.000164284, 0.00045136, 0.000518314, 0.00125521, 1.19616e-16
-0.00021053, -0.00613867, -0.00165062, -0.00857611, -0.00303811, -0.00375155, -0.00176852, -0.000421821, -0.00842763, -0.0105098, -0.00314641, -0.00145168, -0.00225511, 0.00280608, -0.000599503, -0.000866225, 0.00245994, -0.00162352, -0.000652328, -0.000151042, -1.99146e-05, 0.00318384, 0.00188093, -0.00454574, -0.00256195, 0.00182788, 9.53212e-05, 0.00246765, -0.000415037, 0.00141672, -0.0056565, 5.01289e-05, 0.000944485, -0.00356884, 0.000355071, -0.00213707, 0.000873111, -0.00509047, -0.000701205, 0.00347179, 0.00399144, 0.000206296, 0.00515751, 0.00309011, 0.00585787, -0.00417263, 0.00219636, 0.00130648, -0.0113203, -0.00525143, 0.0019141, 0.00114476, 0.00287885, 0.00147168, -0.00125395, -0.00524867, -0.0052112, 0.00111116, 0.00238587, 0.00137545, 0.003869, -0.00169425, -0.00190337, -0.00596364, 0.00415618, -0.00308043, 0.00396095, 0.00169102, -0.00101856, 0.000375542, -0.00207741, -0.000310318, 0.0052835, 0.00833719, -0.000559911, 0.000906226, 0.00438873, -0.00452773, 0.00262126, -0.00159011, -0.00394561, 0.00541997, -0.00300822, -0.00247729, -0.00649574, 0.00168665, -0.00456617, 0.00430027, -0.00564422, 0.000372202, -0.000314897, -0.00384202, -0.00318686, 0.000467342, -0.00272183, -0.000484316, -0.0026525, -4.48785e-05, 0.000400257, -0.00392329, 0.000756298, -0.000754098, 0.00422242, -0.00709862, -0.00115806, 0.000487074, -0.00330261, -0.0012605, 0.00277343, 0.000614551, 0.000663653, 0.00093583, -0.00138136, -0.00662029, -0.00337438, -0.00396217, -0.00167265, -0.00282583, 0.00172662, -0.00389, -0.00182428, -0.0073035, 0.000628325, -0.00332541, -0.00197156, 0.00218749, 0.00147621, -0.00125777, 1.89632e-17
4.0748e-05, 0.000687398, 0.000765857, 0.000660713, -0.0021178, 0.00241637, -0.00112098, -0.0021354, -0.00141501, 0.00183007, -0.00252761, 0.000177469, -0.00154929, -0.00182762, -0.000986084, 0.000336905, 0.000682339, -8.23543e-05, -0.00210057, -0.00157246, 0.000140205, -0.000140086, 0.000198578, -0.000626618, -0.000894385, -0.00137009, 0.000688819, 0.00066037, 0.0010546, 0.000672596, 8.15438e-05, 0.00303809, 0.000389266, -0.0017219, 0.000237784, -0.00308163, 0.00215116, 0.00141484, 0.000577425, -0.00253368, 0.000787273, 0.000553611, 0.000426515, -0.00223904, -0.00118816, -0.000385375, -0.00047326, 0.000290451, -0.00227985, 0.00101623, 0.000695281, 0.00030324, -0.000750923, 0.00154839, -0.000835695, 0.00109694, -0.000873259, -0.000682263, 0.000238277, -0.00261608, 0.00145688, -0.000857216, -0.0028624, 0.00102296, -0.00175591, 0.000355669, 0.000328802, -0.00173873, -0.000791022, 0.000884124, 0.00101212, 0.00103406, 0.00124522, 0.00101344, 0.000762131, -0.00150097, -0.000981148, -0.00126796, -0.00136617, -0.000516776, 0.00113617, -0.00247191, 0.000881407, -0.0019241, -0.00158314, -0.000424513, -0.00310985, -0.00181409, 0.000688308, 0.00107689, -0.000268349, -0.00183699, -0.00157125, 0.000465793, -0.00281083, -0.00123943, 0.0010824, -0.00219123, -0.0023495, -0.00180577, -0.00340519, -0.000271595, -0.000475021, -0.000406419, -0.000350625, -0.000407572, -0.00173437, 0.000150878, -0.00122434, -0.00133628, -0.0011005, -0.00029399, -0.00246431, -0.000728785, -0.00175366, 0.00124466, -0.00200351, -0.000558416, 0.000298862, 0.000652051, -0.00143679, -0.000459152, -0.00282226, 0.000512492, -0.00171179, -0.00138795, -0.00250323, -0.00217073, 1.31588e-16
