0.00316971, 0.00298359, -0.00815721, 9.19927e-05, 0.000608292, 0.00443062, 0.0008996, -0.0058818, -0.00279075, -0.00429525, 0.0104456, 7.95506e-06, -0.0104041, -0.0103628, 0.00658648, 0.00139997, 0.00160581, -0.00309514, -0.0116196, -0.00703607, -0.00447365, -0.00730556, -0.00875129, -0.0118473, -0.0052329, -0.00239263, -0.00669663, 3.27824e-05, 0.00861382, 7.78056e-05, 2.65356e-06, 5.70625e-05, 2.74356e-17
0.00398003, 0.00609334, 0.000587439, 0.000730464, 0.00193517, -0.000516555, 0.00165538, -0.0069319, -0.00332943, 0.00193181, -0.00147354, -0.00193756, -0.000761206, -0.00377485, 0.00633974, 0.00528361, 0.00337131, -0.00397947, -0.00557632, -0.00458183, -0.00837132, -0.00148064, 0.00239226, -0.00398355, -0.00606334, -0.00253478, -0.000530438, -6.20084e-05, 0.011519, 1.54769e-05, -3.01802e-05, -1.42687e-05, 2.76096e-17
0.0218309, -0.0293794, 0.00447977, 0.00772772, 0.00664113, 0.0041167, 0.00705637, 0.0189961, 0.00203693, -0.00309305, -0.0041144, -0.00167808, 0.0048462, 0.00423988, -0.0303885, 0.0197032, -0.0274393, -0.0218651, 0.0199905, 0.0189378, 0.0182501, 0.00413352, 0.0045149, 0.0180796, 0.0149229, 0.00928618, 0.00330551, -4.54124e-05, -0.0130404, -7.13911e-05, -6.68985e-05, 3.98334e-05, 8.40471e-18
0.00103419, 0.00256745, 0.000825154, 0.000682264, 0.000521043, 0.000197021, 0.000382759, -0.00242904, -0.00073934, 0.00144202, 0.000262371, -0.00118743, -0.00165055, -0.00192926, 0.00273867, 0.00263615, 0.00171474, -0.00104157, -0.00196299, -0.000899542, -0.0034993, -0.000824201, 0.00249981, -0.00123232, -0.0016877, -0.000677763, 0.000655394, -1.32752e-05, 0.00438303, -2.10868e-05, 3.88476e-05, -3.2562e-05, 7.39468e-16
-0.012454, -0.0073848, -0.00190289, -7.15714e-05, -0.00191083, -0.00543736, -0.00312005, -0.00120267, 0.00797322, -0.00137811, 0.000158194, -0.000821225, 0.00115939, 0.00511516, 0.0041525, -0.0248164, 0.00140088, 0.0125341, -0.00180202, 0.000740836, -0.00421358, 0.00275406, -0.00511654, -0.00651767, 0.00236075, 0.00117227, 0.00257158, 3.55533e-05, -0.0279847, 2.12401e-05, -2.67892e-05, 1.80476e-05, -1.93874e-16
0.00662657, 0.0106955, 0.00461214, 0.00102714, -0.000701867, -0.000645062, -0.000268702, -0.00526497, -0.00338345, 2.09198e-05, 0.00258041, -0.00602043, -0.00570457, -0.00594101, 0.0121401, 0.00826017, 0.00630604, -0.00664148, -0.00461574, -0.00170877, -0.00786305, -0.000800502, 0.00968287, -0.000623868, -0.00508954, 0.00148927, 0.00369199, 3.86045e-05, 0.0136197, -0.000118307, -1.57063e-05, -5.37065e-05, 7.29399e-18
0.00299013, 0.00887977, 0.0031832, 0.00219581, 0.000544508, 0.000848627, 0.000599131, -0.0070207, -0.000703514, 0.000560913, 0.00454766, -0.00652657, -0.0071254, -0.00567036, 0.0100687, 0.00671888, 0.00601957, -0.00300994, -0.00775339, -0.00435325, -0.00888513, -0.00103452, 0.0074495, -0.00312992, -0.00538875, -0.00139472, 0.00255794, 5.66944e-05, 0.0109309, 4.86825e-05, 4.13137e-05, 1.49523e-05, 7.95292e-17
0.00280927, 0.00677721, -0.00216995, 0.00122151, 0.00117447, 0.00302133, 0.00106714, -0.0115741, -0.00360198, 0.00106177, 0.00495303, -0.00111905, -0.00622837, -0.00700399, 0.00868809, 0.00200505, 0.0046423, -0.00275445, -0.0129976, -0.0113217, -0.0108819, -0.00271742, -0.00203677, -0.011051, -0.0102882, -0.00567852, -0.00194734, 8.60413e-05, 0.0143483, -3.93681e-05, 2.48509e-05, 2.48456e-05, 1.65993e-16
-0.0126215, -0.0165079, -0.00344504, -0.00149253, 0.00109013, -0.000337699, 0.00127394, 0.00749777, -0.00084682, 0.0016226, -0.00745377, 0.00419858, 0.00770332, 0.00394995, -0.0238455, -0.00985495, -0.00619934, 0.0126384, 0.00898693, 0.00517385, 0.00920409, -0.00869074, 0.00241709, -0.000691831, 0.00583161, 0.00602893, -0.00230924, -6.16946e-05, -0.0204782, 1.67531e-05, 6.11901e-06, -9.33735e-05, -4.21201e-17
0.00330217, -0.0170286, -0.00142577, -0.000678851, 0.0005669, 0.000147751, 0.000658322, 0.00186491, 0.000451889, -0.00258601, 0.0009181, 0.00307102, -0.000154848, -2.38246e-05, -0.0213412, 0.0107169, -0.0142187, -0.00317238, 0.00163957, 0.00187274, 0.00207761, 1.75867e-05, -0.0027112, 0.00184725, 0.00238697, -0.00109372, -0.000857646, 1.61787e-06, -0.00877104, 3.37118e-05, -2.85952e-05, -5.57797e-05, -9.52178e-17
-0.00225954, 0.0101023, 0.000883648, -0.00101654, -0.00171058, -0.00361388, -0.00282943, 0.000583699, 0.00881215, 0.0014226, 0.00139125, -0.00400554, 0.000948596, 0.00562145, 0.0128101, -0.00948228, 0.008246, 0.00219317, 0.000880375, 0.00220883, -0.00200609, 0.00287709, -5.45186e-05, -0.000148803, 0.00342432, 0.00215001, 0.00233021, 5.50708e-05, -0.000304438, -1.97171e-05, 9.57938e-05, 7.10363e-06, -6.54414e-18
0.0153175, -0.0254355, 0.00228252, -0.000884468, 0.00100815, 0.000718009, 0.00100418, 0.00427566, -0.00380642, -0.00088131, 0.00132818, 0.00558874, 5.79704e-05, -0.00303491, -0.0277149, 0.0182507, -0.0231126, -0.0153145, 0.00479158, 0.00487558, 0.00355775, 0.00229217, 0.00217073, 0.00601528, 0.00252526, 0.00202269, 0.00130089, 1.77891e-05, -0.0105644, -2.5823e-05, 3.04238e-05, -0.000112981, 2.90056e-17
0.00694037, 0.00341934, -0.00604681, -0.00666265, -0.00319459, -0.00467409, -0.00398787, -0.00217224, -0.00624187, 0.00265326, -0.000668214, 0.00334442, 0.00640081, 4.87785e-05, 0.00635496, -0.000434428, 0.000320868, -0.00689131, 0.00347625, -0.00327255, -0.00138329, -0.00231519, -0.00975709, -0.00612014, -0.00526733, -0.000551959, -0.00484102, 1.97031e-05, 0.0115224, 2.96467e-05, -1.25678e-05, -4.19026e-05, -4.01117e-17
-0.0117375, -0.00913437, -0.00133883, 0.00367383, 0.00161552, -0.00186485, 0.000866372, 0.00501094, 0.00720388, 0.00255419, -0.0089722, -0.00368836, 0.00913662, 0.011425, -0.0137315, -0.0113418, -0.00192169, 0.0115928, 0.00717304, 0.0045597, 0.00544304, -0.00324494, 0.00217635, 0.000698996, 0.00689034, 0.00381404, -0.00138608, -1.89721e-05, -0.00720118, 8.7298e-06, -1.7907e-05, -4.70357e-05, 7.13425e-17
0.00633617, 0.00704973, -0.00313139, 0.00301034, 0.00251906, 0.00302823, 0.00311096, -0.00871306, -0.00350763, -0.0058482, 0.00175152, -0.00535936, -0.00348837, -0.00536998, 0.00970748, 0.00353832, 0.00388521, -0.00630891, -0.00919758, -0.00815971, -0.00851763, -0.00368522, -0.00271211, -0.00963794, -0.00818346, -0.0039455, -0.00251356, -2.2233e-05, 0.0179848, -1.59182e-05, 7.22159e-06, -2.16154e-05, 3.50253e-17
-0.00343873, -0.0115588, -0.00206679, 0.0017401, 0.00327222, 0.000553297, 0.00326077, 0.00168847, -0.000831361, 0.000820882, -0.00948461, 0.00338397, 0.00933588, 0.00572375, -0.019475, -0.000212324, -0.00661657, 0.00347115, 0.00541835, 0.000534095, 0.00280598, -0.0049702, 0.00117443, -0.00349693, 0.00206954, 0.0017415, -0.000992062, 5.25845e-06, -0.00559208, -6.51873e-06, 2.0262e-06, -3.26818e-05, -1.87268e-17
0.00246942, 0.00399841, -0.00862269, -0.000480362, 0.000300191, 0.00423752, 0.00034385, -0.00916062, -0.00238486, -0.0016855, 0.00996402, 0.000585798, -0.0105665, -0.010028, 0.00702372, 0.000333808, 0.00249905, -0.00242423, -0.0142436, -0.0101712, -0.0078609, -0.00794413, -0.00921215, -0.0145788, -0.0078325, -0.00452035, -0.00716075, 4.69293e-05, 0.0086122, -3.69509e-05, -2.5387e-05, -1.00766e-05, -1.14293e-16
-0.00484147, -0.0055892, -0.000332959, -0.00507984, -0.0033415, -6.13971e-05, -0.00314956, -0.000663039, -0.00298471, -0.00297365, -0.00126663, 0.00766294, -0.000318944, -0.00175158, -0.00731807, -0.00571085, -0.00158112, 0.00484691, -0.00323844, -0.000791701, -0.00107262, -0.000628638, -0.000198428, -0.00216112, 0.00027154, -0.00188621, -0.000733714, 1.68921e-05, -0.0134272, 1.00957e-05, 3.91981e-05, 5.52235e-06, 2.81822e-16
-5.79271e-06, -5.99438e-05, -4.75707e-05, -8.52296e-05, -2.42819e-05, -5.30357e-05, 2.65782e-05, -0.000130391, -0.000174397, 1.97302e-05, 8.6921e-06, 0.000133712, -2.39369e-05, -0.000104541, 0.000101198, -4.01296e-06, -5.19848e-05, -2.37588e-05, -7.35563e-06, -8.32344e-05, -0.000115134, 4.47264e-05, -4.01647e-07, -0.000144488, -0.000194568, -8.65553e-05, 2.64489e-05, -2.62087e-06, 0.000108145, 7.58635e-05, -0.000103605, -5.47592e-05, 7.2464e-17
0.00464465, 0.00972903, 0.00563766, 0.00154896, -0.000349819, -0.00110293, -0.00102181, -0.00726989, 0.000838124, 0.00859098, 0.00258482, -0.00634189, -0.00542827, -0.00244813, 0.0104721, 0.00788326, 0.00612818, -0.00458071, -0.00584798, -0.00342416, -0.0100894, 0.000728617, 0.0101865, -0.00185336, -0.00506684, -0.00124176, 0.00455899, -4.09683e-05, 0.0125932, 4.59019e-05, 3.16163e-05, 1.08116e-05, -1.47254e-17
0.0158317, -0.0224063, 0.00285714, -0.000198294, 0.000553077, 0.000814316, 0.000613745, 0.00203137, -0.0030018, -0.00036474, 0.002862, 0.0039188, -0.0016438, -0.00350182, -0.024769, 0.0185664, -0.0212422, -0.0158179, 0.00209819, 0.00289205, 0.00119533, 0.00273252, 0.00276851, 0.00461653, 0.0009603, 0.0011735, 0.00158988, -8.68151e-06, -0.00719286, -3.7805e-05, -1.41433e-05, 8.97329e-05, 1.30549e-18
0.00776782, -0.013416, -0.000688638, 0.00494339, 0.00544692, 0.00140463, 0.0058126, 0.0117839, -0.00133387, -0.00255876, -0.00844653, 0.00104081, 0.00950304, 0.00555303, -0.0145028, 0.00644666, -0.0116734, -0.00770253, 0.0154213, 0.0108867, 0.0119267, -0.00105964, -0.000364041, 0.00878498, 0.00778076, 0.00542309, -0.000980878, 7.86993e-06, -0.00838461, -1.73496e-06, -5.79451e-05, -4.51602e-05, 5.035e-17
0.00336329, 0.0117833, 0.00592437, 0.000743265, 0.000446485, -0.00128062, 0.000139317, -0.0091357, -0.00282344, 0.00499556, -0.00216698, -0.00327418, -0.000140827, -0.00183108, 0.0116467, 0.00617429, 0.00774864, -0.00337957, -0.00592846, -0.00543325, -0.0115875, 0.00151934, 0.00975208, -0.00207448, -0.00745715, -0.00231897, 0.00445981, 1.61132e-05, 0.0161487, -5.14878e-06, 3.15559e-05, 6.00801e-05, -3.62517e-16
0.0117083, -0.016087, -0.00115621, 0.00731626, 0.00393755, 0.00662221, 0.00461041, 0.0156623, 0.00685441, -0.0043572, 0.00618054, -0.00660246, -0.0071292, -0.000972328, -0.0163521, 0.00845394, -0.0149341, -0.0116929, 0.0108617, 0.0167098, 0.0141523, -0.00144237, -0.000830791, 0.0105756, 0.0146493, 0.00722663, -0.00103856, 7.05647e-05, -0.00662093, 9.71203e-06, -5.55156e-05, -1.86678e-06, -7.10689e-16
0.0127469, 0.0108336, 0.00251974, 0.00159506, -0.000605279, -0.000202551, 0.000513222, -0.00569762, -0.00409816, -0.00402648, 0.00365632, -0.00765811, -0.00600294, -0.00720233, 0.0133628, 0.0108261, 0.00471163, -0.0127213, -0.00553355, -0.0018512, -0.00872774, -0.00175192, 0.00617571, -0.00416794, -0.00556177, 0.00146475, 0.00107781, -1.08241e-05, 0.0151888, 1.57702e-05, 2.56387e-05, 1.69208e-05, -1.46936e-16
-0.0033809, 0.00833612, 0.000684388, 0.00246617, 0.00131779, 5.20561e-05, 0.000633142, -0.00236448, 0.00650568, 0.00106917, 0.00153907, -0.00320592, 0.000202513, 0.00375679, 0.0110964, -0.0128579, 0.00758673, 0.00337343, -0.00231676, -0.000975302, -0.00454587, 0.00328443, -0.000875808, -0.00275291, 0.000372712, 0.00174566, 0.00228757, -2.6566e-05, -0.000928221, 4.06782e-06, -2.90132e-05, 5.9487e-05, -1.53763e-16
-0.0148585, -0.00332758, -0.000842709, 0.000741604, 0.00119702, -0.00242162, -0.000113854, 0.00374798, -0.000178274, -0.000256281, 0.00100921, 0.00202846, 0.00265799, 0.00144161, 0.00340551, -0.0258875, 0.00451782, 0.0148759, 0.00694338, 0.00572746, 0.000883743, 0.00273823, -0.00183722, -0.00104339, 0.00208663, 0.00480761, 0.00168761, 6.54059e-05, -0.018931, -5.73575e-06, 4.54036e-05, -3.75304e-05, -6.26716e-18
0.00104857, 0.00490866, 0.00123196, 0.000927047, 0.000920954, 0.000158678, 0.000666131, -0.00378249, -0.00138174, 0.00237008, -0.000455538, -0.00209156, -0.00241584, -0.00326902, 0.0043886, 0.00468279, 0.00308365, -0.00105348, -0.00344205, -0.0021006, -0.00478559, -0.00190519, 0.00418138, -0.0015898, -0.00293856, -0.000820385, 0.000680248, 3.15641e-05, 0.00856295, 9.92224e-06, 2.54309e-05, -3.85194e-05, 1.69011e-16
0.000351535, -0.0116732, 0.000569144, -0.000188016, -0.000242372, -0.000561984, -0.000132804, -0.000411277, 0.00169197, -0.00225737, 0.00108003, -0.000549952, -0.000527566, 0.000731281, -0.0139076, 0.00655742, -0.00968581, -0.000335748, -0.00122913, -0.00166321, 0.000862638, 0.00190105, -0.00123366, 0.00130971, -7.88331e-05, -0.00140291, 0.000453853, -3.75878e-05, -0.00644956, -1.34255e-05, -1.47848e-05, -4.53187e-05, -1.1346e-16
-0.00554376, -0.0111652, -0.00290337, -0.001013, 0.00128534, -0.000537227, 0.00145196, 0.00575376, -0.00152361, 0.000217748, -0.00598224, 0.00261134, 0.00609087, 0.00262174, -0.0148101, -0.00383555, -0.00530464, 0.00558495, 0.00716093, 0.00373229, 0.00731846, -0.0051698, -0.000420188, 0.000328269, 0.00368865, 0.00466695, -0.00245108, -1.52915e-06, -0.0133405, -1.61915e-05, -3.05861e-06, 3.99253e-05, 3.17738e-16
-0.00441473, 0.00131921, -0.000143417, 0.00181268, 0.000656721, -0.000458036, 7.75603e-05, 8.01286e-05, 0.00422065, -0.0012399, 0.00155864, -0.0019421, 0.000330433, 0.00295039, 0.00533633, -0.0134885, 0.00297077, 0.00452807, 0.000311424, 0.00111001, -0.00152266, 0.00324754, -0.00240734, -0.00171324, 0.00140174, 0.00170358, 0.000899097, -4.36334e-06, -0.00347368, 4.96926e-05, -4.02149e-05, 3.63752e-07, 8.97309e-18
0.00757923, 0.00443801, -0.00237614, 0.00251749, 0.0037241, 0.00155942, 0.00382301, -0.00582021, -0.00522875, -0.00400569, 5.1882e-05, -0.00198811, -0.000824536, -0.00526558, 0.00672895, 0.00412549, 0.00162551, -0.00758848, -0.00444223, -0.00376641, -0.00726983, -0.00282918, -0.00211059, -0.00698095, -0.00595248, -0.00166475, -0.0027843, 1.40357e-05, 0.0133166, -4.361e-05, 1.12966e-05, 1.66945e-05, 1.0923e-16
0.0108439, 0.0123765, 0.00379043, 0.00182847, 1.57098e-05, -0.000327571, 0.00080603, -0.00615526, -0.00643364, -0.00277705, 0.00283792, -0.00631788, -0.00677401, -0.00940035, 0.0142689, 0.0106386, 0.00653047, -0.0108199, -0.00576649, -0.00161485, -0.00934445, -0.00234964, 0.00954108, -0.0024048, -0.00649127, 0.00138917, 0.00242449, -1.46782e-05, 0.0180051, -1.96534e-05, 1.08902e-05, 3.81066e-05, 1.95996e-17
0.00288355, 0.00745169, 0.00423259, 0.000578913, -0.000410618, -0.00104038, -0.000628653, -0.00503737, -0.000791179, 0.00329001, 0.000456244, -0.00388252, -0.00308353, -0.00267827, 0.00824563, 0.00611665, 0.00488997, -0.00275974, -0.00389624, -0.00219871, -0.00722507, 0.000634621, 0.00740919, -0.000596032, -0.00393614, -0.000352201, 0.00320192, 7.24885e-06, 0.00919696, -3.0043e-05, -1.91773e-06, 5.94657e-05, -1.3336e-17
0.00412996, 0.0115312, 0.00623523, 0.000697225, -0.000958731, -0.00177061, -0.00149008, -0.00727545, 0.00012621, 0.00756553, 0.000914788, -0.00623774, -0.00455504, -0.00286722, 0.0122869, 0.00779183, 0.0074779, -0.00419909, -0.00547022, -0.00343061, -0.0100484, 0.000957227, 0.0109775, -0.00122842, -0.00555449, 6.89722e-05, 0.00497687, -2.52713e-05, 0.0128219, -2.56507e-05, 1.98687e-05, 2.47441e-05, 2.61917e-16
-0.000103827, -0.00538557, -0.000252973, 4.56374e-05, 0.000529788, 0.000537652, 0.000581089, 0.000484235, 0.000460872, -0.000262528, -5.23422e-05, 0.000727451, -0.000259876, -0.000293842, -0.00710528, 0.00282581, -0.00416531, 6.45933e-05, -4.67912e-05, 0.000194592, 0.000879816, -0.00020442, -5.09743e-05, 0.000662888, 0.000615892, -0.000725253, -5.9731e-06, -4.73881e-05, -0.00370655, -3.00664e-05, 1.25714e-05, 3.32883e-05, 7.98143e-17
0.0103027, -0.0134067, 0.000483709, 0.0027219, 0.00250917, 0.00368568, 0.00262819, 0.00648746, 0.000242542, -0.00198883, 0.00336258, -0.000296038, -0.00320894, -0.00242334, -0.0134801, 0.00953874, -0.012877, -0.0102534, 0.00451693, 0.00666433, 0.00602727, 0.000182108, 0.000738052, 0.00457748, 0.00516464, 0.00263188, 0.000355495, 1.27308e-05, -0.00460714, 2.83478e-05, 7.22559e-05, 4.82114e-05, -2.51411e-17
-0.0128764, -0.0140353, -0.0079736, 0.00232429, -0.00227294, -0.00291198, -0.00317514, -0.000999457, 0.0149664, 0.0022385, 0.00198683, -0.0087438, -0.00343601, 0.00671878, -0.0107077, -0.0200979, -0.00438279, 0.0129048, -0.00348673, 0.000122641, -0.00156393, -0.0107127, -0.00319965, -0.0106556, 0.00523701, 0.000414746, -0.00286191, 2.85671e-05, -0.0188699, -1.01511e-05, -7.25181e-05, -4.72467e-06, -9.37737e-18
0.0146843, -0.0210581, 0.00364841, 0.000554023, 0.00177389, 0.00141797, 0.00173033, 0.0045462, -0.00268844, 1.65372e-05, 0.00053041, 0.00358254, 0.000351021, -0.0021243, -0.0230524, 0.0156225, -0.0196694, -0.0145954, 0.00485315, 0.00500675, 0.00388622, 0.00330652, 0.00385285, 0.00646041, 0.00292037, 0.00249637, 0.00254726, -4.91698e-05, -0.00771824, 6.21922e-05, 4.24903e-05, -2.4865e-05, -3.06394e-17
0.000679031, 0.00272215, 0.000582539, 0.000746309, 0.000558787, 9.21518e-05, 0.000486738, -0.00213337, -0.00131414, 0.00164452, -0.000656608, -0.000822244, -0.00126185, -0.00218632, 0.00187842, 0.00182445, 0.00161338, -0.000732569, -0.00180554, -0.0012368, -0.00251356, -0.00173027, 0.0027567, -0.000546682, -0.00180299, -0.000758755, 0.000305554, -1.24882e-06, 0.00669547, 1.12333e-05, -5.47452e-05, -2.10216e-05, 7.55026e-17
-0.00919343, -0.00712429, 0.00540758, 0.00207606, 0.00448125, 0.00254386, 0.00462241, 8.13767e-05, -0.00462194, 7.03367e-05, -0.00724561, 0.00703958, 0.00707463, 0.00298154, -0.013483, -0.00930224, -0.00104067, 0.00916636, 0.00380448, 5.71295e-05, 0.000303753, 0.000189308, 0.0112863, 0.00441881, -7.51444e-07, 0.000589761, 0.00261373, -1.83915e-05, -0.00101666, 4.50292e-06, 5.67843e-05, 4.00844e-06, -2.84152e-17
0.00217225, 0.00525653, 0.00158127, 0.00199353, 0.00136466, 0.000351779, 0.00111766, -0.00594511, -0.000354905, 0.00266848, 0.000296043, -0.00404194, -0.00344275, -0.00342183, 0.00641251, 0.00546197, 0.0037258, -0.00217503, -0.0053277, -0.00318213, -0.00785765, -0.00152037, 0.0049695, -0.00343661, -0.00398961, -0.00133414, 0.00144175, -4.80398e-06, 0.00855142, -2.14285e-05, -1.0004e-06, 8.29471e-05, 6.85783e-17
-0.00726576, -0.00953431, -0.00026607, 0.00258069, -5.67419e-05, -0.00139138, -0.000613832, 0.00488277, 0.00873204, 0.0043762, -0.0043118, -0.00495338, 0.00444727, 0.00908414, -0.0130196, -0.00518436, -0.00392596, 0.00727097, 0.00519221, 0.00431367, 0.00553675, -0.00182634, 0.00237675, 0.00169899, 0.00710633, 0.00402996, -0.000980545, 1.53397e-05, -0.00633722, -6.74919e-05, -2.27431e-05, -2.27331e-05, 1.25169e-16
0.0134221, 0.0130629, 0.00642874, 0.00100899, 0.000259834, -0.00239888, 0.000315606, -0.00900786, -0.00470962, 0.00567775, -0.00295751, -0.00634122, -0.00111951, -0.00365603, 0.0144972, 0.0137482, 0.00605668, -0.0134456, -0.00515799, -0.00482625, -0.0119813, -0.000542274, 0.0129056, -0.00236276, -0.00857002, 0.00135991, 0.00397543, -7.30424e-05, 0.0244655, 3.88977e-06, -1.33221e-05, 7.03589e-05, 1.06128e-16
-0.0184312, -0.0220406, 0.001299, -0.0036805, -4.57205e-05, 0.00545692, -0.000794409, 0.00137565, 0.000686847, 0.00294949, 0.00572376, 0.00920896, -0.00259952, -0.00260232, -0.0346925, -0.0162783, -0.00916851, 0.0184633, -0.00271408, -0.00271629, 0.00523886, -0.00166314, 0.00497351, 0.00365473, 0.00270141, -0.00185686, 0.0021395, 1.1851e-05, -0.00909807, -6.02241e-05, 2.82915e-05, 9.39391e-06, 2.29056e-17
-0.00586105, -0.00739263, -0.0039517, -0.002352, -0.0072368, -0.00832805, -0.00786221, 0.000758299, 0.0163282, -0.00457709, 0.00291937, -0.0125089, -0.004264, 0.00650268, -0.00542017, -0.0131556, -0.00291797, 0.0058064, -0.00258397, 0.00184364, 9.18118e-05, -0.00360456, -0.00288868, -0.00526558, 0.00581994, 0.00122288, 0.00041759, 1.80965e-05, -0.00778035, 6.7034e-05, 2.08276e-05, -6.64013e-05, -5.26214e-16
-0.00550719, -0.00755256, 0.00262644, -0.0023892, -0.00279011, -0.00229998, -0.00284667, -0.00368009, -0.000539874, -0.000708811, -0.000169145, 0.00410948, 0.00336748, 0.0022633, -0.0167, 0.00207526, -0.00400286, 0.00546852, -0.00251863, -0.00523385, -0.00261115, 0.000834722, 0.00498091, -0.00217387, -0.00193439, 7.71113e-05, 0.00231894, 3.52383e-05, -0.00449701, 6.16111e-05, 1.73852e-05, 4.52179e-05, -1.10093e-17
-0.0158775, -0.0191345, 0.00206676, -0.000567486, 0.00274281, 0.00814963, 0.00241599, 0.00591361, -0.00509525, 0.00145458, 0.00467547, 0.0106003, -0.00320081, -0.00684479, -0.031351, -0.0101047, -0.00826563, 0.0159105, 0.00132537, 0.00131065, 0.0107176, -0.00031312, 0.00529845, 0.00526831, 0.00411752, -0.000378726, 0.0021494, -3.33304e-05, -0.0135553, -2.11018e-05, -2.75404e-05, 5.26721e-05, -1.10848e-16
0.0185547, -0.0303297, 0.0049028, 0.00760718, 0.00650473, 0.00148403, 0.00687373, 0.0255489, 0.00284212, -0.00361783, -0.00967251, -0.00231953, 0.0107843, 0.00867884, -0.0315825, 0.0163291, -0.02691, -0.0185554, 0.0287472, 0.0252246, 0.024849, 0.00442479, 0.00506804, 0.0234238, 0.0199019, 0.0123733, 0.00350272, -6.66385e-05, -0.0176912, -4.93512e-05, -3.20357e-05, 1.44745e-05, 5.9726e-17
0.00253488, -0.0130634, 0.000533986, -0.000429806, 1.91118e-06, -5.16434e-05, 0.000177017, 0.000498668, -0.000348712, -0.00091387, 0.000106833, 0.00189615, -0.000331304, -0.000645556, -0.015983, 0.00745083, -0.0108433, -0.00256024, 0.000204681, -0.000703862, 0.00174448, 0.00125786, -0.000207959, 0.00185587, 1.06962e-05, -0.000694584, -0.00017577, 1.81145e-05, -0.00483365, 6.47809e-05, 3.27615e-05, -7.92172e-05, -2.17034e-16
-0.00667045, -0.00545581, -0.00112668, 0.00141603, -0.000314595, -0.00185133, -0.00096202, 0.00316312, 0.00648008, 0.00415994, -0.00286184, -0.0031669, 0.00309007, 0.00664493, -0.00691454, -0.00690223, -0.00133351, 0.00654447, 0.0033944, 0.00320745, 0.00315106, -0.0016409, 0.000458273, 0.000353852, 0.00489624, 0.00240595, -0.00151659, 1.28014e-05, -0.00407855, -2.28807e-05, -2.07645e-05, 1.81072e-05, 3.34206e-17
0.00780681, -0.020678, 0.00116639, 0.00103244, 0.000341663, -0.00530991, 0.000557994, 0.0251929, 0.00351416, -0.00316639, -0.011589, -0.00243755, 0.0128407, 0.0104637, -0.0211949, 0.00439856, -0.0162853, -0.00781587, 0.0288097, 0.0244438, 0.0247139, 0.000658722, 0.00157887, 0.0197651, 0.0197474, 0.0116566, 0.000255269, -6.38025e-05, -0.0178411, 6.59288e-05, 4.12181e-05, 1.71418e-05, 1.13803e-16
0.00241812, 0.00473455, 0.00170676, 0.00134025, 0.000808623, 0.000437696, 0.000696658, -0.00411447, -0.000155348, 0.00176977, 0.000790443, -0.00385835, -0.00337779, -0.00308317, 0.00594375, 0.00531319, 0.00309104, -0.00237822, -0.00422635, -0.00199212, -0.00571659, -0.000642084, 0.00399719, -0.00180693, -0.00296646, -0.000947234, 0.00114614, -8.56422e-07, 0.00519506, -2.75158e-05, -4.55907e-05, 6.46568e-06, -3.32898e-17
-0.00395806, -0.00144665, -0.00562041, 0.00440581, 0.0010667, 0.00167768, 0.00098792, 0.000687092, 0.0112857, -0.000835281, 0.00154013, -0.00863768, -0.003183, 0.00582466, 0.00298672, -0.012797, 0.000342986, 0.00388901, -0.00180902, -0.000815115, 0.00193176, -0.00466209, -0.00577358, -0.00482787, 0.00293932, 0.000518535, -0.00184569, -1.58288e-05, -0.00334865, -7.53829e-05, 1.06727e-05, -1.13907e-05, -4.31359e-17
-0.00949202, -0.0131057, -0.0019242, 2.93206e-05, -0.00135663, -0.0031759, -0.00239261, 0.00565365, 0.00712635, 0.00596737, -0.00477592, -0.00212186, 0.0047436, 0.00779218, -0.0160965, -0.00801393, -0.00529222, 0.00951019, 0.00545935, 0.00500535, 0.00613432, -0.00354625, 0.00116199, 0.000392976, 0.00717703, 0.00453648, -0.0026161, -2.30114e-06, -0.0108611, -5.48839e-06, -7.26663e-06, -5.11363e-06, 7.843e-18
-0.00604831, -0.00895747, -0.00134987, 0.000458889, 0.000622464, -0.000630174, 0.000308699, 0.00432245, 0.00255353, 0.0029442, -0.00358856, -2.42491e-05, 0.00326446, 0.00344754, -0.0121868, -0.00400201, -0.00389706, 0.00602601, 0.00408894, 0.00312184, 0.00524489, -0.00286938, 0.000899634, 0.000615963, 0.00408628, 0.00311768, -0.00164351, -6.63878e-06, -0.00875971, 6.3733e-05, -3.31575e-05, -1.5112e-05, 3.52229e-17
-0.00102336, 0.00767034, 0.0037596, 0.00107195, -0.000423338, -0.00022183, -0.000493052, -0.00569227, 0.00194934, 0.00245663, 0.00150127, -0.00575514, -0.00320363, -0.000999382, 0.00789162, 0.00429037, 0.00580026, 0.00101714, -0.00498207, -0.00356762, -0.00737139, 0.000982267, 0.00615445, -0.00165925, -0.0036619, -0.00129557, 0.00357791, -2.11064e-05, 0.00409289, 3.62927e-06, -1.27395e-05, 3.09222e-05, -6.09151e-17
0.0107177, 0.0162946, 0.00982378, -0.001144, -0.00684799, -0.0044135, -0.00589259, -0.00726018, -0.00128937, 0.00244624, 0.00663253, -0.0128572, -0.00820075, -0.00464147, 0.0196879, 0.0122689, 0.00910858, -0.0106958, -0.00632609, -0.00602518, -0.00819616, 0.0037865, 0.0148904, 0.00129493, -0.00887129, 0.00490479, 0.0078374, -1.47018e-05, 0.0154122, -1.51584e-05, 6.00904e-07, -4.12442e-05, 9.43351e-17
0.00163247, 0.00676744, 0.00230501, 0.00186291, 0.00133632, 0.000425708, 0.00105686, -0.00623916, -0.000861154, 0.00385054, 0.000408819, -0.00343636, -0.00392721, -0.00403866, 0.00727761, 0.00813021, 0.00459755, -0.00160238, -0.00557308, -0.0030778, -0.00846629, -0.00148846, 0.00599146, -0.00342716, -0.0043037, -0.00170299, 0.00166884, 8.3919e-06, 0.00802567, 8.91616e-06, 4.00097e-05, -2.88896e-05, -4.93201e-17
-0.0124578, -0.0182631, 0.00167187, -0.00166024, 0.00195819, 0.00351024, 0.0021152, 0.00345541, -0.00693278, -0.00263033, -0.00308276, 0.00999228, 0.00344161, -0.00406327, -0.0313552, -0.0062255, -0.00912598, 0.0123762, 0.0024543, -4.27557e-05, 0.00701836, -0.00115678, 0.00565877, 0.00290081, 0.00116553, -0.00115215, 0.00180513, 1.17643e-05, -0.0143216, 1.38151e-05, -1.17858e-05, 5.33301e-06, 5.61359e-17
0.00341994, 0.00897716, 0.0053748, 0.000169372, -0.000580989, -0.00160757, -0.000883934, -0.00629038, -0.00115789, 0.00491383, -0.000763855, -0.00372616, -0.00201466, -0.0021496, 0.0101282, 0.00669878, 0.00585847, -0.00337518, -0.00422847, -0.00322217, -0.0084915, 0.00105256, 0.00890473, -0.000606263, -0.00502519, -0.000721963, 0.00377259, -9.73904e-06, 0.0111208, -1.2956e-05, -8.7758e-06, -3.37831e-05, 8.30288e-17
-0.0135779, -0.0101622, -0.00394136, 0.00563969, 0.00395549, 0.0042527, 0.00334361, 0.00443746, 0.0080511, 0.00481284, 0.000740141, -0.00136624, -0.00164592, 0.00396418, -0.00957544, -0.0175804, -0.00180116, 0.0136137, 0.00269226, 0.0048038, 0.00423362, -0.00586044, -8.73163e-05, -0.00247133, 0.00726879, 0.00140398, -0.00258046, 6.24924e-05, -0.015179, 6.1231e-05, -5.97648e-05, -1.15066e-05, 1.29359e-16
0.00265518, 0.0138146, -0.00320082, 1.93122e-05, 0.00212324, -0.000269647, 0.00186499, -0.00252843, 0.00764078, -0.00346431, 0.000586357, -0.00536912, 0.00339718, 0.00651306, 0.0152678, -0.00314702, 0.00838849, -0.00271555, 0.00118955, 0.000318259, -0.00668873, -0.000104832, -0.00525982, -0.00369976, -0.000273472, 0.00270229, -0.00128616, 1.431e-05, 0.00471671, 2.70963e-05, 1.63936e-05, 7.90749e-06, -4.30777e-17
0.00425471, 0.01161, 0.00621679, 0.000665375, -0.00138512, -0.00197957, -0.00146754, -0.0070702, -0.00164697, 0.00251762, 0.00127219, -0.00656558, -0.00510029, -0.00454371, 0.0126032, 0.00896522, 0.00765535, -0.00430711, -0.00563106, -0.00283516, -0.0102903, 0.000452708, 0.0114343, -0.000660174, -0.00559963, -0.000159364, 0.00493316, 2.7754e-07, 0.0138704, 1.4546e-05, -2.41207e-05, 1.3066e-05, -1.82823e-17
0.000250632, 0.000267453, 0.000161761, -0.00233215, -0.00283865, -0.00337981, -0.00312511, -0.00115577, 0.00438817, -0.00113203, 0.00156811, -0.00287901, -0.00116193, 0.000644544, 0.00130395, -0.00180802, 0.000186169, -0.000196451, -0.0018104, 5.65839e-05, -0.00268492, 0.000229342, -9.74243e-05, -0.00112305, 7.15405e-05, 0.000296439, 0.000632553, 2.32015e-05, -0.00285021, -3.27773e-05, 1.56293e-06, -4.92048e-05, -6.83354e-16
0.00302594, -0.00357203, 0.000183603, 0.000362933, 0.000813905, -2.88611e-05, 0.000736426, 0.000867349, -0.000824601, 0.000456478, -0.00106413, 0.000824354, 0.0016728, 0.000566764, -0.00398025, 0.0033824, -0.00350906, -0.00306539, 0.00201063, 0.00062858, 0.00105508, 6.88936e-05, 0.000334893, 0.00144814, 0.00028664, 0.00064989, 0.000293026, 7.79384e-06, -0.00139408, 2.20989e-05, 1.17446e-05, -1.53994e-05, 2.17929e-16
0.00756457, 0.0107088, 0.00379982, 0.000969721, -0.0025154, -0.00142986, -0.00251629, -0.00571072, -0.000650533, 0.00355885, 0.00702248, -0.00862027, -0.00931483, -0.00640076, 0.0125748, 0.0100666, 0.00603721, -0.00751969, -0.00682366, -0.00268026, -0.00812106, -0.000991871, 0.0086575, -0.00246027, -0.00521401, 0.00137652, 0.00312846, -6.59291e-05, 0.012905, 2.25765e-05, 2.50563e-05, -5.74656e-05, 6.02898e-17
-0.00698568, -0.00797034, 0.00238672, 0.00081221, 0.00295552, 0.00546031, 0.00316609, -0.00135388, -0.00544974, 0.00269136, -0.00456101, 0.0114138, 0.00662615, 0.00248983, -0.0172241, -0.0019041, -0.00360377, 0.00701989, 0.000203343, -0.00367668, 0.000640377, -0.000683938, 0.00687392, 0.000668408, -0.000761808, -0.000954432, 0.00151222, 2.95147e-05, -0.00318306, 1.27478e-05, -3.36026e-05, 1.79886e-05, -5.64748e-17
-7.78887e-05, 0.00613999, 0.00170543, 0.00182853, 0.000482495, 0.000281459, 0.000435494, -0.00377987, 0.00171793, 0.000846876, 0.000956942, -0.00474578, -0.00226531, -0.000482749, 0.00572523, 0.00203126, 0.00435889, 0.000123384, -0.00367252, -0.00261658, -0.00478635, -0.000109734, 0.00344651, -0.00183852, -0.00242309, -0.00114683, 0.00149432, -3.48542e-05, 0.00628703, 2.60602e-05, 1.42795e-05, 1.34922e-05, 1.13269e-16
0.00120884, 0.00442703, 0.00114849, 0.000893821, 0.000711328, 0.000233334, 0.000546041, -0.00354893, -0.00151543, 0.00228264, -0.0004603, -0.00182055, -0.00234748, -0.00327308, 0.00402871, 0.00403314, 0.00284923, -0.00123005, -0.00311173, -0.00173427, -0.00474481, -0.00194215, 0.00403258, -0.00132797, -0.00271071, -0.000914046, 0.000674481, -2.10958e-05, 0.00875958, 2.56582e-05, 8.97326e-07, -3.21213e-05, -4.33857e-17
-0.00459719, -0.00407517, 0.00195939, 0.000616248, 0.00168803, 0.00270945, 0.00202345, -0.00159594, -0.00359518, 0.00284336, -0.00404796, 0.00795373, 0.00480167, 0.00231902, -0.0126372, -0.00018791, -0.00168857, 0.00474984, 0.000384193, -0.00331499, -0.000207967, -0.00246757, 0.00721376, 0.00161643, -0.000903699, 0.000862807, 0.000992036, 1.63383e-05, 0.000528586, 5.83569e-06, 8.16786e-05, 4.92422e-05, 6.62826e-17
1.19118e-07, -0.0177953, -0.000756268, -0.0011735, 0.000111033, 0.00078122, 0.000408258, 0.00112802, 0.00018038, -0.00176013, 0.000423638, 0.00463598, 8.15484e-05, 0.00051656, -0.0265315, 0.00823126, -0.0142128, -3.80908e-05, 0.00222674, 0.00024361, 0.00227561, -0.000171779, -0.00110191, 0.0018322, 0.00199442, -0.000622065, -0.000228481, -7.28442e-06, -0.00796261, 6.71594e-05, -1.21231e-05, 2.22049e-05, -9.29666e-17
-0.00151849, 0.00899352, 0.00138148, -1.47783e-05, -0.000868443, 0.0018059, -0.00113058, -0.0115958, -0.000545381, 0.000834109, 0.00802829, -0.00317668, -0.00836902, -0.00599698, 0.00921963, -0.0015459, 0.00695668, 0.00153412, -0.0138677, -0.0114467, -0.0110871, 0.00120271, 0.00131349, -0.00905664, -0.00928624, -0.00499411, 0.00119949, 6.87594e-06, 0.0111265, 6.91057e-05, 4.80875e-05, -3.53703e-06, -2.41486e-16
0.0162799, -0.023675, 0.000273661, 0.00683264, 0.00705339, 0.00570518, 0.00739983, 0.0146711, -0.000260527, -0.00360575, -0.00137938, 0.000713249, 0.00181388, 0.000252102, -0.0233022, 0.0149098, -0.0216682, -0.0163193, 0.0141893, 0.0141657, 0.0144487, 0.000124341, 0.000480809, 0.0110131, 0.0110918, 0.00694231, 5.14361e-05, 6.52417e-05, -0.0122586, -1.93301e-05, -3.96236e-05, -1.65326e-05, 4.20431e-16
0.00839481, -0.0179908, 0.00618695, -0.00263953, -0.00222699, -0.0045974, -0.00222405, 0.014341, -0.00166909, -0.00224766, -0.00419621, 0.00159781, 0.00554656, 0.00196601, -0.0186258, 0.0054827, -0.0149571, -0.00854123, 0.0162016, 0.0137771, 0.0141874, 0.00622376, 0.00560225, 0.0156797, 0.00977814, 0.00751565, 0.00493585, 1.74379e-05, -0.0128274, 1.41386e-05, -4.16116e-05, 2.16526e-05, 5.54386e-17
-0.0177215, -0.0237239, 0.000313021, -0.00621921, -0.00442882, 0.00185629, -0.00489202, -0.00264685, 0.00335141, -0.0030921, 0.00677977, 0.00598727, -0.00373907, -0.00170565, -0.0343813, -0.0139596, -0.0104971, 0.0177363, -0.00737022, -0.00613126, 0.00075584, -0.00148372, 0.00234028, 0.000783853, 0.000284205, -0.00232823, 0.00241975, -5.615e-05, -0.010317, -6.92594e-05, 3.50254e-05, -3.6281e-05, -8.81159e-17
-0.000590367, 0.000898359, -0.00087131, -0.0001385, -0.000488181, 0.000120516, -0.000268448, -0.000636677, -0.000474314, -0.000258104, 0.00124779, 8.10498e-05, -0.00117885, -0.0012265, 0.000212623, -0.000194144, 0.000680724, 0.000635418, -0.000862637, -0.00063933, -0.000590519, -0.00131981, -0.000174798, -0.000698598, -0.000593155, -0.000635165, -0.000784938, -1.8448e-05, 0.00147354, 1.59927e-05, 4.24459e-05, -2.34621e-06, 2.7734e-17
0.00351888, -0.0154407, 0.000457113, -0.000928145, 0.000210491, -0.000222905, 0.000281721, 0.00111944, -0.00112119, -0.000861972, -0.000220632, 0.00302913, 0.000354561, -0.000752555, -0.0178439, 0.00846762, -0.012557, -0.00343769, 0.00121717, 0.000375033, 0.00187229, 0.000994828, -1.63147e-05, 0.0023036, 0.000496763, -0.000474226, -4.57739e-05, -6.35206e-06, -0.00661638, 3.26035e-05, 3.63047e-05, -5.11728e-05, -1.67363e-17
0.016805, 0.0341737, -0.00191773, -0.00156993, -3.61114e-06, 0.00053918, 0.00159689, -0.000718756, -0.00964712, 0.00214633, -0.00504617, -0.00325549, -0.00128544, -0.00907725, 0.0278869, 0.0145606, 0.0193391, -0.0168039, 0.00311927, 0.00224547, -0.0027231, -0.0116385, 0.00714807, -4.19965e-05, -0.00327997, 0.00426613, -0.00446481, -2.0474e-05, 0.0414291, 2.32741e-05, 7.1959e-05, -2.82877e-05, 1.30646e-16
0.000678146, -0.0135941, -0.000239954, -0.000337691, -3.11469e-05, -3.82455e-05, 0.000236535, 9.53767e-05, 0.00202493, -0.00203484, 0.00131745, 0.00130605, -0.000684996, 0.000566808, -0.0179886, 0.00828537, -0.0110012, -0.000653705, -0.000258013, -0.000409735, 0.00078213, 0.000683059, -0.00129481, 0.00129007, 0.00140651, -0.00134242, 0.000160256, 9.04253e-05, -0.00680088, 1.64982e-05, 3.60611e-05, -4.23388e-05, -1.92123e-18
0.00201122, 0.011831, 0.00711076, 0.000570648, -0.00155924, -0.00181017, -0.00224696, -0.00764062, 0.00177358, 0.00739843, 0.00177817, -0.00608603, -0.00417652, -0.00171887, 0.0138935, 0.00729224, 0.00839346, -0.00195902, -0.00590899, -0.00405969, -0.0105646, 0.0024447, 0.0114439, -0.00159485, -0.00543238, -0.000143061, 0.00611924, 2.00217e-05, 0.0072968, -2.61627e-05, 1.63948e-05, 3.04395e-05, -8.38793e-17
0.00998458, 0.0211629, -0.000323476, -0.000233431, -0.00125682, 3.2682e-05, -0.000313251, -0.00166401, -0.002493, 0.000502569, -0.0012934, -0.00617116, -0.00301789, -0.00419352, 0.0168402, 0.00847308, 0.0121862, -0.0100395, -0.000343369, 0.000866701, -0.00357622, -0.00691462, 0.00588476, -0.000160919, -0.00189241, 0.00312782, -0.00168257, -4.22454e-06, 0.0281277, 2.44437e-05, -9.38735e-06, -1.19448e-05, 3.21584e-18
0.0195394, -0.0263573, 0.00380386, 0.00682108, 0.00632002, 0.00436091, 0.00663891, 0.0159101, 0.00104347, -0.00252099, -0.00303156, -0.000490805, 0.00378521, 0.00271997, -0.027296, 0.0178086, -0.0246482, -0.0195261, 0.0166661, 0.0160215, 0.0152688, 0.00351746, 0.00398594, 0.015225, 0.0124441, 0.00775002, 0.00269858, 5.12513e-05, -0.0115459, -4.94727e-05, -3.87182e-05, 7.62518e-06, -7.00401e-16
-0.00813133, -0.00176496, 0.00437918, 0.0027835, 0.0051051, 0.000696222, 0.00485223, 0.00248233, -0.00248459, 0.00359381, -0.00627095, 0.00394781, 0.0076748, 0.00469786, -0.00590497, -0.00732478, 0.00193183, 0.00809665, 0.00743503, 0.00242272, 0.00237814, 0.00182004, 0.0072421, 0.00620511, 0.00139009, 0.00263188, 0.00298782, -2.43582e-05, -0.000224437, -2.75864e-05, -2.08566e-05, -5.03782e-05, 6.26346e-17
-0.00708247, -0.0136258, -0.00124382, -0.00146687, -0.00141312, -0.00163364, -0.00190418, 0.00754013, 0.0032168, 0.00257028, -0.00318874, -0.00183087, 0.00308601, 0.00397947, -0.0181204, -0.00482513, -0.00636169, 0.00717298, 0.00680456, 0.00526151, 0.0091065, -0.00367074, 0.00173677, 0.00229848, 0.006248, 0.00544547, -0.00211778, -2.24292e-05, -0.0141815, -1.09569e-05, -5.80346e-05, -1.80392e-05, -3.62119e-17
-0.00852072, -0.00691976, 0.00587852, -0.000302679, 0.00245759, -0.000275056, 0.00229236, 0.00070805, -0.00297062, 0.000950865, -0.00690629, 0.0052171, 0.00650207, 0.00329715, -0.0151037, -0.00759248, -0.00119934, 0.00854855, 0.00446975, 0.000873792, 0.00104039, 0.000277018, 0.0117556, 0.00627545, 0.000945136, 0.000954195, 0.00343417, 1.28578e-05, 0.00440098, -1.96717e-05, 1.05277e-06, -6.18784e-06, 1.66465e-17
-0.00651816, -0.0107869, -0.000759548, 0.000576702, -0.0012394, -0.00199821, -0.00196052, 0.00530959, 0.00678355, 0.00466127, -0.00369941, -0.0037384, 0.00383309, 0.0071806, -0.0145553, -0.00354562, -0.00489423, 0.00648405, 0.00531027, 0.00435605, 0.00606537, -0.00254357, 0.00186267, 0.00158173, 0.0065227, 0.00420498, -0.00151562, -3.34109e-05, -0.00736752, -1.73883e-05, 1.98683e-05, 6.58781e-05, 8.8561e-17
0.00249364, 0.00357216, -0.000937634, 0.000796453, 0.000778095, 0.00204838, 0.00069407, -0.00681415, -0.00127095, 0.000673389, 0.00401972, -0.00175891, -0.00511951, -0.0044094, 0.00484511, 0.00191563, 0.00200339, -0.00254877, -0.0086172, -0.00693488, -0.00628981, -0.00104892, -0.000969912, -0.0063272, -0.00579323, -0.00334473, -0.000946038, -2.24274e-05, 0.00881186, -6.0643e-05, -4.56837e-05, -5.33958e-05, 3.52878e-17
0.0115562, -0.0148625, 0.000525586, 0.004482, 0.0031565, 0.003383, 0.00325306, 0.010698, 0.00256738, -0.00122572, 0.00116164, -0.00225452, -0.00119194, 0.000530123, -0.0156628, 0.0102076, -0.0140713, -0.0115363, 0.00940179, 0.0113011, 0.00962725, 0.000145102, 0.000962034, 0.0091261, 0.00897688, 0.00509247, 0.000324161, -4.22717e-05, -0.00611498, 4.47888e-05, -4.3372e-05, 1.60295e-05, 6.76285e-17
-0.00386429, -0.00407721, -0.000518768, -0.00354734, -0.00272519, -0.0014038, -0.00262303, -0.000686034, -0.00207044, -0.00218109, -0.0024156, 0.00523751, -0.000350875, -0.00157566, -0.0061981, -0.00265269, -0.000999189, 0.00385544, -0.0026102, -0.000863204, -0.000726369, -0.00278447, 0.00145708, -0.00167332, -0.000136486, -0.000598484, 7.78501e-05, -5.32273e-06, -0.0100959, -3.11488e-06, 5.22988e-06, 3.51947e-05, -2.49599e-17
0.00088518, -0.0167991, 0.000186983, -0.00138162, -0.00113348, -0.000267227, -0.000659391, 0.000963176, 0.00282051, -0.00337188, 0.00241014, 7.28723e-05, -0.00193886, 0.000217898, -0.0217004, 0.00962969, -0.0134704, -0.000831629, 0.000226721, 0.000617152, 0.00150358, 0.00100583, -0.000659137, 0.00215693, 0.00208814, -0.000635009, 0.000474466, -2.08505e-05, -0.00986632, 4.23908e-06, 3.98681e-05, -1.03085e-05, 1.95522e-16
-0.00527591, -0.0122168, -0.000101272, 0.000453043, 0.000752688, 0.00343796, 0.0015514, -0.000595025, -0.00219922, -0.00106689, -0.00234173, 0.00605688, 0.00340198, 0.00151133, -0.0225476, 0.00419961, -0.00789171, 0.00525461, 0.000190059, -0.00371169, 0.00212659, -0.00116216, 0.00167674, -0.00011971, -0.000335878, -0.000505506, 0.000739075, 6.50239e-05, -0.00681539, -1.66924e-05, -1.03014e-05, 5.47017e-05, -3.36369e-17
0.000480978, -0.000870912, 0.00133671, -0.00201103, -0.00250133, -0.00127438, -0.00238328, -0.00116322, 0.00196295, -0.00185468, 0.00398928, -0.00303756, -0.00335023, -0.00159818, 0.000140237, 0.000705504, -0.000726978, -0.000542318, -0.00321584, -0.00199765, -0.000634943, 0.00117405, 0.00110681, -0.000874735, -0.000877724, 0.000147827, 0.00126455, 1.68741e-05, -0.000993546, 2.36437e-05, 4.39071e-06, 2.83071e-05, 3.73378e-16
-0.000125492, 3.52431e-05, -6.55248e-06, -6.25403e-05, 1.16293e-06, -6.51236e-05, -1.19887e-05, 1.8153e-05, -3.1769e-05, -3.21175e-05, -8.79771e-05, 5.9151e-05, 0.000145044, 5.81017e-05, 7.80483e-06, -5.86265e-05, 9.04839e-05, 0.000138373, 1.81752e-05, -8.83977e-05, -5.49795e-05, 1.03232e-05, 3.37722e-05, 1.23857e-05, -2.98159e-05, -0.000110557, 1.00831e-05, 6.45745e-05, 9.65355e-06, -1.03706e-05, -2.94661e-05, 5.75201e-06, 2.14696e-17
0.0170723, -0.0295518, 0.0155141, -0.00403464, -0.000557718, -0.00449935, -0.000659387, 0.0138571, -0.00922243, -0.00192804, -0.00621246, 0.00885028, 0.00902886, -0.000792937, -0.031406, 0.0131329, -0.0260026, -0.0170447, 0.0182134, 0.0129348, 0.0140348, 0.0157748, 0.0143638, 0.0237405, 0.00658411, 0.00737318, 0.0127096, -5.88391e-05, -0.0170613, -2.48705e-05, 4.43435e-05, -2.60019e-06, 7.64634e-17
0.000779318, 0.00548204, 0.00184336, 0.00136434, 0.00122463, 0.000545241, 0.00084965, -0.00576714, -0.00190709, 0.00198676, -6.97596e-05, -0.001791, -0.00270183, -0.00338551, 0.00617123, 0.00416708, 0.00402691, -0.000770701, -0.00569803, -0.00479089, -0.00598806, -0.000369482, 0.00410392, -0.00180319, -0.0049293, -0.00263481, 0.00157967, 1.23517e-05, 0.00814831, -4.39407e-05, 3.18747e-05, 6.92925e-06, -9.61885e-17
-0.0196235, -0.0118566, 3.40079e-05, 0.000137845, 0.00155112, -0.00221588, -0.000215617, 0.00259265, -0.00248781, 0.0031249, 0.000283561, 0.00801487, 0.00279918, -0.000453109, 6.61427e-05, -0.0312608, 0.00177005, 0.0196442, 0.00520964, 0.00438599, -0.00093963, 0.00485341, -0.0017041, -0.00275571, 0.000545456, 0.00508967, 0.00214209, -1.67781e-05, -0.0327395, 1.06594e-05, 2.63043e-07, 6.80598e-06, 6.21674e-19
0.019584, -0.0223498, -0.00143528, 0.0118342, 0.00959306, 0.00795924, 0.00987953, 0.0150356, 0.00489256, -0.00161926, -0.00159489, -0.00419889, 0.00191906, 0.00443421, -0.0235415, 0.0173409, -0.0220157, -0.0195644, 0.0152908, 0.0156709, 0.0140897, -0.00186631, -0.000934667, 0.0100224, 0.0131983, 0.00749349, -0.00167555, -8.75314e-06, -0.00750693, -1.58238e-05, 8.51878e-06, -3.87768e-05, 3.76359e-18
-0.0107142, -0.0098059, 0.00115743, 0.00424079, 0.00485967, 0.00329425, 0.00514786, 0.00496165, 0.000365888, -0.00173133, -0.00698346, 0.000920538, 0.00688303, 0.00459114, -0.0152977, -0.00907654, -0.00269633, 0.0106693, 0.00625945, 0.00412246, 0.00575548, -0.00251282, 0.00560252, 0.00241196, 0.00438973, 0.00320066, 0.00112478, -2.91082e-05, -0.00961445, -2.55381e-05, -2.52297e-05, -1.56975e-05, -4.3662e-17
-0.000283728, -0.0151694, -0.00258238, -0.00141563, -0.000723572, -0.00118059, -0.000650254, -0.00280898, 0.00259911, 0.00241475, -0.00251752, 0.00265666, 0.00344962, 0.00437014, -0.0279389, 0.00818691, -0.0117629, 0.000198987, -0.000107501, -0.00249359, -0.00243341, -0.00467104, -3.23992e-08, -0.00223471, 0.000453271, -0.00166983, -9.74965e-05, -1.5403e-06, -0.00116881, -8.58007e-05, -4.23809e-05, 4.06721e-05, -8.47376e-18
0.00965959, 0.0200481, 0.000452954, -9.75197e-05, -0.000229867, 0.00123357, 0.000523873, -0.000107858, -0.00285795, 0.00214125, -0.00120194, -0.0049826, -0.00380155, -0.00597343, 0.0152123, 0.0086292, 0.0115483, -0.00967998, 0.000423908, 0.00159182, -0.00186933, -0.00649354, 0.00692441, 0.00179369, -0.00142544, 0.00471861, -0.0003079, -1.05173e-05, 0.0230167, 2.86385e-05, -3.37611e-05, 1.58846e-05, 8.09464e-17
0.00847061, 0.00680172, 0.0027467, 0.000363086, -5.83404e-05, -0.000884004, -0.000449603, -0.00441645, -0.0020918, 0.00648343, 0.000739867, -0.00384923, -0.00363252, -0.00362695, 0.00807194, 0.00681089, 0.00301493, -0.00847831, -0.00328062, -0.00198057, -0.00607211, -0.001855, 0.00717251, -0.00155734, -0.00418497, 0.000546816, 0.00189219, -1.67909e-05, 0.014299, 3.03523e-05, -3.33919e-06, -4.35651e-06, -2.88936e-17
-0.00720246, -0.00780885, 0.00337976, -0.000418008, 0.00100316, -0.000204877, -0.000114737, -0.00234449, 0.00256562, 0.002285, -0.00568491, 0.000567533, 0.00298455, 0.00470347, -0.0223535, -0.00457951, -0.00303603, 0.00716594, -0.00112358, -0.00374225, -0.000190376, -0.00290833, 0.0100586, 0.00261067, 0.00102555, 0.00118532, 0.00113879, -3.58015e-05, 0.0171109, 4.80795e-05, -1.68054e-06, -1.75181e-05, 1.31897e-16
0.00399774, -0.0087872, 0.00186475, -0.00148386, -0.000929015, -0.000421123, -0.000944812, -0.000400281, -0.000675831, -0.00021172, 0.00218692, 0.000899175, -0.0015109, -0.00188718, -0.0109277, 0.0072212, -0.00818259, -0.00405089, -0.00092122, -0.000974613, 8.19826e-05, 0.00201816, 0.00139368, 0.00277611, -0.00084772, -0.000508942, 0.00115068, 6.26643e-05, -0.00426429, -6.44665e-05, -1.28943e-05, 2.38284e-05, 3.49364e-17
0.00178594, 0.00465235, 0.0016235, 0.00128927, 0.000861362, 0.000288459, 0.000707658, -0.00427913, -0.000958959, 0.00234427, 0.000627802, -0.00234194, -0.00301048, -0.00320501, 0.00506397, 0.0050506, 0.00316921, -0.00174098, -0.00374965, -0.0016696, -0.00609602, -0.00123167, 0.00432068, -0.00236676, -0.00291867, -0.00134228, 0.00108171, -3.93505e-05, 0.00689788, -4.09596e-06, 4.18456e-06, -4.40834e-05, -1.66571e-16
0.00345713, -0.00129754, 0.00309959, 9.3063e-05, -0.001669, -0.00220364, -0.00174092, -0.00105915, 0.00283518, -0.000843518, 0.00394683, -0.00586318, -0.0027949, -0.000555433, 0.00331148, 0.00367886, -0.00172094, -0.0035173, -0.00177023, -0.000943608, -0.00139017, 0.00199359, 0.00323403, 5.33804e-05, -0.0013814, 0.000528915, 0.00291236, 1.27417e-07, -0.00619042, -1.44533e-05, 4.87382e-05, 3.78681e-05, -1.6593e-16
0.00086923, -0.0166076, -0.000936037, -0.00165046, -0.00129578, -1.27202e-05, -0.000808573, 0.000525272, 0.00355351, -0.00202284, 0.00187333, 0.00126207, -0.00122843, 0.00141181, -0.0247624, 0.0103682, -0.0137826, -0.000860917, 6.69129e-05, 4.48467e-05, 0.00138455, -0.000124347, -0.00164705, 0.00119331, 0.00251188, -0.00238524, -0.00037726, 8.01889e-06, -0.0069847, -1.82825e-05, 4.15003e-05, -0.000111769, -8.5666e-17
0.00532936, 0.00424214, -0.0035457, -0.00113664, 0.00177304, -0.000701089, 0.00156076, -0.00329753, -0.00756394, 5.36086e-05, -0.00361738, 0.00265345, 0.00620935, -0.00161255, 0.0065862, 0.00271624, 0.00133082, -0.00530863, 0.000450435, -0.00390591, -0.00242728, -0.00132161, -0.00592475, -0.00586154, -0.0063141, -0.00148111, -0.00247751, 4.91823e-05, 0.00856918, -8.43349e-06, -1.43158e-05, -2.96093e-05, -5.11886e-17
-2.27649e-05, 0.0072089, -0.00291246, 0.00113275, 0.00155011, 0.00410572, 0.00131395, -0.0117372, -0.00323708, 0.00144816, 0.00804294, -0.000403693, -0.00862316, -0.00811128, 0.00788411, -0.00016063, 0.00526011, 4.81772e-05, -0.0140315, -0.0113843, -0.0112847, -0.0033169, -0.002622, -0.0123852, -0.0100621, -0.00554416, -0.00240162, 1.26319e-05, 0.0113368, -2.76371e-05, 3.15619e-05, -1.322e-05, -7.11012e-18
-0.0067083, -0.00300444, -0.000120631, 0.00487964, 0.0036556, 8.2761e-05, 0.0030489, 0.00316644, 0.00504296, 0.0035261, -0.00718672, -0.00234748, 0.00707562, 0.00874515, -0.00658241, -0.00623658, 0.000118574, 0.00674653, 0.00569045, 0.0026776, 0.00373077, -0.000335048, 0.0010551, 0.00154274, 0.00423227, 0.00245262, -0.000319639, 3.39356e-05, -0.00169601, 4.40155e-05, -7.71512e-05, 1.03162e-05, 1.11677e-16
0.0121225, 0.00657664, 0.00148909, 0.000965342, -5.98121e-05, -0.0010101, 0.000553427, -0.00574506, -0.00403435, 0.000272864, 0.000806921, -0.00504473, -0.00306098, -0.00517826, 0.00802578, 0.00795367, 0.00166353, -0.0121417, -0.00436877, -0.00296954, -0.00760645, -0.00171494, 0.00423595, -0.00388524, -0.00559613, 0.000594232, 0.000630116, -7.07696e-06, 0.0164394, 2.44511e-06, -4.57192e-05, -1.15096e-06, -2.29931e-16
-0.00907568, -0.0111635, 0.00120786, 3.09664e-06, 0.00176169, 0.005102, 0.00158159, 0.00340542, -0.00272587, 0.000975009, 0.00307234, 0.00628224, -0.00213995, -0.00398148, -0.0185634, -0.00539341, -0.00495838, 0.00915775, 0.000710358, 0.000787769, 0.00606176, -3.35278e-05, 0.00299557, 0.00334885, 0.00242007, -0.000341861, 0.00144406, 5.91638e-05, -0.00797727, 3.62351e-05, 2.29471e-05, 0.000125336, 3.5638e-17
-0.00625696, -0.00304949, 0.00253674, -0.00113891, 0.00243048, 0.00967627, 0.00270276, 0.002449, -0.00512039, 0.000757666, 0.00565665, 0.0117069, -0.00321943, -0.00647749, -0.00298432, -0.0039715, -0.000440814, 0.00614734, -0.0017012, -0.000434977, 0.00442229, 0.00662935, -0.00128074, 0.0040929, 0.00114614, -0.00191478, 0.00177665, 6.60607e-05, -0.0110418, -1.06845e-05, 2.43653e-06, 8.7039e-06, 2.36742e-17
0.00738046, 0.0155589, 0.000445721, -0.000637805, 0.000165685, -0.00243513, 0.000782096, -0.00867197, -0.00519968, -0.000325176, -0.00672767, -0.00683055, 0.00359344, -0.00176739, 0.0140623, 0.00786298, 0.00922449, -0.00741528, -0.0045354, -0.00619587, -0.0100491, -0.0056254, 0.00639904, -0.00406136, -0.00929263, 0.000149959, -0.000652083, 6.1766e-05, 0.0241554, -1.70199e-05, 3.12843e-05, 7.1743e-07, -2.0395e-17
0.00376438, 0.0144852, 0.00181594, 0.00203906, -0.00256386, 0.00182583, -0.00239387, -0.0086387, 0.0038032, -0.00157616, 0.0151642, -0.0148982, -0.0163538, -0.00836266, 0.0147141, 0.00437409, 0.00970164, -0.00377274, -0.0136428, -0.00796075, -0.00852405, 4.36141e-06, 0.00333794, -0.00735268, -0.00627061, -0.00236146, 0.00212888, 1.0881e-05, 0.0222421, 1.70221e-05, 1.3862e-05, -3.29976e-06, 9.87103e-16
0.00975239, -0.019611, 0.0117333, -0.0111695, -0.010416, -0.011519, -0.0106204, 0.0123295, -0.00367594, -0.00313904, -0.00163225, 0.00297299, 0.00333479, -0.000804304, -0.0199016, 0.00615799, -0.0165025, -0.00975461, 0.0137782, 0.0119541, 0.0119244, 0.0119681, 0.0106039, 0.0186698, 0.00767581, 0.00653984, 0.00939163, -1.26766e-05, -0.0138677, 7.27262e-05, 2.56166e-05, -1.06484e-06, 1.78785e-17
0.0213068, -0.0311174, 0.010082, 0.00407635, 0.00493817, -0.00091164, 0.00507172, 0.0197765, -0.00194933, -0.00259271, -0.0105953, 0.00170641, 0.0124771, 0.00679398, -0.0337495, 0.0185096, -0.0285085, -0.0213216, 0.0249686, 0.0189495, 0.0196923, 0.00979787, 0.00969522, 0.0243976, 0.0134811, 0.0101429, 0.00796175, -4.46454e-05, -0.0152476, 5.90532e-05, -7.94964e-05, -8.68286e-06, 3.7578e-17
0.00587328, 0.00534201, 0.000195209, 0.000892007, -1.41767e-05, 0.000118903, 0.000105227, -0.00584392, -0.00199195, -0.000424629, 0.00239064, -0.00427468, -0.00423555, -0.00459505, 0.00713029, 0.00420333, 0.00293214, -0.00584465, -0.00582833, -0.00400534, -0.00669282, -0.00167713, 0.00193338, -0.00431973, -0.00491468, -0.00209707, -0.0005106, 9.80539e-06, 0.0128087, 4.71321e-06, -2.24527e-05, 3.65455e-05, -5.18583e-17
0.0107089, 0.00760654, -0.000720243, 0.00318786, 0.00364456, 0.00124478, 0.00385528, -0.0080626, -0.00412697, -0.00146406, 4.25428e-05, -0.00512321, -0.00281604, -0.00618184, 0.00892901, 0.00760576, 0.0029454, -0.0107411, -0.00689254, -0.00480183, -0.0102637, -0.00299209, 0.00108156, -0.00694636, -0.00734057, -0.00197117, -0.00159731, 8.16219e-06, 0.0176431, -1.41107e-05, 4.39521e-05, -4.49338e-05, -2.61084e-17
0.00152515, 0.00311239, 0.000546457, 0.00110006, 2.05596e-05, -0.000327793, 0.000219031, -0.00230473, -0.00180416, 0.00153062, -0.00134236, -0.00173034, -0.00156641, -0.00281333, 0.00289739, 0.00215027, 0.00190191, -0.0016101, -0.00186912, -0.00106628, -0.00275948, -0.00253626, 0.00350579, -0.000301661, -0.00183682, -0.000852774, 0.000330099, 3.0611e-05, 0.00975256, 6.23378e-05, -1.98519e-05, -6.37161e-05, -3.29615e-16
0.00552516, 0.00261192, -0.00758119, 0.00116359, 0.00234869, -0.00201141, 0.00202811, -0.00339572, 0.00318327, -0.00601123, -0.00627354, -0.0012889, 0.00843654, 0.00861593, 0.00745831, -0.00183404, -0.000724552, -0.00559069, -5.8481e-05, -0.00269664, -0.00515726, -0.00147843, -0.0122778, -0.00688595, -0.0014302, -0.00236627, 0.000310577, -2.04397e-06, 0.00410827, 4.90514e-05, 3.1716e-05, 1.06312e-05, -1.64517e-16
0.001169, 0.0105588, -0.00111056, -0.000771753, 8.53965e-05, -0.000777744, 0.000310613, -0.00787398, -0.00144261, 0.000661037, -0.00350334, -0.00259975, 0.00339871, 0.00143529, 0.00872842, 0.00231191, 0.00681253, -0.00123988, -0.00527077, -0.00835172, -0.0071733, -0.00142109, -0.000968816, -0.00583537, -0.00738124, -0.00205604, -0.00144282, 7.37266e-05, 0.0131329, -3.00974e-05, 7.19362e-05, -8.24763e-05, 4.46815e-17
-3.57772e-05, 5.00111e-05, 0.000249065, -9.70804e-05, -0.000174523, -0.000178296, -0.000187305, 5.13979e-05, 8.91045e-06, -3.52214e-05, -6.00967e-05, -0.000103546, 6.46569e-05, 2.06478e-05, -2.18449e-06, -9.38245e-05, 0.000103307, 9.08459e-05, 6.85366e-05, -4.41755e-05, 2.36164e-06, 0.000202412, 0.00017539, 0.000153102, -1.53373e-05, -8.28122e-07, 0.000147654, -1.53538e-05, -1.60924e-05, -4.07889e-05, 1.90478e-05, -6.03695e-05, -2.24576e-16
-0.00670689, -0.0062191, 0.00269495, 0.000486872, 0.00120125, 0.000414135, 0.00138766, -0.00171458, -0.00238433, -0.00323738, -0.00654671, 0.00356218, 0.00548552, 0.00316985, -0.0169603, -0.00497732, -0.00185669, 0.00655153, 0.000779275, -0.00268654, -0.000364246, -0.0034682, 0.00951617, 0.00176952, -0.000685451, 0.000992576, 0.000992355, -2.92743e-06, 0.00652405, 4.66809e-05, -1.61275e-05, -1.56861e-05, 4.15037e-17
0.0125293, 0.010394, 0.00381707, 0.00309123, -0.00289692, -0.000701416, -0.00234407, -0.00360425, -0.00181774, 0.00163583, 0.00828241, -0.0111117, -0.0107054, -0.00842629, 0.014829, 0.00896608, 0.00477118, -0.0125849, -0.00590686, -0.00107844, -0.00546051, -0.00198259, 0.00938078, -0.00223247, -0.00461257, 0.00498504, 0.00365045, -7.91519e-06, 0.0140191, 2.71597e-05, 2.2324e-05, -2.21629e-06, 7.10104e-17
-0.0102464, -0.00988596, 0.00409389, -1.60288e-05, 0.00101866, -3.73929e-05, 0.000896077, -0.00109108, -0.000449804, -0.00132343, -0.00791672, 0.00268687, 0.00464963, 0.00385466, -0.023945, -0.0109359, -0.0028628, 0.01021, 0.00112135, -0.00178945, 0.000698546, -0.00576643, 0.0147497, 0.0028361, 0.000783162, 0.00066649, -0.000231956, -5.11008e-05, 0.0125776, 6.52615e-05, 4.70551e-06, 3.66564e-05, -9.45342e-17
0.0052507, -0.0175227, 0.00279086, -0.000623372, 0.000103001, -0.000117083, 4.54104e-05, 0.0167239, -0.00239185, -0.00181094, 0.000889317, 0.00334435, -3.69191e-05, -0.00310333, -0.0170943, 0.000794807, -0.0133742, -0.00523889, 0.0155506, 0.0163482, 0.0162432, 0.00301792, 0.00255175, 0.0138555, 0.0116334, 0.0082573, 0.0023282, 4.19223e-06, -0.0156214, 8.62145e-06, 1.66591e-05, 3.64889e-05, -2.40711e-16
-0.00426134, -0.0130913, -0.000537696, -0.00219853, -0.00148208, -0.000426228, -0.0013083, -0.000219707, 0.00171487, -0.00122944, -0.00198319, 0.00192653, 0.00113331, 0.0011321, -0.0216425, 0.0017449, -0.00847862, 0.00421383, -0.000631468, -0.00120356, 0.000934019, -0.00205937, 0.00130573, -0.000958715, 0.00172138, -0.00101188, 0.00062298, 2.7864e-05, -0.00496348, 3.18366e-05, 3.82235e-05, -1.04103e-05, 1.10441e-16
0.000106068, -0.000211525, -0.000661138, 0.000138467, -0.00171732, 0.000477086, -6.51602e-05, 0.000915219, 0.00076376, -0.00158969, -0.00204171, -0.0010436, -0.000725379, -0.000180689, 0.000290884, -2.58876e-05, 0.000318518, -0.00021427, -3.32819e-05, 0.000521288, -0.00110477, 0.00036641, 0.000379651, -0.000326923, -0.000122673, -0.00163081, -0.00166431, -5.57848e-05, -0.000767553, 0.00101292, -0.0011807, -0.000261072, 0.000423392, 0.00037065, 0.000672663, -0.000572141, -0.000946124, -0.000990247, -0.000792455, 3.69488e-05, -0.000178038, 8.81662e-05, 0.000402213, 0.000887349, -0.00165748, -0.000254751, -0.000934383, -0.00166331, -0.000309817, -0.000702125, 9.75145e-05, -0.00045559, 0.000293104, -0.00125377, 0.000407516, 0.000236115, -0.000823783, 0.000331392, 6.87121e-05, -0.00152818, 0.000383117, -0.000869022, -0.00119809, 0.000414451, -0.000629651, 7.32194e-07, 0.00039292, -0.000747905, -0.000186976, 0.000126965, 0.000480947, -0.000873189, 0.000631906, -0.000747844, -0.000100306, -0.00226318, -4.88158e-05, -0.000962543, 0.000565106, -0.00122302, 0.00010233, 0.000126557, -0.000693043, 7.24073e-05, 0.00147229, 0.000566725, 0.000665328, 0.000608907, -9.14528e-05, -0.00016302, -0.000596266, -0.00109834, -0.000406232, -5.73616e-05, -0.000658014, 0.000484825, -0.00199718, -0.000654309, -6.61006e-05, -0.00132559, -0.000352382, 0.000507941, -3.76711e-05, -8.12131e-05, 0.000202685, -0.000381596, -0.00172794, -0.000384934, 0.00066526, 0.000240842, 0.000300202, -0.00108768, -0.000335364, -0.000753069, -0.000212817, -0.000436092, -0.000171227, 0.000254398, -0.000413431, 9.73565e-05, -0.0011449, -0.00146653, -2.01802e-05, 0.00051762, 0.000938018, -0.00032097, -0.000946461, -0.00137215, -1.98186e-15
0.00128876, 0.000897969, 0.000103495, -0.000745072, -0.00180841, -0.00106544, 0.000789799, 0.000278315, -0.00421811, -0.00169118, 0.00260826, -0.000601227, 0.00374576, -0.00335523, 0.000791787, -0.00304246, 0.000899888, -0.00150716, -7.35996e-05, -0.00118315, 0.000377437, 0.00179649, -0.00175285, -0.000275849, -0.00029222, 0.000862328, -0.00120312, -0.00090503, 0.000310109, -0.00253007, -0.000130301, 0.00234581, -0.000607925, -0.000841348, -0.001206, -0.00107126, 0.000235984, -0.00505312, -0.00051585, -0.000915476, -0.00183181, 0.000538802, -0.00356658, -0.00275666, -0.00550278, -0.00353369, -0.00229189, -0.00394176, 0.000617527, -0.000808926, -0.00224465, 0.00148989, 5.94896e-05, -0.000620071, -0.00439122, -0.00314669, 4.57859e-05, -0.00043498, -0.000888535, -0.00442645, -0.00119126, -0.00391681, 0.00583005, -0.000842281, -0.000309767, 4.93139e-05, -0.000966731, -0.00256359, -0.000412592, -0.00121693, -0.00119412, -0.00200924, 0.000822859, 0.000934587, 0.00119762, -0.00653947, -0.000195068, -0.00071364, 0.0010016, -0.0015136, 0.000478014, -2.75526e-05, -4.55371e-05, -0.000137816, -0.00419784, -0.00107772, -0.00378732, 0.00055577, -0.000257277, -0.00116406, -0.00167324, -0.00223734, 0.000446791, -0.000175389, 0.00178586, -0.000257892, -0.00197991, 0.000467808, -0.00274953, -0.0034523, 0.000331729, -0.00128166, -0.00309995, -0.000196147, -0.000797127, 0.000715186, -0.00289267, 0.000685687, 0.000562101, -0.00144737, -0.00151879, -0.00247815, 0.000805665, -0.000509548, 0.00175267, 0.00198923, 0.00087691, 0.000465536, 0.00175381, -0.00101218, 0.00148114, 0.00100681, -0.000198538, -0.00174372, -0.000359372, -0.00298573, 0.00161952, -0.00380552, 8.82379e-16
0.0029866, -0.00395091, -0.00124387, -0.000775505, 0.0039162, -0.00316172, -0.00420831, -0.000451091, 0.00622613, 0.00322028, -0.00399235, 0.00166748, -0.00684457, 0.0049964, 0.000768257, 0.00486638, 0.00297109, 0.00331009, -1.7825e-05, -0.00309438, 0.00130631, -0.00227813, -0.00393757, -0.00154202, -0.00429045, -0.000607386, 0.00190434, -0.00168472, 0.00223557, 0.00480942, -0.00057417, -0.00447125, -0.00429783, -0.0023413, -0.00332674, 0.0011741, -0.000682105, 0.00573904, 0.00081822, -0.00084598, 0.00485642, -0.00256098, 0.00440033, -0.00445618, 0.00496216, 0.00548372, 0.00442387, 0.004643, -0.00278814, 0.00103232, 0.00310872, -0.00513159, -0.000731109, 0.00392801, 0.00506016, 0.00383948, -0.00351875, -0.004708, -0.00269725, 0.00498001, -0.00288153, 0.00508992, -0.00501026, -0.0036417, -0.000357566, -3.34433e-05, -0.00346794, 0.00487843, -0.00217014, -0.00137291, 0.00396599, 0.00306191, -0.0012842, -0.000533582, -0.0030104, 0.00530338, -0.000170856, 0.00099191, -0.00553951, 0.0026574, -0.00545335, -0.00402663, -0.000833949, 0.00324862, 0.00620651, 0.00452743, 0.00457634, -0.00025382, -0.00070163, 0.00257394, 0.00458667, 0.00426558, 0.000517782, 2.43591e-07, -0.00342461, -0.000775483, 0.00376336, -0.00206709, 0.00468087, 0.00527574, -0.00409981, -0.00234117, 0.00499443, 0.001343, -0.00172589, -0.0020612, 0.00443691, -0.000490862, -0.00144895, 0.00219142, -0.00287556, 0.00260686, 0.000171033, -0.00448778, -0.00353313, -0.00414312, -0.00207613, -0.00165092, -0.00553015, -0.000794519, -0.00291531, -0.00260799, 3.22667e-05, 0.00464439, -0.00296557, 0.00534168, -0.00529306, 0.00371324, 4.31611e-16
-2.98573e-05, -1.80405e-06, -2.12464e-05, -9.67692e-05, -6.69914e-05, -3.06546e-06, -7.17996e-05, 2.00549e-05, -1.05792e-06, -0.000137071, -3.24849e-05, 4.24604e-05, 1.25949e-05, -1.28286e-05, -2.5791e-05, 7.65533e-05, -1.15436e-07, -2.47856e-05, -1.57646e-05, 9.83987e-07, -3.19107e-05, -4.14646e-06, -6.81511e-05, -7.01977e-05, 2.64004e-05, -3.00695e-06, -2.75966e-05, -3.37842e-05, 7.81351e-05, 8.69268e-05, -2.16093e-05, 3.14988e-05, 1.54091e-05, -3.84515e-05, -2.60886e-05, -4.22493e-05, -1.22397e-05, -5.45147e-05, -1.17461e-06, -6.13584e-05, 2.97621e-05, -2.5165e-05, -1.30461e-05, -1.21548e-05, -3.90157e-05, -1.93684e-05, -1.31701e-05, -0.000100698, 4.69467e-05, -1.60441e-05, 3.94905e-05, 4.32278e-05, -6.33397e-05, 1.01003e-05, 2.94852e-05, -9.35121e-05, 3.3435e-05, 1.60902e-05, 4.60097e-05, -4.66253e-05, -2.82649e-05, -5.68236e-05, -6.5474e-05, -4.11542e-06, -7.25784e-06, -1.46224e-05, 8.78955e-06, -7.06386e-06, -3.58835e-05, -4.05644e-05, 6.4365e-05, -1.45261e-05, -1.18039e-06, -7.55667e-05, 2.91847e-05, -0.00011909, -5.23576e-05, -3.65063e-05, 1.43974e-05, -2.25252e-05, 1.98466e-05, -6.24164e-06, -0.000122352, 2.45058e-05, 2.57869e-05, 2.83413e-05, 1.22928e-05, 2.08049e-05, -3.36182e-05, -3.75448e-05, 2.11689e-05, -6.32286e-06, -3.73891e-05, -7.30765e-05, -2.6906e-05, -4.47477e-05, 4.77704e-05, 4.73757e-05, 3.19672e-05, 3.25314e-05, -5.19547e-05, -1.79647e-05, -7.89275e-05, -6.40728e-06, -2.75013e-05, -2.86418e-05, 9.39942e-06, -1.03235e-05, -1.10348e-05, 4.56757e-05, -6.99879e-05, -7.23229e-05, 3.07807e-05, -1.31104e-05, 5.6304e-05, 2.30921e-05, 6.69082e-06, 4.62033e-07, -2.28238e-05, -9.6418e-05, 3.09662e-07, -4.45187e-05, -7.1287e-05, 1.08708e-05, -5.98993e-05, 6.11373e-05, -3.90064e-05, -2.66948e-05, 1.0551e-16
0.00147998, 0.00406052, -0.000279248, 0.0016368, -0.006709, 0.00316124, 0.00244294, 0.00341751, 0.00573623, -0.00369099, -0.00430868, -0.0038614, 0.00221616, -0.00233229, 0.00394876, 0.00406897, 0.00114349, -0.00340629, -7.18548e-05, 0.00282382, -0.00329038, 0.00197314, 0.00288957, -0.000263443, 0.00398789, -0.0052609, -0.0068828, 0.00295254, -0.00272277, 0.00415783, -0.00406433, 0.0046412, 0.00465007, 0.00267781, 0.00282381, -0.000713339, -0.00165554, -0.00434179, -0.00225852, 0.00153006, -0.00177638, 0.00394545, -0.00120769, 0.00414545, -0.00839391, -0.00513911, -0.00259768, -0.00704759, 0.00104731, -0.00312027, -0.0017886, 0.00393717, 0.00298504, -0.00491749, -0.000149461, 0.00135905, 0.00185143, 0.0035575, 0.00428242, -0.00225421, 0.00267522, -0.00239242, -0.00395881, 0.0039965, -0.00186495, 0.00022132, 0.00260114, -0.00196919, 0.000355559, 0.00273784, -0.000831621, -0.00298637, 0.00041175, 0.00038474, 0.000881882, -0.00855558, 0.00057555, -0.00293122, 0.00511042, -0.00282489, 0.00164611, 0.00284248, -0.000515969, -0.00288681, 0.00267242, -0.00228684, 9.50706e-05, 0.00211849, -0.000298086, -0.00152691, -0.00336621, -0.00103484, -0.00130295, -2.97612e-05, -0.00134351, 0.00269643, -0.00810898, 0.000693946, 0.000846309, 0.00114058, 0.00341347, 0.0024891, -0.00124449, -0.0026783, 0.00286666, -0.000693255, -0.00316279, 0.00479869, 0.00191484, -0.00272918, 0.00369268, -0.00430252, -0.0093007, 0.00355742, -0.00031653, -0.000745559, 0.000179687, 0.00280846, 0.00548395, 0.00250394, -0.00181313, 0.00139461, -6.91601e-06, -0.000353989, 0.00276147, -0.000162044, 0.000337165, -0.00036262, 1.82791e-16
0.00206381, 0.000307682, -0.000636991, -0.000152832, -0.0056203, 0.00197279, 0.00242883, 0.00181857, -0.00318947, -0.00311859, -0.00146811, -0.00249269, 0.000186926, -0.00390136, 0.00121641, -0.00201128, 0.00148442, -0.00295314, -0.000347331, 0.00273593, -0.00114327, 0.000409807, 0.00135738, -0.000333349, 0.00363191, -0.00187417, -0.00413507, 6.51067e-05, -0.000963036, -0.00159117, -0.00147659, 0.00111752, 0.00225912, 0.00133196, 0.00231635, -0.00145786, 4.11311e-05, -0.00545843, -0.00146112, -0.000353858, -0.0045199, 0.00119247, -0.00332988, 0.00172971, -0.0074028, -0.00571569, -0.00262809, -0.00700666, -0.000395675, -0.00209219, -0.00233763, 0.00139344, 0.000586928, -0.00234911, -0.00376495, -0.00216677, 0.00262287, 0.00623989, 0.00147414, -0.00601498, 0.00177414, -0.00360033, 0.00171084, 0.00234951, -0.000662682, -0.000149658, 0.00347873, -0.00524493, 0.00165186, -4.79791e-05, -0.00428083, -0.00246191, 0.00248814, 9.98208e-05, -0.00014285, -0.00721343, 0.000158797, -0.00195616, 0.00533772, -0.00218398, 0.00382456, 0.00207034, -0.00085138, -0.0018143, -0.00296856, -0.00330577, -0.0025926, 0.0013821, -0.000461169, -0.00207374, -0.00206635, -0.0039057, 0.000912901, -0.000467536, -0.000636083, 0.00101126, -0.00537722, 0.00104527, -0.00334129, -0.00342566, 0.00201335, 0.00128175, -0.00304497, -0.00136825, 0.000414436, 0.0026269, -0.00295581, -0.000594637, 0.00253844, -0.00248113, 0.00220248, -0.00413732, -0.00316544, 0.00131308, 0.00550184, 0.000606769, -0.00100561, 0.00158498, 0.0013619, 7.83565e-05, -0.000966092, 0.00166879, -0.000226742, -0.00401022, 0.0036599, -0.00444557, -3.02067e-05, -0.00283768, -1.38547e-16
-6.43565e-05, 1.90708e-05, -8.10531e-06, -0.000122633, -1.76749e-05, -2.96813e-06, -2.05704e-05, -2.04788e-05, -6.88939e-06, -0.000123816, -1.57463e-05, 3.89365e-05, 8.40212e-05, 2.7609e-05, -2.94788e-05, 8.87147e-05, -2.00242e-05, -6.29403e-05, -6.33611e-05, 9.25951e-05, 1.57106e-05, -3.01398e-05, -6.53244e-05, -1.51182e-05, 2.1466e-05, -4.97614e-05, 8.61565e-05, -3.55271e-05, 1.51019e-05, 5.98121e-05, -3.97295e-06, -1.90205e-05, -4.45173e-05, -1.99219e-05, -3.17351e-05, -8.59177e-05, 5.84986e-07, -4.85261e-05, 7.46378e-07, -7.48316e-05, 2.96591e-05, -1.18338e-05, 1.22778e-05, -2.44568e-05, -0.000111527, -2.67844e-05, -4.66414e-05, -2.9891e-05, 2.29757e-05, -7.35255e-06, 1.53963e-05, 8.82358e-05, -2.71387e-05, 6.49064e-05, 4.9709e-05, 1.26796e-05, 2.57636e-05, 1.66023e-05, 5.21886e-05, 1.97111e-05, -3.37787e-05, -8.76688e-05, -2.04141e-05, -7.0599e-05, -4.27033e-06, 1.58448e-05, -2.45445e-07, 3.68001e-05, -6.5197e-05, -4.34444e-05, 4.64145e-05, -8.3459e-06, 4.18881e-05, -7.66596e-05, 1.87099e-05, -4.07853e-05, -7.75769e-05, -4.48263e-05, -4.90033e-05, -2.5692e-05, 7.27691e-05, -1.09231e-06, 5.05347e-06, 1.23692e-06, 7.04348e-06, 4.15066e-06, 8.18992e-05, -4.39265e-05, -6.2064e-05, -9.41618e-06, 1.75807e-05, 5.17662e-05, -2.37911e-06, -9.34065e-05, -1.23789e-06, -1.90801e-05, 2.25525e-05, 3.82861e-05, 2.87472e-05, 2.86736e-05, -2.97786e-05, -5.45444e-05, -2.59938e-05, -3.83106e-05, -3.45794e-05, -1.55853e-05, -1.75347e-05, -4.17125e-05, -4.15478e-05, 4.13427e-05, -4.85544e-05, 6.96741e-06, 5.17385e-05, 1.93323e-05, -1.63328e-05, -2.05875e-05, -6.31929e-05, 3.13208e-06, -1.00941e-05, -8.38058e-05, -1.20357e-05, -2.74428e-05, -1.0236e-05, 1.2587e-05, -7.13768e-05, 7.81202e-05, -1.40428e-05, 3.74448e-05, 4.22643e-16
-3.42564e-05, 0.00194264, -0.00103558, 0.00086536, -0.00452154, 0.00178717, 0.000907527, 0.000981236, 0.00386331, -0.00541501, -0.00413438, -0.00504376, -0.000401118, -0.00115453, 0.000561688, -8.82407e-05, -0.000374875, -0.00228649, -2.88312e-05, 0.00123137, -0.00445639, 0.000140378, 0.000717327, -0.000628075, 0.00210097, -0.00510678, -0.00644046, 0.00192126, -0.0037668, 0.00193861, -0.00385752, 0.0011607, 0.00287155, 0.00124093, 0.00103482, -0.00134377, -0.00233442, -0.00110377, -0.00306514, 0.0013737, -0.00069092, 0.00238727, 0.000546525, 0.00226723, -0.0031119, -0.00237463, -0.00230959, -0.00379705, -0.000334018, -0.00380942, -0.000452095, 0.00267029, 0.00151869, -0.00293477, 0.00179085, 0.00159672, -0.000641743, 0.00112216, 0.00209218, -0.00272669, 0.00126148, -0.00178342, -0.00376568, 0.00194643, -0.00230791, -0.000107593, 0.00120894, -0.00214554, -0.000533486, 0.00187399, -0.00119422, -0.00491023, -0.000676231, -0.00137919, 0.000373316, -0.00411884, 0.000320114, -0.0040672, 0.000890363, -0.00422329, 3.25081e-05, 0.000289687, -0.00122299, -0.00238102, 0.00322391, -0.000738169, 0.00156817, 0.000680689, -0.000541066, -0.00132298, -0.00501353, -0.00305093, -0.00139295, -5.69263e-05, -0.000878827, 0.00168524, -0.00748691, -0.000919943, 0.000102665, -0.00364129, 0.000697501, 0.00159231, -0.000298966, -0.0025013, 0.00156386, -0.00172116, -0.00514204, -0.000489512, -3.30908e-05, -0.00197343, 0.00147671, -0.00237323, -0.00488346, 0.00021921, -0.0016024, -0.000244806, -0.000405267, 0.00124862, 0.00179427, 0.00201656, -0.00338272, -0.00095818, -7.95148e-05, 0.00022569, 0.00180867, 0.000874033, 0.000480905, -0.00243558, -3.43643e-16
0.00719779, 0.000137052, -0.00410707, -0.00107346, -0.00968105, 0.00050891, 0.00159355, 0.00777006, -0.0153085, -0.00298108, -0.001182, -0.00312287, -0.0022514, -0.0114037, 0.00848719, -0.0104918, 0.00712785, -0.0045172, -0.000257673, 0.0037455, -0.000388008, -0.00565517, -0.00189265, -0.00301729, 0.00160695, 8.94072e-05, -0.0132975, -0.00161173, 0.000607733, -0.00747474, -0.00123323, 0.00193137, -0.000487392, -0.000173709, 0.00260194, -0.00279682, -0.0048829, -0.0137095, -0.00272538, -0.00145272, -0.0092094, 0.000497697, -0.0102911, 8.15287e-05, -0.0127531, -0.00672398, -0.007011, -0.0134905, -0.00783711, -0.0023693, -0.00680997, -0.0138435, 0.00381502, 0.00160334, -0.0126306, -0.00798021, 0.00224762, 0.0106585, -0.00135375, -0.0157012, -9.30939e-05, -0.010071, -0.00461532, -0.000257579, -0.000501924, -0.000735262, 0.00570372, -0.00937621, 0.00312805, -0.00215198, -0.00426655, -0.00475809, 0.00883636, -0.00726131, -0.00396527, -0.0124662, -0.000285102, -0.00374355, 0.00343338, -0.00242681, 0.000330096, 0.000961844, -0.00378039, -0.00672112, -0.00984805, -0.00533717, -0.0109089, 0.00592992, -0.00225463, -0.00226501, -0.00214146, -0.00781694, 0.00288528, -0.000398128, -0.00113563, 0.00290481, -0.0150654, -0.00411927, -0.010818, -0.0120688, 0.000253898, 0.00132339, -0.00712099, 0.000429553, -0.00142299, 0.00422947, -0.00499839, 0.00834298, 0.00765778, -0.00480352, 0.000304471, -0.00774595, 0.000407332, -0.00114697, 0.0165636, -0.000809135, -0.00419539, 0.00699172, 0.00124854, -0.0019077, 0.00890638, 0.00125235, -0.000242367, -0.00443759, 0.00990766, -0.0123794, -0.0072111, -0.0102975, -1.08799e-16
-7.31063e-05, 0.00107289, -1.60832e-05, 0.000316912, -0.00686114, 0.00299827, 0.00446015, 0.000192272, -0.00666456, -0.00274399, 0.000841817, -0.00189273, -0.000441351, -0.00655859, -0.000822831, -0.0050169, -0.000946359, -0.00350854, -5.59055e-05, 0.00343103, -0.000388762, 0.000696493, 0.00244637, 2.88712e-05, 0.00474763, -0.00102336, -0.00404568, 0.000883867, 0.000204851, -0.00395021, -0.00100308, 0.0019146, 0.00358132, 0.0021922, 0.00341104, -0.00104905, 0.001044, -0.00829986, -0.000934082, -1.40429e-06, -0.00527078, 0.00192495, -0.00583907, 0.0020177, -0.00483606, -0.00859838, -0.00349753, -0.00382963, 0.000832342, -0.000727585, -0.00423372, 0.00285088, 0.000462819, -0.00384868, -0.00696906, -0.00442008, 0.00415767, 0.00754868, 0.00192409, -0.00501729, 0.00261371, -0.00540459, 0.00503665, 0.00375069, -0.000397664, -6.39235e-05, 0.00467784, -0.00634752, 0.00235277, 0.000453293, -0.00597179, -0.00297988, 0.00163267, 0.000869999, 0.00148805, -0.00554299, 0.000361253, -0.000872784, 0.00625817, -0.00196011, 0.00590733, 0.00289143, -0.000280251, -0.00247644, -0.00617461, -0.00449618, -0.00559551, 0.000316193, -0.000315556, -0.00348525, -0.00195091, -0.0047024, 0.00120011, -0.000162791, 0.00187757, 0.00055742, -0.00614575, 0.000732539, -0.00514807, -0.00683657, 0.00309109, 0.0018179, -0.00596172, 0.000113156, 0.00109169, 0.00620382, -0.00351654, -0.00341089, 0.00093773, -0.0034861, 0.00204185, -0.00229661, 0.000326222, 0.00218936, 0.00589255, 0.00393489, 0.000692348, 0.000963134, 0.00226655, 0.000620583, -0.000205375, 0.00227273, -0.000156981, -0.00640426, 0.00483239, -0.00761371, 0.00309356, -0.00423117, -3.58914e-16
-0.00643629, 0.00684398, 0.000661842, -0.00069812, -0.0154797, -3.0357e-05, 0.00462786, -0.00331078, -0.0203744, -0.0125377, 0.0109736, -0.00767593, 0.0124203, -0.0176784, -0.00589757, -0.0157326, -0.00631825, -0.0073231, -6.25259e-05, -0.00192958, -0.00773467, 0.00675618, -0.00076165, 0.0017237, 0.00206339, 0.000908412, -0.00793096, -0.000602008, -0.00784585, -0.0146332, 0.00058647, 0.00900754, 0.00237412, -0.000358929, -0.00127106, -0.00467879, -0.00121906, -0.0191419, -0.00483669, -0.000636051, -0.0108075, 0.00336395, -0.0149727, -0.00120694, -0.0182121, -0.0158011, -0.0117729, -0.018311, 0.00489805, -0.00549526, -0.00971355, 0.0118451, 0.000298076, -0.00876071, -0.0169796, -0.013676, 0.00113162, -0.00101501, -0.000211044, -0.0199098, -0.000103383, -0.0159803, 0.0142628, 0.000366735, -0.000161043, -0.000988592, -0.00160813, -0.0133145, -6.38604e-05, -0.00124273, -0.00801502, -0.0115498, -0.00460969, 0.000410186, 0.00617979, -0.018583, -0.000290119, -0.00533321, 0.00192139, -0.0105289, 0.00400091, 3.16125e-05, -0.000212317, -0.00721657, -0.0185762, -0.0087311, -0.0157362, -0.00172966, 0.000854397, -0.00515444, -0.0129118, -0.0139634, -0.00172994, -8.91682e-05, 0.00645997, -7.42377e-06, -0.0148643, 0.00114335, -0.0157747, -0.0176182, 0.00302338, -0.000919303, -0.0127003, -0.00589627, -0.000728563, 0.00200122, -0.0156718, -0.00139539, -0.00343262, -0.0092507, -0.000590712, -0.0110018, -0.00166222, 0.00191439, -0.00360664, 0.00856513, 0.00405066, 0.00063434, 0.0101833, -0.00106063, 0.000643498, 0.000350991, -8.8938e-05, -0.0103724, -0.00197252, -0.0145131, 0.0110825, -0.0127827, 1.99684e-16
0.00104271, 0.00173002, -0.000452013, 0.000591481, -0.00423513, 0.00122532, 0.00106041, 0.000490787, 0.00205946, -0.00343777, -0.000789018, -0.00297177, 0.00237588, -0.000867381, 0.00128607, 0.001057, 0.0008321, -0.0018596, 0.000104379, 0.000800832, -0.00263318, 0.00132931, 0.000908975, -0.000255935, 0.00124209, -0.00266145, -0.00479116, 0.000828069, -0.00283718, 0.00172847, -0.0026372, 0.0025013, 0.00203832, 0.0010941, 0.00117531, -0.000980621, -0.00128461, -0.0037978, -0.00190962, 0.000515801, -0.000711191, 0.00154293, -0.000578251, 0.00126825, -0.00568215, -0.00279979, -0.0025656, -0.00413474, 0.00015767, -0.00238877, -0.000788545, 0.00237157, 0.000985428, -0.00407958, -1.88613e-05, 0.000487964, 0.000473143, 0.00215406, 0.00102299, -0.00259495, 0.00136628, -0.00303334, 0.00084174, 0.0018434, -0.000773869, 0.000212541, 0.000655899, -0.00168307, 2.83092e-05, 0.000780606, -0.000948529, -0.00337546, -0.000745809, 0.000676525, 0.000411256, -0.00662016, 0.000225301, -0.00253954, 0.000991672, -0.00307321, 0.00203404, 5.21874e-06, -0.000491058, -0.000416566, 0.00135615, -0.000260766, 0.000301312, 0.000505949, -0.000299844, -0.00134924, -0.00396702, -0.00144717, -0.000641916, 6.11467e-05, -0.000347758, 0.000639024, -0.00571736, -6.84461e-05, 0.000216408, -0.0024979, 0.000416243, 0.000666908, -0.00140051, -0.00164212, 0.000866429, -0.000957779, -0.00420256, 0.00152898, 0.000133387, -0.000941997, 0.000787888, -0.00260658, -0.00266805, 0.000353242, -0.000613197, 9.72976e-05, -4.10975e-05, 0.000777296, 0.00237524, 0.00105628, -0.0010564, -0.00014189, 3.11704e-05, -0.00096119, 0.00127965, -0.00116244, 0.000425007, -0.00219996, 1.65814e-16
0.00085276, 0.00129968, -0.000311732, 0.000544429, -0.00344886, 0.00123267, 0.00106747, 0.000856896, 7.10216e-05, -0.0041651, 0.000354059, -0.0033265, -0.000449378, -0.000775089, 0.00120148, -0.000123818, 0.000573239, -0.00238772, -1.27527e-06, 0.000958925, -0.00271851, 0.000711083, 0.00131672, 4.5311e-05, 0.00148613, -0.00158404, -0.00398387, 0.00107737, -0.00312149, 0.000396453, -0.00168235, 0.00157629, 0.00181298, 0.00107321, 0.00117175, -0.00130013, -0.000954544, -0.00250942, -0.00207197, 0.000465844, -0.00100608, 0.00123132, -0.000250716, 0.00112419, -0.00693475, -0.0011249, -0.00264828, -0.00478025, 0.000660116, -0.00282924, -0.000309812, 0.00304809, 0.000851584, -0.00215278, -0.000151982, -0.000198224, 0.000818983, 0.0020901, 0.00140532, -0.00334252, 0.00134959, -0.00218299, 0.0022062, 0.00175147, -0.000548524, 6.57194e-05, 0.000998832, -0.00271095, 0.000305051, 0.000880358, -0.00156198, -0.00391913, -6.21131e-05, 0.000289787, 0.000932785, -0.00801854, 0.000211357, -0.0029671, 0.00403718, -0.00357704, 0.00143635, 0.00253014, -0.000378654, -0.000435473, 0.000857807, -1.13707e-05, 0.000444737, 0.000455546, -0.000194736, -0.00163861, -0.00420481, -0.00282273, -0.000719977, -4.353e-05, -8.86329e-05, 0.000799446, -0.0053846, 0.00032342, -0.00047641, -0.00320007, 0.00242823, 0.000889534, -0.000291034, -0.0017391, 0.0009813, -0.00102979, -0.00454487, -0.000564711, 0.000658512, -0.000931832, 0.000800366, -0.00297867, -0.00308347, 0.00178707, 0.000701089, 0.000771083, 0.000159422, 0.000693624, 0.00167186, 0.000971464, -0.00260616, 0.000985829, -4.89317e-05, -0.00110762, 0.00108231, -0.000574102, 0.000979159, -0.0024439, 8.31393e-16
-0.000513218, -0.000415594, 0.000168897, -0.000103068, 2.21068e-05, -0.000249815, -0.000445391, -0.00112213, 0.00306509, -0.000673379, -0.00121989, -0.000191871, -0.00406202, 0.00176582, -0.00144818, 0.00214099, -0.000842648, 0.00178211, -6.69737e-05, -0.00164594, -0.00122003, 0.00204333, -0.000801532, -0.000390524, -0.000187013, -0.000946678, 0.00225234, -5.31181e-05, -0.00170176, 0.00210045, -0.000382041, -0.000779916, 8.73375e-05, -0.000374036, -0.00129106, -9.44045e-05, -0.000545066, 0.00146558, -9.45753e-05, 7.45104e-05, 0.00314479, -0.000321437, 0.0016562, -0.000270787, 0.000399597, 0.000830429, 0.00217867, -0.000430197, 0.00140478, -0.000994343, 0.00120069, 0.00281297, -0.000751439, 0.000349565, 0.00216298, 0.00117934, -0.00115704, -0.00279599, -0.000178644, 0.000294852, -0.000478836, 0.000595858, -0.00246856, -0.000342915, -4.15241e-05, -0.00027074, -0.00207015, 0.00195116, -0.000653609, 6.59628e-05, 0.00285377, 0.000731495, -0.00157775, 0.000236326, 0.000540279, 0.000764715, -0.000126303, -0.000501386, -0.000394641, -0.000329104, -0.000856632, -0.000574821, 3.25004e-06, 0.0034745, 0.00251672, 0.00389463, 0.00211824, -0.000952531, -0.000152334, 0.00203007, 7.11771e-05, 0.000638297, -0.000432503, -6.64351e-05, -0.00048475, -0.000750925, 0.00238638, 4.69439e-06, 0.00135208, 0.00235756, -0.000238316, -0.000646855, 0.00361569, -0.00143762, -0.000166592, -0.00152271, 0.000348237, -0.00291274, -0.00127825, 0.00104912, -5.40434e-05, -0.000299742, -0.00121421, -0.000484941, -0.00342714, -0.00035517, 0.000868751, -0.00130065, -0.000432717, -4.87523e-06, -0.00512013, -0.00203341, -3.03649e-05, 0.00336196, -0.00232536, 0.00366189, 0.000330845, 0.00129088, 1.24449e-16
0.00195366, 0.00556898, -0.000996841, 0.00234801, -0.0123715, 0.00590556, 0.00688131, 0.00381222, 0.00445034, -0.00560771, -0.0037592, -0.00580582, 0.00082924, -0.00154182, 0.00456108, 0.00300121, 0.0014987, -0.00632413, 1.04763e-05, 0.0072498, -0.00489012, 0.00319681, 0.00659275, -0.000133818, 0.00766574, -0.00698947, -0.011416, 0.00295038, -0.00257383, 0.00351831, -0.00654256, 0.0057058, 0.00816582, 0.00539601, 0.00731411, -0.00138847, -0.00308816, -0.00744718, -0.0035547, 0.00110862, -0.00482136, 0.00605132, -0.00122183, 0.00752818, -0.0155938, -0.00797923, -0.00419795, -0.0135927, 0.000911251, -0.00396069, -0.00152019, 0.00634177, 0.00408321, -0.00904044, -0.000505304, 0.0011456, 0.00595208, 0.0085294, 0.00567698, -0.00851078, 0.00602055, -0.0046334, 0.00127751, 0.00812989, -0.0010796, 0.000608921, 0.00679652, -0.00740108, 0.00301639, 0.00253712, -0.00517299, -0.00470141, 0.00280636, 0.000479149, 0.00120366, -0.0149493, 0.00091363, -0.00430361, 0.0110719, -0.00400712, 0.00944028, 0.0053936, -0.00113988, -0.00193394, 0.00296805, -0.00332897, 0.000275851, 0.00331994, -0.000140968, -0.00373032, -0.00395578, -0.00469126, 0.000125868, 6.57068e-05, -0.000852803, 0.00301826, -0.014977, 0.000519136, 0.000901499, -0.00142777, 0.00567563, 0.00495899, -0.00195764, -0.00244935, 0.00399111, 0.0036853, -0.00489423, 2.50844e-05, 0.00242484, -0.00163474, 0.0063106, -0.00808919, -0.012233, 0.00505228, 0.0059154, 0.00162139, 0.000134881, 0.0041135, 0.00850903, 0.00283271, -0.00435793, 0.00247694, 6.66449e-05, -0.0040137, 0.00643784, -0.00359898, 0.000917217, -0.00205678, 7.33676e-16
-0.00382735, -0.00206695, -0.000426068, -0.000799957, 0.00176082, -0.00304025, -0.00219867, -0.00586718, 0.012003, -0.00098611, -0.00504464, -0.00169203, -0.0114755, 0.00570992, -0.00375987, 0.00609032, -0.00541341, 0.00452896, 2.44725e-06, -0.0074544, -0.00236883, 0.00231561, -0.00491414, -0.00190337, -5.05913e-05, -0.00363859, 0.00837964, -0.000559644, -0.0061493, 0.00619458, 1.36914e-05, -0.00283995, -0.00198166, -0.00275021, -0.00646202, 0.000136638, -0.00342841, 0.00620631, -0.00082173, -0.000364287, 0.0078249, -0.00146178, 0.0052709, -0.00493434, 0.00347464, 0.00042924, 0.00730917, 0.000691805, 0.00057801, -0.00461348, 0.00375046, 0.0065748, -0.00248032, 0.00216766, 0.00703118, 0.00407631, -0.00190198, -0.00872158, -0.00154569, 0.0026053, -0.00311065, 0.00316557, -0.00738754, -0.00327457, -0.000515022, -0.000480769, -0.00763034, 0.00530006, -0.00494296, -0.000760757, 0.00616326, 0.00155865, -0.00792587, -0.0011309, -0.00168222, 0.00469615, -0.000188021, -0.00364746, -0.00596529, -0.0013366, -0.00627474, -0.00514712, -0.000385967, 0.00901615, 0.00824096, 0.00849082, 0.00599628, -0.00325123, -0.00146743, 0.00567796, -0.00325409, 0.00182226, -0.00184614, 5.6975e-05, -0.0014474, -0.00442095, 0.010066, 0.00124892, 0.00387708, 0.00867997, -0.00231335, -0.00326562, 0.00889892, -0.00532819, -0.00106496, -0.00468639, 0.00181366, -0.00731535, -0.00662249, 0.00333931, -0.00237249, 0.000453392, -0.00461423, -0.0018088, -0.0117918, -0.00320357, 0.000397109, -0.00257587, -0.00262466, -0.000483781, -0.0132148, -0.00303785, 4.18159e-05, 0.00695228, -0.00892872, 0.00982683, -8.30931e-05, 0.00440019, -2.7523e-16
-0.00105215, 0.00172494, -0.000167562, 0.000624278, -0.00349054, 0.00170204, 0.00157408, 0.00165735, 0.00187621, -0.00191265, -0.00260879, -0.00186099, -0.00171491, -0.000538731, 0.00278602, 0.00085904, -0.00114747, -0.00145602, 3.07761e-05, 0.00248008, -0.00156699, 7.93497e-05, 0.0018335, -4.37141e-05, 0.00322095, -0.00193232, -0.0012986, 0.00156659, -0.0014343, 0.00128428, -0.000928153, 0.00192815, 0.00205144, 0.00118253, 0.00220248, -0.000341812, -0.000424212, -0.00175119, -0.00108454, 0.000733181, -0.00115181, 0.00103434, 0.000367332, 0.00298743, -0.00283845, -0.00261475, -0.00120316, -0.00273528, -0.000140701, -0.00164846, -0.000110082, 0.00091322, 0.000763253, -0.00185678, 0.000247877, 0.000409825, 0.00113492, 0.00319568, 0.00168216, -0.0014912, 0.000702655, -0.000865865, -0.00328452, 0.00154355, -0.000972699, 0.000111445, 0.00256835, -0.00127233, -0.00090322, 0.00114283, -0.000767972, -0.000289455, 0.00191109, -0.000949359, -0.000240693, -0.00278392, 2.73073e-05, -0.00184107, 0.00314674, -0.00179114, -0.00101536, 0.00233781, -0.000181956, -0.000528853, 0.00145182, -0.000833746, 0.000483933, 0.000759099, -0.000139296, -0.00105255, -0.0013957, -0.00118546, -0.000930862, 5.49639e-05, -0.000766393, 0.000360255, -0.00236476, 0.000641154, -5.41611e-05, 0.00132887, 0.00140673, 0.00228102, 0.00100433, -0.00152207, 0.00122353, -0.000661883, -0.00141523, 0.000414829, 0.00191528, 8.07061e-05, 0.00234859, -0.0016511, -0.00421312, 0.00363227, 0.00223081, -0.000750914, -1.32478e-05, 0.00201581, 0.00225758, 0.000794318, -0.00124463, 0.00209245, 3.32312e-05, -0.000587366, 0.00248772, 9.65863e-05, -0.000148496, -0.000312742, -1.6363e-16
0.00180327, -0.000344789, -4.47802e-05, -0.000475326, -0.000920247, -0.0003056, -0.000604083, 0.000551955, -0.000941637, -0.00303425, -0.00228995, -0.00231327, 0.00108192, 7.70387e-06, 0.000192159, -0.00101282, 0.000656298, -0.000729333, -5.58811e-05, -0.000655525, -0.00243619, -0.000347168, 0.000135379, -1.33266e-05, -0.000522548, -0.00177675, -0.00260396, -0.000254726, -0.00207508, -0.000794835, -0.00120726, -0.000328276, -0.000159082, -0.000618349, -0.000861678, -0.000673488, -0.000310284, -0.000238769, -0.00116512, -5.9866e-05, 0.000257611, -0.00120908, 0.000387889, 0.000118326, 0.00109148, -0.000691509, -0.000544696, -0.000727632, 2.77452e-05, -0.00202153, -6.81296e-05, 1.53796e-05, -0.00106204, -0.000437968, -0.000125138, -0.000307653, -0.00075622, -0.000258883, -0.000637042, -0.00204422, -0.000472508, -0.000502313, -0.00315439, -0.000753875, -0.00122053, -0.000100459, -0.000604799, -0.000437857, -8.05355e-05, -0.00017563, -0.000651918, -0.00272896, 0.000686357, -0.00159982, 7.89245e-05, 0.00107953, 0.000263981, -0.00221223, -0.001485, -0.00228759, -0.0013095, -0.00084729, -0.000286443, -0.000120836, -0.000110514, 0.0010131, 0.0001594, -9.42313e-05, 9.38326e-05, -0.000851362, -0.00245702, -0.00165356, -0.000417193, -0.000185536, -0.000786856, -0.000142063, -0.00324949, 0.000280882, 0.000333901, -0.00166458, -0.0023004, -0.000311023, 0.00260778, -0.00175589, -0.000439582, -0.0011337, -0.00203966, -6.17385e-05, 0.000667775, 0.000140654, 0.000266052, -0.000363827, -0.000527406, 0.00082533, 0.000723677, -0.000624017, -7.84046e-05, -0.000296315, -0.000635827, -0.000478836, -0.00193886, -0.000147748, -0.00018628, 0.00117931, -0.000505841, 0.00256529, -0.000208572, -0.00133012, -2.11298e-15
0.00412234, -0.006641, -0.00397199, -2.72572e-05, 0.00707616, -0.000784793, -0.00266613, 0.0020324, 0.0144677, 0.00501489, -0.0103135, 0.00108757, -0.0159786, 0.00957024, 0.00467472, 0.0110046, 0.00412604, 0.00525254, 1.19225e-05, -1.65532e-05, 0.00318074, -0.00638868, -0.00115217, -0.00399676, -0.000234097, -0.00112173, 0.00754112, -0.000510399, 0.00544658, 0.0114785, -1.03283e-05, -0.00733565, -0.00257811, -0.000508565, -0.000302144, 0.00171182, -0.00280646, 0.0113125, 0.000325975, -0.000315978, 0.0088899, -0.00255859, 0.00957479, -0.000762967, 0.0112707, 0.00864726, 0.00931432, 0.0102215, -0.00839002, 0.000507207, 0.00601811, -0.0136846, 0.000297934, 0.00545107, 0.00995258, 0.00700302, -9.09492e-05, 0.00117762, -0.000678155, 0.0107171, -0.000381626, 0.00941095, -0.0120936, -0.00121451, -0.000160603, 0.000458775, 9.55653e-05, 0.00824589, -0.000917191, -0.000285067, 0.00721112, 0.00956615, 0.00307067, -0.0056267, -0.00859868, 0.011459, 4.15419e-05, -0.000178002, -0.0013373, 0.0041944, -0.00347324, -0.00108482, -0.00308377, 0.00801206, 0.0139748, 0.00972947, 0.00977353, 0.00165212, -0.00268278, 0.00421449, 0.00911927, 0.0075396, 0.00109673, 2.97715e-05, -0.00832916, -0.000298352, 0.011637, -0.00254668, 0.00962635, 0.012673, -0.00157498, -5.3456e-05, 0.0115357, 0.0023413, -0.000387169, -0.00159957, 0.00858806, 0.00054145, 0.00168505, 0.0070706, -0.000303608, 0.00571146, -0.00145074, -0.00121105, 0.00291146, -0.0103316, -0.00621826, 0.00056786, -0.00911834, -1.44744e-05, -0.00328832, 0.000110139, 3.35326e-05, 0.0087353, 0.000528059, 0.0110449, -0.0130992, 0.00720525, 2.12517e-16
-1.74943e-05, 4.74378e-06, -7.50747e-05, -8.99981e-05, -3.12961e-05, -9.84568e-05, -1.67635e-05, -1.94106e-05, 1.08088e-05, -0.00010361, 3.28527e-05, -8.61138e-08, -4.55489e-05, -8.23785e-05, 3.50381e-05, -1.14409e-05, 6.79807e-05, -1.98973e-05, -9.53843e-06, 1.21569e-05, -1.42796e-05, 8.90264e-05, -2.9999e-05, -5.81591e-05, -1.15033e-05, -4.98197e-05, -3.9387e-06, -6.7705e-05, -2.31829e-05, 3.87993e-05, -3.44103e-06, 7.01523e-05, -4.17738e-05, -8.75522e-05, -2.69971e-05, -9.76124e-05, -1.6872e-05, -3.53474e-05, -8.81253e-05, -4.69856e-05, 1.7469e-06, 8.98038e-05, -1.26833e-05, 5.6335e-05, -1.36983e-05, 7.707e-05, -1.98101e-05, 1.10335e-05, -6.26589e-05, -5.36782e-06, -7.49685e-05, -5.24088e-05, -5.7558e-05, 2.24235e-05, -1.84982e-05, -6.80686e-06, -1.05916e-05, 0.000105512, 6.70935e-05, -3.73417e-05, 4.88255e-06, -6.42954e-05, -3.26605e-06, -9.50454e-05, -0.000127541, -8.66766e-05, -6.76588e-05, -3.85027e-05, 5.85142e-05, -7.80397e-05, 3.04754e-05, 5.95667e-06, -2.64387e-05, -1.24814e-05, -4.41536e-05, -8.61235e-05, -0.000125856, -4.07509e-05, -6.47497e-05, 6.38479e-06, -1.77606e-05, -9.2728e-05, -0.000133339, -3.55828e-05, 2.6062e-05, -2.19606e-05, -7.70225e-05, 8.75583e-06, -0.000109923, -8.2875e-05, -4.40952e-05, 7.60881e-05, -2.14026e-06, 2.02373e-05, -9.70609e-05, 1.52297e-05, 2.8273e-06, 5.78154e-06, -3.81154e-05, -6.41203e-06, 3.89685e-06, -1.24083e-05, 0.000136435, -0.00011753, -4.77087e-05, -2.82652e-05, -2.90092e-05, -5.99701e-05, -3.22642e-05, 5.51815e-05, -6.38257e-05, -4.30285e-05, -1.86797e-05, -4.66615e-05, 1.21685e-05, 0.00011593, 0.000100346, 1.08582e-05, 6.00778e-05, -5.7252e-05, -6.73887e-05, 7.06212e-05, -6.80812e-05, -4.98461e-05, 7.65807e-05, 1.36524e-05, -4.36244e-05, -3.82461e-05, 2.6511e-16
-0.00173674, 0.00139097, -0.00065054, 0.000695058, -0.00426749, 0.00199522, 0.00244231, 0.000293656, -0.00486913, -0.00312269, 0.00116542, -0.00258013, 0.00147624, -0.00434958, -0.000794194, -0.00321073, -0.00155601, -0.00185794, 5.61705e-05, 0.0018163, -0.00212636, 0.00011272, 0.00257709, -5.83205e-05, 0.00256488, -7.11277e-05, -0.001758, 0.00102313, -0.00181303, -0.00306795, 0.000212135, 0.00162667, 0.00252346, 0.00145165, 0.00194927, -0.00109108, -0.000937311, -0.00455744, -0.00168533, 0.000514825, -0.00270393, 0.00116859, -0.00347304, 0.0029766, -0.00413481, -0.00400576, -0.00278594, -0.00427511, -0.000458557, -0.00150049, -0.00226975, 0.000410562, 0.000476127, -0.00257396, -0.0040067, -0.00328537, 0.00221597, 0.00314413, 0.00152331, -0.00476423, 0.00188435, -0.00389902, 0.00143516, 0.00221531, 0.000159637, -0.000159877, 0.0020981, -0.00322386, 0.00160447, 0.000890232, -0.0023758, -0.00228184, 0.000836149, -0.00145661, 0.000253818, -0.00433351, 0.000269671, -0.00176577, 0.0038023, -0.00269196, 0.00331764, 0.0024655, -0.00067329, -0.00190175, -0.00401769, -0.002421, -0.00344505, 0.000255541, -0.000122914, -0.00139916, -0.00272503, -0.00336678, -0.000496016, 0.00010335, 0.000359912, 0.000632314, -0.00363089, -0.000279038, -0.00378861, -0.00366979, 0.00252358, 0.00155359, -0.00231379, -0.00144407, 0.00106558, 0.0014727, -0.00388032, -3.07216e-05, 0.00104195, -0.00215702, 0.00201687, -0.00262797, -0.000936643, 0.00275183, 0.0023295, 0.000537494, -0.000254565, 0.00111956, 0.00204784, 0.00067072, 0.000315202, 0.000419619, 0.000100153, -0.00279743, 0.00183134, -0.00337515, 0.000880139, -0.00287812, 2.80302e-16
-1.36574e-05, 0.00294216, 0.000138401, 0.00130556, -0.00362723, 0.00251995, 0.00166351, 0.00229944, 0.00423905, -0.00339224, -0.00283598, -0.00322022, -0.00340719, -0.00219875, 0.00193102, 0.00122279, -0.000410597, -0.00244912, 4.59539e-05, 0.00166637, -0.00308032, 0.00112444, 0.0022012, 8.09753e-05, 0.0027769, -0.00341161, -0.00403916, 0.00255528, -0.00215124, 0.00275115, -0.00260817, 0.00200642, 0.00379866, 0.00180668, 0.00180896, -0.000610232, -0.00107408, -0.00245642, -0.00173824, 0.00154095, -0.000851178, 0.00321692, -0.000680073, 0.00324278, -0.00448473, -0.00362575, -0.00208322, -0.00395354, 0.00127871, -0.00264368, -0.00123496, 0.00301513, 0.00228144, -0.00308668, 8.84389e-05, 0.00110434, 0.00115627, 0.00277857, 0.00312817, -0.00114351, 0.00183804, -0.00104628, -0.00478053, 0.00284909, -0.00193837, -1.81278e-05, 0.0018485, -0.0021932, 0.00114475, 0.00243485, -0.000912111, -0.00281331, 0.000790583, -0.000634624, 0.00131815, -0.00482569, 0.00049883, -0.00257714, 0.00504951, -0.0023667, 0.000914726, 0.0032661, -0.000176133, -0.00232264, 0.00284037, -0.00105667, 0.000360397, 0.00110573, 3.86676e-05, -0.00101886, -0.00249439, -0.00185896, -0.00122921, 3.37097e-05, -0.000371391, 0.00251442, -0.00431259, 0.00021362, 0.000550346, -0.000434978, 0.00416387, 0.00191781, -0.000239333, -0.00210136, 0.002221, -0.000713512, -0.00273475, -0.000443933, 0.000965715, -0.00253115, 0.00263964, -0.0024613, -0.00796361, 0.00293121, -0.000511602, 0.000277948, 0.000824969, 0.00210042, 0.00312286, 0.00245906, -0.00566992, 0.000943487, 7.20439e-06, 0.000466075, 0.00240769, 0.000946087, 0.00151084, -0.000332779, -4.49744e-18
0.00123997, 0.000447648, 0.000331611, -0.000584725, -0.00119774, -0.000665773, 0.000384959, 0.000131625, -0.00186955, -0.00101571, 0.00123843, -4.97041e-05, 0.00250511, -0.00176025, 0.00099461, -0.000809212, 0.000943594, -0.00107655, -0.000123194, -0.00103408, 0.000394041, 0.0017415, -0.00112111, -4.24133e-05, -0.000180237, 0.000470807, -0.00137252, -0.000765288, -0.000164344, -0.00072907, -0.000247451, 0.00187798, -0.000408669, -0.000518766, -0.000793936, -0.000790716, 0.000448931, -0.00416429, -6.35188e-05, -0.000654109, -0.000567873, 0.00029193, -0.00185285, -0.00146598, -0.00563457, -0.00227967, -0.00129223, -0.00398817, 0.00064587, -0.000532716, -0.00117755, 0.000914793, 6.3474e-05, -0.000784624, -0.00250935, -0.0014488, 4.69731e-05, -0.000188693, -0.000661874, -0.00342816, -0.000569382, -0.00309936, 0.00250086, -0.000502134, -0.00034321, 0.000129671, -0.000911934, -0.000961233, -0.000543574, -0.000904816, -5.83832e-05, -0.00138713, 6.97375e-05, 0.0013632, 0.000661876, -0.00610543, -0.000130906, -0.000406691, -0.000302309, -0.00103621, 0.000457529, -0.000610535, 0.000241605, 5.58898e-05, -0.00195562, -4.5102e-05, -0.00183977, 0.000358111, -6.49724e-05, -0.000705464, -0.00126159, -0.00079536, 9.97893e-06, -0.000169191, 0.00106094, -0.000212133, -0.00177174, 0.000751888, -0.00126625, -0.00162243, -0.000268575, -0.000935474, -0.00147665, -0.00023205, -0.000671384, -8.67662e-05, -0.00188964, 0.001474, 2.32675e-05, -0.000659861, -0.000810141, -0.0023898, -0.000345895, -0.00067323, 0.000339061, 0.000785877, 0.000751737, 0.000218643, 0.0012556, -0.000798365, 0.00102025, 0.000395538, -5.47664e-05, -0.000406521, -0.000441408, -0.00131078, 0.000535163, -0.00260214, 1.6553e-16
0.00158533, 0.00194528, 0.000961216, -0.000498097, -0.00252242, -0.00115812, 0.00124643, -6.24465e-05, -0.00543653, -0.00194592, 0.00479611, -0.000522966, 0.00420282, -0.00402708, 0.00193892, -0.00440828, 0.00092049, -0.00148338, -2.10185e-05, -0.00278669, 0.000144538, 0.00211261, -0.00135113, 4.95038e-05, -5.26726e-05, 0.00117327, -0.00368033, -0.000784981, -0.00130557, -0.00350118, -0.000711124, 0.00455571, -0.000165886, -0.000764555, -0.00158712, -0.00127702, -0.000451457, -0.00872663, -0.000200632, -0.000639066, -0.00175885, 0.000452677, -0.00457058, -0.00310627, -0.011023, -0.00480264, -0.00302352, -0.00694778, 0.00131749, -0.000810607, -0.00297102, 0.00248383, -9.12926e-05, -0.00234099, -0.00586307, -0.00353257, -0.000560202, -0.00137796, -0.000762735, -0.00658921, -0.00128499, -0.00727601, 0.00711641, -0.000645451, -0.000274901, 0.000537796, -0.00169309, -0.00287608, -0.000455416, -0.000980721, -0.00118862, -0.00371971, -0.000106005, 0.00100659, 0.00201654, -0.011747, 5.08013e-05, -0.000853022, 0.00130512, -0.00213574, 0.000674278, 0.000113544, 0.000822757, -0.000508277, -0.00508552, -0.000573635, -0.00510305, 0.000142879, 0.000279113, -0.000954209, -0.00426908, -0.00240043, 0.00021864, 7.16268e-06, 0.0034961, -0.00108796, -0.00469776, 0.000434878, -0.00352893, -0.00731518, 0.000351944, -0.00167076, -0.00435206, 0.000222612, -0.00077935, 0.000343581, -0.00468236, 0.00131546, 0.000234371, -0.00134216, -0.00153342, -0.00405357, 3.51607e-05, 0.000350405, 0.000729633, 0.00325995, 0.0019982, -2.59768e-05, 0.00406226, -0.00078102, 0.00168158, 0.00305126, 6.43694e-05, -0.00113871, -0.00154072, -0.00365567, 0.00197093, -0.00536237, -1.4139e-16
0.000655201, 0.000473711, 0.00178715, 0.000311079, -0.00238552, 0.00164892, 0.00135763, 0.000760234, 0.0019166, -0.00154013, -0.00234337, 3.27045e-05, -0.00398753, 0.00212378, 0.000286412, 0.00332269, 0.000434603, 0.000959072, 7.03749e-06, 8.9691e-06, -0.00146847, 0.00315637, 0.00013869, -0.000157629, 0.0024961, -0.00139589, 0.00108115, 0.000482408, -0.00326237, 0.00155812, -0.00155988, 0.000578432, 0.00198898, 0.000678459, 0.000433757, -0.00019832, 0.000377252, -0.00172461, 0.000555508, 0.0003341, 0.00442449, 0.000528428, 0.00197537, 0.0016462, -0.000509986, -0.0022732, 0.00319203, -0.00168629, 0.00385479, -0.00208976, 0.00122033, 0.00514827, -8.18187e-05, -0.000903585, 0.00199047, 0.00129731, 0.000705273, 0.0025305, 0.000679253, -0.000681223, 0.000622801, -0.00177975, -0.00144402, 0.00130772, 4.89741e-05, -0.000232048, 0.000663391, 0.00317196, 0.000665872, 0.000469838, 0.00359851, 2.83129e-05, 0.00100487, 0.00197427, 0.00259099, -0.00087936, 0.00012517, -0.00128348, 0.00378607, -0.00179628, 0.000528609, 0.00231802, 0.00143103, 0.00582033, 0.00181603, 0.00626004, 0.00314777, 0.000264713, 0.000174189, 0.00127889, -0.00103378, -0.000119032, 0.000245387, 2.14106e-05, 0.0023016, 0.000168211, 0.000711423, 0.00093374, 0.000815227, 0.00202894, 0.00280204, 0.00100846, 0.00788804, -0.0021755, 0.000459902, 3.69739e-05, -0.000485881, -0.00189205, 0.00133448, 0.00160507, 0.00175015, -0.000982819, -0.00174317, 0.0014897, 0.00142008, 0.00203074, 0.00284328, 0.000329182, 0.00124213, 0.000353359, -0.00520597, 0.000354773, 1.17791e-05, 0.00401974, 0.000779544, 0.00640696, 0.00239174, 0.0010182, -1.45302e-16
0.00145518, 0.001159, 0.00045476, 0.000455391, -0.00903793, 0.00310101, 0.00314798, 0.00151056, -0.000510909, 0.000810373, -0.0041037, 0.000492722, -0.000121331, -0.00405998, 0.00148711, 0.000573492, 0.00082118, -0.00283059, -3.82767e-05, 0.0039645, 0.00141936, 0.00114618, 0.00190377, -0.000112289, 0.00479215, -0.004348, -0.00632538, 0.000696962, 0.00220773, 0.000458364, -0.00337513, 0.00212959, 0.00395915, 0.00228716, 0.00327991, 0.000622024, 0.0015457, -0.00700473, 0.000615998, 4.53334e-05, -0.00426571, 0.00204356, -0.00300961, 0.00289443, -0.00247958, -0.00802926, -0.000296608, -0.0022131, 0.0011953, 0.000692947, -0.0026101, 0.00250414, 0.00109194, -0.00445878, -0.0031447, -0.00117272, 0.00263726, 0.00704153, 0.00192811, -0.00135707, 0.00211367, -0.00380367, -0.00114744, 0.003599, -0.00105132, 0.000332494, 0.00515243, -0.00361544, 0.00107557, 0.000440684, -0.00359444, 0.00114995, 0.00180454, 0.00244931, 0.00120618, -0.00217805, 0.000415128, 0.000836487, 0.00492466, 0.000999195, 0.00427228, 0.00181639, 0.000304887, -0.00212928, -0.00120762, -0.0037103, -0.00216394, 0.00136097, -0.00011622, -0.00234361, 0.00236476, -0.000621605, 0.00186906, -0.000126935, 0.00145767, 0.000712494, -0.00871157, 0.0010559, -0.00214971, 0.000792601, 0.00181635, 0.00245123, -0.00345761, 0.00109375, 0.00134348, 0.00585837, 0.0012715, -0.000715862, 0.00107386, -0.00222078, 0.00340859, -0.00123375, -0.00295093, 0.00112256, 0.0059994, 0.00317705, 0.000927869, 0.00149247, 0.0029325, 0.000793339, -0.00178865, 9.47394e-06, -0.00010413, -0.00420846, 0.00584709, -0.00522604, 0.00214824, 7.462e-05, -4.78837e-17
0.00159834, -0.000219093, 7.12274e-05, -0.000603489, -0.00201131, -0.000572204, 0.000233396, 0.000829121, -0.00291678, -0.00116489, -0.000261215, -0.000554764, 0.000651356, -0.0024859, 0.000995843, -0.00187662, 0.00142676, -0.00111755, -0.000133584, -0.000210718, 0.000324328, 0.00129862, -0.00135686, -0.000265814, -9.31615e-05, -0.000131625, -0.00160143, -0.000968572, 0.000491614, -0.00114367, -0.000583641, 0.00065812, -0.000700907, -0.000632522, -0.000385005, -0.000806791, 0.00030957, -0.00373163, -0.000276942, -0.000790493, -0.00169111, -0.000179183, -0.0021684, -0.00144834, -0.00440494, -0.00255417, -0.00194401, -0.00326443, 0.000374679, -0.000637379, -0.00149125, 0.00063127, 0.00031137, -0.000354798, -0.00300148, -0.00188854, 0.000121682, 0.00120668, -0.000854341, -0.00349217, -0.000850828, -0.00240753, 0.00198497, -0.000686275, -0.000385766, -4.48808e-05, 0.000126014, -0.00223605, -0.000108992, -0.000987528, -0.00103245, -0.00137847, 0.00151968, 0.000886536, 0.000586171, -0.00496072, -9.40513e-05, -0.000711403, 0.000736332, -0.000998778, 0.000119218, -0.000267, -7.6453e-05, -0.000316913, -0.00200094, -0.00078177, -0.00220341, 0.00106394, -0.000229718, -0.000999549, -0.00055809, -0.00202927, 0.000745527, -0.000238683, 0.000848447, 0.000332581, -0.00198738, 0.000451162, -0.0016544, -0.00222504, -0.000244374, -0.000633243, -0.00213429, -8.08364e-05, -0.000765307, 0.000935475, -0.00186066, 0.000503498, 0.00114748, -0.000851027, -0.000784727, -0.00207306, 0.000308678, -0.00126075, 0.00269924, 0.00108312, 0.000373064, 0.000766888, 0.000205734, -0.000800593, 0.000519109, -0.000585255, -0.000214919, -0.00135746, 0.000769691, -0.00272687, 0.000648856, -0.00290083, -7.27306e-17
0.00443116, 0.000116021, -0.000430529, 7.79342e-05, -0.00525696, 0.000573344, 0.000355919, 0.00198192, -0.000391127, -0.00948176, -0.00883172, -0.00811347, 0.00230915, 7.79916e-06, 0.000753673, -0.00173897, 0.00134086, -0.00224053, 2.21995e-05, -0.000435668, -0.007897, -0.000374035, 0.00112771, 0.000610198, -0.000205695, -0.00847307, -0.00888629, -0.000921864, -0.00682965, -0.000966368, -0.00492742, 0.000489794, 0.00138517, -0.000173164, -0.000977268, -0.00184818, -0.00150819, -0.00178609, -0.00423346, -9.17066e-05, 0.00068155, -0.00098664, 0.00124568, 0.00113128, 0.00303459, -0.00467412, -0.00192461, -0.00354499, -0.000136672, -0.00672309, 4.7694e-05, 4.58148e-05, -0.00139992, -0.00279562, 0.000786574, 0.000284163, -0.00196001, -0.000819718, -0.00148827, -0.00625075, -0.000349773, -0.00112494, -0.011636, -0.000208649, -0.00472134, 7.33862e-05, -0.000457677, -0.00209797, -0.000998086, -0.0003667, -0.00245614, -0.00975474, 0.00146893, -0.00456537, -0.000442742, 0.00383923, 0.0013754, -0.00745726, -0.00438129, -0.00720309, -0.00191359, -0.00259977, -0.00078734, -0.00139225, 0.00107113, 0.0016539, 0.000972308, 0.0012324, 0.000677159, -0.00218678, -0.00835192, -0.00548058, -0.00083005, 7.09593e-05, -0.00294565, 0.000527972, -0.0109927, -1.92614e-05, 0.00126456, -0.00544236, -0.00425598, 0.000514025, 0.00584166, -0.00511741, -0.000400776, -0.00302434, -0.00770047, -0.0010264, 0.00152755, -2.21712e-05, 0.00142377, -0.00169052, -0.0036185, 0.000167994, 0.000999381, -0.00316395, -0.000776893, 0.000877723, 0.00010235, -4.78381e-06, -0.00808741, -0.00163179, -1.17141e-06, 0.00250636, 0.000934632, 0.00620794, -0.00037905, -0.00355866, -2.31721e-16
